SVM-light Version V6.02
1 # kernel type
8 # kernel parameter -d 
1 # kernel parameter -g 
1 # kernel parameter -s 
1 # kernel parameter -r 
empty# kernel parameter -u 
63 # highest feature index 
2823 # number of training documents 
115 # number of support vectors plus 1 
0.7073096 # threshold b, each following line is a SV (starting with alpha*y)
-1.766405870058915743025870352293e-10 2:0.875 3:0.5625 10:0.5 11:1 18:0.5 19:0.75 21:0.125 22:0.0625 26:0.75 27:0.5 29:0.8125 30:0.5625 33:0.071428575 34:1 35:0.25 37:1 38:0.5714286 41:0.3125 42:1 45:0.9375 46:0.375 49:0.5 50:1 51:1 52:1 53:1 54:0.75 57:0.1 58:0.5 59:0.5 60:0.5 61:0.8125 62:0.4375 # 0
-2.6178852130868189797962671785104e-11 3:0.5 4:0.875 5:0.1875 10:0.0625 11:1 12:0.9375 13:0.4375 18:0.4375 19:0.9375 20:0.3125 25:0.1875 26:0.875 27:0.875 28:0.3125 33:0.21428572 34:1 35:0.625 36:0.75 37:0.625 42:0.6875 43:0.3125 45:0.875 46:0.125 50:0.1875 51:0.6875 52:0.375 53:0.875 54:0.0625 59:0.4375 60:0.9375 61:0.375 # 0
-1.1032355405904084261934315885217e-09 2:0.5625 3:1 4:1 5:0.875 9:0.2 10:0.9375 11:0.625 12:0.125 13:0.3125 17:0.6875 18:0.5625 25:0.5 26:0.875 27:0.0625 33:0.071428575 34:0.9375 35:0.3125 42:0.6875 43:0.5625 50:0.5625 51:0.75 58:0.875 59:0.5625 # 0
1.0810214799917295452046543793311e-10 2:0.0625 3:0.875 4:0.8125 5:0.0625 10:0.75 11:1 12:1 13:0.75 17:0.0625 18:0.6875 19:0.875 20:0.6875 21:1 22:0.3125 25:0.1875 26:0.5 27:1 28:0.125 29:0.5 30:0.625 34:0.3125 35:0.875 37:0.5 38:0.5 42:0.4375 43:0.75 45:0.9375 46:0.1875 50:0.4375 51:0.875 52:0.6875 53:0.6875 58:0.125 59:1 60:0.8125 61:0.125 # 0
-3.7865775184755139718448141958101e-10 3:0.5 4:0.9375 5:1 6:0.4375 9:0.06666667 10:0.875 11:0.5625 12:0.0625 14:0.5 17:0.375 18:0.75 21:0.625 22:0.5 25:0.25 26:0.875 27:0.75 28:0.8125 29:0.875 30:0.5 36:0.0625 37:0.25 38:0.5714286 45:0.25 46:0.5 53:0.4375 54:0.5 59:0.5 60:0.75 61:0.9375 62:0.375 # 0
-2.0603641081383547724698703320929e-11 3:0.1875 4:0.625 5:0.0625 10:0.1875 11:0.9375 12:0.5625 14:0.25 18:0.75 19:0.75 21:0.25 22:0.6875 25:0.125 26:0.875 27:0.1875 29:0.8125 30:0.375 33:0.5 34:0.875 35:0.5 36:0.5625 37:1 38:0.14285715 41:0.3125 42:0.75 43:0.75 44:0.875 45:0.9375 46:0.0625 52:0.6875 53:0.375 60:0.8125 61:0.1875 # 0
-1.6939501526019612649308928805264e-10 2:0.0625 3:0.9375 4:0.75 10:0.375 11:1 12:0.9375 18:0.3125 19:1 20:0.5625 26:0.3125 27:1 28:0.375 34:0.1875 35:1 36:0.5 42:0.125 43:1 44:0.5 50:0.0625 51:1 52:0.5625 58:0.0625 59:0.8125 60:0.375 # 0
-9.7203410271000050637936956221888e-10 2:0.3125 3:0.9375 4:0.8125 5:0.125 10:0.875 11:0.8125 12:0.5625 13:0.8125 18:0.625 21:0.625 22:0.125 29:0.6875 30:0.1875 36:0.125 37:0.9375 43:0.0625 44:0.75 45:0.5625 50:0.625 51:0.75 52:1 53:0.875 54:0.125 58:0.3125 59:0.875 60:0.75 61:0.6875 62:0.25 # 0
-1.2276876361835847567215430977967e-10 2:0.0625 3:0.6875 4:0.6875 5:0.0625 10:0.5625 11:1 12:0.9375 13:0.1875 17:0.0625 18:0.9375 19:0.375 25:0.3125 26:0.875 33:0.5 34:0.6875 36:0.0625 37:0.125 41:0.25 42:0.875 43:0.3125 44:0.9375 45:1 46:0.4375 49:0.0625 50:0.75 51:1 52:1 53:0.75 54:0.9375 58:0.125 59:0.6875 60:1 61:0.875 62:0.5625 # 0
-3.2754069448129130474652902540436e-10 2:0.3125 3:0.75 4:0.9375 5:0.875 6:0.625 7:0.1875 10:0.25 11:0.4375 12:0.25 13:0.3125 14:0.875 15:0.23076923 21:0.5625 22:0.6875 28:0.25 29:1 30:0.25 33:0.14285715 34:0.5 35:0.5625 36:1 37:0.625 41:0.1875 42:0.75 43:1 44:0.5625 50:0.3125 51:0.875 58:0.375 59:0.5625 # 0
1.2223867253142147866959727055502e-10 3:0.75 4:0.8125 10:0.25 11:1 12:1 13:0.5625 18:0.125 19:1 20:0.375 21:0.875 25:0.25 26:0.1875 27:0.8125 28:0.4375 29:0.5625 30:0.3125 33:0.5714286 34:0.75 35:0.1875 36:1 37:0.75 38:0.5714286 42:0.875 43:0.3125 44:0.0625 45:0.75 46:0.5 50:0.625 51:0.875 52:0.8125 53:1 54:0.125 59:0.8125 60:1 61:0.375 # 0
5.9376072691800772470841386781962e-10 3:0.0625 4:0.75 5:0.25 10:0.0625 11:0.875 12:1 13:0.6875 18:0.5625 19:0.8125 20:0.3125 21:0.9375 22:0.25 25:0.125 26:1 27:0.125 29:1 30:0.1875 33:0.071428575 34:1 35:0.4375 36:0.4375 37:1 38:0.2857143 42:0.8125 43:1 44:1 45:1 46:0.0625 50:0.0625 51:0.8125 52:1 53:0.8125 59:0.1875 60:0.75 61:0.3125 # 0
-1.825331292397501115151852223937e-10 2:0.375 3:0.875 4:0.8125 5:0.125 9:0.66666669 10:1 11:0.5625 12:1 13:0.75 17:0.3125 18:1 19:1 20:1 21:1 22:0.1875 26:0.3125 27:0.5625 28:0.3125 29:0.5 30:0.5 37:0.5 38:0.5714286 44:0.0625 45:0.75 46:0.5 50:0.3125 51:1 52:1 53:0.9375 54:0.1875 58:0.25 59:0.9375 60:0.5625 61:0.125 # 0
-8.9342605316207440911971959569707e-11 3:0.1875 4:0.6875 5:0.9375 6:0.0625 10:0.375 11:1 12:1 13:1 14:0.5625 17:0.125 18:1 19:1 20:1 21:0.8125 22:0.875 26:0.6875 27:0.5 28:0.0625 29:0.5625 30:0.5625 36:0.0625 37:0.9375 44:0.375 45:0.625 52:0.75 53:0.1875 60:0.8125 # 0
7.2179483801211969516669978428388e-09 2:0.125 3:0.8125 4:0.75 5:0.25 9:0.06666667 10:0.9375 11:0.75 12:0.1875 13:0.8125 14:0.125 17:0.5 18:0.8125 19:0.5 21:0.375 22:0.25 25:0.5 26:0.25 27:0.1875 29:0.1875 30:0.5 33:0.35714287 34:0.3125 37:0.375 38:0.42857143 41:0.0625 42:0.875 43:0.0625 45:0.5 46:0.1875 50:0.5 51:0.5 52:0.3125 53:0.8125 54:0.0625 59:0.6875 60:0.9375 61:0.375 # 0
3.5973666804086143527926070085482e-10 3:0.5 4:0.9375 5:0.25 11:0.8125 12:1 13:0.8125 17:0.0625 18:0.0625 19:0.625 20:0.1875 21:0.8125 22:0.375 25:0.3125 26:0.5 29:0.375 30:0.5 33:0.5 34:0.6875 37:0.25 38:0.5714286 41:0.1875 42:0.9375 43:0.4375 45:0.25 46:0.5625 50:0.4375 51:1 52:0.8125 53:0.6875 54:0.75 59:0.375 60:0.9375 61:1 62:0.25 # 0
-5.4650475209358636441506565451843e-10 2:0.3125 3:0.75 4:0.5 10:0.8125 11:0.375 12:0.0625 17:0.125 18:0.875 19:0.0625 25:0.25 26:0.875 28:0.1875 29:0.0625 33:0.5 34:0.6875 35:0.8125 36:0.8125 37:0.8125 38:0.35714287 41:0.25 42:1 43:0.5 45:0.125 46:0.75 49:0.0625 50:0.9375 51:0.375 52:0.125 53:0.75 54:0.1875 58:0.375 59:0.8125 60:0.75 61:0.25 # 0
-2.6260476069154864551887001078087e-10 1:0.25 2:0.6875 3:0.1875 5:0.125 9:0.13333334 10:0.8125 11:0.75 12:0.3125 13:0.9375 14:0.375 18:0.6875 19:0.875 20:0.875 21:0.0625 26:0.4375 27:0.9375 28:0.0625 34:0.9375 35:0.75 36:0.3125 41:0.25 42:0.625 43:0.25 44:0.5 49:0.4375 50:0.5625 51:0.4375 52:0.5 57:0.2 58:0.875 59:0.9375 60:0.3125 # 0
-7.4721579879312749648567476416002e-10 2:0.1875 3:0.5625 4:0.5 10:0.9375 11:0.5625 12:0.0625 17:0.25 18:1 19:0.5 20:0.125 25:0.3125 26:1 27:0.75 28:0.75 29:0.6875 30:0.0625 33:0.2857143 34:0.75 37:0.3125 38:0.71428573 41:0.0625 42:0.875 43:0.1875 45:0.0625 46:0.875 47:0.25 50:0.625 51:0.375 52:0.3125 53:0.875 54:0.8125 58:0.25 59:0.8125 60:0.875 61:0.5 # 0
-6.5989403026096270906690938905974e-10 4:0.4375 5:0.4375 11:0.25 12:0.9375 13:0.0625 19:0.8125 20:0.375 21:0.5625 22:0.0625 26:0.5 27:0.75 29:0.875 30:0.1875 33:0.21428572 34:1 35:0.1875 36:0.125 37:1 41:0.3125 42:1 43:1 44:0.8125 45:1 46:0.25 50:0.0625 51:0.4375 52:0.75 53:0.875 54:0.125 60:0.5625 61:0.625 # 0
-1.1185380795447631655238650938994e-10 3:0.0625 4:0.4375 5:0.9375 6:0.3125 10:0.3125 11:0.8125 12:1 13:1 14:0.5 17:0.25 18:0.9375 19:0.6875 20:0.3125 21:1 22:0.4375 25:0.0625 26:0.25 28:0.1875 29:1 30:0.25 36:0.25 37:1 44:0.5 45:1 52:0.75 53:1 60:0.75 61:0.75 # 0
-2.5756285066918838293768518919394e-11 1:0.125 2:0.4375 3:0.6875 4:0.8125 5:1 6:0.875 10:0.5 11:0.4375 12:0.25 13:0.6875 14:0.625 20:0.0625 21:1 22:0.0625 28:0.6875 29:0.375 33:0.14285715 34:0.6875 35:0.75 36:1 37:0.8125 38:0.2857143 41:0.3125 42:0.5625 43:1 44:0.375 45:0.125 50:0.25 51:0.75 58:0.8125 59:0.1875 # 0
-2.2120309404743814753713226669131e-10 2:0.375 3:0.9375 4:0.75 5:0.0625 10:1 11:0.5625 12:0.9375 13:0.875 14:0.125 17:0.375 18:0.875 20:0.125 21:1 22:0.375 25:0.3125 26:0.9375 27:0.3125 28:0.375 29:1 30:0.25 34:0.375 35:0.75 36:0.75 37:0.9375 38:0.5714286 45:0.8125 46:0.4375 49:0.125 50:0.875 51:0.25 52:0.4375 53:1 54:0.125 58:0.4375 59:0.9375 60:0.9375 61:0.3125 # 0
-2.57059759966272439981499203386e-10 3:0.625 4:0.875 5:0.5625 10:0.625 11:0.875 12:0.375 13:0.25 17:0.0625 18:1 19:0.3125 25:0.375 26:0.75 33:0.5 34:0.625 35:0.0625 36:0.25 37:0.0625 41:0.125 42:0.9375 43:1 44:0.875 45:0.875 46:0.0625 50:0.75 51:0.75 52:0.25 53:0.875 54:0.6875 58:0.0625 59:0.625 60:0.8125 61:0.75 62:0.25 # 0
1.6135424202558424338563537321872e-09 2:0.375 3:0.625 4:0.9375 5:0.6875 6:0.0625 9:0.06666667 10:0.9375 11:0.5625 12:0.375 13:0.75 14:0.25 17:0.3125 18:1 21:0.3125 22:0.375 25:0.25 26:0.875 29:0.375 30:0.5 33:0.42857143 34:0.5625 37:0.75 38:0.14285715 41:0.4375 42:0.5625 44:0.375 45:0.6875 49:0.1875 50:0.9375 51:0.5 52:0.9375 53:0.25 58:0.625 59:0.875 60:0.3125 # 0
2.2372488144328031822544733679854e-09 2:0.0625 3:0.875 4:0.4375 10:0.375 11:0.875 12:0.75 13:0.375 18:0.6875 19:0.6875 21:0.75 26:0.8125 27:0.5 29:0.4375 30:0.3125 34:0.9375 35:0.375 37:0.3125 38:0.5714286 42:0.75 43:0.1875 45:0.625 46:0.5625 50:0.625 51:0.625 52:0.5625 53:0.9375 54:0.25 58:0.125 59:0.6875 60:0.875 61:0.4375 # 0
-3.2368649684110029383285202345165e-10 2:0.1875 3:0.9375 4:0.0625 10:0.8125 11:0.8125 17:0.125 18:1 19:0.0625 25:0.4375 26:0.625 28:0.0625 29:0.1875 33:0.5714286 34:0.5625 35:0.25 36:0.9375 37:0.9375 38:0.14285715 41:0.1875 42:1 43:0.375 45:0.5625 46:0.5 50:1 51:0.875 52:0.5625 53:0.9375 54:0.4375 58:0.1875 59:0.8125 60:1 61:0.5625 # 0
-6.3014589011358757146785447277737e-11 2:0.125 3:0.375 4:0.75 5:1 6:1 7:0.125 9:0.13333334 10:0.9375 11:1 12:0.5625 13:0.3125 14:1 15:0.38461539 18:0.3125 19:0.0625 21:0.125 22:1 23:0.33333334 29:0.5 30:0.625 36:0.25 37:1 38:0.5 42:0.625 43:0.8125 44:1 45:0.8125 46:0.0625 50:0.5625 51:0.8125 52:1 53:0.0625 59:0.4375 60:0.75 # 0
-6.299277161726993266691308349028e-11 2:0.5 3:0.8125 4:0.375 9:0.13333334 10:1 11:0.75 12:0.6875 13:0.625 18:1 19:1 20:0.875 21:0.5 22:0.0625 26:0.8125 27:0.6875 33:0.14285715 34:0.9375 35:0.25 42:1 43:0.8125 49:0.125 50:0.9375 51:1 52:0.125 58:0.6875 59:1 60:0.25 # 0
2.5763757128547908214333736883145e-09 2:0.25 3:0.875 4:0.3125 10:0.8125 11:0.4375 12:0.6875 13:0.25 14:0.125 17:0.125 18:0.8125 20:0.375 21:0.875 22:0.25 25:0.1875 26:0.5625 28:0.1875 29:0.875 30:0.4375 33:0.35714287 34:0.5 36:0.25 37:0.6875 38:0.5714286 41:0.25 42:0.5 45:0.0625 46:0.75 49:0.0625 50:0.875 51:0.125 53:0.625 54:0.4375 58:0.1875 59:0.9375 60:1 61:0.8125 62:0.125 # 0
-8.0933660869988041167420645491951e-11 2:0.25 3:1 4:1 5:0.25 10:0.625 11:1 12:1 13:0.8125 18:0.1875 19:0.8125 20:0.6875 21:1 22:0.125 29:0.8125 30:0.5 37:0.6875 38:0.64285713 45:0.8125 46:0.5625 52:0.5 53:1 54:0.3125 58:0.1875 59:1 60:1 61:0.6875 # 0
-1.1172289617642353126656236859905e-10 3:1 4:0.375 11:1 12:0.875 19:0.875 20:1 27:0.9375 28:0.9375 35:0.875 36:0.9375 43:0.9375 44:0.875 51:0.8125 52:0.875 59:0.625 60:0.8125 # 0
-1.7998323898606575223706920053679e-10 2:0.125 3:0.8125 4:0.8125 5:0.25 10:0.75 11:0.8125 12:0.6875 13:0.875 18:0.5625 19:0.8125 20:0.8125 21:0.875 22:0.0625 27:0.25 28:0.5 29:0.8125 30:0.1875 37:0.4375 38:0.64285713 45:0.1875 46:0.8125 50:0.875 51:0.375 53:0.375 54:0.75 58:0.125 59:0.75 60:1 61:1 62:0.4375 # 0
-3.0223386092276141468758057430529e-10 2:0.1875 3:0.75 4:0.9375 5:0.1875 10:0.875 11:0.9375 12:0.875 13:0.25 17:0.0625 18:1 19:0.9375 20:0.0625 25:0.1875 26:1 27:1 28:0.3125 29:0.125 30:0.0625 33:0.14285715 34:1 35:0.6875 36:0.25 37:0.5 38:0.71428573 41:0.125 42:1 43:0.125 45:0.375 46:0.8125 50:0.6875 51:0.6875 52:0.25 53:0.6875 54:0.625 58:0.0625 59:0.625 60:0.8125 61:0.625 62:0.1875 # 0
-8.8299572771576302532834007902622e-10 3:0.375 4:0.5 11:0.9375 12:0.1875 18:0.125 19:0.875 20:0.125 21:0.6875 26:0.5625 27:0.5 28:0.3125 29:0.625 34:0.875 35:0.125 36:0.5 37:0.4375 38:0.14285715 41:0.25 42:1 43:0.5625 44:0.875 45:1 46:0.5 49:0.125 50:0.5 51:0.75 52:1 53:0.3125 54:0.125 59:0.375 60:0.8125 61:0.125 # 0
-3.5866264092158469796270340819374e-11 2:0.625 3:0.8125 4:1 5:0.625 10:0.9375 11:0.5625 12:0.125 13:0.125 17:0.25 18:1 19:1 20:0.875 21:0.25 26:0.1875 27:0.0625 28:0.25 29:1 30:0.1875 37:0.75 38:0.5 45:0.75 46:0.4375 49:0.3125 50:0.5 52:0.25 53:0.9375 54:0.0625 57:0.1 58:0.6875 59:0.875 60:0.9375 61:0.125 # 0
-3.281464874935195219030453943408e-10 3:0.75 4:1 5:0.8125 10:0.375 11:1 12:0.625 13:0.3125 16:0.33333334 17:0.875 18:0.125 19:0.375 25:0.75 26:0.6875 33:0.21428572 34:0.875 35:0.6875 36:0.0625 42:0.1875 43:0.8125 44:0.6875 51:0.3125 52:1 53:0.375 59:0.8125 60:1 61:0.375 # 0
-1.4047312319992663997296107393666e-10 2:0.125 3:0.625 4:1 5:1 6:0.125 9:0.06666667 10:1 11:0.9375 12:0.3125 13:0.0625 17:0.5 18:0.8125 25:0.75 26:0.6875 33:0.35714287 34:1 35:0.4375 42:0.1875 43:0.8125 44:0.75 51:0.25 52:1 59:0.875 60:0.75 # 0
-2.9633113243398527799359795564175e-11 3:0.3125 4:0.25 5:0.0625 11:0.875 12:0.5 13:0.75 18:0.25 19:0.8125 20:0.25 21:0.75 26:0.75 27:0.3125 28:0.4375 29:0.5625 33:0.14285715 34:1 35:0.25 36:0.8125 37:1 38:0.5 41:0.625 42:1 43:1 44:1 45:0.6875 46:0.0625 49:0.3125 50:0.375 51:0.4375 52:0.9375 59:0.4375 60:0.4375 # 0
-3.1021911523567877718112879838425e-10 3:0.125 4:0.75 5:0.8125 6:0.5 7:0.0625 10:0.1875 11:0.75 12:0.3125 13:0.875 14:1 15:0.15384616 18:0.6875 19:0.0625 21:0.75 22:0.875 25:0.125 26:0.6875 27:0.1875 28:0.4375 29:0.875 30:0.1875 33:0.21428572 34:0.9375 35:0.6875 36:0.3125 37:0.625 44:0.5625 45:0.375 51:0.0625 52:0.875 53:0.125 60:0.875 61:0.0625 # 0
-2.0509326021939583538959369415764e-11 2:0.5625 3:0.75 4:0.75 5:0.0625 9:0.40000001 10:0.875 11:0.3125 12:0.5625 13:0.6875 14:0.1875 17:0.4375 18:0.75 19:0.5625 20:0.9375 21:0.5625 22:0.0625 25:0.0625 26:1 27:0.875 28:0.125 34:0.875 35:0.75 36:0.875 37:0.125 41:0.125 42:0.75 44:0.5625 45:0.8125 50:0.9375 51:0.0625 52:0.375 53:0.875 58:0.375 59:0.875 60:0.9375 61:0.1875 # 0
-1.2447272392114909196336259420063e-10 2:0.375 3:0.9375 4:0.875 5:0.25 10:1 11:0.375 12:0.25 13:0.9375 17:0.3125 18:1 19:0.375 20:0.8125 21:0.6875 25:0.0625 26:1 27:1 28:1 29:0.8125 30:0.0625 33:0.42857143 34:0.9375 35:0.4375 37:0.6875 38:0.5714286 41:0.25 42:0.75 45:0.5625 46:0.6875 50:1 51:0.25 52:0.5625 53:0.9375 54:0.125 58:0.5 59:0.875 60:0.5625 61:0.125 # 0
2.9872296366511376607196783325047e-09 2:0.1875 3:0.75 4:0.875 5:0.1875 10:0.6875 11:0.6875 12:0.5 13:0.8125 17:0.3125 18:0.9375 19:0.0625 21:0.4375 22:0.125 25:0.1875 26:0.9375 27:0.1875 29:0.1875 30:0.375 33:0.21428572 34:0.6875 35:0.125 37:0.25 38:0.5 41:0.0625 42:0.5625 45:0.3125 46:0.4375 50:0.6875 51:0.25 52:0.25 53:0.875 54:0.125 58:0.125 59:0.8125 60:0.9375 61:0.5625 # 0
-3.3118330767091793903506840383833e-10 3:0.25 4:1 5:0.125 11:0.875 12:0.6875 13:0.5 14:0.3125 18:0.625 19:0.8125 20:0.0625 21:0.75 22:0.5 25:0.375 26:1 27:0.0625 29:0.875 30:0.375 33:0.71428573 34:0.875 35:0.5 36:0.8125 37:1 38:0.78571427 41:0.1875 42:0.6875 43:0.75 44:0.8125 45:0.875 46:0.125 51:0.0625 52:0.875 53:0.375 59:0.5 60:0.8125 61:0.0625 # 0
-8.6696224856159049814716465341479e-11 3:0.75 4:0.5 10:0.375 11:0.9375 12:0.0625 17:0.125 18:0.9375 19:0.375 22:0.375 25:0.5 26:0.875 27:0.0625 29:0.4375 30:0.9375 31:0.5 33:0.9285714 34:0.625 36:0.375 37:1 38:0.42857143 41:0.9375 42:0.875 43:0.875 44:1 45:0.75 49:0.4375 50:0.75 51:0.75 52:1 53:0.125 59:0.875 60:0.375 # 0
-1.8301392802362936005679037475345e-10 2:0.375 3:0.8125 4:0.9375 5:0.5625 9:0.26666668 10:0.9375 11:0.5 12:0.25 13:1 14:0.25 17:0.5 18:0.5625 21:0.9375 22:0.5 25:0.4375 26:0.9375 27:0.5625 28:0.625 29:1 30:0.5 34:0.3125 35:0.5 36:0.3125 37:0.75 38:0.5714286 45:0.75 46:0.5 50:0.6875 51:0.5625 52:0.1875 53:0.875 54:0.1875 58:0.25 59:0.9375 60:1 61:0.4375 # 0
-1.9651162929385087706275089143706e-10 2:0.5 3:0.9375 4:0.9375 5:0.75 6:0.25 10:0.9375 11:0.25 12:0.1875 13:0.625 14:1 18:0.5 19:0.875 20:0.75 21:1 22:0.75 27:0.125 28:0.25 29:0.5625 30:0.5 37:0.5625 38:0.5 41:0.0625 42:0.0625 45:0.75 46:0.25 49:0.4375 50:0.6875 51:0.0625 52:0.25 53:0.75 54:0.0625 58:0.625 59:1 60:0.8125 61:0.1875 # 0
-2.9667659515509329746988116350496e-10 4:0.375 5:0.6875 11:0.1875 12:0.9375 13:0.75 18:0.3125 19:0.875 20:0.625 21:0.75 25:0.125 26:0.9375 27:0.375 28:0.3125 29:0.5625 33:0.42857143 34:0.9375 35:0.75 36:0.9375 37:1 38:0.5714286 41:0.0625 42:0.5 43:0.5 44:0.75 45:0.75 46:0.125 52:0.5 53:0.5 60:0.3125 61:0.6875 # 0
-2.1359922113504062174875925667847e-10 3:0.4375 4:0.9375 5:0.375 10:0.625 11:0.8125 12:0.875 13:0.8125 17:0.125 18:0.8125 20:0.75 21:0.375 26:0.125 27:0.1875 28:0.75 29:0.0625 34:0.0625 35:0.9375 36:0.1875 41:0.125 42:0.8125 43:0.5 49:0.625 50:1 51:0.875 52:0.75 53:0.5 57:0.2 58:0.25 59:0.4375 60:0.5625 61:0.875 # 0
-2.590045979865979572104683484321e-11 3:0.0625 4:0.875 5:0.625 11:0.5625 12:0.9375 13:0.125 18:0.0625 19:0.875 20:0.3125 22:0.125 26:0.6875 27:0.5625 29:0.5 30:0.875 33:0.5 34:0.875 37:0.875 38:0.71428573 40:0.66666669 41:1 42:0.9375 43:0.6875 44:0.5625 45:1 46:0.25 48:0.2 49:0.75 50:0.875 51:1 52:1 53:0.75 60:0.875 61:0.375 # 0
2.1962280661250160265218394413812e-09 2:0.3125 3:0.5 10:0.75 11:0.375 12:0.75 13:0.4375 17:0.125 18:0.625 19:0.375 20:0.5625 21:0.9375 22:0.0625 25:0.4375 26:0.5 29:0.75 30:0.5 33:0.5714286 34:0.5 37:0.75 38:0.42857143 41:0.3125 42:0.8125 45:0.8125 46:0.25 50:0.875 51:0.625 52:0.625 53:0.8125 58:0.25 59:0.75 60:0.6875 61:0.0625 # 0
-8.6318337969180436679873616060777e-10 3:0.4375 4:0.875 5:0.4375 10:0.1875 11:0.8125 12:0.25 13:0.75 14:0.0625 18:0.8125 19:0.1875 21:0.75 22:0.25 25:0.0625 26:0.8125 28:0.375 29:1 30:0.375 34:0.9375 35:0.9375 36:0.5625 37:0.75 38:0.21428572 42:0.0625 43:0.0625 45:0.5625 46:0.125 50:0.125 51:0.5625 52:0.125 53:0.75 58:0.0625 59:0.5625 60:0.9375 61:0.4375 # 0
-4.8664597320784385291814095632606e-10 2:0.0625 3:0.8125 4:0.9375 5:0.3125 10:0.625 11:0.9375 12:0.5 13:0.375 17:0.125 18:1 19:0.375 25:0.25 26:0.9375 27:0.0625 28:0.25 33:0.35714287 34:0.8125 35:0.1875 36:1 37:0.6875 38:0.071428575 42:0.9375 43:0.0625 44:0.3125 45:0.9375 46:0.3125 50:0.6875 51:0.75 52:0.5 53:1 54:0.375 59:0.625 60:1 61:0.625 # 0
1.5338686209442339616384230543359e-09 2:0.1875 3:0.875 4:1 5:0.375 9:0.06666667 10:0.8125 11:0.3125 12:0.25 13:0.8125 17:0.3125 18:0.75 21:0.5625 22:0.25 25:0.3125 26:0.5625 29:0.3125 30:0.5 33:0.5714286 34:0.4375 37:0.1875 38:0.5714286 41:0.375 42:0.5625 45:0.125 46:0.5625 50:0.9375 51:0.1875 52:0.0625 53:0.5625 54:0.5 58:0.3125 59:0.9375 60:0.875 61:0.5625 # 0
-1.5286796486072309530072254246322e-10 2:0.4375 3:0.8125 4:0.3125 9:0.26666668 10:0.875 11:0.25 12:0.875 13:0.8125 18:0.8125 19:0.5 20:0.75 21:1 22:0.25 26:0.3125 27:0.75 28:0.6875 29:0.375 30:0.375 37:0.3125 38:0.64285713 45:0.5625 46:0.4375 50:0.125 51:0.125 52:0.5 53:1 54:0.125 58:0.625 59:1 60:0.75 61:0.1875 # 0
-6.3625673777578287155402935305979e-10 2:0.3125 3:0.8125 4:0.75 5:0.0625 9:0.13333334 10:0.9375 11:0.3125 12:0.375 13:0.4375 17:0.375 18:0.5625 21:1 22:0.25 25:0.375 26:0.625 29:0.875 30:0.375 34:0.5625 35:0.8125 36:0.875 37:0.75 38:0.64285713 46:0.75 50:0.1875 53:0.1875 54:0.875 58:0.3125 59:0.75 60:0.8125 61:0.875 62:0.3125 # 0
3.6290387375518918549639627371683e-10 3:0.625 4:0.625 9:0.06666667 10:0.5 11:0.125 12:0.75 13:0.25 17:0.4375 18:0.875 19:0.0625 20:0.125 21:0.75 25:0.4375 26:0.625 29:0.75 30:0.1875 33:0.21428572 34:0.75 37:0.6875 38:0.5714286 41:0.0625 42:0.9375 43:0.0625 44:0.0625 45:0.9375 46:0.5 50:0.375 51:0.875 52:0.8125 53:1 54:0.25 59:0.5625 60:0.875 61:0.4375 # 0
-4.6956860955169268995760982192303e-10 2:0.4375 3:0.8125 6:0.1875 7:0.5 10:0.9375 11:0.4375 13:0.1875 14:0.9375 15:0.53846157 18:1 19:0.75 20:0.375 21:0.875 22:0.5625 26:0.375 27:0.75 28:1 29:0.75 35:0.125 36:0.875 37:0.125 43:0.5625 44:0.5625 50:0.125 51:0.8125 52:0.0625 58:0.5 59:0.3125 # 0
-8.3534966093596670244317351007352e-10 2:0.4375 3:0.9375 4:0.9375 5:0.5 6:0.1875 9:0.2 10:0.875 11:0.1875 13:0.8125 14:0.5 17:0.375 18:0.625 19:0.0625 20:0.375 21:0.875 22:0.5 26:0.5 27:0.75 28:0.375 29:0.5 30:0.5 37:0.5 38:0.42857143 45:0.75 46:0.1875 52:0.4375 53:0.8125 58:0.4375 59:0.9375 60:0.875 61:0.125 # 0
-1.0309958630419398182057114850973e-10 2:0.5625 3:0.875 4:0.375 10:1 11:0.875 12:1 13:0.375 18:0.8125 19:0.75 20:0.8125 21:1 22:0.0625 26:0.375 27:0.8125 28:0.625 29:1 30:0.125 37:0.75 38:0.5 42:0.3125 43:0.0625 45:0.75 46:0.5 49:0.0625 50:1 51:0.625 52:0.5 53:0.9375 54:0.4375 58:0.5 59:0.9375 60:1 61:0.6875 62:0.0625 # 0
-2.1433727411200756694548300218181e-10 2:0.375 3:1 4:0.75 5:0.1875 9:0.2 10:0.9375 11:0.4375 12:0.375 13:0.875 14:0.0625 17:0.4375 18:0.8125 20:0.0625 21:0.875 22:0.0625 25:0.25 26:0.8125 27:0.5 28:0.8125 29:0.8125 33:0.14285715 34:0.9375 35:0.9375 36:0.4375 37:0.8125 38:0.35714287 42:0.75 43:0.3125 45:0.5625 46:0.5 50:0.75 51:0.3125 52:0.375 53:0.875 54:0.125 58:0.3125 59:1 60:0.75 61:0.1875 # 0
8.0007075981914324900841316764717e-10 2:0.4375 3:0.625 4:0.8125 5:0.625 10:0.875 11:0.6875 12:0.25 13:0.6875 14:0.1875 17:0.125 18:0.9375 19:0.0625 21:0.3125 22:0.5 25:0.4375 26:0.5625 29:0.1875 30:0.5 33:0.35714287 34:0.75 37:0.25 38:0.5714286 41:0.3125 42:0.6875 45:0.5 46:0.25 50:0.75 51:0.125 52:0.125 53:0.75 58:0.375 59:0.9375 60:0.875 61:0.125 # 0
-1.5695682813354670503548827087262e-10 1:0.125 2:0.8125 3:0.6875 9:0.33333334 10:0.875 11:1 12:0.375 17:0.4375 18:0.1875 19:0.75 20:0.375 27:0.875 34:0.375 35:0.75 41:0.125 42:0.9375 43:0.25 49:0.25 50:1 51:0.5625 52:0.5 53:0.625 54:0.3125 57:0.1 58:0.8125 59:1 60:1 61:0.9375 62:0.4375 # 0
-7.6763262972726984324229785602965e-12 1:0.625 2:0.9375 3:0.8125 9:0.2 10:0.625 11:1 12:0.3125 19:0.875 20:0.25 26:0.375 27:0.875 33:0.071428575 34:0.875 35:0.4375 41:0.4375 42:0.8125 43:0.0625 49:0.8125 50:0.875 51:0.625 52:0.6875 53:0.5625 54:0.3125 57:0.5 58:0.9375 59:1 60:0.875 61:0.625 62:0.1875 # 0
-6.1144262567592582357663122400441e-11 3:0.3125 4:0.9375 5:0.3125 10:0.1875 11:0.9375 12:0.6875 13:0.0625 17:0.0625 18:0.8125 19:0.875 20:0.0625 21:0.125 22:0.375 25:0.375 26:1 27:0.375 29:0.75 30:0.9375 33:0.9285714 34:0.9375 36:0.25 37:1 38:0.42857143 41:0.8125 42:1 43:1 44:1 45:1 46:0.0625 50:0.5 51:0.6875 52:1 53:0.5 59:0.4375 60:1 61:0.1875 # 0
-4.1715435856030717371335600230373e-10 2:0.625 3:0.9375 4:1 5:0.375 9:0.06666667 10:0.8125 11:0.3125 12:0.4375 13:0.9375 14:0.125 20:0.4375 21:0.75 22:0.125 27:0.375 28:0.9375 29:0.1875 34:0.4375 35:0.75 36:0.0625 41:0.3125 42:0.875 43:0.125 49:0.5625 50:0.875 51:0.625 52:0.6875 53:0.4375 54:0.0625 57:0.1 58:0.4375 59:0.5 60:0.5 61:0.6875 62:0.25 # 0
-7.9294822843597176889451010362866e-10 2:0.125 3:0.9375 4:0.75 10:0.1875 11:1 12:0.875 13:0.625 19:0.3125 20:0.8125 21:1 22:0.125 29:0.75 30:0.5 37:0.4375 38:0.78571427 45:0.4375 46:0.8125 50:0.125 52:0.125 53:0.6875 54:0.6875 58:0.1875 59:0.8125 60:0.9375 61:1 62:0.375 # 0
-1.9791081382484721325436967094644e-09 2:0.25 3:0.875 4:1 5:0.4375 9:0.06666667 10:1 11:0.875 12:0.5 13:0.3125 17:0.5 18:0.625 25:0.1875 26:0.8125 34:0.75 35:0.375 42:0.25 43:0.8125 51:1 52:0.3125 58:0.4375 59:1 60:0.25 # 0
-1.1023656880762479134075718700654e-10 2:0.125 3:0.6875 4:1 5:1 6:1 7:0.75 10:0.4375 11:0.9375 12:0.5625 13:0.5 14:0.75 15:1 21:0.0625 22:0.875 23:0.83333331 29:0.6875 30:0.5625 36:0.375 37:0.8125 43:0.0625 44:0.875 45:0.1875 51:0.625 52:0.5625 58:0.0625 59:1 60:0.3125 # 0
-1.5522803096528645831373484087885e-10 2:0.75 3:1 4:0.375 9:0.46666667 10:0.75 11:0.25 12:0.875 17:0.6875 18:0.875 20:0.375 21:0.25 25:0.375 26:0.5 28:0.4375 29:0.25 36:0.625 37:0.1875 43:0.3125 44:0.8125 50:0.1875 51:0.875 52:0.625 58:0.875 59:0.8125 60:0.75 61:0.9375 62:0.8125 63:0.06666667 # 0
-3.2463076970039235131499591474223e-10 3:0.375 4:0.9375 5:0.375 11:0.75 12:0.625 13:0.8125 19:0.6875 20:0.9375 21:0.875 26:0.5625 27:0.6875 28:0.875 33:0.2857143 34:0.6875 36:0.625 37:0.375 41:0.1875 42:0.5625 44:0.0625 45:0.875 46:0.0625 50:0.6875 51:0.5 52:0.125 53:0.5625 54:0.4375 59:0.375 60:0.75 61:0.8125 62:0.4375 # 0
-5.5422972849230440613093312117888e-10 2:0.25 3:0.75 4:0.75 5:0.375 10:0.1875 11:0.375 12:0.25 13:0.5 17:0.1875 18:0.8125 19:0.375 20:0.5 21:0.1875 25:0.25 26:1 27:0.8125 28:0.75 29:0.9375 30:0.125 34:0.1875 37:0.625 38:0.5714286 45:0.5 46:0.375 50:0.4375 51:0.375 52:0.3125 53:0.875 54:0.125 58:0.1875 59:0.875 60:0.9375 61:0.375 # 0
-1.4125368319989526815676416077845e-10 3:0.625 4:1 5:0.9375 6:0.1875 10:0.375 11:0.8125 12:0.625 13:1 14:0.125 18:0.1875 19:0.0625 20:0.125 21:0.875 28:0.5 29:0.5 34:0.0625 35:0.5 36:0.875 37:0.9375 38:0.5714286 41:0.0625 42:0.9375 43:1 44:0.8125 45:0.1875 50:0.125 51:0.5625 52:0.4375 59:0.875 60:0.0625 # 0
-2.4617659398168033559804585641638e-10 2:0.0625 3:0.6875 4:0.9375 5:0.0625 10:0.6875 11:0.9375 12:0.3125 17:0.1875 18:1 19:0.375 25:0.375 26:0.4375 28:0.3125 29:0.1875 33:0.5714286 34:0.625 35:0.25 36:0.8125 37:0.9375 38:0.14285715 41:0.25 42:1 43:0.25 45:0.5 46:0.625 50:0.8125 51:0.625 52:0.3125 53:0.875 54:0.5625 58:0.0625 59:0.625 60:0.8125 61:0.8125 62:0.25 # 0
-1.3854150176863445010548656771698e-10 1:0.125 2:0.6875 3:0.8125 4:0.3125 9:0.46666667 10:0.75 11:0.4375 12:0.9375 13:0.25 17:0.5 18:0.25 20:0.5 21:0.75 25:0.125 26:0.375 29:0.8125 35:0.0625 36:0.5 37:0.1875 43:0.6875 44:0.5 49:0.0625 50:0.75 51:1 52:0.8125 53:0.5 54:0.125 57:0.2 58:0.75 59:0.75 60:0.75 61:0.75 62:0.75 # 0
-3.0101329505943279625003540012941e-11 2:0.4375 3:1 4:0.875 5:0.125 10:0.8125 11:0.8125 12:0.5625 13:0.8125 18:0.6875 19:0.625 21:0.875 22:0.3125 26:0.3125 27:0.875 29:0.75 30:0.5625 37:0.75 38:0.5714286 44:0.25 45:1 46:0.3125 50:0.125 51:0.5 52:0.875 53:0.9375 58:0.5 59:1 60:1 61:1 62:1 63:0.26666668 # 0
-2.0930753590444393879494794750041e-10 2:0.6875 3:1 4:1 5:0.5 10:0.6875 11:0.75 12:0.5 13:0.8125 18:0.4375 19:0.625 26:0.1875 27:0.8125 35:0.875 36:0.125 43:0.8125 44:0.375 50:0.375 51:0.75 52:0.625 58:0.6875 59:1 60:0.5625 # 0
-3.0898476577922779554130122165064e-10 3:0.375 4:0.5 10:0.125 11:0.875 12:0.1875 18:0.5625 19:0.5 25:0.25 26:0.9375 27:0.0625 29:0.625 30:0.3125 33:0.5 34:0.8125 36:0.125 37:1 38:0.21428572 41:0.6875 42:0.875 43:0.5 44:0.9375 45:0.5625 49:0.75 50:1 51:0.875 52:0.9375 57:0.1 58:0.25 59:0.5625 60:0.5 # 0
-1.3697015850445319550167851818797e-10 2:0.25 3:0.875 4:0.6875 5:0.0625 9:0.26666668 10:1 11:0.75 12:0.625 13:0.5 17:0.5625 18:0.875 19:0.0625 20:0.4375 21:0.4375 25:0.0625 26:0.125 28:0.9375 29:0.5625 36:0.4375 37:0.9375 38:0.14285715 45:0.3125 46:0.6875 50:0.75 51:0.1875 52:0.25 53:0.625 54:0.6875 58:0.375 59:0.9375 60:0.9375 61:0.6875 62:0.0625 # 0
-4.2698762875380376409952621533892e-11 4:0.0625 5:0.875 6:0.25 12:0.125 13:1 14:0.5 20:0.5 21:1 22:0.375 28:0.9375 29:1 30:0.3125 35:0.5 36:1 37:1 38:0.21428572 42:0.375 43:1 44:0.5625 45:1 49:0.125 50:1 51:0.5 52:0.25 53:1 57:0.2 58:0.25 60:0.125 61:0.9375 62:0.1875 # 0
-1.5557663530873632002116059912342e-10 2:0.3125 3:0.6875 4:0.9375 5:0.3125 9:0.40000001 10:0.8125 11:0.125 12:0.1875 13:0.9375 14:0.1875 17:0.4375 18:0.8125 19:0.5 20:0.6875 21:1 22:0.5 25:0.0625 26:0.5625 27:0.75 28:0.5 29:0.5 30:0.5 36:0.0625 37:0.8125 38:0.2857143 44:0.5625 45:0.75 51:0.5 52:0.8125 58:0.4375 59:0.625 60:0.0625 # 0
-3.0432791729254002689509664247278e-11 3:0.625 4:1 5:0.625 10:0.5625 11:1 12:0.75 13:0.5 17:0.0625 18:0.9375 19:0.8125 20:0.0625 25:0.125 26:1 27:0.3125 33:0.14285715 34:1 35:0.5 41:0.125 42:1 43:1 44:0.5625 49:0.0625 50:0.75 51:1 52:1 53:0.1875 59:0.75 60:1 61:0.4375 # 0
-1.9732079059482804121237042232325e-11 1:0.125 2:0.375 3:0.5 4:0.8125 5:0.5 9:0.33333334 10:1 11:0.625 12:0.3125 13:0.9375 17:0.5 18:0.9375 19:0.375 20:0.8125 21:0.8125 25:0.3125 26:1 27:1 28:0.875 29:0.9375 30:0.0625 34:0.875 35:0.5625 37:0.375 38:0.42857143 42:1 43:0.0625 45:0.375 46:0.5 50:1 51:0.3125 52:0.5625 53:0.9375 54:0.125 58:0.6875 59:1 60:0.625 61:0.125 # 0
-2.9992484373283995998649919831965e-10 3:0.5 4:0.8125 5:0.375 10:0.3125 11:0.875 12:0.375 13:0.875 14:0.125 18:0.5 19:0.5 20:0.0625 21:0.875 22:0.25 26:0.125 27:0.8125 28:0.6875 29:1 30:0.3125 35:0.1875 36:0.4375 37:0.5625 38:0.2857143 41:0.0625 42:0.125 45:0.5 46:0.5 49:0.0625 50:0.8125 51:0.1875 53:0.875 54:0.3125 59:0.6875 60:1 61:0.8125 62:0.0625 # 0
-1.4381522050328786630197485863809e-10 2:0.3125 3:0.9375 4:0.5 9:0.13333334 10:0.9375 11:0.5625 12:0.625 13:0.1875 14:0.0625 17:0.375 18:0.5625 19:0.4375 20:0.6875 21:0.875 22:0.0625 25:0.125 26:0.9375 27:0.8125 28:0.5 29:0.125 33:0.071428575 34:0.9375 35:0.375 41:0.0625 42:1 43:0.75 49:0.0625 50:1 51:0.8125 52:0.0625 58:0.5 59:0.9375 60:0.1875 # 0
-1.9662078541340452290503942806346e-11 2:0.3125 3:0.6875 4:0.75 10:1 11:1 12:1 13:0.8125 14:0.4375 18:0.75 19:1 20:1 21:0.9375 22:0.25 26:0.25 27:0.9375 28:0.875 29:0.5 34:0.75 35:0.25 36:0.0625 37:0.25 41:0.0625 42:0.875 44:0.1875 45:0.4375 49:0.0625 50:1 51:0.75 52:1 53:0.25 58:0.1875 59:0.5625 60:0.3125 # 0
-1.4840797481501230880704189163746e-10 2:0.5 3:0.75 4:0.8125 5:0.1875 10:0.6875 11:0.9375 12:0.4375 13:0.0625 18:0.9375 19:1 20:0.875 21:0.1875 26:0.25 27:0.3125 28:0.375 29:0.8125 30:0.125 37:0.5625 38:0.5 42:0.375 45:0.125 46:0.75 49:0.1875 50:0.9375 51:0.5 52:0.25 53:0.625 54:0.6875 58:0.5 59:0.75 60:0.8125 61:0.75 62:0.1875 # 0
-1.8501108081968455250545001019959e-11 2:0.0625 3:0.625 4:0.8125 5:0.5 9:0.06666667 10:0.875 11:0.625 12:0.4375 13:0.9375 17:0.0625 18:1 19:0.4375 20:0.4375 21:1 22:0.1875 26:0.4375 27:1 28:0.8125 29:0.625 30:0.5 37:0.375 38:0.5714286 45:0.75 46:0.25 50:0.0625 51:0.625 52:0.3125 53:0.8125 54:0.1875 58:0.0625 59:0.6875 60:1 61:0.4375 # 0
-5.8076660227795012565199714683824e-11 1:0.125 2:0.6875 3:0.75 4:0.75 5:0.75 6:0.25 10:0.9375 11:0.5 12:0.5 13:0.6875 14:0.4375 18:0.75 26:0.8125 27:0.0625 33:0.21428572 34:1 35:0.9375 36:0.6875 37:0.3125 42:0.25 43:0.25 44:0.625 45:0.9375 46:0.125 50:0.75 51:0.3125 52:0.3125 53:0.875 54:0.1875 58:0.6875 59:0.8125 60:0.75 61:0.5 # 0
-1.1026021243443057443998413859297e-10 4:0.75 5:0.1875 11:0.125 12:0.9375 19:0.5625 20:0.5625 26:0.1875 27:0.9375 29:0.1875 30:0.625 33:0.071428575 34:0.875 35:0.1875 37:0.875 38:0.42857143 41:0.625 42:1 43:0.9375 44:0.8125 45:1 46:0.0625 49:0.5625 50:0.625 51:0.5 52:0.875 53:0.6875 60:0.75 61:0.125 # 0
-2.4487336671612532866067037166214e-11 4:0.6875 5:0.5 11:0.125 12:1 13:0.5 19:0.375 20:1 21:0.125 27:0.4375 28:0.9375 35:0.625 36:0.875 42:0.8125 43:1 44:1 45:0.6875 50:0.4375 51:0.4375 52:1 53:1 54:0.625 60:0.5 61:1 62:0.9375 # 0
-1.6514591986082721409711863333041e-10 2:0.0625 3:0.5625 4:0.75 5:0.5 10:0.6875 11:0.8125 12:0.5 13:0.75 18:0.6875 19:0.4375 20:0.875 21:0.375 26:0.3125 27:1 28:0.5625 34:0.625 35:0.9375 36:0.3125 42:0.8125 43:0.0625 44:0.625 45:0.0625 50:0.8125 51:0.0625 52:0.5 53:0.3125 58:0.1875 59:0.875 60:0.9375 61:0.1875 # 0
-1.4514752053208798805935256805405e-10 2:0.25 3:0.875 4:0.9375 5:0.3125 9:0.46666667 10:0.875 11:0.4375 12:0.375 13:1 17:0.625 18:0.375 21:0.6875 22:0.1875 25:0.25 26:0.125 28:0.0625 29:0.875 36:0.625 37:0.4375 43:0.3125 44:0.8125 45:0.0625 50:0.375 51:1 52:0.5 58:0.3125 59:0.5625 60:0.75 61:0.75 62:1 63:0.13333334 # 0
-9.0817535497284487422677166186866e-11 1:0.125 2:0.625 3:0.75 4:0.875 5:0.5625 9:0.73333335 10:0.6875 11:0.3125 12:0.3125 13:1 14:0.25 17:0.25 18:0.1875 20:0.125 21:1 22:0.125 28:0.75 29:0.5625 34:0.0625 35:0.8125 36:0.625 42:0.5625 43:0.8125 49:0.125 50:1 51:0.25 57:0.1 58:0.8125 59:0.9375 60:0.75 61:0.125 # 0
-8.6692477391693195707576983882975e-11 1:0.25 2:0.875 3:0.875 4:0.0625 9:0.60000002 10:0.8125 11:0.8125 12:0.375 17:0.5625 18:0.3125 19:0.1875 20:0.625 26:0.0625 27:0.1875 28:0.5625 35:0.5 36:0.25 42:0.125 43:0.9375 44:0.25 45:0.125 49:0.0625 50:0.8125 51:1 52:1 53:1 54:0.5625 58:0.8125 59:0.5 60:0.5 61:0.4375 62:0.125 # 0
-1.5916545905714135282106963115427e-10 1:0.125 2:0.375 3:0.6875 4:1 5:0.375 10:0.3125 11:0.8125 12:0.6875 13:1 14:0.375 18:0.25 19:1 20:0.5 26:0.3125 27:0.9375 33:0.071428575 34:0.8125 35:0.625 36:0.25 41:0.375 42:0.625 43:0.25 44:0.5 49:0.5 50:0.4375 51:0.75 52:0.4375 57:0.2 58:0.8125 59:0.875 # 0
-1.467288712377773010947300915053e-10 2:0.125 3:0.9375 4:0.9375 5:0.6875 6:0.1875 9:0.13333334 10:0.9375 11:0.375 12:0.25 13:0.25 14:0.1875 17:0.3125 18:1 19:0.9375 20:0.4375 25:0.0625 26:0.25 27:0.375 28:0.8125 29:0.8125 37:0.875 38:0.2857143 42:0.1875 43:0.1875 45:0.6875 46:0.1875 50:0.4375 51:0.4375 52:0.625 53:0.75 58:0.1875 59:0.875 60:0.5625 61:0.0625 # 0
-1.582010599484649660180950305754e-10 3:0.375 4:0.75 5:0.125 10:0.125 11:0.9375 12:0.625 13:0.25 18:0.8125 19:0.5625 25:0.0625 26:0.9375 27:0.0625 33:0.14285715 34:0.8125 35:0.375 36:0.5625 37:0.125 42:0.9375 43:1 44:0.75 45:0.8125 46:0.0625 50:0.375 51:0.75 52:0.5 53:0.9375 54:0.25 59:0.4375 60:0.9375 61:0.6875 62:0.0625 # 0
-8.1392021836835451473436329408327e-11 2:0.1875 3:0.625 4:0.6875 5:0.3125 9:0.53333336 10:1 11:0.625 12:0.5 13:0.3125 17:0.6875 18:0.6875 25:0.5 26:0.875 27:0.6875 28:0.5 29:0.25 34:0.1875 35:0.4375 36:0.5625 37:0.875 38:0.64285713 45:0.3125 46:0.8125 50:0.0625 51:0.25 52:0.625 53:1 54:0.3125 58:0.125 59:0.8125 60:0.625 61:0.125 # 0
-4.5117921152168459153228142407839e-11 2:0.25 3:0.9375 10:0.8125 11:0.3125 18:1 25:0.25 26:0.8125 33:0.5 34:0.9375 35:0.5 36:0.5625 37:0.1875 41:0.375 42:1 43:0.75 44:0.8125 45:1 46:0.25 50:0.9375 51:0.5 52:0.125 53:0.875 54:0.4375 58:0.25 59:0.9375 60:0.8125 61:0.375 # 0
-6.3234591745743432428447245405333e-11 2:0.3125 3:1 4:1 5:0.5 9:0.2 10:0.6875 11:0.6875 12:0.4375 13:0.25 17:0.6875 18:0.6875 25:0.8125 26:0.9375 27:0.4375 33:0.21428572 34:0.5 35:0.8125 36:0.5 43:0.125 44:0.9375 45:0.125 50:0.5 51:0.3125 52:0.9375 53:0.375 58:0.4375 59:1 60:0.9375 61:0.1875 # 0
-7.2537601044857145519061498963791e-11 2:0.375 3:1 4:0.6875 9:0.06666667 10:1 11:0.125 12:0.75 13:0.5625 17:0.25 18:0.9375 19:0.3125 20:0.8125 21:0.625 26:0.5625 27:0.625 28:0.5625 29:0.9375 37:0.6875 38:0.35714287 45:0.4375 46:0.4375 49:0.1875 50:0.5625 51:0.0625 53:0.5 54:0.25 57:0.1 58:0.4375 59:0.875 60:1 61:0.75 62:0.0625 # 0
-2.635978196082259698019143842238e-11 2:0.4375 3:0.875 4:0.875 5:0.8125 6:0.1875 10:0.875 11:0.4375 12:0.25 13:0.5625 14:0.375 17:0.25 18:0.8125 25:0.375 26:1 27:0.875 28:0.5 29:0.0625 35:0.1875 36:0.5625 37:0.8125 45:0.8125 50:0.5625 52:0.1875 53:0.875 58:0.6875 59:1 60:0.875 61:0.1875 # 0
-1.459459759723493176849981284944e-11 2:0.4375 3:0.6875 4:0.9375 5:0.375 9:0.2 10:1 11:0.9375 12:0.75 13:0.25 17:0.3125 18:1 19:0.8125 20:0.875 21:0.5 25:0.375 26:0.9375 27:0.6875 28:0.5 29:0.9375 30:0.375 37:0.5 38:0.5714286 45:0.25 46:0.5 50:0.8125 51:0.5625 52:0.5 53:0.8125 54:0.3125 58:0.375 59:0.6875 60:0.875 61:0.5625 # 0
-3.1340091870974965667539375763803e-11 4:0.5625 5:0.375 11:0.5625 12:0.875 13:0.125 18:0.1875 19:0.9375 20:0.25 21:0.1875 22:0.375 25:0.0625 26:0.8125 27:0.6875 29:0.8125 30:0.4375 33:0.5 34:1 35:0.8125 36:0.8125 37:1 38:0.21428572 42:0.25 43:0.25 44:0.8125 45:0.8125 46:0.0625 51:0.0625 52:1 53:0.4375 59:0.0625 60:0.875 61:0.0625 # 0
-6.4254069199504771869211653660561e-12 3:0.25 4:0.8125 5:0.125 11:0.875 12:0.5 18:0.3125 19:0.875 21:0.5625 22:0.4375 25:0.125 26:1 27:0.1875 28:0.3125 29:1 30:0.3125 33:0.5 34:0.875 36:0.75 37:0.8125 41:0.4375 42:1 43:0.8125 44:0.9375 45:0.6875 50:0.3125 51:0.8125 52:1 53:1 54:0.125 59:0.1875 60:0.875 61:0.125 # 0
-1.4946202234392252901072241801745e-11 2:0.0625 3:0.75 4:1 5:1 6:0.75 11:0.4375 12:0.25 13:0.6875 14:0.8125 21:0.5 22:0.6875 27:0.0625 28:0.25 29:0.75 30:0.5 35:0.75 36:1 37:1 38:0.5714286 43:0.1875 44:0.75 45:0.375 51:0.375 52:0.875 59:0.9375 60:0.3125 # 0
-3.4834865475563318874533735285684e-11 3:0.4375 4:0.6875 11:0.6875 12:0.3125 13:0.125 18:0.1875 19:0.875 20:0.1875 21:0.875 26:0.5 27:0.375 28:0.4375 29:0.4375 33:0.071428575 34:0.9375 35:0.25 36:0.75 37:0.5625 38:0.2857143 41:0.3125 42:1 43:1 44:1 45:0.9375 46:0.5 49:0.0625 50:0.0625 51:0.375 52:0.625 59:0.625 60:0.5625 # 0
-3.8563351836809415978328883978535e-12 4:0.5 5:1 6:0.6875 11:0.8125 12:0.5625 13:0.5 14:0.875 15:0.07692308 18:0.625 19:0.5 21:0.3125 22:1 23:0.66666669 25:0.125 26:0.9375 27:0.5 28:0.875 29:0.875 30:0.75 33:0.14285715 34:0.75 35:0.5625 36:0.125 37:0.625 38:0.42857143 44:0.125 45:0.875 52:0.5625 53:0.4375 60:0.8125 61:0.0625 # 0
-1.0034551644043944597976833159404e-11 2:0.0625 3:0.4375 4:0.75 5:0.875 6:0.3125 10:0.5 11:0.8125 12:0.0625 13:0.5 14:0.5 17:0.125 18:1 19:0.375 20:1 21:1 22:0.5625 26:0.4375 27:0.5 28:0.375 29:0.75 30:0.625 37:0.75 38:0.5 45:1 46:0.125 52:0.5625 53:0.625 59:0.5 60:0.6875 61:0.25 # 0
-9.0410140820474948026932931939039e-12 2:0.625 3:0.875 4:0.9375 5:0.75 6:0.3125 10:0.875 11:0.25 12:0.125 13:0.125 17:0.1875 18:0.875 19:0.625 20:0.625 21:0.3125 25:0.375 26:0.9375 27:0.625 28:0.375 29:0.9375 30:0.125 33:0.071428575 37:0.5 38:0.5714286 45:0.375 46:0.5 50:0.6875 51:0.125 52:0.1875 53:0.75 54:0.1875 58:0.625 59:1 60:0.9375 61:0.3125 # 0
-7.3268556454839957896745732628509e-12 2:0.4375 3:0.8125 4:0.5625 5:0.0625 9:0.06666667 10:0.8125 11:0.3125 12:0.5625 13:0.5 17:0.4375 18:0.625 20:0.3125 21:0.75 25:0.3125 26:0.9375 27:0.5 28:0.625 29:1 30:0.25 34:0.4375 35:0.5625 36:0.4375 37:0.3125 38:0.5714286 45:0.0625 46:0.6875 50:0.1875 53:0.3125 54:0.625 58:0.5625 59:1 60:1 61:0.875 62:0.1875 # 0
-3.7046749184397725529610785091699e-13 2:0.75 3:0.3125 10:1 11:0.125 17:0.1875 18:0.75 25:0.25 26:0.75 33:0.5 34:0.875 35:1 36:0.875 37:0.1875 41:0.1875 42:1 43:0.5 44:0.5625 45:1 46:0.25 49:0.125 50:1 51:0.1875 52:0.25 53:1 54:0.25 58:0.6875 59:0.75 60:0.6875 61:0.25 # 0
-9.219183256014104046644614463695e-13 2:0.375 3:0.75 4:0.8125 5:0.75 6:0.375 10:0.375 11:0.5 12:0.125 13:0.3125 14:0.4375 18:0.75 19:0.125 25:0.4375 26:0.9375 27:0.75 28:0.4375 29:0.125 33:0.14285715 34:0.5 35:0.5 36:0.5625 37:0.9375 38:0.2857143 45:0.4375 46:0.4375 50:0.25 51:0.3125 52:0.25 53:0.8125 54:0.125 58:0.25 59:0.9375 60:1 61:0.375 # 0
