SVM-light Version V6.02
1 # kernel type
8 # kernel parameter -d 
1 # kernel parameter -g 
1 # kernel parameter -s 
1 # kernel parameter -r 
empty# kernel parameter -u 
63 # highest feature index 
2823 # number of training documents 
154 # number of support vectors plus 1 
0.62379255 # threshold b, each following line is a SV (starting with alpha*y)
3.1200081182525687171231260742072e-09 2:0.1875 3:0.625 4:0.9375 5:0.5 9:0.2 10:0.9375 11:0.5625 12:0.5 13:0.75 17:0.5 18:0.5 20:0.3125 21:0.6875 25:0.125 26:0.375 28:0.625 29:0.4375 35:0.3125 36:0.875 37:0.0625 43:0.875 44:0.3125 50:0.25 51:1 52:0.25 53:0.3125 54:0.6875 58:0.0625 59:0.875 60:0.9375 61:0.6875 62:0.125 # 0
-5.713382203407400393637184879826e-10 2:0.4375 3:0.8125 6:0.1875 7:0.5 10:0.9375 11:0.4375 13:0.1875 14:0.9375 15:0.53846157 18:1 19:0.75 20:0.375 21:0.875 22:0.5625 26:0.375 27:0.75 28:1 29:0.75 35:0.125 36:0.875 37:0.125 43:0.5625 44:0.5625 50:0.125 51:0.8125 52:0.0625 58:0.5 59:0.3125 # 0
1.6730920020997128638063687505765e-09 2:0.5625 3:0.5 4:0.0625 9:0.33333334 10:1 11:1 12:0.4375 17:0.5 18:0.625 19:0.5 20:0.5 26:0.125 27:0.25 28:0.75 35:0.375 36:0.625 43:0.4375 44:0.5625 50:0.375 51:1 52:0.9375 53:0.6875 54:0.3125 58:0.5625 59:0.875 60:0.75 61:0.875 62:0.625 # 0
-4.3480980222214670537286817519432e-11 2:0.3125 3:0.9375 4:1 5:0.4375 10:0.9375 11:0.9375 12:0.75 13:0.9375 18:0.5 19:0.0625 20:0.3125 21:1 22:0.125 28:0.5 29:1 35:0.125 36:0.9375 37:1 38:0.5714286 44:0.1875 45:0.75 46:0.8125 50:0.875 51:0.75 52:0.8125 53:1 54:0.5 58:0.3125 59:0.75 60:0.8125 61:0.625 62:0.0625 # 0
-1.8433907976121262101216645081799e-12 2:0.5625 3:0.8125 4:0.9375 5:0.625 6:0.0625 10:0.4375 11:0.25 12:0.25 13:0.75 14:0.8125 21:0.4375 22:0.6875 26:0.125 27:0.75 28:0.8125 29:0.75 30:0.125 35:0.625 36:0.9375 37:0.0625 43:0.0625 44:0.6875 45:0.5625 50:0.75 51:0.1875 52:0.1875 53:0.9375 58:0.5 59:1 60:1 61:0.1875 # 0
9.8406051584420215967423572336957e-11 2:0.75 3:1 4:0.375 9:0.2 10:0.9375 11:0.75 12:0.75 17:0.375 18:0.75 19:0.5 20:0.75 25:0.1875 26:0.875 27:0.6875 28:0.625 34:0.3125 35:1 36:0.1875 42:0.8125 43:0.75 49:0.5 50:1 51:0.75 52:0.4375 53:0.3125 54:0.125 58:0.75 59:0.8125 60:0.625 61:0.625 62:0.25 # 0
8.9795496086287123832329771846712e-10 3:0.4375 4:0.9375 5:0.375 10:0.625 11:0.8125 12:0.875 13:0.8125 17:0.125 18:0.8125 20:0.75 21:0.375 26:0.125 27:0.1875 28:0.75 29:0.0625 34:0.0625 35:0.9375 36:0.1875 41:0.125 42:0.8125 43:0.5 49:0.625 50:1 51:0.875 52:0.75 53:0.5 57:0.2 58:0.25 59:0.4375 60:0.5625 61:0.875 # 0
1.6447108549047598549300221943748e-09 2:0.4375 3:0.8125 4:1 5:0.3125 9:0.40000001 10:0.5 11:0.5 12:0.875 13:0.5625 20:0.9375 21:0.3125 27:0.75 28:0.6875 34:0.375 35:0.9375 36:0.0625 42:0.75 43:0.25 50:0.6875 51:0.625 52:0.5 53:0.5 54:0.25 58:0.375 59:0.9375 60:1 61:0.75 62:0.25 # 0
8.5921196190907920873360743106305e-10 2:0.125 3:0.75 4:0.8125 9:0.2 10:0.9375 11:0.8125 12:1 17:0.625 18:0.8125 19:0.0625 20:1 26:0.0625 27:0.25 28:1 35:0.375 36:0.8125 43:0.5625 44:0.625 45:0.4375 46:0.5 51:0.875 52:0.9375 53:0.9375 54:0.1875 59:0.9375 60:0.75 61:0.1875 # 0
2.5594777128339654152774851972329e-10 2:0.4375 3:1 4:0.875 5:0.125 10:0.8125 11:0.8125 12:0.5625 13:0.8125 18:0.6875 19:0.625 21:0.875 22:0.3125 26:0.3125 27:0.875 29:0.75 30:0.5625 37:0.75 38:0.5714286 44:0.25 45:1 46:0.3125 50:0.125 51:0.5 52:0.875 53:0.9375 58:0.5 59:1 60:1 61:1 62:1 63:0.26666668 # 0
2.6755952973591335553537633369127e-09 2:0.3125 3:0.9375 4:0.8125 5:0.125 10:0.875 11:0.8125 12:0.5625 13:0.8125 18:0.625 21:0.625 22:0.125 29:0.6875 30:0.1875 36:0.125 37:0.9375 43:0.0625 44:0.75 45:0.5625 50:0.625 51:0.75 52:1 53:0.875 54:0.125 58:0.3125 59:0.875 60:0.75 61:0.6875 62:0.25 # 0
-8.6428421790228177303834038576425e-10 2:0.5625 3:0.875 4:1 5:0.5625 6:0.0625 9:0.26666668 10:0.9375 11:0.4375 12:0.125 13:0.875 14:0.25 18:0.0625 19:0.0625 20:0.5 21:0.875 27:0.125 28:1 29:0.375 36:0.125 37:0.875 45:0.375 46:0.625 49:0.1875 50:0.5625 51:0.25 52:0.25 53:0.625 54:0.625 57:0.1 58:0.625 59:0.8125 60:0.75 61:0.5625 # 0
3.9184195635026992028630017939072e-10 2:0.1875 3:0.9375 4:0.5 10:0.5 11:1 12:1 13:0.4375 18:0.4375 19:0.6875 20:0.5625 21:0.75 26:0.125 27:0.3125 28:0.5625 29:0.6875 36:0.8125 37:0.4375 42:0.4375 43:0.625 44:1 45:0.25 50:0.875 51:1 52:1 53:1 54:0.9375 58:0.0625 59:0.25 60:0.25 61:0.4375 62:0.6875 63:0.06666667 # 0
6.1037399453176786832180935691569e-11 2:0.875 3:0.5 9:0.2 10:1 11:0.9375 12:0.25 17:0.0625 18:0.625 19:0.875 20:0.5625 27:0.5625 28:0.8125 35:0.5 36:0.8125 42:0.0625 43:0.75 44:0.9375 45:0.1875 50:0.6875 51:1 52:1 53:1 54:0.75 55:0.2 58:0.8125 59:0.875 60:0.125 61:0.0625 62:0.1875 63:0.06666667 # 0
2.4378888441351626817259757971793e-09 2:0.3125 3:0.5625 4:1 5:0.8125 6:0.25 9:0.06666667 10:0.9375 11:0.5 12:0.3125 13:0.875 14:0.75 18:0.25 20:0.25 21:0.875 22:0.5 27:0.125 28:0.875 29:0.625 35:0.75 36:0.875 42:0.4375 43:0.875 44:0.1875 50:0.9375 51:0.625 58:0.25 59:0.75 60:0.75 61:0.375 # 0
-7.6228011352591200877366533686505e-10 1:0.25 2:0.6875 3:0.1875 5:0.125 9:0.13333334 10:0.8125 11:0.75 12:0.3125 13:0.9375 14:0.375 18:0.6875 19:0.875 20:0.875 21:0.0625 26:0.4375 27:0.9375 28:0.0625 34:0.9375 35:0.75 36:0.3125 41:0.25 42:0.625 43:0.25 44:0.5 49:0.4375 50:0.5625 51:0.4375 52:0.5 57:0.2 58:0.875 59:0.9375 60:0.3125 # 0
-4.622831007838908760079886815569e-10 2:0.25 3:0.8125 4:0.875 5:0.1875 10:0.875 11:0.4375 12:0.25 13:0.875 17:0.1875 18:0.625 21:0.5 22:0.1875 25:0.5 26:0.25 29:0.25 30:0.5 33:0.35714287 34:0.75 37:0.125 38:0.5714286 42:0.9375 43:0.0625 45:0.25 46:0.4375 50:0.625 51:0.5 52:0.0625 53:0.75 54:0.375 58:0.125 59:0.75 60:1 61:0.9375 # 0
1.2351490257018318538316747779034e-09 2:0.4375 3:0.9375 4:0.625 9:0.13333334 10:1 11:0.5625 12:0.875 13:0.1875 17:0.3125 18:0.5625 20:0.5 21:0.25 25:0.125 26:0.625 28:0.8125 29:0.0625 35:0.5625 36:0.75 42:0.25 43:0.9375 44:0.0625 50:1 51:0.4375 52:0.25 53:0.25 54:0.125 58:0.5625 59:1 60:0.875 61:0.75 62:0.375 # 0
4.2089734614003232805546709691555e-11 1:0.625 2:1 3:0.3125 9:0.60000002 10:1 11:0.875 17:0.75 18:0.875 19:0.875 25:0.4375 26:0.8125 27:0.75 34:0.6875 35:0.5 37:0.1875 38:0.071428575 42:1 43:0.5 44:0.4375 45:0.875 46:0.6875 49:0.5 50:1 51:1 52:1 53:1 54:0.6875 57:0.60000002 58:1 59:1 60:0.6875 61:0.375 62:0.0625 # 0
-1.8063334670392755416943448585823e-10 3:0.5 4:0.9375 5:0.25 11:0.8125 12:1 13:0.8125 17:0.0625 18:0.0625 19:0.625 20:0.1875 21:0.8125 22:0.375 25:0.3125 26:0.5 29:0.375 30:0.5 33:0.5 34:0.6875 37:0.25 38:0.5714286 41:0.1875 42:0.9375 43:0.4375 45:0.25 46:0.5625 50:0.4375 51:1 52:0.8125 53:0.6875 54:0.75 59:0.375 60:0.9375 61:1 62:0.25 # 0
-3.0178040560085118701816209743844e-10 3:0.8125 4:0.5625 10:0.5 11:1 12:0.8125 17:0.25 18:1 19:1 20:0.9375 21:0.0625 26:0.1875 27:0.625 28:1 29:0.25 35:0.875 36:1 37:0.1875 43:0.9375 44:1 45:0.1875 50:0.3125 51:1 52:1 53:0.625 59:0.625 60:0.75 61:0.6875 62:0.0625 # 0
-5.7417982256364695899076260591403e-10 2:0.75 3:0.625 9:0.2 10:0.8125 11:1 12:0.25 17:0.375 18:1 19:1 20:0.4375 26:0.5 27:0.9375 28:0.5625 35:0.625 36:0.875 43:0.375 44:1 45:0.375 50:0.5625 51:0.8125 52:1 53:0.8125 54:0.5 55:0.30000001 58:0.5625 59:1 60:1 61:1 62:1 63:0.60000002 # 0
-5.0951323756429698627685968164748e-10 3:0.5 4:0.9375 5:1 6:0.4375 9:0.06666667 10:0.875 11:0.5625 12:0.0625 14:0.5 17:0.375 18:0.75 21:0.625 22:0.5 25:0.25 26:0.875 27:0.75 28:0.8125 29:0.875 30:0.5 36:0.0625 37:0.25 38:0.5714286 45:0.25 46:0.5 53:0.4375 54:0.5 59:0.5 60:0.75 61:0.9375 62:0.375 # 0
3.3059106892620252172863519463239e-10 1:0.125 2:0.75 3:0.1875 9:0.66666669 10:1 11:0.9375 12:0.0625 17:0.5 18:0.1875 19:0.8125 20:0.3125 25:0.0625 27:0.5625 28:0.5625 35:0.8125 36:0.375 42:0.125 43:0.9375 44:0.125 50:0.8125 51:1 52:0.875 53:0.875 54:0.75 58:0.5 59:0.75 60:0.75 61:0.625 62:0.6875 # 0
-4.3267920776347246713887484433742e-10 2:0.5 3:1 4:1 5:1 6:0.5625 9:0.33333334 10:0.9375 11:0.5625 12:0.3125 13:0.875 14:1 15:0.15384616 20:0.1875 21:1 22:0.5625 28:0.875 29:0.6875 30:0.0625 35:0.4375 36:1 37:0.3125 42:0.1875 43:1 44:0.5 50:0.5625 51:1 52:0.1875 58:0.75 59:1 60:0.0625 # 0
-9.0042973214071457584896652947735e-10 2:0.5 3:0.75 4:0.75 5:0.0625 9:0.40000001 10:0.75 11:0.125 12:0.375 13:0.5 17:0.3125 18:0.6875 20:0.1875 21:1 22:0.4375 26:0.875 27:0.375 28:0.625 29:0.625 30:0.0625 34:0.375 35:1 36:0.5 42:0.4375 43:1 44:0.3125 50:0.75 51:0.625 52:0.625 58:0.6875 59:0.875 60:0.5625 # 0
1.6767095411527880715229317332246e-10 2:0.5 3:0.625 10:0.875 11:1 12:0.3125 18:0.9375 19:0.6875 20:0.6875 26:0.625 27:0.375 28:0.75 34:0.0625 35:0.25 36:0.875 43:0.375 44:0.625 50:0.3125 51:0.9375 52:0.875 53:0.5625 54:0.5625 55:0.2 58:0.625 59:1 60:0.9375 61:0.9375 62:0.75 63:0.06666667 # 0
1.4124680027921080053837496530401e-09 2:0.75 3:1 4:0.375 9:0.46666667 10:0.75 11:0.25 12:0.875 17:0.6875 18:0.875 20:0.375 21:0.25 25:0.375 26:0.5 28:0.4375 29:0.25 36:0.625 37:0.1875 43:0.3125 44:0.8125 50:0.1875 51:0.875 52:0.625 58:0.875 59:0.8125 60:0.75 61:0.9375 62:0.8125 63:0.06666667 # 0
-8.9422254772355286547901796452911e-10 2:0.125 3:0.8125 4:0.5625 5:0.0625 9:0.06666667 10:0.8125 11:0.4375 12:0.9375 13:0.3125 16:0.33333334 17:0.9375 18:0.5625 20:0.9375 21:0.125 25:0.375 26:0.8125 27:0.4375 28:0.8125 34:0.3125 35:1 36:0.5 42:0.0625 43:0.9375 44:0.875 45:0.125 50:0.25 51:0.75 52:0.375 53:0.6875 59:0.6875 60:1 61:0.5 # 0
-2.6063696872280427325043622262452e-10 3:0.5 4:0.9375 5:0.125 11:0.8125 12:1 13:0.1875 18:0.25 19:1 20:0.875 26:0.4375 27:1 28:0.4375 34:0.5625 35:1 36:0.125 42:0.75 43:1 44:0.25 50:0.5 51:1 52:1 53:0.5 59:0.375 60:0.9375 61:0.9375 # 0
-3.6503789456965473050598568388115e-10 2:0.1875 3:0.875 4:0.3125 10:0.75 11:1 12:0.1875 17:0.125 18:0.75 19:0.5 25:0.1875 26:0.1875 33:0.5 34:0.25 36:0.375 41:0.25 42:1 43:0.9375 44:0.8125 45:0.9375 46:0.1875 49:0.125 50:0.875 51:0.875 52:0.25 53:0.875 54:0.6875 58:0.1875 59:0.8125 60:1 61:1 62:0.75 # 0
-7.005564487031414936622332340359e-10 2:0.25 3:0.9375 4:0.4375 9:0.13333334 10:0.9375 11:0.3125 12:0.8125 13:0.3125 17:0.3125 18:0.6875 20:0.125 21:0.8125 22:0.125 25:0.3125 26:0.5 29:0.375 30:0.5 33:0.5 34:0.5 37:0.3125 38:0.5714286 41:0.1875 42:0.6875 45:0.5625 46:0.4375 50:0.875 51:0.625 52:0.375 53:0.9375 54:0.125 58:0.375 59:0.75 60:0.8125 61:0.375 # 0
2.2620479358924828654160742516521e-09 2:0.5 3:0.875 4:1 5:0.3125 9:0.13333334 10:1 11:0.5 12:0.625 13:0.5 18:0.25 19:0.125 20:0.8125 21:0.375 27:0.4375 28:0.75 34:0.0625 35:0.9375 36:0.4375 42:0.5625 43:0.6875 49:0.25 50:1 51:0.5625 52:0.5 53:0.75 54:0.125 58:0.625 59:0.875 60:0.5625 61:0.125 # 0
1.5555938135156445924337118580654e-09 2:0.375 3:1 4:0.5 9:0.2 10:1 11:0.375 12:1 13:0.0625 17:0.1875 18:0.4375 19:0.125 20:1 21:0.125 27:0.4375 28:0.8125 35:0.75 36:0.5 42:0.125 43:0.9375 44:0.25 45:0.0625 50:0.5 51:0.75 52:0.25 53:0.8125 54:0.375 58:0.3125 59:1 60:0.9375 61:0.5 62:0.0625 # 0
-1.5441299260048541472506410923617e-10 1:0.375 2:0.375 3:0.9375 4:0.8125 5:0.0625 9:0.66666669 10:1 11:0.3125 12:0.6875 13:0.625 17:0.0625 18:0.6875 19:0.625 20:0.6875 21:0.6875 27:0.625 28:1 29:0.1875 34:0.0625 35:0.8125 36:0.8125 37:0.1875 42:0.4375 43:0.9375 44:0.375 45:0.6875 50:0.625 51:0.75 52:0.4375 53:0.875 58:0.25 59:1 60:0.9375 61:0.1875 # 0
-5.5325856374692035224462856752301e-10 2:0.0625 3:0.6875 4:1 5:0.375 10:0.75 11:0.875 12:0.6875 13:1 14:0.1875 18:0.6875 19:0.3125 20:0.125 21:1 22:0.3125 28:0.4375 29:0.875 30:0.125 35:0.4375 36:1 37:0.4375 43:0.1875 44:1 45:0.625 51:0.75 52:1 53:0.9375 58:0.0625 59:0.75 60:1 61:0.4375 # 0
2.4275920647296474794968002767614e-09 2:0.625 3:0.9375 4:1 5:0.375 9:0.06666667 10:0.8125 11:0.3125 12:0.4375 13:0.9375 14:0.125 20:0.4375 21:0.75 22:0.125 27:0.375 28:0.9375 29:0.1875 34:0.4375 35:0.75 36:0.0625 41:0.3125 42:0.875 43:0.125 49:0.5625 50:0.875 51:0.625 52:0.6875 53:0.4375 54:0.0625 57:0.1 58:0.4375 59:0.5 60:0.5 61:0.6875 62:0.25 # 0
4.2153540325090061873388101824087e-10 1:0.25 2:0.875 3:0.875 4:0.0625 9:0.60000002 10:0.8125 11:0.8125 12:0.375 17:0.5625 18:0.3125 19:0.1875 20:0.625 26:0.0625 27:0.1875 28:0.5625 35:0.5 36:0.25 42:0.125 43:0.9375 44:0.25 45:0.125 49:0.0625 50:0.8125 51:1 52:1 53:1 54:0.5625 58:0.8125 59:0.5 60:0.5 61:0.4375 62:0.125 # 0
-1.2211963549970931092124737991862e-10 2:0.3125 3:0.875 4:1 5:0.5 9:0.40000001 10:0.9375 11:0.625 12:0.75 13:1 14:0.0625 17:0.5625 18:0.3125 20:0.8125 21:0.5 25:0.375 26:0.9375 27:0.8125 28:0.9375 29:0.0625 34:0.6875 35:1 36:0.25 42:0.9375 43:1 44:0.4375 50:1 51:0.8125 52:0.875 58:0.3125 59:1 60:0.9375 61:0.25 # 0
-6.8924882346196405824993819021337e-10 1:0.125 2:0.6875 3:0.5625 4:0.875 5:0.6875 6:0.0625 9:0.53333336 10:1 11:0.875 12:0.875 13:1 14:0.125 17:0.4375 18:1 20:0.6875 21:0.75 25:0.0625 26:0.0625 27:0.0625 28:0.9375 29:0.3125 35:0.625 36:0.875 42:0.125 43:0.9375 44:0.3125 50:0.75 51:1 52:0.25 58:0.9375 59:0.6875 60:0.0625 # 0
1.5240692814927505947501614787113e-09 3:0.5625 4:1 5:0.3125 9:0.06666667 10:0.75 11:0.9375 12:0.9375 13:0.5 17:0.4375 18:0.8125 19:0.3125 20:0.9375 21:0.25 26:0.0625 27:0.375 28:1 35:0.5 36:1 43:0.5625 44:0.8125 51:0.75 52:0.5 53:0.25 54:0.1875 59:0.6875 60:1 61:0.9375 62:0.3125 # 0
-1.2795792862619089611103137218333e-09 2:0.3125 3:0.75 4:0.625 9:0.13333334 10:0.9375 11:0.875 12:1 13:0.0625 18:0.6875 19:0.1875 20:1 21:0.0625 28:0.6875 29:0.3125 36:0.4375 37:0.875 45:0.5625 46:0.625 50:0.625 51:0.4375 52:0.3125 53:0.75 54:0.75 58:0.375 59:0.875 60:1 61:0.8125 62:0.25 # 0
-2.9326928602549507693447689249356e-11 2:0.5625 3:1 4:0.5 9:0.60000002 10:0.8125 11:0.25 12:0.8125 17:0.4375 18:0.375 19:0.0625 20:0.875 27:0.5625 28:1 29:0.5625 35:0.5 36:0.375 37:0.8125 38:0.42857143 45:0.25 46:0.6875 50:0.375 52:0.1875 53:0.75 54:0.3125 58:0.5625 59:1 60:1 61:0.4375 # 0
-1.1243622735970887401555791289737e-10 3:0.5625 4:0.875 5:0.25 9:0.66666669 10:0.875 11:1 12:1 13:0.375 17:0.1875 18:0.5625 19:1 20:1 21:0.125 27:1 28:0.625 35:0.875 36:0.5625 42:0.125 43:1 44:0.5625 50:0.0625 51:1 52:0.75 59:0.4375 60:0.9375 61:0.0625 # 0
-9.1891693071559802235536478035851e-11 2:0.75 3:0.25 10:0.9375 11:0.25 17:0.125 18:0.9375 19:0.125 25:0.125 26:0.9375 27:0.375 28:0.75 29:0.5 33:0.5 34:1 35:0.875 36:0.5625 37:0.625 38:0.42857143 41:0.25 42:1 43:0.875 44:0.1875 45:0.0625 46:0.625 49:0.1875 50:1 51:0.8125 52:0.9375 53:1 54:0.3125 58:0.625 59:0.9375 60:0.625 61:0.1875 # 0
-1.5168136974324371667374222849675e-09 2:0.125 3:0.5 4:0.9375 5:0.6875 9:0.13333334 10:0.9375 11:0.875 12:0.75 13:1 14:0.25 17:0.125 18:0.4375 20:0.625 21:0.9375 27:0.1875 28:0.9375 29:0.1875 35:0.8125 36:0.5625 43:0.25 44:0.875 45:0.3125 49:0.125 50:0.625 51:0.5 52:0.4375 53:1 54:0.375 58:0.25 59:0.5625 60:0.8125 61:0.9375 62:0.4375 # 0
-1.6475849217305168058441746915349e-10 4:0.6875 5:0.5 11:0.125 12:1 13:0.5 19:0.375 20:1 21:0.125 27:0.4375 28:0.9375 35:0.625 36:0.875 42:0.8125 43:1 44:1 45:0.6875 50:0.4375 51:0.4375 52:1 53:1 54:0.625 60:0.5 61:1 62:0.9375 # 0
2.9254080645383038639644031288136e-09 1:0.125 2:0.625 3:0.75 4:0.875 5:0.5625 9:0.73333335 10:0.6875 11:0.3125 12:0.3125 13:1 14:0.25 17:0.25 18:0.1875 20:0.125 21:1 22:0.125 28:0.75 29:0.5625 34:0.0625 35:0.8125 36:0.625 42:0.5625 43:0.8125 49:0.125 50:1 51:0.25 57:0.1 58:0.8125 59:0.9375 60:0.75 61:0.125 # 0
7.3683793074610977080415228130284e-10 1:0.625 2:0.9375 3:0.8125 9:0.2 10:0.625 11:1 12:0.3125 19:0.875 20:0.25 26:0.375 27:0.875 33:0.071428575 34:0.875 35:0.4375 41:0.4375 42:0.8125 43:0.0625 49:0.8125 50:0.875 51:0.625 52:0.6875 53:0.5625 54:0.3125 57:0.5 58:0.9375 59:1 60:0.875 61:0.625 62:0.1875 # 0
-7.6242612572978043458287482610843e-10 2:0.875 3:0.9375 4:0.75 5:0.75 6:0.375 9:0.06666667 10:1 11:0.75 12:0.75 13:1 14:0.4375 18:0.375 19:0.0625 20:0.75 21:0.75 27:0.5 28:0.9375 29:0.125 35:0.8125 36:0.4375 42:0.375 43:0.9375 44:0.0625 50:0.9375 51:0.625 58:0.9375 59:0.375 # 0
-1.3265369561032918806848568854832e-09 2:0.6875 3:1 4:1 5:0.5 10:0.6875 11:0.75 12:0.5 13:0.8125 18:0.4375 19:0.625 26:0.1875 27:0.8125 35:0.875 36:0.125 43:0.8125 44:0.375 50:0.375 51:0.75 52:0.625 58:0.6875 59:1 60:0.5625 # 0
5.8491851479061451493731593520619e-10 1:0.125 2:0.8125 3:0.6875 9:0.33333334 10:0.875 11:1 12:0.375 17:0.4375 18:0.1875 19:0.75 20:0.375 27:0.875 34:0.375 35:0.75 41:0.125 42:0.9375 43:0.25 49:0.25 50:1 51:0.5625 52:0.5 53:0.625 54:0.3125 57:0.1 58:0.8125 59:1 60:1 61:0.9375 62:0.4375 # 0
-1.6847398506039680636754411638227e-10 1:0.375 2:0.8125 3:1 4:1 5:1 6:0.9375 7:0.0625 9:0.2 10:0.5625 11:0.3125 12:0.375 13:1 14:0.6875 20:0.625 21:0.875 22:0.0625 27:0.375 28:1 29:0.1875 35:0.875 36:0.6875 42:0.5 43:0.9375 44:0.125 49:0.0625 50:0.875 51:0.75 57:0.5 58:1 59:0.3125 # 0
-6.8953903111920240730296489268787e-11 2:0.6875 3:0.4375 4:0.625 5:0.1875 10:0.5625 11:0.75 12:0.75 13:0.875 19:0.9375 20:0.9375 21:0.6875 22:0.0625 26:0.0625 27:0.875 28:0.5625 34:0.5625 35:0.8125 36:0.5 42:0.875 43:0.3125 44:0.625 50:0.875 51:0.125 52:0.75 58:0.625 59:1 60:0.625 # 0
-2.0344731767423582343202417927418e-10 2:0.25 3:0.9375 4:0.6875 5:0.0625 9:0.13333334 10:0.8125 11:1 12:1 17:0.125 18:0.75 19:1 20:0.75 27:0.875 28:0.875 35:0.9375 36:0.875 43:1 44:0.8125 50:0.1875 51:1 52:0.9375 58:0.125 59:0.9375 60:1 61:0.0625 # 0
2.0123627940033946609029110974386e-10 3:0.1875 4:0.9375 5:1 6:0.1875 11:0.75 12:0.625 13:0.9375 14:0.1875 19:0.125 20:0.375 21:0.875 27:0.0625 28:0.9375 29:0.3125 34:0.0625 35:0.8125 36:0.5625 41:0.0625 42:0.75 43:0.75 44:0.0625 49:0.5625 50:1 51:1 52:1 53:0.8125 54:0.3125 57:0.2 58:0.25 59:0.3125 60:0.625 61:0.8125 62:0.75 # 0
1.2982138801875126667538288711685e-09 2:0.9375 3:0.5 9:0.13333334 10:1 11:0.9375 12:0.125 18:1 19:0.5 20:0.625 26:0.75 27:0.5 28:0.75 35:0.5 36:0.5 43:0.75 44:0.5 50:0.75 51:1 52:0.9375 53:0.9375 54:0.3125 58:0.9375 59:0.6875 60:0.375 61:0.125 # 0
-5.4686752720521055442877772266661e-11 2:0.875 3:0.5625 10:0.5 11:1 18:0.5 19:0.75 21:0.125 22:0.0625 26:0.75 27:0.5 29:0.8125 30:0.5625 33:0.071428575 34:1 35:0.25 37:1 38:0.5714286 41:0.3125 42:1 45:0.9375 46:0.375 49:0.5 50:1 51:1 52:1 53:1 54:0.75 57:0.1 58:0.5 59:0.5 60:0.5 61:0.8125 62:0.4375 # 0
-3.6661127609180683851182992243837e-10 1:0.375 2:1 3:0.9375 4:0.4375 9:0.33333334 10:1 11:1 12:1 13:0.8125 14:0.125 18:0.4375 19:0.5 20:0.625 21:1 22:0.375 28:0.125 29:1 30:0.25 36:0.25 37:1 38:0.071428575 44:0.75 45:0.5625 50:0.25 51:0.6875 52:0.9375 53:0.1875 57:0.2 58:0.9375 59:0.75 60:0.1875 # 0
-3.9921221324674164516667440000971e-11 3:0.375 4:0.9375 5:0.375 11:0.75 12:0.625 13:0.8125 19:0.6875 20:0.9375 21:0.875 26:0.5625 27:0.6875 28:0.875 33:0.2857143 34:0.6875 36:0.625 37:0.375 41:0.1875 42:0.5625 44:0.0625 45:0.875 46:0.0625 50:0.6875 51:0.5 52:0.125 53:0.5625 54:0.4375 59:0.375 60:0.75 61:0.8125 62:0.4375 # 0
-1.8014665624412535033846940152839e-10 2:0.125 3:0.6875 4:1 5:1 6:1 7:0.75 10:0.4375 11:0.9375 12:0.5625 13:0.5 14:0.75 15:1 21:0.0625 22:0.875 23:0.83333331 29:0.6875 30:0.5625 36:0.375 37:0.8125 43:0.0625 44:0.875 45:0.1875 51:0.625 52:0.5625 58:0.0625 59:1 60:0.3125 # 0
-3.8528742675625744441821310272542e-10 1:0.125 2:0.625 3:1 4:0.375 9:0.26666668 10:0.75 11:0.5 12:0.75 17:0.0625 19:0.125 20:0.6875 27:0.5625 28:1 29:0.5625 35:0.3125 36:0.5 37:1 38:0.35714287 45:0.5 46:0.5625 49:0.125 50:0.5 51:0.5 52:0.4375 53:0.6875 54:0.5625 57:0.1 58:0.8125 59:1 60:1 61:0.625 62:0.0625 # 0
-4.5983514835109200547901964607842e-10 2:0.0625 3:0.75 4:0.9375 5:0.375 10:0.3125 11:0.8125 12:0.0625 13:0.75 18:0.125 19:0.6875 20:0.0625 21:0.9375 27:0.625 28:0.6875 29:0.5625 35:0.375 36:1 37:0.375 42:0.625 43:0.9375 44:0.25 45:0.8125 46:0.1875 50:0.75 51:0.125 53:0.0625 54:0.875 58:0.0625 59:0.625 60:0.625 61:0.5 62:0.9375 63:0.06666667 # 0
1.4549618529879999999148144478869e-09 2:0.5625 3:0.9375 4:0.375 9:0.06666667 10:1 11:0.375 12:0.875 13:0.125 18:0.875 19:0.0625 20:0.5 21:0.5 26:0.4375 27:0.4375 28:0.3125 29:0.5625 36:0.5625 37:0.3125 43:0.0625 44:0.875 45:0.125 50:0.3125 51:0.9375 52:0.75 53:0.6875 54:0.375 58:0.9375 59:0.875 60:0.75 61:0.5 62:0.5 # 0
1.8208176034213761623025128752809e-09 2:0.25 3:0.875 4:0.9375 5:0.3125 9:0.46666667 10:0.875 11:0.4375 12:0.375 13:1 17:0.625 18:0.375 21:0.6875 22:0.1875 25:0.25 26:0.125 28:0.0625 29:0.875 36:0.625 37:0.4375 43:0.3125 44:0.8125 45:0.0625 50:0.375 51:1 52:0.5 58:0.3125 59:0.5625 60:0.75 61:0.75 62:1 63:0.13333334 # 0
-2.5795535317110174703730566372125e-10 3:0.375 4:0.5 10:0.125 11:0.875 12:0.1875 18:0.5625 19:0.5 25:0.25 26:0.9375 27:0.0625 29:0.625 30:0.3125 33:0.5 34:0.8125 36:0.125 37:1 38:0.21428572 41:0.6875 42:0.875 43:0.5 44:0.9375 45:0.5625 49:0.75 50:1 51:0.875 52:0.9375 57:0.1 58:0.25 59:0.5625 60:0.5 # 0
-3.223022670109491007745039975246e-09 2:0.25 3:0.875 4:1 5:0.4375 9:0.06666667 10:1 11:0.875 12:0.5 13:0.3125 17:0.5 18:0.625 25:0.1875 26:0.8125 34:0.75 35:0.375 42:0.25 43:0.8125 51:1 52:0.3125 58:0.4375 59:1 60:0.25 # 0
-3.7385013173091014841596787386147e-12 2:0.125 3:0.375 4:0.75 5:1 6:1 7:0.125 9:0.13333334 10:0.9375 11:1 12:0.5625 13:0.3125 14:1 15:0.38461539 18:0.3125 19:0.0625 21:0.125 22:1 23:0.33333334 29:0.5 30:0.625 36:0.25 37:1 38:0.5 42:0.625 43:0.8125 44:1 45:0.8125 46:0.0625 50:0.5625 51:0.8125 52:1 53:0.0625 59:0.4375 60:0.75 # 0
-1.9210212315987874052753566912185e-10 2:0.5625 3:0.875 4:0.5625 9:0.40000001 10:0.9375 11:0.3125 12:1 13:0.375 17:0.3125 18:0.875 19:0.0625 20:0.375 21:0.8125 26:0.625 27:0.875 28:0.8125 29:1 35:0.3125 36:0.3125 37:0.75 38:0.14285715 45:0.5625 46:0.3125 50:1 51:0.5625 52:0.4375 53:0.625 54:0.5 58:0.375 59:0.625 60:0.875 61:1 62:0.3125 # 0
-7.1391994437177037620577089694723e-11 1:0.375 2:0.9375 3:1 4:1 5:0.9375 6:0.0625 9:0.93333334 10:0.8125 11:0.4375 12:0.5 13:1 14:0.5 17:0.125 18:0.0625 20:0.5 21:1 22:0.4375 27:0.4375 28:1 29:0.625 35:0.875 36:0.8125 43:0.625 44:0.875 45:0.125 49:0.125 50:0.5 51:0.3125 52:1 53:0.5 57:0.2 58:1 59:1 60:0.8125 61:0.1875 # 0
-1.9717166454315774899203800361955e-09 2:0.3125 3:0.6875 4:0.875 5:0.3125 9:0.46666667 10:0.8125 11:0.3125 12:0.25 13:0.875 14:0.125 18:0.25 19:0.5 20:0.125 21:0.875 22:0.125 26:0.0625 27:0.8125 28:0.875 29:0.1875 34:0.0625 35:0.875 36:0.5 42:0.5625 43:0.5625 44:0.625 45:0.125 50:0.8125 51:0.0625 52:0.5 53:0.5 58:0.375 59:0.8125 60:0.875 61:0.4375 # 0
-3.394661762004115752790285212543e-10 2:0.125 3:0.75 4:1 5:0.1875 9:0.2 10:1 11:0.375 12:0.5 13:0.5 17:0.3125 18:0.875 19:0.6875 20:0.9375 21:0.125 27:0.625 28:0.6875 34:0.0625 35:1 36:0.875 37:0.125 42:0.5 43:0.75 44:0.375 45:0.5625 50:0.625 51:0.375 52:0.375 53:1 54:0.0625 58:0.1875 59:0.875 60:0.8125 61:0.5 # 0
-1.1047702520136520649203828089708e-09 2:0.6875 3:0.9375 4:0.625 9:0.13333334 10:0.8125 12:0.5625 13:0.1875 17:0.1875 18:0.75 20:0.625 26:0.6875 27:0.75 28:0.75 35:0.6875 36:0.875 37:0.375 41:0.0625 42:0.5625 43:0.3125 45:0.625 46:0.3125 49:0.25 50:0.625 53:0.5 54:0.25 57:0.1 58:0.875 59:0.6875 60:0.875 61:0.625 # 0
-5.1457228550928665754698086570593e-11 2:0.5 3:0.75 4:0.875 5:0.1875 9:0.66666669 10:1 11:0.875 12:0.9375 13:0.8125 17:0.4375 18:0.3125 20:0.5625 21:0.9375 28:0.75 29:0.6875 36:0.5625 37:1 38:0.14285715 45:0.875 46:0.5625 50:0.6875 51:0.75 52:0.875 53:1 54:0.3125 58:0.5 59:0.875 60:0.5625 61:0.25 # 0
-2.2887105419672449550433064599324e-10 2:0.3125 3:0.75 4:0.8125 5:0.0625 10:0.4375 11:1 12:1 13:0.625 18:0.0625 19:0.8125 20:1 21:0.8125 28:0.625 29:0.9375 36:0.5625 37:0.9375 42:0.125 43:0.3125 44:0.9375 45:0.75 50:0.6875 51:1 52:1 53:0.4375 58:0.25 59:0.8125 60:0.5625 # 0
-1.1653207274350898431995272499357e-10 2:0.4375 3:0.9375 4:0.75 5:0.25 9:0.33333334 10:0.9375 11:0.25 12:0.5625 13:0.875 17:0.625 18:0.5 20:0.25 21:1 22:0.125 25:0.375 26:0.6875 27:0.125 28:0.75 29:0.6875 34:0.8125 35:1 36:1 37:0.375 42:0.3125 43:1 44:1 45:0.5 50:0.625 51:0.875 52:0.3125 53:1 54:0.4375 58:0.5625 59:0.9375 60:1 61:1 62:0.5 # 0
-1.5211774918247977576017952223595e-09 2:0.25 3:0.875 4:0.6875 5:0.0625 10:0.5625 11:0.5 12:0.625 13:0.5625 18:0.4375 20:0.875 21:0.25 26:0.5625 27:0.6875 28:0.875 29:0.0625 34:0.0625 35:0.9375 36:0.5 42:0.1875 43:0.8125 44:0.75 45:0.3125 50:0.5 51:0.5 52:0.25 53:0.875 58:0.1875 59:0.9375 60:1 61:0.8125 # 0
-7.3529193460599390595446488096045e-10 2:0.125 3:0.8125 4:0.9375 5:0.25 10:0.5625 11:0.625 12:0.3125 13:0.6875 18:0.625 19:0.4375 20:0.8125 21:0.625 26:0.4375 27:0.75 28:1 29:0.1875 34:0.375 35:1 36:0.4375 42:0.875 43:0.8125 44:0.125 50:0.6875 51:0.125 52:0.625 59:0.8125 60:0.9375 # 0
-2.9044124166294593740996652319036e-11 2:0.375 3:1 4:0.6875 5:0.0625 10:1 11:0.8125 12:1 13:0.6875 17:0.3125 18:0.625 20:0.1875 21:0.8125 22:0.125 25:0.4375 26:0.5 29:0.25 30:0.4375 33:0.5714286 34:0.5 37:0.375 38:0.5714286 41:0.25 42:0.6875 43:0.125 44:0.25 45:0.9375 46:0.3125 50:0.875 51:1 52:1 53:0.9375 54:0.0625 58:0.3125 59:0.75 60:0.625 61:0.125 # 0
1.0618542393344528323119641856354e-09 2:0.25 3:0.75 4:0.8125 5:0.125 10:1 11:0.5625 12:0.75 13:0.5625 17:0.125 18:0.75 19:0.0625 20:0.9375 21:0.3125 26:0.0625 27:0.375 28:0.875 29:0.0625 35:0.9375 36:0.4375 42:0.5625 43:0.75 50:0.5625 51:0.5625 52:0.25 53:0.5 54:0.875 55:0.2 58:0.25 59:0.8125 60:0.8125 61:0.5625 62:0.125 # 0
-6.8135752900348020900259355087347e-11 3:0.125 4:0.6875 5:0.8125 6:0.125 10:0.125 11:0.8125 12:1 13:1 14:0.125 17:0.1875 18:0.9375 19:0.875 20:0.8125 21:1 26:0.375 28:0.9375 29:0.5625 36:1 37:0.375 43:0.25 44:1 51:0.3125 52:1 53:0.1875 59:0.1875 60:1 61:0.375 # 0
-8.3614745392136900561442855801033e-11 2:0.125 3:0.5625 4:0.9375 5:0.75 10:0.75 11:0.9375 12:0.875 13:0.8125 18:0.125 20:0.6875 21:0.4375 27:0.0625 28:1 29:0.5625 30:0.25 33:0.071428575 34:0.5625 35:1 36:1 37:0.6875 38:0.35714287 41:0.25 42:0.8125 43:0.8125 44:0.5625 51:0.8125 52:0.1875 58:0.125 59:0.875 60:0.0625 # 0
-4.9589045168890611718647957225758e-10 2:0.5 3:0.875 4:0.75 5:0.125 9:0.66666669 10:0.875 11:0.75 12:0.875 17:0.375 18:0.125 19:0.6875 20:0.4375 27:0.75 28:0.3125 35:0.5 36:0.9375 37:0.125 44:0.5625 45:0.875 46:0.1875 50:0.375 51:0.125 52:0.4375 53:0.875 54:0.5 58:0.875 59:0.9375 60:0.6875 61:0.25 # 0
-1.0358640348552458096679220131363e-10 2:0.0625 3:0.625 4:0.8125 5:0.0625 10:0.875 11:0.75 12:0.5 13:0.125 17:0.3125 18:0.875 19:0.0625 25:0.375 26:0.6875 33:0.5714286 34:0.875 35:0.875 36:0.75 37:0.6875 41:0.0625 42:1 43:0.625 45:0.125 46:0.625 50:0.8125 51:0.6875 52:0.0625 54:0.8125 58:0.0625 59:0.5 60:0.9375 61:1 62:0.5625 # 0
-1.1226920881991839212518152289795e-10 3:0.5625 4:0.5625 10:0.4375 11:0.9375 12:0.1875 18:0.6875 19:0.5 26:0.875 27:0.25 28:0.125 29:0.1875 34:0.75 35:0.75 36:1 37:0.75 38:0.71428573 42:0.5625 43:0.875 44:0.5 46:0.5 47:1 50:0.25 51:0.5625 52:0.0625 53:0.125 54:0.875 55:0.5 59:0.375 60:0.6875 61:0.875 62:0.5 # 0
-6.1171353235144313801294768356115e-10 2:0.3125 3:0.75 4:0.9375 5:0.875 6:0.625 7:0.1875 10:0.25 11:0.4375 12:0.25 13:0.3125 14:0.875 15:0.23076923 21:0.5625 22:0.6875 28:0.25 29:1 30:0.25 33:0.14285715 34:0.5 35:0.5625 36:1 37:0.625 41:0.1875 42:0.75 43:1 44:0.5625 50:0.3125 51:0.875 58:0.375 59:0.5625 # 0
-7.0941731893602867020915255592871e-11 2:0.125 3:1 4:0.9375 5:0.4375 10:0.1875 11:0.75 12:0.8125 13:0.8125 19:0.375 20:1 21:0.625 27:0.375 28:1 29:0.1875 34:0.1875 35:0.9375 36:0.625 37:0.75 41:0.0625 42:0.8125 43:0.3125 45:0.8125 46:0.375 50:1 51:0.3125 53:0.4375 54:0.9375 58:0.1875 59:0.6875 60:1 61:1 62:0.75 63:0.13333334 # 0
-9.8709555658599248094098153238413e-11 1:0.5 2:0.5 3:0.5 4:0.75 5:1 6:0.3125 9:0.53333336 10:1 11:1 12:1 13:0.9375 14:0.1875 17:0.125 18:0.1875 19:0.4375 20:1 21:0.4375 27:0.75 28:0.875 29:0.0625 34:0.5625 35:1 36:0.4375 42:0.875 43:1 49:0.375 50:1 51:0.75 57:0.60000002 58:0.875 59:0.4375 # 0
-8.0699448232129247157589763581281e-11 2:0.875 3:0.3125 10:0.8125 11:0.5 18:1 19:0.4375 26:0.9375 27:0.5 33:0.14285715 34:1 35:0.3125 36:0.9375 37:0.1875 41:0.125 42:1 43:0.5625 44:0.875 45:0.6875 46:0.0625 49:0.375 50:1 51:1 52:1 53:1 54:0.9375 57:0.1 58:0.5 59:0.3125 60:0.4375 61:1 62:0.5 # 0
-2.4143401191444251469909679687494e-10 2:0.3125 3:0.75 4:1 5:1 6:0.5625 9:0.2 10:1 11:0.5625 12:0.1875 17:0.4375 18:1 19:0.6875 20:0.3125 25:0.125 26:0.6875 27:0.5625 28:1 29:0.0625 36:0.5625 37:0.5625 44:0.5625 45:0.5625 50:0.5625 51:0.375 52:1 53:0.375 58:0.3125 59:0.75 60:0.375 # 0
-6.2288119340128995843686845162838e-11 4:0.5 5:1 6:0.6875 11:0.8125 12:0.5625 13:0.5 14:0.875 15:0.07692308 18:0.625 19:0.5 21:0.3125 22:1 23:0.66666669 25:0.125 26:0.9375 27:0.5 28:0.875 29:0.875 30:0.75 33:0.14285715 34:0.75 35:0.5625 36:0.125 37:0.625 38:0.42857143 44:0.125 45:0.875 52:0.5625 53:0.4375 60:0.8125 61:0.0625 # 0
4.2515149453791686724416203604817e-10 2:0.5 3:0.8125 4:0.75 5:0.125 10:0.625 11:0.75 12:0.8125 13:0.625 18:0.0625 20:0.5 21:0.75 28:0.5625 29:0.75 35:0.1875 36:1 37:0.3125 42:0.0625 43:0.8125 44:0.75 45:0.125 46:0.1875 50:0.75 51:1 52:1 53:1 54:0.5625 58:0.625 59:0.75 60:0.5625 61:0.125 # 0
-2.0619412758948845274882226413912e-10 2:0.3125 3:0.8125 4:0.75 5:0.0625 9:0.13333334 10:0.9375 11:0.3125 12:0.375 13:0.4375 17:0.375 18:0.5625 21:1 22:0.25 25:0.375 26:0.625 29:0.875 30:0.375 34:0.5625 35:0.8125 36:0.875 37:0.75 38:0.64285713 46:0.75 50:0.1875 53:0.1875 54:0.875 58:0.3125 59:0.75 60:0.8125 61:0.875 62:0.3125 # 0
-2.8220194232860030478519585598154e-10 2:0.5625 3:0.75 4:0.6875 9:0.46666667 10:0.8125 11:0.25 12:0.875 13:0.125 17:0.125 18:0.375 20:0.875 21:0.25 27:0.5 28:0.875 35:0.625 36:0.875 37:0.8125 38:0.071428575 44:0.0625 45:0.875 46:0.3125 50:0.5 51:0.3125 52:0.625 53:0.875 54:0.125 57:0.1 58:0.9375 59:1 60:0.6875 61:0.0625 # 0
-7.8989027534668859359949749819802e-11 4:0.0625 5:0.875 6:0.25 12:0.125 13:1 14:0.5 20:0.5 21:1 22:0.375 28:0.9375 29:1 30:0.3125 35:0.5 36:1 37:1 38:0.21428572 42:0.375 43:1 44:0.5625 45:1 49:0.125 50:1 51:0.5 52:0.25 53:1 57:0.2 58:0.25 60:0.125 61:0.9375 62:0.1875 # 0
-1.7544132808282278489504174683473e-10 4:0.75 5:0.1875 11:0.125 12:0.9375 19:0.5625 20:0.5625 26:0.1875 27:0.9375 29:0.1875 30:0.625 33:0.071428575 34:0.875 35:0.1875 37:0.875 38:0.42857143 41:0.625 42:1 43:0.9375 44:0.8125 45:1 46:0.0625 49:0.5625 50:0.625 51:0.5 52:0.875 53:0.6875 60:0.75 61:0.125 # 0
-3.7844976850396856824567698264548e-11 2:0.125 3:0.625 4:1 5:0.1875 10:0.9375 11:1 12:1 13:0.25 17:0.1875 18:0.75 19:0.0625 20:1 21:0.9375 22:0.5625 27:0.4375 28:1 29:1 30:0.8125 35:1 36:0.9375 37:0.125 43:0.5 44:0.75 51:0.8125 52:0.5625 59:0.875 60:0.1875 # 0
5.8351581801203896229075516522734e-10 2:0.25 3:0.75 4:0.4375 10:0.8125 11:0.6875 12:0.75 13:0.25 18:0.5 20:0.1875 21:0.625 28:0.125 29:0.8125 36:0.5625 37:0.5 43:0.1875 44:1 45:0.0625 50:0.5 51:1 52:0.9375 53:0.875 54:0.875 55:0.1 58:0.375 59:0.75 60:0.75 61:0.625 62:0.625 63:0.13333334 # 0
-3.4376285723786250466477593507291e-10 2:0.25 3:0.8125 4:0.9375 5:0.5 9:0.13333334 10:0.8125 11:0.25 13:0.75 17:0.375 18:0.5625 20:0.125 21:0.625 25:0.1875 26:0.8125 27:0.0625 28:0.25 29:0.9375 30:0.3125 34:0.3125 35:0.875 36:0.875 37:0.1875 42:0.1875 43:1 44:0.8125 50:0.5 51:0.375 52:0.875 53:0.25 58:0.375 59:0.8125 60:0.9375 61:0.1875 # 0
-1.6306556698681703408958129598513e-10 2:0.3125 3:0.75 4:0.5625 5:0.0625 9:0.26666668 10:1 11:0.5625 12:0.6875 13:0.375 14:0.0625 17:0.0625 18:0.9375 19:0.25 20:0.0625 21:0.75 22:0.25 26:0.375 27:0.375 28:0.8125 29:0.875 34:0.1875 35:1 36:1 37:0.25 42:0.4375 43:1 44:1 45:0.0625 50:0.625 51:1 52:1 53:0.4375 58:0.5 59:0.75 60:0.75 61:0.25 # 0
-1.8492224682556314859281895055735e-10 2:0.3125 3:0.9375 4:0.5 9:0.13333334 10:0.9375 11:0.5625 12:0.625 13:0.1875 14:0.0625 17:0.375 18:0.5625 19:0.4375 20:0.6875 21:0.875 22:0.0625 25:0.125 26:0.9375 27:0.8125 28:0.5 29:0.125 33:0.071428575 34:0.9375 35:0.375 41:0.0625 42:1 43:0.75 49:0.0625 50:1 51:0.8125 52:0.0625 58:0.5 59:0.9375 60:0.1875 # 0
-2.6006331624843419037183591027544e-10 2:0.5 3:0.75 4:0.8125 5:0.1875 10:0.6875 11:0.9375 12:0.4375 13:0.0625 18:0.9375 19:1 20:0.875 21:0.1875 26:0.25 27:0.3125 28:0.375 29:0.8125 30:0.125 37:0.5625 38:0.5 42:0.375 45:0.125 46:0.75 49:0.1875 50:0.9375 51:0.5 52:0.25 53:0.625 54:0.6875 58:0.5 59:0.75 60:0.8125 61:0.75 62:0.1875 # 0
-4.0028616790248845272680517120404e-11 2:0.4375 3:0.9375 4:0.9375 5:0.5 6:0.1875 9:0.2 10:0.875 11:0.1875 13:0.8125 14:0.5 17:0.375 18:0.625 19:0.0625 20:0.375 21:0.875 22:0.5 26:0.5 27:0.75 28:0.375 29:0.5 30:0.5 37:0.5 38:0.42857143 45:0.75 46:0.1875 52:0.4375 53:0.8125 58:0.4375 59:0.9375 60:0.875 61:0.125 # 0
-2.905061655456254861603187136229e-10 3:0.125 4:0.75 5:0.8125 6:0.5 7:0.0625 10:0.1875 11:0.75 12:0.3125 13:0.875 14:1 15:0.15384616 18:0.6875 19:0.0625 21:0.75 22:0.875 25:0.125 26:0.6875 27:0.1875 28:0.4375 29:0.875 30:0.1875 33:0.21428572 34:0.9375 35:0.6875 36:0.3125 37:0.625 44:0.5625 45:0.375 51:0.0625 52:0.875 53:0.125 60:0.875 61:0.0625 # 0
-1.7012457847150157894578385844381e-10 2:0.625 3:0.9375 4:0.1875 10:1 11:0.4375 12:0.5 18:0.6875 19:0.3125 20:0.25 21:0.625 22:0.1875 26:0.1875 27:0.8125 28:0.9375 29:0.625 30:0.0625 34:0.125 35:0.9375 36:0.875 37:0.0625 42:0.8125 43:0.5625 44:0.625 45:0.375 49:0.0625 50:0.875 51:0.25 52:0.5 53:0.5 58:0.5 59:0.875 60:0.8125 61:0.25 # 0
-1.3010731461189027975988416189926e-09 2:0.125 3:0.8125 4:0.75 5:0.25 9:0.06666667 10:0.9375 11:0.75 12:0.1875 13:0.8125 14:0.125 17:0.5 18:0.8125 19:0.5 21:0.375 22:0.25 25:0.5 26:0.25 27:0.1875 29:0.1875 30:0.5 33:0.35714287 34:0.3125 37:0.375 38:0.42857143 41:0.0625 42:0.875 43:0.0625 45:0.5 46:0.1875 50:0.5 51:0.5 52:0.3125 53:0.8125 54:0.0625 59:0.6875 60:0.9375 61:0.375 # 0
-3.9984808611130941800620266039226e-10 2:0.5625 3:1 4:1 5:0.875 9:0.2 10:0.9375 11:0.625 12:0.125 13:0.3125 17:0.6875 18:0.5625 25:0.5 26:0.875 27:0.0625 33:0.071428575 34:0.9375 35:0.3125 42:0.6875 43:0.5625 50:0.5625 51:0.75 58:0.875 59:0.5625 # 0
-1.8964768426744503715803493699386e-10 2:0.125 3:0.9375 4:0.75 10:0.1875 11:1 12:0.875 13:0.625 19:0.3125 20:0.8125 21:1 22:0.125 29:0.75 30:0.5 37:0.4375 38:0.78571427 45:0.4375 46:0.8125 50:0.125 52:0.125 53:0.6875 54:0.6875 58:0.1875 59:0.8125 60:0.9375 61:1 62:0.375 # 0
-7.0654946654627526673543062441782e-11 2:0.125 3:0.75 4:1 5:0.4375 11:0.625 12:1 13:0.1875 19:0.1875 20:0.9375 21:0.3125 28:0.375 29:0.9375 30:0.1875 37:0.5 38:1 45:0.6875 46:1 51:0.1875 52:0.8125 53:1 54:0.5625 58:0.375 59:1 60:0.75 61:0.5 62:0.0625 # 0
-3.8563854159551820343680931986937e-11 4:0.375 5:0.5625 11:0.4375 12:0.9375 13:0.25 18:0.1875 19:0.875 20:0.4375 26:0.5625 27:0.5625 29:0.8125 30:0.1875 33:0.14285715 34:1 35:0.125 36:0.125 37:1 41:0.5 42:1 43:0.875 44:1 45:1 46:0.375 49:0.125 50:0.25 51:0.25 52:0.75 53:0.5 60:0.5625 61:0.6875 # 0
-1.1154157568719340732762847041444e-10 3:0.125 4:0.9375 5:0.125 11:0.625 12:0.5 14:0.5 15:0.23076923 18:0.375 19:0.75 21:0.1875 22:0.9375 25:0.125 26:0.875 27:0.0625 29:0.75 30:0.5 33:0.64285713 34:0.9375 35:0.75 36:1 37:1 38:0.35714287 41:0.1875 42:0.5 43:0.3125 44:0.6875 45:0.625 51:0.0625 52:0.9375 53:0.25 59:0.1875 60:0.5625 # 0
-8.8987578023249919716925540450115e-11 2:0.625 3:0.4375 9:0.06666667 10:0.875 11:0.5 17:0.3125 18:1 19:0.1875 20:0.125 21:0.5 22:0.25 25:0.4375 26:1 27:0.875 28:1 29:0.9375 30:0.3125 34:0.25 35:0.5 36:1 37:0.75 43:0.375 44:1 45:0.125 50:0.3125 51:1 52:0.4375 58:0.6875 59:0.5625 # 0
-1.2846994675379889161103789178663e-10 2:0.1875 3:0.625 4:0.6875 5:0.3125 9:0.53333336 10:1 11:0.625 12:0.5 13:0.3125 17:0.6875 18:0.6875 25:0.5 26:0.875 27:0.6875 28:0.5 29:0.25 34:0.1875 35:0.4375 36:0.5625 37:0.875 38:0.64285713 45:0.3125 46:0.8125 50:0.0625 51:0.25 52:0.625 53:1 54:0.3125 58:0.125 59:0.8125 60:0.625 61:0.125 # 0
-9.9372407107286050986460597826867e-11 3:0.75 4:1 5:0.8125 10:0.375 11:1 12:0.625 13:0.3125 16:0.33333334 17:0.875 18:0.125 19:0.375 25:0.75 26:0.6875 33:0.21428572 34:0.875 35:0.6875 36:0.0625 42:0.1875 43:0.8125 44:0.6875 51:0.3125 52:1 53:0.375 59:0.8125 60:1 61:0.375 # 0
-8.878076398426126450573366835281e-11 2:0.1875 3:0.75 4:1 5:0.625 9:0.2 10:0.875 11:0.3125 13:0.75 17:0.5625 18:0.5 19:0.0625 20:0.5625 21:1 22:0.25 25:0.3125 26:0.9375 27:0.9375 28:0.9375 29:0.875 30:0.125 36:0.9375 37:0.1875 43:0.5 44:0.625 51:0.6875 52:0.375 58:0.1875 59:0.9375 60:0.125 # 0
-3.3763608196386630492794699534727e-10 2:0.5 3:0.875 4:0.8125 5:0.1875 9:0.40000001 10:0.8125 11:0.1875 12:0.375 13:0.6875 17:0.0625 18:0.125 20:0.25 21:0.8125 27:0.6875 28:1 29:0.6875 35:0.1875 36:0.25 37:0.6875 38:0.5 45:0.3125 46:0.5625 49:0.125 50:0.8125 51:0.0625 53:0.4375 54:0.625 58:0.5625 59:1 60:0.8125 61:0.75 62:0.0625 # 0
-2.1301997044116672461588951290881e-10 2:0.0625 3:0.9375 4:0.25 9:0.26666668 10:0.4375 11:0.5625 12:1 13:0.25 17:0.5 18:0.4375 20:0.25 21:0.9375 25:0.375 26:0.375 29:0.6875 30:0.375 33:0.35714287 34:0.5625 37:0.1875 38:0.64285713 42:0.9375 45:0.3125 46:0.5625 50:0.6875 51:0.6875 52:0.3125 53:0.9375 54:0.3125 58:0.1875 59:0.8125 60:1 61:0.6875 # 0
-1.0767580782383875085507887542845e-10 2:0.0625 3:0.75 4:1 5:1 6:0.75 11:0.4375 12:0.25 13:0.6875 14:0.8125 21:0.5 22:0.6875 27:0.0625 28:0.25 29:0.75 30:0.5 35:0.75 36:1 37:1 38:0.5714286 43:0.1875 44:0.75 45:0.375 51:0.375 52:0.875 59:0.9375 60:0.3125 # 0
-1.0748654241938794014271210811568e-12 2:0.25 3:0.9375 4:0.5625 5:0.0625 10:0.6875 11:1 12:1 13:0.5625 18:0.0625 19:0.625 20:1 21:0.6875 27:0.5 28:1 29:0.75 35:0.6875 36:1 37:0.625 42:0.0625 43:1 44:1 45:0.4375 50:0.3125 51:1 52:1 53:0.75 58:0.3125 59:1 60:0.875 61:0.375 # 0
-1.1309289528465707736473550925586e-11 3:0.8125 4:0.4375 9:0.33333334 10:0.875 11:1 12:1 13:0.5 17:0.75 18:0.625 20:0.375 21:1 25:0.125 26:0.875 27:0.75 28:0.3125 29:1 30:0.1875 35:0.6875 36:1 37:0.6875 42:0.125 43:0.9375 44:0.5625 45:1 46:0.3125 50:0.625 51:0.875 52:0.25 53:0.8125 54:0.75 58:0.0625 59:0.5625 60:0.875 61:1 62:0.6875 # 0
-1.6234522918746313355643911390403e-10 3:0.25 4:0.5 11:0.6875 12:0.5 19:0.8125 20:0.375 26:0.125 27:0.9375 28:0.125 29:0.1875 34:0.6875 35:0.625 36:0.25 37:1 38:0.14285715 41:0.6875 42:0.875 44:0.5625 45:1 46:0.125 49:0.5625 50:0.9375 51:0.75 52:0.9375 53:1 58:0.125 59:0.375 60:0.9375 61:0.375 # 0
-2.7296453359903391763855573137114e-10 2:0.1875 3:0.6875 4:0.8125 5:0.5 9:0.06666667 10:0.875 11:0.3125 12:0.0625 13:0.75 14:0.1875 17:0.25 18:0.75 21:0.5 22:0.6875 25:0.0625 26:0.9375 27:0.375 28:0.25 29:0.9375 30:0.25 34:0.125 35:0.5 36:0.625 37:0.875 38:0.2857143 45:0.6875 46:0.25 51:0.125 52:0.125 53:0.6875 54:0.25 58:0.125 59:0.875 60:0.6875 61:0.4375 62:0.0625 # 0
-1.5877149577881686310696676826305e-10 2:0.3125 3:0.6875 4:0.9375 5:0.3125 9:0.40000001 10:0.8125 11:0.125 12:0.1875 13:0.9375 14:0.1875 17:0.4375 18:0.8125 19:0.5 20:0.6875 21:1 22:0.5 25:0.0625 26:0.5625 27:0.75 28:0.5 29:0.5 30:0.5 36:0.0625 37:0.8125 38:0.2857143 44:0.5625 45:0.75 51:0.5 52:0.8125 58:0.4375 59:0.625 60:0.0625 # 0
-1.4968160474226291221146208844942e-10 3:0.4375 4:0.75 5:0.4375 10:0.8125 11:0.8125 12:0.8125 13:0.75 17:0.1875 18:0.75 20:0.5625 21:0.5625 27:0.4375 28:1 29:0.5625 35:0.125 36:0.5 37:1 44:0.0625 45:0.9375 46:0.1875 51:0.75 52:0.5625 53:0.9375 58:0.0625 59:0.75 60:0.9375 61:0.3125 # 0
-1.4360318590852611992222248000697e-10 1:0.375 2:0.75 3:0.75 4:0.1875 9:0.53333336 10:0.625 11:0.6875 12:0.5625 18:0.125 19:0.875 20:0.25 26:0.75 27:0.8125 28:0.0625 34:0.1875 35:0.8125 36:0.9375 37:0.1875 44:0.4375 45:0.875 46:0.0625 49:0.125 50:0.25 51:0.25 52:0.1875 53:0.6875 54:0.4375 57:0.5 58:0.75 59:0.75 60:0.875 61:1 62:0.5 # 0
-2.3372746034405076796739800428914e-10 3:0.4375 4:0.75 5:0.125 10:0.3125 11:0.875 12:0.5625 13:0.1875 18:1 19:0.5 25:0.1875 26:0.8125 33:0.2857143 34:0.5625 35:0.75 36:0.875 37:0.4375 41:0.0625 42:0.6875 43:0.75 44:0.5 45:0.4375 46:0.6875 47:0.25 50:0.25 51:0.625 52:0.125 54:0.6875 55:0.5 59:0.375 60:0.8125 61:0.875 62:0.875 63:0.06666667 # 0
-8.7284349869835090001281656854593e-11 2:0.1875 3:0.625 4:0.8125 5:0.0625 9:0.13333334 10:0.9375 11:0.625 12:1 13:0.1875 17:0.125 18:0.25 19:0.0625 20:1 21:0.25 27:0.4375 28:1 34:0.4375 35:0.875 36:1 37:0.75 38:0.21428572 41:0.125 42:0.8125 43:0.9375 44:0.8125 45:0.5625 46:0.125 51:0.8125 52:0.5 58:0.0625 59:0.9375 60:0.1875 # 0
-1.4465023402530485278991436576183e-11 2:0.375 3:0.625 4:0.9375 5:0.6875 6:0.0625 9:0.06666667 10:0.9375 11:0.5625 12:0.375 13:0.75 14:0.25 17:0.3125 18:1 21:0.3125 22:0.375 25:0.25 26:0.875 29:0.375 30:0.5 33:0.42857143 34:0.5625 37:0.75 38:0.14285715 41:0.4375 42:0.5625 44:0.375 45:0.6875 49:0.1875 50:0.9375 51:0.5 52:0.9375 53:0.25 58:0.625 59:0.875 60:0.3125 # 0
-1.0934114222223536529044621434131e-10 3:0.1875 4:0.8125 11:0.75 12:0.5 18:0.3125 19:0.875 20:0.125 25:0.0625 26:0.9375 27:0.25 29:0.1875 30:0.5 33:0.9285714 34:0.9375 35:0.75 36:0.5625 37:0.8125 38:0.71428573 41:0.3125 42:0.5 43:0.5 44:0.9375 45:0.875 46:0.125 51:0.125 52:0.875 53:0.3125 59:0.375 60:0.75 # 0
-8.2909103442106718440222982608747e-11 2:0.4375 3:0.75 10:0.9375 11:0.9375 12:0.625 13:0.8125 17:0.3125 18:0.875 19:0.1875 20:0.1875 21:0.875 22:0.125 25:0.25 26:0.625 29:0.625 30:0.3125 33:0.21428572 34:0.5625 37:0.9375 38:0.21428572 41:0.125 42:0.5625 44:0.1875 45:1 46:0.0625 50:0.875 51:0.25 52:0.8125 53:0.5 58:0.3125 59:1 60:0.75 61:0.0625 # 0
-7.4034475272326204399283617518308e-11 2:0.1875 3:0.9375 4:0.5625 5:0.0625 10:0.6875 11:0.875 12:1 13:0.875 14:0.0625 17:0.25 18:0.875 19:0.0625 20:0.1875 21:0.6875 22:0.5 25:0.5 26:0.5625 29:0.5 30:0.5 33:0.5714286 34:0.5 36:0.0625 37:0.9375 38:0.2857143 41:0.4375 42:0.5625 44:0.4375 45:0.8125 49:0.1875 50:0.875 51:0.625 52:0.9375 53:0.1875 58:0.3125 59:0.8125 60:0.25 # 0
-5.7979695494456679869310244111554e-11 2:0.5 3:0.8125 4:0.5 9:0.26666668 10:0.8125 11:0.375 12:0.875 13:0.1875 17:0.4375 18:0.5 20:0.75 21:0.3125 25:0.1875 26:0.625 27:0.5 28:1 29:0.0625 35:0.3125 36:0.875 37:0.75 45:0.8125 46:0.5 50:0.625 51:0.625 53:0.375 54:0.75 58:0.25 59:0.9375 60:1 61:1 62:0.375 # 0
-1.9822935859809061652799471796944e-10 2:0.625 3:0.5 4:0.625 5:0.75 6:0.375 9:0.13333334 10:1 11:0.875 12:0.75 13:0.9375 14:0.6875 17:0.1875 18:0.5625 19:0.125 20:0.25 21:0.875 22:0.125 27:0.0625 28:0.875 29:0.25 35:0.3125 36:0.875 42:0.0625 43:0.8125 44:0.375 49:0.0625 50:0.75 51:1 52:0.0625 58:0.875 59:0.625 # 0
-1.222526094172743278702232761412e-10 3:0.625 4:1 5:0.9375 6:0.1875 10:0.375 11:0.8125 12:0.625 13:1 14:0.125 18:0.1875 19:0.0625 20:0.125 21:0.875 28:0.5 29:0.5 34:0.0625 35:0.5 36:0.875 37:0.9375 38:0.5714286 41:0.0625 42:0.9375 43:1 44:0.8125 45:0.1875 50:0.125 51:0.5625 52:0.4375 59:0.875 60:0.0625 # 0
-4.01950948336471323929586653328e-10 2:0.1875 3:0.875 4:1 5:0.375 9:0.06666667 10:0.8125 11:0.3125 12:0.25 13:0.8125 17:0.3125 18:0.75 21:0.5625 22:0.25 25:0.3125 26:0.5625 29:0.3125 30:0.5 33:0.5714286 34:0.4375 37:0.1875 38:0.5714286 41:0.375 42:0.5625 45:0.125 46:0.5625 50:0.9375 51:0.1875 52:0.0625 53:0.5625 54:0.5 58:0.3125 59:0.9375 60:0.875 61:0.5625 # 0
-9.5000870570598640634893011615785e-11 1:0.125 2:0.375 3:0.6875 4:1 5:0.375 10:0.3125 11:0.8125 12:0.6875 13:1 14:0.375 18:0.25 19:1 20:0.5 26:0.3125 27:0.9375 33:0.071428575 34:0.8125 35:0.625 36:0.25 41:0.375 42:0.625 43:0.25 44:0.5 49:0.5 50:0.4375 51:0.75 52:0.4375 57:0.2 58:0.8125 59:0.875 # 0
1.8240231095203999808448823279164e-10 1:0.125 2:0.9375 3:0.375 9:0.46666667 10:0.9375 11:1 12:0.1875 17:0.6875 18:0.3125 19:0.75 20:0.25 25:0.125 26:0.1875 27:0.625 28:0.4375 34:0.0625 35:1 36:0.125 42:0.375 43:0.875 50:0.875 51:1 52:1 53:0.9375 54:0.375 58:0.5 59:0.5 60:0.5 61:0.625 62:0.8125 # 0
-9.1590775398289899999439378623395e-11 2:0.5 3:0.875 4:0.625 5:0.125 10:0.9375 11:0.875 12:0.6875 13:0.8125 20:0.3125 21:1 22:0.0625 28:0.6875 29:0.875 36:0.1875 37:0.9375 38:0.21428572 45:0.5625 46:0.8125 50:0.1875 51:0.5625 52:0.5 53:0.9375 54:0.6875 58:0.375 59:1 60:0.875 61:0.4375 62:0.0625 # 0
-3.6768853431354684942082556723257e-11 1:0.25 2:0.75 3:0.9375 4:0.6875 5:0.1875 9:0.66666669 10:0.8125 11:0.3125 12:0.8125 13:0.8125 17:0.125 18:0.125 20:0.75 21:0.875 27:0.4375 28:0.9375 29:0.1875 35:0.3125 36:0.9375 37:0.1875 44:0.5 45:0.9375 46:0.0625 50:0.5 51:0.3125 52:0.25 53:0.75 54:0.625 58:0.875 59:1 60:1 61:1 62:0.3125 # 0
-2.9462474824854432901393954440526e-11 2:0.5625 3:1 4:0.375 10:0.9375 11:0.625 12:0.9375 13:0.125 18:0.3125 19:0.125 20:1 21:0.125 26:0.125 27:0.4375 28:1 29:0.1875 33:0.5 34:1 35:1 36:1 37:1 38:0.5714286 41:0.0625 42:0.3125 43:0.875 44:0.375 46:0.0625 50:0.5625 51:0.75 58:0.625 59:0.5 # 0
-6.3504472078733593898118718350969e-11 2:0.25 3:0.75 4:0.9375 5:0.3125 9:0.13333334 10:0.9375 11:0.8125 12:0.6875 13:0.6875 17:0.125 18:0.625 19:0.125 20:0.3125 21:1 27:0.25 28:0.875 29:0.875 35:0.3125 36:0.75 37:0.875 38:0.5 45:0.1875 46:0.875 50:0.5625 51:0.625 52:0.1875 53:0.5 54:0.9375 55:0.2 58:0.125 59:0.5625 60:1 61:1 62:0.4375 # 0
-2.6255567930140625176486305075181e-11 2:0.4375 3:1 4:0.9375 5:0.3125 10:0.3125 11:0.5 12:0.6875 13:0.9375 14:0.25 19:0.0625 20:0.875 21:0.8125 22:0.0625 27:0.625 28:1 29:0.1875 35:0.3125 36:1 37:0.3125 42:0.125 44:0.6875 45:0.75 49:0.1875 50:0.9375 51:0.6875 52:0.75 53:0.9375 58:0.5 59:0.8125 60:0.6875 61:0.1875 # 0
-3.9125881882143712675249502438754e-11 2:0.5625 3:0.9375 4:1 5:0.75 6:0.0625 10:0.1875 11:0.25 12:0.25 13:0.9375 14:0.375 21:1 22:0.25 28:0.5 29:0.8125 33:0.21428572 34:0.75 35:1 36:1 37:0.9375 38:0.2857143 41:0.1875 42:0.3125 43:0.75 44:0.5625 50:0.1875 51:0.9375 52:0.0625 58:0.6875 59:0.375 # 0
-1.0113468952369641103585788413803e-10 2:0.3125 3:0.75 4:0.875 5:0.1875 9:0.2 10:0.875 11:0.125 12:0.25 13:0.6875 17:0.25 18:0.75 20:0.3125 21:1 22:0.25 25:0.0625 26:0.875 27:0.375 28:0.875 29:0.25 34:0.4375 35:1 36:0.25 42:0.4375 43:1 44:0.25 50:0.625 51:0.8125 52:0.6875 58:0.4375 59:1 60:0.6875 # 0
-2.742997669804601716209217451824e-11 2:0.0625 3:0.6875 4:0.375 10:0.4375 11:0.8125 12:0.125 18:0.8125 19:0.375 25:0.0625 26:0.8125 27:0.0625 33:0.071428575 34:0.75 36:0.25 37:0.1875 41:0.0625 42:0.6875 43:0.6875 44:0.875 45:0.875 46:0.625 50:0.75 51:0.9375 52:0.3125 53:0.25 54:0.9375 55:0.30000001 58:0.0625 59:0.8125 60:1 61:0.75 62:0.5625 63:0.06666667 # 0
-6.2007246930623852958035464327547e-11 2:0.125 3:0.9375 4:0.9375 5:0.6875 6:0.1875 9:0.13333334 10:0.9375 11:0.375 12:0.25 13:0.25 14:0.1875 17:0.3125 18:1 19:0.9375 20:0.4375 25:0.0625 26:0.25 27:0.375 28:0.8125 29:0.8125 37:0.875 38:0.2857143 42:0.1875 43:0.1875 45:0.6875 46:0.1875 50:0.4375 51:0.4375 52:0.625 53:0.75 58:0.1875 59:0.875 60:0.5625 61:0.0625 # 0
-1.5682696031947288761409451495865e-11 2:0.4375 3:0.9375 4:0.625 10:0.75 11:0.625 12:0.9375 13:0.1875 20:0.75 21:0.6875 28:0.875 29:0.5625 33:0.071428575 34:0.3125 35:0.5 36:1 37:0.75 38:0.14285715 41:0.625 42:1 43:1 44:0.9375 45:0.625 46:0.1875 50:0.125 51:1 52:0.25 58:0.5 59:0.75 # 0
-1.7119744435173609104735809636227e-11 4:0.5 5:0.6875 11:0.125 12:0.875 13:0.375 19:0.6875 20:0.5625 21:0.125 22:0.1875 26:0.5625 27:0.75 28:0.0625 29:0.6875 30:0.5625 33:0.2857143 34:1 35:0.375 37:0.8125 38:0.35714287 41:0.5 42:1 43:1 44:1 45:1 51:0.1875 52:0.5 53:0.9375 60:0.375 61:0.75 # 0
-1.2180280936669195233893539791637e-11 1:0.125 2:0.9375 3:1 4:1 5:1 6:0.9375 7:0.125 10:0.75 11:0.625 12:0.5625 13:1 14:0.875 15:0.15384616 20:0.5625 21:1 22:0.25 27:0.3125 28:0.9375 29:0.375 35:0.8125 36:0.75 42:0.5625 43:0.9375 44:0.125 49:0.0625 50:1 51:0.625 57:0.30000001 58:1 59:0.4375 # 0
-9.3225604142588340227479471172546e-12 1:0.125 2:0.625 3:0.3125 9:0.13333334 10:1 11:1 12:0.75 13:0.0625 18:0.625 19:0.3125 20:0.6875 21:0.375 27:0.0625 28:0.75 29:0.4375 34:0.375 35:1 36:1 37:0.375 42:0.1875 43:0.5 44:0.625 45:0.9375 46:0.5 50:0.1875 51:0.25 52:0.4375 53:0.875 54:0.9375 58:0.375 59:0.9375 60:0.9375 61:0.6875 62:0.25 # 0
-1.5825497273948981011628058975017e-11 2:0.75 3:0.3125 10:1 11:0.125 17:0.1875 18:0.75 25:0.25 26:0.75 33:0.5 34:0.875 35:1 36:0.875 37:0.1875 41:0.1875 42:1 43:0.5 44:0.5625 45:1 46:0.25 49:0.125 50:1 51:0.1875 52:0.25 53:1 54:0.25 58:0.6875 59:0.75 60:0.6875 61:0.25 # 0
-3.4983837273289314703167515004214e-12 2:0.25 3:0.625 4:0.9375 5:0.25 10:0.5 11:0.8125 12:0.375 13:0.0625 17:0.0625 18:0.9375 19:0.875 20:0.625 21:0.0625 26:0.6875 27:0.5 28:0.625 29:0.75 30:0.0625 37:0.625 38:0.42857143 45:0.125 46:0.875 50:0.375 51:0.4375 52:0.1875 53:0.1875 54:0.9375 55:0.2 58:0.25 59:0.8125 60:1 61:1 62:0.9375 63:0.06666667 # 0
-2.3962212764932379034193508399931e-12 2:0.3125 3:0.9375 4:0.5625 9:0.13333334 10:0.8125 11:0.5 12:0.9375 13:0.3125 17:0.125 18:0.125 20:0.5 21:0.3125 26:0.3125 27:0.5625 28:0.9375 29:0.125 34:0.6875 35:0.9375 36:0.9375 37:0.6875 44:0.0625 45:0.875 46:0.0625 50:0.25 51:0.5625 52:0.25 53:0.6875 54:0.1875 58:0.3125 59:0.75 60:0.8125 61:0.5625 # 0
