SVM-light Version V6.02
0 # kernel type
3 # kernel parameter -d 
1 # kernel parameter -g 
1 # kernel parameter -s 
1 # kernel parameter -r 
empty# kernel parameter -u 
63 # highest feature index 
2823 # number of training documents 
107 # number of support vectors plus 1 
2.5617276 # threshold b, each following line is a SV (starting with alpha*y)
1 2:0.125 3:0.5625 4:0.9375 5:0.75 9:0.06666667 10:0.8125 11:0.8125 12:0.625 13:1 14:0.0625 18:0.625 19:0.125 20:0.5 21:1 27:0.25 28:1 29:0.875 30:0.0625 36:0.25 37:0.9375 38:0.2857143 45:0.9375 46:0.3125 51:0.75 52:0.9375 53:1 54:0.0625 59:0.5625 60:0.8125 61:0.4375 # 0
1 2:0.25 3:0.875 4:0.6875 5:0.0625 9:0.26666668 10:1 11:0.75 12:0.625 13:0.5 17:0.5625 18:0.875 19:0.0625 20:0.4375 21:0.4375 25:0.0625 26:0.125 28:0.9375 29:0.5625 36:0.4375 37:0.9375 38:0.14285715 45:0.3125 46:0.6875 50:0.75 51:0.1875 52:0.25 53:0.625 54:0.6875 58:0.375 59:0.9375 60:0.9375 61:0.6875 62:0.0625 # 0
-1 2:0.625 3:1 4:0.75 9:0.06666667 10:0.875 11:0.8125 12:1 13:0.25 18:0.125 19:0.1875 20:1 21:0.3125 27:0.25 28:1 29:0.125 35:0.6875 36:0.875 42:0.125 43:1 44:0.5 46:0.1875 49:0.0625 50:0.8125 51:1 52:0.875 53:1 54:1 55:0.30000001 58:0.75 59:1 60:1 61:0.8125 62:0.4375 # 0
1 2:0.3125 3:0.75 4:0.6875 5:0.125 9:0.06666667 10:0.875 11:0.9375 12:0.8125 13:0.875 17:0.125 18:0.9375 19:0.25 20:0.375 21:1 27:0.125 28:0.8125 29:0.75 35:0.6875 36:1 37:0.8125 38:0.14285715 43:0.0625 44:0.3125 45:0.75 46:0.75 50:0.5 51:0.6875 52:0.5 53:0.875 54:0.75 58:0.4375 59:1 60:0.75 61:0.75 62:0.1875 # 0
1 2:0.125 3:0.6875 4:0.75 5:0.25 10:0.6875 11:0.9375 12:0.875 13:0.6875 18:0.1875 19:0.5625 20:0.75 21:0.6875 27:0.625 28:1 29:0.875 30:0.125 35:0.125 36:0.3125 37:0.8125 38:0.5 42:0.375 45:0.5625 46:0.6875 50:0.875 51:0.8125 52:0.5 53:0.875 54:0.5625 58:0.3125 59:0.9375 60:0.875 61:0.6875 62:0.0625 # 0
0.84927313898059653141103808593471 2:0.3125 3:0.875 4:0.9375 5:0.3125 9:0.13333334 10:1 11:0.5625 12:0.5625 13:0.9375 14:0.125 17:0.125 18:0.625 20:0.375 21:1 22:0.1875 26:0.125 27:0.875 28:1 29:0.4375 35:0.6875 36:1 37:0.875 38:0.071428575 42:0.375 43:0.1875 44:0.375 45:1 46:0.0625 50:0.8125 51:0.6875 52:0.625 53:0.9375 58:0.5625 59:1 60:1 61:0.4375 # 0
-0.37067168237653191908975713886321 1:0.125 2:0.6875 3:0.875 4:0.75 5:0.375 9:0.53333336 10:0.9375 11:0.4375 12:0.6875 13:0.9375 17:0.6875 18:0.5625 20:0.5 21:1 22:0.25 25:0.5 26:0.875 27:0.8125 28:1 29:1 30:0.4375 34:0.375 35:0.5625 36:0.25 37:0.9375 38:0.5714286 45:0.6875 46:0.625 50:0.5625 51:0.5 52:0.6875 53:1 54:0.1875 58:0.875 59:0.875 60:0.6875 61:0.3125 # 0
-1 1:0.125 2:0.5 3:0.75 4:0.75 5:0.375 9:0.60000002 10:1 11:0.6875 12:0.5 13:0.625 14:0.0625 17:0.375 18:0.875 25:0.0625 26:0.75 27:0.9375 28:0.5 35:0.4375 36:0.9375 37:0.3125 44:0.25 45:0.875 52:0.6875 53:0.6875 58:0.75 59:1 60:0.75 61:0.25 # 0
-0.88114957318069286884565372020006 1:0.125 2:0.75 3:0.75 4:0.6875 5:0.3125 9:0.33333334 10:0.9375 11:0.5 12:0.75 13:0.9375 14:0.125 17:0.4375 18:0.75 20:0.5625 21:1 22:0.1875 25:0.1875 26:0.9375 27:0.5625 28:0.625 29:1 30:0.4375 34:0.3125 35:0.6875 36:1 37:1 38:0.5714286 44:0.0625 45:0.875 46:0.625 50:0.4375 51:0.5 52:0.6875 53:1 54:0.125 58:0.75 59:1 60:0.8125 61:0.375 # 0
-0.29547038143768755702467387891375 1:0.125 2:0.875 3:1 4:1 5:0.75 6:0.0625 10:0.8125 11:0.5 12:0.25 13:0.25 18:0.75 19:0.25 26:0.5 27:1 28:1 29:0.5625 34:0.25 35:0.4375 36:0.3125 37:0.875 45:0.8125 50:0.3125 52:0.1875 53:0.9375 57:0.2 58:0.875 59:1 60:0.875 61:0.4375 # 0
0.78623031489879124933395360130817 2:0.125 3:0.5 4:0.9375 5:0.6875 9:0.13333334 10:0.9375 11:0.875 12:0.75 13:1 14:0.25 17:0.125 18:0.4375 20:0.625 21:0.9375 27:0.1875 28:0.9375 29:0.1875 35:0.8125 36:0.5625 43:0.25 44:0.875 45:0.3125 49:0.125 50:0.625 51:0.5 52:0.4375 53:1 54:0.375 58:0.25 59:0.5625 60:0.8125 61:0.9375 62:0.4375 # 0
-0.61697961560510838907589459267911 2:0.5 3:0.6875 4:0.9375 5:0.25 10:0.875 11:0.875 12:0.75 13:0.375 18:0.6875 19:0.5625 26:0.625 27:1 28:0.875 29:0.125 34:0.25 35:0.5 36:0.5625 37:0.875 38:0.14285715 45:0.9375 46:0.125 50:0.25 51:0.6875 52:0.8125 53:1 54:0.0625 58:0.25 59:0.9375 60:0.75 61:0.5625 # 0
1 2:0.0625 3:0.6875 4:1 5:0.375 10:0.75 11:0.875 12:0.6875 13:1 14:0.1875 18:0.6875 19:0.3125 20:0.125 21:1 22:0.3125 28:0.4375 29:0.875 30:0.125 35:0.4375 36:1 37:0.4375 43:0.1875 44:1 45:0.625 51:0.75 52:1 53:0.9375 58:0.0625 59:0.75 60:1 61:0.4375 # 0
1 2:0.3125 3:0.75 4:0.75 9:0.2 10:1 11:0.75 12:0.9375 13:0.25 17:0.25 18:0.875 20:0.875 21:0.375 25:0.0625 26:0.75 27:0.6875 28:0.75 34:0.4375 35:1 36:0.5 37:0.0625 42:0.0625 43:0.3125 44:0.75 45:0.8125 46:0.0625 50:0.5 51:0.25 53:1 54:0.25 58:0.5 59:0.9375 60:0.9375 61:0.6875 62:0.0625 # 0
-1 2:0.125 3:0.75 4:0.8125 9:0.2 10:0.9375 11:0.8125 12:1 17:0.625 18:0.8125 19:0.0625 20:1 26:0.0625 27:0.25 28:1 35:0.375 36:0.8125 43:0.5625 44:0.625 45:0.4375 46:0.5 51:0.875 52:0.9375 53:0.9375 54:0.1875 59:0.9375 60:0.75 61:0.1875 # 0
0.5110012893465479821841768170998 1:0.375 2:0.6875 3:1 4:0.4375 9:0.33333334 10:0.75 11:0.5 12:1 19:0.625 20:0.875 26:0.625 27:0.875 28:0.1875 34:0.625 35:1 36:1 37:0.9375 38:0.21428572 44:0.1875 45:0.625 46:0.5 50:0.25 51:0.4375 52:0.625 53:0.9375 54:0.3125 57:0.5 58:0.8125 59:0.75 60:0.625 61:0.1875 # 0
1 2:0.125 3:0.75 4:1 5:0.4375 11:0.625 12:1 13:0.1875 19:0.1875 20:0.9375 21:0.3125 28:0.375 29:0.9375 30:0.1875 37:0.5 38:1 45:0.6875 46:1 51:0.1875 52:0.8125 53:1 54:0.5625 58:0.375 59:1 60:0.75 61:0.5 62:0.0625 # 0
1 2:0.25 3:0.6875 4:1 5:0.75 6:0.3125 10:0.375 11:0.4375 12:0.1875 13:0.6875 14:0.5625 21:0.75 22:0.25 27:0.1875 28:0.625 29:0.625 34:0.25 35:1 36:0.9375 37:0.125 42:0.0625 43:0.4375 44:0.75 45:0.9375 46:0.0625 50:0.5 51:0.4375 52:0.3125 53:0.9375 58:0.4375 59:0.75 60:0.9375 61:0.375 # 0
1 2:0.4375 3:0.9375 4:1 5:0.75 10:0.5625 11:0.375 12:0.1875 13:0.9375 14:0.125 19:0.25 20:0.8125 21:0.5625 26:0.5625 27:1 28:1 29:0.375 34:0.3125 35:0.3125 36:0.375 37:0.9375 38:0.2857143 42:0.5 45:0.25 46:0.75 49:0.0625 50:0.8125 51:0.0625 52:0.1875 53:0.75 54:0.5 58:0.5 59:1 60:0.9375 61:0.625 # 0
1 1:0.125 2:0.75 3:1 4:0.875 5:0.3125 9:0.2 10:0.8125 11:0.5625 12:1 13:0.75 18:0.0625 19:0.6875 20:1 21:0.375 26:0.5 27:1 28:0.5625 34:0.1875 35:0.9375 36:0.8125 43:0.125 44:0.9375 45:0.5625 50:0.1875 51:0.5 52:0.75 53:1 54:0.1875 58:0.875 59:1 60:1 61:1 62:0.4375 # 0
1 2:0.3125 3:0.75 4:0.625 9:0.13333334 10:0.9375 11:0.875 12:1 13:0.0625 18:0.6875 19:0.1875 20:1 21:0.0625 28:0.6875 29:0.3125 36:0.4375 37:0.875 45:0.5625 46:0.625 50:0.625 51:0.4375 52:0.3125 53:0.75 54:0.75 58:0.375 59:0.875 60:1 61:0.8125 62:0.25 # 0
-0.15985136442428554692796183189785 2:0.25 3:1 4:1 5:0.25 10:0.625 11:1 12:1 13:0.8125 18:0.1875 19:0.8125 20:0.6875 21:1 22:0.125 29:0.8125 30:0.5 37:0.6875 38:0.64285713 45:0.8125 46:0.5625 52:0.5 53:1 54:0.3125 58:0.1875 59:1 60:1 61:0.6875 # 0
0.77416900908403429859561128978385 2:0.8125 3:1 4:0.8125 5:0.0625 9:0.2 10:1 11:0.8125 12:1 13:0.5 18:0.5625 19:0.6875 20:1 21:0.4375 27:0.875 28:0.875 35:0.6875 36:0.9375 37:0.75 38:0.071428575 44:0.0625 45:0.875 46:0.625 49:0.0625 50:0.6875 51:0.375 52:0.25 53:0.5 54:1 55:0.30000001 58:0.8125 59:1 60:1 61:1 62:1 63:0.13333334 # 0
-1 2:0.375 3:0.875 4:0.875 5:0.25 10:0.875 11:0.9375 12:0.375 13:0.8125 14:0.125 18:0.4375 19:1 20:1 21:0.9375 22:0.0625 27:0.625 28:0.625 36:0.875 37:0.0625 44:0.25 45:0.6875 49:0.1875 50:0.625 51:0.25 53:0.8125 58:0.5625 59:0.75 60:1 61:0.75 # 0
1 3:0.3125 4:0.875 5:1 6:1 7:0.3125 10:0.625 11:1 12:0.9375 13:1 14:1 15:0.53846157 17:0.25 18:0.9375 19:0.375 20:0.0625 21:1 22:0.75 26:0.125 28:0.3125 29:1 30:0.4375 36:0.25 37:1 38:0.14285715 44:0.375 45:1 46:0.0625 51:0.125 52:0.9375 53:0.875 59:0.1875 60:0.9375 61:0.4375 # 0
1 2:0.3125 3:0.75 4:0.875 9:0.13333334 10:0.875 11:0.625 12:0.9375 17:0.1875 18:0.9375 19:0.6875 20:0.6875 25:0.125 26:0.75 27:0.9375 28:0.6875 29:0.125 36:0.5 37:0.9375 38:0.071428575 44:0.0625 45:0.875 46:0.25 50:0.125 51:0.4375 52:0.25 53:0.875 54:0.1875 58:0.1875 59:0.8125 60:0.875 61:0.625 # 0
1 1:0.25 2:0.75 3:1 4:1 5:0.5 9:0.53333336 10:0.625 11:0.5625 12:1 13:0.375 18:0.0625 19:0.8125 20:0.8125 26:0.5 27:1 28:0.3125 34:0.125 35:0.875 36:0.9375 37:0.1875 44:0.5625 45:0.9375 46:0.1875 51:0.1875 52:0.25 53:0.875 54:0.6875 57:0.30000001 58:0.9375 59:1 60:1 61:1 62:0.5625 # 0
-0.56834966390584007456254767021164 2:0.5 3:0.75 4:1 5:0.5 9:0.33333334 10:1 11:0.625 12:0.5 13:0.5 17:0.125 18:1 19:0.25 25:0.0625 26:0.9375 27:0.75 28:0.3125 34:0.25 35:0.8125 36:1 37:0.375 44:0.625 45:1 46:0.375 50:0.4375 51:0.5625 52:0.9375 53:0.9375 54:0.25 58:0.625 59:0.8125 60:0.5 61:0.25 # 0
-0.17944886421604122617168286524247 2:0.8125 3:0.875 4:0.25 9:0.26666668 10:1 11:0.8125 12:0.875 13:0.125 18:1 19:0.25 20:1 21:0.875 22:0.125 26:0.6875 27:0.875 28:1 29:0.875 35:0.5 36:0.6875 37:0.9375 44:0.25 45:1 46:0.125 50:0.375 51:0.375 52:0.4375 53:1 54:0.125 58:0.75 59:1 60:1 61:0.625 # 0
-1 2:0.3125 3:0.8125 4:0.75 5:0.125 10:0.875 11:0.75 12:0.75 13:0.8125 18:0.6875 19:0.25 20:0.125 21:0.9375 26:0.5 27:0.5 28:0.25 29:1 30:0.0625 34:0.125 35:0.875 36:1 37:1 38:0.42857143 45:0.4375 46:0.625 50:0.5 51:0.5625 52:0.5 53:0.9375 54:0.625 58:0.25 59:1 60:1 61:0.8125 62:0.125 # 0
1 1:0.25 2:0.875 3:1 4:0.8125 5:0.4375 9:0.2 10:0.75 11:0.5 12:0.8125 13:1 19:0.3125 20:0.875 21:0.6875 25:0.125 26:0.75 27:1 28:0.625 29:0.0625 33:0.21428572 34:1 35:0.9375 36:0.5625 37:0.0625 42:0.1875 43:0.6875 44:0.9375 45:0.9375 46:0.0625 49:0.1875 50:0.375 51:0.25 52:0.3125 53:1 54:0.5 57:0.30000001 58:0.8125 59:1 60:0.875 61:0.75 62:0.125 # 0
1 2:0.25 3:0.9375 4:1 5:0.3125 9:0.26666668 10:1 11:0.625 12:0.625 13:0.9375 17:0.625 18:1 19:0.4375 20:0.25 21:0.9375 25:0.0625 26:0.25 27:0.1875 28:0.8125 29:0.5625 35:0.5625 36:1 37:1 38:0.2857143 43:0.0625 45:0.6875 46:0.6875 50:0.125 51:0.75 52:0.25 53:0.8125 54:0.5625 58:0.25 59:1 60:1 61:0.75 62:0.0625 # 0
-1 2:0.3125 3:0.6875 4:0.9375 5:0.5 9:0.26666668 10:0.875 11:0.5 12:0.625 13:1 17:0.5 18:0.8125 19:0.0625 20:0.9375 21:0.75 25:0.25 26:1 27:0.9375 28:1 29:0.8125 34:0.25 35:0.75 36:0.8125 37:1 38:0.2857143 42:0.25 43:0.0625 45:0.875 46:0.5 50:0.8125 51:0.8125 52:0.375 53:0.875 54:0.4375 58:0.125 59:0.875 60:0.875 61:0.5625 62:0.125 # 0
1 1:0.125 2:0.875 3:1 4:0.3125 9:0.13333334 10:0.8125 11:0.8125 12:1 13:0.25 18:0.25 19:0.8125 20:1 21:0.1875 26:0.5625 27:1 28:1 29:0.8125 34:0.25 35:0.5 36:0.5 37:1 38:0.5714286 43:0.0625 44:0.3125 45:0.875 46:0.6875 49:0.0625 50:0.8125 51:1 52:1 53:0.9375 54:0.1875 58:0.9375 59:0.6875 60:0.3125 61:0.0625 # 0
0.27450870131788462913391413167119 1:0.25 2:0.5625 3:0.9375 4:0.75 5:0.0625 9:0.40000001 10:1 11:0.625 12:0.875 13:0.375 17:0.0625 18:0.0625 19:0.375 20:1 21:0.25 25:0.1875 26:0.8125 27:1 28:1 29:0.5 33:0.21428572 34:0.75 35:0.4375 36:0.4375 37:1 38:0.2857143 45:0.8125 46:0.5625 49:0.1875 50:0.9375 51:0.375 52:0.75 53:1 54:0.25 58:0.625 59:1 60:0.875 61:0.4375 62:0.0625 # 0
-1 2:0.125 3:0.9375 4:0.6875 5:0.0625 10:0.375 11:1 12:1 13:0.875 18:0.1875 19:0.9375 20:1 21:1 22:0.3125 27:0.3125 28:0.4375 29:0.6875 30:0.5625 37:0.8125 38:0.9285714 44:0.0625 45:1 46:0.5 51:0.125 52:0.8125 53:1 54:0.3125 58:0.3125 59:0.9375 60:1 61:0.375 # 0
1 1:0.25 2:0.75 3:0.9375 4:0.375 9:0.40000001 10:0.8125 11:0.75 12:1 13:0.3125 18:0.1875 19:0.5625 20:1 21:0.3125 26:0.4375 27:1 28:1 29:0.75 35:0.25 36:0.5 37:1 38:0.35714287 45:0.8125 46:0.5 49:0.125 50:0.8125 51:0.5 52:0.875 53:0.9375 54:0.1875 57:0.2 58:0.9375 59:0.9375 60:0.625 61:0.0625 # 0
-1 1:0.375 2:0.75 3:0.9375 4:0.5625 5:0.0625 9:0.2 10:1 11:0.5 12:0.8125 13:0.625 18:0.6875 19:0.75 20:0.75 21:0.75 26:0.1875 27:0.9375 28:1 29:0.75 36:0.375 37:0.875 38:0.071428575 45:0.9375 46:0.375 49:0.4375 50:0.875 51:0.4375 52:0.25 53:0.9375 54:0.4375 57:0.30000001 58:0.5625 59:0.75 60:0.9375 61:0.5625 # 0
1 3:0.4375 4:0.75 5:0.4375 10:0.8125 11:0.8125 12:0.8125 13:0.75 17:0.1875 18:0.75 20:0.5625 21:0.5625 27:0.4375 28:1 29:0.5625 35:0.125 36:0.5 37:1 44:0.0625 45:0.9375 46:0.1875 51:0.75 52:0.5625 53:0.9375 58:0.0625 59:0.75 60:0.9375 61:0.3125 # 0
1 2:0.0625 3:0.75 4:0.9375 5:0.0625 10:0.625 11:1 12:1 17:0.1875 18:1 19:0.9375 20:0.625 25:0.375 26:1 27:0.9375 28:0.9375 29:0.125 34:0.25 35:0.125 36:0.875 37:0.9375 38:0.071428575 44:0.1875 45:0.9375 46:0.3125 50:0.125 51:0.875 52:0.875 53:1 54:0.3125 59:0.9375 60:1 61:0.8125 62:0.0625 # 0
1 1:0.375 2:0.75 3:0.75 4:0.1875 9:0.53333336 10:0.625 11:0.6875 12:0.5625 18:0.125 19:0.875 20:0.25 26:0.75 27:0.8125 28:0.0625 34:0.1875 35:0.8125 36:0.9375 37:0.1875 44:0.4375 45:0.875 46:0.0625 49:0.125 50:0.25 51:0.25 52:0.1875 53:0.6875 54:0.4375 57:0.5 58:0.75 59:0.75 60:0.875 61:1 62:0.5 # 0
0.30175330680025513885311738704331 2:0.125 3:0.4375 4:0.875 5:0.75 6:0.0625 9:0.13333334 10:0.875 11:0.9375 12:0.625 13:1 14:0.4375 17:0.25 18:0.5625 20:0.3125 21:1 22:0.1875 27:0.125 28:1 29:0.8125 35:0.125 36:0.9375 37:0.6875 44:0.375 45:1 46:0.25 51:0.3125 52:1 53:0.8125 59:0.5625 60:0.6875 61:0.125 # 0
-1 2:0.375 3:0.9375 4:1 5:1 6:1 7:0.6875 10:0.625 11:0.9375 12:1 13:0.875 14:0.625 15:0.15384616 18:0.1875 19:1 20:0.5 26:0.1875 27:1 28:0.8125 29:0.0625 35:0.5625 36:1 37:0.5625 44:0.9375 45:0.9375 46:0.0625 51:0.625 52:0.9375 53:0.4375 58:0.3125 59:0.9375 60:0.1875 # 0
-0.36972221927617304748636684053054 1:0.125 2:0.4375 3:0.5625 4:0.75 5:0.875 6:0.0625 9:0.73333335 10:1 11:0.9375 12:0.625 13:0.3125 14:0.0625 17:0.125 18:1 19:0.4375 26:0.5625 27:1 28:1 29:0.5625 35:0.125 36:0.5 37:0.8125 38:0.42857143 45:0.5 46:0.6875 50:0.4375 51:0.8125 52:0.875 53:1 54:0.25 58:0.625 59:1 60:0.75 61:0.1875 # 0
-1 2:0.125 3:0.625 4:0.75 5:0.875 6:1 7:0.75 10:0.5 11:1 12:1 13:1 14:0.875 15:0.30769232 18:0.125 19:1 20:0.75 21:0.25 26:0.0625 27:1 28:0.9375 29:0.125 35:0.5 36:1 37:0.6875 44:0.8125 45:1 51:0.4375 52:1 53:0.6875 58:0.0625 59:1 60:0.6875 61:0.0625 # 0
-1 2:0.6875 3:0.9375 4:0.8125 5:0.0625 9:0.33333334 10:0.9375 11:0.5625 12:0.9375 13:0.75 17:0.5 18:0.75 20:0.75 21:1 25:0.3125 26:1 27:0.5625 28:0.9375 29:1 34:0.25 35:0.625 36:0.8125 37:1 38:0.14285715 44:0.0625 45:1 46:0.375 50:0.0625 51:0.3125 52:0.5 53:1 54:0.4375 58:0.75 59:0.75 60:0.625 61:0.4375 62:0.0625 # 0
1 1:0.375 2:0.9375 3:1 4:1 5:0.9375 6:0.0625 9:0.93333334 10:0.8125 11:0.4375 12:0.5 13:1 14:0.5 17:0.125 18:0.0625 20:0.5 21:1 22:0.4375 27:0.4375 28:1 29:0.625 35:0.875 36:0.8125 43:0.625 44:0.875 45:0.125 49:0.125 50:0.5 51:0.3125 52:1 53:0.5 57:0.2 58:1 59:1 60:0.8125 61:0.1875 # 0
0.90022007564855677230752917239442 1:0.5 2:0.9375 3:1 4:1 5:0.75 6:0.0625 9:1 10:0.8125 11:0.3125 12:0.3125 13:1 14:0.5 17:0.4375 18:0.1875 20:0.625 21:1 22:0.25 26:0.0625 27:0.6875 28:1 29:0.625 34:0.4375 35:1 36:0.625 42:0.0625 43:0.4375 44:1 45:0.375 49:0.1875 50:0.5 51:0.375 52:1 53:0.625 57:0.5 58:1 59:1 60:0.75 61:0.0625 # 0
-1 2:0.6875 3:1 4:0.5625 9:0.60000002 10:0.75 11:0.375 12:0.875 13:0.625 17:0.6875 18:0.3125 20:0.8125 21:0.8125 25:0.0625 26:0.6875 27:0.875 28:0.75 29:0.9375 30:0.375 37:0.75 38:0.5714286 45:0.625 46:0.625 50:0.0625 52:0.25 53:0.8125 54:0.375 58:0.5625 59:0.875 60:1 61:0.625 # 0
-1 1:0.375 2:0.9375 3:1 4:0.1875 9:0.73333335 10:1 11:0.9375 12:0.75 17:0.0625 18:0.0625 19:0.375 20:1 27:0.3125 28:1 35:0.875 36:0.75 42:0.5625 43:1 44:0.5625 45:0.5 46:0.3125 49:0.1875 50:1 51:1 52:1 53:1 54:0.6875 57:0.5 58:1 59:1 60:0.8125 61:0.5 62:0.0625 # 0
0.17729024401500997898395439733576 1:0.25 2:0.5 3:0.9375 4:0.9375 5:0.1875 9:0.73333335 10:1 11:0.75 12:0.9375 13:0.75 17:0.25 18:0.4375 20:0.625 21:0.875 28:0.5 29:1 36:0.4375 37:1 38:0.14285715 44:0.0625 45:0.9375 46:0.5 50:0.0625 51:0.375 52:0.6875 53:1 54:0.4375 58:0.5 59:1 60:0.625 61:0.3125 # 0
-1 1:0.25 2:0.25 3:0.4375 4:0.8125 5:0.9375 6:0.125 9:0.93333334 10:1 11:1 12:0.9375 13:1 14:0.3125 17:0.0625 18:0.25 20:0.875 21:0.875 28:1 29:0.75 35:0.1875 36:1 37:0.4375 43:0.3125 44:1 45:0.4375 51:0.3125 52:1 53:0.375 59:0.4375 60:1 61:0.5625 # 0
-0.32169128483791542549852238153107 2:0.125 3:1 4:0.875 5:0.0625 10:0.375 11:1 12:1 13:0.3125 17:0.125 18:1 19:1 20:1 21:0.1875 26:0.1875 27:0.5625 28:1 29:0.25 35:0.125 36:1 37:0.625 44:0.9375 45:1 50:0.125 51:0.5625 52:1 53:1 54:0.1875 58:0.125 59:0.875 60:1 61:0.625 62:0.0625 # 0
-1 2:0.25 3:0.8125 4:1 5:0.4375 10:0.6875 11:0.5625 12:0.9375 13:0.6875 20:0.75 21:0.5625 27:0.25 28:1 29:0.1875 34:0.75 35:1 36:1 37:1 38:0.35714287 42:0.375 43:0.875 44:1 45:0.9375 46:0.125 50:0.0625 51:1 52:0.1875 58:0.375 59:0.875 60:0.125 # 0
-1 2:0.4375 3:0.8125 4:1 5:0.3125 9:0.40000001 10:0.5 11:0.5 12:0.875 13:0.5625 20:0.9375 21:0.3125 27:0.75 28:0.6875 34:0.375 35:0.9375 36:0.0625 42:0.75 43:0.25 50:0.6875 51:0.625 52:0.5 53:0.5 54:0.25 58:0.375 59:0.9375 60:1 61:0.75 62:0.25 # 0
0.41661685577973717187205693335272 1:0.625 2:0.875 3:0.625 4:0.25 9:0.2 10:0.75 11:1 12:1 13:0.375 18:0.0625 19:0.8125 20:1 21:0.3125 26:0.5 27:1 28:0.8125 29:0.125 34:0.3125 35:1 36:0.8125 37:0.125 43:0.375 44:1 45:0.9375 46:0.25 49:0.0625 50:0.5 51:0.5625 52:0.9375 53:1 54:0.3125 57:0.40000001 58:0.9375 59:0.875 60:0.5 61:0.25 # 0
-1 2:0.75 3:1 4:0.75 5:1 6:0.1875 10:0.875 11:0.875 12:0.5 13:0.5 14:0.0625 18:0.4375 19:0.9375 20:0.0625 26:0.0625 27:0.875 28:0.6875 35:0.375 36:1 37:0.0625 44:0.75 45:0.6875 49:0.125 50:0.4375 51:0.375 52:0.875 53:0.8125 58:0.75 59:1 60:1 61:0.375 # 0
-1 3:0.0625 4:0.75 5:0.75 11:0.125 12:1 13:1 14:0.125 19:0.25 20:1 21:1 25:0.375 26:1 27:1 28:1 29:0.8125 33:0.071428575 34:0.75 35:0.875 36:1 37:0.75 44:1 45:0.9375 52:0.9375 53:1 54:0.125 60:0.5 61:0.8125 62:0.3125 # 0
0.39948809690088360468962491722777 2:0.3125 3:0.875 4:1 5:0.5625 9:0.40000001 10:1 11:0.5625 12:0.8125 13:0.75 17:0.1875 18:0.4375 19:0.0625 20:0.875 21:0.75 26:0.0625 27:0.9375 28:1 29:0.9375 30:0.125 34:0.0625 35:0.6875 36:0.5625 37:0.875 38:0.78571427 42:0.0625 43:0.1875 45:0.8125 46:0.5625 50:0.625 51:0.8125 52:0.5625 53:1 54:0.375 58:0.1875 59:1 60:1 61:0.625 # 0
1 2:0.0625 3:0.5625 4:0.9375 5:0.4375 6:0.0625 9:0.26666668 10:0.8125 11:0.9375 12:0.8125 13:1 14:0.25 17:0.6875 18:0.8125 19:0.0625 20:0.6875 21:0.875 28:1 29:0.75 36:0.875 37:0.75 44:0.5625 45:0.875 46:0.0625 51:0.1875 52:0.8125 53:0.9375 59:0.75 60:0.8125 61:0.1875 # 0
1 1:0.125 2:0.625 3:0.9375 4:0.9375 5:0.375 9:0.53333336 10:1 11:0.9375 12:0.875 13:0.9375 14:0.1875 17:0.1875 18:0.375 19:0.1875 20:0.9375 21:0.9375 27:0.75 28:1 29:0.3125 35:0.5 36:1 37:0.125 43:0.25 44:1 45:0.5 50:0.25 51:0.9375 52:1 53:0.25 58:0.875 59:1 60:0.4375 # 0
-0.10384593633914729338130200630985 3:0.3125 4:0.9375 5:1 6:0.375 9:0.06666667 10:0.9375 11:0.9375 12:0.625 13:0.9375 14:0.875 18:0.0625 21:0.5 22:0.75 27:0.125 28:0.3125 29:0.9375 30:0.5625 35:0.5 36:1 37:1 38:0.42857143 44:0.5 45:0.8125 52:0.75 53:0.5 59:0.125 60:0.8125 61:0.125 # 0
-1 2:0.0625 3:0.5 4:0.75 5:0.75 6:0.125 10:0.8125 11:0.75 12:0.75 13:0.9375 14:0.5625 21:0.875 22:0.625 27:0.125 28:0.5 29:1 30:0.5 34:0.125 35:1 36:1 37:0.9375 38:0.35714287 43:0.0625 44:1 45:0.5 51:0.5 52:1 53:0.25 59:0.5625 60:0.75 # 0
1 2:0.25 3:0.75 4:0.9375 5:0.3125 9:0.13333334 10:0.9375 11:0.8125 12:0.6875 13:0.6875 17:0.125 18:0.625 19:0.125 20:0.3125 21:1 27:0.25 28:0.875 29:0.875 35:0.3125 36:0.75 37:0.875 38:0.5 45:0.1875 46:0.875 50:0.5625 51:0.625 52:0.1875 53:0.5 54:0.9375 55:0.2 58:0.125 59:0.5625 60:1 61:1 62:0.4375 # 0
-0.43212225933290415724741251324303 2:0.375 3:0.6875 4:0.25 10:0.875 11:0.75 12:0.875 13:0.0625 18:0.4375 20:1 21:0.375 28:0.6875 29:0.5625 36:0.8125 37:0.1875 43:0.1875 44:0.875 45:0.125 50:0.5625 51:1 52:0.75 53:0.5 54:0.4375 58:0.6875 59:1 60:1 61:0.9375 62:0.75 # 0
-1 2:0.8125 3:1 4:0.3125 10:1 11:0.75 12:0.9375 18:0.1875 19:0.1875 20:0.75 21:0.25 28:0.75 29:0.375 36:0.875 37:0.4375 43:0.125 44:1 45:0.3125 50:0.3125 51:0.875 52:1 53:0.5625 54:0.25 58:0.9375 59:1 60:0.8125 61:0.75 62:1 63:0.13333334 # 0
0.049615900337723006785495272197295 1:0.25 2:0.6875 3:0.9375 4:1 5:0.625 9:0.33333334 10:0.75 11:0.5625 12:1 13:0.9375 19:0.6875 20:0.9375 21:0.3125 26:0.6875 27:1 28:0.1875 34:0.5 35:0.9375 36:1 37:0.5 43:0.125 44:0.5625 45:1 46:0.3125 50:0.4375 51:0.6875 52:0.9375 53:0.875 54:0.1875 58:0.9375 59:0.8125 60:0.4375 # 0
1 2:0.375 3:0.9375 4:1 5:1 6:0.4375 10:0.5 11:0.8125 12:0.9375 13:1 14:0.4375 18:0.0625 19:0.9375 20:0.875 21:0.5 26:0.125 27:1 28:1 29:0.8125 30:0.125 35:0.1875 36:0.6875 37:1 38:0.35714287 44:0.4375 45:1 46:0.25 50:0.0625 51:0.625 52:0.9375 53:0.6875 58:0.375 59:1 60:0.5625 # 0
0.8535016093855569696557950010174 2:0.1875 3:0.625 4:0.875 5:0.875 6:0.1875 10:0.9375 11:0.375 12:0.5625 13:1 14:0.25 18:0.0625 19:0.3125 20:0.875 21:0.375 26:0.4375 27:1 28:0.5625 29:0.0625 34:0.125 35:0.5625 36:0.8125 37:0.9375 38:0.071428575 44:0.25 45:1 46:0.125 51:0.4375 52:0.9375 53:0.375 59:0.875 60:0.4375 # 0
-1 2:0.1875 3:0.625 4:0.8125 5:0.25 10:0.5625 11:0.8125 12:0.875 13:0.625 18:0.5625 19:0.6875 20:1 21:0.9375 26:0.0625 27:0.6875 28:0.75 29:1 37:0.9375 38:0.21428572 44:0.0625 45:1 46:0.1875 52:0.375 53:1 54:0.0625 58:0.25 59:1 60:1 61:0.625 # 0
0.29033448743360779076283506583422 2:0.5 3:1 4:0.5625 9:0.26666668 10:0.9375 11:0.625 12:1 17:0.3125 18:0.3125 19:0.4375 20:0.75 27:1 28:0.875 29:0.5625 35:0.5 36:0.5 37:0.9375 38:0.5 45:0.6875 46:0.5 50:0.9375 51:0.3125 52:0.4375 53:0.9375 54:0.1875 58:0.375 59:0.8125 60:0.8125 61:0.375 # 0
1 1:0.125 2:0.625 3:0.3125 9:0.13333334 10:1 11:1 12:0.75 13:0.0625 18:0.625 19:0.3125 20:0.6875 21:0.375 27:0.0625 28:0.75 29:0.4375 34:0.375 35:1 36:1 37:0.375 42:0.1875 43:0.5 44:0.625 45:0.9375 46:0.5 50:0.1875 51:0.25 52:0.4375 53:0.875 54:0.9375 58:0.375 59:0.9375 60:0.9375 61:0.6875 62:0.25 # 0
-1 1:0.75 2:1 3:0.9375 4:0.25 9:0.53333336 10:0.9375 11:0.875 12:0.875 13:0.0625 18:0.125 19:0.125 20:1 21:0.375 27:0.0625 28:1 29:0.4375 35:0.375 36:0.9375 37:0.0625 42:0.0625 43:0.9375 44:0.5 49:0.0625 50:0.75 51:1 52:0.5625 53:0.75 54:0.5 57:1 58:1 59:1 60:0.9375 61:0.75 62:0.4375 # 0
-0.1967709723541972710592062867363 1:0.25 4:0.5625 5:0.4375 9:1 10:1 11:1 12:1 13:0.5625 17:0.0625 18:0.3125 19:0.25 20:1 21:0.4375 25:0.0625 26:0.25 27:0.25 28:1 29:0.4375 33:0.35714287 34:1 35:1 36:1 37:0.9375 38:0.14285715 42:0.1875 43:0.0625 44:0.875 45:0.375 52:0.8125 53:0.4375 60:0.625 61:0.6875 # 0
1 2:0.5 3:0.8125 4:0.5 9:0.26666668 10:0.8125 11:0.375 12:0.875 13:0.1875 17:0.4375 18:0.5 20:0.75 21:0.3125 25:0.1875 26:0.625 27:0.5 28:1 29:0.0625 35:0.3125 36:0.875 37:0.75 45:0.8125 46:0.5 50:0.625 51:0.625 53:0.375 54:0.75 58:0.25 59:0.9375 60:1 61:1 62:0.375 # 0
-1 2:0.375 3:0.75 4:0.875 5:0.875 6:0.125 9:0.80000001 10:1 11:0.6875 12:0.25 13:0.3125 14:0.125 17:0.25 18:0.875 19:0.3125 26:0.5625 27:0.8125 28:0.0625 34:0.125 35:0.8125 36:0.9375 37:0.375 43:0.125 44:0.6875 45:0.9375 46:0.375 50:0.5 51:0.375 52:0.375 53:0.9375 54:0.5 58:0.375 59:1 60:1 61:0.5625 # 0
-1 2:0.4375 3:0.9375 4:0.8125 5:0.0625 10:0.9375 11:0.5625 12:0.8125 13:0.625 18:1 19:0.3125 20:0.75 21:0.75 26:0.25 27:0.9375 28:1 29:0.75 35:0.125 36:0.4375 37:0.9375 38:0.071428575 45:0.9375 46:0.25 49:0.25 50:0.75 51:0.4375 52:0.3125 53:0.875 54:0.25 58:0.4375 59:0.8125 60:0.8125 61:0.5625 62:0.0625 # 0
1 2:0.5 3:1 4:1 5:0.625 9:0.06666667 10:1 11:0.875 12:0.6875 13:1 14:0.0625 18:0.75 19:0.5 20:0.8125 21:0.9375 22:0.0625 26:0.0625 27:0.4375 28:1 29:0.4375 35:0.25 36:1 37:0.375 44:0.6875 45:0.875 51:0.25 52:0.8125 53:1 54:0.125 58:0.625 59:1 60:1 61:0.75 # 0
1 2:0.375 3:1 4:0.5625 9:0.13333334 10:0.9375 11:1 12:0.875 17:0.125 18:0.625 19:1 20:0.375 25:0.125 26:1 27:1 28:0.5625 29:0.125 34:0.1875 35:0.625 36:1 37:0.875 38:0.071428575 44:0.625 45:1 46:0.3125 50:0.25 51:0.5 52:0.5 53:1 54:0.4375 58:0.5 59:1 60:1 61:0.8125 # 0
-1 1:0.125 2:0.875 3:1 4:0.875 5:0.25 9:0.2 10:1 11:0.5 12:0.5 13:0.875 18:0.9375 19:0.875 20:0.8125 21:0.5625 26:0.1875 27:0.6875 28:1 29:0.25 36:0.75 37:0.75 44:0.25 45:1 46:0.1875 50:0.1875 51:0.25 52:0.1875 53:1 54:0.0625 58:0.75 59:0.875 60:1 61:0.875 62:0.0625 # 0
1 1:0.25 2:0.8125 3:1 4:0.875 5:0.1875 9:0.13333334 10:0.5 11:0.6875 12:1 13:0.5 18:0.1875 19:1 20:0.75 21:0.0625 26:0.0625 27:0.6875 28:0.875 29:0.125 36:0.4375 37:0.8125 45:0.6875 46:0.4375 49:0.4375 50:0.6875 51:0.25 52:0.25 53:0.8125 54:0.4375 57:0.2 58:0.6875 59:1 60:0.75 61:0.625 # 0
1 1:0.125 2:0.5625 3:0.9375 4:0.5625 9:0.26666668 10:0.8125 11:0.4375 12:0.9375 13:0.25 19:0.125 20:0.9375 21:0.1875 26:0.75 27:1 28:1 29:0.6875 30:0.0625 34:0.3125 35:0.3125 36:0.3125 37:0.8125 38:0.5714286 44:0.0625 45:0.75 46:0.375 50:0.5625 51:0.5 52:0.875 53:0.75 54:0.0625 58:0.9375 59:0.75 60:0.375 # 0
-0.047813455299428042621912027243525 2:0.1875 3:0.625 4:0.6875 5:0.3125 9:0.53333336 10:1 11:0.625 12:0.5 13:0.3125 17:0.6875 18:0.6875 25:0.5 26:0.875 27:0.6875 28:0.5 29:0.25 34:0.1875 35:0.4375 36:0.5625 37:0.875 38:0.64285713 45:0.3125 46:0.8125 50:0.0625 51:0.25 52:0.625 53:1 54:0.3125 58:0.125 59:0.8125 60:0.625 61:0.125 # 0
-0.78713119421181665380515823926544 2:0.625 3:1 4:1 5:0.75 10:0.375 11:1 12:0.5625 13:0.4375 18:0.4375 19:1 20:0.25 26:0.6875 27:1 28:1 29:0.625 30:0.0625 34:0.1875 35:0.5 36:0.375 37:0.8125 38:0.78571427 45:0.4375 46:1 52:0.1875 53:0.9375 54:0.9375 58:0.625 59:1 60:1 61:0.8125 62:0.125 # 0
-0.31856380238181736253011422377313 1:0.375 2:0.875 3:1 4:0.4375 5:0.0625 9:0.80000001 10:1 11:0.5625 12:1 13:0.6875 17:0.75 18:1 19:0.6875 20:1 21:0.75 25:0.0625 26:0.625 27:0.75 28:0.9375 29:1 36:0.25 37:1 38:0.2857143 45:0.8125 46:0.6875 49:0.0625 50:0.375 51:0.25 52:0.5 53:1 54:0.6875 57:0.2 58:0.5625 59:1 60:1 61:0.625 62:0.0625 # 0
-0.45249953751253546574417896408704 1:0.25 2:0.625 3:0.9375 4:1 5:0.9375 9:0.26666668 10:1 11:0.5625 12:0.25 13:0.375 17:0.5 18:0.9375 25:0.375 26:0.875 27:0.3125 33:0.071428575 34:0.75 35:1 36:0.8125 37:0.3125 43:0.125 44:0.5625 45:1 46:0.5625 50:0.5625 51:0.5 52:0.625 53:1 54:0.5625 58:0.4375 59:1 60:0.75 61:0.5 62:0.0625 # 0
-1 2:0.625 3:1 4:0.5625 9:0.13333334 10:1 11:1 12:1 13:0.125 18:0.5 19:0.0625 20:0.9375 21:0.5 28:0.875 29:0.5625 35:0.0625 36:1 37:0.625 43:0.5625 44:1 45:1 46:0.4375 50:0.5 51:1 52:0.9375 53:0.75 54:0.9375 55:0.5 58:0.8125 59:0.9375 60:0.0625 62:0.3125 63:0.40000001 # 0
-1 2:0.1875 3:0.75 4:1 5:0.5 10:0.75 11:0.75 12:0.9375 13:0.75 20:0.4375 21:0.75 28:0.8125 29:0.4375 34:0.25 35:0.9375 36:1 37:0.5625 38:0.071428575 42:0.3125 43:0.9375 44:1 45:1 46:0.1875 51:0.875 52:0.875 53:0.3125 58:0.25 59:0.9375 60:0.1875 # 0
-1 3:0.1875 4:0.875 5:0.3125 11:0.375 12:1 13:0.8125 14:0.0625 19:0.5 20:1 21:0.8125 22:0.0625 27:0.5625 28:1 29:0.6875 33:0.35714287 34:0.875 35:1 36:1 37:0.75 42:0.125 43:0.5625 44:1 45:1 46:0.25 51:0.3125 52:1 53:1 54:0.5 59:0.1875 60:0.8125 61:0.875 62:0.3125 # 0
-1 2:0.25 3:0.875 4:0.625 5:0.125 10:0.75 11:0.8125 12:0.875 13:0.8125 18:0.6875 19:0.3125 20:0.1875 21:0.8125 26:0.4375 27:0.75 28:0.6875 29:1 30:0.0625 34:0.0625 35:0.625 36:0.5625 37:0.875 38:0.21428572 45:0.8125 46:0.3125 50:0.25 51:0.5 52:0.5 53:1 54:0.3125 58:0.4375 59:1 60:1 61:0.6875 # 0
-0.19001255233745723005611694134132 1:0.125 2:0.8125 3:1 4:1 5:0.75 6:0.0625 9:0.13333334 10:1 11:1 12:1 13:0.9375 14:0.125 18:0.3125 19:0.75 20:1 21:0.875 28:0.625 29:0.9375 36:0.75 37:0.75 43:0.1875 44:1 45:0.5625 49:0.0625 50:0.5 51:0.8125 52:0.9375 53:0.125 57:0.2 58:0.8125 59:1 60:0.375 # 0
1 2:0.5625 3:0.6875 4:0.75 5:0.75 6:0.0625 10:0.6875 11:0.75 12:0.8125 13:1 14:0.25 20:0.75 21:0.625 26:0.125 27:0.6875 28:0.875 29:0.125 34:0.5625 35:1 36:0.3125 42:0.375 43:0.9375 44:1 45:0.875 46:0.125 50:0.1875 51:0.375 52:0.875 53:1 54:0.0625 58:0.6875 59:1 60:0.8125 61:0.3125 # 0
0.66171340178082371785706072842004 2:0.0625 3:0.5 4:0.875 5:1 6:0.75 10:0.625 11:0.9375 12:0.8125 13:1 14:0.75 17:0.0625 18:0.75 19:0.1875 20:0.5625 21:0.9375 22:0.0625 27:0.5 28:1 29:0.5 35:0.5 36:1 37:1 38:0.2857143 43:0.0625 44:0.5 45:1 46:0.375 51:0.3125 52:0.9375 53:0.75 54:0.0625 59:0.8125 60:0.625 61:0.0625 # 0
-1 1:0.25 2:0.9375 3:0.5625 4:0.625 5:0.5 6:0.375 9:0.66666669 10:1 11:1 12:1 13:0.75 14:0.5 17:0.5 18:1 19:0.375 25:0.0625 26:0.75 27:1 28:0.75 29:0.0625 34:0.0625 35:0.375 36:0.9375 37:0.75 44:0.3125 45:1 46:0.125 49:0.625 50:0.75 51:0.375 52:0.625 53:1 54:0.0625 57:0.1 58:0.8125 59:1 60:0.875 61:0.3125 # 0
-0.17747673047554923808633020598791 2:0.1875 3:0.875 4:0.8125 5:0.125 9:0.06666667 10:0.9375 11:1 12:1 13:0.1875 17:0.125 18:0.875 19:0.9375 20:0.3125 26:0.3125 27:0.9375 28:0.375 35:0.3125 36:1 37:0.4375 44:0.25 45:0.9375 46:0.4375 50:0.1875 51:0.5 52:0.75 53:1 54:0.8125 58:0.1875 59:0.75 60:0.9375 61:0.875 62:0.25 # 0
1 1:0.5 2:0.9375 3:0.9375 4:0.5 5:0.0625 9:0.26666668 10:1 11:0.6875 12:1 13:0.9375 17:0.0625 18:0.3125 20:0.6875 21:1 22:0.25 27:0.375 28:1 29:0.8125 30:0.0625 35:0.75 36:1 37:0.0625 43:0.375 44:1 45:0.3125 51:0.25 52:1 53:0.5 57:0.40000001 58:1 59:1 60:1 61:0.375 # 0
-1 2:0.5 3:0.875 4:0.875 5:0.5625 9:0.06666667 10:1 11:0.5625 12:0.875 13:0.9375 14:0.5625 17:0.125 18:1 19:0.375 20:0.5625 21:0.9375 22:0.375 26:0.5 27:1 28:1 29:0.25 34:0.625 35:0.75 36:0.8125 37:0.75 41:0.0625 42:0.9375 43:0.125 44:0.0625 45:1 46:0.375 49:0.125 50:0.875 51:0.25 52:0.375 53:1 54:0.25 58:0.625 59:1 60:1 61:0.625 62:0.0625 # 0
-1 2:0.125 3:1 4:0.9375 5:0.4375 10:0.1875 11:0.75 12:0.8125 13:0.8125 19:0.375 20:1 21:0.625 27:0.375 28:1 29:0.1875 34:0.1875 35:0.9375 36:0.625 37:0.75 41:0.0625 42:0.8125 43:0.3125 45:0.8125 46:0.375 50:1 51:0.3125 53:0.4375 54:0.9375 58:0.1875 59:0.6875 60:1 61:1 62:0.75 63:0.13333334 # 0
-0.58818581998488506101807615777943 2:0.125 3:0.9375 4:0.75 10:0.1875 11:1 12:0.875 13:0.625 19:0.3125 20:0.8125 21:1 22:0.125 29:0.75 30:0.5 37:0.4375 38:0.78571427 45:0.4375 46:0.8125 50:0.125 52:0.125 53:0.6875 54:0.6875 58:0.1875 59:0.8125 60:0.9375 61:1 62:0.375 # 0
1 2:0.5 3:1 4:1 5:0.75 9:0.26666668 10:1 11:1 12:1 13:0.9375 14:0.125 17:0.125 18:0.6875 19:1 20:1 21:0.6875 27:0.9375 28:1 29:0.4375 36:0.6875 37:1 38:0.14285715 42:0.4375 45:0.9375 46:0.3125 49:0.125 50:1 51:0.4375 52:0.4375 53:0.9375 54:0.4375 58:0.5 59:0.875 60:0.75 61:0.3125 # 0
-1 1:0.125 2:0.6875 3:1 4:1 5:0.8125 6:0.125 9:0.40000001 10:1 11:1 12:0.5 13:0.8125 14:0.5 18:0.625 19:1 20:0.875 21:0.9375 22:0.5 27:0.4375 28:0.75 29:0.875 30:0.3125 37:0.5 38:0.2857143 45:0.6875 46:0.25 50:0.5 51:0.5 52:0.5625 53:0.9375 54:0.25 57:0.2 58:0.8125 59:1 60:1 61:0.5625 62:0.0625 # 0
-1 2:0.3125 3:1 4:0.8125 5:0.0625 10:0.75 11:0.875 12:0.9375 13:0.3125 18:0.75 19:0.625 20:1 21:0.4375 26:0.1875 27:0.9375 28:1 29:0.75 36:0.125 37:0.9375 38:0.14285715 45:0.5 46:0.5625 49:0.125 50:0.75 51:0.5 52:0.5 53:0.8125 54:0.75 57:0.1 58:0.375 59:0.625 60:0.75 61:0.75 62:0.125 # 0
-1 1:0.125 2:0.6875 3:1 4:0.9375 5:0.375 9:0.13333334 10:1 11:0.4375 12:0.375 13:0.8125 14:0.125 18:0.625 19:0.8125 20:0.875 21:1 22:0.1875 26:0.125 27:0.5625 28:0.5625 29:0.75 30:0.1875 37:0.75 38:0.2857143 45:0.5625 46:0.4375 52:0.1875 53:0.875 54:0.1875 58:0.5625 59:1 60:1 61:0.6875 62:0.125 # 0
-0.0034645489172670518307484144315822 2:0.25 3:0.8125 4:0.6875 5:0.125 10:0.125 11:0.8125 12:1 13:0.4375 19:0.4375 20:1 21:0.9375 27:0.1875 28:1 29:0.9375 30:0.25 35:0.4375 36:1 37:1 38:0.071428575 43:0.625 44:1 45:0.875 50:0.0625 51:0.8125 52:0.9375 53:0.25 58:0.5 59:1 60:0.875 # 0
-0.17403757641548356360772231710143 2:0.125 3:0.9375 4:0.75 5:0.0625 10:0.4375 11:0.9375 12:0.9375 13:0.5625 18:0.3125 19:0.9375 20:0.4375 21:1 22:0.125 26:0.0625 27:0.8125 28:0.875 29:1 30:0.4375 35:0.25 36:0.8125 37:0.9375 38:0.71428573 45:0.875 46:0.6875 51:0.0625 52:0.5 53:1 54:0.625 58:0.125 59:0.8125 60:1 61:0.9375 62:0.1875 # 0
-0.010457396887242988159361090083621 1:0.125 2:1 3:1 4:0.9375 5:0.1875 10:0.4375 11:0.375 12:1 13:0.625 19:0.0625 20:1 21:0.5 26:0.375 27:0.9375 28:0.9375 29:0.125 34:0.4375 35:1 36:1 37:0.6875 38:0.21428572 42:0.3125 43:1 44:0.875 45:1 46:0.4375 50:0.625 51:0.75 52:0.0625 53:0.25 54:0.0625 58:1 59:0.375 # 0
