SVM-light Version V6.02
1 # kernel type
8 # kernel parameter -d 
1 # kernel parameter -g 
1 # kernel parameter -s 
1 # kernel parameter -r 
empty# kernel parameter -u 
63 # highest feature index 
2823 # number of training documents 
183 # number of support vectors plus 1 
0.58477237 # threshold b, each following line is a SV (starting with alpha*y)
-3.0360466174440799565311193746679e-10 2:0.25 3:0.625 10:0.125 11:0.9375 12:0.125 18:0.125 19:1 20:0.25 26:0.4375 27:1 28:0.5625 34:0.875 35:0.875 36:0.875 42:0.1875 43:0.1875 44:1 45:0.1875 50:0.0625 51:0.4375 52:0.875 53:0.6875 54:0.25 58:0.25 59:0.875 60:1 61:0.8125 62:0.875 63:0.53333336 # 0
-1.6732267494097202637492897103305e-10 1:0.625 2:0.9375 3:0.8125 9:0.2 10:0.625 11:1 12:0.3125 19:0.875 20:0.25 26:0.375 27:0.875 33:0.071428575 34:0.875 35:0.4375 41:0.4375 42:0.8125 43:0.0625 49:0.8125 50:0.875 51:0.625 52:0.6875 53:0.5625 54:0.3125 57:0.5 58:0.9375 59:1 60:0.875 61:0.625 62:0.1875 # 0
-3.5223880138814593590321129721465e-11 2:0.5625 3:0.8125 4:0.6875 5:0.5625 6:0.0625 10:0.6875 11:0.625 12:0.625 13:0.875 14:0.25 18:0.3125 19:0.875 20:0.4375 21:0.8125 27:0.625 28:0.9375 29:0.1875 34:0.5 35:1 36:0.75 42:0.875 43:0.1875 44:0.75 45:0.25 50:0.8125 51:0.0625 52:0.75 53:0.4375 58:0.625 59:1 60:0.8125 61:0.0625 # 0
-1.5457442536122189355735050814416e-10 2:0.3125 3:0.5625 4:1 5:0.8125 6:0.25 9:0.06666667 10:0.9375 11:0.5 12:0.3125 13:0.875 14:0.75 18:0.25 20:0.25 21:0.875 22:0.5 27:0.125 28:0.875 29:0.625 35:0.75 36:0.875 42:0.4375 43:0.875 44:0.1875 50:0.9375 51:0.625 58:0.25 59:0.75 60:0.75 61:0.375 # 0
-1.2786425372911598743516648613418e-09 2:0.1875 3:0.625 4:0.6875 5:0.3125 9:0.53333336 10:1 11:0.625 12:0.5 13:0.3125 17:0.6875 18:0.6875 25:0.5 26:0.875 27:0.6875 28:0.5 29:0.25 34:0.1875 35:0.4375 36:0.5625 37:0.875 38:0.64285713 45:0.3125 46:0.8125 50:0.0625 51:0.25 52:0.625 53:1 54:0.3125 58:0.125 59:0.8125 60:0.625 61:0.125 # 0
-1.3483993799403573651427976515643e-11 1:0.375 2:0.8125 3:1 4:1 5:1 6:0.9375 7:0.0625 9:0.2 10:0.5625 11:0.3125 12:0.375 13:1 14:0.6875 20:0.625 21:0.875 22:0.0625 27:0.375 28:1 29:0.1875 35:0.875 36:0.6875 42:0.5 43:0.9375 44:0.125 49:0.0625 50:0.875 51:0.75 57:0.5 58:1 59:0.3125 # 0
8.2640692369768756218136534992579e-10 2:0.5625 3:0.8125 4:0.9375 5:0.625 6:0.0625 10:0.4375 11:0.25 12:0.25 13:0.75 14:0.8125 21:0.4375 22:0.6875 26:0.125 27:0.75 28:0.8125 29:0.75 30:0.125 35:0.625 36:0.9375 37:0.0625 43:0.0625 44:0.6875 45:0.5625 50:0.75 51:0.1875 52:0.1875 53:0.9375 58:0.5 59:1 60:1 61:0.1875 # 0
5.188695707059881429969117673821e-10 2:0.875 3:1 4:0.875 5:0.3125 10:0.1875 12:0.125 13:1 14:0.1875 19:0.25 20:0.625 21:0.9375 22:0.0625 25:0.375 26:1 27:1 28:0.875 29:0.125 33:0.071428575 34:0.25 35:0.375 36:0.75 37:0.75 45:0.75 46:0.5625 50:0.625 52:0.25 53:0.875 54:0.3125 58:0.8125 59:1 60:0.8125 61:0.25 # 0
1.1344840342602778957649777008673e-10 2:0.5625 3:0.8125 4:1 5:0.5625 10:0.25 11:0.3125 12:0.6875 13:0.9375 19:0.375 20:0.9375 21:0.5 27:0.8125 28:0.625 35:0.5 36:0.75 37:0.0625 44:0.5625 45:0.875 46:0.125 51:0.1875 52:0.75 53:1 54:0.25 58:0.6875 59:1 60:0.6875 61:0.1875 # 0
-4.5996614032030846078087084532538e-10 1:0.25 2:0.6875 3:0.1875 5:0.125 9:0.13333334 10:0.8125 11:0.75 12:0.3125 13:0.9375 14:0.375 18:0.6875 19:0.875 20:0.875 21:0.0625 26:0.4375 27:0.9375 28:0.0625 34:0.9375 35:0.75 36:0.3125 41:0.25 42:0.625 43:0.25 44:0.5 49:0.4375 50:0.5625 51:0.4375 52:0.5 57:0.2 58:0.875 59:0.9375 60:0.3125 # 0
1.4515374946596146008875096453453e-09 1:0.125 2:0.5625 3:0.75 4:0.9375 5:0.875 6:0.25 9:0.40000001 10:0.875 11:0.25 12:0.25 13:0.875 14:0.5 17:0.1875 18:0.5 20:0.4375 21:0.9375 22:0.125 27:0.375 28:0.875 29:0.125 35:0.5 36:0.6875 43:0.0625 44:0.9375 45:0.125 50:0.3125 52:0.75 53:0.5625 58:0.6875 59:1 60:0.875 61:0.1875 # 0
-1.1046527031243506519416423450786e-09 2:0.25 3:0.875 4:0.6875 5:0.0625 10:0.5625 11:0.5 12:0.625 13:0.5625 18:0.4375 20:0.875 21:0.25 26:0.5625 27:0.6875 28:0.875 29:0.0625 34:0.0625 35:0.9375 36:0.5 42:0.1875 43:0.8125 44:0.75 45:0.3125 50:0.5 51:0.5 52:0.25 53:0.875 58:0.1875 59:0.9375 60:1 61:0.8125 # 0
-6.4157216607042580588121304335878e-11 2:0.0625 3:0.6875 4:0.375 10:0.4375 11:0.8125 12:0.125 18:0.8125 19:0.375 25:0.0625 26:0.8125 27:0.0625 33:0.071428575 34:0.75 36:0.25 37:0.1875 41:0.0625 42:0.6875 43:0.6875 44:0.875 45:0.875 46:0.625 50:0.75 51:0.9375 52:0.3125 53:0.25 54:0.9375 55:0.30000001 58:0.0625 59:0.8125 60:1 61:0.75 62:0.5625 63:0.06666667 # 0
-2.8881043540222224167933068836344e-10 2:0.5 3:0.8125 4:0.75 5:0.125 10:0.625 11:0.75 12:0.8125 13:0.625 18:0.0625 20:0.5 21:0.75 28:0.5625 29:0.75 35:0.1875 36:1 37:0.3125 42:0.0625 43:0.8125 44:0.75 45:0.125 46:0.1875 50:0.75 51:1 52:1 53:1 54:0.5625 58:0.625 59:0.75 60:0.5625 61:0.125 # 0
2.0858810950106971050953793460017e-10 1:0.125 2:0.625 3:0.9375 4:0.9375 5:0.375 9:0.53333336 10:1 11:0.9375 12:0.875 13:0.9375 14:0.1875 17:0.1875 18:0.375 19:0.1875 20:0.9375 21:0.9375 27:0.75 28:1 29:0.3125 35:0.5 36:1 37:0.125 43:0.25 44:1 45:0.5 50:0.25 51:0.9375 52:1 53:0.25 58:0.875 59:1 60:0.4375 # 0
-3.1159103301691734468694249558172e-11 3:0.5625 4:0.375 10:0.125 11:0.9375 12:0.375 18:0.375 19:0.625 26:0.6875 27:0.5 28:0.4375 29:0.125 34:0.875 35:0.9375 36:0.5 37:0.875 38:0.35714287 42:1 43:0.3125 45:0.25 46:0.8125 50:0.5625 51:0.8125 53:0.4375 54:0.8125 59:0.6875 60:1 61:0.875 62:0.125 # 0
-2.387351409224508359693419847099e-10 2:0.125 3:0.625 4:0.75 5:0.875 6:1 7:0.75 10:0.5 11:1 12:1 13:1 14:0.875 15:0.30769232 18:0.125 19:1 20:0.75 21:0.25 26:0.0625 27:1 28:0.9375 29:0.125 35:0.5 36:1 37:0.6875 44:0.8125 45:1 51:0.4375 52:1 53:0.6875 58:0.0625 59:1 60:0.6875 61:0.0625 # 0
-3.4821588536467894541569633722966e-10 2:0.75 3:1 4:0.75 5:1 6:0.1875 10:0.875 11:0.875 12:0.5 13:0.5 14:0.0625 18:0.4375 19:0.9375 20:0.0625 26:0.0625 27:0.875 28:0.6875 35:0.375 36:1 37:0.0625 44:0.75 45:0.6875 49:0.125 50:0.4375 51:0.375 52:0.875 53:0.8125 58:0.75 59:1 60:1 61:0.375 # 0
1.7870730325290307592289238779301e-10 2:0.5 3:1 4:1 5:0.75 9:0.26666668 10:1 11:1 12:1 13:0.9375 14:0.125 17:0.125 18:0.6875 19:1 20:1 21:0.6875 27:0.9375 28:1 29:0.4375 36:0.6875 37:1 38:0.14285715 42:0.4375 45:0.9375 46:0.3125 49:0.125 50:1 51:0.4375 52:0.4375 53:0.9375 54:0.4375 58:0.5 59:0.875 60:0.75 61:0.3125 # 0
5.7579831885825240157514474402859e-10 2:0.125 3:0.6875 4:0.75 5:0.25 10:0.6875 11:0.9375 12:0.875 13:0.6875 18:0.1875 19:0.5625 20:0.75 21:0.6875 27:0.625 28:1 29:0.875 30:0.125 35:0.125 36:0.3125 37:0.8125 38:0.5 42:0.375 45:0.5625 46:0.6875 50:0.875 51:0.8125 52:0.5 53:0.875 54:0.5625 58:0.3125 59:0.9375 60:0.875 61:0.6875 62:0.0625 # 0
-1.1809988216023300880048401693457e-10 3:0.375 4:0.5 10:0.125 11:0.875 12:0.1875 18:0.5625 19:0.5 25:0.25 26:0.9375 27:0.0625 29:0.625 30:0.3125 33:0.5 34:0.8125 36:0.125 37:1 38:0.21428572 41:0.6875 42:0.875 43:0.5 44:0.9375 45:0.5625 49:0.75 50:1 51:0.875 52:0.9375 57:0.1 58:0.25 59:0.5625 60:0.5 # 0
-1.4233711660147847478735710764856e-10 4:0.4375 5:0.9375 6:0.125 12:0.5 13:1 14:0.3125 19:0.0625 20:0.8125 21:0.875 25:0.5 26:1 27:1 28:1 29:0.75 34:0.1875 36:1 37:0.75 44:0.75 45:0.9375 52:0.5625 53:1 54:0.125 60:0.375 61:1 62:0.5 # 0
7.8188176985897430657304406925886e-10 2:0.5625 3:0.875 4:1 5:0.5625 6:0.0625 9:0.26666668 10:0.9375 11:0.4375 12:0.125 13:0.875 14:0.25 18:0.0625 19:0.0625 20:0.5 21:0.875 27:0.125 28:1 29:0.375 36:0.125 37:0.875 45:0.375 46:0.625 49:0.1875 50:0.5625 51:0.25 52:0.25 53:0.625 54:0.625 57:0.1 58:0.625 59:0.8125 60:0.75 61:0.5625 # 0
-7.1390109208928364751661064479914e-11 1:0.25 4:0.5625 5:0.4375 9:1 10:1 11:1 12:1 13:0.5625 17:0.0625 18:0.3125 19:0.25 20:1 21:0.4375 25:0.0625 26:0.25 27:0.25 28:1 29:0.4375 33:0.35714287 34:1 35:1 36:1 37:0.9375 38:0.14285715 42:0.1875 43:0.0625 44:0.875 45:0.375 52:0.8125 53:0.4375 60:0.625 61:0.6875 # 0
-5.2708739630567322974067190645138e-10 2:0.4375 3:0.8125 4:0.3125 9:0.26666668 10:0.875 11:0.25 12:0.875 13:0.8125 18:0.8125 19:0.5 20:0.75 21:1 22:0.25 26:0.3125 27:0.75 28:0.6875 29:0.375 30:0.375 37:0.3125 38:0.64285713 45:0.5625 46:0.4375 50:0.125 51:0.125 52:0.5 53:1 54:0.125 58:0.625 59:1 60:0.75 61:0.1875 # 0
2.8939614269670591149081323627062e-10 2:0.0625 3:0.75 4:0.9375 5:0.0625 10:0.625 11:1 12:1 17:0.1875 18:1 19:0.9375 20:0.625 25:0.375 26:1 27:0.9375 28:0.9375 29:0.125 34:0.25 35:0.125 36:0.875 37:0.9375 38:0.071428575 44:0.1875 45:0.9375 46:0.3125 50:0.125 51:0.875 52:0.875 53:1 54:0.3125 59:0.9375 60:1 61:0.8125 62:0.0625 # 0
-5.7641687736035434352924043613505e-11 2:0.375 3:0.75 4:1 5:0.625 11:0.75 12:1 13:1 14:0.0625 19:0.5625 20:1 21:1 22:0.25 27:0.8125 28:1 29:1 30:0.1875 35:0.875 36:1 37:0.875 43:0.875 44:1 45:0.625 50:0.125 51:1 52:1 53:0.8125 58:0.4375 59:1 60:0.9375 61:0.125 # 0
-9.0551288470933218441361989186678e-10 2:0.3125 3:0.9375 4:0.8125 5:0.125 10:0.875 11:0.8125 12:0.5625 13:0.8125 18:0.625 21:0.625 22:0.125 29:0.6875 30:0.1875 36:0.125 37:0.9375 43:0.0625 44:0.75 45:0.5625 50:0.625 51:0.75 52:1 53:0.875 54:0.125 58:0.3125 59:0.875 60:0.75 61:0.6875 62:0.25 # 0
5.9300555043037290193137836457542e-10 3:0.3125 4:0.875 5:1 6:1 7:0.3125 10:0.625 11:1 12:0.9375 13:1 14:1 15:0.53846157 17:0.25 18:0.9375 19:0.375 20:0.0625 21:1 22:0.75 26:0.125 28:0.3125 29:1 30:0.4375 36:0.25 37:1 38:0.14285715 44:0.375 45:1 46:0.0625 51:0.125 52:0.9375 53:0.875 59:0.1875 60:0.9375 61:0.4375 # 0
2.2562822427357688083615282171549e-09 2:0.25 3:0.875 4:0.6875 5:0.0625 9:0.26666668 10:1 11:0.75 12:0.625 13:0.5 17:0.5625 18:0.875 19:0.0625 20:0.4375 21:0.4375 25:0.0625 26:0.125 28:0.9375 29:0.5625 36:0.4375 37:0.9375 38:0.14285715 45:0.3125 46:0.6875 50:0.75 51:0.1875 52:0.25 53:0.625 54:0.6875 58:0.375 59:0.9375 60:0.9375 61:0.6875 62:0.0625 # 0
-1.5744363396846481710489567412692e-10 2:0.125 3:0.8125 4:0.0625 10:0.6875 11:0.625 12:0.0625 17:0.125 18:0.9375 19:0.0625 25:0.375 26:0.6875 27:0.0625 28:0.25 29:0.0625 33:0.5 34:0.625 35:0.5625 36:1 37:0.875 38:0.071428575 41:0.25 42:0.75 43:0.4375 44:0.375 45:0.4375 46:0.625 49:0.0625 50:0.8125 51:0.375 52:0.125 53:0.625 54:0.875 58:0.1875 59:0.75 60:0.8125 61:0.8125 62:0.1875 # 0
-8.427086987287701742207728295274e-11 3:0.8125 4:0.4375 10:0.5625 11:1 12:0.9375 17:0.5 18:1 19:1 20:0.875 25:0.4375 26:0.5 27:0.6875 28:1 29:0.25 35:0.125 36:1 37:0.625 44:0.625 45:1 46:0.25 50:0.0625 51:0.4375 52:0.6875 53:1 54:0.75 59:0.6875 60:1 61:0.875 62:0.5 # 0
-9.0608004268455065967704169386984e-11 2:0.125 3:1 4:0.5625 10:0.5 11:1 12:0.9375 17:0.375 18:1 19:1 20:0.9375 21:0.0625 27:0.3125 28:1 29:0.5 36:0.875 37:0.875 44:0.125 45:1 46:0.375 50:0.0625 51:0.25 52:0.4375 53:1 54:0.8125 59:0.6875 60:1 61:1 62:0.9375 63:0.06666667 # 0
-1.7360287279266841811806895871993e-10 2:0.375 3:0.9375 4:1 5:0.875 9:0.13333334 10:0.6875 11:0.3125 12:0.4375 13:1 14:0.125 20:0.25 21:1 26:0.5 27:0.8125 28:1 29:0.375 34:0.3125 35:0.8125 36:1 37:0.875 38:0.21428572 43:0.875 44:0.5 45:0.875 46:0.25 50:0.375 51:1 52:0.125 58:0.4375 59:0.5625 60:0.0625 # 0
-6.1979692036861608325730365693035e-10 2:0.25 3:0.875 4:0.625 5:0.125 10:0.75 11:0.8125 12:0.875 13:0.8125 18:0.6875 19:0.3125 20:0.1875 21:0.8125 26:0.4375 27:0.75 28:0.6875 29:1 30:0.0625 34:0.0625 35:0.625 36:0.5625 37:0.875 38:0.21428572 45:0.8125 46:0.3125 50:0.25 51:0.5 52:0.5 53:1 54:0.3125 58:0.4375 59:1 60:1 61:0.6875 # 0
-3.3698384501866416623108330287558e-10 3:0.375 4:0.9375 5:0.375 11:0.75 12:0.625 13:0.8125 19:0.6875 20:0.9375 21:0.875 26:0.5625 27:0.6875 28:0.875 33:0.2857143 34:0.6875 36:0.625 37:0.375 41:0.1875 42:0.5625 44:0.0625 45:0.875 46:0.0625 50:0.6875 51:0.5 52:0.125 53:0.5625 54:0.4375 59:0.375 60:0.75 61:0.8125 62:0.4375 # 0
-3.928196932802126452151235853498e-10 1:0.125 2:0.6875 3:0.8125 4:0.4375 9:0.40000001 10:0.9375 11:0.8125 12:0.9375 13:0.25 17:0.125 18:0.125 20:0.5625 21:0.5625 28:0.5 29:0.5 36:0.8125 37:0.3125 43:0.5 44:0.75 50:0.5 51:1 52:0.625 53:0.5625 54:0.1875 58:0.6875 59:0.9375 60:0.9375 61:1 62:0.4375 # 0
-5.9272654357353199079699344612913e-10 2:0.75 3:0.625 4:0.125 9:0.13333334 10:1 11:0.5 12:0.625 13:0.125 18:1 20:0.625 21:0.625 26:0.3125 27:0.625 28:0.75 29:0.9375 35:0.375 36:0.5 37:0.875 38:0.21428572 45:0.3125 46:0.75 51:0.0625 52:0.25 53:0.5625 54:0.8125 58:0.625 59:0.9375 60:1 61:0.9375 62:0.3125 # 0
-9.6899291810051099789750932058784e-10 2:0.375 3:1 4:0.5 9:0.2 10:1 11:0.375 12:1 13:0.0625 17:0.1875 18:0.4375 19:0.125 20:1 21:0.125 27:0.4375 28:0.8125 35:0.75 36:0.5 42:0.125 43:0.9375 44:0.25 45:0.0625 50:0.5 51:0.75 52:0.25 53:0.8125 54:0.375 58:0.3125 59:1 60:0.9375 61:0.5 62:0.0625 # 0
-1.1496106717838507770079143496486e-10 2:0.25 3:0.875 4:0.9375 5:0.3125 9:0.46666667 10:0.875 11:0.4375 12:0.375 13:1 17:0.625 18:0.375 21:0.6875 22:0.1875 25:0.25 26:0.125 28:0.0625 29:0.875 36:0.625 37:0.4375 43:0.3125 44:0.8125 45:0.0625 50:0.375 51:1 52:0.5 58:0.3125 59:0.5625 60:0.75 61:0.75 62:1 63:0.13333334 # 0
9.087971702558704474739373795403e-10 1:0.125 2:0.625 3:0.3125 9:0.13333334 10:1 11:1 12:0.75 13:0.0625 18:0.625 19:0.3125 20:0.6875 21:0.375 27:0.0625 28:0.75 29:0.4375 34:0.375 35:1 36:1 37:0.375 42:0.1875 43:0.5 44:0.625 45:0.9375 46:0.5 50:0.1875 51:0.25 52:0.4375 53:0.875 54:0.9375 58:0.375 59:0.9375 60:0.9375 61:0.6875 62:0.25 # 0
1.3682880989782849653612156423134e-09 2:0.3125 3:0.75 4:0.75 9:0.2 10:1 11:0.75 12:0.9375 13:0.25 17:0.25 18:0.875 20:0.875 21:0.375 25:0.0625 26:0.75 27:0.6875 28:0.75 34:0.4375 35:1 36:0.5 37:0.0625 42:0.0625 43:0.3125 44:0.75 45:0.8125 46:0.0625 50:0.5 51:0.25 53:1 54:0.25 58:0.5 59:0.9375 60:0.9375 61:0.6875 62:0.0625 # 0
1.2457842806083874661194076409118e-09 2:0.3125 3:0.75 4:0.625 9:0.13333334 10:0.9375 11:0.875 12:1 13:0.0625 18:0.6875 19:0.1875 20:1 21:0.0625 28:0.6875 29:0.3125 36:0.4375 37:0.875 45:0.5625 46:0.625 50:0.625 51:0.4375 52:0.3125 53:0.75 54:0.75 58:0.375 59:0.875 60:1 61:0.8125 62:0.25 # 0
-2.4599187584410542427625443194549e-10 2:0.125 3:0.8125 4:1 5:1 6:0.5625 10:0.75 11:0.625 12:0.25 13:0.4375 14:0.75 17:0.0625 18:0.9375 19:0.5 20:0.125 21:0.375 22:0.25 26:0.25 27:0.625 28:1 29:0.5625 36:0.125 37:1 44:0.5625 45:0.6875 51:0.3125 52:0.9375 53:0.25 59:0.8125 60:0.5625 # 0
-4.0634648385409071394727467011222e-11 2:0.625 3:1 4:1 5:0.75 10:0.375 11:1 12:0.5625 13:0.4375 18:0.4375 19:1 20:0.25 26:0.6875 27:1 28:1 29:0.625 30:0.0625 34:0.1875 35:0.5 36:0.375 37:0.8125 38:0.78571427 45:0.4375 46:1 52:0.1875 53:0.9375 54:0.9375 58:0.625 59:1 60:1 61:0.8125 62:0.125 # 0
-3.7700354741514958302493324414598e-12 2:0.3125 3:0.8125 4:0.75 5:0.125 10:0.875 11:0.75 12:0.75 13:0.8125 18:0.6875 19:0.25 20:0.125 21:0.9375 26:0.5 27:0.5 28:0.25 29:1 30:0.0625 34:0.125 35:0.875 36:1 37:1 38:0.42857143 45:0.4375 46:0.625 50:0.5 51:0.5625 52:0.5 53:0.9375 54:0.625 58:0.25 59:1 60:1 61:0.8125 62:0.125 # 0
1.5065810224134512008184959129141e-09 2:0.0625 3:0.6875 4:1 5:0.375 10:0.75 11:0.875 12:0.6875 13:1 14:0.1875 18:0.6875 19:0.3125 20:0.125 21:1 22:0.3125 28:0.4375 29:0.875 30:0.125 35:0.4375 36:1 37:0.4375 43:0.1875 44:1 45:0.625 51:0.75 52:1 53:0.9375 58:0.0625 59:0.75 60:1 61:0.4375 # 0
-6.1506150292747501578684190320034e-10 1:0.25 2:0.25 3:0.4375 4:0.8125 5:0.9375 6:0.125 9:0.93333334 10:1 11:1 12:0.9375 13:1 14:0.3125 17:0.0625 18:0.25 20:0.875 21:0.875 28:1 29:0.75 35:0.1875 36:1 37:0.4375 43:0.3125 44:1 45:0.4375 51:0.3125 52:1 53:0.375 59:0.4375 60:1 61:0.5625 # 0
-7.4720517041042689714814645446719e-10 3:0.3125 4:0.9375 5:1 6:0.375 9:0.06666667 10:0.9375 11:0.9375 12:0.625 13:0.9375 14:0.875 18:0.0625 21:0.5 22:0.75 27:0.125 28:0.3125 29:0.9375 30:0.5625 35:0.5 36:1 37:1 38:0.42857143 44:0.5 45:0.8125 52:0.75 53:0.5 59:0.125 60:0.8125 61:0.125 # 0
-4.462678113697431780964248922974e-10 2:0.0625 3:0.5 4:0.75 5:0.75 6:0.125 10:0.8125 11:0.75 12:0.75 13:0.9375 14:0.5625 21:0.875 22:0.625 27:0.125 28:0.5 29:1 30:0.5 34:0.125 35:1 36:1 37:0.9375 38:0.35714287 43:0.0625 44:1 45:0.5 51:0.5 52:1 53:0.25 59:0.5625 60:0.75 # 0
-3.2419731367258031913657283699752e-10 2:0.125 3:0.875 4:0.6875 5:0.5 6:0.75 7:0.0625 10:0.5 11:0.625 12:0.5625 13:0.875 14:0.875 18:0.625 19:0.0625 21:0.75 22:0.25 26:0.0625 27:0.125 28:0.4375 29:0.8125 30:0.0625 34:0.0625 35:0.9375 36:1 37:1 38:0.35714287 43:0.1875 44:0.8125 45:0.125 51:0.5625 52:0.4375 59:0.9375 60:0.25 # 0
-1.1992108376669457748143793418501e-10 2:0.625 3:1 4:0.5625 9:0.13333334 10:1 11:1 12:1 13:0.125 18:0.5 19:0.0625 20:0.9375 21:0.5 28:0.875 29:0.5625 35:0.0625 36:1 37:0.625 43:0.5625 44:1 45:1 46:0.4375 50:0.5 51:1 52:0.9375 53:0.75 54:0.9375 55:0.5 58:0.8125 59:0.9375 60:0.0625 62:0.3125 63:0.40000001 # 0
-1.6648278869649699406468658277039e-09 2:0.5 3:0.6875 4:0.9375 5:0.25 10:0.875 11:0.875 12:0.75 13:0.375 18:0.6875 19:0.5625 26:0.625 27:1 28:0.875 29:0.125 34:0.25 35:0.5 36:0.5625 37:0.875 38:0.14285715 45:0.9375 46:0.125 50:0.25 51:0.6875 52:0.8125 53:1 54:0.0625 58:0.25 59:0.9375 60:0.75 61:0.5625 # 0
4.4140107743709163023543919123284e-09 2:0.3125 3:0.9375 4:0.5625 9:0.13333334 10:0.8125 11:0.5 12:0.9375 13:0.3125 17:0.125 18:0.125 20:0.5 21:0.3125 26:0.3125 27:0.5625 28:0.9375 29:0.125 34:0.6875 35:0.9375 36:0.9375 37:0.6875 44:0.0625 45:0.875 46:0.0625 50:0.25 51:0.5625 52:0.25 53:0.6875 54:0.1875 58:0.3125 59:0.75 60:0.8125 61:0.5625 # 0
1.2990259949727044933664846342985e-10 2:0.25 3:0.75 4:0.9375 5:0.3125 9:0.13333334 10:0.9375 11:0.8125 12:0.6875 13:0.6875 17:0.125 18:0.625 19:0.125 20:0.3125 21:1 27:0.25 28:0.875 29:0.875 35:0.3125 36:0.75 37:0.875 38:0.5 45:0.1875 46:0.875 50:0.5625 51:0.625 52:0.1875 53:0.5 54:0.9375 55:0.2 58:0.125 59:0.5625 60:1 61:1 62:0.4375 # 0
2.2197658148920179271578091576358e-09 2:0.125 3:0.75 4:1 5:0.4375 11:0.625 12:1 13:0.1875 19:0.1875 20:0.9375 21:0.3125 28:0.375 29:0.9375 30:0.1875 37:0.5 38:1 45:0.6875 46:1 51:0.1875 52:0.8125 53:1 54:0.5625 58:0.375 59:1 60:0.75 61:0.5 62:0.0625 # 0
-5.5947526296894115374408999012148e-10 2:0.375 3:0.875 4:0.875 5:0.25 10:0.875 11:0.9375 12:0.375 13:0.8125 14:0.125 18:0.4375 19:1 20:1 21:0.9375 22:0.0625 27:0.625 28:0.625 36:0.875 37:0.0625 44:0.25 45:0.6875 49:0.1875 50:0.625 51:0.25 53:0.8125 58:0.5625 59:0.75 60:1 61:0.75 # 0
-9.5105485141271520426175794178826e-11 2:0.125 3:0.9375 4:0.6875 5:0.0625 10:0.375 11:1 12:1 13:0.875 18:0.1875 19:0.9375 20:1 21:1 22:0.3125 27:0.3125 28:0.4375 29:0.6875 30:0.5625 37:0.8125 38:0.9285714 44:0.0625 45:1 46:0.5 51:0.125 52:0.8125 53:1 54:0.3125 58:0.3125 59:0.9375 60:1 61:0.375 # 0
-5.1778082471556381246117619507005e-10 1:0.125 2:0.875 3:1 4:0.875 5:0.25 9:0.2 10:1 11:0.5 12:0.5 13:0.875 18:0.9375 19:0.875 20:0.8125 21:0.5625 26:0.1875 27:0.6875 28:1 29:0.25 36:0.75 37:0.75 44:0.25 45:1 46:0.1875 50:0.1875 51:0.25 52:0.1875 53:1 54:0.0625 58:0.75 59:0.875 60:1 61:0.875 62:0.0625 # 0
-3.9844439726550336124668699767373e-10 3:0.625 4:0.375 10:0.3125 11:1 12:0.5625 18:0.625 19:1 20:0.625 25:0.25 26:0.9375 27:0.75 28:0.75 33:0.14285715 34:0.25 35:0.1875 36:1 37:0.125 44:0.6875 45:0.5625 51:0.4375 52:0.75 53:0.9375 54:0.25 59:0.75 60:1 61:1 62:0.5 # 0
-6.9842431842100187213734753032891e-11 2:0.8125 3:1 4:0.3125 10:1 11:0.75 12:0.9375 18:0.1875 19:0.1875 20:0.75 21:0.25 28:0.75 29:0.375 36:0.875 37:0.4375 43:0.125 44:1 45:0.3125 50:0.3125 51:0.875 52:1 53:0.5625 54:0.25 58:0.9375 59:1 60:0.8125 61:0.75 62:1 63:0.13333334 # 0
5.7309534625627809534155844074007e-09 2:0.3125 3:0.75 4:0.875 9:0.13333334 10:0.875 11:0.625 12:0.9375 17:0.1875 18:0.9375 19:0.6875 20:0.6875 25:0.125 26:0.75 27:0.9375 28:0.6875 29:0.125 36:0.5 37:0.9375 38:0.071428575 44:0.0625 45:0.875 46:0.25 50:0.125 51:0.4375 52:0.25 53:0.875 54:0.1875 58:0.1875 59:0.8125 60:0.875 61:0.625 # 0
2.1752078194352314623914099585246e-09 2:0.5 3:0.875 4:0.75 5:0.125 9:0.66666669 10:0.875 11:0.75 12:0.875 17:0.375 18:0.125 19:0.6875 20:0.4375 27:0.75 28:0.3125 35:0.5 36:0.9375 37:0.125 44:0.5625 45:0.875 46:0.1875 50:0.375 51:0.125 52:0.4375 53:0.875 54:0.5 58:0.875 59:0.9375 60:0.6875 61:0.25 # 0
-2.2440782784268830681284577793398e-10 2:0.125 3:0.75 4:0.875 5:0.3125 9:0.13333334 10:0.9375 11:0.375 12:0.5 13:0.875 14:0.375 17:0.3125 18:0.5625 20:0.3125 21:1 22:0.25 25:0.3125 26:0.5625 27:0.25 28:0.9375 29:0.75 34:0.875 35:0.8125 36:1 37:0.3125 43:0.25 44:0.75 51:0.6875 52:0.3125 58:0.125 59:0.9375 60:0.25 # 0
-9.6825003476523134809731417941506e-10 2:0.125 3:0.75 4:0.8125 9:0.2 10:0.9375 11:0.8125 12:1 17:0.625 18:0.8125 19:0.0625 20:1 26:0.0625 27:0.25 28:1 35:0.375 36:0.8125 43:0.5625 44:0.625 45:0.4375 46:0.5 51:0.875 52:0.9375 53:0.9375 54:0.1875 59:0.9375 60:0.75 61:0.1875 # 0
-1.1671748630183641687159870378151e-10 2:0.0625 3:0.4375 4:0.875 5:0.75 10:0.8125 11:0.6875 12:0.75 13:0.875 17:0.5625 18:1 19:0.75 20:0.875 21:0.875 25:0.125 26:0.25 27:0.125 28:0.3125 29:0.9375 36:0.1875 37:0.9375 44:0.1875 45:1 52:0.875 53:0.4375 58:0.125 59:0.6875 60:0.6875 61:0.0625 # 0
2.1339785011659425523342671615883e-09 2:0.1875 3:0.625 4:0.875 5:0.875 6:0.1875 10:0.9375 11:0.375 12:0.5625 13:1 14:0.25 18:0.0625 19:0.3125 20:0.875 21:0.375 26:0.4375 27:1 28:0.5625 29:0.0625 34:0.125 35:0.5625 36:0.8125 37:0.9375 38:0.071428575 44:0.25 45:1 46:0.125 51:0.4375 52:0.9375 53:0.375 59:0.875 60:0.4375 # 0
-3.0518537239086749865750374764988e-11 2:0.375 3:0.8125 4:0.9375 5:0.3125 9:0.46666667 10:1 11:0.6875 12:0.6875 13:1 17:0.625 18:0.75 20:0.1875 21:1 22:0.125 25:0.25 26:0.1875 28:0.3125 29:0.8125 36:0.875 37:0.375 43:0.375 44:0.875 45:0.0625 50:0.125 51:1 52:0.875 53:1 54:0.8125 58:0.5 59:1 60:0.75 61:0.5 # 0
2.9323851614494148116938426539913e-09 1:0.375 2:0.75 3:0.75 4:0.1875 9:0.53333336 10:0.625 11:0.6875 12:0.5625 18:0.125 19:0.875 20:0.25 26:0.75 27:0.8125 28:0.0625 34:0.1875 35:0.8125 36:0.9375 37:0.1875 44:0.4375 45:0.875 46:0.0625 49:0.125 50:0.25 51:0.25 52:0.1875 53:0.6875 54:0.4375 57:0.5 58:0.75 59:0.75 60:0.875 61:1 62:0.5 # 0
-9.6489693576053192284164967772566e-10 2:0.1875 3:0.875 4:0.8125 5:0.125 9:0.06666667 10:0.9375 11:1 12:1 13:0.1875 17:0.125 18:0.875 19:0.9375 20:0.3125 26:0.3125 27:0.9375 28:0.375 35:0.3125 36:1 37:0.4375 44:0.25 45:0.9375 46:0.4375 50:0.1875 51:0.5 52:0.75 53:1 54:0.8125 58:0.1875 59:0.75 60:0.9375 61:0.875 62:0.25 # 0
-4.1968373630320967424747658747853e-11 2:0.8125 3:0.875 4:0.25 9:0.26666668 10:1 11:0.8125 12:0.875 13:0.125 18:1 19:0.25 20:1 21:0.875 22:0.125 26:0.6875 27:0.875 28:1 29:0.875 35:0.5 36:0.6875 37:0.9375 44:0.25 45:1 46:0.125 50:0.375 51:0.375 52:0.4375 53:1 54:0.125 58:0.75 59:1 60:1 61:0.625 # 0
-2.8808243962244322609468227694516e-09 2:0.6875 3:0.9375 4:0.625 9:0.13333334 10:0.8125 12:0.5625 13:0.1875 17:0.1875 18:0.75 20:0.625 26:0.6875 27:0.75 28:0.75 35:0.6875 36:0.875 37:0.375 41:0.0625 42:0.5625 43:0.3125 45:0.625 46:0.3125 49:0.25 50:0.625 53:0.5 54:0.25 57:0.1 58:0.875 59:0.6875 60:0.875 61:0.625 # 0
-4.5055639401866759753247993278694e-11 2:0.1875 3:0.75 4:0.9375 5:0.6875 10:0.875 11:0.9375 12:0.9375 13:1 14:0.0625 18:0.1875 19:0.125 20:0.875 21:1 22:0.75 23:0.16666667 27:0.8125 28:1 29:0.875 30:0.5625 35:0.125 36:0.875 37:0.5 43:0.125 44:1 45:0.3125 51:0.8125 52:0.8125 58:0.1875 59:1 60:0.1875 # 0
-2.9654102427450320877267820944242e-10 3:0.1875 4:0.8125 11:0.75 12:0.5 18:0.3125 19:0.875 20:0.125 25:0.0625 26:0.9375 27:0.25 29:0.1875 30:0.5 33:0.9285714 34:0.9375 35:0.75 36:0.5625 37:0.8125 38:0.71428573 41:0.3125 42:0.5 43:0.5 44:0.9375 45:0.875 46:0.125 51:0.125 52:0.875 53:0.3125 59:0.375 60:0.75 # 0
-4.9265624839519369354706556705481e-10 2:0.1875 3:0.75 4:1 5:0.5 10:0.75 11:0.75 12:0.9375 13:0.75 20:0.4375 21:0.75 28:0.8125 29:0.4375 34:0.25 35:0.9375 36:1 37:0.5625 38:0.071428575 42:0.3125 43:0.9375 44:1 45:1 46:0.1875 51:0.875 52:0.875 53:0.3125 58:0.25 59:0.9375 60:0.1875 # 0
-1.8869576673207991959754200431051e-10 2:0.125 3:0.6875 4:1 5:1 6:1 7:0.75 10:0.4375 11:0.9375 12:0.5625 13:0.5 14:0.75 15:1 21:0.0625 22:0.875 23:0.83333331 29:0.6875 30:0.5625 36:0.375 37:0.8125 43:0.0625 44:0.875 45:0.1875 51:0.625 52:0.5625 58:0.0625 59:1 60:0.3125 # 0
-5.5180383676007668524486414707254e-10 1:0.125 2:0.875 3:0.8125 4:0.25 9:0.40000001 10:0.9375 11:0.6875 12:0.9375 17:0.5 18:0.875 19:0.5625 20:1 21:0.25 25:0.125 26:0.5 27:0.6875 28:0.9375 29:0.375 36:0.4375 37:0.8125 38:0.071428575 45:0.6875 46:0.625 50:0.625 51:0.25 53:0.1875 54:0.9375 58:0.625 59:0.875 60:1 61:1 62:0.9375 # 0
2.4109430971281044381628855297272e-12 2:0.5625 3:0.6875 4:0.75 5:0.75 6:0.0625 10:0.6875 11:0.75 12:0.8125 13:1 14:0.25 20:0.75 21:0.625 26:0.125 27:0.6875 28:0.875 29:0.125 34:0.5625 35:1 36:0.3125 42:0.375 43:0.9375 44:1 45:0.875 46:0.125 50:0.1875 51:0.375 52:0.875 53:1 54:0.0625 58:0.6875 59:1 60:0.8125 61:0.3125 # 0
-1.5858767058736516314597202599286e-10 2:0.0625 3:0.5 4:0.9375 5:0.5 10:0.875 11:0.6875 12:0.875 13:1 17:0.1875 18:0.75 20:0.375 21:0.5625 25:0.0625 26:0.9375 27:0.625 28:0.875 29:0.0625 34:0.0625 35:0.9375 36:1 37:0.3125 42:0.3125 43:0.75 44:0.1875 45:0.9375 46:0.1875 50:0.375 51:0.6875 52:0.0625 53:0.8125 54:0.25 59:0.5 60:1 61:0.8125 62:0.0625 # 0
8.5313725462621050885008809814528e-10 2:0.125 3:0.5 4:0.9375 5:0.6875 9:0.13333334 10:0.9375 11:0.875 12:0.75 13:1 14:0.25 17:0.125 18:0.4375 20:0.625 21:0.9375 27:0.1875 28:0.9375 29:0.1875 35:0.8125 36:0.5625 43:0.25 44:0.875 45:0.3125 49:0.125 50:0.625 51:0.5 52:0.4375 53:1 54:0.375 58:0.25 59:0.5625 60:0.8125 61:0.9375 62:0.4375 # 0
-1.4053743587448997916814289836629e-10 3:0.625 4:0.6875 10:0.125 11:1 12:0.4375 18:0.4375 19:0.75 26:0.625 27:0.625 34:0.625 35:1 36:1 37:0.5625 42:0.625 43:0.875 44:0.125 45:0.875 46:0.1875 50:0.375 51:0.875 52:0.0625 53:0.875 54:0.3125 59:0.4375 60:1 61:0.9375 62:0.0625 # 0
-2.0054302299438221964542323989605e-09 2:0.3125 3:0.6875 4:0.875 5:0.3125 9:0.46666667 10:0.8125 11:0.3125 12:0.25 13:0.875 14:0.125 18:0.25 19:0.5 20:0.125 21:0.875 22:0.125 26:0.0625 27:0.8125 28:0.875 29:0.1875 34:0.0625 35:0.875 36:0.5 42:0.5625 43:0.5625 44:0.625 45:0.125 50:0.8125 51:0.0625 52:0.5 53:0.5 58:0.375 59:0.8125 60:0.875 61:0.4375 # 0
-2.6814845464923756965455516483024e-10 2:0.125 3:1 4:0.9375 5:0.4375 10:0.1875 11:0.75 12:0.8125 13:0.8125 19:0.375 20:1 21:0.625 27:0.375 28:1 29:0.1875 34:0.1875 35:0.9375 36:0.625 37:0.75 41:0.0625 42:0.8125 43:0.3125 45:0.8125 46:0.375 50:1 51:0.3125 53:0.4375 54:0.9375 58:0.1875 59:0.6875 60:1 61:1 62:0.75 63:0.13333334 # 0
8.8705876536869250877134348570057e-10 2:0.5 3:0.8125 4:0.5 9:0.26666668 10:0.8125 11:0.375 12:0.875 13:0.1875 17:0.4375 18:0.5 20:0.75 21:0.3125 25:0.1875 26:0.625 27:0.5 28:1 29:0.0625 35:0.3125 36:0.875 37:0.75 45:0.8125 46:0.5 50:0.625 51:0.625 53:0.375 54:0.75 58:0.25 59:0.9375 60:1 61:1 62:0.375 # 0
-1.864689304234882133702432620531e-10 2:0.75 3:0.3125 10:1 11:0.125 17:0.1875 18:0.75 25:0.25 26:0.75 33:0.5 34:0.875 35:1 36:0.875 37:0.1875 41:0.1875 42:1 43:0.5 44:0.5625 45:1 46:0.25 49:0.125 50:1 51:0.1875 52:0.25 53:1 54:0.25 58:0.6875 59:0.75 60:0.6875 61:0.25 # 0
-7.579890989191075922376928719127e-10 2:0.25 3:1 4:0.8125 10:0.875 11:0.5625 12:0.9375 17:0.3125 18:0.875 19:0.125 20:1 21:0.375 25:0.5625 26:0.75 27:0.4375 28:0.9375 29:0.625 33:0.21428572 34:1 35:0.9375 36:0.5625 37:1 38:0.071428575 42:0.25 44:0.0625 45:0.875 46:0.3125 51:0.375 52:0.375 53:0.75 54:0.4375 58:0.125 59:1 60:1 61:0.8125 62:0.0625 # 0
-1.3169847223596572094515267815077e-10 2:0.625 3:0.9375 4:0.5625 5:0.0625 9:0.33333334 10:1 11:0.625 12:1 13:0.5625 17:0.4375 18:0.625 20:0.875 21:0.625 25:0.1875 26:0.9375 27:0.4375 28:0.75 29:0.9375 30:0.0625 34:0.25 35:0.6875 36:0.875 37:1 38:0.2857143 45:0.75 46:0.6875 50:0.6875 51:0.5625 52:0.3125 53:0.75 54:0.8125 58:0.625 59:0.75 60:0.75 61:0.9375 62:0.6875 # 0
-3.1119004796105875735957305126401e-12 1:0.125 2:0.75 3:1 4:1 5:0.5 9:0.26666668 10:0.625 11:0.5 12:0.5 13:0.25 17:0.5625 18:0.6875 19:0.375 20:0.4375 25:0.25 26:1 27:1 28:1 29:0.6875 36:0.0625 37:1 38:0.2857143 45:1 46:0.375 50:0.3125 51:0.5 52:0.6875 53:0.875 54:0.125 58:0.9375 59:0.8125 60:0.625 61:0.0625 # 0
2.0696472109630234829097135390965e-09 2:0.25 3:0.6875 4:1 5:0.75 6:0.3125 10:0.375 11:0.4375 12:0.1875 13:0.6875 14:0.5625 21:0.75 22:0.25 27:0.1875 28:0.625 29:0.625 34:0.25 35:1 36:0.9375 37:0.125 42:0.0625 43:0.4375 44:0.75 45:0.9375 46:0.0625 50:0.5 51:0.4375 52:0.3125 53:0.9375 58:0.4375 59:0.75 60:0.9375 61:0.375 # 0
9.3319166215061697582098018650216e-10 1:0.25 2:0.75 3:0.9375 4:1 5:0.625 6:0.0625 9:0.2 10:1 11:0.3125 12:0.625 13:1 14:0.1875 19:0.3125 20:0.9375 21:0.4375 27:0.875 28:0.5 35:0.9375 36:0.25 43:0.25 44:0.875 45:0.125 49:0.0625 50:0.125 51:0.125 52:0.9375 53:0.375 57:0.2 58:0.75 59:0.9375 60:0.75 61:0.0625 # 0
-2.7959914266430691947665539487454e-10 4:0.75 5:0.1875 11:0.125 12:0.9375 19:0.5625 20:0.5625 26:0.1875 27:0.9375 29:0.1875 30:0.625 33:0.071428575 34:0.875 35:0.1875 37:0.875 38:0.42857143 41:0.625 42:1 43:0.9375 44:0.8125 45:1 46:0.0625 49:0.5625 50:0.625 51:0.5 52:0.875 53:0.6875 60:0.75 61:0.125 # 0
-1.0714043907876022486650545705597e-09 2:0.4375 3:0.9375 4:0.9375 5:0.5 6:0.1875 9:0.2 10:0.875 11:0.1875 13:0.8125 14:0.5 17:0.375 18:0.625 19:0.0625 20:0.375 21:0.875 22:0.5 26:0.5 27:0.75 28:0.375 29:0.5 30:0.5 37:0.5 38:0.42857143 45:0.75 46:0.1875 52:0.4375 53:0.8125 58:0.4375 59:0.9375 60:0.875 61:0.125 # 0
-4.051772739965713946537766666973e-11 2:0.3125 3:0.6875 4:0.9375 5:0.5 9:0.26666668 10:0.875 11:0.5 12:0.625 13:1 17:0.5 18:0.8125 19:0.0625 20:0.9375 21:0.75 25:0.25 26:1 27:0.9375 28:1 29:0.8125 34:0.25 35:0.75 36:0.8125 37:1 38:0.2857143 42:0.25 43:0.0625 45:0.875 46:0.5 50:0.8125 51:0.8125 52:0.375 53:0.875 54:0.4375 58:0.125 59:0.875 60:0.875 61:0.5625 62:0.125 # 0
-1.4224574168131464333044050956626e-09 2:0.125 3:0.9375 4:0.75 10:0.1875 11:1 12:0.875 13:0.625 19:0.3125 20:0.8125 21:1 22:0.125 29:0.75 30:0.5 37:0.4375 38:0.78571427 45:0.4375 46:0.8125 50:0.125 52:0.125 53:0.6875 54:0.6875 58:0.1875 59:0.8125 60:0.9375 61:1 62:0.375 # 0
1.3477130150723688235707188694045e-10 2:0.3125 3:0.9375 4:0.8125 5:0.125 10:0.625 11:0.8125 12:0.75 13:0.6875 18:0.1875 19:0.125 20:0.25 21:0.9375 27:0.5625 28:1 29:0.625 35:0.1875 36:0.8125 37:1 38:0.42857143 45:0.4375 46:0.875 50:0.3125 51:0.5 52:0.5 53:0.625 54:1 55:0.1 58:0.25 59:0.5625 60:0.875 61:0.8125 62:0.4375 # 0
5.3384192836578914702208166595705e-09 2:0.5 3:0.875 4:0.8125 5:0.1875 9:0.40000001 10:0.8125 11:0.1875 12:0.375 13:0.6875 17:0.0625 18:0.125 20:0.25 21:0.8125 27:0.6875 28:1 29:0.6875 35:0.1875 36:0.25 37:0.6875 38:0.5 45:0.3125 46:0.5625 49:0.125 50:0.8125 51:0.0625 53:0.4375 54:0.625 58:0.5625 59:1 60:0.8125 61:0.75 62:0.0625 # 0
-4.9156322518146212707432612175709e-10 2:0.5625 3:1 4:1 5:0.875 9:0.2 10:0.9375 11:0.625 12:0.125 13:0.3125 17:0.6875 18:0.5625 25:0.5 26:0.875 27:0.0625 33:0.071428575 34:0.9375 35:0.3125 42:0.6875 43:0.5625 50:0.5625 51:0.75 58:0.875 59:0.5625 # 0
-1.4018990080629402081227849811952e-10 3:0.25 4:0.5 11:0.6875 12:0.5 19:0.8125 20:0.375 26:0.125 27:0.9375 28:0.125 29:0.1875 34:0.6875 35:0.625 36:0.25 37:1 38:0.14285715 41:0.6875 42:0.875 44:0.5625 45:1 46:0.125 49:0.5625 50:0.9375 51:0.75 52:0.9375 53:1 58:0.125 59:0.375 60:0.9375 61:0.375 # 0
-1.6085300609633338024853873820369e-09 2:0.25 3:0.875 4:1 5:0.4375 9:0.06666667 10:1 11:0.875 12:0.5 13:0.3125 17:0.5 18:0.625 25:0.1875 26:0.8125 34:0.75 35:0.375 42:0.25 43:0.8125 51:1 52:0.3125 58:0.4375 59:1 60:0.25 # 0
-9.3670424230149819544920832744417e-11 1:0.125 2:0.4375 3:0.9375 4:0.625 9:0.40000001 10:0.875 11:0.4375 12:1 13:0.125 17:0.375 18:0.875 19:0.75 20:1 21:0.8125 25:0.0625 26:0.75 27:1 28:0.6875 35:0.8125 36:1 37:0.1875 42:0.25 43:0.75 44:0.1875 45:0.875 46:0.125 50:0.5 51:0.5625 53:0.6875 54:0.5 58:0.375 59:1 60:1 61:0.6875 62:0.125 # 0
-5.5993217082933190043129534517658e-10 2:0.375 3:0.75 4:0.875 5:0.375 9:0.80000001 10:0.875 11:0.375 12:0.25 13:0.9375 17:0.6875 18:0.0625 20:0.3125 21:0.75 25:0.375 26:0.6875 27:0.3125 28:0.9375 29:0.1875 34:0.4375 35:0.9375 36:0.75 37:0.125 42:0.3125 43:0.8125 44:0.5 45:0.8125 46:0.0625 50:0.6875 51:0.3125 52:0.375 53:0.875 54:0.4375 58:0.3125 59:1 60:0.75 61:0.4375 62:0.0625 # 0
-1.6328076405892890799949627108714e-11 1:0.375 2:0.9375 3:1 4:0.1875 9:0.73333335 10:1 11:0.9375 12:0.75 17:0.0625 18:0.0625 19:0.375 20:1 27:0.3125 28:1 35:0.875 36:0.75 42:0.5625 43:1 44:0.5625 45:0.5 46:0.3125 49:0.1875 50:1 51:1 52:1 53:1 54:0.6875 57:0.5 58:1 59:1 60:0.8125 61:0.5 62:0.0625 # 0
-1.4292377725762133876388727373362e-11 1:0.125 2:1 3:1 4:0.9375 5:0.1875 10:0.4375 11:0.375 12:1 13:0.625 19:0.0625 20:1 21:0.5 26:0.375 27:0.9375 28:0.9375 29:0.125 34:0.4375 35:1 36:1 37:0.6875 38:0.21428572 42:0.3125 43:1 44:0.875 45:1 46:0.4375 50:0.625 51:0.75 52:0.0625 53:0.25 54:0.0625 58:1 59:0.375 # 0
9.9828271490962243963097787126815e-10 2:0.25 3:0.8125 4:1 5:1 6:0.5625 9:0.13333334 10:0.75 11:0.375 12:0.0625 13:0.75 14:0.75 17:0.0625 18:0.1875 19:0.125 20:0.9375 21:0.625 27:0.6875 28:0.5625 35:0.25 36:0.875 37:0.125 44:0.8125 45:0.625 52:0.625 53:0.6875 57:0.60000002 58:0.5625 59:0.8125 60:0.75 61:0.0625 # 0
-8.2774526901504821234886644486651e-10 1:0.125 2:0.5 3:0.75 4:0.75 5:0.375 9:0.60000002 10:1 11:0.6875 12:0.5 13:0.625 14:0.0625 17:0.375 18:0.875 25:0.0625 26:0.75 27:0.9375 28:0.5 35:0.4375 36:0.9375 37:0.3125 44:0.25 45:0.875 52:0.6875 53:0.6875 58:0.75 59:1 60:0.75 61:0.25 # 0
-4.3724058352510910431628011796378e-10 2:0.375 3:0.75 4:0.875 5:0.875 6:0.125 9:0.80000001 10:1 11:0.6875 12:0.25 13:0.3125 14:0.125 17:0.25 18:0.875 19:0.3125 26:0.5625 27:0.8125 28:0.0625 34:0.125 35:0.8125 36:0.9375 37:0.375 43:0.125 44:0.6875 45:0.9375 46:0.375 50:0.5 51:0.375 52:0.375 53:0.9375 54:0.5 58:0.375 59:1 60:1 61:0.5625 # 0
-9.4628125205484353524226005945178e-11 4:0.1875 5:0.875 6:0.0625 11:0.0625 12:0.875 13:0.9375 19:0.5625 20:1 21:0.625 26:0.5625 27:1 28:1 29:0.5 33:0.2857143 34:1 35:0.4375 36:1 37:0.5 41:0.0625 42:0.25 44:0.9375 45:0.625 52:0.6875 53:0.75 60:0.1875 61:0.9375 62:0.1875 # 0
-2.4021041496675905297474072378427e-10 1:0.375 2:0.75 3:0.9375 4:0.5625 5:0.0625 9:0.2 10:1 11:0.5 12:0.8125 13:0.625 18:0.6875 19:0.75 20:0.75 21:0.75 26:0.1875 27:0.9375 28:1 29:0.75 36:0.375 37:0.875 38:0.071428575 45:0.9375 46:0.375 49:0.4375 50:0.875 51:0.4375 52:0.25 53:0.9375 54:0.4375 57:0.30000001 58:0.5625 59:0.75 60:0.9375 61:0.5625 # 0
-9.789923376472961220362292453852e-10 2:0.3125 3:1 4:0.8125 5:0.0625 10:0.75 11:0.875 12:0.9375 13:0.3125 18:0.75 19:0.625 20:1 21:0.4375 26:0.1875 27:0.9375 28:1 29:0.75 36:0.125 37:0.9375 38:0.14285715 45:0.5 46:0.5625 49:0.125 50:0.75 51:0.5 52:0.5 53:0.8125 54:0.75 57:0.1 58:0.375 59:0.625 60:0.75 61:0.75 62:0.125 # 0
-1.9331204571677225414633791049162e-10 4:0.0625 5:0.875 6:0.25 12:0.125 13:1 14:0.5 20:0.5 21:1 22:0.375 28:0.9375 29:1 30:0.3125 35:0.5 36:1 37:1 38:0.21428572 42:0.375 43:1 44:0.5625 45:1 49:0.125 50:1 51:0.5 52:0.25 53:1 57:0.2 58:0.25 60:0.125 61:0.9375 62:0.1875 # 0
-1.6303046117330558865091449936879e-10 2:0.0625 3:0.9375 4:0.25 9:0.26666668 10:0.4375 11:0.5625 12:1 13:0.25 17:0.5 18:0.4375 20:0.25 21:0.9375 25:0.375 26:0.375 29:0.6875 30:0.375 33:0.35714287 34:0.5625 37:0.1875 38:0.64285713 42:0.9375 45:0.3125 46:0.5625 50:0.6875 51:0.6875 52:0.3125 53:0.9375 54:0.3125 58:0.1875 59:0.8125 60:1 61:0.6875 # 0
-4.6975221991377833312533490381369e-10 2:0.375 3:0.9375 4:1 5:0.75 6:0.0625 9:0.2 10:1 11:0.5625 12:0.5 13:0.9375 14:0.4375 17:0.1875 18:0.1875 21:0.9375 22:0.375 28:0.375 29:0.9375 30:0.125 35:0.0625 36:0.9375 37:0.375 42:0.0625 43:0.75 44:0.625 50:0.5 51:1 52:0.8125 53:0.8125 54:0.375 58:0.375 59:0.875 60:0.75 61:0.25 # 0
-5.9182998389510409276169387372043e-10 2:0.6875 3:1 4:0.5625 9:0.60000002 10:0.75 11:0.375 12:0.875 13:0.625 17:0.6875 18:0.3125 20:0.8125 21:0.8125 25:0.0625 26:0.6875 27:0.875 28:0.75 29:0.9375 30:0.375 37:0.75 38:0.5714286 45:0.625 46:0.625 50:0.0625 52:0.25 53:0.8125 54:0.375 58:0.5625 59:0.875 60:1 61:0.625 # 0
-6.6803317086824917378400217211334e-10 2:0.625 3:0.8125 4:0.5625 9:0.33333334 10:0.6875 11:0.0625 12:0.6875 13:0.3125 17:0.375 18:0.4375 20:0.375 21:0.875 25:0.125 26:0.875 27:0.5 28:0.5625 29:1 30:0.0625 34:0.125 35:0.5 36:0.3125 37:0.8125 38:0.2857143 45:0.4375 46:0.5625 50:0.1875 51:0.125 53:0.3125 54:0.6875 58:0.5 59:0.9375 60:0.8125 61:0.875 62:0.1875 # 0
-6.7154319940899302405229351716669e-10 3:0.125 4:0.75 5:0.8125 6:0.5 7:0.0625 10:0.1875 11:0.75 12:0.3125 13:0.875 14:1 15:0.15384616 18:0.6875 19:0.0625 21:0.75 22:0.875 25:0.125 26:0.6875 27:0.1875 28:0.4375 29:0.875 30:0.1875 33:0.21428572 34:0.9375 35:0.6875 36:0.3125 37:0.625 44:0.5625 45:0.375 51:0.0625 52:0.875 53:0.125 60:0.875 61:0.0625 # 0
5.8694220992933350851936320937254e-10 1:0.25 2:0.8125 3:1 4:0.875 5:0.1875 9:0.13333334 10:0.5 11:0.6875 12:1 13:0.5 18:0.1875 19:1 20:0.75 21:0.0625 26:0.0625 27:0.6875 28:0.875 29:0.125 36:0.4375 37:0.8125 45:0.6875 46:0.4375 49:0.4375 50:0.6875 51:0.25 52:0.25 53:0.8125 54:0.4375 57:0.2 58:0.6875 59:1 60:0.75 61:0.625 # 0
2.7663029377404218615578548922176e-09 3:0.4375 4:0.75 5:0.4375 10:0.8125 11:0.8125 12:0.8125 13:0.75 17:0.1875 18:0.75 20:0.5625 21:0.5625 27:0.4375 28:1 29:0.5625 35:0.125 36:0.5 37:1 44:0.0625 45:0.9375 46:0.1875 51:0.75 52:0.5625 53:0.9375 58:0.0625 59:0.75 60:0.9375 61:0.3125 # 0
1.4344353541327085199096505154425e-09 2:0.5625 3:1 4:0.5 9:0.60000002 10:0.8125 11:0.25 12:0.8125 17:0.4375 18:0.375 19:0.0625 20:0.875 27:0.5625 28:1 29:0.5625 35:0.5 36:0.375 37:0.8125 38:0.42857143 45:0.25 46:0.6875 50:0.375 52:0.1875 53:0.75 54:0.3125 58:0.5625 59:1 60:1 61:0.4375 # 0
-6.5958696440874351813186156204879e-10 3:0.0625 4:0.4375 5:0.9375 6:0.3125 10:0.3125 11:0.8125 12:1 13:1 14:0.5 17:0.25 18:0.9375 19:0.6875 20:0.3125 21:1 22:0.4375 25:0.0625 26:0.25 28:0.1875 29:1 30:0.25 36:0.25 37:1 44:0.5 45:1 52:0.75 53:1 60:0.75 61:0.75 # 0
-1.8409024963053275793932872376243e-10 1:0.125 2:0.875 3:1 4:0.5 9:0.46666667 10:0.75 11:0.5625 12:1 17:0.25 18:0.125 20:1 26:0.0625 27:0.625 28:0.5625 34:0.4375 35:0.8125 36:0.0625 42:1 43:0.0625 49:0.1875 50:0.8125 51:0.25 52:0.4375 53:0.5 54:0.3125 57:0.1 58:0.8125 59:1 60:0.9375 61:0.75 62:0.625 # 0
-1.2100258084003062689239713485773e-09 2:0.4375 3:0.9375 4:0.8125 5:0.0625 10:0.9375 11:0.5625 12:0.8125 13:0.625 18:1 19:0.3125 20:0.75 21:0.75 26:0.25 27:0.9375 28:1 29:0.75 35:0.125 36:0.4375 37:0.9375 38:0.071428575 45:0.9375 46:0.25 49:0.25 50:0.75 51:0.4375 52:0.3125 53:0.875 54:0.25 58:0.4375 59:0.8125 60:0.8125 61:0.5625 62:0.0625 # 0
-1.119575980230102885452820200016e-09 2:0.125 3:0.875 4:0.9375 5:0.5 10:0.5 11:0.625 12:0.1875 13:0.9375 14:0.0625 18:0.3125 19:0.6875 20:0.0625 21:0.9375 22:0.25 27:0.75 28:0.9375 29:1 30:0.3125 36:0.125 37:0.5 38:0.42857143 41:0.0625 42:0.1875 45:0.4375 46:0.3125 49:0.0625 50:0.75 51:0.25 53:0.625 54:0.4375 58:0.25 59:0.875 60:0.875 61:0.8125 62:0.0625 # 0
-5.2921350717298173101794700432811e-10 2:0.3125 3:0.8125 4:0.5 5:0.1875 6:0.3125 9:0.13333334 10:1 11:0.6875 12:0.1875 13:0.125 14:0.1875 17:0.4375 18:0.8125 19:0.25 20:0.25 25:0.3125 26:1 27:0.75 28:0.875 29:0.6875 36:0.125 37:0.875 38:0.14285715 45:0.8125 46:0.1875 50:0.625 51:0.25 52:0.375 53:0.8125 58:0.375 59:0.875 60:0.8125 61:0.1875 # 0
-7.5316207671604734282544610493365e-11 1:0.125 2:0.6875 3:0.75 4:0.75 5:0.75 6:0.25 10:0.9375 11:0.5 12:0.5 13:0.6875 14:0.4375 18:0.75 26:0.8125 27:0.0625 33:0.21428572 34:1 35:0.9375 36:0.6875 37:0.3125 42:0.25 43:0.25 44:0.625 45:0.9375 46:0.125 50:0.75 51:0.3125 52:0.3125 53:0.875 54:0.1875 58:0.6875 59:0.8125 60:0.75 61:0.5 # 0
1.4236720846161623350854639815668e-09 1:0.125 2:0.5625 3:0.8125 4:0.4375 9:0.46666667 10:0.75 11:0.375 12:0.9375 13:0.375 18:0.0625 19:0.25 20:0.8125 21:0.625 26:0.25 27:1 28:1 29:0.8125 36:0.125 37:0.8125 38:0.42857143 45:0.625 46:0.5 50:0.5625 51:0.4375 52:0.5625 53:0.9375 54:0.0625 58:0.8125 59:0.9375 60:0.5625 61:0.0625 # 0
-2.6726631490684645799763832935429e-10 2:0.0625 3:0.75 4:1 5:1 6:0.75 11:0.4375 12:0.25 13:0.6875 14:0.8125 21:0.5 22:0.6875 27:0.0625 28:0.25 29:0.75 30:0.5 35:0.75 36:1 37:1 38:0.5714286 43:0.1875 44:0.75 45:0.375 51:0.375 52:0.875 59:0.9375 60:0.3125 # 0
-3.8467205697769405989274581704929e-10 1:0.125 2:0.625 3:0.75 4:0.875 5:0.5625 9:0.73333335 10:0.6875 11:0.3125 12:0.3125 13:1 14:0.25 17:0.25 18:0.1875 20:0.125 21:1 22:0.125 28:0.75 29:0.5625 34:0.0625 35:0.8125 36:0.625 42:0.5625 43:0.8125 49:0.125 50:1 51:0.25 57:0.1 58:0.8125 59:0.9375 60:0.75 61:0.125 # 0
-9.1223590561867816158557101648488e-10 2:0.375 3:0.5625 4:0.9375 5:0.875 6:0.125 9:0.53333336 10:0.8125 11:0.75 12:0.375 13:0.25 14:0.0625 17:0.625 18:0.8125 19:0.5 20:0.1875 25:0.125 26:0.6875 27:0.9375 28:1 29:0.3125 36:0.4375 37:0.75 44:0.0625 45:0.8125 51:0.0625 52:0.5625 53:0.75 58:0.5 59:0.75 60:0.625 61:0.0625 # 0
-5.4673648741376950562019659106839e-11 3:0.125 4:0.875 10:0.0625 11:0.8125 12:0.875 13:0.0625 18:0.3125 19:1 20:0.25 26:0.6875 27:0.5 34:0.75 35:0.5 36:0.0625 42:0.5 43:1 44:1 45:0.875 46:0.3125 50:0.25 51:1 52:0.25 53:0.5 54:1 55:0.30000001 59:0.25 60:0.6875 61:0.9375 62:0.875 63:0.40000001 # 0
-1.8891292442843636766369695667003e-10 2:0.3125 3:1 4:1 5:0.3125 9:0.33333334 10:1 11:0.6875 12:0.4375 13:0.0625 17:0.6875 18:1 19:0.875 20:0.3125 25:0.25 26:0.5 27:0.6875 28:1 29:0.8125 30:0.0625 36:0.25 37:1 38:0.5 42:0.125 45:0.5625 46:0.6875 50:0.5 51:0.6875 52:0.5 53:0.9375 54:0.4375 58:0.1875 59:0.75 60:1 61:0.5625 # 0
5.1513290121950240195793117918511e-10 1:0.125 2:0.4375 3:0.6875 4:0.9375 5:0.6875 6:0.0625 9:0.26666668 10:0.5625 11:0.25 13:0.8125 14:0.3125 20:0.5625 21:0.9375 22:0.0625 26:0.25 27:0.9375 28:0.6875 29:0.1875 34:0.1875 35:1 36:0.5 37:0.125 43:0.125 44:0.4375 45:1 46:0.375 51:0.375 52:0.5625 53:1 54:0.3125 58:0.8125 59:0.75 60:0.4375 61:0.1875 # 0
-5.3805067759541051383520336113273e-10 2:0.625 3:0.9375 4:1 5:0.375 9:0.06666667 10:0.8125 11:0.3125 12:0.4375 13:0.9375 14:0.125 20:0.4375 21:0.75 22:0.125 27:0.375 28:0.9375 29:0.1875 34:0.4375 35:0.75 36:0.0625 41:0.3125 42:0.875 43:0.125 49:0.5625 50:0.875 51:0.625 52:0.6875 53:0.4375 54:0.0625 57:0.1 58:0.4375 59:0.5 60:0.5 61:0.6875 62:0.25 # 0
-6.2790756059326711198380984821246e-10 2:0.4375 3:0.8125 4:1 5:0.3125 9:0.40000001 10:0.5 11:0.5 12:0.875 13:0.5625 20:0.9375 21:0.3125 27:0.75 28:0.6875 34:0.375 35:0.9375 36:0.0625 42:0.75 43:0.25 50:0.6875 51:0.625 52:0.5 53:0.5 54:0.25 58:0.375 59:0.9375 60:1 61:0.75 62:0.25 # 0
-3.782904780364492721494703930614e-10 2:0.375 3:0.75 4:0.5 9:0.46666667 10:1 11:0.5 12:0.9375 13:0.0625 17:0.5625 18:0.25 20:0.8125 21:0.25 27:0.0625 28:1 29:0.0625 35:0.375 36:0.625 43:0.75 44:0.5 50:0.375 51:0.9375 52:0.375 53:0.25 54:0.375 58:0.4375 59:1 60:0.9375 61:0.75 62:0.75 # 0
-1.326161805994295265899085254377e-09 2:0.125 3:0.6875 4:0.6875 5:0.125 10:0.6875 11:1 12:1 13:0.3125 18:0.625 19:1 20:1 21:0.3125 26:0.125 27:0.6875 28:0.875 29:0.5625 36:0.5 37:0.75 44:0.5 45:1 51:0.5 52:0.9375 53:0.625 58:0.0625 59:0.875 60:0.875 61:0.1875 # 0
4.4971377921559297595473444307122e-10 1:0.125 2:0.5625 3:0.9375 4:0.5625 9:0.26666668 10:0.8125 11:0.4375 12:0.9375 13:0.25 19:0.125 20:0.9375 21:0.1875 26:0.75 27:1 28:1 29:0.6875 30:0.0625 34:0.3125 35:0.3125 36:0.3125 37:0.8125 38:0.5714286 44:0.0625 45:0.75 46:0.375 50:0.5625 51:0.5 52:0.875 53:0.75 54:0.0625 58:0.9375 59:0.75 60:0.375 # 0
-4.5178550142117147356358138368096e-10 2:0.4375 3:0.8125 6:0.1875 7:0.5 10:0.9375 11:0.4375 13:0.1875 14:0.9375 15:0.53846157 18:1 19:0.75 20:0.375 21:0.875 22:0.5625 26:0.375 27:0.75 28:1 29:0.75 35:0.125 36:0.875 37:0.125 43:0.5625 44:0.5625 50:0.125 51:0.8125 52:0.0625 58:0.5 59:0.3125 # 0
-2.3465822815043450932689930486872e-10 1:0.125 2:0.375 3:0.6875 4:1 5:0.375 10:0.3125 11:0.8125 12:0.6875 13:1 14:0.375 18:0.25 19:1 20:0.5 26:0.3125 27:0.9375 33:0.071428575 34:0.8125 35:0.625 36:0.25 41:0.375 42:0.625 43:0.25 44:0.5 49:0.5 50:0.4375 51:0.75 52:0.4375 57:0.2 58:0.8125 59:0.875 # 0
-2.4390133394154698495174710464134e-10 2:0.1875 3:0.6875 4:1 5:1 6:0.875 7:0.0625 10:0.75 11:0.625 12:0.25 13:0.4375 14:0.9375 18:0.4375 19:0.875 20:0.9375 21:1 22:0.25 28:0.4375 29:0.75 35:0.0625 36:0.875 37:0.25 43:0.3125 44:0.8125 51:0.75 52:0.4375 58:0.125 59:0.875 # 0
2.2152464035604131068763606154243e-09 2:0.25 3:0.6875 4:0.875 5:0.375 9:0.26666668 10:0.875 11:0.4375 12:0.375 13:0.9375 17:0.25 18:0.3125 20:0.3125 21:0.6875 27:0.4375 28:0.9375 29:0.6875 35:0.6875 36:0.625 37:0.9375 38:0.2857143 45:0.625 46:0.5 50:0.0625 51:0.25 52:0.4375 53:0.9375 54:0.0625 58:0.1875 59:1 60:0.6875 61:0.125 # 0
-9.2658445089113893236587745743911e-11 1:0.125 2:0.9375 3:1 4:0.875 5:0.125 9:0.06666667 10:0.6875 11:0.75 12:1 13:0.5 19:0.3125 20:1 21:0.25 26:0.125 27:0.9375 28:1 29:0.1875 34:0.25 35:1 36:1 37:0.875 38:0.2857143 42:0.3125 43:1 44:0.75 45:1 46:0.4375 50:0.6875 51:0.6875 58:1 59:0.375 # 0
-1.3982636959743909551837048641063e-10 2:0.1875 3:0.625 4:0.8125 5:0.25 10:0.5625 11:0.8125 12:0.875 13:0.625 18:0.5625 19:0.6875 20:1 21:0.9375 26:0.0625 27:0.6875 28:0.75 29:1 37:0.9375 38:0.21428572 44:0.0625 45:1 46:0.1875 52:0.375 53:1 54:0.0625 58:0.25 59:1 60:1 61:0.625 # 0
-8.8096560096265873715762761065782e-11 2:0.25 3:0.8125 4:0.9375 5:0.25 10:0.6875 11:0.8125 12:0.5 13:0.8125 18:0.3125 19:0.125 20:0.25 21:0.8125 28:0.75 29:0.4375 35:0.375 36:0.9375 37:0.125 43:0.9375 44:0.3125 50:0.5625 51:0.875 52:0.375 53:0.6875 54:0.3125 58:0.5625 59:1 60:0.75 61:0.75 62:0.625 # 0
-6.5989973174108012928554467849232e-11 3:0.1875 4:0.875 5:0.3125 11:0.375 12:1 13:0.8125 14:0.0625 19:0.5 20:1 21:0.8125 22:0.0625 27:0.5625 28:1 29:0.6875 33:0.35714287 34:0.875 35:1 36:1 37:0.75 42:0.125 43:0.5625 44:1 45:1 46:0.25 51:0.3125 52:1 53:1 54:0.5 59:0.1875 60:0.8125 61:0.875 62:0.3125 # 0
-7.2369563049702107746873279421038e-11 3:0.5625 4:0.5625 10:0.4375 11:0.9375 12:0.1875 18:0.6875 19:0.5 26:0.875 27:0.25 28:0.125 29:0.1875 34:0.75 35:0.75 36:1 37:0.75 38:0.71428573 42:0.5625 43:0.875 44:0.5 46:0.5 47:1 50:0.25 51:0.5625 52:0.0625 53:0.125 54:0.875 55:0.5 59:0.375 60:0.6875 61:0.875 62:0.5 # 0
-2.314281184869220987583026859295e-10 2:0.4375 3:0.75 4:0.6875 5:0.5625 9:0.46666667 10:1 11:0.9375 12:0.6875 13:0.8125 18:0.75 19:0.4375 26:0.75 27:0.625 28:0.375 34:0.5 35:0.75 36:0.8125 37:0.875 45:0.5 46:0.5 50:0.625 51:0.375 52:0.25 53:0.75 54:0.5625 58:0.625 59:0.8125 60:0.75 61:0.625 62:0.125 # 0
-1.0567352837658804395640756848616e-09 1:0.125 2:0.5625 3:0.9375 4:0.75 5:0.125 9:0.53333336 10:0.625 12:0.4375 13:0.875 17:0.5 18:0.25 21:1 22:0.25 25:0.125 26:0.75 27:0.5625 28:0.5625 29:1 30:0.4375 34:0.0625 35:0.3125 36:0.3125 37:0.5625 38:0.5714286 45:0.25 46:0.6875 50:0.375 51:0.0625 53:0.625 54:0.5 58:0.5625 59:0.8125 60:0.875 61:0.6875 62:0.125 # 0
-2.5834740586154181115048140150974e-10 3:0.125 4:0.5625 5:0.9375 6:0.5625 10:0.5 11:0.875 12:0.4375 13:0.5625 14:0.75 17:0.1875 18:1 19:0.3125 20:0.25 21:0.8125 22:0.375 25:0.125 26:0.625 27:0.75 28:0.9375 29:0.875 36:0.0625 37:0.8125 38:0.21428572 44:0.125 45:1 52:0.4375 53:0.75 60:0.75 61:0.375 # 0
-1.854057495315274734649846132906e-10 2:0.5 3:0.9375 4:0.9375 5:0.75 6:0.25 10:0.9375 11:0.25 12:0.1875 13:0.625 14:1 18:0.5 19:0.875 20:0.75 21:1 22:0.75 27:0.125 28:0.25 29:0.5625 30:0.5 37:0.5625 38:0.5 41:0.0625 42:0.0625 45:0.75 46:0.25 49:0.4375 50:0.6875 51:0.0625 52:0.25 53:0.75 54:0.0625 58:0.625 59:1 60:0.8125 61:0.1875 # 0
-8.8495494424051893416406540280813e-11 2:0.5625 3:0.8125 4:0.9375 5:0.625 9:0.13333334 10:0.9375 11:0.3125 12:0.375 13:1 14:0.375 18:0.1875 20:0.125 21:1 22:0.375 28:0.6875 29:0.8125 35:0.5 36:0.875 37:0.0625 42:0.3125 43:0.9375 44:0.1875 50:0.75 51:0.375 58:0.5 59:1 60:1 61:0.75 # 0
-5.1067884952237669528849906217254e-10 2:0.1875 3:0.875 4:1 5:0.375 9:0.06666667 10:0.8125 11:0.3125 12:0.25 13:0.8125 17:0.3125 18:0.75 21:0.5625 22:0.25 25:0.3125 26:0.5625 29:0.3125 30:0.5 33:0.5714286 34:0.4375 37:0.1875 38:0.5714286 41:0.375 42:0.5625 45:0.125 46:0.5625 50:0.9375 51:0.1875 52:0.0625 53:0.5625 54:0.5 58:0.3125 59:0.9375 60:0.875 61:0.5625 # 0
-4.3234551681133021141501236366347e-10 2:0.0625 3:0.4375 4:0.75 5:0.4375 10:0.375 11:1 12:0.625 13:0.3125 18:0.875 19:1 20:0.875 21:0.25 26:0.1875 27:0.25 28:0.375 29:0.8125 37:0.6875 38:0.42857143 45:0.4375 46:0.5625 50:0.625 51:0.3125 52:0.125 53:0.5 54:0.6875 58:0.25 59:0.875 60:1 61:1 62:0.25 # 0
-2.3532655714220599535168018586482e-10 2:0.25 3:0.75 4:0.4375 10:0.8125 11:0.6875 12:0.75 13:0.25 18:0.5 20:0.1875 21:0.625 28:0.125 29:0.8125 36:0.5625 37:0.5 43:0.1875 44:1 45:0.0625 50:0.5 51:1 52:0.9375 53:0.875 54:0.875 55:0.1 58:0.375 59:0.75 60:0.75 61:0.625 62:0.625 63:0.13333334 # 0
-5.8523046019516337688320241708102e-10 2:0.375 3:0.75 4:0.8125 5:0.75 6:0.375 10:0.375 11:0.5 12:0.125 13:0.3125 14:0.4375 18:0.75 19:0.125 25:0.4375 26:0.9375 27:0.75 28:0.4375 29:0.125 33:0.14285715 34:0.5 35:0.5 36:0.5625 37:0.9375 38:0.2857143 45:0.4375 46:0.4375 50:0.25 51:0.3125 52:0.25 53:0.8125 54:0.125 58:0.25 59:0.9375 60:1 61:0.375 # 0
-4.0303207564016742450693477629029e-10 2:0.5 3:1 4:0.9375 5:0.6875 10:0.3125 11:0.4375 12:0.6875 13:1 14:0.1875 20:0.5625 21:0.8125 26:0.4375 27:0.9375 28:0.9375 29:0.3125 34:0.5 35:0.875 36:1 37:0.875 38:0.2857143 43:0.625 44:0.5625 45:0.25 46:0.0625 50:0.25 51:0.875 52:0.0625 58:0.625 59:0.4375 # 0
-2.789158766639398036659791983217e-10 2:0.5625 3:0.8125 4:0.625 5:0.0625 9:0.46666667 10:0.875 11:0.25 12:0.9375 13:0.5 17:0.625 18:0.5 20:0.625 21:0.875 25:0.25 26:0.875 27:0.75 28:0.875 29:0.9375 30:0.25 34:0.125 35:0.25 36:0.125 37:0.75 38:0.42857143 44:0.0625 45:0.9375 46:0.3125 51:0.25 52:0.625 53:0.9375 54:0.0625 58:0.5625 59:0.75 60:0.5625 61:0.125 # 0
-9.8221739330293451336418672214807e-11 2:0.0625 3:0.5625 4:0.875 5:0.3125 10:0.5 11:0.9375 12:0.5625 13:0.875 14:0.0625 18:0.1875 19:0.875 21:1 22:0.25 27:0.5 28:0.875 29:1 30:0.25 36:0.1875 37:0.8125 38:0.35714287 42:0.1875 45:0.5 46:0.4375 49:0.1875 50:0.9375 51:0.375 52:0.125 53:0.875 54:0.375 58:0.0625 59:0.625 60:0.875 61:0.875 62:0.0625 # 0
-2.3081705311227680061442191556038e-10 2:0.125 3:0.4375 4:0.875 5:0.875 6:0.125 9:0.13333334 10:0.9375 11:0.5625 12:0.3125 13:0.9375 14:0.1875 17:0.125 18:1 19:0.5 20:0.5 21:0.9375 26:0.25 27:0.4375 28:0.6875 29:0.9375 30:0.125 37:1 38:0.42857143 44:0.625 45:0.8125 46:0.0625 51:0.375 52:0.875 53:0.125 59:0.625 60:0.25 # 0
-6.4385798316216311650388924362316e-11 2:0.5625 3:1 4:0.375 10:0.9375 11:0.625 12:0.9375 13:0.125 18:0.3125 19:0.125 20:1 21:0.125 26:0.125 27:0.4375 28:1 29:0.1875 33:0.5 34:1 35:1 36:1 37:1 38:0.5714286 41:0.0625 42:0.3125 43:0.875 44:0.375 46:0.0625 50:0.5625 51:0.75 58:0.625 59:0.5 # 0
-2.9516274921116271406917239467538e-10 2:0.3125 3:0.6875 4:0.8125 5:0.625 6:0.1875 9:0.06666667 10:0.8125 11:0.6875 12:0.3125 13:0.375 14:0.1875 17:0.375 18:0.9375 25:0.4375 26:0.8125 27:0.25 28:0.0625 33:0.071428575 34:0.875 35:1 36:0.9375 37:0.25 44:0.5 45:0.8125 50:0.5 51:0.3125 52:0.3125 53:0.9375 58:0.25 59:0.75 60:1 61:0.5625 # 0
-1.5206398380223090150835922036265e-10 2:0.125 3:0.5 4:0.9375 5:0.4375 10:0.6875 11:0.9375 12:0.375 13:0.875 14:0.1875 18:1 19:0.375 21:0.25 22:0.5625 25:0.5 26:0.25 29:0.25 30:0.5 33:0.42857143 34:0.4375 37:0.3125 38:0.5714286 41:0.1875 42:0.8125 45:0.8125 46:0.0625 50:0.625 51:0.6875 52:0.5 53:0.6875 58:0.0625 59:0.8125 60:0.6875 61:0.125 # 0
-1.2584686815064717861668134252847e-10 2:0.3125 3:0.75 4:0.9375 5:0.875 6:0.625 7:0.1875 10:0.25 11:0.4375 12:0.25 13:0.3125 14:0.875 15:0.23076923 21:0.5625 22:0.6875 28:0.25 29:1 30:0.25 33:0.14285715 34:0.5 35:0.5625 36:1 37:0.625 41:0.1875 42:0.75 43:1 44:0.5625 50:0.3125 51:0.875 58:0.375 59:0.5625 # 0
-6.2445662704000977555645740050259e-11 1:0.125 2:0.5625 3:0.875 4:0.3125 9:0.46666667 10:0.5625 11:0.4375 12:0.6875 13:0.5 14:0.25 17:0.25 18:0.5625 19:0.3125 20:0.875 21:0.4375 22:0.125 26:0.6875 27:0.875 28:0.25 34:0.625 35:0.9375 36:0.3125 41:0.125 42:0.875 43:0.125 44:0.9375 45:0.0625 49:0.25 50:0.8125 51:0.125 52:0.9375 53:0.125 58:0.75 59:1 60:0.4375 # 0
-1.072319928843615667177559989922e-10 2:0.125 3:0.4375 4:0.75 5:0.5 10:0.6875 11:1 12:1 13:0.375 18:0.375 19:0.75 26:0.8125 27:0.5 28:0.25 34:0.875 35:1 36:1 37:0.875 38:0.071428575 42:0.1875 43:0.5 44:0.5625 45:1 46:0.125 51:0.5625 52:0.625 53:0.875 59:0.8125 60:0.8125 61:0.25 # 0
-7.4736667216633445818027040936015e-11 3:0.3125 4:0.5 10:0.25 11:1 12:0.125 14:0.875 18:0.5625 19:0.5 21:0.5 22:0.5 25:0.125 26:0.9375 28:0.0625 29:0.9375 33:0.71428573 34:0.5625 35:0.25 36:0.5625 37:0.9375 38:0.071428575 41:0.6875 42:1 43:1 44:1 45:0.6875 46:0.0625 49:0.1875 50:0.25 51:0.4375 52:0.5625 59:0.5 60:0.3125 # 0
5.6130234136772999513505124388234e-11 2:0.125 3:0.4375 4:0.875 5:0.75 6:0.0625 9:0.13333334 10:0.875 11:0.9375 12:0.625 13:1 14:0.4375 17:0.25 18:0.5625 20:0.3125 21:1 22:0.1875 27:0.125 28:1 29:0.8125 35:0.125 36:0.9375 37:0.6875 44:0.375 45:1 46:0.25 51:0.3125 52:1 53:0.8125 59:0.5625 60:0.6875 61:0.125 # 0
-8.4477119497857107774680653701797e-11 3:0.4375 4:0.875 5:0.4375 10:0.1875 11:0.8125 12:0.25 13:0.75 14:0.0625 18:0.8125 19:0.1875 21:0.75 22:0.25 25:0.0625 26:0.8125 28:0.375 29:1 30:0.375 34:0.9375 35:0.9375 36:0.5625 37:0.75 38:0.21428572 42:0.0625 43:0.0625 45:0.5625 46:0.125 50:0.125 51:0.5625 52:0.125 53:0.75 58:0.0625 59:0.5625 60:0.9375 61:0.4375 # 0
-8.403279470692393522784860530398e-11 2:0.3125 3:0.9375 4:1 5:1 6:0.5625 10:0.25 11:0.375 12:0.3125 13:0.5 14:1 15:0.15384616 21:0.5625 22:0.75 27:0.375 28:0.75 29:1 30:0.6875 35:0.75 36:1 37:0.5625 43:0.3125 44:0.8125 45:0.0625 50:0.1875 51:0.875 52:0.3125 58:0.375 59:0.5625 # 0
-3.2654204415005937268528245499054e-11 1:0.125 2:0.75 3:0.1875 9:0.66666669 10:1 11:0.9375 12:0.0625 17:0.5 18:0.1875 19:0.8125 20:0.3125 25:0.0625 27:0.5625 28:0.5625 35:0.8125 36:0.375 42:0.125 43:0.9375 44:0.125 50:0.8125 51:1 52:0.875 53:0.875 54:0.75 58:0.5 59:0.75 60:0.75 61:0.625 62:0.6875 # 0
-1.4018969565825119750814014310493e-10 2:0.3125 3:0.6875 4:0.9375 5:0.3125 9:0.40000001 10:0.8125 11:0.125 12:0.1875 13:0.9375 14:0.1875 17:0.4375 18:0.8125 19:0.5 20:0.6875 21:1 22:0.5 25:0.0625 26:0.5625 27:0.75 28:0.5 29:0.5 30:0.5 36:0.0625 37:0.8125 38:0.2857143 44:0.5625 45:0.75 51:0.5 52:0.8125 58:0.4375 59:0.625 60:0.0625 # 0
-2.8617232280293021837544658219644e-11 2:0.3125 3:0.75 4:0.9375 5:0.9375 6:0.3125 10:0.5 11:0.4375 12:0.25 13:0.8125 14:0.4375 20:0.125 21:1 22:0.0625 26:0.125 27:0.25 28:0.75 29:0.625 33:0.5 34:1 35:0.875 36:1 37:0.75 38:0.14285715 41:0.125 43:0.6875 44:0.4375 50:0.1875 51:0.875 52:0.0625 58:0.5 59:0.4375 # 0
-1.6683100978525661901285752232907e-11 3:0.125 4:0.9375 5:0.125 11:0.625 12:0.5 14:0.5 15:0.23076923 18:0.375 19:0.75 21:0.1875 22:0.9375 25:0.125 26:0.875 27:0.0625 29:0.75 30:0.5 33:0.64285713 34:0.9375 35:0.75 36:1 37:1 38:0.35714287 41:0.1875 42:0.5 43:0.3125 44:0.6875 45:0.625 51:0.0625 52:0.9375 53:0.25 59:0.1875 60:0.5625 # 0
-5.5835764262457043160211827429051e-11 3:0.4375 4:0.6875 11:0.6875 12:0.3125 13:0.125 18:0.1875 19:0.875 20:0.1875 21:0.875 26:0.5 27:0.375 28:0.4375 29:0.4375 33:0.071428575 34:0.9375 35:0.25 36:0.75 37:0.5625 38:0.2857143 41:0.3125 42:1 43:1 44:1 45:0.9375 46:0.5 49:0.0625 50:0.0625 51:0.375 52:0.625 59:0.625 60:0.5625 # 0
-2.0247999437536250779880132858097e-11 3:0.1875 4:0.8125 5:0.125 11:0.5625 12:1 13:0.125 18:0.125 19:0.9375 20:1 21:0.25 25:0.125 26:0.8125 27:1 28:1 29:0.125 33:0.2857143 34:0.75 35:0.5 36:1 37:0.4375 43:0.25 44:1 45:0.5625 51:0.3125 52:1 53:1 59:0.125 60:0.9375 61:0.5625 # 0
-4.5399012577578718504040394078058e-11 2:0.3125 3:0.5 10:0.75 11:0.375 12:0.75 13:0.4375 17:0.125 18:0.625 19:0.375 20:0.5625 21:0.9375 22:0.0625 25:0.4375 26:0.5 29:0.75 30:0.5 33:0.5714286 34:0.5 37:0.75 38:0.42857143 41:0.3125 42:0.8125 45:0.8125 46:0.25 50:0.875 51:0.625 52:0.625 53:0.8125 58:0.25 59:0.75 60:0.6875 61:0.0625 # 0
-1.2524966644943037968710368366102e-11 4:0.5 5:0.6875 11:0.125 12:0.875 13:0.375 19:0.6875 20:0.5625 21:0.125 22:0.1875 26:0.5625 27:0.75 28:0.0625 29:0.6875 30:0.5625 33:0.2857143 34:1 35:0.375 37:0.8125 38:0.35714287 41:0.5 42:1 43:1 44:1 45:1 51:0.1875 52:0.5 53:0.9375 60:0.375 61:0.75 # 0
-4.1183738661578568862643449631522e-11 1:0.25 2:0.875 3:0.875 4:0.0625 9:0.60000002 10:0.8125 11:0.8125 12:0.375 17:0.5625 18:0.3125 19:0.1875 20:0.625 26:0.0625 27:0.1875 28:0.5625 35:0.5 36:0.25 42:0.125 43:0.9375 44:0.25 45:0.125 49:0.0625 50:0.8125 51:1 52:1 53:1 54:0.5625 58:0.8125 59:0.5 60:0.5 61:0.4375 62:0.125 # 0
-2.4642681109385548269476480462606e-11 3:0.5 4:0.9375 5:1 6:0.4375 9:0.06666667 10:0.875 11:0.5625 12:0.0625 14:0.5 17:0.375 18:0.75 21:0.625 22:0.5 25:0.25 26:0.875 27:0.75 28:0.8125 29:0.875 30:0.5 36:0.0625 37:0.25 38:0.5714286 45:0.25 46:0.5 53:0.4375 54:0.5 59:0.5 60:0.75 61:0.9375 62:0.375 # 0
-3.9451849212186281363622234030623e-11 2:0.6875 3:1 4:1 5:0.5 10:0.6875 11:0.75 12:0.5 13:0.8125 18:0.4375 19:0.625 26:0.1875 27:0.8125 35:0.875 36:0.125 43:0.8125 44:0.375 50:0.375 51:0.75 52:0.625 58:0.6875 59:1 60:0.5625 # 0
-2.7821296033540783545089146918606e-11 2:0.125 3:0.9375 4:0.9375 5:0.6875 6:0.1875 9:0.13333334 10:0.9375 11:0.375 12:0.25 13:0.25 14:0.1875 17:0.3125 18:1 19:0.9375 20:0.4375 25:0.0625 26:0.25 27:0.375 28:0.8125 29:0.8125 37:0.875 38:0.2857143 42:0.1875 43:0.1875 45:0.6875 46:0.1875 50:0.4375 51:0.4375 52:0.625 53:0.75 58:0.1875 59:0.875 60:0.5625 61:0.0625 # 0
-2.6573000073232230219679111618168e-11 2:0.25 3:0.9375 4:0.4375 9:0.13333334 10:0.9375 11:0.3125 12:0.8125 13:0.3125 17:0.3125 18:0.6875 20:0.125 21:0.8125 22:0.125 25:0.3125 26:0.5 29:0.375 30:0.5 33:0.5 34:0.5 37:0.3125 38:0.5714286 41:0.1875 42:0.6875 45:0.5625 46:0.4375 50:0.875 51:0.625 52:0.375 53:0.9375 54:0.125 58:0.375 59:0.75 60:0.8125 61:0.375 # 0
-1.1561532400275312692551419884009e-12 2:0.0625 3:0.5625 4:0.9375 5:0.8125 6:0.0625 10:0.6875 11:0.75 12:0.375 13:1 14:0.25 17:0.625 18:0.9375 19:0.0625 20:0.4375 21:0.875 25:0.1875 26:0.9375 27:0.875 28:0.9375 29:0.1875 34:0.0625 35:0.75 36:0.9375 37:0.1875 43:0.75 44:0.5 45:0.8125 46:0.0625 51:0.75 52:0.375 53:1 54:0.125 59:0.5625 60:0.9375 61:0.375 # 0
