SVM-light Version V6.02
2 # kernel type
3 # kernel parameter -d 
50 # kernel parameter -g 
1 # kernel parameter -s 
1 # kernel parameter -r 
empty# kernel parameter -u 
63 # highest feature index 
2823 # number of training documents 
2824 # number of support vectors plus 1 
0.88974305 # threshold b, each following line is a SV (starting with alpha*y)
-0.11022959734506421192179459467297 3:0.375 4:0.9375 5:0.125 6:0.125 10:0.1875 11:0.9375 12:0.625 13:0.25 14:0.9375 17:0.125 18:0.875 19:0.5625 21:0.75 22:0.6875 25:0.5625 26:1 27:0.25 28:0.1875 29:1 30:0.875 33:0.78571427 34:1 35:1 36:1 37:0.9375 38:0.5 41:0.0625 42:0.625 43:0.6875 44:1 45:0.5 51:0.1875 52:1 53:0.0625 59:0.5 60:0.6875 # 0
-0.10929860947014458094628253093106 1:0.25 2:0.9375 3:1 4:0.625 9:0.53333336 10:1 11:0.625 12:1 13:0.125 17:0.25 18:0.4375 20:1 21:0.375 27:0.125 28:1 29:0.25 35:0.5 36:0.875 42:0.125 43:1 44:0.4375 49:0.125 50:0.9375 51:1 52:0.5625 53:0.5 54:0.5 57:0.30000001 58:1 59:1 60:1 61:1 62:0.75 # 0
-0.11030947460471252075109305224032 1:0.5 2:0.9375 3:1 4:0.75 9:0.80000001 10:0.9375 11:0.4375 12:1 13:0.3125 17:0.1875 18:0.1875 20:0.9375 21:0.25 28:0.8125 29:0.4375 35:0.3125 36:0.9375 37:0.125 42:0.0625 43:0.875 44:0.6875 49:0.0625 50:0.8125 51:1 52:0.5625 53:0.5 54:0.1875 57:0.30000001 58:1 59:1 60:1 61:1 62:1 63:0.06666667 # 0
-0.1112243577992668708276369216037 2:0.4375 3:0.9375 4:0.8125 5:0.1875 10:0.6875 11:0.375 12:0.5 13:0.875 19:0.1875 20:0.5 21:0.75 27:1 28:0.875 29:0.125 35:0.625 36:0.9375 37:0.4375 44:0.125 45:0.6875 46:0.625 49:0.0625 50:0.9375 51:0.1875 52:0.0625 53:0.6875 54:0.625 58:0.25 59:0.9375 60:1 61:0.8125 62:0.125 # 0
-0.10946163776642126030935742164729 2:0.625 3:1 4:0.75 9:0.06666667 10:0.875 11:0.8125 12:1 13:0.25 18:0.125 19:0.1875 20:1 21:0.3125 27:0.25 28:1 29:0.125 35:0.6875 36:0.875 42:0.125 43:1 44:0.5 46:0.1875 49:0.0625 50:0.8125 51:1 52:0.875 53:1 54:1 55:0.30000001 58:0.75 59:1 60:1 61:0.8125 62:0.4375 # 0
0.99999999999999988897769753748435 1:0.25 2:1 3:0.625 4:0.5625 5:0.5 10:0.625 11:1 12:1 13:0.75 17:0.0625 18:0.3125 19:0.625 20:1 21:0.625 22:0.375 25:0.6875 26:1 27:1 28:1 29:0.9375 30:0.4375 33:0.21428572 34:0.3125 35:0.875 36:0.5625 37:0.125 42:0.375 43:1 50:0.625 51:0.625 57:0.30000001 58:1 59:0.0625 # 0
0.99999999999999988897769753748435 2:0.5 3:1 4:1 5:1 6:1 7:0.125 10:0.5 11:0.625 12:0.4375 13:0.75 14:0.8125 20:0.1875 21:0.9375 22:0.125 26:0.25 27:0.6875 28:0.9375 29:1 30:0.8125 34:0.6875 35:1 36:0.875 37:0.375 42:0.0625 43:0.875 44:0.375 50:0.4375 51:0.8125 52:0.0625 58:0.75 59:0.5 # 0
1 3:0.8125 4:1 5:1 6:1 7:0.0625 11:0.4375 12:0.5 13:0.8125 14:0.6875 21:0.875 22:0.625 23:0.16666667 25:0.375 26:0.75 27:0.8125 28:1 29:0.875 30:0.5625 33:0.42857143 34:0.875 35:0.625 36:1 37:0.375 43:0.4375 44:0.8125 45:0.0625 51:0.8125 52:0.625 59:0.9375 60:0.1875 # 0
1 2:0.0625 3:0.75 4:0.875 5:1 6:0.625 10:0.1875 11:0.625 12:0.5 13:1 14:0.375 20:0.1875 21:0.9375 22:0.0625 26:0.0625 27:0.4375 28:0.875 29:0.875 30:0.1875 34:0.25 35:0.8125 36:1 37:0.75 38:0.35714287 43:0.4375 44:0.8125 51:0.8125 52:0.4375 58:0.125 59:0.875 60:0.125 # 0
1 2:0.5 3:1 4:0.9375 5:0.3125 10:0.4375 11:0.5 12:0.9375 13:0.625 20:0.875 21:0.625 26:0.3125 27:0.75 28:1 29:0.875 30:0.125 34:1 35:1 36:0.9375 37:0.625 38:0.42857143 42:0.0625 43:0.875 44:0.4375 50:0.25 51:1 58:0.25 59:0.75 # 0
-0.10929637457198349004272586171282 2:0.3125 3:1 4:1 5:0.9375 6:0.0625 10:0.625 11:0.5625 12:0.625 13:1 14:0.125 19:0.0625 20:0.75 21:0.625 27:0.5625 28:1 29:0.5 35:0.125 36:0.875 37:1 38:0.35714287 43:0.25 45:1 46:0.3125 50:0.1875 51:0.875 52:0.5 53:0.8125 58:0.25 59:1 60:0.8125 61:0.1875 # 0
-0.11067855270692472657856342266314 2:0.6875 3:1 4:0.9375 5:0.125 10:0.75 11:0.625 12:0.875 13:0.5 20:0.6875 21:0.5 27:0.0625 28:0.9375 29:0.1875 34:0.0625 35:0.6875 36:0.6875 41:0.375 42:0.9375 43:0.9375 44:0.125 49:0.5625 50:1 51:0.875 52:0.5625 53:0.1875 57:0.1 58:0.5625 59:0.75 60:0.9375 61:1 62:0.8125 # 0
-0.11072809953092177526201567161479 2:0.0625 3:0.5625 4:0.9375 5:0.75 10:0.8125 11:0.5 12:0.3125 13:0.875 14:0.25 18:0.875 19:0.0625 20:0.3125 21:0.875 22:0.0625 26:0.4375 27:0.8125 28:1 29:0.25 34:0.6875 35:0.75 36:0.875 37:0.75 38:0.071428575 41:0.25 42:0.8125 45:0.6875 46:0.4375 49:0.0625 50:0.8125 51:0.4375 52:0.125 53:0.5 54:0.5 58:0.0625 59:0.5625 60:1 61:0.8125 62:0.125 # 0
0.99999999999999988897769753748435 2:0.125 3:0.75 4:1 5:0.875 6:0.625 10:0.0625 11:0.5 12:0.25 13:0.6875 14:0.8125 21:0.875 22:0.3125 27:0.1875 28:0.5625 29:0.9375 34:0.3125 35:1 36:1 37:0.9375 38:0.21428572 42:0.125 43:0.625 44:0.8125 45:0.1875 51:0.8125 52:0.4375 58:0.0625 59:0.9375 60:0.125 # 0
0.99999999999999988897769753748435 1:0.5 2:1 3:1 4:1 5:1 6:0.8125 9:0.33333334 10:0.75 11:0.75 12:0.8125 13:1 14:0.875 20:0.625 21:0.9375 22:0.25 27:0.1875 28:1 29:0.5625 35:0.4375 36:1 37:0.125 42:0.1875 43:0.9375 44:0.5625 50:0.8125 51:1 52:0.125 57:0.2 58:1 59:0.75 # 0
0.99999999999999988897769753748435 1:0.125 2:0.6875 3:0.5625 4:0.875 5:0.6875 6:0.0625 9:0.53333336 10:1 11:0.875 12:0.875 13:1 14:0.125 17:0.4375 18:1 20:0.6875 21:0.75 25:0.0625 26:0.0625 27:0.0625 28:0.9375 29:0.3125 35:0.625 36:0.875 42:0.125 43:0.9375 44:0.3125 50:0.75 51:1 52:0.25 58:0.9375 59:0.6875 60:0.0625 # 0
-0.10929096172555929911140992771834 1:0.375 2:0.9375 3:1 4:0.6875 9:0.66666669 10:0.9375 11:0.8125 12:1 13:0.125 17:0.625 18:0.4375 19:0.25 20:1 25:0.0625 27:0.5625 28:0.75 34:0.0625 35:1 36:0.375 42:0.625 43:0.9375 49:0.4375 50:1 51:0.875 52:0.75 53:0.875 54:0.6875 57:0.60000002 58:1 59:1 60:1 61:0.6875 62:0.1875 # 0
-0.10933573441252697477921174140647 2:0.5625 3:0.8125 4:0.9375 5:0.625 6:0.0625 10:0.4375 11:0.25 12:0.25 13:0.75 14:0.8125 21:0.4375 22:0.6875 26:0.125 27:0.75 28:0.8125 29:0.75 30:0.125 35:0.625 36:0.9375 37:0.0625 43:0.0625 44:0.6875 45:0.5625 50:0.75 51:0.1875 52:0.1875 53:0.9375 58:0.5 59:1 60:1 61:0.1875 # 0
-0.11076132136337846212370550347259 2:0.1875 3:0.875 4:1 5:0.75 6:0.0625 9:0.2 10:1 11:0.875 12:0.1875 13:0.6875 14:0.25 17:0.125 18:0.8125 19:0.0625 20:0.1875 21:0.9375 22:0.25 26:0.625 27:1 28:1 29:0.5 33:0.14285715 34:0.9375 35:0.625 36:0.875 37:0.25 41:0.3125 42:0.875 44:0.1875 45:0.875 46:0.0625 50:0.875 51:0.25 52:0.0625 53:0.875 54:0.125 58:0.125 59:0.8125 60:1 61:0.625 # 0
1 2:0.6875 3:0.9375 4:1 5:1 6:1 7:0.4375 10:0.875 11:0.875 12:0.75 13:1 14:1 15:0.23076923 18:0.0625 20:0.25 21:1 22:0.375 28:0.8125 29:0.75 35:0.4375 36:0.9375 37:0.25 42:0.1875 43:1 44:0.5625 50:0.6875 51:1 52:0.3125 58:0.9375 59:0.9375 # 0
1 1:0.5 2:0.5 3:0.5 4:0.75 5:1 6:0.3125 9:0.53333336 10:1 11:1 12:1 13:0.9375 14:0.1875 17:0.125 18:0.1875 19:0.4375 20:1 21:0.4375 27:0.75 28:0.875 29:0.0625 34:0.5625 35:1 36:0.4375 42:0.875 43:1 49:0.375 50:1 51:0.75 57:0.60000002 58:0.875 59:0.4375 # 0
1 1:0.5 2:0.9375 3:0.5625 4:0.5 5:0.5 6:0.0625 9:0.26666668 10:1 11:1 12:1 13:1 14:0.5 17:0.5625 18:0.9375 19:0.125 20:0.9375 21:0.875 22:0.0625 25:0.3125 26:0.3125 27:0.3125 28:1 29:0.25 35:0.75 36:0.75 42:0.4375 43:0.9375 44:0.125 49:0.1875 50:1 51:0.4375 57:0.60000002 58:1 59:0.25 # 0
-0.10935980517878096662798270699568 3:0.5625 4:0.875 10:0.3125 11:1 12:0.25 13:0.25 14:0.5625 17:0.25 18:1 19:0.1875 21:0.8125 22:0.5625 25:0.375 26:1 27:0.9375 28:0.75 29:1 30:0.8125 34:0.5 35:0.6875 36:0.9375 37:0.875 38:0.21428572 44:1 45:0.3125 51:0.375 52:0.8125 59:0.5625 60:0.625 # 0
-0.10930170749902279325738163606729 4:0.5 5:0.8125 6:0.0625 10:0.0625 11:0.5625 12:0.9375 13:0.875 14:0.0625 17:0.375 18:0.875 19:1 20:1 21:0.625 25:0.3125 26:0.6875 27:0.25 28:1 29:0.5625 35:0.1875 36:1 37:0.3125 43:0.1875 44:1 45:0.4375 52:1 53:0.625 60:0.6875 61:0.8125 # 0
-0.11109003145548046465052038911381 2:0.0625 3:0.8125 4:0.875 5:0.125 10:0.4375 11:1 12:0.625 13:0.75 17:0.1875 18:0.9375 19:0.625 21:0.75 22:0.1875 25:0.4375 26:0.5625 29:0.5 30:0.4375 33:0.35714287 34:0.5625 37:0.5 38:0.5 41:0.0625 42:0.8125 45:0.6875 46:0.125 50:0.8125 51:0.4375 52:0.3125 53:0.625 58:0.1875 59:0.875 60:0.9375 61:0.1875 # 0
1 2:0.875 3:0.9375 4:0.75 5:0.75 6:0.375 9:0.06666667 10:1 11:0.75 12:0.75 13:1 14:0.4375 18:0.375 19:0.0625 20:0.75 21:0.75 27:0.5 28:0.9375 29:0.125 35:0.8125 36:0.4375 42:0.375 43:0.9375 44:0.0625 50:0.9375 51:0.625 58:0.9375 59:0.375 # 0
1 1:0.25 2:0.75 3:1 4:1 5:1 6:0.875 9:0.60000002 10:1 11:1 12:0.9375 13:1 14:0.375 17:0.6875 18:0.8125 20:0.6875 21:0.875 27:0.125 28:1 29:0.375 35:0.75 36:0.875 37:0.0625 42:0.25 43:1 44:0.375 50:0.6875 51:1 52:0.0625 57:0.2 58:0.9375 59:0.8125 # 0
1 2:0.5 3:0.75 4:0.875 5:0.9375 6:0.9375 7:0.0625 9:0.2 10:0.9375 11:1 12:0.875 13:1 14:0.9375 15:0.15384616 18:0.625 19:0.125 20:0.3125 21:1 22:0.4375 27:0.0625 28:0.875 29:0.75 35:0.375 36:1 37:0.3125 43:0.9375 44:0.75 50:0.375 51:1 52:0.4375 58:0.6875 59:1 60:0.1875 # 0
-0.10942989626977572825694551283959 4:0.9375 5:0.9375 6:0.0625 11:0.125 12:1 13:1 14:0.25 18:0.125 19:0.6875 20:1 21:0.9375 22:0.0625 25:0.5625 26:1 27:1 28:1 29:0.75 33:0.21428572 34:0.625 35:0.5 36:1 37:0.5 44:1 45:0.6875 52:0.9375 53:0.8125 60:0.9375 61:0.9375 # 0
-0.10935980517878096662798270699568 2:0.125 3:0.875 4:0.9375 5:0.5 10:0.5 11:0.625 12:0.1875 13:0.9375 14:0.0625 18:0.3125 19:0.6875 20:0.0625 21:0.9375 22:0.25 27:0.75 28:0.9375 29:1 30:0.3125 36:0.125 37:0.5 38:0.42857143 41:0.0625 42:0.1875 45:0.4375 46:0.3125 49:0.0625 50:0.75 51:0.25 53:0.625 54:0.4375 58:0.25 59:0.875 60:0.875 61:0.8125 62:0.0625 # 0
-0.10967133430845199537628786856658 2:0.5625 3:0.9375 4:0.875 5:0.0625 9:0.13333334 10:1 11:0.5 12:0.9375 13:0.625 17:0.125 18:0.875 19:0.25 20:0.8125 21:0.875 22:0.0625 26:0.4375 27:0.9375 28:0.9375 29:0.875 30:0.375 35:0.0625 36:0.0625 37:0.4375 38:0.64285713 45:0.1875 46:0.75 50:0.375 53:0.375 54:0.75 58:0.5625 59:1 60:1 61:1 62:0.375 # 0
1 2:0.0625 3:0.625 4:0.875 5:0.8125 6:0.125 10:0.5625 11:0.9375 12:0.8125 13:1 14:0.3125 21:0.6875 22:0.3125 28:0.25 29:0.8125 34:0.5 35:1 36:1 37:0.8125 38:0.14285715 42:0.5 43:0.875 44:1 45:0.625 46:0.0625 51:0.75 52:0.4375 59:0.875 60:0.125 # 0
1 2:0.25 3:0.875 4:1 5:0.6875 10:0.75 11:0.75 12:1 13:0.9375 19:0.0625 20:1 21:0.6875 26:0.125 27:0.5625 28:1 29:0.5625 34:0.8125 35:1 36:1 37:1 38:0.64285713 42:0.125 43:0.9375 44:0.75 45:0.5 46:0.0625 50:0.25 51:1 52:0.5625 58:0.3125 59:0.9375 60:0.4375 # 0
1 2:0.1875 3:0.6875 4:1 5:1 6:0.625 10:0.6875 11:0.625 12:0.5 13:1 14:0.4375 20:0.25 21:1 22:0.125 26:0.0625 27:0.25 28:0.8125 29:0.6875 34:0.625 35:1 36:1 37:1 38:0.64285713 42:0.25 43:0.8125 44:0.8125 45:0.5 46:0.125 50:0.125 51:0.875 52:0.375 58:0.25 59:0.75 60:0.0625 # 0
-0.10941662852088696045171900550486 2:0.4375 3:0.625 4:0.8125 5:0.3125 9:0.40000001 10:1 11:0.75 12:1 13:0.75 17:0.375 18:0.9375 19:0.375 20:1 21:0.875 22:0.0625 25:0.0625 26:0.8125 27:1 28:0.75 29:1 30:0.125 37:0.8125 38:0.2857143 45:0.6875 46:0.4375 50:0.6875 51:0.375 52:0.25 53:0.8125 54:0.5 58:0.5625 59:1 60:1 61:0.75 62:0.1875 # 0
-0.10933573441252120161948369059246 2:0.625 3:0.75 4:0.8125 5:0.6875 6:0.125 10:0.875 11:0.5625 12:0.5 13:0.5 14:0.125 18:0.9375 25:0.375 26:1 27:0.375 33:0.21428572 34:0.75 35:0.8125 36:0.9375 37:0.3125 44:0.375 45:0.8125 46:0.0625 50:0.5625 51:0.3125 52:0.25 53:0.875 58:0.5 59:0.9375 60:0.9375 61:0.4375 # 0
-0.10993556673340054707921353838174 2:0.125 3:0.8125 4:0.8125 5:0.25 10:0.75 11:0.8125 12:0.6875 13:0.875 18:0.5625 19:0.8125 20:0.8125 21:0.875 22:0.0625 27:0.25 28:0.5 29:0.8125 30:0.1875 37:0.4375 38:0.64285713 45:0.1875 46:0.8125 50:0.875 51:0.375 53:0.375 54:0.75 58:0.125 59:0.75 60:1 61:1 62:0.4375 # 0
1 2:0.0625 3:0.8125 4:0.75 5:0.875 6:0.4375 10:0.3125 11:0.75 12:0.5625 13:1 14:0.125 20:0.1875 21:0.8125 28:0.625 29:0.4375 34:0.4375 35:1 36:1 37:0.625 38:0.071428575 42:0.5625 43:0.875 44:1 45:0.6875 46:0.0625 51:0.9375 52:0.3125 58:0.0625 59:0.9375 60:0.125 # 0
1 3:0.5625 4:0.875 5:0.875 6:0.75 7:0.375 10:0.1875 11:0.5 12:0.5 13:0.6875 14:1 15:0.53846157 20:0.0625 21:0.75 22:0.75 26:0.1875 27:0.25 28:0.6875 29:0.875 34:0.8125 35:1 36:1 37:0.9375 38:0.2857143 43:0.625 44:0.6875 51:0.875 52:0.5625 59:0.9375 60:0.25 # 0
1 2:0.1875 3:0.9375 4:1 5:1 6:0.375 10:0.6875 11:0.9375 12:0.75 13:1 14:0.125 20:0.6875 21:0.8125 26:0.25 27:0.5 28:1 29:0.5 30:0.125 34:0.875 35:1 36:1 37:1 38:0.71428573 42:0.1875 43:0.8125 44:0.75 45:0.375 46:0.0625 50:0.0625 51:1 52:0.375 58:0.4375 59:0.9375 60:0.125 # 0
-0.11106454351804173619200355460634 3:0.3125 4:0.75 5:0.9375 6:0.4375 10:0.1875 11:0.875 12:0.25 13:0.8125 14:0.375 18:0.25 19:0.8125 21:0.875 22:0.4375 27:0.8125 28:0.875 29:1 30:0.5 36:0.1875 37:0.5 38:0.5714286 41:0.0625 42:0.1875 45:0.625 46:0.5 49:0.3125 50:1 51:0.4375 53:0.75 54:0.25 58:0.125 59:0.375 60:0.8125 61:0.9375 62:0.0625 # 0
-0.10929637457198349004272586171282 2:0.375 3:0.75 4:0.9375 5:0.9375 6:0.5625 10:0.5 11:0.75 12:0.25 13:0.25 14:0.1875 18:0.75 19:0.1875 25:0.0625 26:0.9375 27:0.375 28:0.1875 33:0.5714286 34:1 35:0.75 36:1 37:0.375 41:0.1875 42:0.25 44:0.25 45:0.6875 49:0.25 50:0.9375 51:0.3125 52:0.8125 53:0.375 58:0.375 59:1 60:0.625 # 0
-0.1105834941638810242636736802524 2:0.1875 3:0.625 4:0.8125 5:0.3125 10:0.9375 11:0.75 12:0.3125 13:0.875 14:0.0625 17:0.25 18:0.75 19:0.0625 21:0.625 22:0.25 25:0.3125 26:0.5 29:0.5 30:0.4375 33:0.35714287 34:0.5 37:0.5 38:0.5714286 41:0.25 42:0.6875 45:0.6875 46:0.3125 49:0.0625 50:0.875 51:0.375 52:0.4375 53:0.75 58:0.25 59:0.9375 60:0.875 61:0.25 # 0
1 2:0.625 3:1 4:1 5:1 6:0.3125 10:0.125 11:0.25 12:0.625 13:1 14:0.3125 20:0.5625 21:0.75 26:0.25 27:0.875 28:1 29:0.8125 30:0.375 34:0.375 35:0.9375 36:1 37:0.9375 38:0.5 43:0.875 44:0.625 50:0.375 51:1 52:0.4375 58:0.6875 59:0.9375 # 0
1 2:0.375 3:0.9375 4:1 5:0.875 9:0.13333334 10:0.6875 11:0.3125 12:0.4375 13:1 14:0.125 20:0.25 21:1 26:0.5 27:0.8125 28:1 29:0.375 34:0.3125 35:0.8125 36:1 37:0.875 38:0.21428572 43:0.875 44:0.5 45:0.875 46:0.25 50:0.375 51:1 52:0.125 58:0.4375 59:0.5625 60:0.0625 # 0
1 2:0.375 3:1 4:1 5:1 6:0.75 10:0.375 11:0.75 12:0.6875 13:0.9375 14:1 15:0.07692308 21:0.9375 22:0.75 26:0.0625 27:0.6875 28:0.75 29:1 30:0.1875 34:0.1875 35:1 36:1 37:1 38:0.2857143 43:0.5625 44:1 45:0.8125 46:0.1875 50:0.0625 51:1 52:0.5625 58:0.4375 59:0.9375 60:0.25 # 0
-0.11108909620158891051744376454735 3:0.125 4:0.9375 5:0.4375 11:0.6875 12:0.75 13:0.0625 18:0.375 19:0.9375 20:0.0625 21:0.875 22:0.125 25:0.3125 26:0.9375 27:0.3125 28:0.1875 29:1 30:0.0625 33:0.5 34:1 35:0.875 36:0.8125 37:1 38:0.5714286 41:0.0625 42:0.375 43:0.75 44:0.9375 45:0.875 46:0.1875 51:0.0625 52:0.8125 53:0.4375 59:0.1875 60:1 61:0.0625 # 0
-0.11072809953092177526201567161479 2:0.3125 3:0.8125 4:0.75 5:0.9375 6:0.125 10:0.8125 11:0.8125 12:0.5 13:0.5 14:0.125 17:0.1875 18:1 19:0.3125 25:0.4375 26:1 27:0.8125 28:0.3125 33:0.071428575 34:0.4375 35:0.625 36:1 37:0.625 44:0.25 45:1 46:0.25 50:0.5 51:0.375 52:0.3125 53:1 54:0.25 58:0.4375 59:0.8125 60:0.8125 61:0.625 # 0
-0.10935899014921002248001968837343 3:0.125 4:0.875 5:0.3125 6:0.0625 10:0.0625 11:0.75 12:0.8125 13:0.0625 14:0.9375 15:0.30769232 18:0.5625 19:0.9375 20:0.125 21:0.375 22:1 23:0.33333334 25:0.4375 26:1 27:0.8125 28:0.5 29:0.875 30:0.75 33:0.64285713 34:1 35:1 36:1 37:1 38:0.71428573 43:0.1875 44:0.6875 45:0.9375 46:0.0625 52:0.875 53:0.625 59:0.125 60:1 61:0.25 # 0
1 1:0.125 2:0.9375 3:1 4:0.875 5:0.125 9:0.06666667 10:0.6875 11:0.75 12:1 13:0.5 19:0.3125 20:1 21:0.25 26:0.125 27:0.9375 28:1 29:0.1875 34:0.25 35:1 36:1 37:0.875 38:0.2857143 42:0.3125 43:1 44:0.75 45:1 46:0.4375 50:0.6875 51:0.6875 58:1 59:0.375 # 0
1 2:0.4375 3:0.75 4:0.875 5:0.4375 10:0.75 11:0.6875 12:0.75 13:1 19:0.125 20:0.25 21:0.75 27:0.875 28:0.9375 29:0.875 30:0.0625 35:0.75 36:0.9375 37:0.9375 38:0.42857143 43:0.75 44:0.5 45:0.0625 46:0.0625 50:0.3125 51:1 52:0.0625 58:0.4375 59:0.4375 # 0
1 2:0.5 3:1 4:0.9375 5:0.6875 10:0.3125 11:0.4375 12:0.6875 13:1 14:0.1875 20:0.5625 21:0.8125 26:0.4375 27:0.9375 28:0.9375 29:0.3125 34:0.5 35:0.875 36:1 37:0.875 38:0.2857143 43:0.625 44:0.5625 45:0.25 46:0.0625 50:0.25 51:0.875 52:0.0625 58:0.625 59:0.4375 # 0
-0.10931012424738517641031876337365 2:0.4375 3:0.8125 4:0.75 5:0.5625 6:0.0625 9:0.2 10:0.9375 11:0.3125 12:0.3125 13:1 14:0.25 17:0.1875 18:0.9375 19:0.125 20:0.4375 21:1 22:0.0625 26:0.3125 27:0.9375 28:1 29:0.9375 30:0.25 37:0.6875 38:0.5 41:0.0625 42:0.25 45:0.5625 46:0.4375 49:0.1875 50:0.8125 51:0.0625 53:0.625 54:0.5 58:0.5625 59:0.9375 60:1 61:1 62:0.0625 # 0
-0.10931569251146733279256295645609 2:0.125 3:0.875 4:0.75 5:0.125 10:0.75 11:0.8125 12:0.4375 13:0.8125 17:0.3125 18:1 19:0.0625 21:0.75 22:0.1875 25:0.375 26:0.75 27:0.125 29:0.25 30:0.5 33:0.5 34:0.5 37:0.4375 38:0.5714286 41:0.0625 42:0.875 43:0.0625 45:0.5625 46:0.375 50:0.5625 51:0.6875 52:0.4375 53:1 54:0.0625 58:0.125 59:0.75 60:1 61:0.5 # 0
-0.10928668161385046708744539500913 2:0.125 3:0.5 4:0.9375 5:0.4375 10:0.6875 11:0.9375 12:0.375 13:0.875 14:0.1875 18:1 19:0.375 21:0.25 22:0.5625 25:0.5 26:0.25 29:0.25 30:0.5 33:0.42857143 34:0.4375 37:0.3125 38:0.5714286 41:0.1875 42:0.8125 45:0.8125 46:0.0625 50:0.625 51:0.6875 52:0.5 53:0.6875 58:0.0625 59:0.8125 60:0.6875 61:0.125 # 0
1 2:0.5 3:1 4:1 5:0.75 9:0.2 10:1 11:0.5625 12:0.6875 13:1 14:0.1875 17:0.25 18:0.4375 20:0.5 21:0.875 22:0.0625 26:0.3125 27:0.5 28:0.875 29:0.75 30:0.0625 33:0.35714287 34:1 35:1 36:1 37:1 38:0.71428573 41:0.375 42:0.3125 43:0.5625 44:0.6875 50:0.25 51:1 52:0.1875 58:0.6875 59:0.5 # 0
1 1:0.125 2:0.625 3:1 4:1 5:0.8125 9:0.40000001 10:0.9375 11:0.375 12:0.5625 13:1 14:0.1875 17:0.1875 18:0.3125 20:0.5 21:1 22:0.1875 26:0.0625 27:0.625 28:1 29:0.875 30:0.1875 34:0.375 35:1 36:1 37:0.5625 38:0.5714286 43:0.9375 44:0.5625 50:0.375 51:0.9375 52:0.0625 58:0.875 59:0.3125 # 0
1 2:0.5 3:1 4:1 5:0.9375 9:0.2 10:1 11:0.5625 12:0.5 13:1 14:0.25 17:0.5625 18:0.5 20:0.375 21:1 22:0.125 25:0.0625 26:0.5 27:0.8125 28:1 29:1 30:0.3125 34:0.9375 35:0.75 36:1 37:0.8125 38:0.5714286 43:0.5625 44:0.9375 45:0.0625 50:0.125 51:1 52:0.25 58:0.6875 59:0.6875 # 0
-0.10928668161385046708744539500913 1:0.375 2:1 3:1 4:0.625 9:0.13333334 10:0.75 11:0.6875 12:1 13:0.1875 19:0.125 20:1 21:0.3125 27:0.1875 28:1 29:0.125 34:0.0625 35:0.9375 36:0.625 42:0.8125 43:1 44:0.0625 49:0.4375 50:1 51:0.8125 52:0.625 53:0.75 54:0.8125 57:0.2 58:0.9375 59:1 60:1 61:0.75 62:0.375 # 0
-0.1112243577992668708276369216037 2:0.875 3:1 4:0.875 5:0.3125 10:0.1875 12:0.125 13:1 14:0.1875 19:0.25 20:0.625 21:0.9375 22:0.0625 25:0.375 26:1 27:1 28:0.875 29:0.125 33:0.071428575 34:0.25 35:0.375 36:0.75 37:0.75 45:0.75 46:0.5625 50:0.625 52:0.25 53:0.875 54:0.3125 58:0.8125 59:1 60:0.8125 61:0.25 # 0
-0.11120756480197313553759386195452 2:0.375 3:0.75 4:0.8125 5:0.75 6:0.375 10:0.375 11:0.5 12:0.125 13:0.3125 14:0.4375 18:0.75 19:0.125 25:0.4375 26:0.9375 27:0.75 28:0.4375 29:0.125 33:0.14285715 34:0.5 35:0.5 36:0.5625 37:0.9375 38:0.2857143 45:0.4375 46:0.4375 50:0.25 51:0.3125 52:0.25 53:0.8125 54:0.125 58:0.25 59:0.9375 60:1 61:0.375 # 0
1 2:0.25 3:0.8125 4:1 5:0.5 9:0.33333334 10:1 11:0.5 12:0.625 13:0.75 17:0.5 18:0.5625 20:0.5 21:0.75 27:0.125 28:0.6875 29:0.625 30:0.125 34:0.1875 35:1 36:1 37:1 38:0.64285713 43:0.5625 44:0.875 51:0.8125 52:0.4375 58:0.3125 59:0.9375 60:0.125 # 0
1 1:0.125 2:0.6875 3:1 4:1 5:0.3125 9:0.40000001 10:1 11:0.375 12:0.875 13:0.8125 17:0.25 18:0.3125 20:0.875 21:0.75 26:0.4375 27:0.5625 28:1 29:0.625 34:0.9375 35:1 36:1 37:1 38:0.5714286 42:0.0625 43:0.875 44:0.6875 45:0.25 50:0.625 51:1 52:0.0625 58:0.9375 59:0.5625 # 0
1 2:0.375 3:0.9375 4:1 5:0.625 10:0.875 11:0.6875 12:0.625 13:0.9375 18:0.125 20:0.5625 21:0.875 26:0.3125 27:0.5625 28:0.9375 29:0.875 30:0.125 33:0.78571427 34:1 35:1 36:1 37:1 38:0.78571427 41:0.0625 42:0.1875 43:0.6875 44:0.8125 45:0.0625 50:0.3125 51:1 52:0.1875 58:0.5 59:0.75 # 0
-0.10947147428950854131102232713602 2:0.0625 3:0.5 4:0.9375 5:0.5 10:0.875 11:0.6875 12:0.875 13:1 17:0.1875 18:0.75 20:0.375 21:0.5625 25:0.0625 26:0.9375 27:0.625 28:0.875 29:0.0625 34:0.0625 35:0.9375 36:1 37:0.3125 42:0.3125 43:0.75 44:0.1875 45:0.9375 46:0.1875 50:0.375 51:0.6875 52:0.0625 53:0.8125 54:0.25 59:0.5 60:1 61:0.8125 62:0.0625 # 0
-0.10940738587292764272262957092607 2:0.3125 3:0.5 4:0.75 5:0.75 6:0.8125 10:0.875 11:0.75 12:0.5 13:0.25 14:0.25 18:0.875 20:0.125 25:0.1875 26:1 27:1 28:1 29:0.625 34:0.3125 35:0.0625 36:0.125 37:0.9375 38:0.14285715 45:1 50:0.25 51:0.625 52:0.5 53:0.5625 58:0.1875 59:1 60:0.8125 61:0.0625 # 0
-0.10930184690960909055235106279724 2:0.25 3:0.9375 4:0.625 9:0.2 10:1 11:0.5625 12:0.625 13:0.4375 17:0.4375 18:0.9375 19:0.1875 20:0.0625 21:0.6875 22:0.125 25:0.5 26:0.375 29:0.375 30:0.4375 33:0.5714286 34:0.3125 37:0.25 38:0.5714286 41:0.25 42:0.625 45:0.4375 46:0.5 50:0.8125 51:0.375 52:0.3125 53:0.9375 54:0.1875 58:0.25 59:0.9375 60:0.875 61:0.375 # 0
1 2:0.4375 3:0.9375 4:1 5:1 6:0.5 9:0.26666668 10:1 11:0.75 12:0.3125 13:0.8125 14:0.8125 17:0.0625 18:0.3125 21:1 22:0.625 27:0.0625 28:0.5 29:1 30:0.375 34:0.5625 35:0.9375 36:1 37:1 38:0.78571427 41:0.125 42:0.75 43:0.875 44:0.9375 45:0.25 46:0.0625 50:0.0625 51:0.9375 52:0.375 58:0.625 59:0.6875 # 0
1 2:0.375 3:0.9375 4:1 5:0.8125 6:0.0625 9:0.2 10:1 11:0.625 12:0.6875 13:1 14:0.1875 17:0.3125 18:0.5 20:0.25 21:1 22:0.25 27:0.125 28:0.5625 29:1 30:0.0625 34:0.5625 35:1 36:1 37:0.9375 38:0.42857143 42:0.625 43:0.625 44:1 45:0.625 46:0.1875 51:0.6875 52:0.75 58:0.4375 59:0.8125 60:0.0625 # 0
1 2:0.3125 3:0.75 4:0.9375 5:0.9375 6:0.3125 10:0.5 11:0.4375 12:0.25 13:0.8125 14:0.4375 20:0.125 21:1 22:0.0625 26:0.125 27:0.25 28:0.75 29:0.625 33:0.5 34:1 35:0.875 36:1 37:0.75 38:0.14285715 41:0.125 43:0.6875 44:0.4375 50:0.1875 51:0.875 52:0.0625 58:0.5 59:0.4375 # 0
-0.11053304320435319851867461693473 3:0.1875 4:0.9375 5:0.25 11:0.8125 12:0.5625 18:0.5 19:0.75 21:0.4375 22:0.25 25:0.25 26:0.875 27:0.1875 29:0.9375 30:0.3125 33:0.78571427 34:1 35:1 36:1 37:1 38:0.71428573 41:0.3125 42:0.5625 43:0.5625 44:0.8125 45:0.75 52:0.75 53:0.4375 59:0.125 60:1 61:0.1875 # 0
-0.11107268986503704422119653827394 3:0.125 4:0.6875 5:0.0625 11:0.4375 12:0.8125 13:0.0625 18:0.375 19:0.9375 20:0.125 21:0.25 22:0.4375 25:0.0625 26:0.875 27:0.6875 29:0.875 30:0.5 33:0.5 34:1 35:1 36:1 37:1 38:0.21428572 43:0.1875 44:0.8125 45:0.875 52:0.9375 53:0.5625 59:0.1875 60:0.9375 61:0.3125 # 0
-0.11076859144526363110117017640732 2:0.25 3:0.875 4:0.3125 10:0.75 11:0.9375 12:0.875 18:0.75 19:0.5 20:0.9375 21:0.5625 26:0.3125 27:1 28:0.9375 29:1 30:0.25 36:0.375 37:0.75 38:0.71428573 45:0.3125 46:0.9375 50:0.1875 51:0.5 52:0.25 53:0.5625 54:1 55:0.40000001 58:0.3125 59:0.75 60:0.9375 61:0.75 62:0.6875 # 0
1 2:0.75 3:1 4:1 5:1 6:0.6875 10:0.5 11:0.625 12:0.5625 13:1 14:0.6875 20:0.5625 21:1 22:0.125 27:0.125 28:0.9375 29:0.5625 33:0.5714286 34:1 35:1 36:1 37:0.875 41:0.1875 42:0.5625 43:1 44:0.75 45:0.1875 50:0.5625 51:1 52:0.125 58:0.875 59:0.625 # 0
1 2:0.75 3:0.9375 4:1 5:1 6:0.9375 7:0.125 10:0.625 11:0.75 12:0.625 13:0.875 14:0.875 15:0.15384616 20:0.125 21:1 22:0.4375 28:0.75 29:0.6875 33:0.21428572 34:0.75 35:0.875 36:1 37:0.8125 38:0.21428572 41:0.75 42:0.75 43:1 44:0.6875 45:0.4375 50:0.3125 51:0.9375 52:0.125 58:0.75 59:0.6875 # 0
1 2:0.375 3:0.9375 4:1 5:1 6:0.5625 10:0.5625 11:0.75 12:0.5 13:1 14:0.75 20:0.3125 21:1 22:0.25 25:0.0625 26:0.4375 27:0.5 28:1 29:0.5625 30:0.125 33:0.64285713 34:1 35:1 36:1 37:1 38:0.64285713 41:0.125 42:0.4375 43:1 44:0.25 50:0.5 51:0.875 58:0.625 59:0.5625 # 0
-0.10947147350123787035158784419764 3:0.1875 4:0.75 11:0.75 12:0.5625 13:0.0625 14:0.0625 18:0.1875 19:1 20:0.1875 21:0.625 22:0.4375 25:0.0625 26:0.8125 27:0.625 28:0.0625 29:1 30:0.1875 33:0.5714286 34:1 35:0.8125 36:0.8125 37:1 38:0.14285715 41:0.1875 42:0.375 43:0.5 44:1 45:0.875 46:0.125 51:0.125 52:1 53:0.125 59:0.1875 60:0.8125 # 0
-0.10929399910759962644135612208629 2:0.125 3:0.8125 4:0.875 5:0.125 9:0.06666667 10:0.9375 11:1 12:1 13:0.5625 17:0.4375 18:1 19:0.5 20:0.3125 21:1 22:0.0625 25:0.375 26:1 27:0.1875 29:0.6875 30:0.4375 33:0.35714287 34:1 35:0.25 37:0.5 38:0.5714286 42:1 43:0.5625 45:0.625 46:0.6875 50:0.625 51:0.9375 52:0.625 53:1 54:0.5 58:0.125 59:0.8125 60:1 61:0.875 62:0.125 # 0
-0.10928139448617757434334407662391 2:0.1875 3:0.9375 4:0.5 10:0.5 11:1 12:1 13:0.4375 18:0.4375 19:0.6875 20:0.5625 21:0.75 26:0.125 27:0.3125 28:0.5625 29:0.6875 36:0.8125 37:0.4375 42:0.4375 43:0.625 44:1 45:0.25 50:0.875 51:1 52:1 53:1 54:0.9375 58:0.0625 59:0.25 60:0.25 61:0.4375 62:0.6875 63:0.06666667 # 0
1 1:0.125 2:0.9375 3:1 4:1 5:0.8125 10:0.4375 11:0.5 12:0.75 13:1 20:0.625 21:0.875 25:0.0625 26:0.25 27:0.375 28:1 29:0.3125 33:0.78571427 34:1 35:1 36:1 37:0.9375 38:0.5714286 41:0.25 42:0.5625 43:1 44:0.5 45:0.5 46:0.125 50:0.6875 51:0.75 57:0.2 58:1 59:0.25 # 0
1 1:0.5 2:1 3:1 4:1 5:0.75 6:0.0625 10:0.4375 11:0.5 12:0.75 13:1 14:0.125 20:0.5 21:0.9375 22:0.0625 26:0.1875 27:0.25 28:0.9375 29:0.6875 33:0.14285715 34:1 35:1 36:1 37:1 38:0.42857143 42:0.5625 43:1 44:0.625 45:0.25 46:0.0625 50:0.625 51:0.9375 52:0.0625 57:0.1 58:1 59:0.5 # 0
1 1:0.5 2:1 3:1 4:1 5:0.875 6:0.1875 9:0.06666667 10:0.5 11:0.5 12:0.5 13:0.9375 14:0.625 20:0.3125 21:1 22:0.375 28:0.8125 29:0.75 33:0.5714286 34:1 35:1 36:1 37:0.9375 38:0.5714286 41:0.1875 42:0.6875 43:1 44:0.5625 45:0.5 46:0.1875 50:0.875 51:0.75 57:0.5 58:1 59:0.125 # 0
-0.10928668161385046708744539500913 3:0.375 4:0.6875 5:0.375 10:0.5 11:0.8125 12:0.5625 13:1 14:0.1875 17:0.125 18:0.9375 19:0.25 21:0.8125 22:0.1875 26:0.4375 27:0.875 28:0.5625 29:0.8125 34:0.0625 35:0.9375 36:1 37:0.375 42:0.6875 43:0.625 44:0.625 45:0.75 50:0.5625 51:0.625 52:0.0625 53:1 54:0.1875 59:0.5625 60:0.75 61:0.625 62:0.0625 # 0
-0.11107370667277072229239820444491 2:0.25 3:1 4:0.4375 5:0.0625 10:0.625 11:0.8125 12:0.9375 13:0.6875 17:0.125 18:0.9375 19:0.1875 20:0.25 21:0.9375 22:0.1875 25:0.25 26:1 29:0.75 30:0.5 33:0.35714287 34:1 35:0.0625 37:0.5625 38:0.5714286 41:0.25 42:1 43:0.125 44:0.0625 45:0.8125 46:0.4375 50:0.875 51:0.5625 52:0.5625 53:0.875 54:0.0625 58:0.3125 59:0.875 60:0.9375 61:0.375 # 0
-0.11036072463646318109198318779818 2:0.3125 3:0.75 4:0.375 10:0.6875 11:1 12:0.9375 13:0.375 18:0.625 19:0.6875 20:0.6875 21:0.9375 22:0.125 26:0.25 27:0.9375 28:0.9375 29:1 30:0.375 35:0.25 36:0.5 37:0.8125 38:0.64285713 45:0.5 46:0.8125 50:0.5625 51:0.5 52:0.5 53:0.75 54:0.8125 58:0.3125 59:0.625 60:0.8125 61:0.75 62:0.3125 # 0
1 2:0.1875 3:0.9375 4:1 5:0.375 10:0.375 11:0.6875 12:0.6875 13:1 14:0.3125 20:0.4375 21:1 22:0.4375 28:0.8125 29:1 30:0.125 33:0.64285713 34:0.8125 35:0.8125 36:1 37:0.75 38:0.14285715 41:0.125 42:0.75 43:0.875 44:1 45:1 46:0.9375 51:0.9375 52:0.8125 58:0.1875 59:1 60:0.5 # 0
1 1:0.25 2:1 3:1 4:1 5:0.625 10:0.6875 11:0.5 12:0.75 13:1 14:0.125 20:0.875 21:0.8125 25:0.125 26:0.5625 27:0.75 28:1 29:0.25 33:0.78571427 34:1 35:1 36:1 37:1 38:0.5714286 42:0.625 43:0.875 44:0.0625 45:0.25 49:0.125 50:1 51:0.4375 57:0.2 58:0.9375 59:0.375 # 0
1 1:0.25 2:1 3:1 4:0.9375 5:0.1875 10:0.1875 11:0.1875 12:0.875 13:0.5 19:0.1875 20:1 21:0.125 27:0.625 28:0.875 33:0.21428572 34:1 35:1 36:1 37:1 38:0.5714286 42:0.6875 43:0.9375 44:0.25 45:0.25 46:0.0625 50:0.875 51:0.375 57:0.30000001 58:1 59:0.1875 # 0
-0.10930184691129940510734286363004 2:0.0625 3:0.8125 4:0.625 10:0.5625 11:1 12:0.6875 17:0.1875 18:1 19:0.6875 25:0.3125 26:1 27:0.6875 28:0.4375 29:0.0625 33:0.2857143 34:1 35:1 36:1 37:0.9375 38:0.21428572 41:0.1875 42:1 43:0.75 44:0.125 45:0.75 46:0.6875 50:0.75 51:0.875 52:0.3125 53:0.5625 54:0.9375 59:0.625 60:0.9375 61:1 62:0.6875 # 0
-0.10935967266387935925564534045407 2:0.125 3:0.5625 4:0.1875 9:0.33333334 10:0.875 11:0.5625 12:0.8125 13:0.5625 17:0.4375 18:0.875 20:0.625 21:0.625 26:0.5625 27:0.875 28:0.9375 29:0.375 34:0.4375 35:1 36:1 42:0.75 43:0.375 44:0.4375 45:0.75 46:0.0625 50:0.9375 51:0.3125 53:0.875 54:0.375 58:0.125 59:0.5 60:0.75 61:0.6875 62:0.1875 # 0
-0.10929755633455795482689154596301 2:0.375 3:0.75 4:0.5 5:0.25 9:0.06666667 10:0.875 11:0.3125 12:0.4375 13:1 14:0.0625 17:0.125 18:1 19:0.25 20:0.375 21:0.8125 26:0.5625 27:0.875 28:0.9375 29:0.125 34:0.4375 35:0.875 36:0.75 37:0.0625 42:0.9375 43:0.125 44:0.5625 45:0.6875 50:0.9375 51:0.4375 52:0.375 53:1 58:0.1875 59:0.5 60:0.5625 61:0.375 # 0
1 2:0.6875 3:1 4:0.9375 5:0.1875 10:0.125 11:0.25 12:1 13:0.4375 19:0.25 20:1 21:0.1875 25:0.125 26:0.25 27:0.625 28:0.875 29:0.25 30:0.125 33:0.64285713 34:1 35:1 36:1 37:1 38:0.5714286 42:0.4375 43:0.9375 44:0.125 50:0.625 51:0.5625 58:0.75 59:0.4375 # 0
1 1:0.125 2:0.5 3:1 4:1 5:0.6875 9:0.13333334 10:0.625 11:0.375 12:0.75 13:0.75 20:0.6875 21:0.6875 27:0.25 28:1 29:0.5 30:0.1875 33:0.21428572 34:0.9375 35:1 36:1 37:1 38:0.78571427 41:0.25 42:0.625 43:1 44:0.375 45:0.375 46:0.125 50:0.5625 51:0.8125 57:0.1 58:0.875 59:0.4375 # 0
1 2:0.625 3:1 4:1 5:0.5625 9:0.26666668 10:0.8125 11:0.3125 12:0.5625 13:0.75 19:0.0625 20:0.8125 21:0.3125 26:0.3125 27:0.8125 28:1 29:1 30:0.5625 34:0.6875 35:1 36:0.6875 37:0.6875 38:0.64285713 42:0.0625 43:0.8125 44:0.1875 50:0.5 51:0.625 58:0.6875 59:0.5 # 0
-0.10939319613182707513487912365235 1:0.125 2:0.5 3:0.9375 4:0.625 9:0.40000001 10:0.9375 11:0.8125 12:1 13:0.5 19:0.1875 20:0.875 21:0.75 26:0.25 27:0.9375 28:1 29:0.625 34:0.4375 35:0.75 36:0.8125 37:1 38:0.42857143 45:0.875 46:0.5 50:0.5 51:0.625 52:0.8125 53:1 54:0.1875 58:0.625 59:1 60:0.75 61:0.3125 # 0
-0.10929096172553676158401003704057 1:0.125 2:0.8125 3:0.75 9:0.46666667 10:1 11:1 12:0.5 17:0.5 18:0.625 19:0.25 20:0.875 25:0.125 26:0.375 27:0.125 28:0.9375 35:0.5625 36:0.625 42:0.3125 43:1 44:0.3125 49:0.125 50:1 51:1 52:1 53:1 54:0.6875 57:0.1 58:0.6875 59:0.6875 60:0.5 61:0.5625 62:0.5625 # 0
-0.11076671249665048790689070301596 2:0.5 3:0.75 4:0.5625 5:0.0625 9:0.2 10:1 11:1 12:1 13:0.625 17:0.1875 18:1 19:1 20:1 21:0.625 26:0.5 27:1 28:1 29:0.25 34:0.75 35:1 36:1 37:0.5 41:0.0625 42:0.9375 43:1 44:1 45:0.5625 50:0.8125 51:1 52:1 53:0.5625 58:0.375 59:0.5625 60:0.6875 61:0.1875 # 0
1 1:0.125 2:0.75 3:1 4:1 5:0.5 9:0.06666667 10:0.5 11:0.3125 12:0.5625 13:0.75 20:0.6875 21:0.5 26:0.3125 27:0.875 28:0.875 29:0.625 30:0.3125 34:0.1875 35:0.9375 36:0.875 37:0.75 38:0.35714287 42:0.125 43:1 44:0.1875 50:0.625 51:0.5625 58:0.8125 59:0.125 # 0
1 2:0.3125 3:0.8125 4:1 5:0.1875 9:0.06666667 10:0.9375 11:0.9375 12:1 13:0.5 17:0.3125 18:0.5 19:0.3125 20:1 21:0.6875 25:0.125 26:0.75 27:1 28:1 29:1 30:0.625 33:0.14285715 34:0.875 35:1 36:0.9375 37:0.625 38:0.35714287 42:0.0625 43:1 44:0.6875 50:0.3125 51:1 52:0.5 58:0.5 59:0.875 60:0.125 # 0
1 2:0.25 3:0.8125 4:0.875 5:0.0625 9:0.06666667 10:1 11:0.5625 12:1 13:0.1875 17:0.125 18:0.3125 20:0.75 21:0.375 26:0.1875 27:0.375 28:1 29:0.25 33:0.42857143 34:1 35:1 36:1 37:1 38:0.42857143 41:0.25 42:0.375 43:0.8125 44:0.75 45:0.25 46:0.125 51:0.875 52:0.25 58:0.3125 59:0.6875 # 0
-0.10935967266387935925564534045407 2:0.375 3:0.875 4:1 5:0.3125 9:0.2 10:1 11:0.8125 12:0.8125 13:0.75 17:0.0625 18:0.25 19:0.0625 20:0.75 21:0.75 26:0.25 27:0.875 28:1 29:0.375 34:0.375 35:0.875 36:1 37:0.9375 38:0.14285715 44:0.5 45:1 46:0.125 49:0.125 50:1 51:0.625 52:0.8125 53:0.9375 58:0.5625 59:0.875 60:0.5 61:0.125 # 0
-0.10935899014921002248001968837343 2:0.375 3:0.75 4:0.75 5:0.5 10:0.6875 11:1 12:1 13:1 18:0.5625 19:1 20:1 21:1 22:0.0625 26:0.75 27:1 28:1 29:0.9375 30:0.125 34:0.75 35:1 36:1 37:1 38:0.2857143 42:0.75 43:1 44:1 45:0.6875 46:0.0625 50:0.5 51:1 52:1 53:0.0625 57:0.1 58:0.6875 59:0.75 60:0.3125 # 0
-0.10946156268728479687979415757582 2:0.625 3:1 4:0.375 10:0.9375 11:0.875 12:1 18:0.875 19:0.25 20:1 27:0.125 28:0.9375 35:0.375 36:0.625 42:0.0625 43:0.875 44:0.375 49:0.0625 50:0.875 51:1 52:0.8125 53:0.75 54:0.375 58:0.5 59:0.5 60:0.5 61:0.6875 62:0.6875 # 0
1 2:0.375 3:0.875 4:0.8125 5:0.0625 9:0.13333334 10:0.9375 11:0.9375 12:1 13:0.4375 17:0.0625 18:0.3125 19:0.25 20:1 21:0.375 27:0.4375 28:1 29:0.625 30:0.1875 33:0.071428575 34:0.5625 35:1 36:1 37:1 38:0.71428573 41:0.0625 42:0.9375 43:1 44:0.8125 45:0.5 46:0.0625 50:0.125 51:1 52:0.5 58:0.5 59:0.8125 # 0
1 2:0.5 3:0.9375 4:0.9375 5:0.3125 9:0.26666668 10:1 11:0.8125 12:1 13:0.5625 17:0.0625 18:0.25 19:0.25 20:1 21:0.375 27:0.6875 28:1 29:0.3125 33:0.071428575 34:0.8125 35:1 36:1 37:0.9375 38:0.35714287 41:0.3125 42:0.8125 43:1 44:0.8125 45:0.75 46:0.3125 50:0.5625 51:1 52:0.1875 58:0.75 59:0.625 # 0
1 2:0.3125 3:0.8125 4:1 5:0.9375 6:0.1875 9:0.2 10:1 11:1 12:0.9375 13:1 14:0.3125 18:0.25 20:0.375 21:1 22:0.125 26:0.1875 27:0.75 28:1 29:1 30:0.25 34:0.5625 35:1 36:1 37:1 38:0.5714286 42:0.125 43:0.8125 44:0.9375 45:0.125 50:0.125 51:1 52:0.5625 58:0.3125 59:0.875 60:0.0625 # 0
-0.10946156268728479687979415757582 3:0.25 4:0.9375 10:0.0625 11:0.8125 12:0.6875 18:0.4375 19:1 20:0.4375 21:0.75 25:0.125 26:1 27:0.6875 28:0.625 29:1 30:0.125 33:0.42857143 34:1 35:1 36:1 37:1 38:0.21428572 42:0.25 43:0.25 44:0.9375 45:0.8125 46:0.0625 51:0.0625 52:1 53:0.4375 59:0.25 60:0.6875 61:0.0625 # 0
-0.10942806243685443412516633543419 2:0.125 3:1 4:0.9375 5:0.375 9:0.46666667 10:0.6875 11:0.9375 12:0.75 13:1 17:0.5625 18:1 19:0.625 20:0.625 21:1 22:0.0625 26:0.6875 27:1 28:1 29:0.375 34:0.9375 35:1 36:0.9375 37:0.125 42:0.875 43:0.3125 44:0.625 45:0.8125 46:0.0625 50:0.6875 51:0.6875 52:0.375 53:1 54:0.4375 58:0.1875 59:0.6875 60:1 61:0.75 62:0.1875 # 0
-0.10942806243685443412516633543419 3:0.25 4:0.9375 10:0.1875 11:0.9375 12:0.625 18:0.6875 19:0.9375 21:0.25 25:0.3125 26:1 27:0.5 28:0.25 29:1 30:0.1875 33:0.21428572 34:1 35:0.875 36:0.8125 37:1 38:0.14285715 42:0.25 43:0.375 44:0.9375 45:0.875 46:0.125 52:0.9375 53:0.375 59:0.125 60:0.9375 61:0.125 # 0
1 2:0.1875 3:0.625 4:0.8125 5:0.0625 9:0.13333334 10:0.9375 11:0.625 12:1 13:0.1875 17:0.125 18:0.25 19:0.0625 20:1 21:0.25 27:0.4375 28:1 34:0.4375 35:0.875 36:1 37:0.75 38:0.21428572 41:0.125 42:0.8125 43:0.9375 44:0.8125 45:0.5625 46:0.125 51:0.8125 52:0.5 58:0.0625 59:0.9375 60:0.1875 # 0
1 2:0.5 3:0.9375 4:1 5:0.1875 9:0.2 10:0.9375 11:0.875 12:1 13:0.3125 18:0.1875 19:0.375 20:1 21:0.125 26:0.1875 27:0.75 28:1 29:0.5 30:0.1875 33:0.071428575 34:0.875 35:1 36:1 37:1 38:0.71428573 42:0.5625 43:1 44:0.75 45:0.3125 50:0.5 51:1 52:0.25 58:0.6875 59:0.6875 # 0
1 2:0.4375 3:1 4:1 5:1 6:0.8125 10:0.375 11:0.5625 12:0.6875 13:0.9375 14:0.8125 20:0.125 21:1 22:0.3125 27:0.3125 28:0.8125 29:1 30:0.25 34:0.5625 35:1 36:1 37:1 38:0.5714286 42:0.1875 43:0.875 44:0.6875 50:0.1875 51:1 52:0.3125 58:0.4375 59:0.9375 # 0
-0.10946156268728479687979415757582 1:0.125 2:0.5625 3:0.8125 4:0.75 5:0.375 9:0.33333334 10:1 11:0.8125 12:0.5 13:0.625 14:0.125 17:0.25 18:0.875 19:0.0625 25:0.125 26:1 27:0.875 28:0.25 33:0.35714287 34:1 35:0.9375 36:1 37:0.25 43:0.0625 44:0.6875 45:1 46:0.1875 50:0.375 51:0.375 52:0.9375 53:0.9375 54:0.0625 58:0.4375 59:0.8125 60:0.625 61:0.1875 # 0
-0.10946163776642126030935742164729 2:0.5625 3:1 4:0.9375 5:0.3125 9:0.26666668 10:1 11:0.75 12:0.75 13:1 14:0.4375 17:0.3125 18:1 19:0.25 21:0.0625 22:0.0625 25:0.5 26:1 27:0.9375 28:0.6875 29:0.1875 33:0.2857143 34:0.875 35:0.75 36:0.875 37:0.9375 38:0.14285715 44:0.25 45:1 46:0.25 50:0.3125 51:0.5 52:0.9375 53:0.9375 54:0.125 58:0.6875 59:0.9375 60:0.5625 61:0.125 # 0
-0.10967133430845199537628786856658 1:0.125 2:0.9375 3:0.75 4:0.1875 9:0.06666667 10:0.75 11:1 12:0.9375 13:0.25 19:0.25 20:1 21:0.625 27:0.9375 28:1 29:0.3125 35:0.75 36:0.875 37:0.8125 38:0.071428575 45:0.5 46:0.75 50:0.4375 51:0.5 52:0.375 53:0.8125 54:0.8125 58:0.8125 59:1 60:1 61:0.8125 62:0.4375 # 0
1 2:0.375 3:0.6875 4:0.9375 5:1 6:0.75 10:0.375 11:0.5 12:0.3125 13:0.75 14:0.625 20:0.125 21:0.9375 22:0.125 26:0.4375 27:0.75 28:0.8125 29:0.9375 30:0.25 34:0.375 35:0.625 36:1 37:0.5625 38:0.2857143 43:0.8125 44:0.4375 50:0.3125 51:0.9375 52:0.125 58:0.625 59:0.625 # 0
1 2:0.125 3:0.6875 4:0.75 5:0.75 6:0.9375 7:0.5 10:0.3125 11:0.75 12:0.75 13:0.8125 14:0.9375 15:0.15384616 21:0.4375 22:0.625 27:0.25 28:0.75 29:1 30:0.5 34:0.0625 35:1 36:1 37:0.75 38:0.21428572 43:0.25 44:0.8125 45:0.0625 50:0.0625 51:0.75 52:0.375 58:0.125 59:0.875 60:0.0625 # 0
1 2:0.5625 3:0.9375 4:1 5:1 6:0.625 10:0.9375 11:0.6875 12:0.6875 13:1 14:0.25 20:0.75 21:0.6875 26:0.125 27:0.5 28:1 29:1 30:0.75 34:0.875 35:1 36:0.8125 37:0.5 38:0.14285715 42:0.3125 43:1 44:0.375 50:0.5 51:0.875 58:0.8125 59:0.5625 # 0
-0.11053304320435319851867461693473 1:0.375 2:0.875 3:0.875 4:0.25 9:0.53333336 10:0.9375 11:0.6875 12:1 13:0.375 17:0.0625 18:0.25 19:0.25 20:1 21:0.4375 26:0.3125 27:1 28:1 29:0.25 34:0.125 35:0.5625 36:0.9375 37:1 38:0.21428572 44:0.25 45:1 46:0.5 50:0.4375 51:0.25 52:0.6875 53:1 54:0.3125 57:0.2 58:0.875 59:1 60:0.875 61:0.4375 # 0
-0.11113365533509877991491521243006 2:0.25 3:0.875 4:0.9375 5:0.25 9:0.06666667 10:1 11:0.875 12:0.9375 13:0.8125 17:0.25 18:1 19:0.4375 20:0.25 21:1 22:0.1875 25:0.3125 26:1 27:0.1875 29:0.75 30:0.25 33:0.2857143 34:1 35:0.125 37:0.6875 38:0.5714286 41:0.125 42:1 43:0.375 44:0.0625 45:0.9375 46:0.25 50:0.75 51:0.8125 52:0.8125 53:0.875 54:0.0625 58:0.1875 59:1 60:0.9375 61:0.25 # 0
-0.11044016626391106594695656895055 2:0.375 3:0.875 4:0.5625 9:0.2 10:1 11:0.8125 12:1 13:0.375 17:0.125 18:1 19:0.1875 20:0.5625 21:0.8125 25:0.0625 26:1 27:0.0625 28:0.0625 29:0.9375 30:0.25 33:0.21428572 34:1 37:0.75 38:0.42857143 42:1 43:0.0625 45:0.8125 46:0.25 50:1 51:0.5 52:0.5 53:0.9375 54:0.0625 58:0.4375 59:0.9375 60:0.875 61:0.3125 # 0
1 1:0.125 2:0.5625 3:0.75 4:0.75 5:0.8125 6:1 7:0.25 9:0.06666667 10:0.6875 11:0.75 12:0.75 13:1 14:0.8125 15:0.07692308 20:0.4375 21:1 22:0.125 26:0.5 27:0.75 28:0.9375 29:0.8125 34:1 35:1 36:1 37:0.75 43:0.8125 44:0.625 50:0.4375 51:1 52:0.3125 58:0.75 59:0.9375 60:0.125 # 0
1 2:0.375 3:1 4:1 5:0.8125 6:0.4375 10:0.875 11:0.75 12:1 13:1 14:0.5625 20:0.3125 21:0.9375 22:0.0625 27:0.25 28:0.6875 29:0.875 30:0.375 34:0.1875 35:1 36:1 37:1 38:0.71428573 42:0.0625 43:0.75 44:0.8125 45:0.25 46:0.0625 50:0.1875 51:0.9375 52:0.3125 58:0.4375 59:0.9375 # 0
1 2:0.3125 3:0.5 4:0.5 5:0.625 6:0.8125 7:0.25 10:0.625 11:0.75 12:0.75 13:0.875 14:0.875 15:0.07692308 21:0.75 22:0.3125 26:0.125 27:0.25 28:0.4375 29:1 34:0.625 35:1 36:1 37:0.625 43:0.5 44:0.6875 51:1 52:0.4375 58:0.4375 59:1 60:0.1875 # 0
-0.11075789470397612301866274719941 2:0.25 3:0.875 4:0.6875 9:0.2 10:1 11:0.5625 12:0.9375 13:0.4375 17:0.5625 18:0.9375 20:0.25 21:0.875 22:0.125 25:0.5 26:0.8125 29:0.75 30:0.375 33:0.5714286 34:0.75 37:0.6875 38:0.5 41:0.375 42:0.875 43:0.0625 45:0.875 46:0.25 50:0.875 51:0.6875 52:0.5 53:1 54:0.0625 58:0.3125 59:1 60:0.875 61:0.375 # 0
-0.11076859144526363110117017640732 2:0.0625 3:0.5 4:0.375 10:0.875 11:1 12:1 13:1 18:1 19:1 20:1 21:1 26:1 27:1 28:1 29:1 34:1 35:1 36:1 37:0.9375 42:1 43:1 44:1 45:0.8125 50:0.5625 51:1 52:1 53:0.5625 58:0.375 59:0.5 60:0.375 61:0.0625 # 0
-0.1110890962015887994951413020317 1:0.25 2:0.625 3:0.9375 4:0.5 9:0.40000001 10:1 11:0.9375 12:1 13:0.5 17:0.5 18:1 19:0.3125 20:0.8125 21:1 25:0.25 26:1 27:0.75 28:1 29:1 30:0.3125 34:0.3125 35:0.6875 36:0.8125 37:1 38:0.5 44:0.0625 45:1 46:0.5 50:0.125 51:0.25 52:0.625 53:1 54:0.5 58:0.75 59:1 60:0.875 61:0.6875 # 0
1 2:0.625 3:1 4:1 5:1 6:0.6875 10:0.5625 11:0.6875 12:0.5 13:1 14:0.5625 20:0.3125 21:1 22:0.1875 26:0.125 27:0.6875 28:0.9375 29:1 30:0.6875 34:0.375 35:1 36:1 37:0.625 38:0.35714287 43:0.8125 44:0.6875 50:0.4375 51:1 52:0.1875 58:0.8125 59:0.6875 # 0
1 1:0.125 2:0.9375 3:1 4:1 5:1 6:0.9375 7:0.125 10:0.75 11:0.625 12:0.5625 13:1 14:0.875 15:0.15384616 20:0.5625 21:1 22:0.25 27:0.3125 28:0.9375 29:0.375 35:0.8125 36:0.75 42:0.5625 43:0.9375 44:0.125 49:0.0625 50:1 51:0.625 57:0.30000001 58:1 59:0.4375 # 0
1 1:0.125 2:0.625 3:0.875 4:1 5:1 6:0.9375 7:0.0625 9:0.06666667 10:0.75 11:0.6875 12:0.5 13:0.6875 14:0.9375 15:0.15384616 20:0.0625 21:0.875 22:0.5 28:0.6875 29:0.6875 30:0.0625 35:0.3125 36:1 37:0.125 42:0.0625 43:1 44:0.375 50:0.4375 51:0.875 52:0.0625 58:0.9375 59:0.6875 # 0
-0.10935899014921002248001968837343 1:0.25 2:0.9375 3:0.8125 4:0.125 9:0.40000001 10:1 11:0.875 12:0.9375 13:0.0625 17:0.4375 18:0.75 20:0.9375 21:0.5 25:0.25 26:0.4375 28:1 29:0.5 35:0.0625 36:1 37:0.1875 43:0.5625 44:0.9375 49:0.125 50:0.9375 51:1 52:1 53:0.875 54:0.3125 57:0.2 58:0.625 59:0.75 60:0.8125 61:1 62:0.5 # 0
-0.11076069115380726692876578454161 2:0.8125 3:0.875 4:0.25 9:0.26666668 10:1 11:0.8125 12:0.875 13:0.125 18:1 19:0.25 20:1 21:0.875 22:0.125 26:0.6875 27:0.875 28:1 29:0.875 35:0.5 36:0.6875 37:0.9375 44:0.25 45:1 46:0.125 50:0.375 51:0.375 52:0.4375 53:1 54:0.125 58:0.75 59:1 60:1 61:0.625 # 0
-0.11076069115380726692876578454161 1:0.125 2:0.75 3:1 4:0.9375 5:0.6875 6:0.1875 9:0.46666667 10:1 11:0.875 12:0.6875 13:0.5625 14:0.25 17:0.1875 18:1 19:0.5 20:0.125 25:0.3125 26:1 27:1 28:0.9375 29:0.1875 33:0.14285715 34:0.875 35:1 36:1 37:0.875 44:0.75 45:1 46:0.0625 49:0.125 50:0.75 51:0.75 52:1 53:1 57:0.1 58:0.875 59:1 60:0.625 61:0.1875 # 0
1 2:0.125 3:0.6875 4:1 5:1 6:1 7:0.75 10:0.4375 11:0.9375 12:0.5625 13:0.5 14:0.75 15:1 21:0.0625 22:0.875 23:0.83333331 29:0.6875 30:0.5625 36:0.375 37:0.8125 43:0.0625 44:0.875 45:0.1875 51:0.625 52:0.5625 58:0.0625 59:1 60:0.3125 # 0
1 2:0.625 3:0.8125 4:1 5:0.9375 6:0.25 11:0.375 12:0.5625 13:0.9375 14:0.75 21:1 22:0.5 28:0.5 29:1 30:0.125 33:0.071428575 34:0.25 35:0.5625 36:0.9375 37:0.75 41:0.625 42:1 43:1 44:0.9375 45:0.0625 49:0.1875 50:0.5625 51:1 52:0.375 58:0.625 59:0.8125 # 0
1 1:0.125 2:0.8125 3:1 4:1 5:1 6:0.75 7:0.0625 11:0.1875 12:0.25 13:0.75 14:1 15:0.15384616 20:0.25 21:1 22:0.4375 27:0.125 28:0.9375 29:0.75 33:0.071428575 34:0.5 35:0.8125 36:1 37:1 38:0.35714287 41:0.1875 42:0.9375 43:1 44:0.75 45:0.4375 50:0.8125 51:0.625 57:0.2 58:0.9375 59:0.4375 # 0
-0.11118732089637728410735917350394 2:0.5 3:0.75 4:0.1875 9:0.33333334 10:1 11:1 12:0.875 13:0.25 17:0.625 18:0.9375 19:0.125 20:0.875 21:1 22:0.125 25:0.1875 26:1 27:0.625 28:0.8125 29:1 30:0.4375 34:0.3125 35:0.5 36:0.625 37:1 38:0.5714286 45:0.75 46:0.75 50:0.625 51:0.4375 52:0.25 53:0.875 54:0.75 58:0.625 59:1 60:1 61:0.875 62:0.4375 # 0
-0.11115046276094164845460454671411 2:0.1875 3:0.5 4:0.375 5:0.0625 9:0.13333334 10:0.9375 11:1 12:1 13:0.75 18:0.8125 19:1 20:1 21:0.8125 26:0.625 27:1 28:1 29:1 34:0.75 35:1 36:1 37:1 42:0.875 43:1 44:1 45:1 46:0.125 50:0.75 51:1 52:1 53:0.9375 54:0.125 58:0.0625 59:0.375 60:0.375 # 0
-0.11123263425747609289828687906265 2:0.3125 3:0.875 4:0.75 5:0.0625 10:0.875 11:0.9375 12:1 13:0.625 17:0.25 18:0.8125 19:0.0625 20:0.1875 21:0.9375 25:0.3125 26:0.4375 29:0.6875 30:0.4375 33:0.2857143 34:0.8125 37:0.375 38:0.5714286 41:0.25 42:1 43:0.125 45:0.5625 46:0.5 50:0.8125 51:0.9375 52:0.625 53:1 54:0.1875 58:0.25 59:0.8125 60:1 61:0.6875 # 0
1 3:0.1875 4:0.625 5:0.625 9:0.53333336 10:0.875 11:1 12:0.875 13:0.9375 14:0.25 18:0.1875 19:0.0625 20:0.0625 21:0.9375 22:0.25 27:0.4375 28:0.875 29:1 30:0.375 34:0.5625 35:1 36:0.9375 37:0.625 42:0.125 43:0.125 44:0.875 45:0.25 51:0.4375 52:0.6875 59:0.5625 60:0.25 # 0
1 2:0.1875 3:0.9375 4:0.875 5:0.75 6:0.75 7:0.3125 11:0.5625 12:0.75 13:0.875 14:1 15:0.53846157 20:0.0625 21:0.8125 22:0.875 25:0.25 26:0.5625 27:0.625 28:0.6875 29:1 30:0.8125 33:0.21428572 34:0.75 35:0.875 36:1 37:0.875 38:0.35714287 43:0.5 44:1 45:0.25 50:0.0625 51:0.9375 52:0.5 58:0.25 59:0.9375 # 0
1 1:0.25 2:0.875 3:0.8125 4:1 5:0.8125 10:0.4375 11:0.5 12:0.875 13:0.875 20:0.8125 21:0.75 26:0.6875 27:0.8125 28:1 29:0.875 30:0.3125 34:0.5 35:1 36:1 37:0.75 38:0.35714287 42:0.1875 43:1 44:0.4375 50:0.6875 51:0.875 52:0.0625 57:0.2 58:1 59:0.5 # 0
-0.11118133777574823461975483951392 1:0.125 2:0.5625 3:0.8125 4:0.5625 5:0.125 9:0.40000001 10:1 11:0.625 12:1 13:0.4375 19:0.125 20:1 21:0.375 26:0.125 27:0.8125 28:0.875 34:0.125 35:0.8125 36:1 37:0.8125 44:0.25 45:0.9375 46:0.5 50:0.5 51:0.25 52:0.25 53:0.875 54:0.6875 57:0.1 58:0.875 59:1 60:1 61:0.75 62:0.0625 # 0
-0.11113958136697976719631242303876 2:0.5 3:0.8125 4:1 5:0.625 6:0.1875 9:0.33333334 10:1 11:0.625 12:0.5 13:0.625 14:0.375 17:0.375 18:0.75 25:0.375 26:0.9375 27:0.75 28:0.1875 33:0.2857143 34:0.75 35:0.875 36:1 37:0.0625 44:1 45:0.5 50:0.25 51:0.4375 52:1 53:0.4375 58:0.6875 59:0.875 60:0.625 # 0
-0.11113958136697954515170749800745 3:0.375 4:0.4375 10:0.125 11:0.9375 12:0.375 18:0.625 19:0.6875 20:0.0625 21:0.0625 25:0.25 26:1 27:0.3125 28:0.625 29:0.5625 33:0.5714286 34:1 35:1 36:1 37:0.9375 38:0.14285715 41:0.0625 42:0.25 43:0.4375 44:1 45:0.625 51:0.3125 52:1 53:0.0625 59:0.5625 60:0.6875 # 0
1 2:0.375 3:0.75 4:0.875 5:1 6:0.875 9:0.06666667 10:0.75 11:0.75 12:0.625 13:0.75 14:1 20:0.0625 21:0.6875 22:0.9375 27:0.5625 28:1 29:1 30:0.625 35:0.5625 36:1 37:0.6875 43:0.4375 44:0.9375 50:0.0625 51:1 52:0.3125 58:0.5 59:0.8125 # 0
1 2:0.3125 3:0.9375 4:1 5:0.4375 10:0.5 11:0.75 12:1 13:1 14:0.0625 18:0.125 19:0.4375 20:0.8125 21:0.9375 26:0.625 27:1 28:1 29:0.9375 30:0.5 34:0.125 35:0.9375 36:1 37:1 38:0.64285713 43:0.5 44:1 45:0.125 51:0.9375 52:0.5625 58:0.25 59:1 60:0.0625 # 0
1 2:0.25 3:0.8125 4:1 5:0.75 10:0.4375 11:0.5625 12:0.8125 13:0.9375 19:0.1875 20:0.6875 21:0.6875 26:0.4375 27:1 28:1 29:0.875 30:0.375 34:0.3125 35:0.8125 36:1 37:0.75 38:0.35714287 42:0.0625 43:0.6875 44:0.25 50:0.375 51:0.875 58:0.375 59:0.5625 # 0
-0.11012354259633505559889954383834 2:0.125 3:0.75 4:0.3125 9:0.06666667 10:0.8125 11:1 12:0.8125 13:0.125 17:0.1875 18:1 19:0.625 20:0.875 21:0.6875 25:0.4375 26:1 27:0.5 28:0.3125 29:1 30:0.25 33:0.5 34:1 35:0.5 36:0.0625 37:0.875 38:0.35714287 41:0.125 42:0.9375 43:0.5625 44:0.0625 45:0.9375 46:0.3125 50:0.6875 51:0.875 52:0.6875 53:0.9375 54:0.125 58:0.1875 59:1 60:0.9375 61:0.1875 # 0
-0.10939688603331132465967812095187 2:0.0625 3:0.5 4:0.75 5:0.4375 9:0.13333334 10:0.9375 11:0.5 12:0.3125 13:0.875 18:0.6875 19:0.3125 20:0.1875 21:0.9375 26:0.0625 27:0.875 28:1 29:0.75 34:0.3125 35:0.9375 36:0.9375 37:0.5625 41:0.0625 42:0.9375 43:0.375 44:0.0625 45:0.75 46:0.0625 50:0.75 51:0.6875 52:0.0625 53:0.75 54:0.3125 58:0.0625 59:0.5 60:0.5 61:0.5625 62:0.1875 # 0
-0.10940738587292764272262957092607 3:0.75 4:0.4375 10:0.4375 11:1 12:0.1875 17:0.125 18:0.9375 19:0.375 25:0.25 26:1 27:0.625 28:0.4375 33:0.35714287 34:1 35:1 36:1 37:0.75 41:0.375 42:1 43:0.5625 44:0.3125 45:1 46:0.1875 49:0.0625 50:0.875 51:0.9375 52:0.6875 53:1 54:0.1875 58:0.0625 59:0.625 60:1 61:0.4375 # 0
1 2:0.1875 3:0.75 4:0.875 5:1 6:0.875 10:0.0625 11:0.5 12:0.4375 13:0.625 14:0.875 19:0.3125 20:0.25 21:0.8125 22:0.5625 26:0.3125 27:1 28:1 29:1 30:0.625 34:0.1875 35:0.5 36:1 37:0.3125 43:0.6875 44:0.5625 50:0.1875 51:1 52:0.0625 58:0.4375 59:0.5625 # 0
1 2:0.5625 3:1 4:0.4375 10:1 11:1 12:0.875 18:0.1875 19:0.8125 20:1 26:0.4375 27:1 28:1 29:0.75 30:0.5 34:0.5 35:1 36:1 37:1 38:0.64285713 43:0.875 44:0.6875 50:0.25 51:1 52:0.3125 58:0.4375 59:0.75 # 0
1 2:0.5625 3:1 4:0.375 10:0.9375 11:0.625 12:0.9375 13:0.125 18:0.3125 19:0.125 20:1 21:0.125 26:0.125 27:0.4375 28:1 29:0.1875 33:0.5 34:1 35:1 36:1 37:1 38:0.5714286 41:0.0625 42:0.3125 43:0.875 44:0.375 46:0.0625 50:0.5625 51:0.75 58:0.625 59:0.5 # 0
-0.11091874142009727766122750836075 2:0.5625 3:1 4:0.5 5:0.0625 9:0.33333334 10:1 11:0.5625 12:0.875 13:0.6875 14:0.0625 17:0.625 18:0.625 20:0.5 21:1 22:0.25 25:0.25 26:1 27:0.9375 28:0.9375 29:1 30:0.5 34:0.25 35:0.5 36:0.4375 37:0.8125 38:0.5714286 45:0.5625 46:0.6875 50:0.6875 51:0.375 52:0.5625 53:1 54:0.4375 58:0.6875 59:0.8125 60:0.75 61:0.375 # 0
-0.11078066088570071023866603354691 3:0.6875 4:0.75 10:0.4375 11:1 12:0.6875 13:0.0625 17:0.125 18:1 19:0.75 25:0.125 26:1 27:0.4375 33:0.5714286 34:1 35:1 36:0.5 37:0.0625 41:0.25 42:1 43:0.8125 44:0.8125 45:0.875 46:0.1875 50:0.8125 51:0.875 52:0.4375 53:1 54:0.75 59:0.625 60:1 61:0.75 62:0.375 # 0
-0.11106769259435744778841126390034 2:0.4375 3:0.875 4:0.4375 10:0.9375 11:0.875 12:1 13:0.1875 18:0.9375 19:0.75 20:1 21:0.375 26:0.375 27:1 28:1 29:0.25 34:0.5 35:1 36:1 37:0.6875 42:0.9375 43:0.75 44:0.1875 45:1 46:0.5 49:0.125 50:0.9375 51:0.6875 52:0.5 53:1 54:0.625 58:0.5625 59:1 60:1 61:0.75 62:0.375 # 0
1 2:0.625 3:1 4:1 5:0.5625 9:0.13333334 10:0.9375 11:0.75 12:0.875 13:1 14:0.0625 17:0.0625 18:0.25 19:0.25 20:0.8125 21:1 22:0.3125 26:0.625 27:1 28:1 29:1 30:0.8125 34:0.3125 35:0.9375 36:1 37:0.375 38:0.071428575 43:1 44:0.6875 50:0.5625 51:1 52:0.1875 58:0.6875 59:0.75 # 0
1 1:0.25 2:0.9375 3:1 4:0.375 9:0.2 10:0.875 11:0.875 12:1 13:0.125 19:0.375 20:1 21:0.125 27:0.6875 28:1 29:0.0625 33:0.5714286 34:0.875 35:1 36:1 37:1 38:0.35714287 41:0.625 42:1 43:0.9375 44:0.6875 45:0.75 46:0.3125 49:0.3125 50:1 51:0.4375 57:0.5 58:0.875 59:0.0625 # 0
1 2:0.0625 3:0.5 4:0.9375 5:1 6:0.5625 9:0.06666667 10:0.75 11:0.9375 12:0.5625 13:0.8125 14:0.875 17:0.3125 18:0.8125 19:0.125 21:0.8125 22:0.6875 25:0.1875 26:0.3125 28:0.0625 29:0.9375 30:0.4375 35:0.125 36:0.625 37:1 38:0.64285713 43:0.875 44:1 45:0.6875 46:0.0625 51:0.8125 52:0.875 59:0.75 60:0.3125 # 0
-0.10963142562543315428058576799231 2:0.0625 3:0.875 4:0.8125 5:0.0625 10:0.75 11:1 12:1 13:0.75 17:0.0625 18:0.6875 19:0.875 20:0.6875 21:1 22:0.3125 25:0.1875 26:0.5 27:1 28:0.125 29:0.5 30:0.625 34:0.3125 35:0.875 37:0.5 38:0.5 42:0.4375 43:0.75 45:0.9375 46:0.1875 50:0.4375 51:0.875 52:0.6875 53:0.6875 58:0.125 59:1 60:0.8125 61:0.125 # 0
-0.1098604715038291601558739785105 1:0.375 2:0.75 3:1 4:0.9375 5:0.25 9:0.26666668 10:0.6875 11:0.5 12:0.875 13:0.6875 19:0.375 20:1 21:0.1875 26:0.1875 27:0.9375 28:0.9375 29:0.0625 34:0.0625 35:0.6875 36:0.9375 37:0.875 38:0.071428575 44:0.25 45:0.75 46:0.375 49:0.0625 50:0.5 51:0.75 52:0.9375 53:1 54:0.375 57:0.2 58:0.75 59:0.75 60:0.6875 61:0.4375 # 0
-0.1098604715038291601558739785105 2:0.125 3:0.375 4:0.5625 5:0.25 9:0.2 10:0.9375 11:0.3125 12:0.5 13:0.8125 17:0.25 18:0.9375 19:0.1875 20:0.3125 21:1 26:0.5625 27:0.8125 28:0.9375 29:0.4375 34:0.1875 35:1 36:0.75 42:0.5625 43:0.5625 44:0.8125 45:0.375 50:0.625 51:0.5 52:0.6875 53:1 54:0.0625 58:0.3125 59:0.75 60:0.75 61:0.4375 # 0
1 2:0.5 3:1 4:0.875 5:0.0625 10:0.375 11:0.625 12:1 13:0.5 20:0.875 21:0.4375 27:0.0625 28:1 29:0.5625 30:0.125 33:0.2857143 34:0.9375 35:1 36:1 37:1 38:0.71428573 41:0.0625 42:0.5 43:0.9375 44:0.6875 45:0.25 46:0.0625 50:0.4375 51:0.9375 52:0.0625 58:0.6875 59:0.6875 # 0
1 2:0.125 3:0.6875 4:0.9375 5:1 6:0.625 10:0.8125 11:0.875 12:0.625 13:0.9375 14:0.6875 18:0.6875 19:0.125 20:0.0625 21:1 22:0.1875 28:0.5 29:0.9375 30:0.125 35:0.6875 36:1 37:1 38:0.71428573 42:0.0625 43:1 44:0.8125 45:0.25 46:0.0625 51:0.875 52:0.375 58:0.125 59:1 60:0.125 # 0
1 2:0.625 3:1 4:1 5:0.9375 6:0.3125 10:0.3125 11:0.3125 12:0.4375 13:0.9375 14:0.625 20:0.0625 21:1 22:0.4375 26:0.375 27:0.75 28:0.8125 29:1 30:0.1875 34:0.4375 35:0.875 36:1 37:0.8125 38:0.5 43:0.8125 44:0.6875 50:0.375 51:1 52:0.125 58:0.8125 59:0.6875 # 0
-0.11072242202131743482595993555151 2:0.4375 3:0.9375 4:0.875 5:0.1875 10:0.5 11:0.6875 12:0.625 13:0.75 20:0.3125 21:0.8125 27:0.3125 28:0.9375 29:0.5625 35:0.3125 36:0.75 37:0.9375 38:0.42857143 45:0.5 46:0.75 50:0.5 51:0.0625 52:0.0625 53:0.75 54:0.75 58:0.5625 59:0.9375 60:1 61:0.8125 62:0.0625 # 0
-0.11106772320543201182374559721211 1:0.125 2:0.5 3:0.9375 4:1 5:0.75 6:0.1875 9:0.26666668 10:1 11:0.8125 12:0.3125 13:0.375 14:0.125 18:1 19:0.4375 20:0.0625 25:0.375 26:1 27:1 28:0.9375 29:0.5 33:0.071428575 34:0.75 35:0.5 36:0.75 37:1 38:0.35714287 44:0.3125 45:1 46:0.3125 50:0.1875 51:0.5 52:0.9375 53:0.75 58:0.5 59:0.875 60:0.5 # 0
-0.1093340571357284130016296330723 2:0.25 3:0.9375 4:0.375 10:0.8125 11:0.8125 12:1 17:0.25 18:0.9375 19:0.0625 20:1 21:0.125 27:0.125 28:1 35:0.5 36:0.75 41:0.0625 42:0.75 43:1 44:0.375 45:0.25 49:0.4375 50:1 51:1 52:1 53:1 54:0.375 58:0.125 60:0.25 61:0.5 62:0.1875 # 0
1 2:0.4375 3:1 4:1 5:1 6:0.3125 10:0.1875 11:0.375 12:0.25 13:0.8125 14:0.875 21:0.6875 22:0.75 28:0.1875 29:0.9375 30:0.1875 34:0.4375 35:1 36:1 37:1 38:0.64285713 42:0.125 43:0.625 44:0.875 45:0.25 46:0.0625 50:0.125 51:1 52:0.375 58:0.5625 59:0.875 # 0
1 2:0.6875 3:1 4:0.9375 5:0.1875 10:0.375 11:0.5 12:0.875 13:0.75 20:0.4375 21:0.625 27:0.1875 28:0.8125 29:0.5625 30:0.3125 34:0.25 35:1 36:1 37:0.9375 38:0.5714286 42:0.0625 43:0.875 44:0.6875 45:0.125 50:0.0625 51:1 52:0.125 58:0.5 59:0.75 # 0
1 2:0.125 3:0.9375 4:1 5:1 6:0.625 10:0.0625 11:0.375 12:0.25 13:0.6875 14:0.8125 21:0.5625 22:0.5 27:0.25 28:0.5 29:0.9375 30:0.1875 34:0.1875 35:1 36:1 37:1 38:0.64285713 43:0.1875 44:0.875 51:0.8125 52:0.1875 58:0.25 59:0.75 # 0
-0.1093616644285532180091990994697 3:0.5 4:0.75 5:0.0625 10:0.5 11:1 12:0.875 13:0.5 17:0.375 18:1 19:0.125 20:0.125 21:1 25:0.5 26:1 27:0.125 29:0.625 30:0.375 33:0.2857143 34:1 35:0.1875 37:0.5 38:0.5714286 42:0.625 43:0.5625 45:0.5 46:0.5 50:0.25 51:1 52:0.75 53:1 54:0.125 59:0.4375 60:0.8125 61:0.5 # 0
-0.1093616644285532180091990994697 2:0.625 3:0.75 4:0.8125 5:0.5625 6:0.25 9:0.13333334 10:1 11:0.6875 12:0.5 13:0.3125 14:0.1875 17:0.1875 18:1 19:0.0625 25:0.4375 26:1 27:1 28:0.9375 29:0.1875 33:0.42857143 34:0.75 35:0.5625 36:0.875 37:0.9375 38:0.071428575 44:0.375 45:1 46:0.125 50:0.25 51:0.25 52:0.8125 53:0.9375 54:0.0625 58:0.8125 59:0.9375 60:0.5625 61:0.125 # 0
-0.10941899903458851550652752848691 2:0.8125 3:0.9375 4:0.1875 9:0.13333334 10:1 11:0.6875 12:0.9375 13:0.25 17:0.25 18:1 19:0.125 20:1 21:1 25:0.125 26:0.8125 27:1 28:1 29:1 30:0.125 35:0.25 36:0.3125 37:0.9375 38:0.14285715 45:0.75 46:0.4375 50:0.125 51:0.25 52:0.25 53:0.6875 54:0.75 58:0.6875 59:1 60:1 61:0.9375 62:0.625 # 0
1 2:0.0625 3:0.75 4:1 5:1 6:0.75 11:0.4375 12:0.25 13:0.6875 14:0.8125 21:0.5 22:0.6875 27:0.0625 28:0.25 29:0.75 30:0.5 35:0.75 36:1 37:1 38:0.5714286 43:0.1875 44:0.75 45:0.375 51:0.375 52:0.875 59:0.9375 60:0.3125 # 0
1 2:0.5 3:1 4:1 5:1 6:0.75 7:0.1875 10:0.125 11:0.125 13:0.3125 14:1 15:0.61538464 21:0.3125 22:0.9375 23:0.16666667 28:0.0625 29:0.8125 30:0.5 33:0.071428575 34:0.5 35:0.5 36:0.625 37:1 38:0.071428575 41:0.1875 42:0.75 43:0.9375 44:1 45:0.6875 46:0.1875 50:0.125 51:0.9375 52:0.4375 58:0.6875 59:0.6875 # 0
1 2:0.1875 3:0.875 4:1 5:1 6:0.4375 10:0.6875 11:0.5625 12:0.25 13:0.75 14:0.9375 21:0.5 22:0.875 29:0.75 30:0.5625 34:0.3125 35:0.6875 36:0.75 37:1 38:0.35714287 42:0.6875 43:1 44:1 45:0.75 46:0.1875 51:0.5625 52:0.8125 53:0.0625 58:0.1875 59:1 60:0.125 # 0
-0.10941899903458840448422506597126 2:0.75 3:1 4:0.375 9:0.40000001 10:1 11:0.6875 12:0.9375 13:0.3125 17:0.5 18:1 20:0.6875 21:0.9375 22:0.0625 25:0.5 26:0.875 28:0.125 29:1 30:0.3125 33:0.5714286 34:0.875 37:0.75 38:0.5 41:0.3125 42:1 43:0.125 44:0.0625 45:1 46:0.25 49:0.1875 50:0.9375 51:0.625 52:0.6875 53:0.875 54:0.125 58:0.375 59:0.75 60:0.625 61:0.0625 # 0
-0.10934231876583888620757534226868 2:0.6875 3:1 4:0.75 5:0.0625 10:1 11:0.75 12:1 13:0.75 18:0.1875 19:0.125 20:0.75 21:0.75 26:0.3125 27:1 28:1 29:0.375 34:0.25 35:0.75 36:1 37:0.9375 38:0.14285715 44:0.3125 45:0.9375 46:0.4375 49:0.0625 50:0.6875 51:0.75 52:0.75 53:1 54:0.4375 57:0.2 58:0.75 59:0.9375 60:0.75 61:0.3125 62:0.0625 # 0
-0.1098604715038291601558739785105 2:0.1875 3:0.6875 4:0.4375 9:0.26666668 10:1 11:1 12:1 17:0.25 18:1 19:1 20:1 25:0.25 26:1 27:1 28:0.625 33:0.071428575 34:0.875 35:1 36:1 42:0.75 43:1 44:1 45:0.375 50:0.6875 51:1 52:1 53:0.6875 58:0.125 59:0.6875 60:0.75 61:0.375 # 0
1 2:0.875 3:1 4:0.6875 5:0.0625 9:0.06666667 10:0.75 11:1 12:1 13:0.375 19:0.25 20:1 21:0.4375 26:0.0625 27:0.625 28:1 29:0.8125 30:0.125 34:0.3125 35:1 36:1 37:1 38:0.5714286 42:0.0625 43:1 44:0.5625 45:0.0625 50:0.5625 51:1 52:0.0625 58:0.8125 59:0.75 # 0
1 2:0.375 3:0.9375 4:1 5:0.9375 6:0.125 10:0.25 11:0.375 12:0.375 13:0.9375 14:0.4375 21:1 22:0.1875 26:0.125 27:0.5 28:0.625 29:1 30:0.25 34:0.4375 35:0.75 36:1 37:0.8125 38:0.35714287 43:0.3125 44:0.875 50:0.0625 51:0.9375 52:0.3125 58:0.5 59:0.75 # 0
1 2:0.125 3:0.5 4:0.6875 5:1 6:1 7:0.875 10:0.625 11:0.9375 12:0.625 13:0.6875 14:1 15:0.53846157 21:0.8125 22:0.5625 26:0.25 27:0.5 28:0.6875 29:1 30:0.25 34:0.8125 35:1 36:1 37:0.6875 38:0.35714287 43:0.25 44:1 45:0.0625 51:0.75 52:0.6875 59:0.9375 60:0.3125 # 0
-0.10942806243685443412516633543419 2:0.375 3:1 4:0.3125 9:0.40000001 10:1 11:1 12:1 13:0.4375 17:0.6875 18:0.9375 19:0.125 20:1 21:0.875 25:0.5625 26:1 27:0.625 28:1 29:1 30:0.4375 33:0.14285715 34:0.8125 35:1 36:1 37:1 38:0.5714286 45:0.8125 46:0.75 50:0.1875 51:0.5 52:0.75 53:1 54:0.4375 58:0.3125 59:1 60:0.75 61:0.3125 # 0
0.99999999999999988897769753748435 2:0.1875 3:0.625 4:0.8125 5:1 6:0.4375 10:0.625 11:0.625 12:0.5 13:0.75 14:0.8125 21:0.625 22:0.625 25:0.3125 26:0.75 27:0.75 28:0.75 29:0.9375 30:0.5 33:0.35714287 34:0.75 35:0.75 36:0.9375 37:0.6875 38:0.071428575 43:0.3125 44:0.9375 45:0.1875 51:0.6875 52:0.5625 58:0.1875 59:1 60:0.125 # 0
-0.1097824043101217617035558760108 2:0.375 3:0.6875 4:0.875 5:0.1875 9:0.13333334 10:1 11:0.75 12:0.6875 13:1 17:0.25 18:1 19:0.5625 20:0.4375 21:0.9375 26:0.875 27:0.9375 28:1 29:0.75 34:0.625 35:1 36:1 37:0.1875 41:0.0625 42:1 43:0.375 44:0.6875 45:0.9375 46:0.0625 49:0.1875 50:1 51:0.1875 52:0.4375 53:1 54:0.1875 58:0.4375 59:0.875 60:1 61:0.75 62:0.0625 # 0
-0.10942806243685443412516633543419 1:0.25 2:0.75 3:1 4:1 5:0.625 6:0.125 9:0.46666667 10:1 11:0.5 12:0.375 13:0.5 14:0.125 17:0.375 18:0.9375 25:0.375 26:1 27:0.8125 28:0.5 33:0.42857143 34:0.9375 35:0.75 36:1 37:0.375 44:0.6875 45:0.8125 50:0.25 51:0.375 52:1 53:0.75 57:0.2 58:0.9375 59:0.875 60:0.5625 # 0
1 2:0.375 3:0.75 4:1 5:1 6:0.8125 10:0.8125 11:0.75 12:0.5 13:0.875 14:1 15:0.15384616 18:0.0625 19:0.3125 20:0.4375 21:0.9375 22:0.6875 26:0.8125 27:1 28:1 29:1 30:0.6875 34:0.1875 35:0.5625 36:1 37:0.1875 43:0.6875 44:0.8125 50:0.3125 51:1 52:0.4375 58:0.5625 59:0.9375 60:0.125 # 0
1 2:0.1875 3:0.6875 4:1 5:0.9375 6:0.3125 10:0.625 11:0.375 12:0.25 13:0.75 14:0.625 21:0.75 22:0.5 25:0.25 26:0.75 27:0.625 28:0.75 29:1 30:0.1875 33:0.14285715 34:0.5 35:0.3125 36:1 37:0.5625 43:0.375 44:0.6875 51:0.8125 52:0.375 59:0.9375 60:0.0625 # 0
-0.10981115532017182712110070497147 2:0.125 3:0.875 4:0.0625 10:0.6875 11:0.8125 17:0.125 18:1 19:0.0625 25:0.25 26:1 27:0.0625 28:0.1875 33:0.5714286 34:0.75 35:0.75 36:1 37:0.8125 41:0.25 42:1 43:0.5625 44:0.25 45:0.8125 46:0.375 50:0.8125 51:0.75 52:0.5 53:0.75 54:0.6875 58:0.125 59:0.625 60:0.8125 61:0.875 62:0.25 # 0
-0.10986393861042642594583185200463 2:0.0625 3:0.75 4:0.875 5:0.0625 10:0.5 11:0.9375 12:0.4375 17:0.0625 18:0.875 19:0.4375 25:0.0625 26:1 27:1 28:1 29:0.625 30:0.125 33:0.071428575 34:1 35:0.9375 36:0.3125 37:0.6875 38:0.71428573 41:0.0625 42:1 43:0.25 45:0.5 46:0.8125 50:0.6875 51:0.6875 52:0.5625 53:1 54:0.5 58:0.125 59:0.6875 60:0.9375 61:0.3125 # 0
-0.10993810313383389765107267521671 1:0.125 2:0.625 3:1 4:0.75 5:0.0625 9:0.46666667 10:1 11:0.625 12:0.8125 13:0.3125 17:0.0625 18:0.375 20:0.5625 21:0.5 27:0.4375 28:0.9375 29:0.625 35:0.375 36:0.75 37:0.875 38:0.5 45:0.125 46:0.875 50:0.4375 51:0.375 52:0.25 53:0.5625 54:0.875 58:0.4375 59:0.9375 60:1 61:0.8125 62:0.4375 # 0
1 2:0.5625 3:0.75 4:0.875 5:1 6:0.5 9:0.06666667 10:0.75 11:0.75 12:0.625 13:0.875 14:0.6875 20:0.1875 21:1 22:0.125 25:0.0625 26:0.625 27:0.5 28:0.75 29:1 30:0.4375 33:0.14285715 34:1 35:1 36:1 37:1 38:0.71428573 42:0.125 43:0.875 44:0.625 45:0.3125 46:0.0625 50:0.375 51:1 52:0.125 58:0.6875 59:0.6875 # 0
1 2:0.625 3:1 4:1 5:0.5625 9:0.06666667 10:0.375 11:0.25 12:0.3125 13:0.9375 14:0.25 20:0.1875 21:0.9375 22:0.125 25:0.0625 26:0.25 28:0.75 29:0.5 33:0.21428572 34:1 35:1 36:1 37:1 38:0.5714286 42:0.125 43:0.8125 44:0.4375 50:0.4375 51:0.75 58:0.75 59:0.375 # 0
1 2:0.25 3:0.625 4:0.75 5:0.9375 6:1 7:0.3125 10:0.9375 11:0.875 12:0.75 13:0.8125 14:1 15:0.53846157 18:0.1875 21:0.5 22:0.9375 23:0.33333334 26:0.0625 27:0.5 28:0.5 29:0.875 30:0.5625 34:0.3125 35:1 36:1 37:1 38:0.2857143 43:0.4375 44:1 45:0.25 51:0.75 52:0.875 58:0.1875 59:1 60:0.3125 # 0
-0.10936704061227309203729873843258 2:0.5 3:0.9375 4:0.625 5:0.0625 10:0.9375 11:0.8125 12:0.9375 13:0.625 18:1 19:0.125 21:0.875 22:0.0625 26:0.875 27:0.3125 28:0.4375 29:1 30:0.125 34:0.4375 35:0.75 36:0.6875 37:0.9375 38:0.21428572 45:0.8125 46:0.25 50:0.375 51:0.375 52:0.5625 53:1 54:0.125 58:0.4375 59:0.8125 60:0.875 61:0.1875 # 0
-0.10946535040985116982170666233287 2:0.0625 3:1 4:0.9375 5:0.3125 10:0.5625 11:1 12:1 13:0.75 17:0.125 18:1 19:1 20:1 21:0.4375 26:0.75 27:1 28:1 29:0.125 34:0.5 35:1 36:1 37:0.3125 42:0.9375 43:1 44:1 45:0.6875 50:0.9375 51:1 52:1 53:1 54:0.5 58:0.125 59:0.625 60:0.9375 61:0.6875 62:0.25 # 0
-0.10933826971063120847560412585153 2:0.125 3:1 4:0.625 5:0.0625 10:0.5 11:0.9375 12:0.8125 13:0.4375 18:0.1875 19:0.5625 20:0.25 21:0.8125 28:0.375 29:0.8125 36:0.75 37:0.5 43:0.25 44:1 45:0.1875 50:0.125 51:0.9375 52:0.875 53:0.5 54:0.875 55:0.5 58:0.125 59:0.9375 60:1 61:1 62:0.75 63:0.46666667 # 0
1 2:0.4375 3:1 4:1 5:0.8125 10:0.8125 11:0.6875 12:0.6875 13:1 14:0.25 20:0.3125 21:1 22:0.1875 28:0.5625 29:0.9375 33:0.071428575 34:0.625 35:1 36:1 37:0.9375 38:0.21428572 41:0.1875 42:0.75 43:1 44:0.9375 45:0.75 46:0.25 50:0.1875 51:1 52:0.4375 58:0.6875 59:0.8125 # 0
1 2:0.375 3:0.9375 4:1 5:1 6:0.5625 9:0.13333334 10:1 11:0.6875 12:0.5 13:0.9375 14:0.75 18:0.125 21:0.875 22:0.6875 26:0.1875 27:0.5 28:0.5 29:1 30:0.4375 33:0.21428572 34:1 35:1 36:1 37:1 38:0.71428573 42:0.375 43:0.375 44:0.9375 45:0.25 51:0.9375 52:0.4375 58:0.5 59:0.75 # 0
1 2:0.375 3:1 4:1 5:0.9375 6:0.3125 10:0.5 11:0.375 12:0.4375 13:1 14:0.6875 20:0.1875 21:1 22:0.5625 28:0.5625 29:0.9375 33:0.071428575 34:0.5 35:0.5 36:0.9375 37:0.875 38:0.21428572 41:0.1875 42:1 43:1 44:1 45:1 46:0.25 50:0.1875 51:1 52:0.5 58:0.5 59:0.9375 60:0.125 # 0
-0.10933826971063120847560412585153 2:0.0625 3:0.75 4:0.8125 5:0.125 10:0.75 11:1 12:0.625 13:0.125 17:0.125 18:1 19:0.4375 25:0.0625 26:1 27:0.75 28:0.5 29:0.125 33:0.14285715 34:1 35:0.8125 36:0.8125 37:0.875 38:0.14285715 42:0.8125 43:0.4375 45:0.75 46:0.75 50:0.5625 51:0.8125 52:0.375 53:0.9375 54:0.8125 58:0.0625 59:0.6875 60:0.9375 61:0.875 62:0.375 # 0
-0.11032450050007103214966264204122 2:0.25 3:0.5625 4:0.5625 9:0.06666667 10:1 11:0.9375 12:0.75 13:0.625 17:0.1875 18:1 19:0.3125 25:0.375 26:1 27:1 28:0.4375 33:0.21428572 34:1 35:0.9375 36:1 37:0.0625 42:0.0625 44:0.75 45:0.3125 50:0.8125 51:0.625 52:1 53:0.375 58:0.5 59:1 60:0.5625 # 0
-0.11067855270692472657856342266314 2:0.75 3:0.875 4:0.5 5:0.1875 9:0.2 10:1 11:0.9375 12:1 13:1 14:0.1875 18:0.875 19:0.75 20:0.875 21:0.8125 22:0.0625 26:0.4375 27:1 28:1 29:0.1875 34:0.75 35:1 36:1 37:0.125 41:0.0625 42:0.9375 43:0.25 44:0.5625 45:0.875 49:0.1875 50:0.9375 51:0.25 52:0.3125 53:1 54:0.0625 57:0.1 58:0.75 59:1 60:1 61:0.75 # 0
1 2:0.375 3:0.9375 4:1 5:0.8125 6:0.0625 10:0.75 11:0.75 12:0.875 13:1 14:0.0625 20:0.8125 21:0.875 26:0.25 27:0.25 28:1 29:0.8125 30:0.125 33:0.5714286 34:1 35:1 36:1 37:1 38:0.71428573 41:0.3125 42:0.5 43:0.9375 44:0.875 45:0.25 46:0.0625 50:0.1875 51:1 52:0.5 58:0.4375 59:1 # 0
1 2:0.5625 3:0.9375 4:1 5:0.8125 10:0.625 11:0.3125 12:0.8125 13:0.875 20:0.75 21:0.75 27:0.125 28:1 29:0.375 33:0.071428575 34:0.75 35:1 36:1 37:0.8125 38:0.5 41:0.3125 42:0.875 43:1 44:0.75 45:0.5 46:0.1875 50:0.3125 51:1 52:0.125 58:0.6875 59:0.75 # 0
1 2:0.1875 3:0.75 4:1 5:0.875 6:0.1875 10:0.4375 11:0.625 12:0.6875 13:1 14:0.625 21:1 22:0.75 27:0.125 28:0.4375 29:1 30:0.6875 33:0.21428572 34:0.625 35:1 36:1 37:1 38:0.42857143 41:0.625 42:0.75 43:0.625 44:1 45:0.625 50:0.0625 51:0.9375 52:0.9375 58:0.3125 59:0.9375 60:0.3125 # 0
-0.10935899014921002248001968837343 2:0.125 3:0.5625 4:1 5:0.375 9:0.06666667 10:0.9375 11:1 12:0.6875 13:0.3125 17:0.125 18:1 19:0.4375 25:0.3125 26:1 28:0.1875 33:0.2857143 34:1 35:1 36:1 37:0.875 38:0.21428572 41:0.125 42:1 43:0.375 44:0.0625 45:0.625 46:0.625 50:0.625 51:0.75 52:0.5 53:0.9375 54:0.625 58:0.0625 59:0.6875 60:1 61:0.75 62:0.25 # 0
-0.11047416849434044117117537098238 2:0.6875 3:0.75 4:0.125 9:0.2 10:1 11:0.75 12:0.4375 17:0.125 18:0.875 19:0.1875 20:0.625 27:0.3125 28:0.5 35:0.6875 36:0.3125 42:0.1875 43:1 44:0.0625 50:0.6875 51:0.875 52:0.5625 53:0.9375 54:0.9375 58:0.5 59:0.8125 60:0.75 61:0.5 62:0.625 63:0.13333334 # 0
-0.10934009329715288494355718285078 2:0.125 3:1 4:0.6875 9:0.06666667 10:0.6875 11:1 12:1 13:0.4375 17:0.625 18:1 19:1 20:1 21:0.5625 25:0.125 26:0.5625 27:0.9375 28:1 29:0.6875 35:0.75 36:1 37:0.5 42:0.25 43:1 44:1 45:0.3125 50:0.625 51:1 52:1 53:0.9375 54:0.25 58:0.1875 59:0.9375 60:1 61:0.75 # 0
1 2:0.4375 3:1 4:0.9375 5:0.375 10:0.125 11:0.5625 12:0.9375 13:0.875 20:0.8125 21:0.75 27:0.1875 28:1 29:0.875 30:0.5 34:0.5625 35:1 36:1 37:1 38:0.64285713 42:0.3125 43:0.875 44:0.875 45:0.125 50:0.125 51:0.9375 52:0.375 58:0.5625 59:0.9375 # 0
1 2:0.4375 3:0.75 4:0.9375 5:0.3125 10:0.625 11:0.5 12:0.8125 13:0.75 20:0.75 21:0.625 27:0.3125 28:1 29:0.875 30:0.4375 33:0.21428572 34:1 35:1 36:0.9375 37:0.5625 38:0.14285715 42:0.25 43:0.8125 44:0.625 50:0.3125 51:0.875 52:0.0625 58:0.8125 59:0.375 # 0
1 2:0.375 3:0.75 4:0.8125 5:1 6:0.875 7:0.0625 10:0.375 11:0.5 12:0.375 13:0.625 14:0.9375 15:0.07692308 21:0.625 22:0.75 28:0.3125 29:1 30:0.125 34:0.0625 35:0.875 36:1 37:0.875 38:0.21428572 42:0.125 43:0.8125 44:0.8125 45:0.0625 50:0.125 51:1 52:0.375 58:0.5625 59:0.75 # 0
-0.11120756480197313553759386195452 2:0.5625 3:1 4:1 5:0.4375 10:0.8125 11:0.9375 12:0.8125 13:0.6875 17:0.0625 18:0.9375 19:0.6875 20:0.0625 25:0.125 26:1 27:1 28:0.9375 29:0.1875 34:0.4375 35:0.75 36:0.75 37:0.625 44:0.5625 45:0.875 50:0.25 51:0.5 52:0.9375 53:0.9375 58:0.625 59:1 60:1 61:0.4375 # 0
-0.11034539836616619190579058340518 2:0.3125 3:0.4375 4:0.8125 5:0.4375 9:0.46666667 10:1 11:1 12:0.625 13:0.9375 17:0.3125 18:0.9375 19:0.3125 20:0.375 21:0.6875 25:0.0625 26:0.5625 27:0.9375 28:0.9375 29:0.25 34:0.3125 35:1 36:1 37:0.1875 42:0.875 43:0.4375 44:0.8125 45:0.5 50:0.9375 51:0.6875 52:0.8125 53:0.6875 58:0.3125 59:0.75 60:0.75 61:0.25 # 0
-0.11034539836616619190579058340518 2:0.25 3:0.9375 4:0.5625 5:0.0625 10:0.6875 11:1 12:1 13:0.5625 18:0.0625 19:0.625 20:1 21:0.6875 27:0.5 28:1 29:0.75 35:0.6875 36:1 37:0.625 42:0.0625 43:1 44:1 45:0.4375 50:0.3125 51:1 52:1 53:0.75 58:0.3125 59:1 60:0.875 61:0.375 # 0
1 2:0.3125 3:0.9375 4:1 5:1 6:0.5625 10:0.25 11:0.375 12:0.3125 13:0.5 14:1 15:0.15384616 21:0.5625 22:0.75 27:0.375 28:0.75 29:1 30:0.6875 35:0.75 36:1 37:0.5625 43:0.3125 44:0.8125 45:0.0625 50:0.1875 51:0.875 52:0.3125 58:0.375 59:0.5625 # 0
1 2:0.3125 3:0.6875 4:1 5:0.8125 6:0.375 10:0.3125 11:0.5 12:0.5 13:0.875 14:0.9375 21:0.75 22:0.9375 26:0.125 27:0.5 28:0.75 29:1 30:0.6875 34:0.5 35:1 36:1 37:1 38:0.2857143 43:0.5 44:1 45:0.375 50:0.375 51:0.8125 52:0.9375 58:0.375 59:0.875 60:0.3125 # 0
1 3:0.375 4:0.6875 5:0.875 6:0.1875 10:0.5625 11:0.8125 12:0.5 13:0.9375 14:0.75 21:0.625 22:0.6875 29:0.8125 30:0.5625 34:0.25 35:0.6875 36:0.8125 37:1 38:0.2857143 42:0.1875 43:0.5 44:0.875 45:0.75 51:0.1875 52:1 53:0.1875 59:0.5625 60:0.875 # 0
-0.10940450157658854202225029439433 2:0.1875 3:0.8125 4:0.875 5:0.0625 10:0.5 11:0.9375 12:0.4375 13:0.125 18:0.625 19:0.75 20:0.125 26:0.8125 27:1 28:1 29:0.625 30:0.0625 34:0.9375 35:0.875 36:0.6875 37:0.625 38:0.71428573 42:0.8125 43:0.3125 45:0.375 46:0.875 50:0.5 51:0.75 52:0.5 53:0.75 54:0.625 58:0.0625 59:0.625 60:0.75 61:0.75 62:0.25 # 0
-0.10940450157658854202225029439433 3:0.625 4:0.8125 5:0.1875 10:0.4375 11:1 12:0.75 13:0.375 18:0.75 19:0.8125 20:0.0625 26:1 27:1 28:1 29:0.625 33:0.14285715 34:1 35:0.9375 36:0.0625 37:0.75 38:0.5714286 42:1 43:0.25 45:0.375 46:0.9375 50:0.6875 51:0.875 52:0.5 53:0.9375 54:0.875 55:0.1 58:0.125 59:0.6875 60:1 61:0.6875 62:0.125 # 0
-0.11075830685022280963636376327486 2:0.625 3:0.8125 4:0.6875 5:0.625 10:0.75 11:1 12:1 13:1 18:0.8125 19:0.6875 21:0.125 26:0.875 27:1 28:0.8125 29:0.0625 34:0.3125 35:0.625 36:0.875 37:0.5625 44:0.625 45:0.8125 50:0.875 51:1 52:1 53:0.6875 58:0.625 59:1 60:0.8125 61:0.0625 # 0
1 2:0.1875 3:0.75 4:1 5:1 6:1 7:0.75 10:0.5625 11:0.75 12:0.5 13:0.5 14:1 15:0.84615386 18:0.0625 20:0.0625 21:0.5 22:1 23:1 26:0.0625 27:0.75 28:1 29:1 30:0.875 31:0.5 35:0.75 36:0.9375 37:0.875 38:0.21428572 43:0.25 44:1 45:0.375 51:0.9375 52:0.8125 58:0.3125 59:1 60:0.1875 # 0
1 2:0.25 3:0.8125 4:1 5:0.4375 10:0.6875 11:0.5625 12:0.9375 13:0.6875 20:0.75 21:0.5625 27:0.25 28:1 29:0.1875 34:0.75 35:1 36:1 37:1 38:0.35714287 42:0.375 43:0.875 44:1 45:0.9375 46:0.125 50:0.0625 51:1 52:0.1875 58:0.375 59:0.875 60:0.125 # 0
1 2:0.125 3:0.875 4:1 5:0.875 6:0.125 11:0.6875 12:0.8125 13:1 14:0.1875 20:0.625 21:0.875 26:0.125 27:0.5 28:0.875 29:0.75 30:0.125 34:0.625 35:1 36:1 37:1 38:0.64285713 42:0.375 43:1 44:0.875 45:0.75 46:0.125 50:0.1875 51:0.9375 52:0.6875 58:0.375 59:0.9375 60:0.1875 # 0
-0.11077404613730512661362581638969 2:0.1875 3:0.875 4:0.1875 9:0.2 10:0.9375 11:1 12:0.9375 13:0.0625 17:0.375 18:0.9375 19:0.3125 20:0.5 21:0.6875 25:0.4375 26:0.625 29:0.75 30:0.3125 33:0.2857143 34:0.6875 37:0.375 38:0.71428573 41:0.125 42:0.875 45:0.375 46:0.75 50:0.75 51:0.5625 52:0.3125 53:0.8125 54:0.5 58:0.125 59:0.9375 60:1 61:0.8125 62:0.125 # 0
-0.10939688603331132465967812095187 2:0.5 3:0.75 4:0.8125 5:0.125 9:0.46666667 10:1 11:0.625 12:0.625 13:0.9375 14:0.125 17:0.625 18:0.6875 20:0.0625 21:1 22:0.25 25:0.375 26:0.9375 27:0.75 28:1 29:1 30:0.4375 34:0.3125 35:0.5 36:0.25 37:0.75 38:0.5714286 45:0.75 46:0.75 50:0.6875 51:0.625 52:0.75 53:1 54:0.5 58:0.5625 59:0.75 60:0.9375 61:0.5625 62:0.0625 # 0
-0.11073020275397715828091804723954 2:0.3125 3:0.8125 4:0.75 5:0.125 10:0.875 11:0.75 12:0.75 13:0.8125 18:0.6875 19:0.25 20:0.125 21:0.9375 26:0.5 27:0.5 28:0.25 29:1 30:0.0625 34:0.125 35:0.875 36:1 37:1 38:0.42857143 45:0.4375 46:0.625 50:0.5 51:0.5625 52:0.5 53:0.9375 54:0.625 58:0.25 59:1 60:1 61:0.8125 62:0.125 # 0
1 2:0.25 3:0.875 4:1 5:0.9375 6:0.0625 10:0.375 11:0.5625 12:0.875 13:1 20:0.875 21:0.75 22:0.125 26:0.375 27:0.8125 28:1 29:1 30:0.75 34:0.375 35:0.9375 36:0.9375 37:0.6875 38:0.35714287 42:0.0625 43:0.9375 44:0.5625 50:0.125 51:1 52:0.4375 58:0.4375 59:0.875 60:0.125 # 0
1 3:0.3125 4:0.875 5:1 6:1 7:0.0625 10:0.5 11:0.875 12:0.5 13:0.8125 14:1 15:0.07692308 18:0.0625 21:0.6875 22:0.75 27:0.125 28:0.25 29:0.875 30:0.5 33:0.14285715 34:0.6875 35:1 36:1 37:1 38:0.5714286 41:0.4375 42:0.625 43:0.3125 44:0.6875 45:0.625 51:0.0625 52:0.9375 53:0.1875 59:0.5 60:0.75 # 0
1 3:0.625 4:1 5:0.9375 6:0.1875 10:0.375 11:0.8125 12:0.625 13:1 14:0.125 18:0.1875 19:0.0625 20:0.125 21:0.875 28:0.5 29:0.5 34:0.0625 35:0.5 36:0.875 37:0.9375 38:0.5714286 41:0.0625 42:0.9375 43:1 44:0.8125 45:0.1875 50:0.125 51:0.5625 52:0.4375 59:0.875 60:0.0625 # 0
-0.11073020275397715828091804723954 3:0.9375 4:0.75 5:0.1875 11:1 12:1 13:0.5 18:0.5625 19:1 20:1 21:0.5625 27:0.625 28:1 29:0.8125 35:0.25 36:1 37:1 38:0.14285715 42:0.0625 43:0.5 44:1 45:1 46:0.625 50:0.5 51:1 52:1 53:1 54:1 55:0.5 58:0.0625 59:0.5625 60:0.75 61:0.875 62:0.75 63:0.26666668 # 0
-0.1103246590371785851303343406471 1:0.125 2:0.75 3:0.8125 4:0.5625 5:0.3125 9:0.33333334 10:1 11:0.6875 12:0.9375 13:1 17:0.25 18:1 19:0.3125 20:0.5 21:1 22:0.25 25:0.125 26:0.8125 27:1 28:1 29:1 30:0.3125 35:0.1875 36:0.25 37:0.9375 38:0.42857143 44:0.0625 45:0.9375 46:0.375 50:0.6875 51:0.5625 52:0.75 53:1 54:0.125 58:0.6875 59:1 60:0.875 61:0.5 # 0
-0.11107138733308763445251088342047 3:0.4375 4:0.5 11:0.875 12:0.25 13:0.3125 18:0.125 19:0.875 20:0.25 21:0.75 26:0.5625 27:0.4375 28:0.4375 29:0.5625 33:0.071428575 34:1 35:0.125 36:0.625 37:0.75 38:0.21428572 41:0.625 42:1 43:1 44:1 45:1 46:0.1875 49:0.25 50:0.5 51:0.5 52:0.9375 53:0.25 59:0.4375 60:0.6875 # 0
1 2:0.1875 3:0.9375 4:0.9375 5:0.75 6:0.75 7:0.25 10:0.5625 11:0.625 12:0.125 13:0.5625 14:0.9375 15:0.15384616 18:0.4375 19:0.125 20:0.125 21:0.875 22:0.125 26:0.1875 27:0.25 28:0.6875 29:0.625 34:0.8125 35:1 36:1 37:1 38:0.35714287 43:0.625 44:0.5625 50:0.125 51:1 52:0.1875 58:0.4375 59:0.8125 # 0
1 2:0.25 3:0.625 4:0.75 5:0.75 6:0.6875 7:0.0625 10:0.5 11:0.625 12:0.6875 13:1 14:0.625 19:0.125 20:0.4375 21:0.9375 22:0.0625 26:0.3125 27:1 28:1 29:0.9375 30:0.3125 34:0.1875 35:0.6875 36:0.8125 37:0.5 38:0.2857143 42:0.0625 43:0.875 44:0.1875 50:0.375 51:0.875 58:0.5625 59:0.4375 # 0
1 2:0.1875 3:0.8125 4:0.625 5:0.5 6:0.5625 7:0.125 10:0.625 11:0.6875 12:0.5 13:0.6875 14:0.9375 18:0.8125 19:0.1875 20:0.0625 21:0.75 22:0.375 26:0.3125 27:0.1875 28:0.4375 29:0.875 34:0.5625 35:1 36:1 37:1 38:0.35714287 43:0.4375 44:0.6875 45:0.0625 51:0.875 52:0.375 58:0.25 59:0.9375 60:0.125 # 0
-0.10993556673340054707921353838174 2:0.25 3:1 4:0.875 5:0.125 10:1 11:0.6875 12:0.6875 13:0.625 17:0.0625 18:0.25 19:0.0625 20:0.6875 21:0.625 26:0.0625 27:0.6875 28:1 29:0.375 34:0.375 35:1 36:0.875 37:0.8125 38:0.14285715 42:0.0625 43:0.125 44:0.0625 45:0.625 46:0.6875 50:0.4375 51:0.6875 52:0.375 53:0.8125 54:0.875 58:0.1875 59:0.75 60:1 61:0.9375 62:0.4375 # 0
-0.10946163776642126030935742164729 2:0.5625 3:0.6875 4:0.5 5:0.3125 9:0.13333334 10:1 11:0.875 12:1 13:0.9375 17:0.375 18:1 19:0.6875 20:0.125 25:0.5 26:1 27:1 28:0.8125 29:0.125 33:0.071428575 34:0.1875 36:0.75 37:0.5625 44:0.5625 45:0.75 50:0.3125 51:0.5 52:1 53:0.375 58:0.5 59:0.9375 60:0.625 # 0
-0.10946156268728479687979415757582 2:0.25 3:0.875 4:0.625 10:0.875 11:0.9375 12:0.9375 13:0.375 17:0.0625 18:1 19:0.3125 20:0.3125 21:0.6875 26:0.3125 27:0.25 28:0.375 29:0.8125 36:0.875 37:0.375 43:0.1875 44:1 45:0.125 50:0.1875 51:0.9375 52:1 53:0.75 54:1 55:0.30000001 58:0.25 59:1 60:0.75 61:0.75 62:0.75 63:0.33333334 # 0
1 2:0.3125 3:0.875 4:1 5:1 6:0.875 10:0.875 11:0.875 12:0.75 13:0.9375 14:0.8125 18:0.5625 19:0.125 20:0.3125 21:1 22:0.3125 26:0.0625 27:0.5625 28:0.9375 29:1 30:0.4375 34:0.1875 35:1 36:1 37:1 38:0.64285713 43:0.625 44:0.875 45:0.25 51:0.9375 52:0.4375 58:0.3125 59:0.9375 60:0.125 # 0
1 2:0.3125 3:0.9375 4:0.875 5:0.75 6:0.5625 10:0.125 11:0.25 12:0.25 13:0.5625 14:0.9375 20:0.0625 21:0.8125 22:0.375 26:0.1875 27:0.6875 28:0.75 29:1 30:0.0625 34:0.3125 35:0.8125 36:1 37:1 38:0.2857143 43:0.625 44:0.75 45:0.125 50:0.25 51:0.9375 52:0.25 58:0.5 59:0.5625 # 0
1 1:0.75 2:1 3:1 4:1 5:0.75 10:0.4375 11:0.5625 12:0.9375 13:0.8125 19:0.25 20:1 21:0.3125 25:0.375 26:0.75 27:0.875 28:1 29:0.5625 30:0.3125 33:0.5714286 34:0.8125 35:1 36:0.6875 37:0.6875 38:0.35714287 42:0.5 43:0.875 49:0.125 50:1 51:0.375 57:0.5 58:1 59:0.0625 # 0
-0.10934009329715288494355718285078 2:0.375 3:0.9375 4:1 5:0.375 9:0.33333334 10:0.9375 11:1 12:1 13:0.6875 17:0.5 18:1 19:1 20:1 21:0.5625 26:0.25 27:1 28:1 29:0.375 34:0.125 35:1 36:1 42:0.5 43:1 44:1 45:0.125 50:0.6875 51:1 52:1 53:0.8125 54:0.125 58:0.3125 59:0.8125 60:0.6875 61:0.5 62:0.125 # 0
-0.11047416849434055219347783349804 2:0.3125 3:0.1875 4:0.625 5:0.625 9:0.26666668 10:1 11:0.8125 12:0.875 13:0.8125 17:0.25 18:0.875 20:0.5 21:0.5 25:0.0625 26:0.8125 27:0.8125 28:0.9375 35:0.875 36:1 37:0.0625 42:0.8125 43:0.8125 44:0.5 45:0.3125 49:0.0625 50:0.8125 51:0.625 52:0.5 53:0.625 58:0.125 59:0.8125 60:1 61:0.375 # 0
-0.11053304320435319851867461693473 2:0.3125 3:0.625 4:0.75 5:0.4375 9:0.06666667 10:0.875 11:1 12:1 13:1 17:0.6875 18:1 19:0.25 20:0.4375 21:0.9375 25:0.3125 26:0.75 28:0.6875 29:0.875 35:0.3125 36:1 37:0.5625 42:0.125 43:0.875 44:0.8125 45:0.3125 46:0.0625 50:0.625 51:1 52:1 53:1 54:0.9375 58:0.4375 59:0.75 60:0.75 61:0.5625 62:0.75 63:0.06666667 # 0
1 2:0.9375 3:1 4:1 5:1 6:0.75 10:0.25 11:0.5 12:0.6875 13:1 14:0.5625 20:0.6875 21:0.8125 25:0.125 26:0.25 27:0.1875 28:1 29:0.25 33:0.71428573 34:1 35:1 36:1 37:1 38:0.2857143 41:0.0625 42:0.5 43:1 44:0.5625 45:0.4375 50:0.5 51:0.8125 58:0.9375 59:0.375 # 0
1 1:0.375 2:1 3:1 4:1 5:1 6:0.1875 10:0.4375 11:0.5 12:0.75 13:0.875 14:0.0625 19:0.0625 20:0.9375 21:0.25 25:0.0625 26:0.5 27:0.6875 28:0.9375 29:0.5 30:0.5 33:0.71428573 34:1 35:1 36:1 37:0.75 38:0.35714287 42:0.3125 43:0.9375 44:0.0625 50:0.8125 51:0.4375 57:0.30000001 58:0.9375 59:0.0625 # 0
1 2:0.625 3:1 4:1 5:1 6:1 7:0.375 10:0.25 11:0.5625 12:0.5 13:0.6875 14:0.9375 15:0.15384616 20:0.0625 21:0.875 22:0.375 27:0.25 28:0.5 29:0.9375 30:0.375 34:0.5 35:1 36:1 37:0.6875 38:0.35714287 42:0.1875 43:0.875 44:0.6875 50:0.25 51:1 52:0.0625 58:0.75 59:0.375 # 0
-0.10939688603331132465967812095187 2:0.5625 3:0.875 4:0.5625 5:0.125 9:0.13333334 10:1 11:0.625 12:0.875 13:0.5 17:0.125 18:1 19:0.125 20:0.375 21:1 22:0.0625 26:0.875 27:0.5625 28:0.6875 29:1 30:0.3125 34:0.125 35:0.6875 36:0.6875 37:0.875 38:0.64285713 45:0.8125 46:0.6875 50:0.3125 51:0.5625 52:0.6875 53:1 54:0.375 58:0.4375 59:0.8125 60:0.75 61:0.5 # 0
-0.10939688603331132465967812095187 2:0.6875 3:1 4:0.875 5:0.4375 6:0.0625 9:0.46666667 10:0.9375 11:0.4375 12:0.8125 13:1 14:0.25 17:0.625 18:0.75 20:0.3125 21:1 22:0.375 25:0.1875 26:1 27:0.75 28:0.9375 29:1 30:0.5 34:0.125 35:0.25 36:0.4375 37:1 38:0.42857143 44:0.1875 45:1 46:0.25 50:0.4375 51:0.625 52:0.625 53:0.9375 54:0.125 58:0.6875 59:1 60:0.875 61:0.375 # 0
-0.11076671249663971874355183899752 2:0.3125 3:0.9375 4:0.75 5:0.1875 10:0.5625 11:0.75 12:0.625 13:0.1875 18:0.875 19:0.375 26:0.9375 27:1 28:1 29:0.1875 34:0.4375 35:0.5 36:0.625 37:0.625 44:0.3125 45:0.8125 50:0.25 51:0.75 52:1 53:0.6875 58:0.375 59:1 60:0.6875 61:0.125 # 0
1 2:0.25 3:1 4:1 5:1 6:1 7:1 10:0.1875 11:0.5 12:0.5 13:0.5 14:0.9375 15:0.69230771 21:0.375 22:0.875 23:0.16666667 28:0.0625 29:0.9375 30:0.1875 34:0.1875 35:0.9375 36:1 37:0.8125 42:0.125 43:0.6875 44:0.9375 45:0.75 46:0.125 50:0.125 51:0.875 52:0.375 58:0.5 59:0.75 # 0
1 2:0.375 3:1 4:1 5:1 6:1 7:0.75 10:0.25 11:0.5625 12:0.5 13:0.5 14:1 15:0.53846157 21:0.6875 22:0.8125 27:0.125 28:0.375 29:1 30:0.1875 34:0.5625 35:1 36:1 37:1 38:0.5714286 42:0.1875 43:0.5625 44:0.9375 45:0.125 51:0.9375 52:0.5 58:0.5 59:1 # 0
1 2:0.25 3:0.9375 4:1 5:1 6:1 7:0.9375 10:0.125 11:0.5 12:0.5 13:0.3125 14:0.8125 15:0.69230771 21:0.3125 22:0.9375 23:0.33333334 28:0.1875 29:0.875 30:0.5 34:0.125 35:0.9375 36:1 37:1 38:0.5714286 42:0.1875 43:0.5625 44:1 45:0.25 51:0.6875 52:0.8125 58:0.3125 59:0.9375 60:0.1875 # 0
-0.10929860947014835570456625646329 2:0.3125 3:0.75 4:0.6875 5:0.125 9:0.06666667 10:0.875 11:0.9375 12:0.8125 13:0.875 17:0.125 18:0.9375 19:0.25 20:0.375 21:1 27:0.125 28:0.8125 29:0.75 35:0.6875 36:1 37:0.8125 38:0.14285715 43:0.0625 44:0.3125 45:0.75 46:0.75 50:0.5 51:0.6875 52:0.5 53:0.875 54:0.75 58:0.4375 59:1 60:0.75 61:0.75 62:0.1875 # 0
-0.10940450157658854202225029439433 3:0.6875 4:0.9375 5:0.3125 10:0.5 11:1 12:0.8125 13:0.375 18:0.6875 19:0.875 26:0.9375 27:0.9375 28:0.75 29:0.5 34:1 35:0.875 36:0.75 37:0.9375 38:0.64285713 42:1 43:0.375 45:0.6875 46:0.875 50:0.625 51:0.875 52:0.5625 53:1 54:0.6875 58:0.0625 59:0.6875 60:0.8125 61:0.75 62:0.0625 # 0
-0.10939688603331132465967812095187 2:0.6875 3:0.75 4:1 5:0.625 6:0.0625 9:0.33333334 10:1 11:0.9375 12:0.4375 13:0.9375 14:0.25 17:0.3125 18:1 19:0.375 20:0.5 21:0.9375 22:0.0625 26:0.4375 27:1 28:1 29:0.625 34:0.375 35:1 36:1 37:0.4375 42:0.875 43:0.625 44:0.625 45:0.75 49:0.25 50:1 51:0.5625 52:0.75 53:0.875 57:0.1 58:0.6875 59:1 60:0.9375 61:0.3125 # 0
1 2:0.4375 3:1 4:1 5:1 6:0.75 10:0.25 11:0.5625 12:0.5 13:1 14:0.375 20:0.375 21:0.75 27:0.25 28:0.8125 29:0.5625 34:0.5 35:1 36:1 37:1 38:0.64285713 42:0.3125 43:1 44:0.5 45:0.25 46:0.0625 50:0.1875 51:0.8125 52:0.0625 58:0.625 59:0.5 # 0
1 2:0.1875 3:0.75 4:0.9375 5:0.6875 10:0.875 11:0.9375 12:0.9375 13:1 14:0.0625 18:0.1875 19:0.125 20:0.875 21:1 22:0.75 23:0.16666667 27:0.8125 28:1 29:0.875 30:0.5625 35:0.125 36:0.875 37:0.5 43:0.125 44:1 45:0.3125 51:0.8125 52:0.8125 58:0.1875 59:1 60:0.1875 # 0
1 2:0.1875 3:0.875 4:1 5:0.6875 9:0.13333334 10:0.9375 11:0.8125 12:0.875 13:0.8125 18:0.25 20:0.5 21:0.875 22:0.3125 26:0.3125 27:0.8125 28:1 29:1 30:0.875 34:0.75 35:0.9375 36:1 37:0.5625 38:0.14285715 42:0.0625 43:0.5625 44:0.8125 51:1 52:0.375 58:0.25 59:0.8125 # 0
-0.1103237635104908909156051777245 2:0.125 3:0.8125 4:1 5:0.375 10:0.6875 11:1 12:0.6875 13:0.3125 18:0.9375 19:0.375 25:0.25 26:1 27:0.25 28:0.625 29:0.125 33:0.21428572 34:0.875 35:0.9375 36:1 37:0.875 38:0.071428575 41:0.1875 42:1 43:0.5 45:0.875 46:0.5625 50:0.8125 51:0.5 52:0.3125 53:1 54:0.3125 58:0.25 59:0.8125 60:1 61:0.625 # 0
-0.10935899014921002248001968837343 3:0.3125 4:0.25 5:0.0625 11:0.875 12:0.5 13:0.75 18:0.25 19:0.8125 20:0.25 21:0.75 26:0.75 27:0.3125 28:0.4375 29:0.5625 33:0.14285715 34:1 35:0.25 36:0.8125 37:1 38:0.5 41:0.625 42:1 43:1 44:1 45:0.6875 46:0.0625 49:0.3125 50:0.375 51:0.4375 52:0.9375 59:0.4375 60:0.4375 # 0
-0.11051075816446243038626562338322 3:0.6875 4:0.5 11:0.8125 12:0.4375 18:0.1875 19:1 20:0.375 21:0.9375 26:0.5625 27:0.6875 28:0.4375 29:0.875 33:0.071428575 34:0.9375 35:0.375 36:0.75 37:0.8125 38:0.071428575 41:0.4375 42:1 43:1 44:1 45:1 46:0.6875 49:0.3125 50:0.75 51:0.8125 52:1 53:0.5 54:0.1875 59:0.75 60:0.75 # 0
1 2:0.3125 3:0.5625 4:0.75 5:0.9375 6:0.5625 10:0.8125 11:1 12:1 13:1 14:0.5625 18:0.1875 19:0.1875 20:0.3125 21:1 22:0.1875 27:0.1875 28:0.75 29:1 30:0.625 34:0.125 35:1 36:1 37:0.8125 38:0.35714287 42:0.1875 43:0.9375 44:0.8125 50:0.1875 51:1 52:0.3125 58:0.4375 59:0.6875 # 0
1 2:0.5 3:0.75 4:1 5:1 6:0.3125 10:0.5625 11:1 12:1 13:1 14:0.0625 19:0.0625 20:0.8125 21:0.625 26:0.1875 27:0.4375 28:1 29:0.8125 30:0.5 33:0.14285715 34:1 35:1 36:1 37:0.75 38:0.5 42:0.375 43:1 44:0.25 50:0.6875 51:1 58:0.6875 59:0.8125 # 0
1 3:0.5 4:0.5 5:0.5 6:0.8125 7:0.5 10:0.375 11:0.9375 12:0.8125 13:0.875 14:0.9375 15:0.07692308 18:0.8125 19:0.375 21:0.75 22:0.3125 26:0.875 27:0.3125 28:0.3125 29:0.625 34:0.0625 35:0.625 36:1 37:0.875 38:0.14285715 43:0.75 44:0.75 45:0.375 46:0.0625 51:0.875 52:0.25 59:0.75 60:0.0625 # 0
-0.10928285875708643182235846325057 2:0.3125 3:0.75 4:0.5 5:0.125 10:0.75 11:0.375 12:0.5 13:0.8125 17:0.125 18:0.625 21:0.75 22:0.125 26:0.875 27:0.75 28:0.75 29:0.625 34:0.0625 35:0.9375 36:1 37:0.4375 42:0.875 43:0.5 45:0.5625 46:0.0625 50:0.875 51:0.125 52:0.0625 53:0.75 54:0.125 58:0.5 59:0.75 60:0.75 61:0.375 # 0
-0.11033146119464687373579181439709 2:0.25 3:0.6875 4:0.25 10:0.75 11:0.9375 12:1 13:0.875 17:0.25 18:0.9375 20:0.3125 21:0.75 22:0.375 25:0.375 26:0.625 29:0.4375 30:0.5 33:0.5 34:0.5 37:0.5 38:0.5714286 41:0.375 42:0.8125 44:0.0625 45:0.8125 46:0.1875 49:0.125 50:1 51:0.625 52:0.75 53:0.8125 58:0.375 59:0.8125 60:0.75 61:0.0625 # 0
-0.11047413883697387859683658462018 2:0.1875 3:1 4:0.6875 10:0.3125 11:1 12:1 17:0.0625 18:0.6875 19:1 20:0.9375 25:0.1875 26:0.9375 27:1 28:0.9375 34:0.125 35:1 36:0.875 43:0.9375 44:1 50:0.0625 51:1 52:1 53:0.125 58:0.0625 59:0.6875 60:0.875 61:0.3125 # 0
1 1:0.5 2:0.5625 3:0.6875 4:0.8125 5:1 6:0.4375 9:0.60000002 10:1 11:0.8125 12:0.875 13:1 14:0.0625 20:0.8125 21:0.625 25:0.3125 26:0.75 27:0.8125 28:1 29:0.9375 30:0.5 33:0.35714287 34:0.75 35:1 36:0.8125 37:0.375 38:0.14285715 42:0.3125 43:1 44:0.1875 50:0.75 51:0.8125 57:0.30000001 58:1 59:0.25 # 0
1 2:0.75 3:0.75 4:1 5:1 6:0.5625 10:0.5 11:0.375 12:0.25 13:0.8125 14:0.5 19:0.25 20:0.5 21:1 22:0.375 25:0.1875 26:1 27:1 28:1 29:0.6875 30:0.25 34:0.1875 35:0.5625 36:0.5625 42:0.1875 43:0.875 50:0.6875 51:0.4375 58:0.875 59:0.1875 # 0
1 2:0.4375 3:0.875 4:0.8125 5:0.8125 6:0.5 10:0.5625 11:0.75 12:0.875 13:1 14:0.8125 20:0.5625 21:1 22:0.1875 26:0.125 27:0.625 28:1 29:0.9375 30:0.4375 33:0.071428575 34:0.875 35:1 36:1 37:0.8125 38:0.5 42:0.1875 43:1 44:0.8125 50:0.3125 51:1 52:0.4375 58:0.5625 59:0.8125 60:0.125 # 0
-0.10942989627085319970234422726207 2:0.1875 3:0.875 4:0.4375 5:0.0625 10:0.6875 11:0.9375 12:1 13:0.75 18:0.875 19:0.5 21:0.8125 22:0.25 25:0.0625 26:1 27:0.125 29:0.75 30:0.375 33:0.071428575 34:1 35:0.125 37:0.8125 38:0.5 41:0.125 42:1 44:0.25 45:1 46:0.0625 50:0.8125 51:0.625 52:0.9375 53:0.8125 58:0.375 59:0.9375 60:0.75 61:0.375 # 0
-0.11095923746866431791602281009546 2:0.5625 3:0.8125 4:0.25 9:0.06666667 10:1 11:0.5625 12:0.6875 17:0.125 18:0.6875 20:0.8125 26:0.125 27:0.1875 28:0.8125 35:0.6875 36:0.3125 42:0.1875 43:0.875 44:0.0625 50:0.6875 51:0.875 52:0.625 53:0.5 54:0.6875 58:0.6875 59:0.8125 60:0.75 61:0.75 62:0.875 63:0.13333334 # 0
-0.10929755633455795482689154596301 2:0.4375 3:0.6875 4:0.8125 5:0.4375 9:0.06666667 10:0.9375 11:0.9375 12:0.8125 13:0.9375 14:0.125 17:0.25 18:1 19:0.25 20:0.3125 21:0.875 22:0.25 26:0.625 27:1 28:1 29:0.8125 30:0.125 34:0.4375 35:0.9375 36:1 37:0.1875 41:0.0625 42:1 43:0.5625 44:0.5 45:0.9375 49:0.1875 50:0.9375 51:0.375 52:0.5625 53:1 58:0.375 59:1 60:0.9375 61:0.375 # 0
1 2:0.375 3:1 4:1 5:0.875 6:0.25 10:0.25 11:0.4375 12:0.5 13:1 14:0.4375 20:0.25 21:1 22:0.3125 26:0.5625 27:1 28:1 29:1 30:0.1875 34:0.875 35:0.9375 36:1 37:0.625 38:0.2857143 42:0.0625 43:0.875 44:0.625 50:0.3125 51:1 52:0.375 58:0.4375 59:0.9375 60:0.125 # 0
1 2:0.25 3:0.75 4:0.9375 5:1 6:1 7:0.125 10:0.1875 11:0.375 12:0.25 13:0.8125 14:0.9375 15:0.07692308 20:0.125 21:0.9375 22:0.375 27:0.0625 28:0.75 29:0.8125 33:0.2857143 34:1 35:1 36:1 37:0.75 38:0.2857143 41:0.0625 42:0.1875 43:0.75 44:0.875 50:0.1875 51:1 52:0.375 58:0.3125 59:0.9375 60:0.125 # 0
1 2:0.1875 3:0.875 4:0.75 5:0.9375 6:0.6875 10:0.125 11:0.5 12:0.5 13:0.9375 14:0.875 21:0.9375 22:0.3125 26:0.125 27:0.25 28:0.5625 29:1 30:0.0625 33:0.2857143 34:0.9375 35:1 36:1 37:1 38:0.42857143 41:0.125 42:0.25 43:0.6875 44:0.8125 45:0.0625 50:0.0625 51:1 52:0.4375 58:0.25 59:0.875 60:0.125 # 0
-0.10938796608022705036944444145774 2:0.25 3:0.875 4:0.9375 5:0.5 6:0.0625 10:0.875 11:0.875 12:0.75 13:0.9375 14:0.4375 17:0.1875 18:0.9375 19:0.0625 21:0.5625 22:0.4375 25:0.375 26:0.75 29:0.5 30:0.5 33:0.5714286 34:0.6875 37:0.5625 38:0.5714286 41:0.5 42:0.75 45:0.875 46:0.3125 49:0.1875 50:1 51:0.5625 52:0.875 53:0.6875 58:0.375 59:0.875 60:0.6875 # 0
-0.10929399910763049064144070143811 2:0.0625 3:0.4375 4:0.75 5:0.3125 10:0.25 11:1 12:0.5625 13:0.375 18:0.6875 19:0.5 26:0.9375 27:0.5 28:0.5 29:0.3125 34:1 35:1 36:0.75 37:1 38:0.14285715 42:0.9375 43:0.3125 45:0.9375 46:0.3125 50:0.6875 51:0.5625 52:0.5 53:1 54:0.25 58:0.125 59:0.875 60:0.9375 61:0.5 # 0
-0.10931289111858899509854836651357 2:0.3125 3:0.625 4:0.75 5:0.125 9:0.13333334 10:1 11:0.8125 12:0.6875 13:0.6875 17:0.4375 18:0.875 20:0.25 21:0.9375 25:0.0625 26:0.375 28:0.625 29:0.75 35:0.125 36:1 37:0.375 43:0.5625 44:0.75 50:0.25 51:1 52:1 53:1 54:1 55:0.2 58:0.4375 59:0.9375 60:0.6875 61:0.5 62:0.5 63:0.06666667 # 0
1 1:1 2:1 3:1 4:1 5:1 6:0.5625 9:0.33333334 10:0.75 11:0.75 12:0.875 13:1 14:0.5625 19:0.125 20:0.9375 21:0.8125 27:0.5625 28:1 29:0.3125 34:0.125 35:1 36:0.8125 42:0.6875 43:1 44:0.25 49:0.4375 50:1 51:0.9375 57:0.60000002 58:1 59:0.6875 # 0
1 2:0.1875 3:0.75 4:1 5:0.5 10:0.75 11:0.75 12:0.9375 13:0.75 20:0.4375 21:0.75 28:0.8125 29:0.4375 34:0.25 35:0.9375 36:1 37:0.5625 38:0.071428575 42:0.3125 43:0.9375 44:1 45:1 46:0.1875 51:0.875 52:0.875 53:0.3125 58:0.25 59:0.9375 60:0.1875 # 0
1 2:0.5625 3:0.9375 4:0.9375 5:0.1875 10:0.6875 11:0.5625 12:1 13:0.625 20:0.875 21:0.625 26:0.125 27:0.3125 28:1 29:0.375 33:0.071428575 34:0.9375 35:1 36:1 37:0.8125 38:0.35714287 41:0.0625 42:0.625 43:1 44:1 45:0.9375 46:0.3125 50:0.3125 51:1 52:0.6875 53:0.125 58:0.5625 59:1 60:0.3125 # 0
-0.1103246590371785851303343406471 2:0.4375 3:0.8125 4:1 5:0.5 9:0.60000002 10:1 11:0.75 12:0.5 13:1 14:0.125 17:0.25 18:0.4375 20:0.375 21:0.9375 22:0.0625 26:0.25 27:0.8125 28:1 29:0.5 34:0.375 35:0.8125 36:0.9375 37:1 38:0.21428572 44:0.125 45:0.6875 46:0.75 50:0.4375 51:0.5 52:0.25 53:0.875 54:0.75 58:0.625 59:1 60:1 61:0.875 62:0.25 # 0
-0.1107948303360141162343666110246 2:0.625 3:0.9375 4:0.625 9:0.66666669 10:0.9375 11:0.625 12:1 13:0.375 17:0.125 18:0.125 19:0.8125 20:0.9375 21:0.0625 26:0.25 27:1 28:1 29:0.3125 35:0.1875 36:0.4375 37:0.9375 38:0.35714287 45:0.5625 46:0.8125 50:0.8125 51:0.4375 52:0.3125 53:0.6875 54:0.875 58:0.4375 59:1 60:1 61:0.875 62:0.1875 # 0
-0.11108909620158746722751175184385 3:0.6875 4:0.875 5:0.125 10:0.5625 11:1 12:0.75 13:0.375 17:0.125 18:0.9375 19:0.5 26:1 27:0.25 28:0.1875 29:0.0625 34:1 35:0.875 36:1 37:0.9375 38:0.21428572 42:0.8125 43:0.875 44:0.125 45:0.25 46:0.875 47:0.25 50:0.4375 51:0.875 52:0.3125 53:0.5 54:1 55:0.40000001 58:0.0625 59:0.5625 60:0.9375 61:0.875 62:0.4375 # 0
1 2:0.9375 3:1 4:1 5:0.875 10:0.1875 11:0.25 12:0.8125 13:0.8125 20:0.875 21:0.625 26:0.3125 27:0.8125 28:1 29:0.3125 34:0.625 35:1 36:1 37:1 38:0.5714286 42:0.125 43:1 44:0.4375 45:0.4375 46:0.0625 50:0.5 51:1 58:0.875 59:0.6875 # 0
1 2:0.875 3:1 4:0.9375 5:0.625 10:0.5 11:0.75 12:0.875 13:1 20:0.75 21:0.75 26:0.4375 27:0.75 28:1 29:0.5625 34:1 35:1 36:1 37:1 38:0.5 42:0.125 43:1 44:0.75 45:0.625 46:0.1875 50:0.5 51:1 52:0.0625 57:0.1 58:1 59:0.6875 # 0
1 2:0.6875 3:1 4:1 5:0.5625 10:0.625 11:0.5 12:0.75 13:0.6875 20:0.75 21:0.375 26:0.5 27:0.8125 28:1 29:0.375 34:0.4375 35:0.875 36:0.875 37:0.8125 38:0.42857143 43:0.8125 44:0.1875 50:0.375 51:0.9375 58:0.6875 59:0.625 # 0
-0.10947112871904651765220251036226 2:0.625 3:0.875 4:0.6875 5:0.5625 10:0.5625 11:0.75 12:0.5 13:0.5625 18:0.6875 19:0.5625 20:0.0625 26:0.9375 27:1 28:0.875 29:0.125 34:0.75 35:0.125 36:0.625 37:0.375 45:0.8125 50:0.4375 51:0.3125 52:0.5 53:0.75 58:0.625 59:1 60:0.9375 61:0.25 # 0
-0.10947112871904651765220251036226 2:0.5 3:0.6875 4:0.9375 5:0.25 10:0.875 11:0.875 12:0.75 13:0.375 18:0.6875 19:0.5625 26:0.625 27:1 28:0.875 29:0.125 34:0.25 35:0.5 36:0.5625 37:0.875 38:0.14285715 45:0.9375 46:0.125 50:0.25 51:0.6875 52:0.8125 53:1 54:0.0625 58:0.25 59:0.9375 60:0.75 61:0.5625 # 0
-0.10929755633455784380458908344735 2:0.4375 3:0.5 4:0.5 5:0.5 10:0.75 11:1 12:0.875 13:0.75 18:0.9375 19:0.3125 20:0.125 26:0.875 27:1 28:0.8125 29:0.125 34:0.4375 35:0.25 36:0.75 37:0.5625 44:0.375 45:0.75 50:0.6875 51:0.75 52:1 53:0.625 58:0.5 59:0.8125 60:0.5 61:0.0625 # 0
1 1:0.125 2:0.8125 3:1 4:1 5:0.9375 6:0.25 10:0.4375 11:0.5 12:0.625 13:1 14:0.25 20:0.5625 21:1 26:0.5 27:0.75 28:1 29:1 30:0.4375 34:0.75 35:0.9375 36:1 37:0.875 38:0.71428573 43:0.875 44:0.5 50:0.5 51:0.875 52:0.125 57:0.2 58:1 59:0.5625 # 0
1 1:0.125 2:0.75 3:1 4:1 5:1 6:0.375 10:0.4375 11:0.5 12:0.375 13:1 14:0.8125 20:0.1875 21:1 22:0.4375 26:0.1875 27:0.4375 28:0.6875 29:0.875 30:0.0625 34:0.625 35:1 36:1 37:0.9375 38:0.21428572 42:0.0625 43:0.9375 44:0.9375 45:0.9375 46:0.1875 50:0.4375 51:1 52:0.375 58:0.9375 59:0.8125 # 0
1 2:0.4375 3:1 4:1 5:1 6:0.5 10:0.5625 11:0.4375 12:0.25 13:0.875 14:0.6875 19:0.125 20:0.3125 21:1 22:0.1875 26:0.0625 27:0.9375 28:1 29:1 30:0.3125 35:0.8125 36:1 37:0.9375 38:0.64285713 43:0.625 44:0.625 45:0.1875 46:0.0625 50:0.1875 51:1 52:0.1875 58:0.5625 59:0.75 # 0
-0.10940450157658854202225029439433 2:0.1875 3:0.75 4:0.9375 5:0.1875 10:0.875 11:0.9375 12:0.875 13:0.25 17:0.0625 18:1 19:0.9375 20:0.0625 25:0.1875 26:1 27:1 28:0.3125 29:0.125 30:0.0625 33:0.14285715 34:1 35:0.6875 36:0.25 37:0.5 38:0.71428573 41:0.125 42:1 43:0.125 45:0.375 46:0.8125 50:0.6875 51:0.6875 52:0.25 53:0.6875 54:0.625 58:0.0625 59:0.625 60:0.8125 61:0.625 62:0.1875 # 0
-0.11120756480197313553759386195452 3:0.625 4:0.875 10:0.25 11:1 12:0.4375 18:0.5 19:1 20:0.375 21:0.5 26:0.875 27:0.5625 28:0.5 29:0.9375 33:0.2857143 34:1 35:0.1875 36:0.6875 37:0.9375 38:0.42857143 41:0.625 42:1 43:1 44:1 45:1 46:0.5625 49:0.375 50:0.75 51:0.8125 52:1 53:0.4375 59:0.75 60:1 61:0.125 # 0
-0.11032330201133855318573750992073 2:0.4375 3:0.9375 4:0.5 5:0.125 10:0.75 11:1 12:0.875 13:0.3125 18:0.75 19:1 20:1 21:0.25 26:0.75 27:1 28:1 29:0.125 34:0.8125 35:1 36:1 37:0.125 42:0.875 43:1 44:1 49:0.0625 50:0.875 51:1 52:1 53:0.875 54:0.0625 57:0.1 58:0.5 59:1 60:0.6875 61:0.5 # 0
1 1:0.125 2:0.6875 3:1 4:1 5:0.25 9:0.53333336 10:0.75 11:0.25 12:0.875 13:0.5 17:0.3125 18:0.125 20:0.75 21:0.5 26:0.0625 27:0.4375 28:1 29:0.6875 30:0.0625 34:0.625 35:1 36:1 37:1 38:0.78571427 43:0.875 44:0.5 46:0.0625 50:0.375 51:0.9375 52:0.0625 57:0.1 58:0.9375 59:0.25 # 0
1 1:0.25 2:0.8125 3:1 4:1 5:0.8125 6:0.0625 9:0.93333334 10:0.9375 11:0.5 12:0.625 13:1 14:0.25 17:0.3125 18:0.125 20:0.375 21:1 22:0.25 26:0.5 27:1 28:1 29:1 30:0.5625 34:0.3125 35:0.875 36:1 37:0.5625 38:0.14285715 42:0.125 43:1 44:0.6875 50:0.5 51:1 52:0.1875 57:0.2 58:1 59:0.5625 # 0
1 2:0.6875 3:1 4:1 5:1 6:0.5625 10:0.1875 11:0.5 12:0.5 13:0.9375 14:0.75 20:0.25 21:1 22:0.375 25:0.1875 26:0.5 27:0.5 28:0.75 29:0.875 33:0.71428573 34:1 35:1 36:1 37:0.9375 38:0.071428575 41:0.0625 42:0.25 43:0.6875 44:0.9375 45:0.125 50:0.0625 51:0.9375 52:0.5 58:0.625 59:0.8125 60:0.0625 # 0
-0.1107948303360141162343666110246 2:0.375 3:0.5625 4:0.25 5:0.0625 10:0.375 11:1 12:1 13:0.5625 14:0.0625 18:0.25 19:1 20:0.0625 21:0.8125 22:0.4375 27:0.875 28:0.3125 29:0.75 30:0.5 33:0.071428575 34:0.625 35:0.9375 36:1 37:0.625 41:0.375 42:0.9375 43:0.5625 44:1 45:0.0625 49:0.4375 50:0.8125 51:0.5 52:0.875 53:0.25 58:0.375 59:0.625 60:0.8125 61:0.0625 # 0
-0.1103234868494941123273633820645 2:0.3125 3:0.75 4:0.5 5:0.0625 10:0.9375 11:1 12:1 13:0.5 18:0.9375 19:1 20:1 21:0.375 25:0.0625 26:0.875 27:1 28:1 29:0.25 33:0.14285715 34:0.9375 35:1 36:1 37:0.5625 42:0.375 43:1 44:1 45:0.875 46:0.0625 50:0.5 51:1 52:1 53:0.9375 58:0.25 59:0.75 60:0.625 61:0.25 # 0
-0.11034539836616619190579058340518 3:0.125 4:0.9375 5:0.1875 11:0.5 12:0.875 19:0.75 20:0.5 21:0.125 22:0.25 26:0.25 27:0.9375 28:0.125 29:0.9375 30:0.5 33:0.2857143 34:0.8125 35:0.875 36:0.5625 37:1 38:0.42857143 40:0.5 41:1 42:1 43:1 44:1 45:0.875 48:0.2 49:0.375 50:0.25 51:0.25 52:0.8125 53:0.5625 59:0.1875 60:1 61:0.25 # 0
1 1:0.125 2:0.8125 3:1 4:1 5:0.4375 10:0.625 11:0.5 12:0.9375 13:0.75 19:0.0625 20:1 21:0.4375 25:0.0625 26:0.8125 27:0.9375 28:1 29:0.8125 30:0.4375 34:0.5 35:1 36:0.875 37:0.75 38:0.5714286 42:0.5 43:1 44:0.0625 50:0.875 51:0.6875 57:0.1 58:1 59:0.25 # 0
1 2:0.8125 3:1 4:1 5:0.5 10:0.4375 11:0.3125 12:0.625 13:0.5 20:0.875 21:0.25 26:0.4375 27:0.625 28:1 29:0.8125 30:0.4375 34:0.9375 35:1 36:0.8125 37:0.9375 38:0.71428573 43:1 44:0.0625 50:0.5 51:0.75 58:1 59:0.1875 # 0
1 1:0.625 2:1 3:1 4:1 5:0.1875 9:0.53333336 10:0.4375 11:0.3125 12:1 13:0.125 17:0.1875 18:0.3125 19:0.625 20:0.875 25:0.4375 26:1 27:1 28:0.9375 29:0.75 30:0.375 34:0.5625 35:0.875 36:0.6875 37:0.875 38:0.42857143 42:1 43:0.375 49:0.1875 50:0.9375 51:0.125 57:0.69999999 58:0.75 # 0
-0.10947147357491182617650338215753 2:0.4375 3:1 4:0.625 9:0.06666667 10:0.8125 11:0.875 12:1 13:0.5 17:0.3125 18:1 19:0.25 20:0.4375 21:0.8125 25:0.25 26:1 27:0.25 29:0.8125 30:0.3125 33:0.5 34:1 37:0.75 38:0.5714286 41:0.125 42:0.9375 43:0.4375 45:0.625 46:0.6875 50:0.75 51:0.9375 52:0.75 53:1 54:0.3125 58:0.375 59:0.9375 60:1 61:0.5 # 0
-0.11106771910260193614305990195135 2:0.1875 3:0.75 4:0.9375 5:0.1875 10:0.5625 11:0.9375 12:0.9375 13:0.4375 18:0.75 19:0.875 20:0.75 21:0.0625 26:0.5 27:1 28:1 29:0.875 37:0.8125 38:0.5 45:0.4375 46:0.75 49:0.125 50:1 51:0.625 52:0.5 53:0.8125 54:0.625 58:0.375 59:0.6875 60:1 61:0.875 62:0.1875 # 0
-0.10947147350124775133650700809085 3:0.1875 4:0.9375 5:0.3125 11:0.375 12:1 13:0.125 19:0.375 20:1 21:0.1875 26:0.125 27:0.8125 28:0.3125 29:0.75 30:0.125 33:0.35714287 34:0.8125 35:0.8125 36:0.5625 37:1 38:0.071428575 40:0.66666669 41:1 42:1 43:1 44:1 45:0.9375 48:0.40000001 49:0.5625 50:0.4375 51:0.25 52:0.8125 53:0.5625 59:0.3125 60:1 61:0.3125 # 0
1 1:0.125 2:0.625 3:1 4:1 5:0.9375 9:0.13333334 10:0.9375 11:0.625 12:0.75 13:0.9375 19:0.0625 20:0.9375 21:0.5 26:0.5 27:1 28:1 29:1 30:0.8125 34:0.375 35:1 36:0.625 37:0.25 38:0.14285715 42:0.25 43:1 44:0.25 50:0.5625 51:1 52:0.0625 58:0.8125 59:0.8125 # 0
1 2:0.5 3:0.8125 4:0.8125 5:1 6:0.5 9:0.06666667 10:0.9375 11:0.9375 12:0.75 13:1 14:0.25 20:0.625 21:0.875 26:0.0625 27:0.3125 28:1 29:0.625 30:0.1875 34:0.5 35:1 36:1 37:0.8125 38:0.42857143 42:0.0625 43:0.8125 44:0.5625 50:0.25 51:1 52:0.4375 58:0.5625 59:0.8125 60:0.0625 # 0
1 2:0.5625 3:0.75 4:0.875 5:0.875 6:0.75 7:0.0625 10:0.9375 11:0.9375 12:0.75 13:0.875 14:1 15:0.46153846 18:0.1875 21:0.625 22:0.9375 23:0.5 28:0.25 29:1 30:0.375 35:0.1875 36:0.9375 37:0.5625 42:0.125 43:0.8125 44:0.75 50:0.625 51:0.875 52:0.0625 58:0.8125 59:0.5625 # 0
-0.10931289111858899509854836651357 1:0.375 2:0.8125 3:1 4:1 5:0.375 9:0.26666668 10:1 11:0.5625 12:0.875 13:0.75 18:0.5 19:0.1875 20:0.875 21:0.4375 27:0.75 28:1 29:0.1875 35:0.3125 36:0.9375 37:0.9375 38:0.071428575 44:0.0625 45:1 46:0.625 49:0.125 50:0.75 51:0.5 52:0.6875 53:1 54:0.4375 57:0.2 58:0.9375 59:1 60:0.9375 61:0.5625 # 0
-0.11075542150749506653539810940856 1:0.125 2:0.875 3:1 4:0.5625 9:0.53333336 10:1 11:0.75 12:0.9375 13:0.375 17:0.375 18:1 19:0.4375 20:0.3125 21:0.875 25:0.25 26:1 27:0.25 29:0.875 30:0.25 33:0.2857143 34:1 35:0.1875 37:0.625 38:0.42857143 41:0.375 42:1 43:0.0625 45:0.625 46:0.5 49:0.1875 50:1 51:0.5625 52:0.4375 53:0.9375 54:0.375 57:0.1 58:0.9375 59:1 60:0.9375 61:0.5625 # 0
-0.10930585844876561374405810056487 2:0.5 3:1 4:0.6875 9:0.06666667 10:0.9375 11:0.9375 12:0.875 13:0.5625 17:0.0625 18:0.9375 19:0.75 21:0.75 22:0.375 26:1 27:0.4375 29:0.625 30:0.25 34:1 35:0.375 37:0.625 38:0.5714286 41:0.1875 42:1 43:0.1875 45:0.9375 46:0.1875 49:0.0625 50:0.875 51:0.875 52:0.75 53:1 58:0.4375 59:0.8125 60:1 61:0.5 # 0
1 2:0.375 3:0.75 4:1 5:1 6:0.9375 7:0.1875 10:0.875 11:1 12:0.75 13:0.875 14:1 15:0.61538464 21:0.875 22:1 23:0.5 28:0.1875 29:1 30:0.6875 36:0.75 37:1 38:0.14285715 43:0.375 44:1 45:0.6875 50:0.125 51:0.9375 52:0.875 53:0.0625 58:0.375 59:1 60:0.5625 # 0
1 2:0.625 3:1 4:1 5:1 6:0.9375 7:0.25 10:0.625 11:0.75 12:0.5 13:0.6875 14:1 15:0.53846157 20:0.0625 21:0.75 22:0.875 23:0.16666667 27:0.0625 28:0.8125 29:0.8125 30:0.0625 35:0.8125 36:0.75 37:0.0625 42:0.375 43:0.875 44:0.1875 50:0.625 51:0.625 58:0.875 59:0.125 # 0
1 2:0.4375 3:1 4:1 5:1 6:0.8125 7:0.125 10:0.5 11:0.6875 12:0.5 13:0.6875 14:1 15:0.53846157 21:0.75 22:0.875 28:0.375 29:0.9375 30:0.1875 35:0.125 36:0.875 37:0.4375 43:0.5625 44:0.875 45:0.0625 50:0.1875 51:1 52:0.25 58:0.5625 59:0.9375 # 0
-0.11076854546038727988843675120734 2:0.5 3:0.875 4:0.75 5:0.125 9:0.2 10:1 11:0.75 12:0.9375 13:0.375 17:0.1875 18:0.4375 19:0.4375 20:0.8125 21:0.5625 26:0.3125 27:0.9375 28:1 29:0.1875 35:0.4375 36:0.875 37:0.875 38:0.071428575 44:0.1875 45:1 46:0.3125 50:0.4375 51:0.3125 52:0.625 53:1 54:0.3125 58:0.8125 59:0.625 60:0.5 61:0.1875 # 0
-0.11095923746866431791602281009546 1:0.25 2:0.875 3:1 4:0.6875 9:0.53333336 10:0.9375 11:0.4375 12:1 17:0.0625 18:0.125 20:0.9375 21:0.0625 26:0.125 27:0.75 28:0.875 34:0.0625 35:0.6875 36:0.875 37:0.6875 44:0.125 45:0.875 46:0.3125 49:0.125 50:0.5 51:0.1875 52:0.25 53:0.625 54:0.75 57:0.1 58:0.8125 59:1 60:1 61:0.875 62:0.25 # 0
-0.1107948303360141162343666110246 4:0.625 5:0.4375 12:0.9375 13:0.3125 19:0.25 20:1 21:0.1875 27:0.4375 28:0.9375 29:0.1875 33:0.21428572 34:0.4375 35:0.875 36:0.75 37:1 38:0.071428575 40:0.16666667 41:0.875 42:1 43:1 44:1 45:0.9375 49:0.5625 50:0.625 51:0.875 52:1 53:1 60:0.75 61:0.5625 # 0
1 2:0.375 3:1 4:0.8125 5:0.6875 6:0.3125 10:0.0625 11:0.5 12:0.625 13:1 14:0.9375 20:0.0625 21:0.875 22:0.8125 28:0.4375 29:1 30:0.3125 33:0.21428572 34:0.25 35:0.0625 36:0.75 37:1 41:0.75 42:1 43:1 44:1 45:0.8125 46:0.125 50:0.1875 51:0.875 52:0.9375 58:0.375 59:1 60:0.4375 # 0
1 2:0.3125 3:0.75 4:0.9375 5:0.875 6:0.625 7:0.1875 10:0.25 11:0.4375 12:0.25 13:0.3125 14:0.875 15:0.23076923 21:0.5625 22:0.6875 28:0.25 29:1 30:0.25 33:0.14285715 34:0.5 35:0.5625 36:1 37:0.625 41:0.1875 42:0.75 43:1 44:0.5625 50:0.3125 51:0.875 58:0.375 59:0.5625 # 0
1 2:0.4375 3:0.75 4:0.9375 5:0.9375 6:0.125 9:0.2 10:1 11:0.75 12:0.5 13:1 14:0.3125 20:0.375 21:1 28:0.875 29:0.9375 30:0.375 34:0.0625 35:0.9375 36:1 37:1 38:0.64285713 43:0.8125 44:0.625 45:0.125 50:0.125 51:1 52:0.1875 58:0.625 59:0.9375 # 0
-0.10947147426003955850148940953659 2:0.25 3:1 4:1 5:0.5 9:0.13333334 10:1 11:0.625 12:0.75 13:1 14:0.25 17:0.25 18:1 19:0.25 20:0.625 21:1 22:0.25 25:0.1875 26:1 27:1 28:1 29:1 30:0.0625 36:0.25 37:1 38:0.2857143 44:0.125 45:1 46:0.0625 51:0.375 52:0.6875 53:1 58:0.25 59:0.8125 60:0.5625 61:0.1875 # 0
-0.11051075816446243038626562338322 1:0.125 2:0.6875 3:1 4:0.9375 5:0.125 9:0.26666668 10:0.75 11:0.5 12:0.875 13:0.5 17:0.0625 18:0.0625 19:0.125 20:0.9375 21:0.375 27:0.4375 28:1 29:0.25 35:0.0625 36:0.8125 37:0.8125 44:0.125 45:1 46:0.4375 50:0.625 51:0.6875 52:0.5 53:0.9375 54:0.5 58:0.5 59:0.875 60:1 61:0.75 62:0.0625 # 0
-0.11051075816446243038626562338322 3:0.5 4:0.875 5:0.3125 11:0.5625 12:1 13:0.875 14:0.125 19:0.6875 20:1 21:0.8125 22:0.0625 26:0.375 27:1 28:1 29:0.4375 33:0.21428572 34:0.8125 35:1 36:1 37:0.25 41:0.1875 42:0.6875 43:0.9375 44:1 45:0.75 51:0.625 52:1 53:0.9375 54:0.1875 59:0.5 60:1 61:0.9375 62:0.375 # 0
1 2:0.4375 3:0.875 4:1 5:0.75 10:0.9375 11:0.6875 12:0.9375 13:0.9375 19:0.0625 20:1 21:0.625 26:0.4375 27:0.8125 28:1 29:0.875 30:0.625 34:0.75 35:1 36:0.9375 37:0.75 38:0.2857143 42:0.3125 43:1 44:0.375 50:0.4375 51:1 52:0.125 58:0.625 59:0.875 # 0
1 2:0.1875 3:0.5625 4:0.9375 5:0.5 9:0.06666667 10:0.9375 11:1 12:1 13:0.4375 18:0.3125 19:1 20:1 21:0.625 22:0.25 26:0.1875 27:1 28:1 29:1 30:0.5625 35:0.9375 36:0.875 37:0.25 43:0.8125 44:0.3125 50:0.0625 51:0.9375 52:0.1875 58:0.25 59:0.8125 # 0
