SVM-light Version V6.02
1 # kernel type
8 # kernel parameter -d 
1 # kernel parameter -g 
1 # kernel parameter -s 
1 # kernel parameter -r 
empty# kernel parameter -u 
63 # highest feature index 
2823 # number of training documents 
158 # number of support vectors plus 1 
0.67542877 # threshold b, each following line is a SV (starting with alpha*y)
-2.9422934152286239255633060978425e-10 3:0.3125 4:0.5 10:0.25 11:1 12:0.125 14:0.875 18:0.5625 19:0.5 21:0.5 22:0.5 25:0.125 26:0.9375 28:0.0625 29:0.9375 33:0.71428573 34:0.5625 35:0.25 36:0.5625 37:0.9375 38:0.071428575 41:0.6875 42:1 43:1 44:1 45:0.6875 46:0.0625 49:0.1875 50:0.25 51:0.4375 52:0.5625 59:0.5 60:0.3125 # 0
-3.407625219057387526854371615566e-10 3:0.125 4:0.9375 5:0.125 11:0.625 12:0.5 14:0.5 15:0.23076923 18:0.375 19:0.75 21:0.1875 22:0.9375 25:0.125 26:0.875 27:0.0625 29:0.75 30:0.5 33:0.64285713 34:0.9375 35:0.75 36:1 37:1 38:0.35714287 41:0.1875 42:0.5 43:0.3125 44:0.6875 45:0.625 51:0.0625 52:0.9375 53:0.25 59:0.1875 60:0.5625 # 0
-2.267468368012413155183155814818e-10 2:0.5625 3:1 4:0.5 9:0.60000002 10:0.8125 11:0.25 12:0.8125 17:0.4375 18:0.375 19:0.0625 20:0.875 27:0.5625 28:1 29:0.5625 35:0.5 36:0.375 37:0.8125 38:0.42857143 45:0.25 46:0.6875 50:0.375 52:0.1875 53:0.75 54:0.3125 58:0.5625 59:1 60:1 61:0.4375 # 0
4.846577399382752890703026534794e-10 1:0.25 2:0.25 3:0.4375 4:0.8125 5:0.9375 6:0.125 9:0.93333334 10:1 11:1 12:0.9375 13:1 14:0.3125 17:0.0625 18:0.25 20:0.875 21:0.875 28:1 29:0.75 35:0.1875 36:1 37:0.4375 43:0.3125 44:1 45:0.4375 51:0.3125 52:1 53:0.375 59:0.4375 60:1 61:0.5625 # 0
-1.1681112830776843149852443991927e-10 2:0.6875 3:1 4:0.375 9:0.13333334 10:1 11:0.9375 12:1 13:0.1875 18:0.5 19:0.25 20:1 21:0.25 27:0.4375 28:0.875 29:0.0625 35:0.875 36:0.5625 42:0.6875 43:0.6875 49:0.0625 50:1 51:0.5625 52:0.125 53:0.3125 54:0.0625 58:0.5625 59:0.875 60:0.75 61:0.5625 # 0
5.5542857011906608666737971584989e-10 2:0.5625 3:1 4:0.375 10:0.9375 11:0.625 12:0.9375 13:0.125 18:0.3125 19:0.125 20:1 21:0.125 26:0.125 27:0.4375 28:1 29:0.1875 33:0.5 34:1 35:1 36:1 37:1 38:0.5714286 41:0.0625 42:0.3125 43:0.875 44:0.375 46:0.0625 50:0.5625 51:0.75 58:0.625 59:0.5 # 0
-2.2540411286377307997188320661365e-10 4:0.75 5:0.1875 11:0.125 12:0.9375 19:0.5625 20:0.5625 26:0.1875 27:0.9375 29:0.1875 30:0.625 33:0.071428575 34:0.875 35:0.1875 37:0.875 38:0.42857143 41:0.625 42:1 43:0.9375 44:0.8125 45:1 46:0.0625 49:0.5625 50:0.625 51:0.5 52:0.875 53:0.6875 60:0.75 61:0.125 # 0
1.8954360618125522763111957287038e-10 2:0.1875 3:0.75 4:0.9375 5:0.6875 10:0.875 11:0.9375 12:0.9375 13:1 14:0.0625 18:0.1875 19:0.125 20:0.875 21:1 22:0.75 23:0.16666667 27:0.8125 28:1 29:0.875 30:0.5625 35:0.125 36:0.875 37:0.5 43:0.125 44:1 45:0.3125 51:0.8125 52:0.8125 58:0.1875 59:1 60:0.1875 # 0
3.1989019827351615313507814168615e-09 2:0.625 3:0.5 4:0.625 5:0.75 6:0.375 9:0.13333334 10:1 11:0.875 12:0.75 13:0.9375 14:0.6875 17:0.1875 18:0.5625 19:0.125 20:0.25 21:0.875 22:0.125 27:0.0625 28:0.875 29:0.25 35:0.3125 36:0.875 42:0.0625 43:0.8125 44:0.375 49:0.0625 50:0.75 51:1 52:0.0625 58:0.875 59:0.625 # 0
-2.8975616442930572838629132594978e-10 2:0.125 3:0.4375 4:0.75 5:1 6:0.6875 10:0.625 11:0.9375 12:1 13:1 14:1 19:0.625 20:1 21:1 22:0.75 27:0.25 28:1 29:1 30:0.25 35:0.3125 36:1 37:0.9375 38:0.2857143 43:0.625 44:1 45:0.75 50:0.125 51:0.9375 52:1 53:0.1875 58:0.0625 59:0.8125 60:0.875 61:0.0625 # 0
4.2821639064446411101303111295009e-10 1:0.25 4:0.5625 5:0.4375 9:1 10:1 11:1 12:1 13:0.5625 17:0.0625 18:0.3125 19:0.25 20:1 21:0.4375 25:0.0625 26:0.25 27:0.25 28:1 29:0.4375 33:0.35714287 34:1 35:1 36:1 37:0.9375 38:0.14285715 42:0.1875 43:0.0625 44:0.875 45:0.375 52:0.8125 53:0.4375 60:0.625 61:0.6875 # 0
1.426780373865498654160251099576e-10 2:0.125 3:0.375 4:0.75 5:1 6:1 7:0.125 9:0.13333334 10:0.9375 11:1 12:0.5625 13:0.3125 14:1 15:0.38461539 18:0.3125 19:0.0625 21:0.125 22:1 23:0.33333334 29:0.5 30:0.625 36:0.25 37:1 38:0.5 42:0.625 43:0.8125 44:1 45:0.8125 46:0.0625 50:0.5625 51:0.8125 52:1 53:0.0625 59:0.4375 60:0.75 # 0
2.0046895489291360043321143645945e-09 2:0.125 3:0.875 4:0.6875 5:0.5 6:0.75 7:0.0625 10:0.5 11:0.625 12:0.5625 13:0.875 14:0.875 18:0.625 19:0.0625 21:0.75 22:0.25 26:0.0625 27:0.125 28:0.4375 29:0.8125 30:0.0625 34:0.0625 35:0.9375 36:1 37:1 38:0.35714287 43:0.1875 44:0.8125 45:0.125 51:0.5625 52:0.4375 59:0.9375 60:0.25 # 0
-2.4883346328800278011103947427545e-10 2:0.125 3:0.875 4:1 5:0.9375 6:0.5625 9:0.06666667 10:0.875 11:0.6875 12:0.3125 13:0.5625 14:0.875 17:0.25 18:0.875 20:0.1875 21:0.75 22:0.6875 25:0.375 26:0.8125 27:0.5625 28:0.9375 29:0.9375 30:0.0625 33:0.14285715 34:0.8125 35:0.9375 36:0.9375 37:0.6875 43:0.25 44:0.9375 50:0.0625 51:0.8125 52:0.6875 58:0.1875 59:1 60:0.3125 # 0
-7.9007024920123551726670650744284e-11 2:0.75 3:0.3125 10:1 11:0.125 17:0.1875 18:0.75 25:0.25 26:0.75 33:0.5 34:0.875 35:1 36:0.875 37:0.1875 41:0.1875 42:1 43:0.5 44:0.5625 45:1 46:0.25 49:0.125 50:1 51:0.1875 52:0.25 53:1 54:0.25 58:0.6875 59:0.75 60:0.6875 61:0.25 # 0
-2.3271249636148118399771626900159e-09 2:0.125 3:0.75 4:0.875 5:0.3125 9:0.13333334 10:0.9375 11:0.375 12:0.5 13:0.875 14:0.375 17:0.3125 18:0.5625 20:0.3125 21:1 22:0.25 25:0.3125 26:0.5625 27:0.25 28:0.9375 29:0.75 34:0.875 35:0.8125 36:1 37:0.3125 43:0.25 44:0.75 51:0.6875 52:0.3125 58:0.125 59:0.9375 60:0.25 # 0
1.1021340821053928030136757323845e-09 2:0.1875 3:0.625 4:0.8125 5:0.0625 9:0.13333334 10:0.9375 11:0.625 12:1 13:0.1875 17:0.125 18:0.25 19:0.0625 20:1 21:0.25 27:0.4375 28:1 34:0.4375 35:0.875 36:1 37:0.75 38:0.21428572 41:0.125 42:0.8125 43:0.9375 44:0.8125 45:0.5625 46:0.125 51:0.8125 52:0.5 58:0.0625 59:0.9375 60:0.1875 # 0
-1.2954624965027188983476673276544e-10 1:0.375 2:1 3:0.9375 4:0.4375 9:0.33333334 10:1 11:1 12:1 13:0.8125 14:0.125 18:0.4375 19:0.5 20:0.625 21:1 22:0.375 28:0.125 29:1 30:0.25 36:0.25 37:1 38:0.071428575 44:0.75 45:0.5625 50:0.25 51:0.6875 52:0.9375 53:0.1875 57:0.2 58:0.9375 59:0.75 60:0.1875 # 0
4.5436006576963981009703494093181e-10 2:0.25 3:0.875 4:1 5:0.625 10:0.8125 11:0.5 12:0.6875 13:0.9375 18:0.0625 20:0.5 21:0.6875 28:0.8125 29:0.4375 34:0.25 35:0.5 36:1 37:0.5625 38:0.071428575 42:0.4375 43:1 44:0.9375 45:0.625 46:0.0625 50:0.1875 51:0.9375 52:0.0625 58:0.375 59:0.875 # 0
-5.2722898728101027732810766451019e-10 3:0.4375 4:0.6875 11:0.6875 12:0.3125 13:0.125 18:0.1875 19:0.875 20:0.1875 21:0.875 26:0.5 27:0.375 28:0.4375 29:0.4375 33:0.071428575 34:0.9375 35:0.25 36:0.75 37:0.5625 38:0.2857143 41:0.3125 42:1 43:1 44:1 45:0.9375 46:0.5 49:0.0625 50:0.0625 51:0.375 52:0.625 59:0.625 60:0.5625 # 0
2.1071960124714098391760399821759e-09 2:0.3125 3:0.75 4:0.9375 5:0.875 6:0.625 7:0.1875 10:0.25 11:0.4375 12:0.25 13:0.3125 14:0.875 15:0.23076923 21:0.5625 22:0.6875 28:0.25 29:1 30:0.25 33:0.14285715 34:0.5 35:0.5625 36:1 37:0.625 41:0.1875 42:0.75 43:1 44:0.5625 50:0.3125 51:0.875 58:0.375 59:0.5625 # 0
1.587355869634357831414327950144e-09 3:0.375 4:0.6875 5:0.875 6:0.1875 10:0.5625 11:0.8125 12:0.5 13:0.9375 14:0.75 21:0.625 22:0.6875 29:0.8125 30:0.5625 34:0.25 35:0.6875 36:0.8125 37:1 38:0.2857143 42:0.1875 43:0.5 44:0.875 45:0.75 51:0.1875 52:1 53:0.1875 59:0.5625 60:0.875 # 0
8.1112272946612848062831602603904e-10 3:0.3125 4:0.9375 5:1 6:0.375 9:0.06666667 10:0.9375 11:0.9375 12:0.625 13:0.9375 14:0.875 18:0.0625 21:0.5 22:0.75 27:0.125 28:0.3125 29:0.9375 30:0.5625 35:0.5 36:1 37:1 38:0.42857143 44:0.5 45:0.8125 52:0.75 53:0.5 59:0.125 60:0.8125 61:0.125 # 0
-1.6553729653967594209742612136219e-10 2:0.75 3:0.5 4:0.125 10:1 11:0.375 12:0.875 13:0.375 17:0.125 18:1 19:0.625 20:1 25:0.625 26:0.8125 27:0.875 28:0.625 29:0.25 30:0.0625 33:0.5714286 34:1 35:1 36:1 37:1 38:0.71428573 42:0.8125 43:0.9375 44:0.25 45:0.25 46:0.0625 50:0.75 51:0.75 57:0.1 58:0.875 59:0.3125 # 0
-4.1363483798051215324595114119881e-11 2:0.1875 3:0.625 4:0.6875 5:0.3125 9:0.53333336 10:1 11:0.625 12:0.5 13:0.3125 17:0.6875 18:0.6875 25:0.5 26:0.875 27:0.6875 28:0.5 29:0.25 34:0.1875 35:0.4375 36:0.5625 37:0.875 38:0.64285713 45:0.3125 46:0.8125 50:0.0625 51:0.25 52:0.625 53:1 54:0.3125 58:0.125 59:0.8125 60:0.625 61:0.125 # 0
-1.2330528435431966511784305635089e-10 4:0.375 5:0.6875 11:0.1875 12:0.9375 13:0.75 18:0.3125 19:0.875 20:0.625 21:0.75 25:0.125 26:0.9375 27:0.375 28:0.3125 29:0.5625 33:0.42857143 34:0.9375 35:0.75 36:0.9375 37:1 38:0.5714286 41:0.0625 42:0.5 43:0.5 44:0.75 45:0.75 46:0.125 52:0.5 53:0.5 60:0.3125 61:0.6875 # 0
3.8115876630587994293915630763224e-10 2:0.125 3:0.875 4:0.9375 5:0.125 10:0.8125 11:0.9375 12:0.875 13:0.5 18:1 19:0.375 20:0.6875 21:0.625 25:0.0625 26:0.5625 27:0.5 28:0.9375 29:0.5625 33:0.71428573 34:1 35:1 36:1 37:1 38:0.64285713 41:0.0625 42:0.25 43:0.5 44:1 45:0.3125 46:0.3125 51:0.875 52:0.8125 58:0.125 59:1 60:0.375 # 0
-2.6359425218285423584253904451702e-10 2:0.375 3:0.9375 4:1 5:0.75 6:0.0625 9:0.2 10:1 11:0.5625 12:0.5 13:0.9375 14:0.4375 17:0.1875 18:0.1875 21:0.9375 22:0.375 28:0.375 29:0.9375 30:0.125 35:0.0625 36:0.9375 37:0.375 42:0.0625 43:0.75 44:0.625 50:0.5 51:1 52:0.8125 53:0.8125 54:0.375 58:0.375 59:0.875 60:0.75 61:0.25 # 0
-1.8180724691124751147807024900333e-10 4:0.1875 5:0.875 6:0.0625 11:0.0625 12:0.875 13:0.9375 19:0.5625 20:1 21:0.625 26:0.5625 27:1 28:1 29:0.5 33:0.2857143 34:1 35:0.4375 36:1 37:0.5 41:0.0625 42:0.25 44:0.9375 45:0.625 52:0.6875 53:0.75 60:0.1875 61:0.9375 62:0.1875 # 0
5.2848129882162651987964177070257e-09 2:0.1875 3:0.6875 4:1 5:0.9375 6:0.3125 10:0.625 11:0.375 12:0.25 13:0.75 14:0.625 21:0.75 22:0.5 25:0.25 26:0.75 27:0.625 28:0.75 29:1 30:0.1875 33:0.14285715 34:0.5 35:0.3125 36:1 37:0.5625 43:0.375 44:0.6875 51:0.8125 52:0.375 59:0.9375 60:0.0625 # 0
-4.286315903217890240025745335231e-10 2:0.3125 3:0.9375 4:0.5625 9:0.13333334 10:0.8125 11:0.5 12:0.9375 13:0.3125 17:0.125 18:0.125 20:0.5 21:0.3125 26:0.3125 27:0.5625 28:0.9375 29:0.125 34:0.6875 35:0.9375 36:0.9375 37:0.6875 44:0.0625 45:0.875 46:0.0625 50:0.25 51:0.5625 52:0.25 53:0.6875 54:0.1875 58:0.3125 59:0.75 60:0.8125 61:0.5625 # 0
-7.4955177118428398250418296549277e-11 1:0.125 2:0.625 3:0.9375 4:0.9375 5:0.375 9:0.53333336 10:1 11:0.9375 12:0.875 13:0.9375 14:0.1875 17:0.1875 18:0.375 19:0.1875 20:0.9375 21:0.9375 27:0.75 28:1 29:0.3125 35:0.5 36:1 37:0.125 43:0.25 44:1 45:0.5 50:0.25 51:0.9375 52:1 53:0.25 58:0.875 59:1 60:0.4375 # 0
-4.9583598491360710429406895779505e-10 3:0.8125 4:0.25 10:0.25 11:1 12:0.5625 13:0.5625 18:0.75 19:0.5 20:0.625 21:0.5625 25:0.4375 26:0.9375 27:0.25 28:0.9375 29:0.5 30:0.0625 33:0.78571427 34:1 35:1 36:1 37:1 38:0.71428573 41:0.0625 42:0.25 43:0.625 44:0.75 51:0.75 52:0.5 59:0.75 60:0.3125 # 0
-7.9753283747939925836670549491673e-11 2:0.125 3:0.4375 4:0.875 5:0.75 6:0.0625 9:0.13333334 10:0.875 11:0.9375 12:0.625 13:1 14:0.4375 17:0.25 18:0.5625 20:0.3125 21:1 22:0.1875 27:0.125 28:1 29:0.8125 35:0.125 36:0.9375 37:0.6875 44:0.375 45:1 46:0.25 51:0.3125 52:1 53:0.8125 59:0.5625 60:0.6875 61:0.125 # 0
-7.0259688264394206938467404309137e-11 3:0.5 4:0.25 11:0.75 12:0.25 13:0.0625 18:0.25 19:0.8125 20:0.125 21:1 22:0.0625 26:0.875 27:0.4375 28:0.4375 29:0.875 30:0.25 33:0.35714287 34:1 35:1 36:1 37:1 38:0.42857143 41:0.1875 42:0.625 43:0.4375 44:0.9375 45:0.375 51:0.3125 52:0.625 59:0.4375 60:0.625 # 0
1.0739546279430327505938521758921e-09 3:0.5 4:0.5 5:0.5 6:0.8125 7:0.5 10:0.375 11:0.9375 12:0.8125 13:0.875 14:0.9375 15:0.07692308 18:0.8125 19:0.375 21:0.75 22:0.3125 26:0.875 27:0.3125 28:0.3125 29:0.625 34:0.0625 35:0.625 36:1 37:0.875 38:0.14285715 43:0.75 44:0.75 45:0.375 46:0.0625 51:0.875 52:0.25 59:0.75 60:0.0625 # 0
-1.3094017640911209307854673103134e-10 3:0.0625 4:0.5625 5:0.8125 6:0.3125 10:0.1875 11:0.8125 12:0.625 13:0.75 14:0.5625 18:0.6875 19:0.5 21:0.8125 22:0.1875 25:0.0625 26:0.9375 27:0.875 28:0.6875 29:1 30:0.125 34:0.0625 35:0.5 36:0.625 37:0.875 44:0.4375 45:0.8125 52:0.625 53:0.5625 60:0.8125 61:0.3125 # 0
-2.8302831268492060326820245173298e-10 2:0.0625 3:0.5625 4:1 5:1 6:0.75 7:0.0625 10:0.625 11:0.8125 12:0.5 13:0.75 14:1 15:0.23076923 18:0.125 20:0.0625 21:0.8125 22:0.625 27:0.5625 28:1 29:0.6875 35:0.875 36:1 37:0.9375 43:0.4375 44:0.625 45:1 46:0.125 50:0.125 51:1 52:0.875 53:0.8125 59:0.875 60:0.875 61:0.125 # 0
9.5344613128841215624612853555588e-10 3:0.1875 4:0.625 5:0.625 9:0.53333336 10:0.875 11:1 12:0.875 13:0.9375 14:0.25 18:0.1875 19:0.0625 20:0.0625 21:0.9375 22:0.25 27:0.4375 28:0.875 29:1 30:0.375 34:0.5625 35:1 36:0.9375 37:0.625 42:0.125 43:0.125 44:0.875 45:0.25 51:0.4375 52:0.6875 59:0.5625 60:0.25 # 0
-1.154843694384722157799896307125e-10 2:0.3125 3:0.875 4:1 5:1 6:0.75 9:0.33333334 10:1 11:0.8125 12:0.5 13:0.8125 14:1 17:0.1875 18:0.4375 20:0.1875 21:0.875 22:0.625 27:0.0625 28:0.8125 29:0.875 35:0.5625 36:0.9375 37:0.1875 42:0.25 43:1 44:0.4375 50:0.75 51:0.8125 58:0.375 59:1 60:1 61:0.625 # 0
2.2430415416811073094509468320393e-10 1:0.625 2:1 3:1 4:1 5:0.1875 9:0.53333336 10:0.4375 11:0.3125 12:1 13:0.125 17:0.1875 18:0.3125 19:0.625 20:0.875 25:0.4375 26:1 27:1 28:0.9375 29:0.75 30:0.375 34:0.5625 35:0.875 36:0.6875 37:0.875 38:0.42857143 42:1 43:0.375 49:0.1875 50:0.9375 51:0.125 57:0.69999999 58:0.75 # 0
5.79930333360033023411542652409e-11 1:0.5 2:0.9375 3:0.5625 4:0.5 5:0.5 6:0.0625 9:0.26666668 10:1 11:1 12:1 13:1 14:0.5 17:0.5625 18:0.9375 19:0.125 20:0.9375 21:0.875 22:0.0625 25:0.3125 26:0.3125 27:0.3125 28:1 29:0.25 35:0.75 36:0.75 42:0.4375 43:0.9375 44:0.125 49:0.1875 50:1 51:0.4375 57:0.60000002 58:1 59:0.25 # 0
-5.0611313389387746809868549898565e-11 3:0.4375 4:0.75 6:0.75 7:0.3125 10:0.5 11:0.875 12:0.0625 13:0.4375 14:0.875 17:0.0625 18:1 19:0.3125 21:0.875 22:0.375 25:0.3125 26:1 27:0.75 28:0.8125 29:1 30:0.625 33:0.21428572 34:0.9375 35:0.9375 36:1 37:0.8125 38:0.35714287 43:0.25 44:0.9375 45:0.0625 51:0.5625 52:0.625 59:0.6875 60:0.25 # 0
-3.7762495205265515075116224484096e-11 2:0.0625 3:0.4375 4:0.6875 5:0.8125 6:0.6875 7:0.3125 10:0.4375 11:1 12:1 13:0.8125 14:1 15:0.30769232 18:0.875 19:0.5 25:0.25 26:1 27:0.5625 28:0.5 29:0.3125 33:0.5714286 34:1 35:1 36:1 37:1 38:0.14285715 41:0.125 42:0.25 43:0.25 44:0.75 45:0.9375 51:0.4375 52:1 53:0.3125 59:0.75 60:0.3125 # 0
-1.7258924746920771427815860694921e-10 2:0.125 3:1 4:0.625 10:0.375 11:1 12:1 13:0.25 18:0.125 19:0.9375 20:1 21:0.4375 27:0.6875 28:1 29:0.25 35:0.9375 36:1 37:0.1875 43:0.8125 44:0.9375 50:0.0625 51:1 52:0.8125 58:0.125 59:0.9375 60:0.6875 # 0
-9.6173867141576529424318134990196e-11 4:0.8125 5:0.4375 12:0.875 13:0.4375 19:0.1875 20:0.9375 21:0.125 26:0.0625 27:0.8125 28:0.4375 29:0.6875 30:0.125 33:0.35714287 34:0.875 35:1 36:0.625 37:1 38:0.14285715 41:0.9375 42:1 43:1 44:1 45:0.9375 46:0.0625 52:0.625 53:0.75 60:0.9375 61:0.4375 # 0
-4.9623597095135704080338571610024e-10 2:0.125 3:0.8125 4:0.75 5:0.25 9:0.06666667 10:0.9375 11:0.75 12:0.1875 13:0.8125 14:0.125 17:0.5 18:0.8125 19:0.5 21:0.375 22:0.25 25:0.5 26:0.25 27:0.1875 29:0.1875 30:0.5 33:0.35714287 34:0.3125 37:0.375 38:0.42857143 41:0.0625 42:0.875 43:0.0625 45:0.5 46:0.1875 50:0.5 51:0.5 52:0.3125 53:0.8125 54:0.0625 59:0.6875 60:0.9375 61:0.375 # 0
-2.1327476972614661669126679061689e-09 2:0.1875 3:0.875 4:1 5:0.8125 6:0.375 10:0.8125 11:0.4375 12:0.0625 13:0.8125 14:1 15:0.07692308 18:0.75 19:0.3125 21:0.625 22:0.75 26:0.5 27:0.875 28:0.75 29:0.875 30:0.125 35:0.25 36:0.875 37:0.375 43:0.3125 44:0.8125 51:0.8125 52:0.375 58:0.125 59:0.6875 # 0
-4.1309011706595535103587214606654e-10 2:0.1875 3:0.6875 4:0.9375 5:0.9375 6:0.25 9:0.13333334 10:0.875 11:0.5 12:0.25 13:0.9375 14:0.3125 17:0.4375 18:0.6875 19:0.0625 20:0.8125 21:0.9375 22:0.0625 25:0.0625 26:0.6875 27:0.75 28:0.8125 29:1 30:0.3125 36:0.5 37:0.75 43:0.1875 44:0.9375 45:0.125 51:0.6875 52:0.4375 59:0.8125 60:0.25 # 0
-1.6981168042170080578528956773946e-10 2:0.0625 3:0.5625 4:1 5:0.8125 6:0.0625 10:0.8125 11:0.5625 12:0.3125 13:0.875 14:0.5 17:0.1875 18:0.875 21:0.8125 22:0.75 25:0.125 26:0.9375 27:0.75 28:1 29:1 30:0.1875 34:0.1875 35:0.5 36:0.6875 37:0.75 43:0.1875 44:0.875 45:0.125 51:0.75 52:0.5625 58:0.0625 59:0.9375 60:0.1875 # 0
1.3710141372880536620321314340495e-09 1:0.125 2:0.75 3:1 4:1 5:0.5 9:0.06666667 10:0.5 11:0.3125 12:0.5625 13:0.75 20:0.6875 21:0.5 26:0.3125 27:0.875 28:0.875 29:0.625 30:0.3125 34:0.1875 35:0.9375 36:0.875 37:0.75 38:0.35714287 42:0.125 43:1 44:0.1875 50:0.625 51:0.5625 58:0.8125 59:0.125 # 0
-1.8713247504196131330555629399443e-10 2:0.4375 3:0.875 4:0.3125 9:0.2 10:1 11:0.9375 12:0.75 18:0.75 20:0.75 26:0.0625 28:0.75 29:0.125 35:0.0625 36:1 37:0.125 42:0.0625 43:0.625 44:0.9375 45:0.1875 50:0.8125 51:1 52:1 53:0.9375 54:0.4375 58:0.5625 59:0.375 60:0.1875 61:0.25 62:0.8125 63:0.06666667 # 0
-1.2764459790315621705245540028559e-10 2:0.25 3:0.8125 4:0.6875 5:0.125 10:0.125 11:0.8125 12:1 13:0.4375 19:0.4375 20:1 21:0.9375 27:0.1875 28:1 29:0.9375 30:0.25 35:0.4375 36:1 37:1 38:0.071428575 43:0.625 44:1 45:0.875 50:0.0625 51:0.8125 52:0.9375 53:0.25 58:0.5 59:1 60:0.875 # 0
7.8729219043907399643171522203447e-10 2:0.125 3:0.6875 4:1 5:1 6:1 7:0.75 10:0.4375 11:0.9375 12:0.5625 13:0.5 14:0.75 15:1 21:0.0625 22:0.875 23:0.83333331 29:0.6875 30:0.5625 36:0.375 37:0.8125 43:0.0625 44:0.875 45:0.1875 51:0.625 52:0.5625 58:0.0625 59:1 60:0.3125 # 0
1.1721031742202556047473373322231e-09 2:0.75 3:0.75 4:1 5:1 6:0.5625 10:0.5 11:0.375 12:0.25 13:0.8125 14:0.5 19:0.25 20:0.5 21:1 22:0.375 25:0.1875 26:1 27:1 28:1 29:0.6875 30:0.25 34:0.1875 35:0.5625 36:0.5625 42:0.1875 43:0.875 50:0.6875 51:0.4375 58:0.875 59:0.1875 # 0
-2.8966686548275412093635658798403e-11 2:0.0625 3:0.875 4:0.6875 10:0.6875 11:0.625 12:0.5 13:0.5 17:0.1875 18:1 19:0.0625 21:0.625 22:0.125 25:0.375 26:0.6875 29:0.375 30:0.375 33:0.5 34:0.5625 37:0.1875 38:0.64285713 41:0.1875 42:0.8125 45:0.3125 46:0.625 50:0.75 51:0.3125 52:0.25 53:0.75 54:0.25 58:0.0625 59:0.8125 60:1 61:0.4375 # 0
-9.6119467129919968641797928353822e-11 2:0.6875 3:0.9375 4:0.625 9:0.13333334 10:0.8125 12:0.5625 13:0.1875 17:0.1875 18:0.75 20:0.625 26:0.6875 27:0.75 28:0.75 35:0.6875 36:0.875 37:0.375 41:0.0625 42:0.5625 43:0.3125 45:0.625 46:0.3125 49:0.25 50:0.625 53:0.5 54:0.25 57:0.1 58:0.875 59:0.6875 60:0.875 61:0.625 # 0
-2.9421780912343619637310698466102e-10 2:0.6875 3:1 4:0.75 5:0.3125 9:0.26666668 10:1 11:0.6875 12:1 13:1 14:0.1875 17:0.25 18:1 19:0.6875 20:1 21:0.875 26:0.625 27:1 28:1 29:0.375 35:0.9375 36:0.875 42:0.4375 43:1 44:0.3125 50:0.9375 51:0.8125 58:0.75 59:0.6875 # 0
-2.8460320059353576201556735473326e-10 2:0.125 3:0.9375 4:0.75 10:0.1875 11:1 12:0.875 13:0.625 19:0.3125 20:0.8125 21:1 22:0.125 29:0.75 30:0.5 37:0.4375 38:0.78571427 45:0.4375 46:0.8125 50:0.125 52:0.125 53:0.6875 54:0.6875 58:0.1875 59:0.8125 60:0.9375 61:1 62:0.375 # 0
-2.3390312050983912248203737904189e-11 3:0.3125 4:0.875 5:1 6:1 7:0.3125 10:0.625 11:1 12:0.9375 13:1 14:1 15:0.53846157 17:0.25 18:0.9375 19:0.375 20:0.0625 21:1 22:0.75 26:0.125 28:0.3125 29:1 30:0.4375 36:0.25 37:1 38:0.14285715 44:0.375 45:1 46:0.0625 51:0.125 52:0.9375 53:0.875 59:0.1875 60:0.9375 61:0.4375 # 0
-6.7840505631847940135562292557673e-10 3:0.125 4:0.75 5:0.8125 6:0.5 7:0.0625 10:0.1875 11:0.75 12:0.3125 13:0.875 14:1 15:0.15384616 18:0.6875 19:0.0625 21:0.75 22:0.875 25:0.125 26:0.6875 27:0.1875 28:0.4375 29:0.875 30:0.1875 33:0.21428572 34:0.9375 35:0.6875 36:0.3125 37:0.625 44:0.5625 45:0.375 51:0.0625 52:0.875 53:0.125 60:0.875 61:0.0625 # 0
-6.2127840378366089695506629769322e-11 3:0.0625 4:0.4375 5:0.9375 6:0.3125 10:0.3125 11:0.8125 12:1 13:1 14:0.5 17:0.25 18:0.9375 19:0.6875 20:0.3125 21:1 22:0.4375 25:0.0625 26:0.25 28:0.1875 29:1 30:0.25 36:0.25 37:1 44:0.5 45:1 52:0.75 53:1 60:0.75 61:0.75 # 0
-9.9903988075067532749555408137928e-11 2:0.1875 3:0.6875 4:0.8125 5:0.5 9:0.06666667 10:0.875 11:0.3125 12:0.0625 13:0.75 14:0.1875 17:0.25 18:0.75 21:0.5 22:0.6875 25:0.0625 26:0.9375 27:0.375 28:0.25 29:0.9375 30:0.25 34:0.125 35:0.5 36:0.625 37:0.875 38:0.2857143 45:0.6875 46:0.25 51:0.125 52:0.125 53:0.6875 54:0.25 58:0.125 59:0.875 60:0.6875 61:0.4375 62:0.0625 # 0
-1.5568479925108672988975833579212e-10 2:0.5625 3:0.9375 4:1 5:0.75 6:0.0625 10:0.5625 11:0.625 12:0.875 13:1 14:0.5625 20:0.125 21:1 22:0.625 28:0.5 29:0.9375 30:0.125 35:0.625 36:0.9375 37:0.25 42:0.375 43:1 44:0.375 50:0.9375 51:1 52:0.75 53:0.75 58:0.875 59:1 60:0.8125 61:0.3125 # 0
-5.0515589868078997545660772740169e-11 1:0.375 2:0.9375 3:0.9375 4:0.5 5:0.5625 9:0.46666667 10:0.875 11:0.6875 12:1 13:1 14:0.375 17:0.125 18:1 19:0.125 20:0.4375 21:0.9375 22:0.1875 26:0.5 27:0.875 28:1 29:0.3125 34:0.4375 35:1 36:0.375 41:0.0625 42:0.9375 43:0.875 44:0.5 49:0.375 50:0.875 51:0.875 52:0.4375 57:0.30000001 58:1 59:0.9375 60:0.125 # 0
-9.1086719853591142509708132609758e-10 2:0.4375 3:0.8125 4:1 5:0.6875 6:0.25 9:0.06666667 10:1 11:0.3125 12:0.125 13:0.8125 14:0.75 17:0.25 18:0.875 20:0.25 21:0.9375 22:0.25 25:0.125 26:0.9375 27:0.8125 28:1 29:0.5 34:0.0625 35:0.5 36:0.9375 37:0.0625 42:0.0625 43:0.8125 44:0.3125 50:0.5625 51:0.625 58:0.75 59:0.375 # 0
-1.4896508648620112259588697948599e-10 3:0.5625 4:0.5625 10:0.4375 11:0.9375 12:0.1875 18:0.6875 19:0.5 26:0.875 27:0.25 28:0.125 29:0.1875 34:0.75 35:0.75 36:1 37:0.75 38:0.71428573 42:0.5625 43:0.875 44:0.5 46:0.5 47:1 50:0.25 51:0.5625 52:0.0625 53:0.125 54:0.875 55:0.5 59:0.375 60:0.6875 61:0.875 62:0.5 # 0
-1.2373860269603754818610507084216e-10 3:0.4375 4:0.75 5:0.125 10:0.3125 11:0.875 12:0.5625 13:0.1875 18:1 19:0.5 25:0.1875 26:0.8125 33:0.2857143 34:0.5625 35:0.75 36:0.875 37:0.4375 41:0.0625 42:0.6875 43:0.75 44:0.5 45:0.4375 46:0.6875 47:0.25 50:0.25 51:0.625 52:0.125 54:0.6875 55:0.5 59:0.375 60:0.8125 61:0.875 62:0.875 63:0.06666667 # 0
-1.0556527948504055091860248707846e-10 2:0.125 3:0.5 4:0.9375 5:0.4375 10:0.6875 11:0.9375 12:0.375 13:0.875 14:0.1875 18:1 19:0.375 21:0.25 22:0.5625 25:0.5 26:0.25 29:0.25 30:0.5 33:0.42857143 34:0.4375 37:0.3125 38:0.5714286 41:0.1875 42:0.8125 45:0.8125 46:0.0625 50:0.625 51:0.6875 52:0.5 53:0.6875 58:0.0625 59:0.8125 60:0.6875 61:0.125 # 0
8.6842911430895100132398948046913e-12 2:0.4375 3:0.75 4:0.5 5:0.625 6:0.9375 7:0.125 10:0.25 11:0.5 12:0.625 13:1 14:0.5 20:0.5625 21:0.625 27:0.3125 28:0.875 29:0.125 33:0.42857143 34:1 35:1 36:1 37:0.8125 38:0.071428575 41:0.1875 42:0.375 43:1 50:0.4375 51:0.8125 58:0.625 59:0.625 # 0
-3.0931290758360238593425456302794e-10 2:0.5625 3:0.75 4:0.875 5:1 6:1 7:0.125 10:0.25 11:0.75 12:0.5625 13:0.75 14:1 15:0.07692308 20:0.0625 21:0.875 22:0.5 28:0.5 29:0.875 30:0.0625 35:0.125 36:1 37:0.75 44:0.8125 45:1 46:0.3125 51:0.0625 52:0.8125 53:0.875 54:0.0625 58:0.625 59:1 60:0.8125 61:0.0625 # 0
-8.9975632478096554133005335044575e-10 2:0.1875 3:0.6875 4:1 5:1 6:0.875 7:0.0625 10:0.75 11:0.625 12:0.25 13:0.4375 14:0.9375 18:0.4375 19:0.875 20:0.9375 21:1 22:0.25 28:0.4375 29:0.75 35:0.0625 36:0.875 37:0.25 43:0.3125 44:0.8125 51:0.75 52:0.4375 58:0.125 59:0.875 # 0
-7.9317080146263183158634022158501e-10 2:0.0625 3:0.5 4:0.8125 5:0.75 6:0.0625 9:0.06666667 10:0.9375 11:0.5 12:0.25 13:0.875 14:0.375 17:0.375 18:0.625 20:0.0625 21:0.625 22:0.5 25:0.4375 26:0.75 27:0.3125 28:0.6875 29:1 30:0.4375 33:0.14285715 34:0.6875 35:0.75 36:0.625 37:1 38:0.14285715 44:0.5625 45:0.625 51:0.25 52:1 53:0.0625 59:0.75 60:0.4375 # 0
-2.1937499496832607385271356556121e-10 2:0.1875 3:0.625 4:0.875 5:0.875 9:0.66666669 10:1 11:0.875 12:0.625 13:0.9375 18:0.5 25:0.375 26:1 27:0.5 28:0.0625 33:0.14285715 34:0.6875 35:0.9375 36:0.9375 37:0.3125 44:0.9375 45:0.9375 51:0.75 52:0.8125 53:0.0625 59:0.6875 60:0.25 # 0
-2.3399923516847034781257052082708e-10 3:0.0625 4:0.625 5:1 6:0.375 10:0.1875 11:0.875 12:0.5 13:0.375 14:1 15:0.46153846 18:0.6875 19:0.25 21:0.375 22:1 23:0.33333334 25:0.25 26:0.75 27:0.125 28:0.3125 29:1 30:0.6875 33:0.42857143 34:1 35:0.9375 36:0.5 37:0.9375 38:0.2857143 44:0.25 45:0.5625 52:0.625 53:0.25 59:0.0625 60:0.8125 61:0.0625 # 0
-4.247272212078781861377007930359e-11 2:0.375 3:0.75 4:0.75 5:0.5 10:0.6875 11:1 12:1 13:1 18:0.5625 19:1 20:1 21:1 22:0.0625 26:0.75 27:1 28:1 29:0.9375 30:0.125 34:0.75 35:1 36:1 37:1 38:0.2857143 42:0.75 43:1 44:1 45:0.6875 46:0.0625 50:0.5 51:1 52:1 53:0.0625 57:0.1 58:0.6875 59:0.75 60:0.3125 # 0
1.2224568696808627598466039345168e-10 2:0.5625 3:0.875 4:1 5:0.75 6:0.0625 9:0.2 10:0.875 11:0.3125 12:0.25 13:0.75 14:0.5 17:0.0625 18:0.125 21:0.8125 22:0.375 26:0.25 27:0.5 28:0.625 29:1 30:0.25 33:0.35714287 34:0.875 35:0.6875 36:1 37:0.5 38:0.071428575 41:0.1875 42:0.125 43:0.5625 44:0.6875 50:0.1875 51:0.9375 52:0.125 58:0.5625 59:0.5 # 0
-4.560150417537285955949158231551e-10 1:0.125 2:0.625 3:0.75 4:0.875 5:0.5625 9:0.73333335 10:0.6875 11:0.3125 12:0.3125 13:1 14:0.25 17:0.25 18:0.1875 20:0.125 21:1 22:0.125 28:0.75 29:0.5625 34:0.0625 35:0.8125 36:0.625 42:0.5625 43:0.8125 49:0.125 50:1 51:0.25 57:0.1 58:0.8125 59:0.9375 60:0.75 61:0.125 # 0
5.4278098432433137699289252525291e-10 2:0.875 3:0.9375 4:0.75 5:0.75 6:0.375 9:0.06666667 10:1 11:0.75 12:0.75 13:1 14:0.4375 18:0.375 19:0.0625 20:0.75 21:0.75 27:0.5 28:0.9375 29:0.125 35:0.8125 36:0.4375 42:0.375 43:0.9375 44:0.0625 50:0.9375 51:0.625 58:0.9375 59:0.375 # 0
-2.6301875339575392459884301554366e-11 2:0.25 3:0.9375 4:0.375 10:0.8125 11:0.8125 12:1 17:0.25 18:0.9375 19:0.0625 20:1 21:0.125 27:0.125 28:1 35:0.5 36:0.75 41:0.0625 42:0.75 43:1 44:0.375 45:0.25 49:0.4375 50:1 51:1 52:1 53:1 54:0.375 58:0.125 60:0.25 61:0.5 62:0.1875 # 0
-1.7284922289722348115560899610107e-10 4:0.0625 5:0.875 6:0.25 12:0.125 13:1 14:0.5 20:0.5 21:1 22:0.375 28:0.9375 29:1 30:0.3125 35:0.5 36:1 37:1 38:0.21428572 42:0.375 43:1 44:0.5625 45:1 49:0.125 50:1 51:0.5 52:0.25 53:1 57:0.2 58:0.25 60:0.125 61:0.9375 62:0.1875 # 0
3.5450952882134582061983482518305e-10 2:0.1875 3:0.5625 4:0.9375 5:0.5 9:0.06666667 10:0.9375 11:1 12:1 13:0.4375 18:0.3125 19:1 20:1 21:0.625 22:0.25 26:0.1875 27:1 28:1 29:1 30:0.5625 35:0.9375 36:0.875 37:0.25 43:0.8125 44:0.3125 50:0.0625 51:0.9375 52:0.1875 58:0.25 59:0.8125 # 0
2.9337531081925768873995053619044e-10 3:0.625 4:1 5:0.9375 6:0.1875 10:0.375 11:0.8125 12:0.625 13:1 14:0.125 18:0.1875 19:0.0625 20:0.125 21:0.875 28:0.5 29:0.5 34:0.0625 35:0.5 36:0.875 37:0.9375 38:0.5714286 41:0.0625 42:0.9375 43:1 44:0.8125 45:0.1875 50:0.125 51:0.5625 52:0.4375 59:0.875 60:0.0625 # 0
-2.4121144816723166881366179996316e-10 2:0.3125 3:0.625 4:0.75 5:1 6:1 7:0.125 10:0.625 11:1 12:1 13:0.625 14:0.375 18:0.3125 19:1 20:0.3125 27:0.75 28:1 29:0.125 36:0.75 37:0.75 44:0.8125 45:0.5625 50:0.0625 51:0.75 52:0.8125 53:0.125 58:0.4375 59:0.8125 60:0.125 # 0
-7.9099323529960744170328137945966e-11 3:0.5625 4:1 5:0.3125 9:0.06666667 10:0.75 11:0.9375 12:0.9375 13:0.5 17:0.4375 18:0.8125 19:0.3125 20:0.9375 21:0.25 26:0.0625 27:0.375 28:1 35:0.5 36:1 43:0.5625 44:0.8125 51:0.75 52:0.5 53:0.25 54:0.1875 59:0.6875 60:1 61:0.9375 62:0.3125 # 0
1.2849990028271359848375430296217e-11 1:0.25 2:1 3:1 4:1 5:0.8125 6:0.0625 10:0.1875 11:0.1875 12:0.1875 13:0.9375 14:0.3125 20:0.3125 21:0.9375 26:0.1875 27:0.3125 28:0.875 29:0.1875 34:0.9375 35:1 36:1 37:0.875 38:0.35714287 42:0.375 43:0.875 44:0.25 45:0.5625 46:0.3125 50:0.75 51:0.4375 57:0.40000001 58:0.9375 # 0
-1.4552823081677756242596562290736e-09 2:0.3125 3:0.5625 4:1 5:0.8125 6:0.25 9:0.06666667 10:0.9375 11:0.5 12:0.3125 13:0.875 14:0.75 18:0.25 20:0.25 21:0.875 22:0.5 27:0.125 28:0.875 29:0.625 35:0.75 36:0.875 42:0.4375 43:0.875 44:0.1875 50:0.9375 51:0.625 58:0.25 59:0.75 60:0.75 61:0.375 # 0
-1.0034659628685421391921398732319e-11 2:0.3125 3:1 4:0.0625 10:0.6875 11:0.6875 14:0.375 15:0.38461539 18:0.875 19:0.4375 21:0.125 22:0.9375 23:1 25:0.1875 26:1 27:0.625 28:0.0625 29:0.75 30:0.75 34:0.875 35:1 36:1 37:1 38:0.2857143 42:0.0625 43:0.6875 44:1 45:0.4375 51:0.8125 52:0.625 58:0.4375 59:0.9375 60:0.0625 # 0
-1.4411817277418766825728531335226e-10 2:0.3125 3:0.5625 4:0.8125 5:0.5 10:0.25 11:1 12:0.9375 13:0.1875 18:0.8125 19:0.875 20:0.125 21:0.375 22:0.1875 25:0.3125 26:1 27:0.3125 28:0.6875 29:1 30:0.5 33:0.5 34:1 35:1 36:1 37:0.875 38:0.071428575 41:0.1875 42:0.5 43:1 44:1 45:0.25 50:0.3125 51:1 52:0.625 58:0.625 59:0.75 60:0.1875 # 0
6.6514454467205413572848852498168e-10 2:0.0625 3:0.75 4:1 5:1 6:0.75 11:0.4375 12:0.25 13:0.6875 14:0.8125 21:0.5 22:0.6875 27:0.0625 28:0.25 29:0.75 30:0.5 35:0.75 36:1 37:1 38:0.5714286 43:0.1875 44:0.75 45:0.375 51:0.375 52:0.875 59:0.9375 60:0.3125 # 0
-1.6602417060462474996573972968288e-09 2:0.25 3:0.875 4:1 5:0.4375 9:0.06666667 10:1 11:0.875 12:0.5 13:0.3125 17:0.5 18:0.625 25:0.1875 26:0.8125 34:0.75 35:0.375 42:0.25 43:0.8125 51:1 52:0.3125 58:0.4375 59:1 60:0.25 # 0
-1.7700950786721131812838678369534e-10 1:0.375 2:0.5 3:0.75 4:0.8125 5:0.1875 9:0.33333334 10:0.6875 11:0.5 12:0.75 13:0.625 20:0.8125 21:0.4375 26:0.3125 27:0.875 28:1 29:0.8125 34:0.4375 35:0.8125 36:0.4375 37:0.875 38:0.5714286 44:0.125 45:1 46:0.4375 49:0.0625 50:0.375 51:0.6875 52:1 53:0.4375 57:0.30000001 58:0.8125 59:0.6875 60:0.1875 # 0
-2.5336746208642876282255987783663e-11 2:0.3125 3:0.625 4:0.875 5:0.5 9:0.53333336 10:1 11:0.8125 12:1 13:0.9375 19:0.0625 20:1 21:0.5 27:0.375 28:1 29:0.125 35:0.3125 36:1 37:0.875 38:0.14285715 44:0.375 45:1 46:0.5 50:0.0625 51:0.625 52:0.875 53:0.9375 54:0.0625 58:0.125 59:0.8125 60:0.625 61:0.125 # 0
-2.1908503654252002107285501593219e-10 2:0.5 3:0.8125 4:0.9375 5:0.625 6:0.1875 10:0.8125 11:0.9375 12:0.75 13:0.75 14:0.5625 17:0.1875 18:0.875 19:0.4375 25:0.4375 26:0.5 27:0.25 28:0.125 33:0.14285715 34:1 35:1 36:0.9375 42:0.0625 43:0.3125 44:0.8125 51:0.625 52:0.375 58:0.375 59:0.8125 60:0.0625 # 0
2.6195502076600806039733466046206e-10 2:0.125 3:0.625 4:1 5:0.1875 10:0.9375 11:1 12:1 13:0.25 17:0.1875 18:0.75 19:0.0625 20:1 21:0.9375 22:0.5625 27:0.4375 28:1 29:1 30:0.8125 35:1 36:0.9375 37:0.125 43:0.5 44:0.75 51:0.8125 52:0.5625 59:0.875 60:0.1875 # 0
-3.3942467109432430115911042690349e-10 2:0.25 3:0.875 4:0.9375 5:0.3125 9:0.46666667 10:0.875 11:0.4375 12:0.375 13:1 17:0.625 18:0.375 21:0.6875 22:0.1875 25:0.25 26:0.125 28:0.0625 29:0.875 36:0.625 37:0.4375 43:0.3125 44:0.8125 45:0.0625 50:0.375 51:1 52:0.5 58:0.3125 59:0.5625 60:0.75 61:0.75 62:1 63:0.13333334 # 0
-2.7239421690924569852894772597292e-10 3:0.5 4:0.9375 5:1 6:0.4375 9:0.06666667 10:0.875 11:0.5625 12:0.0625 14:0.5 17:0.375 18:0.75 21:0.625 22:0.5 25:0.25 26:0.875 27:0.75 28:0.8125 29:0.875 30:0.5 36:0.0625 37:0.25 38:0.5714286 45:0.25 46:0.5 53:0.4375 54:0.5 59:0.5 60:0.75 61:0.9375 62:0.375 # 0
-1.9663795042993329311865425044129e-11 1:0.625 2:0.9375 3:0.8125 9:0.2 10:0.625 11:1 12:0.3125 19:0.875 20:0.25 26:0.375 27:0.875 33:0.071428575 34:0.875 35:0.4375 41:0.4375 42:0.8125 43:0.0625 49:0.8125 50:0.875 51:0.625 52:0.6875 53:0.5625 54:0.3125 57:0.5 58:0.9375 59:1 60:0.875 61:0.625 62:0.1875 # 0
-8.5003464820037391037385853800531e-10 2:0.0625 3:0.875 4:0.625 10:0.1875 11:1 12:1 13:0.0625 18:0.1875 19:1 20:0.8125 26:0.3125 27:1 28:0.5625 34:0.375 35:1 36:0.625 42:0.25 43:1 44:0.5625 50:0.1875 51:1 52:0.375 58:0.0625 59:0.75 60:0.375 # 0
-1.115543138827120585910449277847e-10 2:0.5 3:0.6875 6:0.8125 7:0.5625 9:0.2 10:0.9375 11:0.375 13:0.75 14:0.8125 15:0.07692308 17:0.1875 18:1 19:0.3125 20:0.4375 21:1 22:0.3125 26:0.75 27:1 28:1 29:1 30:0.5 34:0.0625 35:0.6875 36:0.8125 37:0.25 42:0.0625 43:0.9375 44:0.25 50:0.4375 51:0.8125 58:0.6875 59:0.3125 # 0
-9.3919828295078768013473934983297e-12 3:0.0625 4:0.75 5:0.25 11:0.5625 12:0.875 18:0.125 19:1 20:0.3125 26:0.3125 27:1 28:0.5625 29:0.125 33:0.14285715 34:1 35:1 36:0.8125 37:1 38:0.5714286 42:0.5625 43:0.9375 45:0.125 46:0.9375 51:0.9375 52:0.5 53:0.5 54:1 55:0.30000001 59:0.1875 60:0.6875 61:0.8125 62:0.625 # 0
4.3362876721284732208958731811208e-10 2:0.25 3:0.8125 4:0.6875 10:0.0625 11:0.8125 12:1 13:0.4375 20:0.875 21:0.5625 26:0.0625 27:0.375 28:1 29:0.875 30:0.3125 33:0.071428575 34:0.8125 35:1 36:1 37:0.625 38:0.21428572 41:0.125 42:0.5 43:0.8125 44:0.625 50:0.0625 51:1 52:0.125 58:0.25 59:0.8125 60:0.0625 # 0
-5.7713334635563124149309341683972e-11 2:0.3125 3:0.75 4:0.5 10:0.8125 11:0.375 12:0.0625 17:0.125 18:0.875 19:0.0625 25:0.25 26:0.875 28:0.1875 29:0.0625 33:0.5 34:0.6875 35:0.8125 36:0.8125 37:0.8125 38:0.35714287 41:0.25 42:1 43:0.5 45:0.125 46:0.75 49:0.0625 50:0.9375 51:0.375 52:0.125 53:0.75 54:0.1875 58:0.375 59:0.8125 60:0.75 61:0.25 # 0
-6.6109249822540663548461627966202e-11 2:0.1875 3:0.8125 10:0.75 11:0.375 17:0.125 18:1 19:0.0625 25:0.3125 26:0.75 33:0.5714286 34:0.625 35:0.3125 36:0.6875 37:0.4375 41:0.375 42:1 43:1 44:0.5625 45:0.75 46:0.5 50:0.875 51:0.5625 52:0.25 53:0.6875 54:0.5 58:0.1875 59:0.75 60:0.8125 61:0.5625 62:0.0625 # 0
-9.7269068710113923726418776856894e-11 2:0.1875 3:1 10:0.625 11:0.625 12:0.1875 13:0.3125 18:1 19:0.3125 20:0.75 21:0.625 25:0.25 26:0.9375 27:0.125 28:0.9375 29:0.25 33:0.71428573 34:0.8125 35:0.5625 36:0.9375 37:0.625 38:0.78571427 41:0.1875 42:0.875 43:1 44:0.875 45:0.5 46:0.125 51:0.9375 52:0.375 58:0.1875 59:0.9375 # 0
-1.8199476935680209846638065448814e-10 2:0.0625 3:0.75 4:0.9375 5:0.375 10:0.3125 11:0.8125 12:0.0625 13:0.75 18:0.125 19:0.6875 20:0.0625 21:0.9375 27:0.625 28:0.6875 29:0.5625 35:0.375 36:1 37:0.375 42:0.625 43:0.9375 44:0.25 45:0.8125 46:0.1875 50:0.75 51:0.125 53:0.0625 54:0.875 58:0.0625 59:0.625 60:0.625 61:0.5 62:0.9375 63:0.06666667 # 0
-1.8226068076571168793077519607889e-10 1:0.25 2:0.875 3:0.875 4:0.0625 9:0.60000002 10:0.8125 11:0.8125 12:0.375 17:0.5625 18:0.3125 19:0.1875 20:0.625 26:0.0625 27:0.1875 28:0.5625 35:0.5 36:0.25 42:0.125 43:0.9375 44:0.25 45:0.125 49:0.0625 50:0.8125 51:1 52:1 53:1 54:0.5625 58:0.8125 59:0.5 60:0.5 61:0.4375 62:0.125 # 0
-1.4298117982088002535098240334979e-11 2:0.375 3:0.5625 4:0.25 5:0.0625 10:0.375 11:1 12:1 13:0.5625 14:0.0625 18:0.25 19:1 20:0.0625 21:0.8125 22:0.4375 27:0.875 28:0.3125 29:0.75 30:0.5 33:0.071428575 34:0.625 35:0.9375 36:1 37:0.625 41:0.375 42:0.9375 43:0.5625 44:1 45:0.0625 49:0.4375 50:0.8125 51:0.5 52:0.875 53:0.25 58:0.375 59:0.625 60:0.8125 61:0.0625 # 0
-3.5298858161591791082071738316415e-11 3:0.75 4:0.5 6:0.375 7:0.1875 10:0.25 11:1 12:0.1875 13:0.1875 14:0.9375 15:0.23076923 18:0.75 19:0.625 21:0.75 22:0.5 25:0.5 26:0.9375 27:0.3125 28:0.5 29:1 30:0.25 33:0.71428573 34:1 35:1 36:1 37:1 38:0.71428573 42:0.25 43:0.3125 44:0.9375 45:0.0625 51:0.5 52:0.6875 59:0.75 60:0.375 # 0
-4.7613517181103581203372391840401e-10 1:0.125 2:0.4375 3:0.75 4:0.875 5:0.3125 9:0.2 10:0.8125 11:0.5 12:0.875 13:0.625 19:0.1875 20:1 21:0.125 27:0.8125 28:0.75 29:0.1875 35:0.5 36:0.8125 37:1 38:0.2857143 44:0.25 45:0.875 46:0.1875 50:0.0625 51:0.75 52:1 53:0.5625 58:0.5625 59:0.8125 60:0.3125 # 0
-3.0408604941337184718477569960761e-10 1:0.125 2:0.375 3:0.6875 4:1 5:0.375 10:0.3125 11:0.8125 12:0.6875 13:1 14:0.375 18:0.25 19:1 20:0.5 26:0.3125 27:0.9375 33:0.071428575 34:0.8125 35:0.625 36:0.25 41:0.375 42:0.625 43:0.25 44:0.5 49:0.5 50:0.4375 51:0.75 52:0.4375 57:0.2 58:0.8125 59:0.875 # 0
-7.297200925732434439678329274231e-11 2:0.3125 3:0.8125 4:0.75 5:0.0625 9:0.13333334 10:0.9375 11:0.3125 12:0.375 13:0.4375 17:0.375 18:0.5625 21:1 22:0.25 25:0.375 26:0.625 29:0.875 30:0.375 34:0.5625 35:0.8125 36:0.875 37:0.75 38:0.64285713 46:0.75 50:0.1875 53:0.1875 54:0.875 58:0.3125 59:0.75 60:0.8125 61:0.875 62:0.3125 # 0
-3.7439958292001111057380524285839e-10 2:0.6875 3:1 4:1 5:0.5 10:0.6875 11:0.75 12:0.5 13:0.8125 18:0.4375 19:0.625 26:0.1875 27:0.8125 35:0.875 36:0.125 43:0.8125 44:0.375 50:0.375 51:0.75 52:0.625 58:0.6875 59:1 60:0.5625 # 0
-2.028545903175353045113298510008e-10 2:0.625 3:0.9375 4:1 5:0.375 9:0.06666667 10:0.8125 11:0.3125 12:0.4375 13:0.9375 14:0.125 20:0.4375 21:0.75 22:0.125 27:0.375 28:0.9375 29:0.1875 34:0.4375 35:0.75 36:0.0625 41:0.3125 42:0.875 43:0.125 49:0.5625 50:0.875 51:0.625 52:0.6875 53:0.4375 54:0.0625 57:0.1 58:0.4375 59:0.5 60:0.5 61:0.6875 62:0.25 # 0
3.2741133383251198287301603204584e-11 2:0.5625 3:1 4:0.9375 5:0.0625 10:0.1875 11:0.5 12:1 13:0.3125 20:0.875 21:0.4375 25:0.125 26:0.6875 27:0.5625 28:1 29:0.1875 33:0.78571427 34:1 35:1 36:1 37:0.75 38:0.071428575 43:0.8125 44:0.9375 45:1 46:0.3125 50:0.3125 51:1 52:0.125 58:0.625 59:0.625 # 0
-2.6935952094578789035015179960473e-10 2:0.375 3:0.75 4:0.5 9:0.46666667 10:1 11:0.5 12:0.9375 13:0.0625 17:0.5625 18:0.25 20:0.8125 21:0.25 27:0.0625 28:1 29:0.0625 35:0.375 36:0.625 43:0.75 44:0.5 50:0.375 51:0.9375 52:0.375 53:0.25 54:0.375 58:0.4375 59:1 60:0.9375 61:0.75 62:0.75 # 0
-9.7881120873533994175687585579548e-11 1:0.375 2:0.75 3:0.75 4:0.1875 9:0.53333336 10:0.625 11:0.6875 12:0.5625 18:0.125 19:0.875 20:0.25 26:0.75 27:0.8125 28:0.0625 34:0.1875 35:0.8125 36:0.9375 37:0.1875 44:0.4375 45:0.875 46:0.0625 49:0.125 50:0.25 51:0.25 52:0.1875 53:0.6875 54:0.4375 57:0.5 58:0.75 59:0.75 60:0.875 61:1 62:0.5 # 0
-8.1028181798724107027371057027597e-11 2:0.1875 3:0.75 4:1 5:0.625 9:0.2 10:0.875 11:0.3125 13:0.75 17:0.5625 18:0.5 19:0.0625 20:0.5625 21:1 22:0.25 25:0.3125 26:0.9375 27:0.9375 28:0.9375 29:0.875 30:0.125 36:0.9375 37:0.1875 43:0.5 44:0.625 51:0.6875 52:0.375 58:0.1875 59:0.9375 60:0.125 # 0
-5.2555062439560859727275921542524e-11 4:0.6875 5:0.5 11:0.125 12:1 13:0.5 19:0.375 20:1 21:0.125 27:0.4375 28:0.9375 35:0.625 36:0.875 42:0.8125 43:1 44:1 45:0.6875 50:0.4375 51:0.4375 52:1 53:1 54:0.625 60:0.5 61:1 62:0.9375 # 0
-3.5646987752574989486905540740579e-11 2:0.9375 3:0.4375 5:0.125 6:0.6875 7:0.0625 9:0.2 10:1 11:0.375 12:0.0625 13:0.75 14:0.8125 15:0.15384616 17:0.25 18:1 19:0.3125 20:0.5 21:0.9375 22:0.1875 25:0.125 26:1 27:1 28:1 29:0.8125 34:0.25 35:0.875 36:0.9375 37:0.1875 42:0.4375 43:1 44:0.1875 49:0.0625 50:0.8125 51:0.625 57:0.1 58:1 59:0.1875 # 0
-8.2739972121629619583524484911741e-11 3:0.5625 4:0.375 10:0.125 11:0.9375 12:0.375 18:0.375 19:0.625 26:0.6875 27:0.5 28:0.4375 29:0.125 34:0.875 35:0.9375 36:0.5 37:0.875 38:0.35714287 42:1 43:0.3125 45:0.25 46:0.8125 50:0.5625 51:0.8125 53:0.4375 54:0.8125 59:0.6875 60:1 61:0.875 62:0.125 # 0
-5.4045587357514571368369691183769e-11 3:0.75 4:1 5:0.8125 10:0.375 11:1 12:0.625 13:0.3125 16:0.33333334 17:0.875 18:0.125 19:0.375 25:0.75 26:0.6875 33:0.21428572 34:0.875 35:0.6875 36:0.0625 42:0.1875 43:0.8125 44:0.6875 51:0.3125 52:1 53:0.375 59:0.8125 60:1 61:0.375 # 0
4.2979561047295725648048979843216e-10 2:0.3125 3:0.75 4:0.9375 5:0.9375 6:0.3125 10:0.5 11:0.4375 12:0.25 13:0.8125 14:0.4375 20:0.125 21:1 22:0.0625 26:0.125 27:0.25 28:0.75 29:0.625 33:0.5 34:1 35:0.875 36:1 37:0.75 38:0.14285715 41:0.125 43:0.6875 44:0.4375 50:0.1875 51:0.875 52:0.0625 58:0.5 59:0.4375 # 0
-1.422682179389069561027310924166e-10 2:0.3125 3:0.5 10:0.75 11:0.375 12:0.75 13:0.4375 17:0.125 18:0.625 19:0.375 20:0.5625 21:0.9375 22:0.0625 25:0.4375 26:0.5 29:0.75 30:0.5 33:0.5714286 34:0.5 37:0.75 38:0.42857143 41:0.3125 42:0.8125 45:0.8125 46:0.25 50:0.875 51:0.625 52:0.625 53:0.8125 58:0.25 59:0.75 60:0.6875 61:0.0625 # 0
-2.4939799634217276596591279520364e-11 3:0.375 4:0.875 5:1 6:0.4375 10:0.625 11:0.9375 12:0.375 13:0.9375 14:0.4375 17:0.25 18:1 19:0.1875 20:0.125 21:0.75 25:0.1875 26:0.9375 27:0.6875 28:0.4375 29:1 30:0.1875 34:0.125 35:0.5625 36:0.9375 37:0.8125 43:0.25 44:0.9375 45:0.3125 51:0.5 52:1 59:0.3125 60:1 # 0
-1.9622680986308828731461175716429e-11 1:0.625 2:0.875 3:0.75 4:0.9375 5:0.9375 6:0.1875 10:0.125 11:0.25 12:0.6875 13:1 14:0.3125 19:0.0625 20:0.9375 21:0.5625 27:0.4375 28:1 29:0.0625 35:0.1875 36:1 37:0.6875 44:0.9375 45:1 49:0.0625 50:0.4375 51:0.625 52:1 53:0.4375 57:0.2 58:0.75 59:0.8125 60:0.25 # 0
-1.4356018084743818204040664622973e-11 1:0.125 2:0.75 3:0.625 9:0.26666668 10:1 11:0.1875 13:0.5625 14:0.5625 17:0.5 18:0.875 20:0.1875 21:1 22:0.375 25:0.5625 26:0.9375 27:0.5 28:0.8125 29:0.875 30:0.3125 33:0.071428575 34:0.75 35:1 36:1 37:0.9375 38:0.35714287 42:0.0625 43:0.875 44:0.375 50:0.5 51:0.8125 57:0.2 58:0.75 59:0.1875 # 0
-1.0900176789264774843776230182522e-10 2:0.1875 3:0.875 4:1 5:0.375 9:0.06666667 10:0.8125 11:0.3125 12:0.25 13:0.8125 17:0.3125 18:0.75 21:0.5625 22:0.25 25:0.3125 26:0.5625 29:0.3125 30:0.5 33:0.5714286 34:0.4375 37:0.1875 38:0.5714286 41:0.375 42:0.5625 45:0.125 46:0.5625 50:0.9375 51:0.1875 52:0.0625 53:0.5625 54:0.5 58:0.3125 59:0.9375 60:0.875 61:0.5625 # 0
-7.5713556543142000450417413405448e-10 2:0.5625 3:1 4:1 5:0.875 9:0.2 10:0.9375 11:0.625 12:0.125 13:0.3125 17:0.6875 18:0.5625 25:0.5 26:0.875 27:0.0625 33:0.071428575 34:0.9375 35:0.3125 42:0.6875 43:0.5625 50:0.5625 51:0.75 58:0.875 59:0.5625 # 0
-4.749295557601291485648889308036e-11 3:0.375 4:0.5 10:0.125 11:0.875 12:0.1875 18:0.5625 19:0.5 25:0.25 26:0.9375 27:0.0625 29:0.625 30:0.3125 33:0.5 34:0.8125 36:0.125 37:1 38:0.21428572 41:0.6875 42:0.875 43:0.5 44:0.9375 45:0.5625 49:0.75 50:1 51:0.875 52:0.9375 57:0.1 58:0.25 59:0.5625 60:0.5 # 0
-7.2284010359448462150281460167415e-11 1:0.125 2:0.5 3:0.875 4:1 5:0.5 9:0.2 10:0.75 11:0.5625 12:0.6875 13:0.875 20:0.4375 21:0.875 28:0.875 29:0.6875 35:0.5625 36:0.8125 37:0.125 42:0.4375 43:1 44:0.1875 50:0.9375 51:1 52:0.5 53:0.5 54:0.1875 58:0.5625 59:0.8125 60:0.75 61:0.5 62:0.1875 # 0
-9.2940847660717618444544695335461e-11 4:0.375 5:0.6875 11:0.25 12:1 13:0.75 18:0.0625 19:0.75 20:1 21:0.6875 25:0.0625 26:0.75 27:0.8125 28:1 29:0.4375 33:0.64285713 34:1 35:0.8125 36:1 37:0.1875 41:0.125 42:0.1875 43:0.375 44:1 45:0.1875 51:0.375 52:1 53:0.1875 60:0.5625 61:0.5 # 0
-5.5239264804600471788147406224093e-11 3:0.5 4:0.875 5:0.9375 6:0.5625 10:0.5 11:0.9375 12:0.5625 13:0.5 14:0.5625 18:1 19:0.0625 25:0.4375 26:0.5625 33:0.35714287 34:1 35:1 36:1 37:0.9375 38:0.071428575 42:0.25 43:0.1875 44:0.3125 45:1 46:0.1875 51:0.4375 52:0.5625 53:0.75 59:0.8125 60:0.75 61:0.0625 # 0
-2.3409016339330548530681910865184e-11 2:0.75 3:1 4:0.375 9:0.46666667 10:0.75 11:0.25 12:0.875 17:0.6875 18:0.875 20:0.375 21:0.25 25:0.375 26:0.5 28:0.4375 29:0.25 36:0.625 37:0.1875 43:0.3125 44:0.8125 50:0.1875 51:0.875 52:0.625 58:0.875 59:0.8125 60:0.75 61:0.9375 62:0.8125 63:0.06666667 # 0
8.7553448881020981897466369938359e-11 2:0.4375 3:0.9375 4:0.625 10:0.75 11:0.625 12:0.9375 13:0.1875 20:0.75 21:0.6875 28:0.875 29:0.5625 33:0.071428575 34:0.3125 35:0.5 36:1 37:0.75 38:0.14285715 41:0.625 42:1 43:1 44:0.9375 45:0.625 46:0.1875 50:0.125 51:1 52:0.25 58:0.5 59:0.75 # 0
6.7211488697629031836404837476164e-11 2:0.25 3:0.8125 4:1 5:0.5 9:0.33333334 10:1 11:0.5 12:0.625 13:0.75 17:0.5 18:0.5625 20:0.5 21:0.75 27:0.125 28:0.6875 29:0.625 30:0.125 34:0.1875 35:1 36:1 37:1 38:0.64285713 43:0.5625 44:0.875 51:0.8125 52:0.4375 58:0.3125 59:0.9375 60:0.125 # 0
-3.5698650626545647475150942999424e-11 3:0.5625 4:0.875 5:1 6:0.75 10:0.625 11:0.875 12:0.375 13:0.6875 14:0.9375 15:0.07692308 18:0.6875 19:0.9375 20:1 21:1 22:0.5 28:0.0625 29:0.9375 30:0.5625 36:0.3125 37:0.9375 43:0.0625 44:0.875 45:0.3125 51:0.375 52:0.75 59:0.75 60:0.3125 # 0
-6.187237312691003861163684918417e-12 2:0.1875 3:1 4:0.1875 10:0.6875 11:0.8125 12:0.0625 13:0.0625 17:0.375 18:0.875 19:0.125 20:0.5625 21:0.75 25:0.5625 26:0.75 28:0.875 29:0.3125 30:0.0625 33:0.5 34:1 35:0.75 36:1 37:1 38:0.78571427 42:0.375 43:0.6875 44:0.9375 45:0.3125 46:0.0625 51:0.6875 52:0.625 58:0.1875 59:1 60:0.25 # 0
-6.8585763803158676146258949201772e-11 2:0.5 3:0.875 4:1 5:0.3125 9:0.13333334 10:1 11:0.5 12:0.625 13:0.5 18:0.25 19:0.125 20:0.8125 21:0.375 27:0.4375 28:0.75 34:0.0625 35:0.9375 36:0.4375 42:0.5625 43:0.6875 49:0.25 50:1 51:0.5625 52:0.5 53:0.75 54:0.125 58:0.625 59:0.875 60:0.5625 61:0.125 # 0
-3.2953657620908455105888634333608e-11 3:0.125 4:0.6875 5:0.8125 6:0.125 10:0.125 11:0.8125 12:1 13:1 14:0.125 17:0.1875 18:0.9375 19:0.875 20:0.8125 21:1 26:0.375 28:0.9375 29:0.5625 36:1 37:0.375 43:0.25 44:1 51:0.3125 52:1 53:0.1875 59:0.1875 60:1 61:0.375 # 0
-4.4303599103101460238767115168231e-11 1:0.25 2:0.6875 3:0.1875 5:0.125 9:0.13333334 10:0.8125 11:0.75 12:0.3125 13:0.9375 14:0.375 18:0.6875 19:0.875 20:0.875 21:0.0625 26:0.4375 27:0.9375 28:0.0625 34:0.9375 35:0.75 36:0.3125 41:0.25 42:0.625 43:0.25 44:0.5 49:0.4375 50:0.5625 51:0.4375 52:0.5 57:0.2 58:0.875 59:0.9375 60:0.3125 # 0
-5.3091072127061416778110996244675e-11 2:0.125 3:0.75 4:1 5:0.4375 11:0.625 12:1 13:0.1875 19:0.1875 20:0.9375 21:0.3125 28:0.375 29:0.9375 30:0.1875 37:0.5 38:1 45:0.6875 46:1 51:0.1875 52:0.8125 53:1 54:0.5625 58:0.375 59:1 60:0.75 61:0.5 62:0.0625 # 0
-5.2663749737027103800484252740739e-11 2:0.375 3:0.75 4:0.8125 5:0.75 6:0.375 10:0.375 11:0.5 12:0.125 13:0.3125 14:0.4375 18:0.75 19:0.125 25:0.4375 26:0.9375 27:0.75 28:0.4375 29:0.125 33:0.14285715 34:0.5 35:0.5 36:0.5625 37:0.9375 38:0.2857143 45:0.4375 46:0.4375 50:0.25 51:0.3125 52:0.25 53:0.8125 54:0.125 58:0.25 59:0.9375 60:1 61:0.375 # 0
-3.8423247692120728806240223729816e-11 2:0.0625 3:0.9375 4:0.25 9:0.26666668 10:0.4375 11:0.5625 12:1 13:0.25 17:0.5 18:0.4375 20:0.25 21:0.9375 25:0.375 26:0.375 29:0.6875 30:0.375 33:0.35714287 34:0.5625 37:0.1875 38:0.64285713 42:0.9375 45:0.3125 46:0.5625 50:0.6875 51:0.6875 52:0.3125 53:0.9375 54:0.3125 58:0.1875 59:0.8125 60:1 61:0.6875 # 0
-6.9247425405541463952689859049841e-11 2:0.25 3:0.6875 4:0.875 5:0.375 9:0.26666668 10:0.875 11:0.4375 12:0.375 13:0.9375 17:0.25 18:0.3125 20:0.3125 21:0.6875 27:0.4375 28:0.9375 29:0.6875 35:0.6875 36:0.625 37:0.9375 38:0.2857143 45:0.625 46:0.5 50:0.0625 51:0.25 52:0.4375 53:0.9375 54:0.0625 58:0.1875 59:1 60:0.6875 61:0.125 # 0
-3.0688411907583931513500501945136e-11 3:0.375 4:0.9375 5:0.375 11:0.75 12:0.625 13:0.8125 19:0.6875 20:0.9375 21:0.875 26:0.5625 27:0.6875 28:0.875 33:0.2857143 34:0.6875 36:0.625 37:0.375 41:0.1875 42:0.5625 44:0.0625 45:0.875 46:0.0625 50:0.6875 51:0.5 52:0.125 53:0.5625 54:0.4375 59:0.375 60:0.75 61:0.8125 62:0.4375 # 0
-3.836873826018320013945067418565e-11 2:0.0625 3:0.6875 4:0.375 10:0.4375 11:0.8125 12:0.125 18:0.8125 19:0.375 25:0.0625 26:0.8125 27:0.0625 33:0.071428575 34:0.75 36:0.25 37:0.1875 41:0.0625 42:0.6875 43:0.6875 44:0.875 45:0.875 46:0.625 50:0.75 51:0.9375 52:0.3125 53:0.25 54:0.9375 55:0.30000001 58:0.0625 59:0.8125 60:1 61:0.75 62:0.5625 63:0.06666667 # 0
-4.3415235366338375776812704040476e-11 2:0.3125 3:0.875 4:0.5 10:0.9375 11:0.6875 12:0.9375 18:0.3125 19:0.125 20:0.6875 21:0.1875 27:0.5625 28:1 29:0.3125 34:0.0625 35:0.75 36:0.75 37:0.9375 38:0.35714287 45:0.3125 46:0.75 50:0.375 51:0.25 52:0.4375 53:0.75 54:0.625 58:0.5625 59:0.9375 60:0.75 61:0.5625 62:0.0625 # 0
-1.3329198303671219833542654319672e-11 1:0.25 2:0.3125 3:0.625 4:1 5:0.375 9:0.26666668 10:0.75 11:0.8125 12:1 13:0.3125 19:0.3125 20:1 27:0.6875 28:0.6875 35:0.6875 36:0.8125 37:0.125 43:0.0625 44:0.75 45:0.9375 46:0.25 52:0.4375 53:1 54:0.5 58:0.0625 59:0.8125 60:1 61:0.6875 62:0.125 # 0
-1.1892793891020627381179572736843e-11 4:0.6875 5:0.75 12:0.6875 13:1 14:0.125 20:0.9375 21:0.8125 26:0.375 27:1 28:1 29:0.75 33:0.5 34:1 35:1 36:1 37:0.5 41:0.0625 42:0.25 43:0.4375 44:1 45:0.6875 51:0.125 52:0.9375 53:0.8125 60:0.5 61:1 62:0.25 # 0
-3.0371684497636440313015066035502e-12 3:0.125 4:0.875 10:0.0625 11:0.8125 12:0.875 13:0.0625 18:0.3125 19:1 20:0.25 26:0.6875 27:0.5 34:0.75 35:0.5 36:0.0625 42:0.5 43:1 44:1 45:0.875 46:0.3125 50:0.25 51:1 52:0.25 53:0.5 54:1 55:0.30000001 59:0.25 60:0.6875 61:0.9375 62:0.875 63:0.40000001 # 0
-1.6594221033535121517879039796485e-11 3:0.1875 4:0.8125 11:0.75 12:0.5 18:0.3125 19:0.875 20:0.125 25:0.0625 26:0.9375 27:0.25 29:0.1875 30:0.5 33:0.9285714 34:0.9375 35:0.75 36:0.5625 37:0.8125 38:0.71428573 41:0.3125 42:0.5 43:0.5 44:0.9375 45:0.875 46:0.125 51:0.125 52:0.875 53:0.3125 59:0.375 60:0.75 # 0
-8.1796114792347759482137143361931e-12 4:0.5 5:0.6875 11:0.125 12:0.875 13:0.375 19:0.6875 20:0.5625 21:0.125 22:0.1875 26:0.5625 27:0.75 28:0.0625 29:0.6875 30:0.5625 33:0.2857143 34:1 35:0.375 37:0.8125 38:0.35714287 41:0.5 42:1 43:1 44:1 45:1 51:0.1875 52:0.5 53:0.9375 60:0.375 61:0.75 # 0
-1.6629022633188641012714564168935e-11 2:0.5 3:0.875 4:0.8125 5:0.1875 9:0.40000001 10:0.8125 11:0.1875 12:0.375 13:0.6875 17:0.0625 18:0.125 20:0.25 21:0.8125 27:0.6875 28:1 29:0.6875 35:0.1875 36:0.25 37:0.6875 38:0.5 45:0.3125 46:0.5625 49:0.125 50:0.8125 51:0.0625 53:0.4375 54:0.625 58:0.5625 59:1 60:0.8125 61:0.75 62:0.0625 # 0
-1.2102200861461593449011687118386e-11 2:0.25 3:0.75 4:0.4375 10:0.8125 11:0.6875 12:0.75 13:0.25 18:0.5 20:0.1875 21:0.625 28:0.125 29:0.8125 36:0.5625 37:0.5 43:0.1875 44:1 45:0.0625 50:0.5 51:1 52:0.9375 53:0.875 54:0.875 55:0.1 58:0.375 59:0.75 60:0.75 61:0.625 62:0.625 63:0.13333334 # 0
-1.161739848994936953107595405509e-11 2:0.5 3:0.875 4:0.5625 9:0.40000001 10:0.9375 11:0.75 12:1 13:0.1875 17:0.0625 18:0.1875 20:0.5 21:0.25 28:0.5625 29:0.3125 35:0.0625 36:0.9375 37:0.1875 43:0.75 44:0.6875 50:0.625 51:1 52:0.8125 53:0.75 54:0.375 58:0.6875 59:0.75 60:0.75 61:0.5625 62:0.25 # 0
-6.5401968925092064276639206968619e-12 2:0.0625 3:0.4375 4:0.75 5:0.4375 10:0.375 11:1 12:0.625 13:0.3125 18:0.875 19:1 20:0.875 21:0.25 26:0.1875 27:0.25 28:0.375 29:0.8125 37:0.6875 38:0.42857143 45:0.4375 46:0.5625 50:0.625 51:0.3125 52:0.125 53:0.5 54:0.6875 58:0.25 59:0.875 60:1 61:1 62:0.25 # 0
