SVM-light Version V6.02
1 # kernel type
8 # kernel parameter -d 
1 # kernel parameter -g 
1 # kernel parameter -s 
1 # kernel parameter -r 
empty# kernel parameter -u 
63 # highest feature index 
2823 # number of training documents 
252 # number of support vectors plus 1 
0.62995635 # threshold b, each following line is a SV (starting with alpha*y)
-7.1687163199458213548742188621815e-11 1:0.375 2:0.9375 3:0.875 4:0.3125 5:0.0625 9:0.80000001 10:1 11:1 12:1 13:1 14:0.3125 17:0.5625 18:1 19:0.9375 20:0.4375 21:0.5 22:0.1875 25:0.0625 26:0.8125 27:0.8125 34:0.375 35:1 36:0.3125 42:0.0625 43:0.9375 44:0.6875 50:0.4375 51:1 52:0.625 57:0.2 58:1 59:0.8125 60:0.0625 # 0
-3.4079167570249480387368651820889e-10 2:0.1875 3:0.8125 4:0.75 9:0.06666667 10:1 11:0.8125 12:1 13:0.25 17:0.5 18:0.375 19:0.4375 20:1 21:0.0625 26:0.125 27:0.9375 28:0.5625 34:0.6875 35:0.875 42:1 43:0.625 50:0.9375 51:0.8125 52:0.5 53:0.5625 54:0.25 58:0.1875 59:0.8125 60:0.9375 61:0.8125 62:0.125 # 0
-2.568491194948931251677120955355e-10 3:0.1875 4:0.625 5:0.625 9:0.53333336 10:0.875 11:1 12:0.875 13:0.9375 14:0.25 18:0.1875 19:0.0625 20:0.0625 21:0.9375 22:0.25 27:0.4375 28:0.875 29:1 30:0.375 34:0.5625 35:1 36:0.9375 37:0.625 42:0.125 43:0.125 44:0.875 45:0.25 51:0.4375 52:0.6875 59:0.5625 60:0.25 # 0
-6.7863691527723036233541705763441e-10 2:0.4375 3:0.9375 4:0.8125 5:0.1875 10:0.6875 11:0.375 12:0.5 13:0.875 19:0.1875 20:0.5 21:0.75 27:1 28:0.875 29:0.125 35:0.625 36:0.9375 37:0.4375 44:0.125 45:0.6875 46:0.625 49:0.0625 50:0.9375 51:0.1875 52:0.0625 53:0.6875 54:0.625 58:0.25 59:0.9375 60:1 61:0.8125 62:0.125 # 0
2.8267312116157294414508945713067e-09 2:0.3125 3:0.9375 4:0.5 9:0.13333334 10:0.9375 11:0.5625 12:0.625 13:0.1875 14:0.0625 17:0.375 18:0.5625 19:0.4375 20:0.6875 21:0.875 22:0.0625 25:0.125 26:0.9375 27:0.8125 28:0.5 29:0.125 33:0.071428575 34:0.9375 35:0.375 41:0.0625 42:1 43:0.75 49:0.0625 50:1 51:0.8125 52:0.0625 58:0.5 59:0.9375 60:0.1875 # 0
-2.0335953250660968459871127856796e-11 2:0.125 3:0.875 4:0.6875 5:0.5 6:0.75 7:0.0625 10:0.5 11:0.625 12:0.5625 13:0.875 14:0.875 18:0.625 19:0.0625 21:0.75 22:0.25 26:0.0625 27:0.125 28:0.4375 29:0.8125 30:0.0625 34:0.0625 35:0.9375 36:1 37:1 38:0.35714287 43:0.1875 44:0.8125 45:0.125 51:0.5625 52:0.4375 59:0.9375 60:0.25 # 0
-1.8931774132374446201893023630195e-10 3:0.375 4:0.875 5:1 6:0.4375 10:0.625 11:0.9375 12:0.375 13:0.9375 14:0.4375 17:0.25 18:1 19:0.1875 20:0.125 21:0.75 25:0.1875 26:0.9375 27:0.6875 28:0.4375 29:1 30:0.1875 34:0.125 35:0.5625 36:0.9375 37:0.8125 43:0.25 44:0.9375 45:0.3125 51:0.5 52:1 59:0.3125 60:1 # 0
1.6139350295302811331101329681794e-11 2:0.3125 3:0.9375 4:0.3125 10:0.8125 11:0.6875 12:0.75 18:0.875 19:0.4375 20:0.125 21:0.25 22:0.25 26:0.5625 27:0.9375 28:0.875 29:0.8125 30:0.3125 33:0.071428575 34:0.8125 35:1 36:0.8125 41:0.4375 42:0.875 43:0.25 44:0.875 45:0.5625 50:0.9375 51:0.25 52:0.125 53:0.875 54:0.4375 58:0.1875 59:0.8125 60:1 61:1 62:0.4375 # 0
-3.1780945483333117268543500607254e-11 2:0.1875 3:0.625 4:0.875 5:0.875 6:0.1875 10:0.9375 11:0.375 12:0.5625 13:1 14:0.25 18:0.0625 19:0.3125 20:0.875 21:0.375 26:0.4375 27:1 28:0.5625 29:0.0625 34:0.125 35:0.5625 36:0.8125 37:0.9375 38:0.071428575 44:0.25 45:1 46:0.125 51:0.4375 52:0.9375 53:0.375 59:0.875 60:0.4375 # 0
-2.3603892622179220293231895376408e-10 3:0.5 4:0.25 11:0.75 12:0.25 13:0.0625 18:0.25 19:0.8125 20:0.125 21:1 22:0.0625 26:0.875 27:0.4375 28:0.4375 29:0.875 30:0.25 33:0.35714287 34:1 35:1 36:1 37:1 38:0.42857143 41:0.1875 42:0.625 43:0.4375 44:0.9375 45:0.375 51:0.3125 52:0.625 59:0.4375 60:0.625 # 0
-9.6712161245807015082402683118292e-11 3:0.625 4:0.8125 5:0.3125 10:0.6875 11:0.75 12:0.5 13:0.9375 14:0.125 17:0.375 18:1 19:0.0625 20:0.0625 21:0.875 22:0.25 25:0.375 26:1 27:0.5 28:0.8125 29:1 30:0.3125 33:0.14285715 34:0.8125 35:0.75 36:1 37:0.75 44:0.875 45:0.375 51:0.25 52:0.875 53:0.0625 59:0.6875 60:0.3125 # 0
1.1494695969197548270291101329404e-10 2:0.125 3:1 4:0.9375 5:0.4375 10:0.1875 11:0.75 12:0.8125 13:0.8125 19:0.375 20:1 21:0.625 27:0.375 28:1 29:0.1875 34:0.1875 35:0.9375 36:0.625 37:0.75 41:0.0625 42:0.8125 43:0.3125 45:0.8125 46:0.375 50:1 51:0.3125 53:0.4375 54:0.9375 58:0.1875 59:0.6875 60:1 61:1 62:0.75 63:0.13333334 # 0
1.0981513666405883662570994176811e-11 1:0.125 2:0.75 3:1 4:0.875 5:0.375 9:0.13333334 10:0.8125 11:0.4375 12:0.3125 13:0.9375 14:0.125 18:0.375 19:0.9375 20:0.5625 21:0.8125 27:0.625 28:0.9375 29:0.0625 34:0.25 35:0.9375 36:0.5 42:0.75 43:0.25 44:0.75 49:0.1875 50:0.875 51:0.625 52:0.6875 58:0.875 59:0.8125 60:0.1875 # 0
-1.1613453793560931398120247996772e-10 2:0.4375 3:1 4:1 5:0.625 6:0.0625 10:0.5 11:1 12:1 13:0.8125 14:0.0625 18:0.375 19:1 20:1 21:0.75 26:0.25 27:1 28:1 29:0.5 34:0.4375 35:1 36:1 37:0.3125 41:0.0625 42:0.875 43:1 44:1 45:0.1875 49:0.25 50:1 51:1 52:0.5 57:0.2 58:0.875 59:1 60:0.875 61:0.125 # 0
-9.0689498407286881213852378969854e-10 2:0.25 3:0.875 4:1 5:0.4375 9:0.06666667 10:1 11:0.875 12:0.5 13:0.3125 17:0.5 18:0.625 25:0.1875 26:0.8125 34:0.75 35:0.375 42:0.25 43:0.8125 51:1 52:0.3125 58:0.4375 59:1 60:0.25 # 0
-5.7608109421659146688952100775734e-10 3:0.5 4:0.875 5:0.1875 10:0.0625 11:1 12:0.9375 13:0.4375 18:0.4375 19:0.9375 20:0.3125 25:0.1875 26:0.875 27:0.875 28:0.3125 33:0.21428572 34:1 35:0.625 36:0.75 37:0.625 42:0.6875 43:0.3125 45:0.875 46:0.125 50:0.1875 51:0.6875 52:0.375 53:0.875 54:0.0625 59:0.4375 60:0.9375 61:0.375 # 0
5.4944199345216675140394084999375e-11 1:0.25 3:0.8125 4:0.75 5:0.1875 8:1 9:0.93333334 10:0.0625 11:0.8125 12:1 13:0.3125 17:0.5 18:1 19:0.875 20:1 21:0.25 26:0.5 27:1 28:1 29:0.125 35:1 36:1 37:0.5625 42:0.1875 43:1 44:1 45:1 46:0.25 50:0.6875 51:1 52:1 53:1 54:0.375 58:0.0625 59:0.9375 60:1 61:0.625 # 0
-1.0687004999485627248056459994539e-10 2:0.125 3:0.6875 4:1 5:1 6:1 7:0.75 10:0.4375 11:0.9375 12:0.5625 13:0.5 14:0.75 15:1 21:0.0625 22:0.875 23:0.83333331 29:0.6875 30:0.5625 36:0.375 37:0.8125 43:0.0625 44:0.875 45:0.1875 51:0.625 52:0.5625 58:0.0625 59:1 60:0.3125 # 0
2.8539698509030695463235351723821e-10 2:0.4375 3:0.875 4:0.25 9:0.06666667 10:1 11:1 12:1 13:0.4375 17:0.25 18:1 19:1 20:1 21:0.875 26:0.8125 27:1 28:1 29:0.6875 34:0.5 35:1 36:1 37:0.0625 42:0.625 43:1 44:1 45:0.375 50:0.6875 51:1 52:1 53:0.8125 58:0.375 59:0.75 60:0.8125 61:0.625 # 0
-9.1116021367942281067380643147925e-10 2:0.5625 3:1 4:1 5:0.3125 10:0.8125 11:1 12:0.5625 13:0.375 18:0.5625 19:0.75 26:0.1875 27:1 28:0.1875 35:0.75 36:0.625 43:0.3125 44:0.9375 50:0.1875 51:0.3125 52:1 53:0.3125 58:0.4375 59:1 60:0.9375 61:0.0625 # 0
-1.4382897480740794395697117310975e-10 3:0.8125 4:0.4375 10:0.3125 11:0.8125 12:0.1875 13:0.8125 14:0.125 18:0.875 19:0.375 20:0.25 21:1 25:0.3125 26:1 27:0.5625 28:0.875 29:1 30:0.625 33:0.35714287 34:1 35:0.9375 36:1 37:0.4375 38:0.14285715 43:0.625 44:0.6875 51:0.8125 52:0.375 59:1 60:0.0625 # 0
9.6685969040099025003300928351796e-11 2:0.375 3:0.875 4:0.75 5:0.375 9:0.2 10:1 11:0.6875 12:0.625 13:0.9375 14:0.3125 17:0.375 18:1 19:0.25 20:0.1875 21:1 22:0.25 26:0.5625 27:1 28:1 29:0.75 34:0.125 35:0.9375 36:0.4375 37:0.9375 38:0.42857143 42:0.5 43:0.375 45:0.875 46:0.5 50:0.8125 51:0.625 52:0.8125 53:0.8125 54:0.0625 58:0.3125 59:0.75 60:0.5625 61:0.0625 # 0
2.4694793336963885929308879078473e-11 2:0.5 3:0.8125 4:0.6875 5:0.3125 9:0.26666668 10:1 11:0.875 12:1 13:0.625 17:0.0625 18:0.875 19:1 20:0.4375 26:0.6875 27:1 28:0.875 29:0.125 33:0.14285715 34:1 35:0.1875 36:0.5 37:0.9375 38:0.071428575 41:0.375 42:0.9375 43:0.125 44:0.0625 45:1 46:0.3125 49:0.3125 50:1 51:0.5625 52:0.6875 53:1 54:0.1875 58:0.5625 59:0.9375 60:0.9375 61:0.4375 # 0
3.5832452278819430702944377922539e-11 2:0.0625 3:0.5625 4:1 5:0.9375 6:0.25 10:0.25 11:1 12:0.625 13:0.875 14:0.625 18:0.1875 19:1 20:0.4375 21:0.875 22:0.6875 26:0.5625 27:1 28:1 29:0.8125 33:0.35714287 34:1 35:1 36:1 37:0.125 41:0.375 42:0.875 43:0.5625 44:1 45:0.125 50:0.75 51:1 52:1 53:0.25 59:0.75 60:0.6875 61:0.1875 # 0
-2.3026980724844568268016915094684e-10 2:0.1875 3:0.875 4:1 5:0.8125 6:0.375 10:0.8125 11:0.4375 12:0.0625 13:0.8125 14:1 15:0.07692308 18:0.75 19:0.3125 21:0.625 22:0.75 26:0.5 27:0.875 28:0.75 29:0.875 30:0.125 35:0.25 36:0.875 37:0.375 43:0.3125 44:0.8125 51:0.8125 52:0.375 58:0.125 59:0.6875 # 0
-2.9656022727151652037090938522125e-10 2:0.6875 3:1 4:0.75 5:0.3125 9:0.26666668 10:1 11:0.6875 12:1 13:1 14:0.1875 17:0.25 18:1 19:0.6875 20:1 21:0.875 26:0.625 27:1 28:1 29:0.375 35:0.9375 36:0.875 42:0.4375 43:1 44:0.3125 50:0.9375 51:0.8125 58:0.75 59:0.6875 # 0
-3.5937949628669084557866487523406e-11 4:0.75 5:0.1875 11:0.125 12:0.9375 19:0.5625 20:0.5625 26:0.1875 27:0.9375 29:0.1875 30:0.625 33:0.071428575 34:0.875 35:0.1875 37:0.875 38:0.42857143 41:0.625 42:1 43:0.9375 44:0.8125 45:1 46:0.0625 49:0.5625 50:0.625 51:0.5 52:0.875 53:0.6875 60:0.75 61:0.125 # 0
-1.0789737081975073031349525012131e-09 2:0.25 3:0.6875 4:1 5:0.75 6:0.3125 10:0.375 11:0.4375 12:0.1875 13:0.6875 14:0.5625 21:0.75 22:0.25 27:0.1875 28:0.625 29:0.625 34:0.25 35:1 36:0.9375 37:0.125 42:0.0625 43:0.4375 44:0.75 45:0.9375 46:0.0625 50:0.5 51:0.4375 52:0.3125 53:0.9375 58:0.4375 59:0.75 60:0.9375 61:0.375 # 0
-6.8815968643512111131470561473274e-11 2:0.3125 3:1 4:1 5:0.5 9:0.2 10:0.6875 11:0.6875 12:0.4375 13:0.25 17:0.6875 18:0.6875 25:0.8125 26:0.9375 27:0.4375 33:0.21428572 34:0.5 35:0.8125 36:0.5 43:0.125 44:0.9375 45:0.125 50:0.5 51:0.3125 52:0.9375 53:0.375 58:0.4375 59:1 60:0.9375 61:0.1875 # 0
-5.1966177599409153573086672259164e-11 1:0.5 2:0.5 3:0.5 4:0.75 5:1 6:0.3125 9:0.53333336 10:1 11:1 12:1 13:0.9375 14:0.1875 17:0.125 18:0.1875 19:0.4375 20:1 21:0.4375 27:0.75 28:0.875 29:0.0625 34:0.5625 35:1 36:0.4375 42:0.875 43:1 49:0.375 50:1 51:0.75 57:0.60000002 58:0.875 59:0.4375 # 0
8.0281899793554787323177767018306e-10 2:0.25 3:0.6875 4:0.875 5:0.4375 10:0.9375 11:0.75 12:1 13:0.1875 18:0.5 19:1 20:0.625 26:0.5625 27:1 28:0.4375 33:0.21428572 34:0.9375 35:0.25 36:0.875 37:0.25 41:0.125 42:0.8125 44:0.1875 45:0.9375 46:0.375 50:0.5 51:0.5625 52:0.25 53:0.5 54:0.875 59:0.4375 60:0.75 61:0.75 62:0.5 # 0
-2.1701389015330297267420562852634e-09 2:0.3125 3:0.75 4:0.75 9:0.2 10:1 11:0.75 12:0.9375 13:0.25 17:0.25 18:0.875 20:0.875 21:0.375 25:0.0625 26:0.75 27:0.6875 28:0.75 34:0.4375 35:1 36:0.5 37:0.0625 42:0.0625 43:0.3125 44:0.75 45:0.8125 46:0.0625 50:0.5 51:0.25 53:1 54:0.25 58:0.5 59:0.9375 60:0.9375 61:0.6875 62:0.0625 # 0
-1.1219559383595335782545534376127e-09 2:0.25 3:0.75 4:0.8125 5:0.125 10:1 11:0.5625 12:0.75 13:0.5625 17:0.125 18:0.75 19:0.0625 20:0.9375 21:0.3125 26:0.0625 27:0.375 28:0.875 29:0.0625 35:0.9375 36:0.4375 42:0.5625 43:0.75 50:0.5625 51:0.5625 52:0.25 53:0.5 54:0.875 55:0.2 58:0.25 59:0.8125 60:0.8125 61:0.5625 62:0.125 # 0
-9.7279590600474893996349861830029e-11 2:0.0625 3:0.75 4:1 5:0.875 6:0.0625 10:0.25 11:1 12:1 13:1 14:0.25 17:0.125 18:0.875 19:1 20:1 21:1 22:0.375 25:0.125 26:0.75 27:1 28:1 29:0.625 34:0.5 35:1 36:1 37:0.5 42:0.6875 43:1 44:1 45:0.3125 50:0.5 51:1 52:1 53:0.25 58:0.0625 59:0.9375 60:1 61:0.5 # 0
8.2062378306200010645346541577586e-10 2:0.3125 3:0.8125 4:0.875 5:0.3125 10:0.5625 11:0.5 12:0.5625 13:0.75 17:0.1875 18:0.75 19:0.125 20:0.6875 21:0.5625 25:0.1875 26:0.8125 27:0.9375 28:0.875 29:0.0625 35:0.6875 36:0.75 37:0.75 38:0.14285715 42:0.25 43:0.625 45:0.5625 46:0.5625 50:0.625 51:0.3125 52:0.125 53:0.5 54:0.8125 58:0.3125 59:0.875 60:0.9375 61:0.6875 62:0.125 # 0
5.3375281556076183651661357836352e-09 2:0.25 3:0.875 4:0.6875 5:0.0625 10:0.5625 11:0.5 12:0.625 13:0.5625 18:0.4375 20:0.875 21:0.25 26:0.5625 27:0.6875 28:0.875 29:0.0625 34:0.0625 35:0.9375 36:0.5 42:0.1875 43:0.8125 44:0.75 45:0.3125 50:0.5 51:0.5 52:0.25 53:0.875 58:0.1875 59:0.9375 60:1 61:0.8125 # 0
-1.1971281447955716059917835704461e-10 2:0.4375 3:0.8125 4:0.5625 5:0.0625 9:0.06666667 10:0.8125 11:0.3125 12:0.5625 13:0.5 17:0.4375 18:0.625 20:0.3125 21:0.75 25:0.3125 26:0.9375 27:0.5 28:0.625 29:1 30:0.25 34:0.4375 35:0.5625 36:0.4375 37:0.3125 38:0.5714286 45:0.0625 46:0.6875 50:0.1875 53:0.3125 54:0.625 58:0.5625 59:1 60:1 61:0.875 62:0.1875 # 0
-2.5400841741130562787497828723584e-11 2:0.8125 3:0.8125 9:0.40000001 10:1 11:0.4375 17:0.625 18:0.8125 25:0.5 26:1 27:0.8125 28:1 29:0.625 33:0.5714286 34:1 35:0.875 36:0.5625 37:0.9375 38:0.42857143 41:0.3125 42:1 43:0.375 45:0.125 46:0.9375 49:0.4375 50:1 51:0.75 53:0.1875 54:0.9375 57:0.1 58:0.375 59:0.8125 60:1 61:1 62:0.5 # 0
1.3289068559312295061320129518613e-10 1:0.25 2:0.4375 3:1 4:0.9375 5:0.5 9:0.33333334 10:1 11:0.6875 12:0.9375 13:0.75 18:0.6875 19:0.9375 20:0.8125 26:0.1875 27:1 28:0.0625 34:0.5625 35:1 36:0.0625 42:0.8125 43:0.625 44:0.3125 50:0.875 51:0.5625 52:0.5 58:0.375 59:1 60:0.3125 # 0
1.2598441045071129031684216588449e-10 1:0.125 2:0.5 3:0.75 4:0.1875 9:0.06666667 10:1 11:1 12:0.875 13:0.125 17:0.125 18:1 19:1 20:1 21:1 22:0.0625 26:0.75 27:1 28:1 29:0.25 34:0.75 35:1 36:1 37:0.4375 41:0.125 42:1 43:1 44:1 45:0.875 49:0.25 50:1 51:1 52:0.9375 53:0.25 57:0.1 58:0.75 59:0.625 60:0.3125 # 0
-5.0800439787882648917487385484704e-10 3:0.125 4:0.5625 11:0.3125 12:0.625 19:0.75 20:0.25 21:0.5 26:0.25 27:0.75 28:0.375 29:0.8125 34:0.625 35:0.5 36:0.5 37:0.625 41:0.4375 42:1 43:0.8125 44:1 45:0.9375 46:0.125 49:0.375 50:0.625 51:0.6875 52:1 53:0.5 59:0.25 60:0.8125 # 0
-5.9678350274936985048120135561494e-11 2:0.5 3:0.75 4:0.5625 5:0.0625 9:0.2 10:1 11:1 12:1 13:0.625 17:0.1875 18:1 19:1 20:1 21:0.625 26:0.5 27:1 28:1 29:0.25 34:0.75 35:1 36:1 37:0.5 41:0.0625 42:0.9375 43:1 44:1 45:0.5625 50:0.8125 51:1 52:1 53:0.5625 58:0.375 59:0.5625 60:0.6875 61:0.1875 # 0
-2.8751482078671270233171244356282e-10 2:0.1875 3:0.625 4:0.6875 5:0.3125 9:0.53333336 10:1 11:0.625 12:0.5 13:0.3125 17:0.6875 18:0.6875 25:0.5 26:0.875 27:0.6875 28:0.5 29:0.25 34:0.1875 35:0.4375 36:0.5625 37:0.875 38:0.64285713 45:0.3125 46:0.8125 50:0.0625 51:0.25 52:0.625 53:1 54:0.3125 58:0.125 59:0.8125 60:0.625 61:0.125 # 0
-1.4067917453431871307202646316866e-10 3:0.5 4:0.875 5:0.3125 11:0.5625 12:1 13:0.875 14:0.125 19:0.6875 20:1 21:0.8125 22:0.0625 26:0.375 27:1 28:1 29:0.4375 33:0.21428572 34:0.8125 35:1 36:1 37:0.25 41:0.1875 42:0.6875 43:0.9375 44:1 45:0.75 51:0.625 52:1 53:0.9375 54:0.1875 59:0.5 60:1 61:0.9375 62:0.375 # 0
3.0058433649084900744685474501265e-10 1:0.25 2:0.6875 3:1 4:0.625 5:0.0625 9:0.46666667 10:0.875 11:0.4375 12:1 13:0.875 14:0.125 17:0.375 18:0.5625 19:0.4375 20:0.9375 21:0.0625 25:0.0625 26:0.8125 27:1 28:0.4375 34:0.5625 35:1 36:0.5625 42:0.75 43:1 44:0.6875 49:0.1875 50:1 51:1 52:0.1875 58:0.875 59:0.5625 # 0
-3.3669132374103122249415706918247e-11 1:0.125 2:0.875 3:0.4375 9:0.53333336 10:1 11:0.125 13:0.1875 14:0.3125 17:0.625 18:0.75 20:0.0625 21:0.875 22:0.6875 25:0.5625 26:0.9375 27:0.0625 28:0.5625 29:1 30:0.1875 33:0.071428575 34:0.9375 35:1 36:1 37:0.5 42:0.3125 43:1 44:0.8125 45:0.3125 50:0.75 51:0.8125 57:0.2 58:1 59:0.375 # 0
6.5827702437461486276735162057484e-09 2:0.6875 3:0.9375 4:0.625 9:0.13333334 10:0.8125 12:0.5625 13:0.1875 17:0.1875 18:0.75 20:0.625 26:0.6875 27:0.75 28:0.75 35:0.6875 36:0.875 37:0.375 41:0.0625 42:0.5625 43:0.3125 45:0.625 46:0.3125 49:0.25 50:0.625 53:0.5 54:0.25 57:0.1 58:0.875 59:0.6875 60:0.875 61:0.625 # 0
-8.9627506388081865399981771481812e-11 1:0.125 2:0.5 3:0.625 4:0.1875 9:0.13333334 10:0.9375 11:1 12:1 13:0.75 17:0.0625 18:0.875 19:1 20:1 21:0.75 25:0.25 26:1 27:1 28:1 29:0.5 33:0.2857143 34:1 35:1 36:1 37:0.375 41:0.25 42:1 43:1 44:0.9375 45:0.1875 49:0.25 50:1 51:1 52:0.8125 53:0.125 57:0.1 58:0.4375 59:0.625 60:0.5 61:0.125 # 0
-6.3745045651890333396354678638677e-10 2:0.75 3:1 4:0.375 9:0.2 10:0.9375 11:0.75 12:0.75 17:0.375 18:0.75 19:0.5 20:0.75 25:0.1875 26:0.875 27:0.6875 28:0.625 34:0.3125 35:1 36:0.1875 42:0.8125 43:0.75 49:0.5 50:1 51:0.75 52:0.4375 53:0.3125 54:0.125 58:0.75 59:0.8125 60:0.625 61:0.625 62:0.25 # 0
-9.8567221130709290627989306528322e-11 4:0.0625 5:0.875 6:0.25 12:0.125 13:1 14:0.5 20:0.5 21:1 22:0.375 28:0.9375 29:1 30:0.3125 35:0.5 36:1 37:1 38:0.21428572 42:0.375 43:1 44:0.5625 45:1 49:0.125 50:1 51:0.5 52:0.25 53:1 57:0.2 58:0.25 60:0.125 61:0.9375 62:0.1875 # 0
1.7097750725758577712281520592433e-10 2:0.1875 3:1 4:0.9375 5:0.1875 10:0.375 11:1 12:0.9375 13:0.1875 18:0.625 19:1 20:0.375 21:0.125 26:0.25 27:0.875 28:1 29:0.1875 33:0.2857143 34:0.8125 35:0.125 36:0.75 37:0.375 41:0.3125 42:0.6875 44:0.0625 45:0.75 46:0.1875 50:0.8125 51:0.1875 53:0.4375 54:0.6875 58:0.1875 59:0.6875 60:0.6875 61:0.875 62:0.625 # 0
-4.6666546988789288195683292830628e-11 2:0.75 3:0.6875 9:0.53333336 10:1 11:0.25 13:0.3125 14:0.1875 17:0.6875 18:1 20:0.25 21:1 22:0.5625 25:0.6875 26:1 27:0.5 28:0.8125 29:0.875 30:0.0625 33:0.14285715 34:0.8125 35:1 36:1 37:0.5 42:0.0625 43:0.9375 44:0.625 50:0.3125 51:1 52:0.1875 58:0.75 59:0.75 # 0
7.6376189111699119827528097918584e-10 2:0.125 3:0.75 4:0.8125 5:0.25 10:0.75 11:0.6875 12:0.5 13:0.8125 18:0.8125 20:0.8125 21:0.3125 25:0.6875 26:0.875 27:0.4375 28:0.6875 34:0.4375 35:1 36:0.3125 42:0.4375 43:0.75 44:0.75 45:0.25 50:0.5625 51:0.375 52:0.625 53:0.625 58:0.125 59:0.875 60:0.9375 61:0.375 # 0
-4.1848150625923609269700632831842e-10 3:0.75 4:1 5:0.9375 6:0.1875 10:0.25 11:0.625 12:0.75 13:0.6875 14:0.125 17:0.375 18:0.875 25:0.5 26:1 27:0.9375 28:0.3125 33:0.071428575 34:0.5 35:0.8125 36:1 37:0.125 44:0.625 45:0.5625 50:0.3125 51:0.6875 52:0.8125 53:0.6875 58:0.0625 59:0.875 60:0.75 61:0.125 # 0
-1.4737564269394501955725729766474e-10 2:0.375 3:0.9375 4:1 5:0.375 9:0.33333334 10:0.9375 11:1 12:1 13:0.6875 17:0.5 18:1 19:1 20:1 21:0.5625 26:0.25 27:1 28:1 29:0.375 34:0.125 35:1 36:1 42:0.5 43:1 44:1 45:0.125 50:0.6875 51:1 52:1 53:0.8125 54:0.125 58:0.3125 59:0.8125 60:0.6875 61:0.5 62:0.125 # 0
-7.4017944276448286616020123337373e-12 2:0.125 3:0.875 4:0.8125 5:0.3125 10:0.5 11:1 12:1 13:0.625 17:0.375 18:1 19:1 20:1 21:0.4375 25:0.5625 26:1 27:1 28:1 29:0.1875 34:0.4375 35:1 36:1 37:0.125 42:0.5 43:1 44:1 45:0.375 50:0.625 51:1 52:1 53:0.6875 58:0.1875 59:0.8125 60:0.875 61:0.4375 # 0
-4.0628430958421904636663478811156e-10 2:0.375 3:0.875 4:0.875 5:0.25 10:0.875 11:0.9375 12:0.375 13:0.8125 14:0.125 18:0.4375 19:1 20:1 21:0.9375 22:0.0625 27:0.625 28:0.625 36:0.875 37:0.0625 44:0.25 45:0.6875 49:0.1875 50:0.625 51:0.25 53:0.8125 58:0.5625 59:0.75 60:1 61:0.75 # 0
8.6293695045760678870634398578783e-11 2:0.25 3:0.875 4:0.8125 5:0.25 10:0.8125 11:0.875 12:0.375 13:0.9375 18:0.25 19:0.9375 20:0.5 21:1 27:0.1875 28:0.875 29:0.875 35:0.5625 36:1 37:0.75 42:0.5 43:0.9375 44:0.25 45:0.9375 46:0.1875 50:0.9375 51:0.5 52:0.25 53:0.875 54:0.4375 58:0.25 59:0.8125 60:0.8125 61:0.75 62:0.125 # 0
-4.6708650048454723750158143912075e-12 2:0.5625 9:0.13333334 10:1 11:0.375 12:0.5 13:0.3125 17:0.25 18:1 19:1 20:1 21:0.9375 22:0.1875 25:0.375 26:1 27:0.625 28:0.75 29:0.9375 30:0.5 33:0.2857143 34:0.6875 37:0.4375 38:0.5714286 41:0.25 42:1 43:0.5625 44:0.625 45:0.9375 46:0.5 49:0.125 50:0.9375 51:1 52:1 53:1 54:0.1875 58:0.5 59:1 60:0.9375 61:0.4375 # 0
-2.251464368985762548272549918104e-10 1:0.125 2:0.75 3:1 4:1 5:0.5 9:0.06666667 10:0.5 11:0.3125 12:0.5625 13:0.75 20:0.6875 21:0.5 26:0.3125 27:0.875 28:0.875 29:0.625 30:0.3125 34:0.1875 35:0.9375 36:0.875 37:0.75 38:0.35714287 42:0.125 43:1 44:0.1875 50:0.625 51:0.5625 58:0.8125 59:0.125 # 0
-2.7471105247840971748865430618401e-10 2:0.0625 3:0.75 4:0.5625 10:0.4375 11:1 12:0.3125 18:0.625 19:0.5625 26:0.9375 27:0.6875 28:0.6875 29:0.0625 34:0.8125 35:1 36:0.875 37:0.875 38:0.071428575 42:0.625 43:0.8125 45:0.75 46:0.3125 50:0.25 51:0.8125 52:0.125 53:1 54:0.1875 59:0.6875 60:1 61:0.5 # 0
1.1084847489651842803178199844082e-10 2:0.1875 3:0.9375 4:0.9375 5:0.0625 10:0.5625 11:1 12:0.75 13:0.125 17:0.25 18:1 19:0.5625 20:0.375 21:0.5625 22:0.125 25:0.5 26:1 27:1 28:1 29:0.625 30:0.1875 33:0.14285715 34:1 35:1 36:0.875 37:0.0625 41:0.25 42:1 43:1 44:1 45:0.25 49:0.0625 50:0.875 51:1 52:1 53:0.75 58:0.1875 59:0.875 60:0.75 61:0.3125 # 0
-9.5109516553309874825442674004504e-11 2:0.4375 3:0.875 4:0.875 5:0.8125 6:0.1875 10:0.875 11:0.4375 12:0.25 13:0.5625 14:0.375 17:0.25 18:0.8125 25:0.375 26:1 27:0.875 28:0.5 29:0.0625 35:0.1875 36:0.5625 37:0.8125 45:0.8125 50:0.5625 52:0.1875 53:0.875 58:0.6875 59:1 60:0.875 61:0.1875 # 0
5.2064522430839086121678888701108e-10 2:0.375 3:0.875 4:1 5:0.625 10:0.8125 11:0.8125 12:0.625 13:0.9375 18:0.3125 19:0.9375 20:0.6875 21:0.875 27:0.625 28:1 29:0.4375 35:0.875 36:1 37:0.0625 42:0.5 43:0.9375 44:0.9375 45:0.125 50:0.75 51:0.875 52:1 53:0.0625 58:0.625 59:1 60:0.6875 # 0
4.3700723336267665966497881721055e-09 1:0.125 2:0.375 3:0.6875 4:1 5:0.375 10:0.3125 11:0.8125 12:0.6875 13:1 14:0.375 18:0.25 19:1 20:0.5 26:0.3125 27:0.9375 33:0.071428575 34:0.8125 35:0.625 36:0.25 41:0.375 42:0.625 43:0.25 44:0.5 49:0.5 50:0.4375 51:0.75 52:0.4375 57:0.2 58:0.8125 59:0.875 # 0
-4.6313445297019000004741882197084e-10 2:0.25 3:0.6875 4:0.875 5:0.75 9:0.26666668 10:1 11:0.5625 12:0.3125 13:1 14:0.0625 17:0.6875 18:0.5 20:0.375 21:0.8125 25:0.3125 26:0.375 27:0.0625 28:0.8125 29:0.3125 35:0.6875 36:0.5625 42:0.25 43:1 44:0.0625 50:0.625 51:0.5625 54:0.0625 58:0.1875 59:1 60:1 61:0.875 62:0.375 # 0
1.4935768974207299990489208263775e-10 2:0.6875 3:0.4375 4:0.625 5:0.1875 10:0.5625 11:0.75 12:0.75 13:0.875 19:0.9375 20:0.9375 21:0.6875 22:0.0625 26:0.0625 27:0.875 28:0.5625 34:0.5625 35:0.8125 36:0.5 42:0.875 43:0.3125 44:0.625 50:0.875 51:0.125 52:0.75 58:0.625 59:1 60:0.625 # 0
-4.1956258271803754366372820698561e-10 2:0.25 3:0.875 4:0.9375 5:0.3125 9:0.46666667 10:0.875 11:0.4375 12:0.375 13:1 17:0.625 18:0.375 21:0.6875 22:0.1875 25:0.25 26:0.125 28:0.0625 29:0.875 36:0.625 37:0.4375 43:0.3125 44:0.8125 45:0.0625 50:0.375 51:1 52:0.5 58:0.3125 59:0.5625 60:0.75 61:0.75 62:1 63:0.13333334 # 0
6.3774706273533602698222509163673e-11 2:0.5 3:0.8125 4:0.375 9:0.13333334 10:1 11:0.75 12:0.6875 13:0.625 18:1 19:1 20:0.875 21:0.5 22:0.0625 26:0.8125 27:0.6875 33:0.14285715 34:0.9375 35:0.25 42:1 43:0.8125 49:0.125 50:0.9375 51:1 52:0.125 58:0.6875 59:1 60:0.25 # 0
-2.6144458907488218926484011318009e-10 2:0.625 3:0.9375 4:1 5:1 6:0.5625 9:0.06666667 10:0.625 11:0.125 13:0.625 14:0.875 20:0.4375 21:0.9375 22:0.1875 27:0.8125 28:0.6875 29:0.0625 35:0.8125 36:0.6875 43:0.3125 44:0.9375 45:0.3125 50:0.3125 51:0.25 52:0.75 53:0.6875 58:0.5625 59:1 60:0.625 61:0.125 # 0
-5.8568777989077535634156249156929e-11 1:0.125 2:0.5 3:0.9375 4:0.625 9:0.26666668 10:1 11:1 12:1 13:0.5625 18:0.75 19:1 20:1 21:0.75 26:0.625 27:1 28:1 29:0.5 34:0.5 35:1 36:1 37:0.625 42:0.5625 43:1 44:1 45:0.8125 50:0.5 51:1 52:1 53:0.75 58:0.3125 59:0.9375 60:1 61:0.5625 62:0.0625 # 0
-5.9456793158871971523412975436712e-10 2:0.5 3:0.25 10:0.9375 11:0.1875 17:0.125 18:0.8125 25:0.25 26:0.875 27:0.6875 28:0.5625 29:0.0625 33:0.2857143 34:0.5625 35:0.8125 36:1 37:0.875 38:0.071428575 41:0.125 42:0.75 45:0.5625 46:0.6875 50:1 51:0.5 52:0.3125 53:0.8125 54:0.6875 58:0.25 59:0.9375 60:1 61:0.75 62:0.0625 # 0
6.3228808120218214023779667172205e-10 1:0.125 2:0.8125 3:1 4:0.8125 5:0.3125 6:0.125 9:0.13333334 10:1 11:0.5625 12:0.8125 13:0.875 18:0.6875 19:0.8125 20:0.9375 21:0.3125 26:0.1875 27:1 28:0.8125 34:0.1875 35:1 36:0.5 42:0.625 43:1 44:0.75 49:0.0625 50:0.9375 51:1 52:0.75 57:0.1 58:1 59:0.625 60:0.0625 # 0
-7.3888003559997207612977551967185e-10 2:0.8125 3:0.1875 9:0.26666668 10:1 11:0.25 13:0.375 14:0.75 17:0.5625 18:0.9375 20:0.375 21:1 22:0.4375 25:0.375 26:1 27:0.6875 28:1 29:0.5625 34:0.5625 35:1 36:0.875 37:0.1875 42:0.375 43:0.9375 44:0.1875 50:0.8125 51:0.5625 58:0.9375 59:0.4375 # 0
-8.2151339867564500064823462382449e-10 1:0.25 2:0.75 3:0.9375 4:1 5:0.625 6:0.0625 9:0.2 10:1 11:0.3125 12:0.625 13:1 14:0.1875 19:0.3125 20:0.9375 21:0.4375 27:0.875 28:0.5 35:0.9375 36:0.25 43:0.25 44:0.875 45:0.125 49:0.0625 50:0.125 51:0.125 52:0.9375 53:0.375 57:0.2 58:0.75 59:0.9375 60:0.75 61:0.0625 # 0
-6.0440070497338540050684215477702e-10 2:0.875 3:0.6875 4:0.4375 5:0.0625 9:0.13333334 10:1 11:1 12:1 13:0.875 14:0.25 18:0.9375 19:0.6875 21:0.375 22:0.1875 26:0.4375 27:0.875 34:0.125 35:1 36:0.25 42:0.0625 43:0.75 44:0.75 49:0.25 50:0.75 51:0.875 52:0.6875 58:0.875 59:1 60:0.375 # 0
4.3930656248417680626717036839564e-12 1:0.25 2:1 3:0.9375 4:0.25 9:0.26666668 10:1 11:0.875 12:0.5625 13:0.1875 14:0.3125 17:0.25 18:0.9375 19:0.4375 20:1 21:1 22:0.5 25:0.0625 26:0.9375 27:1 28:0.9375 29:0.375 34:0.625 35:1 36:0.25 41:0.0625 42:0.875 43:1 44:0.125 49:0.4375 50:0.625 51:1 57:0.2 58:0.875 59:0.6875 # 0
1.8352505039692365089328070535757e-09 2:0.0625 3:0.5625 4:0.75 5:0.5 10:0.6875 11:0.8125 12:0.5 13:0.75 18:0.6875 19:0.4375 20:0.875 21:0.375 26:0.3125 27:1 28:0.5625 34:0.625 35:0.9375 36:0.3125 42:0.8125 43:0.0625 44:0.625 45:0.0625 50:0.8125 51:0.0625 52:0.5 53:0.3125 58:0.1875 59:0.875 60:0.9375 61:0.1875 # 0
-1.2435837832889456434043876716274e-10 2:0.3125 3:0.6875 4:0.9375 5:0.5 9:0.26666668 10:0.875 11:0.5 12:0.625 13:1 17:0.5 18:0.8125 19:0.0625 20:0.9375 21:0.75 25:0.25 26:1 27:0.9375 28:1 29:0.8125 34:0.25 35:0.75 36:0.8125 37:1 38:0.2857143 42:0.25 43:0.0625 45:0.875 46:0.5 50:0.8125 51:0.8125 52:0.375 53:0.875 54:0.4375 58:0.125 59:0.875 60:0.875 61:0.5625 62:0.125 # 0
3.6548454784675575200788115313088e-09 3:0.375 4:0.9375 5:0.375 11:0.75 12:0.625 13:0.8125 19:0.6875 20:0.9375 21:0.875 26:0.5625 27:0.6875 28:0.875 33:0.2857143 34:0.6875 36:0.625 37:0.375 41:0.1875 42:0.5625 44:0.0625 45:0.875 46:0.0625 50:0.6875 51:0.5 52:0.125 53:0.5625 54:0.4375 59:0.375 60:0.75 61:0.8125 62:0.4375 # 0
1.2057517685305249367062871071596e-09 3:0.75 4:0.9375 5:0.3125 10:0.1875 11:0.8125 12:0.5625 13:1 17:0.75 18:0.875 19:0.625 20:0.0625 21:0.875 22:0.25 25:0.1875 26:0.75 27:0.8125 28:0.6875 29:0.8125 34:0.125 35:0.625 36:1 37:0.5625 43:0.3125 44:1 45:0.5 51:0.8125 52:1 53:0.5625 59:0.75 60:0.75 61:0.125 # 0
-3.5739718491942097457235770674086e-10 2:0.0625 3:0.6875 4:0.4375 6:0.125 7:0.0625 10:0.625 11:0.8125 13:0.0625 14:0.8125 15:0.46153846 17:0.25 18:1 19:0.1875 21:0.625 22:0.75 25:0.1875 26:1 27:0.6875 28:0.5625 29:1 30:0.1875 34:0.5625 35:1 36:1 37:0.5 43:0.5625 44:0.6875 51:0.875 52:0.1875 59:0.875 60:0.25 # 0
-5.4558996212126797736415226495305e-10 2:0.5625 3:0.8125 4:0.4375 9:0.46666667 10:0.875 11:0.25 12:0.875 13:0.25 17:0.125 18:0.125 19:0.1875 20:0.9375 21:0.125 27:1 28:0.6875 35:0.5 36:0.9375 37:0.6875 45:0.75 46:0.4375 50:0.625 51:0.25 52:0.125 53:0.625 54:0.5 58:0.4375 59:0.8125 60:1 61:1 62:0.25 # 0
2.0844687223981443765091689535875e-10 2:0.25 3:0.8125 4:0.9375 5:0.125 9:0.06666667 10:0.8125 11:0.1875 12:0.4375 13:0.625 17:0.375 18:0.5 21:0.75 25:0.25 26:0.625 27:0.1875 28:0.6875 29:0.6875 34:0.875 35:1 36:0.9375 37:0.9375 38:0.071428575 42:0.5 43:1 44:0.0625 45:0.3125 46:0.5 50:0.5 51:0.625 52:0.3125 53:0.8125 54:0.4375 58:0.25 59:0.9375 60:0.6875 61:0.375 # 0
1.4596397664899568291493014949526e-09 2:0.125 3:0.8125 4:0.5625 5:0.0625 9:0.06666667 10:0.8125 11:0.4375 12:0.9375 13:0.3125 16:0.33333334 17:0.9375 18:0.5625 20:0.9375 21:0.125 25:0.375 26:0.8125 27:0.4375 28:0.8125 34:0.3125 35:1 36:0.5 42:0.0625 43:0.9375 44:0.875 45:0.125 50:0.25 51:0.75 52:0.375 53:0.6875 59:0.6875 60:1 61:0.5 # 0
7.6366968975441752716890306202736e-12 2:0.375 3:0.9375 4:0.875 5:0.25 10:1 11:0.375 12:0.25 13:0.9375 17:0.3125 18:1 19:0.375 20:0.8125 21:0.6875 25:0.0625 26:1 27:1 28:1 29:0.8125 30:0.0625 33:0.42857143 34:0.9375 35:0.4375 37:0.6875 38:0.5714286 41:0.25 42:0.75 45:0.5625 46:0.6875 50:1 51:0.25 52:0.5625 53:0.9375 54:0.125 58:0.5 59:0.875 60:0.5625 61:0.125 # 0
-4.3227290718956464652711538074772e-11 2:0.375 3:0.9375 4:1 5:0.875 9:0.13333334 10:0.6875 11:0.3125 12:0.4375 13:1 14:0.125 20:0.25 21:1 26:0.5 27:0.8125 28:1 29:0.375 34:0.3125 35:0.8125 36:1 37:0.875 38:0.21428572 43:0.875 44:0.5 45:0.875 46:0.25 50:0.375 51:1 52:0.125 58:0.4375 59:0.5625 60:0.0625 # 0
-3.1630097624114168622462790033333e-10 2:0.5 3:0.875 4:0.9375 5:0.5 9:0.33333334 10:0.9375 11:0.6875 12:0.5 13:0.625 17:0.4375 18:0.75 25:0.5625 26:1 27:1 28:0.25 33:0.21428572 34:0.5 35:0.5625 36:0.8125 43:0.0625 44:0.8125 50:0.375 51:0.5625 52:0.875 58:0.4375 59:0.8125 60:0.5 # 0
-3.1886295035807209687614569842561e-10 2:0.625 3:0.875 4:0.6875 5:0.5625 10:0.5625 11:0.75 12:0.5 13:0.5625 18:0.6875 19:0.5625 20:0.0625 26:0.9375 27:1 28:0.875 29:0.125 34:0.75 35:0.125 36:0.625 37:0.375 45:0.8125 50:0.4375 51:0.3125 52:0.5 53:0.75 58:0.625 59:1 60:0.9375 61:0.25 # 0
-2.5853585230085099412404074062551e-10 2:0.1875 3:0.6875 4:1 5:0.3125 10:0.75 11:0.9375 12:0.75 13:0.4375 18:0.9375 19:0.375 26:1 27:0.9375 28:0.6875 29:0.0625 34:0.9375 35:0.9375 36:0.875 37:0.5625 42:0.9375 43:0.375 44:0.125 45:1 46:0.125 50:0.75 51:0.75 52:0.75 53:1 54:0.3125 58:0.1875 59:0.8125 60:0.9375 61:0.5625 # 0
-9.8137569100440479049877872885711e-11 2:0.5 3:1 4:0.375 9:0.2 10:0.9375 11:0.8125 12:0.0625 17:0.5 18:1 19:0.25 21:0.125 22:0.0625 25:0.5625 26:1 27:0.5 28:0.625 29:1 30:0.6875 33:0.071428575 34:0.8125 35:1 36:1 37:0.9375 38:0.35714287 42:0.25 43:1 44:1 45:0.1875 50:0.5 51:1 52:0.625 58:0.4375 59:1 60:0.625 # 0
-6.7647562260324332304670711757486e-11 2:0.1875 3:0.8125 4:0.9375 5:0.375 9:0.13333334 10:0.6875 11:0.9375 12:0.4375 13:1 14:0.1875 17:1 18:1 19:0.5625 20:0.5 21:1 22:0.375 25:0.5625 26:1 27:1 28:1 29:1 30:0.3125 34:0.25 35:0.5 36:1 37:0.6875 43:0.5625 44:1 45:0.0625 51:0.875 52:0.6875 58:0.0625 59:1 60:0.4375 # 0
-1.5692618714061840080361025305777e-10 2:0.125 3:1 4:0.6875 9:0.06666667 10:0.6875 11:1 12:1 13:0.4375 17:0.625 18:1 19:1 20:1 21:0.5625 25:0.125 26:0.5625 27:0.9375 28:1 29:0.6875 35:0.75 36:1 37:0.5 42:0.25 43:1 44:1 45:0.3125 50:0.625 51:1 52:1 53:0.9375 54:0.25 58:0.1875 59:0.9375 60:1 61:0.75 # 0
2.8095626269702217694963273619639e-09 1:0.25 2:0.6875 3:0.1875 5:0.125 9:0.13333334 10:0.8125 11:0.75 12:0.3125 13:0.9375 14:0.375 18:0.6875 19:0.875 20:0.875 21:0.0625 26:0.4375 27:0.9375 28:0.0625 34:0.9375 35:0.75 36:0.3125 41:0.25 42:0.625 43:0.25 44:0.5 49:0.4375 50:0.5625 51:0.4375 52:0.5 57:0.2 58:0.875 59:0.9375 60:0.3125 # 0
-3.7208227007487659705700942585835e-10 2:0.3125 3:0.5 10:0.75 11:0.375 12:0.75 13:0.4375 17:0.125 18:0.625 19:0.375 20:0.5625 21:0.9375 22:0.0625 25:0.4375 26:0.5 29:0.75 30:0.5 33:0.5714286 34:0.5 37:0.75 38:0.42857143 41:0.3125 42:0.8125 45:0.8125 46:0.25 50:0.875 51:0.625 52:0.625 53:0.8125 58:0.25 59:0.75 60:0.6875 61:0.0625 # 0
-3.981768208476375400667058168426e-11 2:0.25 3:0.875 4:0.25 10:0.8125 11:0.75 12:0.125 18:1 19:0.125 25:0.0625 26:1 27:1 28:1 29:0.5625 33:0.14285715 34:1 35:0.3125 37:0.5 38:0.64285713 42:0.875 43:0.25 45:0.0625 46:0.875 50:0.625 51:0.5625 52:0.25 53:0.75 54:0.8125 58:0.25 59:0.9375 60:0.9375 61:0.5625 62:0.125 # 0
-1.4255242175180802815356158727751e-10 2:0.5625 3:0.6875 4:0.75 5:0.75 6:0.0625 10:0.6875 11:0.75 12:0.8125 13:1 14:0.25 20:0.75 21:0.625 26:0.125 27:0.6875 28:0.875 29:0.125 34:0.5625 35:1 36:0.3125 42:0.375 43:0.9375 44:1 45:0.875 46:0.125 50:0.1875 51:0.375 52:0.875 53:1 54:0.0625 58:0.6875 59:1 60:0.8125 61:0.3125 # 0
-6.0373754377207338536644879711519e-11 2:0.0625 3:0.75 4:1 5:1 6:0.75 11:0.4375 12:0.25 13:0.6875 14:0.8125 21:0.5 22:0.6875 27:0.0625 28:0.25 29:0.75 30:0.5 35:0.75 36:1 37:1 38:0.5714286 43:0.1875 44:0.75 45:0.375 51:0.375 52:0.875 59:0.9375 60:0.3125 # 0
-7.2508189044890818882328266465129e-11 2:0.125 3:0.8125 4:1 5:0.375 10:0.6875 11:0.625 12:0.0625 18:0.875 19:0.0625 25:0.0625 26:0.9375 33:0.071428575 34:0.875 35:0.375 36:0.5 37:0.125 42:0.9375 43:0.8125 44:0.5 45:0.6875 46:0.0625 50:0.5625 51:0.75 53:0.5625 54:0.4375 59:0.8125 60:1 61:0.9375 62:0.375 # 0
-1.6343219233426469052454728780318e-10 2:0.375 3:1 4:0.5625 5:0.0625 9:0.2 10:0.9375 11:0.5 12:0.8125 13:0.1875 17:0.5 18:0.5 20:0.6875 21:0.25 25:0.0625 27:0.4375 28:1 29:0.375 34:0.125 35:1 36:0.875 37:1 38:0.35714287 43:0.3125 45:0.6875 46:0.5 50:0.25 51:0.375 52:0.5625 53:0.9375 54:0.125 58:0.25 59:0.9375 60:0.6875 61:0.1875 # 0
-9.4913382935215013823736977722253e-11 2:0.0625 3:0.6875 4:1 5:0.375 10:0.75 11:0.875 12:0.6875 13:1 14:0.1875 18:0.6875 19:0.3125 20:0.125 21:1 22:0.3125 28:0.4375 29:0.875 30:0.125 35:0.4375 36:1 37:0.4375 43:0.1875 44:1 45:0.625 51:0.75 52:1 53:0.9375 58:0.0625 59:0.75 60:1 61:0.4375 # 0
-3.4263699901939770689429435704238e-12 2:0.75 3:0.8125 4:0.5625 5:0.375 6:0.125 9:0.26666668 10:1 11:1 12:1 13:1 14:0.4375 17:0.4375 18:0.8125 19:0.1875 20:0.3125 21:0.1875 25:0.4375 26:0.875 27:0.3125 33:0.2857143 34:1 35:1 36:0.3125 41:0.0625 42:0.5625 43:1 44:0.75 50:0.3125 51:0.75 52:0.75 58:0.5 59:0.9375 60:0.3125 # 0
-3.0158771451131528602780917710916e-10 1:0.125 2:0.5 3:0.75 4:0.75 5:0.375 9:0.60000002 10:1 11:0.6875 12:0.5 13:0.625 14:0.0625 17:0.375 18:0.875 25:0.0625 26:0.75 27:0.9375 28:0.5 35:0.4375 36:0.9375 37:0.3125 44:0.25 45:0.875 52:0.6875 53:0.6875 58:0.75 59:1 60:0.75 61:0.25 # 0
-1.79179953550071734612881536312e-10 3:0.375 4:0.8125 10:0.0625 11:0.8125 12:0.5625 18:0.25 19:1 20:0.25 26:0.5 27:0.875 34:0.8125 35:0.9375 36:0.75 37:0.5 42:0.75 43:0.875 44:0.3125 45:0.625 46:0.75 50:0.5 51:0.8125 52:0.25 53:0.25 54:0.9375 55:0.2 59:0.3125 60:0.75 61:0.875 62:0.4375 # 0
-3.8067110086776620736491473462012e-10 2:0.4375 3:0.9375 4:0.9375 5:0.3125 9:0.26666668 10:1 11:1 12:1 13:0.8125 14:0.0625 17:0.125 18:1 19:1 20:1 21:0.375 26:1 27:1 28:1 29:0.375 34:1 35:1 36:1 41:0.0625 42:1 43:1 44:1 45:0.0625 49:0.25 50:1 51:1 52:0.9375 53:0.1875 57:0.1 58:0.5 59:0.9375 60:0.75 61:0.125 # 0
4.9604686447394968332030467707012e-10 2:0.375 3:0.5625 4:0.25 5:0.0625 10:0.375 11:1 12:1 13:0.5625 14:0.0625 18:0.25 19:1 20:0.0625 21:0.8125 22:0.4375 27:0.875 28:0.3125 29:0.75 30:0.5 33:0.071428575 34:0.625 35:0.9375 36:1 37:0.625 41:0.375 42:0.9375 43:0.5625 44:1 45:0.0625 49:0.4375 50:0.8125 51:0.5 52:0.875 53:0.25 58:0.375 59:0.625 60:0.8125 61:0.0625 # 0
1.0258596757339589205508493673265e-09 2:0.3125 3:0.9375 4:0.9375 5:0.6875 10:1 11:0.3125 13:0.6875 14:0.3125 18:0.9375 19:0.1875 21:0.75 22:0.625 26:0.3125 27:0.8125 29:0.75 30:0.375 35:0.625 36:1 37:0.5625 43:0.625 44:1 45:0.25 50:0.375 51:0.75 52:0.5 53:0.5625 58:0.375 59:1 60:0.75 61:0.25 # 0
-3.0263850079100850978227643186017e-10 3:0.0625 4:0.5625 5:0.8125 6:0.3125 10:0.1875 11:0.8125 12:0.625 13:0.75 14:0.5625 18:0.6875 19:0.5 21:0.8125 22:0.1875 25:0.0625 26:0.9375 27:0.875 28:0.6875 29:1 30:0.125 34:0.0625 35:0.5 36:0.625 37:0.875 44:0.4375 45:0.8125 52:0.625 53:0.5625 60:0.8125 61:0.3125 # 0
-4.5818115332001270904199019083495e-10 3:0.625 4:1 5:0.9375 6:0.1875 10:0.375 11:0.8125 12:0.625 13:1 14:0.125 18:0.1875 19:0.0625 20:0.125 21:0.875 28:0.5 29:0.5 34:0.0625 35:0.5 36:0.875 37:0.9375 38:0.5714286 41:0.0625 42:0.9375 43:1 44:0.8125 45:0.1875 50:0.125 51:0.5625 52:0.4375 59:0.875 60:0.0625 # 0
1.0338651779669185797319289928228e-09 2:0.25 3:0.75 4:0.9375 5:0.5625 6:0.0625 9:0.46666667 10:0.875 11:0.5 12:0.8125 13:0.9375 14:0.125 17:0.3125 18:0.4375 19:0.75 20:0.6875 21:0.0625 26:0.25 27:1 28:0.3125 34:0.625 35:0.9375 36:0.625 42:0.5625 43:0.375 44:0.75 45:0.25 50:0.4375 51:0.5625 52:0.625 53:0.5625 58:0.125 59:0.75 60:1 61:0.4375 # 0
-7.4886298940339651961307857049813e-11 1:0.125 2:0.9375 3:0.625 9:0.46666667 10:1 11:0.3125 12:0.0625 13:0.8125 14:0.375 17:0.5625 18:1 19:0.1875 20:0.5625 21:1 22:0.25 25:0.1875 26:0.9375 27:1 28:1 29:0.6875 34:0.125 35:0.875 36:0.9375 37:0.1875 42:0.1875 43:1 44:0.5 50:0.75 51:0.9375 57:0.1 58:1 59:0.3125 # 0
1.03787906604823662773468782206e-10 2:0.0625 3:0.4375 4:0.875 5:0.9375 6:0.125 9:0.13333334 10:0.75 11:0.875 12:0.5 13:0.875 14:0.4375 17:0.1875 18:0.875 19:0.8125 20:0.3125 21:0.875 22:0.3125 26:0.3125 27:0.9375 28:1 29:0.9375 30:0.125 35:0.625 36:1 37:0.625 42:0.125 43:0.875 44:0.875 45:0.75 50:0.25 51:1 52:0.875 53:0.75 59:0.75 60:0.8125 61:0.375 # 0
-1.6671652095366586121059877334885e-10 1:0.25 2:0.875 3:1 4:0.8125 5:0.4375 9:0.2 10:0.75 11:0.5 12:0.8125 13:1 19:0.3125 20:0.875 21:0.6875 25:0.125 26:0.75 27:1 28:0.625 29:0.0625 33:0.21428572 34:1 35:0.9375 36:0.5625 37:0.0625 42:0.1875 43:0.6875 44:0.9375 45:0.9375 46:0.0625 49:0.1875 50:0.375 51:0.25 52:0.3125 53:1 54:0.5 57:0.30000001 58:0.8125 59:1 60:0.875 61:0.75 62:0.125 # 0
2.5109029946429349645938424817702e-09 2:0.125 3:0.625 4:0.4375 9:0.2 10:1 11:0.6875 12:0.5 13:0.375 17:0.25 18:0.8125 21:0.5 25:0.25 26:1 27:0.5625 28:0.6875 29:0.6875 34:0.625 35:1 36:1 37:0.9375 38:0.14285715 42:0.25 43:1 44:0.25 45:0.1875 46:0.5 50:0.5 51:0.5625 53:0.125 54:0.5625 58:0.1875 59:0.6875 60:0.5 61:0.5 62:0.25 # 0
-3.9795203808145956411354614716048e-11 2:0.3125 3:0.625 4:0.75 5:1 6:1 7:0.125 10:0.625 11:1 12:1 13:0.625 14:0.375 18:0.3125 19:1 20:0.3125 27:0.75 28:1 29:0.125 36:0.75 37:0.75 44:0.8125 45:0.5625 50:0.0625 51:0.75 52:0.8125 53:0.125 58:0.4375 59:0.8125 60:0.125 # 0
7.5407835465166965154927606701475e-10 2:0.5625 3:1 4:0.875 5:0.75 6:0.1875 9:0.2 10:0.8125 11:0.25 12:0.6875 13:0.5 14:0.6875 17:0.0625 18:0.9375 19:0.3125 21:0.75 22:0.25 26:0.1875 27:0.875 28:0.8125 29:0.4375 35:0.625 36:0.8125 42:0.3125 43:0.75 44:0.9375 50:0.75 51:0.125 52:0.75 58:0.625 59:1 60:0.375 # 0
-9.9687292765972749498004740697187e-10 2:0.4375 3:0.8125 4:1 5:0.3125 9:0.40000001 10:0.5 11:0.5 12:0.875 13:0.5625 20:0.9375 21:0.3125 27:0.75 28:0.6875 34:0.375 35:0.9375 36:0.0625 42:0.75 43:0.25 50:0.6875 51:0.625 52:0.5 53:0.5 54:0.25 58:0.375 59:0.9375 60:1 61:0.75 62:0.25 # 0
-1.2549029053997744198378760859479e-09 2:0.4375 3:0.9375 4:0.625 9:0.13333334 10:1 11:0.5625 12:0.875 13:0.1875 17:0.3125 18:0.5625 20:0.5 21:0.25 25:0.125 26:0.625 28:0.8125 29:0.0625 35:0.5625 36:0.75 42:0.25 43:0.9375 44:0.0625 50:1 51:0.4375 52:0.25 53:0.25 54:0.125 58:0.5625 59:1 60:0.875 61:0.75 62:0.375 # 0
-4.9710571590370990669724458128811e-10 2:0.1875 3:0.8125 4:1 5:1 6:0.1875 10:0.5 11:0.625 12:0.3125 13:0.3125 17:0.4375 18:0.9375 25:0.625 26:0.8125 27:0.125 33:0.21428572 34:0.9375 35:0.875 36:0.0625 43:0.6875 44:0.6875 51:0.4375 52:0.8125 58:0.1875 59:1 60:0.6875 # 0
-1.0899197185133567677688484165942e-09 2:0.375 3:0.75 4:0.8125 5:0.3125 10:0.875 11:0.5625 12:0.5 13:1 14:0.125 18:0.3125 19:0.0625 20:0.375 21:0.9375 22:0.1875 27:0.1875 28:1 29:0.5 34:0.125 35:0.875 36:0.5 42:0.6875 43:0.8125 49:0.0625 50:1 51:0.3125 58:0.5625 59:0.9375 60:0.8125 61:0.625 62:0.5 # 0
-1.5679180070794026108080288707427e-09 2:0.125 3:0.8125 4:0.75 5:0.25 9:0.06666667 10:0.9375 11:0.75 12:0.1875 13:0.8125 14:0.125 17:0.5 18:0.8125 19:0.5 21:0.375 22:0.25 25:0.5 26:0.25 27:0.1875 29:0.1875 30:0.5 33:0.35714287 34:0.3125 37:0.375 38:0.42857143 41:0.0625 42:0.875 43:0.0625 45:0.5 46:0.1875 50:0.5 51:0.5 52:0.3125 53:0.8125 54:0.0625 59:0.6875 60:0.9375 61:0.375 # 0
-5.605962391260316051307537694995e-13 2:0.4375 3:0.4375 4:0.25 5:0.25 10:1 11:1 12:1 13:1 14:0.25 17:0.0625 18:1 19:1 20:0.5 21:0.75 22:0.5 25:0.375 26:0.9375 27:0.4375 29:0.75 30:0.3125 33:0.42857143 34:0.75 37:0.8125 38:0.2857143 41:0.3125 42:0.75 44:0.5 45:0.875 46:0.0625 49:0.25 50:1 51:0.6875 52:0.9375 53:0.4375 58:0.5 59:0.9375 60:0.4375 # 0
-1.1223675056654012728764833333356e-10 2:0.6875 3:0.875 4:0.625 5:0.1875 10:0.375 11:0.5 12:0.75 13:0.9375 14:0.1875 20:0.375 21:1 22:0.3125 27:0.375 28:0.9375 29:0.75 30:0.0625 34:0.3125 35:1 36:0.8125 37:0.0625 42:0.9375 43:0.8125 49:0.3125 50:1 51:0.5 52:0.25 53:0.125 57:0.1 58:0.625 59:1 60:1 61:0.625 # 0
-1.0018570400203208699265424849105e-09 1:0.125 2:0.625 3:0.75 4:0.875 5:0.5625 9:0.73333335 10:0.6875 11:0.3125 12:0.3125 13:1 14:0.25 17:0.25 18:0.1875 20:0.125 21:1 22:0.125 28:0.75 29:0.5625 34:0.0625 35:0.8125 36:0.625 42:0.5625 43:0.8125 49:0.125 50:1 51:0.25 57:0.1 58:0.8125 59:0.9375 60:0.75 61:0.125 # 0
1.5445384182115301705808507444582e-09 2:0.0625 3:0.75 4:0.9375 5:0.375 10:0.3125 11:0.8125 12:0.0625 13:0.75 18:0.125 19:0.6875 20:0.0625 21:0.9375 27:0.625 28:0.6875 29:0.5625 35:0.375 36:1 37:0.375 42:0.625 43:0.9375 44:0.25 45:0.8125 46:0.1875 50:0.75 51:0.125 53:0.0625 54:0.875 58:0.0625 59:0.625 60:0.625 61:0.5 62:0.9375 63:0.06666667 # 0
-4.0961772521287304527937347270201e-10 2:0.25 3:0.8125 4:0.8125 5:0.125 9:0.13333334 10:0.9375 11:0.4375 12:0.25 13:0.4375 17:0.375 18:0.75 20:0.3125 21:0.5625 25:0.1875 26:0.6875 27:0.1875 28:0.4375 29:0.875 30:0.0625 34:0.375 35:0.9375 36:1 37:0.875 38:0.2857143 45:0.25 46:0.6875 53:0.25 54:0.9375 58:0.1875 59:0.8125 60:1 61:1 62:0.5 # 0
-1.944920103899667281132571642786e-12 2:0.5625 3:1 4:0.5 9:0.60000002 10:0.8125 11:0.25 12:0.8125 17:0.4375 18:0.375 19:0.0625 20:0.875 27:0.5625 28:1 29:0.5625 35:0.5 36:0.375 37:0.8125 38:0.42857143 45:0.25 46:0.6875 50:0.375 52:0.1875 53:0.75 54:0.3125 58:0.5625 59:1 60:1 61:0.4375 # 0
1.4132055692544952398596575418696e-09 2:0.1875 3:0.6875 4:0.9375 5:0.5 10:0.5625 11:0.875 12:0.5 13:0.5625 18:0.375 19:0.875 20:0.3125 27:0.75 28:1 29:0.4375 34:0.25 35:0.875 36:0.6875 37:0.6875 42:0.75 43:0.5 45:1 46:0.0625 50:0.875 51:0.6875 52:0.6875 53:0.9375 54:0.0625 58:0.1875 59:0.8125 60:0.8125 61:0.375 # 0
2.8807420968633337728917759521245e-10 2:0.375 3:1 4:0.75 5:0.1875 9:0.2 10:0.9375 11:0.4375 12:0.375 13:0.875 14:0.0625 17:0.4375 18:0.8125 20:0.0625 21:0.875 22:0.0625 25:0.25 26:0.8125 27:0.5 28:0.8125 29:0.8125 33:0.14285715 34:0.9375 35:0.9375 36:0.4375 37:0.8125 38:0.35714287 42:0.75 43:0.3125 45:0.5625 46:0.5 50:0.75 51:0.3125 52:0.375 53:0.875 54:0.125 58:0.3125 59:1 60:0.75 61:0.1875 # 0
-7.0860238213868205727457583390362e-10 2:0.125 3:0.9375 4:0.9375 5:0.6875 6:0.1875 9:0.13333334 10:0.9375 11:0.375 12:0.25 13:0.25 14:0.1875 17:0.3125 18:1 19:0.9375 20:0.4375 25:0.0625 26:0.25 27:0.375 28:0.8125 29:0.8125 37:0.875 38:0.2857143 42:0.1875 43:0.1875 45:0.6875 46:0.1875 50:0.4375 51:0.4375 52:0.625 53:0.75 58:0.1875 59:0.875 60:0.5625 61:0.0625 # 0
-2.3346967788745700238545038007122e-11 1:0.125 2:0.8125 3:0.3125 9:0.26666668 10:0.875 17:0.25 18:0.5 20:0.0625 21:0.375 22:0.0625 25:0.3125 26:0.5 27:0.0625 28:0.6875 29:1 30:0.3125 33:0.2857143 34:0.625 35:0.4375 36:1 37:1 38:0.5 41:0.25 42:0.875 43:0.625 44:1 45:1 46:0.1875 49:0.0625 50:1 51:1 52:1 53:0.625 58:0.625 59:0.875 60:0.5625 61:0.125 # 0
-1.8356546728444009595878358301761e-11 1:0.25 2:0.9375 3:1 4:0.375 9:0.2 10:0.875 11:0.875 12:1 13:0.125 19:0.375 20:1 21:0.125 27:0.6875 28:1 29:0.0625 33:0.5714286 34:0.875 35:1 36:1 37:1 38:0.35714287 41:0.625 42:1 43:0.9375 44:0.6875 45:0.75 46:0.3125 49:0.3125 50:1 51:0.4375 57:0.5 58:0.875 59:0.0625 # 0
-2.4067511565505641855484204367664e-09 2:0.6875 3:1 4:1 5:0.5 10:0.6875 11:0.75 12:0.5 13:0.8125 18:0.4375 19:0.625 26:0.1875 27:0.8125 35:0.875 36:0.125 43:0.8125 44:0.375 50:0.375 51:0.75 52:0.625 58:0.6875 59:1 60:0.5625 # 0
-1.4194793297623331808712915788541e-10 3:0.5 4:0.9375 5:1 6:0.4375 9:0.06666667 10:0.875 11:0.5625 12:0.0625 14:0.5 17:0.375 18:0.75 21:0.625 22:0.5 25:0.25 26:0.875 27:0.75 28:0.8125 29:0.875 30:0.5 36:0.0625 37:0.25 38:0.5714286 45:0.25 46:0.5 53:0.4375 54:0.5 59:0.5 60:0.75 61:0.9375 62:0.375 # 0
-3.5093580622293639469896217013159e-11 2:0.3125 3:0.75 4:1 5:1 6:0.5625 9:0.2 10:1 11:0.5625 12:0.1875 17:0.4375 18:1 19:0.6875 20:0.3125 25:0.125 26:0.6875 27:0.5625 28:1 29:0.0625 36:0.5625 37:0.5625 44:0.5625 45:0.5625 50:0.5625 51:0.375 52:1 53:0.375 58:0.3125 59:0.75 60:0.375 # 0
-1.7714773260234109559500833585058e-10 1:0.625 2:1 3:1 4:1 5:0.1875 9:0.53333336 10:0.4375 11:0.3125 12:1 13:0.125 17:0.1875 18:0.3125 19:0.625 20:0.875 25:0.4375 26:1 27:1 28:0.9375 29:0.75 30:0.375 34:0.5625 35:0.875 36:0.6875 37:0.875 38:0.42857143 42:1 43:0.375 49:0.1875 50:0.9375 51:0.125 57:0.69999999 58:0.75 # 0
2.0565206834574669751183104302527e-10 1:0.25 2:0.5 3:1 4:0.6875 5:0.0625 9:0.66666669 10:0.9375 11:0.3125 12:0.6875 13:0.3125 17:0.6875 18:0.625 19:0.8125 20:1 21:0.375 25:0.5625 26:1 27:1 28:0.75 29:0.8125 30:0.125 33:0.071428575 34:0.9375 35:0.5 37:0.375 38:0.64285713 42:0.75 43:0.3125 45:0.3125 46:0.6875 50:0.5625 51:0.5625 52:0.4375 53:1 54:0.5 58:0.25 59:0.875 60:0.9375 61:0.375 # 0
2.2636449565880251652599575206207e-11 2:0.3125 3:0.6875 4:0.75 10:1 11:1 12:1 13:0.8125 14:0.4375 18:0.75 19:1 20:1 21:0.9375 22:0.25 26:0.25 27:0.9375 28:0.875 29:0.5 34:0.75 35:0.25 36:0.0625 37:0.25 41:0.0625 42:0.875 44:0.1875 45:0.4375 49:0.0625 50:1 51:0.75 52:1 53:0.25 58:0.1875 59:0.5625 60:0.3125 # 0
-1.5450990763741811769915240952445e-09 2:0.5625 3:1 4:1 5:0.875 9:0.2 10:0.9375 11:0.625 12:0.125 13:0.3125 17:0.6875 18:0.5625 25:0.5 26:0.875 27:0.0625 33:0.071428575 34:0.9375 35:0.3125 42:0.6875 43:0.5625 50:0.5625 51:0.75 58:0.875 59:0.5625 # 0
4.588711515295451435295411103584e-11 2:0.25 3:0.9375 4:0.4375 9:0.2 10:1 11:0.6875 12:0.125 17:0.6875 18:0.6875 20:0.5 21:0.6875 22:0.0625 25:0.4375 26:0.875 27:0.6875 28:0.9375 29:0.125 33:0.071428575 34:0.8125 35:1 36:0.25 42:0.5 43:1 44:0.5 50:0.5 51:1 52:1 53:0.125 58:0.125 59:0.75 60:0.9375 61:0.3125 # 0
-2.5546087248318530392470685637092e-10 2:0.375 3:0.9375 4:0.0625 9:0.13333334 10:1 11:0.4375 17:0.5 18:0.9375 21:0.4375 22:0.1875 25:0.6875 26:0.8125 27:0.25 28:0.5 29:1 30:0.3125 33:0.35714287 34:1 35:1 36:1 37:0.625 42:0.0625 43:0.875 44:0.9375 50:0.25 51:1 52:0.375 58:0.625 59:0.8125 # 0
-1.9089614111143107374075150250661e-10 2:0.0625 3:1 4:0.9375 5:0.3125 10:0.5625 11:1 12:1 13:0.75 17:0.125 18:1 19:1 20:1 21:0.4375 26:0.75 27:1 28:1 29:0.125 34:0.5 35:1 36:1 37:0.3125 42:0.9375 43:1 44:1 45:0.6875 50:0.9375 51:1 52:1 53:1 54:0.5 58:0.125 59:0.625 60:0.9375 61:0.6875 62:0.25 # 0
7.430901490616611108625366592976e-11 2:0.0625 3:0.75 4:0.9375 5:0.75 6:0.0625 10:0.125 11:0.75 12:0.625 13:1 14:0.25 17:0.375 18:0.625 19:0.375 20:0.875 21:0.5625 25:0.3125 26:0.8125 27:1 28:1 29:0.4375 34:0.3125 35:0.9375 36:0.625 37:0.9375 42:0.3125 43:0.75 45:0.6875 46:0.4375 50:0.25 51:0.875 52:0.25 53:0.8125 54:0.4375 58:0.125 59:0.75 60:0.9375 61:0.625 62:0.0625 # 0
-4.116291150287510314517032954134e-10 2:0.3125 3:0.875 4:0.9375 5:0.3125 9:0.13333334 10:1 11:0.5625 12:0.5625 13:0.9375 14:0.125 17:0.125 18:0.625 20:0.375 21:1 22:0.1875 26:0.125 27:0.875 28:1 29:0.4375 35:0.6875 36:1 37:0.875 38:0.071428575 42:0.375 43:0.1875 44:0.375 45:1 46:0.0625 50:0.8125 51:0.6875 52:0.625 53:0.9375 58:0.5625 59:1 60:1 61:0.4375 # 0
-4.1312037530731122731572797192529e-10 3:0.25 4:0.5 11:0.6875 12:0.5 19:0.8125 20:0.375 26:0.125 27:0.9375 28:0.125 29:0.1875 34:0.6875 35:0.625 36:0.25 37:1 38:0.14285715 41:0.6875 42:0.875 44:0.5625 45:1 46:0.125 49:0.5625 50:0.9375 51:0.75 52:0.9375 53:1 58:0.125 59:0.375 60:0.9375 61:0.375 # 0
-1.0425962474288490060704464646758e-09 3:0.5 4:0.8125 5:0.375 10:0.3125 11:0.875 12:0.375 13:0.875 14:0.125 18:0.5 19:0.5 20:0.0625 21:0.875 22:0.25 26:0.125 27:0.8125 28:0.6875 29:1 30:0.3125 35:0.1875 36:0.4375 37:0.5625 38:0.2857143 41:0.0625 42:0.125 45:0.5 46:0.5 49:0.0625 50:0.8125 51:0.1875 53:0.875 54:0.3125 59:0.6875 60:1 61:0.8125 62:0.0625 # 0
3.9775472029094282213530252693989e-11 2:0.1875 3:0.8125 4:1 5:0.8125 6:0.0625 10:0.75 11:0.8125 12:0.5 13:1 14:0.1875 17:0.125 18:0.9375 19:1 20:1 21:0.5 25:0.375 26:0.5 27:0.6875 28:0.9375 29:0.625 34:0.25 35:0.875 36:0.25 37:1 42:0.5 43:0.5625 44:0.0625 45:0.8125 46:0.4375 50:0.4375 51:0.5625 53:0.875 54:0.375 58:0.1875 59:0.875 60:0.875 61:0.875 62:0.0625 # 0
-6.24140239719167566898075479407e-11 3:0.5625 4:0.75 5:0.3125 11:1 12:0.5625 13:0.9375 14:0.125 19:1 20:0.375 21:1 22:0.25 27:0.25 28:1 29:1 30:0.5 36:0.125 37:0.9375 38:0.2857143 45:0.625 46:0.4375 50:1 51:0.6875 52:0.1875 53:0.8125 54:0.25 58:0.1875 59:0.375 60:0.8125 61:0.9375 62:0.125 # 0
1.6773557556503818302857767030325e-11 3:0.8125 4:0.4375 9:0.33333334 10:0.875 11:1 12:1 13:0.5 17:0.75 18:0.625 20:0.375 21:1 25:0.125 26:0.875 27:0.75 28:0.3125 29:1 30:0.1875 35:0.6875 36:1 37:0.6875 42:0.125 43:0.9375 44:0.5625 45:1 46:0.3125 50:0.625 51:0.875 52:0.25 53:0.8125 54:0.75 58:0.0625 59:0.5625 60:0.875 61:1 62:0.6875 # 0
-3.2475626096676202664618211513557e-10 2:0.9375 3:0.125 9:0.33333334 10:1 11:0.9375 12:0.6875 13:0.3125 17:0.4375 18:1 19:0.9375 20:0.75 21:0.8125 22:0.25 25:0.0625 26:0.9375 27:0.4375 34:0.3125 35:1 36:0.3125 43:0.625 44:0.875 50:0.0625 51:0.75 52:0.9375 58:0.6875 59:1 60:0.375 # 0
1.3350943189018362594987808983143e-11 2:0.1875 3:0.6875 4:0.75 5:0.25 9:0.40000001 10:0.9375 11:0.375 12:0.3125 13:0.8125 17:0.4375 18:0.8125 20:0.125 21:1 22:0.0625 25:0.1875 26:1 27:1 28:1 29:0.875 34:0.9375 35:0.8125 36:0.5 37:0.8125 38:0.42857143 42:0.75 43:0.0625 45:0.1875 46:0.5625 50:0.5625 51:0.75 52:0.5 53:0.875 54:0.6875 58:0.3125 59:0.8125 60:0.75 61:0.5625 62:0.0625 # 0
6.6924730253916740859681899960192e-11 2:0.3125 3:0.8125 4:0.375 5:0.0625 10:0.5 11:1 12:1 13:0.9375 14:0.125 18:0.1875 19:0.8125 20:0.0625 21:0.8125 22:0.5 26:0.125 27:0.875 28:0.9375 29:0.875 30:0.125 33:0.14285715 34:0.875 35:0.9375 36:0.9375 37:0.1875 41:0.4375 42:0.6875 44:0.375 45:0.625 49:0.3125 50:0.6875 51:0.0625 52:0.0625 53:1 58:0.5 59:0.8125 60:1 61:0.8125 62:0.0625 # 0
-1.5276086990358289312353856402658e-10 2:0.0625 3:0.875 4:0.8125 5:0.0625 10:0.75 11:1 12:1 13:0.75 17:0.0625 18:0.6875 19:0.875 20:0.6875 21:1 22:0.3125 25:0.1875 26:0.5 27:1 28:0.125 29:0.5 30:0.625 34:0.3125 35:0.875 37:0.5 38:0.5 42:0.4375 43:0.75 45:0.9375 46:0.1875 50:0.4375 51:0.875 52:0.6875 53:0.6875 58:0.125 59:1 60:0.8125 61:0.125 # 0
5.0095520685473328111301889672301e-11 2:0.125 3:0.5 4:0.8125 5:0.8125 6:0.125 9:0.40000001 10:0.875 11:0.875 12:0.6875 13:0.9375 14:0.1875 17:0.625 18:0.875 19:0.25 20:0.625 21:0.375 25:0.0625 26:0.875 27:0.75 28:0.8125 34:0.5625 35:0.9375 36:0.6875 42:0.8125 43:0.125 44:0.6875 45:0.5 50:0.5 51:0.625 52:0.25 53:0.875 54:0.1875 58:0.0625 59:0.5 60:0.875 61:0.875 62:0.0625 # 0
-3.4080782131430513515004905058969e-11 3:0.3125 4:1 5:0.3125 10:0.375 11:0.9375 12:1 13:0.5625 16:1 17:1 18:1 19:1 20:1 21:0.1875 25:0.5625 26:0.6875 27:0.8125 28:1 29:0.1875 35:0.875 36:0.875 43:0.875 44:0.8125 51:0.6875 52:0.875 59:0.25 60:0.9375 61:0.25 # 0
-1.4368532581740349882912152779948e-10 2:0.4375 3:1 4:0.375 5:0.3125 10:1 11:0.75 12:0.5625 13:0.875 14:0.0625 17:0.25 18:0.9375 21:1 22:0.125 25:0.25 26:0.875 29:0.9375 30:0.1875 33:0.35714287 34:0.75 36:0.1875 37:0.875 41:0.1875 42:1 44:0.375 45:0.625 49:0.0625 50:0.9375 51:0.375 52:1 53:0.1875 58:0.5 59:0.9375 60:0.5 # 0
-4.777743221058990181168829733464e-11 1:0.25 2:1 3:1 4:0.9375 5:0.1875 10:0.1875 11:0.1875 12:0.875 13:0.5 19:0.1875 20:1 21:0.125 27:0.625 28:0.875 33:0.21428572 34:1 35:1 36:1 37:1 38:0.5714286 42:0.6875 43:0.9375 44:0.25 45:0.25 46:0.0625 50:0.875 51:0.375 57:0.30000001 58:1 59:0.1875 # 0
-5.6125961245139948293476570424483e-10 2:0.1875 3:1 4:0.875 5:0.1875 10:0.375 11:1 12:1 13:0.3125 18:0.75 19:1 20:0.5625 26:1 27:1 28:0.3125 33:0.14285715 34:1 35:1 36:0.0625 41:0.0625 42:1 43:1 44:0.0625 50:0.8125 51:1 52:0.0625 58:0.25 59:0.9375 # 0
-2.6496182868486178795622546682572e-10 1:0.625 2:0.9375 3:0.8125 9:0.2 10:0.625 11:1 12:0.3125 19:0.875 20:0.25 26:0.375 27:0.875 33:0.071428575 34:0.875 35:0.4375 41:0.4375 42:0.8125 43:0.0625 49:0.8125 50:0.875 51:0.625 52:0.6875 53:0.5625 54:0.3125 57:0.5 58:0.9375 59:1 60:0.875 61:0.625 62:0.1875 # 0
-8.3340506422784407061926815911467e-11 2:0.5 3:0.875 4:0.875 5:0.25 10:0.375 11:0.875 12:1 13:0.6875 14:0.0625 18:0.1875 19:0.9375 20:1 21:0.9375 22:0.1875 26:0.0625 27:1 28:1 29:0.8125 34:0.125 35:1 36:1 37:0.5 42:0.625 43:1 44:1 45:0.375 49:0.0625 50:0.875 51:1 52:0.9375 53:0.125 58:0.75 59:1 60:0.5 # 0
-8.8081451788975540094755916687742e-10 2:0.625 3:0.9375 4:1 5:0.375 9:0.06666667 10:0.8125 11:0.3125 12:0.4375 13:0.9375 14:0.125 20:0.4375 21:0.75 22:0.125 27:0.375 28:0.9375 29:0.1875 34:0.4375 35:0.75 36:0.0625 41:0.3125 42:0.875 43:0.125 49:0.5625 50:0.875 51:0.625 52:0.6875 53:0.4375 54:0.0625 57:0.1 58:0.4375 59:0.5 60:0.5 61:0.6875 62:0.25 # 0
-9.3000307119794989350409019402034e-11 2:0.375 3:0.9375 4:0.9375 5:0.25 10:0.6875 11:0.625 12:0.25 13:0.125 18:0.8125 19:0.6875 20:0.125 26:0.75 27:0.875 28:0.75 29:0.3125 36:0.1875 37:0.9375 38:0.21428572 45:0.25 46:0.6875 50:0.9375 51:0.5 52:0.1875 53:0.125 54:0.9375 58:0.3125 59:0.75 60:1 61:1 62:0.75 # 0
-5.7223379948604990632837972828898e-10 2:0.125 3:0.75 4:0.875 5:0.3125 9:0.13333334 10:0.9375 11:0.375 12:0.5 13:0.875 14:0.375 17:0.3125 18:0.5625 20:0.3125 21:1 22:0.25 25:0.3125 26:0.5625 27:0.25 28:0.9375 29:0.75 34:0.875 35:0.8125 36:1 37:0.3125 43:0.25 44:0.75 51:0.6875 52:0.3125 58:0.125 59:0.9375 60:0.25 # 0
-7.0131621840910149671570350599005e-11 2:0.3125 3:0.9375 4:0.5625 9:0.13333334 10:0.8125 11:0.5 12:0.9375 13:0.3125 17:0.125 18:0.125 20:0.5 21:0.3125 26:0.3125 27:0.5625 28:0.9375 29:0.125 34:0.6875 35:0.9375 36:0.9375 37:0.6875 44:0.0625 45:0.875 46:0.0625 50:0.25 51:0.5625 52:0.25 53:0.6875 54:0.1875 58:0.3125 59:0.75 60:0.8125 61:0.5625 # 0
-9.5947634937629005442951521425354e-10 2:0.1875 3:0.625 4:0.9375 5:0.5 9:0.2 10:0.9375 11:0.5625 12:0.5 13:0.75 17:0.5 18:0.5 20:0.3125 21:0.6875 25:0.125 26:0.375 28:0.625 29:0.4375 35:0.3125 36:0.875 37:0.0625 43:0.875 44:0.3125 50:0.25 51:1 52:0.25 53:0.3125 54:0.6875 58:0.0625 59:0.875 60:0.9375 61:0.6875 62:0.125 # 0
-5.6936938352753508832083840921542e-10 2:0.4375 3:0.8125 6:0.1875 7:0.5 10:0.9375 11:0.4375 13:0.1875 14:0.9375 15:0.53846157 18:1 19:0.75 20:0.375 21:0.875 22:0.5625 26:0.375 27:0.75 28:1 29:0.75 35:0.125 36:0.875 37:0.125 43:0.5625 44:0.5625 50:0.125 51:0.8125 52:0.0625 58:0.5 59:0.3125 # 0
-1.3526989797532310313312824801664e-10 2:0.1875 3:0.5625 4:0.5 10:0.9375 11:0.5625 12:0.0625 17:0.25 18:1 19:0.5 20:0.125 25:0.3125 26:1 27:0.75 28:0.75 29:0.6875 30:0.0625 33:0.2857143 34:0.75 37:0.3125 38:0.71428573 41:0.0625 42:0.875 43:0.1875 45:0.0625 46:0.875 47:0.25 50:0.625 51:0.375 52:0.3125 53:0.875 54:0.8125 58:0.25 59:0.8125 60:0.875 61:0.5 # 0
-3.8666869593798345612628852301212e-12 1:0.125 2:0.5 3:0.875 4:1 5:0.75 9:0.06666667 10:0.75 11:0.5625 12:0.6875 13:1 19:0.5625 20:0.9375 21:0.3125 25:0.125 26:0.875 27:1 28:0.4375 33:0.071428575 34:0.6875 35:0.8125 36:1 37:0.5625 44:0.125 45:1 46:0.25 50:0.6875 51:0.5 52:0.875 53:0.8125 58:0.6875 59:0.875 60:0.6875 61:0.0625 # 0
-2.052529767502077611298281597366e-10 1:0.375 2:0.75 3:0.75 4:0.1875 9:0.53333336 10:0.625 11:0.6875 12:0.5625 18:0.125 19:0.875 20:0.25 26:0.75 27:0.8125 28:0.0625 34:0.1875 35:0.8125 36:0.9375 37:0.1875 44:0.4375 45:0.875 46:0.0625 49:0.125 50:0.25 51:0.25 52:0.1875 53:0.6875 54:0.4375 57:0.5 58:0.75 59:0.75 60:0.875 61:1 62:0.5 # 0
-1.5743309721398887514199813906704e-10 4:0.6875 5:0.5 11:0.125 12:1 13:0.5 19:0.375 20:1 21:0.125 27:0.4375 28:0.9375 35:0.625 36:0.875 42:0.8125 43:1 44:1 45:0.6875 50:0.4375 51:0.4375 52:1 53:1 54:0.625 60:0.5 61:1 62:0.9375 # 0
2.899917930906113219020872045638e-10 2:0.375 3:0.75 4:0.875 5:0.375 9:0.80000001 10:0.875 11:0.375 12:0.25 13:0.9375 17:0.6875 18:0.0625 20:0.3125 21:0.75 25:0.375 26:0.6875 27:0.3125 28:0.9375 29:0.1875 34:0.4375 35:0.9375 36:0.75 37:0.125 42:0.3125 43:0.8125 44:0.5 45:0.8125 46:0.0625 50:0.6875 51:0.3125 52:0.375 53:0.875 54:0.4375 58:0.3125 59:1 60:0.75 61:0.4375 62:0.0625 # 0
-4.333948241364690668576693958683e-10 2:0.3125 3:0.75 4:0.9375 5:0.875 6:0.625 7:0.1875 10:0.25 11:0.4375 12:0.25 13:0.3125 14:0.875 15:0.23076923 21:0.5625 22:0.6875 28:0.25 29:1 30:0.25 33:0.14285715 34:0.5 35:0.5625 36:1 37:0.625 41:0.1875 42:0.75 43:1 44:0.5625 50:0.3125 51:0.875 58:0.375 59:0.5625 # 0
5.7755295391331821624958042389586e-10 1:0.125 2:0.5 3:0.625 4:0.1875 9:0.26666668 10:1 11:1 12:1 13:0.6875 14:0.0625 17:0.1875 18:1 19:0.5625 20:0.5 21:0.6875 22:0.25 26:0.625 27:0.4375 28:0.1875 29:0.625 30:0.125 34:0.1875 35:1 36:0.8125 37:0.3125 42:0.8125 43:0.9375 44:0.5 49:0.25 50:0.9375 51:0.3125 52:0.8125 57:0.1 58:0.4375 59:0.75 60:0.6875 # 0
-3.5538743216257225921565920605765e-11 3:0.0625 4:1 5:0.875 6:0.0625 11:0.625 12:1 13:0.875 17:0.1875 18:0.5625 19:1 20:1 21:0.1875 25:0.3125 26:1 27:1 28:1 29:0.25 35:0.875 36:1 37:0.25 43:0.5625 44:1 45:0.5 51:0.3125 52:1 53:0.75 59:0.125 60:0.9375 61:0.875 62:0.125 # 0
-5.0706587799110922879434507462207e-11 2:0.125 3:0.5625 4:0.75 5:0.8125 6:0.1875 9:0.06666667 10:0.875 11:0.625 12:0.25 13:0.875 14:0.3125 17:0.375 18:0.75 19:0.25 20:0.5 21:1 22:0.125 25:0.0625 26:0.6875 27:0.75 28:0.75 29:1 30:0.1875 36:0.5 37:0.6875 43:0.0625 44:0.875 45:0.25 51:0.3125 52:0.875 59:0.4375 60:0.625 # 0
-3.1570481530366374152121854196513e-10 2:0.75 3:0.3125 10:1 11:0.125 17:0.1875 18:0.75 25:0.25 26:0.75 33:0.5 34:0.875 35:1 36:0.875 37:0.1875 41:0.1875 42:1 43:0.5 44:0.5625 45:1 46:0.25 49:0.125 50:1 51:0.1875 52:0.25 53:1 54:0.25 58:0.6875 59:0.75 60:0.6875 61:0.25 # 0
-4.2796185259582408648458396160366e-10 3:0.75 4:1 5:0.8125 10:0.375 11:1 12:0.625 13:0.3125 16:0.33333334 17:0.875 18:0.125 19:0.375 25:0.75 26:0.6875 33:0.21428572 34:0.875 35:0.6875 36:0.0625 42:0.1875 43:0.8125 44:0.6875 51:0.3125 52:1 53:0.375 59:0.8125 60:1 61:0.375 # 0
1.4205213196379009721178176632166e-10 2:0.125 3:0.9375 4:1 5:0.875 6:0.3125 10:0.3125 11:0.9375 12:0.5 13:0.8125 14:0.6875 17:0.125 18:0.6875 19:0.75 20:0.4375 21:0.9375 22:0.5 25:0.4375 26:1 27:1 28:1 29:0.5 30:0.0625 33:0.14285715 34:0.9375 35:1 36:0.5 42:0.4375 43:1 44:0.75 50:0.25 51:1 52:1 58:0.125 59:0.875 60:0.875 # 0
4.1729436692318348744644318395851e-09 2:0.3125 3:0.6875 4:0.875 5:0.3125 9:0.46666667 10:0.8125 11:0.3125 12:0.25 13:0.875 14:0.125 18:0.25 19:0.5 20:0.125 21:0.875 22:0.125 26:0.0625 27:0.8125 28:0.875 29:0.1875 34:0.0625 35:0.875 36:0.5 42:0.5625 43:0.5625 44:0.625 45:0.125 50:0.8125 51:0.0625 52:0.5 53:0.5 58:0.375 59:0.8125 60:0.875 61:0.4375 # 0
-1.9778291549310554709849503740376e-10 1:0.375 2:0.8125 3:1 4:0.25 9:0.46666667 10:0.875 11:1 12:0.5 18:0.0625 19:1 20:0.4375 26:0.5625 27:0.9375 28:0.0625 33:0.071428575 34:1 35:0.5 41:0.4375 42:1 43:0.0625 49:0.5625 50:1 51:0.25 52:0.25 53:0.25 54:0.25 57:0.40000001 58:1 59:1 60:1 61:1 62:0.5 # 0
-2.2263207613711947555048430726326e-10 2:0.4375 3:1 4:0.875 5:0.5 10:0.3125 11:0.875 12:0.8125 13:0.75 18:0.5 19:1 20:1 21:0.625 26:0.5625 27:1 28:1 29:0.375 34:0.6875 35:1 36:1 37:0.3125 41:0.125 42:0.875 43:1 44:1 45:0.25 49:0.0625 50:1 51:1 52:1 53:0.1875 58:0.4375 59:0.875 60:1 61:0.625 62:0.0625 # 0
-5.7795959064542511750928453060261e-10 2:0.1875 3:0.75 4:1 5:0.625 9:0.2 10:0.875 11:0.3125 13:0.75 17:0.5625 18:0.5 19:0.0625 20:0.5625 21:1 22:0.25 25:0.3125 26:0.9375 27:0.9375 28:0.9375 29:0.875 30:0.125 36:0.9375 37:0.1875 43:0.5 44:0.625 51:0.6875 52:0.375 58:0.1875 59:0.9375 60:0.125 # 0
-1.1676193884846157867398236930253e-10 2:0.0625 3:0.875 4:0.6875 10:0.75 11:0.8125 12:0.0625 17:0.3125 18:1 19:0.1875 21:0.4375 22:0.9375 23:0.16666667 25:0.375 26:1 27:0.6875 28:0.75 29:1 30:0.625 34:0.6875 35:0.875 36:1 37:0.6875 43:0.4375 44:0.9375 45:0.125 51:0.9375 52:0.75 58:0.0625 59:0.9375 60:0.4375 # 0
-2.9426838922619980481017838264926e-11 4:0.5 5:0.6875 11:0.125 12:0.875 13:0.375 19:0.6875 20:0.5625 21:0.125 22:0.1875 26:0.5625 27:0.75 28:0.0625 29:0.6875 30:0.5625 33:0.2857143 34:1 35:0.375 37:0.8125 38:0.35714287 41:0.5 42:1 43:1 44:1 45:1 51:0.1875 52:0.5 53:0.9375 60:0.375 61:0.75 # 0
-1.9540554157794238758576460676056e-10 2:0.25 3:0.625 10:0.125 11:0.9375 12:0.125 18:0.125 19:1 20:0.25 26:0.4375 27:1 28:0.5625 34:0.875 35:0.875 36:0.875 42:0.1875 43:0.1875 44:1 45:0.1875 50:0.0625 51:0.4375 52:0.875 53:0.6875 54:0.25 58:0.25 59:0.875 60:1 61:0.8125 62:0.875 63:0.53333336 # 0
-2.291444097369267570460076900119e-10 3:0.5625 4:0.5625 10:0.4375 11:0.9375 12:0.1875 18:0.6875 19:0.5 26:0.875 27:0.25 28:0.125 29:0.1875 34:0.75 35:0.75 36:1 37:0.75 38:0.71428573 42:0.5625 43:0.875 44:0.5 46:0.5 47:1 50:0.25 51:0.5625 52:0.0625 53:0.125 54:0.875 55:0.5 59:0.375 60:0.6875 61:0.875 62:0.5 # 0
-5.0118862447917801014740281706559e-10 2:0.4375 3:0.9375 4:1 5:0.75 10:0.5625 11:0.375 12:0.1875 13:0.9375 14:0.125 19:0.25 20:0.8125 21:0.5625 26:0.5625 27:1 28:1 29:0.375 34:0.3125 35:0.3125 36:0.375 37:0.9375 38:0.2857143 42:0.5 45:0.25 46:0.75 49:0.0625 50:0.8125 51:0.0625 52:0.1875 53:0.75 54:0.5 58:0.5 59:1 60:0.9375 61:0.625 # 0
-6.8476142336770251015284389835579e-11 2:0.1875 3:0.875 4:1 5:0.375 9:0.06666667 10:0.8125 11:0.3125 12:0.25 13:0.8125 17:0.3125 18:0.75 21:0.5625 22:0.25 25:0.3125 26:0.5625 29:0.3125 30:0.5 33:0.5714286 34:0.4375 37:0.1875 38:0.5714286 41:0.375 42:0.5625 45:0.125 46:0.5625 50:0.9375 51:0.1875 52:0.0625 53:0.5625 54:0.5 58:0.3125 59:0.9375 60:0.875 61:0.5625 # 0
-6.5400079067914590859415666828161e-10 1:0.125 2:0.5625 3:0.75 4:0.9375 5:0.875 6:0.25 9:0.40000001 10:0.875 11:0.25 12:0.25 13:0.875 14:0.5 17:0.1875 18:0.5 20:0.4375 21:0.9375 22:0.125 27:0.375 28:0.875 29:0.125 35:0.5 36:0.6875 43:0.0625 44:0.9375 45:0.125 50:0.3125 52:0.75 53:0.5625 58:0.6875 59:1 60:0.875 61:0.1875 # 0
1.0660771277904462513369709855248e-09 2:0.4375 3:0.8125 4:0.9375 5:0.1875 9:0.2 10:1 11:0.25 12:0.5 13:0.25 17:0.0625 18:1 19:0.1875 20:0.625 26:0.5 27:1 28:0.375 34:0.375 35:0.6875 36:0.6875 37:0.625 38:0.071428575 41:0.0625 42:0.8125 43:0.1875 45:0.5625 46:0.375 49:0.125 50:0.875 51:0.0625 53:0.5625 54:0.1875 58:0.25 59:0.8125 60:0.875 61:0.5625 # 0
-2.5905004342126747820280221211496e-10 3:0.4375 4:0.75 5:0.125 10:0.3125 11:0.875 12:0.5625 13:0.1875 18:1 19:0.5 25:0.1875 26:0.8125 33:0.2857143 34:0.5625 35:0.75 36:0.875 37:0.4375 41:0.0625 42:0.6875 43:0.75 44:0.5 45:0.4375 46:0.6875 47:0.25 50:0.25 51:0.625 52:0.125 54:0.6875 55:0.5 59:0.375 60:0.8125 61:0.875 62:0.875 63:0.06666667 # 0
-2.6370662019679200652748299468168e-10 2:0.1875 3:0.8125 10:0.75 11:0.375 17:0.125 18:1 19:0.0625 25:0.3125 26:0.75 33:0.5714286 34:0.625 35:0.3125 36:0.6875 37:0.4375 41:0.375 42:1 43:1 44:0.5625 45:0.75 46:0.5 50:0.875 51:0.5625 52:0.25 53:0.6875 54:0.5 58:0.1875 59:0.75 60:0.8125 61:0.5625 62:0.0625 # 0
-1.3399131809011891634062081342989e-10 4:0.1875 5:0.875 6:0.0625 11:0.0625 12:0.875 13:0.9375 19:0.5625 20:1 21:0.625 26:0.5625 27:1 28:1 29:0.5 33:0.2857143 34:1 35:0.4375 36:1 37:0.5 41:0.0625 42:0.25 44:0.9375 45:0.625 52:0.6875 53:0.75 60:0.1875 61:0.9375 62:0.1875 # 0
8.3772334870154424374195267762063e-12 2:0.0625 3:0.6875 4:0.875 5:0.625 6:0.0625 9:0.06666667 10:0.8125 11:0.625 12:0.5 13:0.75 14:0.5 17:0.375 18:0.6875 20:0.0625 21:0.8125 22:0.25 25:0.125 26:0.9375 27:0.75 28:0.9375 29:0.375 34:0.8125 35:1 36:0.9375 37:0.125 41:0.0625 42:0.875 44:0.4375 45:0.75 50:0.5625 51:0.5625 52:0.25 53:1 58:0.0625 59:0.5625 60:0.9375 61:0.625 # 0
-4.8033469908942198736838225745773e-10 2:0.1875 3:0.75 4:0.625 10:0.625 11:0.6875 12:0.3125 13:0.625 17:0.0625 18:1 19:0.4375 21:0.625 22:0.125 25:0.125 26:1 27:0.125 29:0.375 30:0.375 33:0.21428572 34:0.9375 35:0.625 37:0.4375 38:0.5 42:0.75 43:0.4375 45:0.625 46:0.3125 50:0.8125 51:0.125 52:0.375 53:0.9375 54:0.0625 58:0.1875 59:0.9375 60:0.875 61:0.4375 # 0
-1.7752543620841543765049468702605e-09 2:0.5 3:0.875 4:1 5:0.3125 9:0.13333334 10:1 11:0.5 12:0.625 13:0.5 18:0.25 19:0.125 20:0.8125 21:0.375 27:0.4375 28:0.75 34:0.0625 35:0.9375 36:0.4375 42:0.5625 43:0.6875 49:0.25 50:1 51:0.5625 52:0.5 53:0.75 54:0.125 58:0.625 59:0.875 60:0.5625 61:0.125 # 0
2.6468866759390225626216235544727e-11 2:0.0625 3:0.5625 4:0.9375 5:0.8125 6:0.0625 10:0.6875 11:0.75 12:0.375 13:1 14:0.25 17:0.625 18:0.9375 19:0.0625 20:0.4375 21:0.875 25:0.1875 26:0.9375 27:0.875 28:0.9375 29:0.1875 34:0.0625 35:0.75 36:0.9375 37:0.1875 43:0.75 44:0.5 45:0.8125 46:0.0625 51:0.75 52:0.375 53:1 54:0.125 59:0.5625 60:0.9375 61:0.375 # 0
4.6515481333913613848192732482846e-11 2:0.0625 3:0.5 4:0.75 5:0.4375 9:0.13333334 10:0.9375 11:0.5 12:0.3125 13:0.875 18:0.6875 19:0.3125 20:0.1875 21:0.9375 26:0.0625 27:0.875 28:1 29:0.75 34:0.3125 35:0.9375 36:0.9375 37:0.5625 41:0.0625 42:0.9375 43:0.375 44:0.0625 45:0.75 46:0.0625 50:0.75 51:0.6875 52:0.0625 53:0.75 54:0.3125 58:0.0625 59:0.5 60:0.5 61:0.5625 62:0.1875 # 0
-2.5804863499018051035762526132728e-10 3:0.4375 4:0.875 5:0.4375 10:0.1875 11:0.8125 12:0.25 13:0.75 14:0.0625 18:0.8125 19:0.1875 21:0.75 22:0.25 25:0.0625 26:0.8125 28:0.375 29:1 30:0.375 34:0.9375 35:0.9375 36:0.5625 37:0.75 38:0.21428572 42:0.0625 43:0.0625 45:0.5625 46:0.125 50:0.125 51:0.5625 52:0.125 53:0.75 58:0.0625 59:0.5625 60:0.9375 61:0.4375 # 0
4.2670533920635165189641896383552e-11 2:0.125 3:0.5625 4:0.3125 10:0.5 11:1 12:1 13:0.8125 17:0.125 18:0.6875 19:1 20:1 21:0.25 25:0.0625 26:0.6875 27:1 28:0.75 34:0.625 35:0.75 36:1 37:0.375 42:0.8125 43:0.0625 44:0.4375 45:0.9375 46:0.0625 50:0.875 51:0.375 52:0.4375 53:0.8125 54:0.125 58:0.125 59:0.6875 60:0.6875 61:0.25 # 0
-8.1940158329838609485796665452559e-11 2:0.3125 3:0.875 4:0.75 5:0.5 6:0.125 10:0.0625 11:0.625 12:1 13:1 14:0.75 18:0.3125 19:0.875 20:1 21:1 22:0.125 26:0.625 27:1 28:1 29:0.75 33:0.42857143 34:1 35:1 36:0.875 37:0.25 41:0.5625 42:1 43:1 44:0.6875 49:0.625 50:1 51:1 52:0.375 57:0.1 58:0.625 59:0.875 60:0.75 61:0.25 # 0
-1.0839655770462823891596773151917e-10 2:0.75 3:0.5 4:0.125 10:1 11:0.375 12:0.875 13:0.375 17:0.125 18:1 19:0.625 20:1 25:0.625 26:0.8125 27:0.875 28:0.625 29:0.25 30:0.0625 33:0.5714286 34:1 35:1 36:1 37:1 38:0.71428573 42:0.8125 43:0.9375 44:0.25 45:0.25 46:0.0625 50:0.75 51:0.75 57:0.1 58:0.875 59:0.3125 # 0
-8.6694921696141688017570482778398e-11 4:0.25 5:1 6:0.3125 11:0.125 12:0.9375 13:1 14:0.25 18:0.0625 19:0.8125 20:1 21:1 25:0.0625 26:0.875 27:0.75 28:0.875 29:0.75 33:0.42857143 34:0.875 35:0.0625 36:0.625 37:0.8125 41:0.25 42:0.125 44:0.5625 45:0.8125 52:0.5 53:0.75 60:0.25 61:0.875 # 0
-3.8161030049530110039547203865291e-10 4:0.4375 5:0.8125 6:0.125 12:0.5 13:1 14:0.25 17:0.1875 18:0.5 19:0.5625 20:0.9375 21:0.9375 22:0.0625 25:0.25 26:0.75 27:0.6875 28:0.875 29:0.75 36:0.75 37:0.75 44:0.6875 45:0.8125 52:0.5 53:1 54:0.3125 60:0.375 61:1 62:0.3125 # 0
2.1868088626389420123023079180029e-09 2:0.5 3:0.75 4:0.75 5:0.0625 9:0.40000001 10:0.75 11:0.125 12:0.375 13:0.5 17:0.3125 18:0.6875 20:0.1875 21:1 22:0.4375 26:0.875 27:0.375 28:0.625 29:0.625 30:0.0625 34:0.375 35:1 36:0.5 42:0.4375 43:1 44:0.3125 50:0.75 51:0.625 52:0.625 58:0.6875 59:0.875 60:0.5625 # 0
-1.8476559232423837328571075999423e-10 3:0.4375 4:0.5625 10:0.25 11:0.9375 12:0.375 18:0.6875 19:0.6875 25:0.0625 26:1 27:0.875 28:0.75 29:0.25 33:0.21428572 34:1 35:1 36:0.8125 37:0.875 38:0.21428572 42:1 43:0.375 44:0.0625 45:0.5 46:0.6875 50:0.6875 51:0.6875 52:0.0625 53:0.0625 54:1 58:0.125 59:0.5625 60:0.875 61:1 62:1 63:0.06666667 # 0
-7.4108770633147955451399768566349e-11 3:0.75 4:0.8125 10:0.25 11:1 12:1 13:0.5625 18:0.125 19:1 20:0.375 21:0.875 25:0.25 26:0.1875 27:0.8125 28:0.4375 29:0.5625 30:0.3125 33:0.5714286 34:0.75 35:0.1875 36:1 37:0.75 38:0.5714286 42:0.875 43:0.3125 44:0.0625 45:0.75 46:0.5 50:0.625 51:0.875 52:0.8125 53:1 54:0.125 59:0.8125 60:1 61:0.375 # 0
1.1090263981014258329836842092834e-09 2:0.25 3:0.8125 4:0.9375 5:0.5 9:0.13333334 10:0.8125 11:0.25 13:0.75 17:0.375 18:0.5625 20:0.125 21:0.625 25:0.1875 26:0.8125 27:0.0625 28:0.25 29:0.9375 30:0.3125 34:0.3125 35:0.875 36:0.875 37:0.1875 42:0.1875 43:1 44:0.8125 50:0.5 51:0.375 52:0.875 53:0.25 58:0.375 59:0.8125 60:0.9375 61:0.1875 # 0
2.2937085419982584033264858286319e-10 2:0.0625 3:0.5 4:0.875 5:0.8125 6:0.125 9:0.13333334 10:0.8125 11:0.75 12:0.5 13:0.9375 14:0.125 17:0.375 18:0.9375 19:0.125 20:0.6875 21:0.375 26:0.3125 27:0.875 28:0.9375 29:0.0625 35:0.75 36:0.8125 43:0.9375 44:0.9375 45:0.3125 51:1 52:0.5625 53:0.9375 59:0.5625 60:1 61:0.625 # 0
1.0794319079111405406166304378696e-09 2:0.375 3:0.875 4:0.8125 5:0.3125 10:0.3125 11:0.375 12:0.875 13:0.625 18:0.5625 19:1 20:0.875 21:0.0625 26:0.4375 27:1 28:0.625 34:0.625 35:0.4375 36:0.75 37:0.125 42:0.8125 43:0.1875 44:0.375 45:0.375 50:0.75 51:0.3125 52:0.6875 53:0.5625 58:0.3125 59:1 60:0.9375 61:0.1875 # 0
-7.455951552985580375249841079098e-10 3:0.4375 4:0.6875 11:0.6875 12:0.3125 13:0.125 18:0.1875 19:0.875 20:0.1875 21:0.875 26:0.5 27:0.375 28:0.4375 29:0.4375 33:0.071428575 34:0.9375 35:0.25 36:0.75 37:0.5625 38:0.2857143 41:0.3125 42:1 43:1 44:1 45:0.9375 46:0.5 49:0.0625 50:0.0625 51:0.375 52:0.625 59:0.625 60:0.5625 # 0
-7.4913960762122406224170363111745e-10 2:0.375 3:1 4:0.5 9:0.2 10:1 11:0.375 12:1 13:0.0625 17:0.1875 18:0.4375 19:0.125 20:1 21:0.125 27:0.4375 28:0.8125 35:0.75 36:0.5 42:0.125 43:0.9375 44:0.25 45:0.0625 50:0.5 51:0.75 52:0.25 53:0.8125 54:0.375 58:0.3125 59:1 60:0.9375 61:0.5 62:0.0625 # 0
-1.184064820676966587698214878287e-09 2:0.3125 3:0.75 4:0.5 10:0.8125 11:0.375 12:0.0625 17:0.125 18:0.875 19:0.0625 25:0.25 26:0.875 28:0.1875 29:0.0625 33:0.5 34:0.6875 35:0.8125 36:0.8125 37:0.8125 38:0.35714287 41:0.25 42:1 43:0.5 45:0.125 46:0.75 49:0.0625 50:0.9375 51:0.375 52:0.125 53:0.75 54:0.1875 58:0.375 59:0.8125 60:0.75 61:0.25 # 0
-5.8036236750765483239980971607317e-10 2:0.3125 3:0.6875 4:0.9375 5:0.3125 9:0.40000001 10:0.8125 11:0.125 12:0.1875 13:0.9375 14:0.1875 17:0.4375 18:0.8125 19:0.5 20:0.6875 21:1 22:0.5 25:0.0625 26:0.5625 27:0.75 28:0.5 29:0.5 30:0.5 36:0.0625 37:0.8125 38:0.2857143 44:0.5625 45:0.75 51:0.5 52:0.8125 58:0.4375 59:0.625 60:0.0625 # 0
2.6215147440936385786278378308325e-10 3:0.25 4:0.75 5:0.6875 6:0.0625 10:0.75 11:0.9375 12:0.625 13:0.8125 14:0.25 17:0.5 18:0.625 20:0.1875 21:0.9375 22:0.0625 25:0.1875 26:0.875 27:0.3125 28:0.9375 29:0.375 34:0.8125 35:1 36:0.6875 41:0.1875 42:0.9375 43:0.375 44:0.6875 45:0.75 46:0.1875 49:0.0625 50:0.875 51:0.625 52:0.125 53:0.625 54:0.625 58:0.0625 59:0.375 60:0.6875 61:1 62:0.375 # 0
-1.265062508471366853954600671756e-11 2:0.125 3:0.9375 4:0.5625 10:0.1875 11:1 12:0.75 13:0.5 18:0.5 19:0.875 20:0.1875 21:0.625 22:0.125 26:0.875 27:0.3125 29:0.375 30:0.375 33:0.14285715 34:0.9375 37:0.1875 38:0.64285713 41:0.0625 42:0.9375 45:0.0625 46:0.75 50:0.75 51:0.5625 52:0.3125 53:0.6875 54:0.6875 58:0.125 59:0.875 60:1 61:0.625 62:0.1875 # 0
-3.0727403078564242207617246786246e-10 2:0.5625 3:0.8125 4:0.9375 5:0.625 6:0.0625 10:0.4375 11:0.25 12:0.25 13:0.75 14:0.8125 21:0.4375 22:0.6875 26:0.125 27:0.75 28:0.8125 29:0.75 30:0.125 35:0.625 36:0.9375 37:0.0625 43:0.0625 44:0.6875 45:0.5625 50:0.75 51:0.1875 52:0.1875 53:0.9375 58:0.5 59:1 60:1 61:0.1875 # 0
1.7307623018305232298238673153924e-10 2:0.25 3:0.8125 4:0.8125 5:0.5 10:1 11:0.0625 12:0.0625 13:0.6875 14:0.125 17:0.25 18:0.8125 21:0.375 22:0.4375 25:0.1875 26:0.875 28:0.5625 29:0.875 30:0.125 34:0.5625 35:0.9375 36:0.875 37:0.0625 42:0.3125 43:1 44:0.5625 50:0.5 51:0.75 52:0.9375 53:0.125 58:0.25 59:0.9375 60:0.8125 61:0.125 # 0
-2.4745348646589109313687630406443e-10 2:0.5 3:0.8125 4:0.5 9:0.26666668 10:0.8125 11:0.375 12:0.875 13:0.1875 17:0.4375 18:0.5 20:0.75 21:0.3125 25:0.1875 26:0.625 27:0.5 28:1 29:0.0625 35:0.3125 36:0.875 37:0.75 45:0.8125 46:0.5 50:0.625 51:0.625 53:0.375 54:0.75 58:0.25 59:0.9375 60:1 61:1 62:0.375 # 0
-9.4813100640038637021019273178502e-11 3:0.375 4:0.6875 5:0.875 6:0.1875 10:0.5625 11:0.8125 12:0.5 13:0.9375 14:0.75 21:0.625 22:0.6875 29:0.8125 30:0.5625 34:0.25 35:0.6875 36:0.8125 37:1 38:0.2857143 42:0.1875 43:0.5 44:0.875 45:0.75 51:0.1875 52:1 53:0.1875 59:0.5625 60:0.875 # 0
4.0999882539630767892150201329397e-10 1:0.125 2:0.5625 3:0.875 4:0.3125 9:0.46666667 10:0.5625 11:0.4375 12:0.6875 13:0.5 14:0.25 17:0.25 18:0.5625 19:0.3125 20:0.875 21:0.4375 22:0.125 26:0.6875 27:0.875 28:0.25 34:0.625 35:0.9375 36:0.3125 41:0.125 42:0.875 43:0.125 44:0.9375 45:0.0625 49:0.25 50:0.8125 51:0.125 52:0.9375 53:0.125 58:0.75 59:1 60:0.4375 # 0
-7.7255449836149931400921455363013e-10 1:0.125 2:0.75 3:1 4:0.875 5:0.25 9:0.53333336 10:0.6875 12:0.625 13:0.5 17:0.0625 18:0.0625 19:0.25 20:0.875 21:0.25 26:0.125 27:1 28:0.6875 35:0.1875 36:0.8125 37:0.6875 44:0.0625 45:0.6875 46:0.4375 50:0.625 52:0.0625 53:0.625 54:0.5 58:0.8125 59:0.9375 60:0.9375 61:0.625 62:0.125 # 0
-2.7183742199804990860492499064286e-10 2:0.4375 3:0.8125 4:1 5:0.6875 6:0.25 9:0.06666667 10:1 11:0.3125 12:0.125 13:0.8125 14:0.75 17:0.25 18:0.875 20:0.25 21:0.9375 22:0.25 25:0.125 26:0.9375 27:0.8125 28:1 29:0.5 34:0.0625 35:0.5 36:0.9375 37:0.0625 42:0.0625 43:0.8125 44:0.3125 50:0.5625 51:0.625 58:0.75 59:0.375 # 0
-5.7892357948951419749635987339431e-10 2:0.625 3:0.8125 4:0.5625 9:0.33333334 10:0.6875 11:0.0625 12:0.6875 13:0.3125 17:0.375 18:0.4375 20:0.375 21:0.875 25:0.125 26:0.875 27:0.5 28:0.5625 29:1 30:0.0625 34:0.125 35:0.5 36:0.3125 37:0.8125 38:0.2857143 45:0.4375 46:0.5625 50:0.1875 51:0.125 53:0.3125 54:0.6875 58:0.5 59:0.9375 60:0.8125 61:0.875 62:0.1875 # 0
9.9502749975861138342799753402166e-10 2:0.125 3:0.8125 4:0.9375 5:0.25 10:0.5625 11:0.625 12:0.3125 13:0.6875 18:0.625 19:0.4375 20:0.8125 21:0.625 26:0.4375 27:0.75 28:1 29:0.1875 34:0.375 35:1 36:0.4375 42:0.875 43:0.8125 44:0.125 50:0.6875 51:0.125 52:0.625 59:0.8125 60:0.9375 # 0
-2.3773832982258922645701002635351e-11 3:0.25 4:0.75 5:0.8125 6:0.125 10:0.125 11:0.8125 12:1 13:0.9375 17:0.25 18:1 19:1 20:1 21:0.5625 25:0.1875 26:0.625 27:0.9375 28:1 29:0.375 35:0.8125 36:1 43:0.875 44:1 45:0.0625 51:0.5625 52:1 53:0.625 59:0.125 60:0.9375 61:0.8125 62:0.0625 # 0
-8.6988310731543471767796732681998e-11 2:0.875 3:1 4:0.875 5:0.3125 10:0.1875 12:0.125 13:1 14:0.1875 19:0.25 20:0.625 21:0.9375 22:0.0625 25:0.375 26:1 27:1 28:0.875 29:0.125 33:0.071428575 34:0.25 35:0.375 36:0.75 37:0.75 45:0.75 46:0.5625 50:0.625 52:0.25 53:0.875 54:0.3125 58:0.8125 59:1 60:0.8125 61:0.25 # 0
-7.9713381131406504721332912413419e-10 2:0.25 3:0.75 4:0.75 5:0.375 10:0.1875 11:0.375 12:0.25 13:0.5 17:0.1875 18:0.8125 19:0.375 20:0.5 21:0.1875 25:0.25 26:1 27:0.8125 28:0.75 29:0.9375 30:0.125 34:0.1875 37:0.625 38:0.5714286 45:0.5 46:0.375 50:0.4375 51:0.375 52:0.3125 53:0.875 54:0.125 58:0.1875 59:0.875 60:0.9375 61:0.375 # 0
2.3853610917295801884218217223056e-10 2:0.25 3:0.875 4:0.6875 5:0.1875 10:0.875 11:0.25 12:0.5 13:0.1875 18:0.9375 19:0.0625 20:0.4375 21:0.875 22:0.625 26:0.3125 27:1 28:0.75 34:0.1875 35:1 36:0.5625 42:0.5625 43:0.4375 44:0.8125 50:0.6875 51:0.625 52:0.8125 58:0.3125 59:0.9375 60:0.6875 # 0
-3.0607898304853309593677763068723e-10 3:0.125 4:0.75 5:0.8125 6:0.5 7:0.0625 10:0.1875 11:0.75 12:0.3125 13:0.875 14:1 15:0.15384616 18:0.6875 19:0.0625 21:0.75 22:0.875 25:0.125 26:0.6875 27:0.1875 28:0.4375 29:0.875 30:0.1875 33:0.21428572 34:0.9375 35:0.6875 36:0.3125 37:0.625 44:0.5625 45:0.375 51:0.0625 52:0.875 53:0.125 60:0.875 61:0.0625 # 0
3.4134531312432541872494712658709e-11 2:0.25 3:0.9375 4:0.9375 5:0.5 6:0.0625 9:0.13333334 10:0.75 11:0.1875 12:0.625 13:0.875 14:0.6875 17:0.1875 18:0.875 19:0.3125 20:0.1875 21:0.6875 22:0.6875 26:0.4375 27:0.9375 28:1 29:0.875 30:0.125 34:0.3125 35:1 36:0.6875 37:0.9375 38:0.14285715 42:0.8125 43:0.0625 44:0.125 45:1 46:0.0625 50:0.625 51:0.6875 52:0.5 53:0.9375 58:0.1875 59:0.8125 60:0.875 61:0.1875 # 0
-7.0140839874984509677711027374821e-10 2:0.1875 3:0.6875 4:0.8125 5:0.5 9:0.06666667 10:0.875 11:0.3125 12:0.0625 13:0.75 14:0.1875 17:0.25 18:0.75 21:0.5 22:0.6875 25:0.0625 26:0.9375 27:0.375 28:0.25 29:0.9375 30:0.25 34:0.125 35:0.5 36:0.625 37:0.875 38:0.2857143 45:0.6875 46:0.25 51:0.125 52:0.125 53:0.6875 54:0.25 58:0.125 59:0.875 60:0.6875 61:0.4375 62:0.0625 # 0
-7.2756140582303069526958746363851e-11 3:0.3125 4:0.5 10:0.25 11:1 12:0.125 14:0.875 18:0.5625 19:0.5 21:0.5 22:0.5 25:0.125 26:0.9375 28:0.0625 29:0.9375 33:0.71428573 34:0.5625 35:0.25 36:0.5625 37:0.9375 38:0.071428575 41:0.6875 42:1 43:1 44:1 45:0.6875 46:0.0625 49:0.1875 50:0.25 51:0.4375 52:0.5625 59:0.5 60:0.3125 # 0
2.7991248768971670146893998512192e-10 2:0.125 3:0.75 4:1 5:0.1875 9:0.2 10:1 11:0.375 12:0.5 13:0.5 17:0.3125 18:0.875 19:0.6875 20:0.9375 21:0.125 27:0.625 28:0.6875 34:0.0625 35:1 36:0.875 37:0.125 42:0.5 43:0.75 44:0.375 45:0.5625 50:0.625 51:0.375 52:0.375 53:1 54:0.0625 58:0.1875 59:0.875 60:0.8125 61:0.5 # 0
-1.2315117401510827464674847363154e-10 2:0.3125 3:0.8125 4:0.75 5:0.0625 9:0.13333334 10:0.9375 11:0.3125 12:0.375 13:0.4375 17:0.375 18:0.5625 21:1 22:0.25 25:0.375 26:0.625 29:0.875 30:0.375 34:0.5625 35:0.8125 36:0.875 37:0.75 38:0.64285713 46:0.75 50:0.1875 53:0.1875 54:0.875 58:0.3125 59:0.75 60:0.8125 61:0.875 62:0.3125 # 0
-1.4097562566950743984487921820826e-10 3:0.3125 4:0.875 5:0.0625 10:0.0625 11:0.875 12:0.4375 14:0.1875 18:0.5625 19:0.875 20:0.0625 21:0.375 22:0.9375 25:0.1875 26:1 27:0.75 28:0.25 29:0.75 30:0.5 34:0.4375 35:0.625 36:0.875 37:1 38:0.2857143 44:0.625 45:0.8125 51:0.0625 52:1 53:0.1875 59:0.375 60:0.75 # 0
-1.0745155470613155099640968374386e-10 3:0.125 4:0.9375 5:0.25 11:0.4375 12:1 13:0.3125 18:0.5 19:1 20:0.875 21:0.0625 25:0.4375 26:1 27:1 28:0.75 33:0.14285715 34:0.5 35:0.875 36:0.75 43:0.5625 44:0.8125 51:0.375 52:1 53:0.8125 54:0.125 59:0.125 60:0.75 61:0.8125 62:0.125 # 0
-1.0805888569506273598688405796849e-11 2:0.1875 3:0.8125 4:0.875 5:0.0625 10:0.5 11:0.9375 12:0.4375 13:0.125 18:0.625 19:0.75 20:0.125 26:0.8125 27:1 28:1 29:0.625 30:0.0625 34:0.9375 35:0.875 36:0.6875 37:0.625 38:0.71428573 42:0.8125 43:0.3125 45:0.375 46:0.875 50:0.5 51:0.75 52:0.5 53:0.75 54:0.625 58:0.0625 59:0.625 60:0.75 61:0.75 62:0.25 # 0
-5.671759817485672279902833168704e-11 3:0.5 4:0.9375 5:0.25 11:0.8125 12:1 13:0.8125 17:0.0625 18:0.0625 19:0.625 20:0.1875 21:0.8125 22:0.375 25:0.3125 26:0.5 29:0.375 30:0.5 33:0.5 34:0.6875 37:0.25 38:0.5714286 41:0.1875 42:0.9375 43:0.4375 45:0.25 46:0.5625 50:0.4375 51:1 52:0.8125 53:0.6875 54:0.75 59:0.375 60:0.9375 61:1 62:0.25 # 0
-5.3281832191396326653661381280032e-11 3:0.875 4:0.125 10:0.125 11:1 12:0.125 18:0.4375 19:0.8125 26:0.5 27:0.75 34:0.5625 35:0.6875 36:0.25 37:0.125 42:0.6875 43:1 44:1 45:0.9375 46:0.5 50:0.8125 51:0.9375 52:0.125 53:0.125 54:1 55:0.30000001 59:0.6875 60:0.8125 61:0.75 62:0.625 # 0
-7.1525096336530907168836201413613e-11 1:0.125 2:0.75 3:0.875 4:0.125 9:0.53333336 10:1 11:1 12:0.4375 17:0.125 18:0.5 19:0.625 20:0.5 27:0.8125 28:0.5 34:0.1875 35:1 36:0.125 42:0.875 43:0.5 50:1 51:0.625 52:0.5625 53:0.625 54:0.375 57:0.2 58:0.9375 59:0.8125 60:0.75 61:0.5 62:0.0625 # 0
4.3690150328279087908983652667613e-11 2:0.125 3:0.6875 4:0.5625 10:0.75 11:0.4375 12:0.5 13:0.5 17:0.375 18:1 19:0.1875 20:0.5625 21:0.6875 25:0.0625 26:0.8125 27:1 28:1 29:0.875 30:0.125 34:0.25 35:1 36:0.5 37:0.625 38:0.35714287 42:0.5 43:0.6875 45:0.25 46:0.375 50:0.625 51:0.5625 53:0.5 54:0.3125 58:0.1875 59:0.6875 60:0.75 61:0.375 # 0
-6.2986183552836566442815251556513e-11 3:0.625 4:0.375 10:0.3125 11:1 12:0.5625 18:0.625 19:1 20:0.625 25:0.25 26:0.9375 27:0.75 28:0.75 33:0.14285715 34:0.25 35:0.1875 36:1 37:0.125 44:0.6875 45:0.5625 51:0.4375 52:0.75 53:0.9375 54:0.25 59:0.75 60:1 61:1 62:0.5 # 0
-1.3222205922210995260608577704577e-10 3:0.3125 4:0.75 5:0.6875 6:0.0625 10:0.1875 11:0.875 12:0.375 13:0.4375 14:0.6875 17:0.3125 18:1 19:0.125 20:0.0625 21:0.5625 22:0.5625 25:0.5 26:0.875 27:0.5 28:0.875 29:1 30:0.0625 33:0.071428575 34:0.4375 35:0.5 36:0.8125 37:0.625 43:0.0625 44:0.875 45:0.25 51:0.3125 52:0.8125 59:0.6875 60:0.4375 # 0
-1.6735976836922882926136273202235e-11 2:0.1875 3:0.625 4:0.8125 5:0.0625 9:0.13333334 10:0.9375 11:0.625 12:1 13:0.1875 17:0.125 18:0.25 19:0.0625 20:1 21:0.25 27:0.4375 28:1 34:0.4375 35:0.875 36:1 37:0.75 38:0.21428572 41:0.125 42:0.8125 43:0.9375 44:0.8125 45:0.5625 46:0.125 51:0.8125 52:0.5 58:0.0625 59:0.9375 60:0.1875 # 0
-4.1774075580980166380290320054638e-11 3:0.375 4:0.5 11:0.9375 12:0.1875 18:0.125 19:0.875 20:0.125 21:0.6875 26:0.5625 27:0.5 28:0.3125 29:0.625 34:0.875 35:0.125 36:0.5 37:0.4375 38:0.14285715 41:0.25 42:1 43:0.5625 44:0.875 45:1 46:0.5 49:0.125 50:0.5 51:0.75 52:1 53:0.3125 54:0.125 59:0.375 60:0.8125 61:0.125 # 0
-6.6990365774660892925230275613773e-13 3:0.4375 4:0.8125 5:0.1875 10:0.0625 11:0.9375 12:1 13:0.9375 17:0.5625 18:1 19:1 20:1 21:1 22:0.125 25:0.25 26:0.5 27:0.75 28:1 29:0.625 35:0.6875 36:1 37:0.8125 43:0.4375 44:1 45:0.9375 51:0.375 52:1 53:1 54:0.125 59:0.375 60:1 61:1 62:0.4375 # 0
-8.2266272301220518642382710436921e-12 3:1 4:0.375 11:1 12:0.875 19:0.875 20:1 27:0.9375 28:0.9375 35:0.875 36:0.9375 43:0.9375 44:0.875 51:0.8125 52:0.875 59:0.625 60:0.8125 # 0
-4.313923273617558620931955520796e-11 2:0.375 3:0.75 4:0.8125 5:0.75 6:0.375 10:0.375 11:0.5 12:0.125 13:0.3125 14:0.4375 18:0.75 19:0.125 25:0.4375 26:0.9375 27:0.75 28:0.4375 29:0.125 33:0.14285715 34:0.5 35:0.5 36:0.5625 37:0.9375 38:0.2857143 45:0.4375 46:0.4375 50:0.25 51:0.3125 52:0.25 53:0.8125 54:0.125 58:0.25 59:0.9375 60:1 61:0.375 # 0
-6.1146297218130492094719593572762e-13 2:0.5625 3:1 4:0.8125 5:0.1875 9:0.13333334 10:1 11:1 12:1 13:0.75 19:0.375 20:1 21:0.4375 26:0.0625 27:0.9375 28:0.75 34:0.8125 35:0.9375 36:0.125 41:0.25 42:1 43:0.4375 49:0.5 50:1 51:0.5 52:0.375 53:0.5 54:0.1875 57:0.1 58:0.6875 59:1 60:1 61:0.75 62:0.25 # 0
-7.7495387173515877456006553393567e-12 2:0.125 3:0.8125 4:0.0625 10:0.6875 11:0.625 12:0.0625 17:0.125 18:0.9375 19:0.0625 25:0.375 26:0.6875 27:0.0625 28:0.25 29:0.0625 33:0.5 34:0.625 35:0.5625 36:1 37:0.875 38:0.071428575 41:0.25 42:0.75 43:0.4375 44:0.375 45:0.4375 46:0.625 49:0.0625 50:0.8125 51:0.375 52:0.125 53:0.625 54:0.875 58:0.1875 59:0.75 60:0.8125 61:0.8125 62:0.1875 # 0
