SVM-light Version V6.02
1 # kernel type
8 # kernel parameter -d 
1 # kernel parameter -g 
1 # kernel parameter -s 
1 # kernel parameter -r 
empty# kernel parameter -u 
63 # highest feature index 
2823 # number of training documents 
158 # number of support vectors plus 1 
0.80559689 # threshold b, each following line is a SV (starting with alpha*y)
8.0616388303495208740537387689159e-10 4:0.1875 5:0.875 6:0.0625 11:0.0625 12:0.875 13:0.9375 19:0.5625 20:1 21:0.625 26:0.5625 27:1 28:1 29:0.5 33:0.2857143 34:1 35:0.4375 36:1 37:0.5 41:0.0625 42:0.25 44:0.9375 45:0.625 52:0.6875 53:0.75 60:0.1875 61:0.9375 62:0.1875 # 0
6.1615671496011039618999056210682e-11 1:0.125 2:0.4375 3:0.75 4:0.625 5:0.0625 9:0.06666667 10:0.875 11:1 12:1 13:0.75 18:0.75 19:1 20:1 21:0.875 26:0.4375 27:1 28:1 29:0.875 30:0.0625 34:0.3125 35:1 36:1 37:0.8125 42:0.4375 43:1 44:1 45:0.875 49:0.0625 50:0.875 51:1 52:1 53:0.9375 54:0.125 57:0.1 58:0.5 59:0.75 60:0.625 61:0.5 # 0
-2.0281624572685164441996269336623e-10 2:0.5 3:1 4:0.8125 5:0.25 10:0.3125 11:0.375 12:0.75 13:0.875 19:0.1875 20:0.9375 21:0.875 27:0.8125 28:0.9375 29:0.25 35:0.5625 36:0.75 37:0.0625 43:0.0625 44:0.6875 45:0.75 50:0.1875 51:0.25 52:0.5625 53:1 54:0.25 58:0.5 59:0.9375 60:0.875 61:0.75 62:0.1875 # 0
-1.5549688098615150564510958568519e-10 1:0.25 2:0.5 3:0.5625 4:0.875 5:0.625 9:0.2 10:0.6875 11:0.5625 12:0.8125 13:1 20:0.9375 21:0.875 28:1 29:0.5 36:0.9375 37:0.8125 38:0.071428575 44:0.375 45:1 46:0.5 50:0.0625 51:0.375 52:0.9375 53:0.875 54:0.1875 58:0.875 59:0.6875 60:0.4375 61:0.0625 # 0
6.1361740321405265799621406405846e-10 3:0.6875 4:0.8125 10:0.3125 11:0.9375 12:0.8125 17:0.1875 18:1 19:1 20:0.625 26:0.4375 27:1 28:0.625 35:0.9375 36:0.625 43:0.9375 44:0.5 51:1 52:0.375 59:0.75 60:0.6875 # 0
2.4203665030364610268549709347656e-10 2:0.5 3:0.75 4:0.5625 5:0.0625 9:0.2 10:1 11:1 12:1 13:0.625 17:0.1875 18:1 19:1 20:1 21:0.625 26:0.5 27:1 28:1 29:0.25 34:0.75 35:1 36:1 37:0.5 41:0.0625 42:0.9375 43:1 44:1 45:0.5625 50:0.8125 51:1 52:1 53:0.5625 58:0.375 59:0.5625 60:0.6875 61:0.1875 # 0
4.9343105076633201221512510571709e-11 2:0.375 3:0.75 4:0.75 5:0.5 10:0.6875 11:1 12:1 13:1 18:0.5625 19:1 20:1 21:1 22:0.0625 26:0.75 27:1 28:1 29:0.9375 30:0.125 34:0.75 35:1 36:1 37:1 38:0.2857143 42:0.75 43:1 44:1 45:0.6875 46:0.0625 50:0.5 51:1 52:1 53:0.0625 57:0.1 58:0.6875 59:0.75 60:0.3125 # 0
-3.6799361271005481521846366487307e-10 3:0.3125 4:0.75 5:1 6:0.5 9:0.06666667 10:0.625 11:1 12:0.9375 13:1 14:0.3125 17:0.625 18:1 19:0.8125 20:0.8125 21:1 22:0.125 25:0.1875 26:0.75 27:0.8125 28:0.875 29:1 30:0.125 36:0.5 37:0.9375 44:0.75 45:0.9375 51:0.0625 52:1 53:0.5 59:0.375 60:1 61:0.4375 # 0
-3.5991803472034173079230725149954e-10 2:0.4375 3:0.875 4:0.25 9:0.06666667 10:1 11:1 12:1 13:0.4375 17:0.25 18:1 19:1 20:1 21:0.875 26:0.8125 27:1 28:1 29:0.6875 34:0.5 35:1 36:1 37:0.0625 42:0.625 43:1 44:1 45:0.375 50:0.6875 51:1 52:1 53:0.8125 58:0.375 59:0.75 60:0.8125 61:0.625 # 0
-6.0880099760459862139149905727026e-11 1:0.125 2:0.5 3:0.75 4:0.1875 9:0.06666667 10:1 11:1 12:0.875 13:0.125 17:0.125 18:1 19:1 20:1 21:1 22:0.0625 26:0.75 27:1 28:1 29:0.25 34:0.75 35:1 36:1 37:0.4375 41:0.125 42:1 43:1 44:1 45:0.875 49:0.25 50:1 51:1 52:0.9375 53:0.25 57:0.1 58:0.75 59:0.625 60:0.3125 # 0
1.3022980527227909652523774152041e-10 2:0.75 3:0.4375 10:0.5625 11:0.9375 18:0.6875 19:1 20:0.3125 26:0.625 27:1 28:0.4375 35:0.6875 36:0.875 43:0.375 44:1 45:0.125 50:0.875 51:1 52:1 53:0.8125 54:0.75 55:0.30000001 58:0.5 59:0.9375 60:0.9375 61:0.875 62:1 63:0.73333335 # 0
2.565589989710569385225253562986e-10 2:0.5625 3:0.5625 4:0.0625 10:0.625 11:1 12:0.1875 18:0.8125 19:1 20:0.4375 26:0.375 27:1 28:0.8125 35:0.875 36:1 43:0.8125 44:1 45:0.8125 46:0.25 50:0.625 51:1 52:1 53:1 54:0.9375 55:0.2 58:0.5 59:1 60:0.8125 61:0.5 62:0.3125 # 0
7.8912759813182130149573036756173e-11 2:0.75 3:0.625 9:0.2 10:0.8125 11:1 12:0.25 17:0.375 18:1 19:1 20:0.4375 26:0.5 27:0.9375 28:0.5625 35:0.625 36:0.875 43:0.375 44:1 45:0.375 50:0.5625 51:0.8125 52:1 53:0.8125 54:0.5 55:0.30000001 58:0.5625 59:1 60:1 61:1 62:1 63:0.60000002 # 0
-7.1994524512696368812847625170525e-11 3:0.125 4:0.5625 5:0.9375 6:0.5625 10:0.5 11:0.875 12:0.4375 13:0.5625 14:0.75 17:0.1875 18:1 19:0.3125 20:0.25 21:0.8125 22:0.375 25:0.125 26:0.625 27:0.75 28:0.9375 29:0.875 36:0.0625 37:0.8125 38:0.21428572 44:0.125 45:1 52:0.4375 53:0.75 60:0.75 61:0.375 # 0
-1.5904432105963215552385700270822e-10 2:0.3125 3:0.75 4:0.9375 5:0.875 6:0.625 7:0.1875 10:0.25 11:0.4375 12:0.25 13:0.3125 14:0.875 15:0.23076923 21:0.5625 22:0.6875 28:0.25 29:1 30:0.25 33:0.14285715 34:0.5 35:0.5625 36:1 37:0.625 41:0.1875 42:0.75 43:1 44:0.5625 50:0.3125 51:0.875 58:0.375 59:0.5625 # 0
-1.1743334614705403142246190002556e-10 1:0.25 3:0.8125 4:0.75 5:0.1875 8:1 9:0.93333334 10:0.0625 11:0.8125 12:1 13:0.3125 17:0.5 18:1 19:0.875 20:1 21:0.25 26:0.5 27:1 28:1 29:0.125 35:1 36:1 37:0.5625 42:0.1875 43:1 44:1 45:1 46:0.25 50:0.6875 51:1 52:1 53:1 54:0.375 58:0.0625 59:0.9375 60:1 61:0.625 # 0
1.3291237973902152116479144714476e-09 3:0.875 4:0.875 10:0.3125 11:1 12:0.75 18:0.4375 19:1 20:0.375 26:0.75 27:1 28:0.25 34:0.75 35:1 36:0.0625 42:0.75 43:1 50:0.5625 51:1 52:0.25 58:0.0625 59:0.8125 60:0.9375 61:0.125 # 0
7.0001409443659933621100187741364e-11 2:0.375 3:1 4:0.8125 5:0.125 9:0.06666667 10:0.6875 11:1 12:0.9375 13:0.1875 17:0.6875 18:1 19:1 20:1 21:0.125 25:0.375 26:0.6875 27:0.6875 28:1 29:0.75 30:0.0625 35:0.0625 36:0.875 37:1 38:0.5 44:0.375 45:1 46:0.8125 52:0.4375 53:1 54:1 55:0.30000001 58:0.125 59:0.75 60:1 61:0.9375 62:0.5 63:0.06666667 # 0
-1.3486626857904060989685322797012e-11 2:0.0625 3:0.4375 4:0.875 5:0.75 10:0.8125 11:0.6875 12:0.75 13:0.875 17:0.5625 18:1 19:0.75 20:0.875 21:0.875 25:0.125 26:0.25 27:0.125 28:0.3125 29:0.9375 36:0.1875 37:0.9375 44:0.1875 45:1 52:0.875 53:0.4375 58:0.125 59:0.6875 60:0.6875 61:0.0625 # 0
9.317968605995977126416749424358e-11 2:0.125 3:0.4375 4:0.75 5:1 6:0.6875 10:0.625 11:0.9375 12:1 13:1 14:1 19:0.625 20:1 21:1 22:0.75 27:0.25 28:1 29:1 30:0.25 35:0.3125 36:1 37:0.9375 38:0.2857143 43:0.625 44:1 45:0.75 50:0.125 51:0.9375 52:1 53:0.1875 58:0.0625 59:0.8125 60:0.875 61:0.0625 # 0
-3.3289191115202044037267104645479e-10 3:0.375 4:0.9375 5:0.375 11:0.75 12:0.625 13:0.8125 19:0.6875 20:0.9375 21:0.875 26:0.5625 27:0.6875 28:0.875 33:0.2857143 34:0.6875 36:0.625 37:0.375 41:0.1875 42:0.5625 44:0.0625 45:0.875 46:0.0625 50:0.6875 51:0.5 52:0.125 53:0.5625 54:0.4375 59:0.375 60:0.75 61:0.8125 62:0.4375 # 0
-3.1353148783499513081999738686755e-11 2:0.0625 3:0.5625 4:1 5:0.9375 6:0.25 10:0.25 11:1 12:0.625 13:0.875 14:0.625 18:0.1875 19:1 20:0.4375 21:0.875 22:0.6875 26:0.5625 27:1 28:1 29:0.8125 33:0.35714287 34:1 35:1 36:1 37:0.125 41:0.375 42:0.875 43:0.5625 44:1 45:0.125 50:0.75 51:1 52:1 53:0.25 59:0.75 60:0.6875 61:0.1875 # 0
-5.2524058695003223892657569999765e-10 1:0.125 2:0.375 3:0.6875 4:1 5:0.375 10:0.3125 11:0.8125 12:0.6875 13:1 14:0.375 18:0.25 19:1 20:0.5 26:0.3125 27:0.9375 33:0.071428575 34:0.8125 35:0.625 36:0.25 41:0.375 42:0.625 43:0.25 44:0.5 49:0.5 50:0.4375 51:0.75 52:0.4375 57:0.2 58:0.8125 59:0.875 # 0
2.090578572552918085450687584164e-09 3:0.0625 4:0.4375 5:0.9375 6:0.3125 10:0.3125 11:0.8125 12:1 13:1 14:0.5 17:0.25 18:0.9375 19:0.6875 20:0.3125 21:1 22:0.4375 25:0.0625 26:0.25 28:0.1875 29:1 30:0.25 36:0.25 37:1 44:0.5 45:1 52:0.75 53:1 60:0.75 61:0.75 # 0
2.7881357711404930551534123114277e-12 2:0.75 3:1 4:0.875 5:0.25 9:0.13333334 10:1 11:1 12:1 13:0.375 18:0.75 19:1 20:1 21:0.25 26:0.9375 27:1 28:1 29:0.3125 34:1 35:1 36:1 37:0.25 41:0.25 42:1 43:1 44:0.9375 45:0.1875 49:0.0625 50:0.875 51:1 52:1 53:0.3125 58:0.625 59:1 60:1 61:0.625 # 0
-2.8739049648887023445617014847997e-11 3:0.8125 4:0.375 5:0.125 10:0.125 11:1 12:0.5 13:1 14:0.1875 17:0.0625 18:0.875 19:0.8125 20:0.75 21:1 25:0.5625 26:1 27:1 28:1 29:1 30:0.625 33:0.21428572 34:0.75 35:0.875 36:1 37:0.8125 38:0.42857143 43:0.5 44:1 45:0.0625 51:0.6875 52:0.625 59:0.8125 60:0.4375 # 0
2.4699421374735669518342988079468e-11 2:0.0625 3:0.5 4:0.375 10:0.875 11:1 12:1 13:1 18:1 19:1 20:1 21:1 26:1 27:1 28:1 29:1 34:1 35:1 36:1 37:0.9375 42:1 43:1 44:1 45:0.8125 50:0.5625 51:1 52:1 53:0.5625 58:0.375 59:0.5 60:0.375 61:0.0625 # 0
-1.1729363426990536494646577070963e-09 2:0.25 3:0.875 4:1 5:0.4375 9:0.06666667 10:1 11:0.875 12:0.5 13:0.3125 17:0.5 18:0.625 25:0.1875 26:0.8125 34:0.75 35:0.375 42:0.25 43:0.8125 51:1 52:0.3125 58:0.4375 59:1 60:0.25 # 0
-1.1242961462954339880610187319857e-10 2:0.125 3:0.625 4:0.8125 5:0.25 10:0.6875 11:1 12:0.9375 13:0.3125 17:0.3125 18:1 19:0.6875 20:0.125 25:0.625 26:0.9375 27:0.125 33:0.21428572 34:0.8125 35:0.9375 36:0.3125 43:0.5 44:1 45:0.375 50:0.125 51:0.625 52:1 53:0.4375 58:0.1875 59:0.9375 60:0.625 # 0
4.24463687014807013859754922366e-09 3:0.6875 4:0.75 5:0.0625 10:0.125 11:0.875 12:1 13:0.1875 18:0.3125 19:1 20:0.6875 26:0.4375 27:1 28:0.5 34:0.375 35:1 36:0.5 42:0.625 43:1 44:0.4375 50:0.4375 51:1 52:0.5625 53:0.25 59:0.625 60:1 61:0.75 62:0.0625 # 0
-4.4936686773892256323903251843282e-11 3:0.75 4:1 5:0.8125 10:0.375 11:1 12:0.625 13:0.3125 16:0.33333334 17:0.875 18:0.125 19:0.375 25:0.75 26:0.6875 33:0.21428572 34:0.875 35:0.6875 36:0.0625 42:0.1875 43:0.8125 44:0.6875 51:0.3125 52:1 53:0.375 59:0.8125 60:1 61:0.375 # 0
-1.1740169622839989559196716651052e-10 4:0.8125 5:0.3125 11:0.5625 12:0.8125 13:0.0625 18:0.5 19:0.875 20:0.0625 21:0.3125 22:0.4375 25:0.25 26:1 27:0.875 28:0.8125 29:1 30:0.5 33:0.14285715 34:0.5 35:0.5 36:0.75 37:1 38:0.14285715 44:0.625 45:0.8125 52:0.875 53:0.5625 60:0.8125 61:0.1875 # 0
-8.8552737720714383135153189983329e-10 2:0.6875 3:1 4:1 5:0.5 10:0.6875 11:0.75 12:0.5 13:0.8125 18:0.4375 19:0.625 26:0.1875 27:0.8125 35:0.875 36:0.125 43:0.8125 44:0.375 50:0.375 51:0.75 52:0.625 58:0.6875 59:1 60:0.5625 # 0
5.5428240283529862911810655558278e-11 2:0.3125 3:0.875 4:0.75 5:0.5 6:0.125 10:0.0625 11:0.625 12:1 13:1 14:0.75 18:0.3125 19:0.875 20:1 21:1 22:0.125 26:0.625 27:1 28:1 29:0.75 33:0.42857143 34:1 35:1 36:0.875 37:0.25 41:0.5625 42:1 43:1 44:0.6875 49:0.625 50:1 51:1 52:0.375 57:0.1 58:0.625 59:0.875 60:0.75 61:0.25 # 0
4.4950315454537051466013584691771e-10 4:0.4375 5:0.9375 12:0.625 13:1 14:0.0625 18:0.125 19:0.6875 20:1 21:1 25:0.4375 26:1 27:0.875 28:0.6875 29:1 30:0.1875 33:0.071428575 34:0.125 36:0.5 37:1 38:0.21428572 44:0.25 45:1 46:0.25 52:0.25 53:1 54:0.1875 60:0.375 61:0.9375 62:0.125 # 0
-1.1251853596109368692628261372009e-10 3:0.0625 4:0.875 5:0.75 9:0.26666668 10:0.375 11:0.9375 12:0.875 13:0.75 17:0.3125 18:1 19:1 20:0.8125 21:0.8125 22:0.0625 26:0.6875 27:1 28:1 29:1 30:0.25 35:0.1875 36:0.125 37:0.5625 38:0.5714286 45:0.5625 46:0.5 52:0.6875 53:1 54:0.25 60:0.6875 61:0.3125 62:0.0625 # 0
-3.6095395178210150937245728842902e-11 4:0.6875 5:0.75 11:0.5 12:1 13:0.25 18:0.125 19:1 20:0.75 21:0.0625 25:0.25 26:0.9375 27:1 28:0.8125 29:0.875 30:0.6875 33:0.9285714 34:1 35:1 36:1 37:1 38:0.71428573 44:0.625 45:1 46:0.375 52:0.6875 53:1 54:0.125 60:0.875 61:0.8125 # 0
-9.3367942779363728797578279501883e-11 4:0.9375 5:0.4375 11:0.125 12:1 13:0.5 19:0.625 20:1 21:0.1875 25:0.4375 26:1 27:1 28:0.25 29:0.75 30:0.75 33:0.071428575 34:0.8125 35:1 36:1 37:1 38:0.64285713 42:0.0625 43:0.4375 44:0.875 45:1 52:0.8125 53:0.9375 60:1 61:0.6875 # 0
-1.5487403402001463626351930762869e-10 3:0.5625 4:0.75 5:0.3125 11:1 12:0.5625 13:0.9375 14:0.125 19:1 20:0.375 21:1 22:0.25 27:0.25 28:1 29:1 30:0.5 36:0.125 37:0.9375 38:0.2857143 45:0.625 46:0.4375 50:1 51:0.6875 52:0.1875 53:0.8125 54:0.25 58:0.1875 59:0.375 60:0.8125 61:0.9375 62:0.125 # 0
-6.2100431712411067533584991246209e-11 2:0.3125 3:0.5 10:0.75 11:0.375 12:0.75 13:0.4375 17:0.125 18:0.625 19:0.375 20:0.5625 21:0.9375 22:0.0625 25:0.4375 26:0.5 29:0.75 30:0.5 33:0.5714286 34:0.5 37:0.75 38:0.42857143 41:0.3125 42:0.8125 45:0.8125 46:0.25 50:0.875 51:0.625 52:0.625 53:0.8125 58:0.25 59:0.75 60:0.6875 61:0.0625 # 0
3.5183690556976668493460269495517e-11 2:0.5625 3:0.75 4:0.625 5:0.3125 9:0.33333334 10:1 11:1 12:1 13:0.8125 17:0.0625 18:1 19:1 20:1 21:1 26:0.5 27:1 28:1 29:1 30:0.1875 34:0.25 35:1 36:1 37:1 38:0.2857143 42:0.125 43:1 44:1 45:1 46:0.0625 50:0.5625 51:1 52:1 53:1 54:0.0625 58:0.3125 59:0.75 60:0.75 61:0.3125 # 0
-3.0092768760679201667377034924472e-10 3:0.0625 4:0.5625 5:0.8125 6:0.3125 10:0.1875 11:0.8125 12:0.625 13:0.75 14:0.5625 18:0.6875 19:0.5 21:0.8125 22:0.1875 25:0.0625 26:0.9375 27:0.875 28:0.6875 29:1 30:0.125 34:0.0625 35:0.5 36:0.625 37:0.875 44:0.4375 45:0.8125 52:0.625 53:0.5625 60:0.8125 61:0.3125 # 0
-9.9579754243413812354789935245471e-11 3:0.5625 4:0.75 10:0.3125 11:1 12:0.375 18:0.625 19:0.6875 26:0.75 27:0.5 28:0.25 34:0.8125 35:1 36:0.9375 37:0.6875 38:0.071428575 42:0.8125 43:0.875 44:0.0625 45:0.375 46:0.375 50:0.3125 51:0.75 52:0.0625 53:0.6875 54:0.375 59:0.5625 60:0.9375 61:0.625 # 0
-7.802964890865771354549839647943e-12 2:0.25 3:1 4:0.75 5:0.0625 10:0.625 11:0.9375 12:0.8125 13:0.6875 18:0.3125 19:0.75 20:0.3125 21:1 28:0.5 29:0.9375 35:0.0625 36:0.9375 37:0.75 43:0.6875 44:1 45:0.625 50:0.3125 51:1 52:1 53:1 54:1 55:0.60000002 58:0.375 59:1 60:0.3125 61:0.3125 62:0.625 63:0.86666667 # 0
-2.8407230838201692137264430177476e-10 2:0.0625 3:0.75 4:0.9375 5:0.0625 10:0.625 11:1 12:1 17:0.1875 18:1 19:0.9375 20:0.625 25:0.375 26:1 27:0.9375 28:0.9375 29:0.125 34:0.25 35:0.125 36:0.875 37:0.9375 38:0.071428575 44:0.1875 45:0.9375 46:0.3125 50:0.125 51:0.875 52:0.875 53:1 54:0.3125 59:0.9375 60:1 61:0.8125 62:0.0625 # 0
-1.7557504773649302138092712841755e-10 2:0.1875 3:0.875 4:0.8125 5:0.125 9:0.06666667 10:0.9375 11:1 12:1 13:0.1875 17:0.125 18:0.875 19:0.9375 20:0.3125 26:0.3125 27:0.9375 28:0.375 35:0.3125 36:1 37:0.4375 44:0.25 45:0.9375 46:0.4375 50:0.1875 51:0.5 52:0.75 53:1 54:0.8125 58:0.1875 59:0.75 60:0.9375 61:0.875 62:0.25 # 0
4.4197581093238796324072346249131e-09 2:0.0625 3:0.9375 4:0.75 10:0.375 11:1 12:0.9375 18:0.3125 19:1 20:0.5625 26:0.3125 27:1 28:0.375 34:0.1875 35:1 36:0.5 42:0.125 43:1 44:0.5 50:0.0625 51:1 52:0.5625 58:0.0625 59:0.8125 60:0.375 # 0
-3.3810840894747765962585794760316e-09 3:0.5 4:0.9375 5:0.125 11:0.8125 12:1 13:0.1875 18:0.25 19:1 20:0.875 26:0.4375 27:1 28:0.4375 34:0.5625 35:1 36:0.125 42:0.75 43:1 44:0.25 50:0.5 51:1 52:1 53:0.5 59:0.375 60:0.9375 61:0.9375 # 0
-1.5731802736167383540370130518178e-09 4:0.375 5:0.6875 11:0.1875 12:0.9375 13:0.75 18:0.3125 19:0.875 20:0.625 21:0.75 25:0.125 26:0.9375 27:0.375 28:0.3125 29:0.5625 33:0.42857143 34:0.9375 35:0.75 36:0.9375 37:1 38:0.5714286 41:0.0625 42:0.5 43:0.5 44:0.75 45:0.75 46:0.125 52:0.5 53:0.5 60:0.3125 61:0.6875 # 0
-1.46857235258843719999354363376e-10 3:0.5625 4:0.6875 10:0.125 11:1 12:0.5625 18:0.375 19:0.875 20:0.0625 26:0.5625 27:0.6875 34:0.6875 35:1 36:1 37:0.5625 42:0.625 43:0.9375 44:0.25 45:0.625 46:0.5 50:0.25 51:0.875 52:0.1875 53:0.6875 54:0.75 59:0.5 60:1 61:0.75 62:0.25 # 0
-1.3945766961931924386787479091642e-10 1:0.25 2:0.6875 3:1 4:0.625 5:0.0625 9:0.46666667 10:0.875 11:0.4375 12:1 13:0.875 14:0.125 17:0.375 18:0.5625 19:0.4375 20:0.9375 21:0.0625 25:0.0625 26:0.8125 27:1 28:0.4375 34:0.5625 35:1 36:0.5625 42:0.75 43:1 44:0.6875 49:0.1875 50:1 51:1 52:0.1875 58:0.875 59:0.5625 # 0
-1.1460013501805939888908420412465e-10 2:0.0625 3:0.9375 4:1 5:0.5 10:0.375 11:1 12:0.9375 13:0.8125 18:0.3125 19:1 20:1 21:0.6875 27:0.9375 28:1 29:0.4375 34:0.375 35:1 36:0.9375 42:0.8125 43:0.6875 44:0.6875 45:0.4375 50:0.8125 51:0.625 52:0.3125 53:1 58:0.1875 59:0.8125 60:1 61:0.75 # 0
-2.3152322612172617359203912638184e-10 3:0.4375 4:0.6875 11:1 12:0.625 18:0.25 19:1 26:0.25 27:0.75 34:0.5 35:0.75 36:0.75 37:0.6875 38:0.14285715 42:0.5 43:1 44:0.75 45:0.5 46:0.75 50:0.1875 51:1 52:0.3125 53:0.5 54:0.9375 55:0.2 59:0.5625 60:1 61:0.875 62:0.3125 # 0
-1.2633648984376401593922127721589e-10 3:0.375 4:0.6875 5:0.875 6:0.1875 10:0.5625 11:0.8125 12:0.5 13:0.9375 14:0.75 21:0.625 22:0.6875 29:0.8125 30:0.5625 34:0.25 35:0.6875 36:0.8125 37:1 38:0.2857143 42:0.1875 43:0.5 44:0.875 45:0.75 51:0.1875 52:1 53:0.1875 59:0.5625 60:0.875 # 0
-1.0652663893675689610371231134337e-10 2:0.1875 3:0.9375 4:0.5 10:0.5 11:1 12:1 13:0.4375 18:0.4375 19:0.6875 20:0.5625 21:0.75 26:0.125 27:0.3125 28:0.5625 29:0.6875 36:0.8125 37:0.4375 42:0.4375 43:0.625 44:1 45:0.25 50:0.875 51:1 52:1 53:1 54:0.9375 58:0.0625 59:0.25 60:0.25 61:0.4375 62:0.6875 63:0.06666667 # 0
2.4001680961720316802115469592823e-10 2:0.125 3:1 4:0.875 5:0.0625 10:0.375 11:1 12:1 13:0.3125 17:0.125 18:1 19:1 20:1 21:0.1875 26:0.1875 27:0.5625 28:1 29:0.25 35:0.125 36:1 37:0.625 44:0.9375 45:1 50:0.125 51:0.5625 52:1 53:1 54:0.1875 58:0.125 59:0.875 60:1 61:0.625 62:0.0625 # 0
-3.1555422822035631049242905468016e-10 3:0.3125 4:0.875 5:1 6:1 7:0.3125 10:0.625 11:1 12:0.9375 13:1 14:1 15:0.53846157 17:0.25 18:0.9375 19:0.375 20:0.0625 21:1 22:0.75 26:0.125 28:0.3125 29:1 30:0.4375 36:0.25 37:1 38:0.14285715 44:0.375 45:1 46:0.0625 51:0.125 52:0.9375 53:0.875 59:0.1875 60:0.9375 61:0.4375 # 0
-2.7780476228880872361034758324515e-10 2:0.875 3:0.5 9:0.2 10:1 11:0.9375 12:0.25 17:0.0625 18:0.625 19:0.875 20:0.5625 27:0.5625 28:0.8125 35:0.5 36:0.8125 42:0.0625 43:0.75 44:0.9375 45:0.1875 50:0.6875 51:1 52:1 53:1 54:0.75 55:0.2 58:0.8125 59:0.875 60:0.125 61:0.0625 62:0.1875 63:0.06666667 # 0
-6.6954373958842817874094685762893e-11 2:0.375 3:0.5 4:0.6875 5:0.9375 10:0.9375 11:1 12:1 13:0.625 18:0.9375 19:0.75 20:0.25 26:0.4375 27:0.9375 28:0.1875 35:0.4375 36:0.75 43:0.25 44:0.9375 51:0.6875 52:0.6875 58:0.625 59:1 60:0.375 # 0
-1.1453012315112152049143180590832e-10 1:0.5 2:0.75 3:0.875 4:0.75 5:0.375 9:0.13333334 10:0.25 11:0.25 12:0.3125 13:1 14:0.375 20:0.375 21:1 22:0.25 27:0.3125 28:1 29:0.375 35:0.3125 36:1 37:0.1875 44:0.6875 45:0.8125 51:0.3125 52:0.8125 53:1 57:0.5 58:1 59:0.75 60:0.6875 61:0.0625 # 0
-1.0891576418611969337532427364403e-09 3:0.5625 4:1 5:0.3125 9:0.06666667 10:0.75 11:0.9375 12:0.9375 13:0.5 17:0.4375 18:0.8125 19:0.3125 20:0.9375 21:0.25 26:0.0625 27:0.375 28:1 35:0.5 36:1 43:0.5625 44:0.8125 51:0.75 52:0.5 53:0.25 54:0.1875 59:0.6875 60:1 61:0.9375 62:0.3125 # 0
2.3266647860775115455742099150214e-09 3:0.625 4:0.375 10:0.3125 11:1 12:0.5625 18:0.625 19:1 20:0.625 25:0.25 26:0.9375 27:0.75 28:0.75 33:0.14285715 34:0.25 35:0.1875 36:1 37:0.125 44:0.6875 45:0.5625 51:0.4375 52:0.75 53:0.9375 54:0.25 59:0.75 60:1 61:1 62:0.5 # 0
6.7502494380950130975760340007442e-10 4:0.0625 5:0.875 6:0.25 12:0.125 13:1 14:0.5 20:0.5 21:1 22:0.375 28:0.9375 29:1 30:0.3125 35:0.5 36:1 37:1 38:0.21428572 42:0.375 43:1 44:0.5625 45:1 49:0.125 50:1 51:0.5 52:0.25 53:1 57:0.2 58:0.25 60:0.125 61:0.9375 62:0.1875 # 0
7.6408271317382809787993637327041e-10 2:0.25 3:0.8125 4:0.6875 5:0.125 10:0.125 11:0.8125 12:1 13:0.4375 19:0.4375 20:1 21:0.9375 27:0.1875 28:1 29:0.9375 30:0.25 35:0.4375 36:1 37:1 38:0.071428575 43:0.625 44:1 45:0.875 50:0.0625 51:0.8125 52:0.9375 53:0.25 58:0.5 59:1 60:0.875 # 0
-4.0152945574592238028350332436519e-10 4:0.6875 5:0.5 11:0.125 12:1 13:0.5 19:0.375 20:1 21:0.125 27:0.4375 28:0.9375 35:0.625 36:0.875 42:0.8125 43:1 44:1 45:0.6875 50:0.4375 51:0.4375 52:1 53:1 54:0.625 60:0.5 61:1 62:0.9375 # 0
-3.9290672775348849511118695799255e-11 2:0.125 3:0.875 4:1 5:0.875 6:0.125 11:0.6875 12:0.8125 13:1 14:0.1875 20:0.625 21:0.875 26:0.125 27:0.5 28:0.875 29:0.75 30:0.125 34:0.625 35:1 36:1 37:1 38:0.64285713 42:0.375 43:1 44:0.875 45:0.75 46:0.125 50:0.1875 51:0.9375 52:0.6875 58:0.375 59:0.9375 60:0.1875 # 0
8.6646310691960914946812918805525e-11 1:0.125 2:0.5 3:0.625 4:0.1875 9:0.13333334 10:0.9375 11:1 12:1 13:0.75 17:0.0625 18:0.875 19:1 20:1 21:0.75 25:0.25 26:1 27:1 28:1 29:0.5 33:0.2857143 34:1 35:1 36:1 37:0.375 41:0.25 42:1 43:1 44:0.9375 45:0.1875 49:0.25 50:1 51:1 52:0.8125 53:0.125 57:0.1 58:0.4375 59:0.625 60:0.5 61:0.125 # 0
-1.4167898487381406067380786979141e-10 1:0.25 2:0.4375 3:1 4:0.9375 5:0.5 9:0.33333334 10:1 11:0.6875 12:0.9375 13:0.75 18:0.6875 19:0.9375 20:0.8125 26:0.1875 27:1 28:0.0625 34:0.5625 35:1 36:0.0625 42:0.8125 43:0.625 44:0.3125 50:0.875 51:0.5625 52:0.5 58:0.375 59:1 60:0.3125 # 0
-1.4914384703605969071765062431426e-10 1:0.25 4:0.5625 5:0.4375 9:1 10:1 11:1 12:1 13:0.5625 17:0.0625 18:0.3125 19:0.25 20:1 21:0.4375 25:0.0625 26:0.25 27:0.25 28:1 29:0.4375 33:0.35714287 34:1 35:1 36:1 37:0.9375 38:0.14285715 42:0.1875 43:0.0625 44:0.875 45:0.375 52:0.8125 53:0.4375 60:0.625 61:0.6875 # 0
-7.4388783453835476540825422124201e-11 3:0.625 4:1 5:0.3125 10:0.125 11:1 12:0.8125 13:0.125 18:0.4375 19:1 20:0.25 26:0.5 27:1 28:0.0625 34:0.6875 35:1 36:0.625 37:0.0625 42:0.8125 43:1 44:1 45:0.8125 46:0.25 50:0.4375 51:1 52:0.4375 53:0.9375 54:0.875 59:0.5625 60:1 61:1 62:0.75 # 0
-1.2517326441477316446284784108616e-10 3:0.25 4:0.9375 11:0.6875 12:0.8125 18:0.0625 19:0.9375 20:0.4375 26:0.6875 27:0.6875 33:0.14285715 34:1 35:0.125 36:0.6875 37:0.5 40:0.33333334 41:0.8125 42:0.875 43:0.625 44:1 45:0.5 48:0.40000001 49:0.375 50:0.75 51:0.9375 52:1 53:0.25 59:0.3125 60:0.875 61:0.0625 # 0
2.8933113193327173258349400052027e-10 2:0.375 3:0.9375 4:1 5:0.375 9:0.33333334 10:0.9375 11:1 12:1 13:0.6875 17:0.5 18:1 19:1 20:1 21:0.5625 26:0.25 27:1 28:1 29:0.375 34:0.125 35:1 36:1 42:0.5 43:1 44:1 45:0.125 50:0.6875 51:1 52:1 53:0.8125 54:0.125 58:0.3125 59:0.8125 60:0.6875 61:0.5 62:0.125 # 0
1.1603186573902710247369111207878e-09 3:0.125 4:0.9375 5:0.25 11:0.4375 12:1 13:0.3125 18:0.5 19:1 20:0.875 21:0.0625 25:0.4375 26:1 27:1 28:0.75 33:0.14285715 34:0.5 35:0.875 36:0.75 43:0.5625 44:0.8125 51:0.375 52:1 53:0.8125 54:0.125 59:0.125 60:0.75 61:0.8125 62:0.125 # 0
1.2162306116920943872101224566672e-09 2:0.25 3:0.625 10:0.125 11:0.9375 12:0.125 18:0.125 19:1 20:0.25 26:0.4375 27:1 28:0.5625 34:0.875 35:0.875 36:0.875 42:0.1875 43:0.1875 44:1 45:0.1875 50:0.0625 51:0.4375 52:0.875 53:0.6875 54:0.25 58:0.25 59:0.875 60:1 61:0.8125 62:0.875 63:0.53333336 # 0
2.8623200871691249875426235401853e-10 2:0.25 3:0.9375 4:0.5625 5:0.0625 10:0.6875 11:1 12:1 13:0.5625 18:0.0625 19:0.625 20:1 21:0.6875 27:0.5 28:1 29:0.75 35:0.6875 36:1 37:0.625 42:0.0625 43:1 44:1 45:0.4375 50:0.3125 51:1 52:1 53:0.75 58:0.3125 59:1 60:0.875 61:0.375 # 0
-6.4682485989016528745860939081163e-10 2:0.5625 3:1 4:1 5:0.3125 10:0.8125 11:1 12:0.5625 13:0.375 18:0.5625 19:0.75 26:0.1875 27:1 28:0.1875 35:0.75 36:0.625 43:0.3125 44:0.9375 50:0.1875 51:0.3125 52:1 53:0.3125 58:0.4375 59:1 60:0.9375 61:0.0625 # 0
-3.1235934840912121050128960898762e-10 2:0.1875 3:0.625 4:0.8125 5:0.0625 9:0.13333334 10:0.9375 11:0.625 12:1 13:0.1875 17:0.125 18:0.25 19:0.0625 20:1 21:0.25 27:0.4375 28:1 34:0.4375 35:0.875 36:1 37:0.75 38:0.21428572 41:0.125 42:0.8125 43:0.9375 44:0.8125 45:0.5625 46:0.125 51:0.8125 52:0.5 58:0.0625 59:0.9375 60:0.1875 # 0
-1.5940352180789391135169083287655e-10 2:0.125 3:0.8125 4:0.5625 5:0.0625 9:0.06666667 10:0.8125 11:0.4375 12:0.9375 13:0.3125 16:0.33333334 17:0.9375 18:0.5625 20:0.9375 21:0.125 25:0.375 26:0.8125 27:0.4375 28:0.8125 34:0.3125 35:1 36:0.5 42:0.0625 43:0.9375 44:0.875 45:0.125 50:0.25 51:0.75 52:0.375 53:0.6875 59:0.6875 60:1 61:0.5 # 0
-6.2763840306184618041662921444717e-11 2:0.0625 3:0.4375 4:0.875 5:0.9375 6:0.125 9:0.13333334 10:0.75 11:0.875 12:0.5 13:0.875 14:0.4375 17:0.1875 18:0.875 19:0.8125 20:0.3125 21:0.875 22:0.3125 26:0.3125 27:0.9375 28:1 29:0.9375 30:0.125 35:0.625 36:1 37:0.625 42:0.125 43:0.875 44:0.875 45:0.75 50:0.25 51:1 52:0.875 53:0.75 59:0.75 60:0.8125 61:0.375 # 0
1.4691045937981449513212805658567e-09 4:0.4375 5:0.8125 6:0.125 12:0.5 13:1 14:0.25 17:0.1875 18:0.5 19:0.5625 20:0.9375 21:0.9375 22:0.0625 25:0.25 26:0.75 27:0.6875 28:0.875 29:0.75 36:0.75 37:0.75 44:0.6875 45:0.8125 52:0.5 53:1 54:0.3125 60:0.375 61:1 62:0.3125 # 0
-7.9865698014894972748755913568021e-12 2:0.5 3:0.8125 4:0.375 9:0.13333334 10:1 11:0.75 12:0.6875 13:0.625 18:1 19:1 20:0.875 21:0.5 22:0.0625 26:0.8125 27:0.6875 33:0.14285715 34:0.9375 35:0.25 42:1 43:0.8125 49:0.125 50:0.9375 51:1 52:0.125 58:0.6875 59:1 60:0.25 # 0
-4.043604150043619048076780430023e-10 2:0.1875 3:0.5625 4:0.9375 5:0.5 9:0.06666667 10:0.9375 11:1 12:1 13:0.4375 18:0.3125 19:1 20:1 21:0.625 22:0.25 26:0.1875 27:1 28:1 29:1 30:0.5625 35:0.9375 36:0.875 37:0.25 43:0.8125 44:0.3125 50:0.0625 51:0.9375 52:0.1875 58:0.25 59:0.8125 # 0
8.9925876661119907923024098471399e-12 2:0.125 3:0.875 4:0.75 10:0.25 11:1 12:0.75 18:0.3125 19:1 20:0.375 26:0.375 27:1 28:0.375 34:0.5625 35:1 36:0.3125 42:0.625 43:1 44:0.25 50:0.5 51:1 52:0.4375 58:0.125 59:0.875 60:1 61:0.1875 # 0
-1.0317705830529326851956877282663e-10 2:0.1875 3:0.6875 4:1 5:1 6:0.875 7:0.0625 10:0.75 11:0.625 12:0.25 13:0.4375 14:0.9375 18:0.4375 19:0.875 20:0.9375 21:1 22:0.25 28:0.4375 29:0.75 35:0.0625 36:0.875 37:0.25 43:0.3125 44:0.8125 51:0.75 52:0.4375 58:0.125 59:0.875 # 0
-6.5499129847990159334629240215188e-10 2:0.125 3:0.6875 4:0.6875 5:0.125 10:0.6875 11:1 12:1 13:0.3125 18:0.625 19:1 20:1 21:0.3125 26:0.125 27:0.6875 28:0.875 29:0.5625 36:0.5 37:0.75 44:0.5 45:1 51:0.5 52:0.9375 53:0.625 58:0.0625 59:0.875 60:0.875 61:0.1875 # 0
-4.2661435755168623749957449207233e-10 3:0.8125 4:0.875 10:0.3125 11:1 12:0.4375 18:0.5 19:0.8125 26:0.75 27:0.6875 33:0.071428575 34:1 35:1 36:0.875 37:0.125 42:0.625 43:0.6875 44:0.625 45:0.875 50:0.4375 51:0.8125 52:0.5625 53:0.9375 58:0.0625 59:0.6875 60:0.9375 61:0.5 # 0
9.0111256954268138603185884315098e-10 4:0.375 5:0.6875 11:0.25 12:1 13:0.75 18:0.0625 19:0.75 20:1 21:0.6875 25:0.0625 26:0.75 27:0.8125 28:1 29:0.4375 33:0.64285713 34:1 35:0.8125 36:1 37:0.1875 41:0.125 42:0.1875 43:0.375 44:1 45:0.1875 51:0.375 52:1 53:0.1875 60:0.5625 61:0.5 # 0
-8.0381797160111226218737574410024e-12 2:0.125 3:0.9375 4:1 5:0.875 6:0.3125 10:0.3125 11:0.9375 12:0.5 13:0.8125 14:0.6875 17:0.125 18:0.6875 19:0.75 20:0.4375 21:0.9375 22:0.5 25:0.4375 26:1 27:1 28:1 29:0.5 30:0.0625 33:0.14285715 34:0.9375 35:1 36:0.5 42:0.4375 43:1 44:0.75 50:0.25 51:1 52:1 58:0.125 59:0.875 60:0.875 # 0
-7.4162633586495067423732479005563e-10 2:0.3125 3:0.75 4:0.8125 5:0.0625 10:0.4375 11:1 12:1 13:0.625 18:0.0625 19:0.8125 20:1 21:0.8125 28:0.625 29:0.9375 36:0.5625 37:0.9375 42:0.125 43:0.3125 44:0.9375 45:0.75 50:0.6875 51:1 52:1 53:0.4375 58:0.25 59:0.8125 60:0.5625 # 0
-1.2231420201016480686450448886829e-10 2:0.375 3:0.5625 4:0.25 5:0.0625 10:0.375 11:1 12:1 13:0.5625 14:0.0625 18:0.25 19:1 20:0.0625 21:0.8125 22:0.4375 27:0.875 28:0.3125 29:0.75 30:0.5 33:0.071428575 34:0.625 35:0.9375 36:1 37:0.625 41:0.375 42:0.9375 43:0.5625 44:1 45:0.0625 49:0.4375 50:0.8125 51:0.5 52:0.875 53:0.25 58:0.375 59:0.625 60:0.8125 61:0.0625 # 0
-6.2400323700727106434992819342512e-10 2:0.125 3:0.8125 4:0.9375 5:0.125 10:0.6875 11:1 12:0.8125 13:0.625 18:0.875 19:0.5625 20:0.5 21:0.75 26:0.5 27:0.875 28:1 29:0.625 34:0.3125 35:1 36:0.8125 37:0.0625 42:0.5625 43:0.9375 44:0.875 45:0.125 50:0.4375 51:0.875 52:0.875 53:0.375 58:0.0625 59:0.8125 60:1 61:0.125 # 0
-6.7438054719750249071163205256453e-11 2:0.375 3:0.875 4:1 5:0.625 10:0.8125 11:0.8125 12:0.625 13:0.9375 18:0.3125 19:0.9375 20:0.6875 21:0.875 27:0.625 28:1 29:0.4375 35:0.875 36:1 37:0.0625 42:0.5 43:0.9375 44:0.9375 45:0.125 50:0.75 51:0.875 52:1 53:0.0625 58:0.625 59:1 60:0.6875 # 0
-5.6264525458950334716054837882446e-11 1:0.625 2:0.875 3:0.625 4:0.25 9:0.2 10:0.75 11:1 12:1 13:0.375 18:0.0625 19:0.8125 20:1 21:0.3125 26:0.5 27:1 28:0.8125 29:0.125 34:0.3125 35:1 36:0.8125 37:0.125 43:0.375 44:1 45:0.9375 46:0.25 49:0.0625 50:0.5 51:0.5625 52:0.9375 53:1 54:0.3125 57:0.40000001 58:0.9375 59:0.875 60:0.5 61:0.25 # 0
-1.5953195922041650809105275371871e-10 2:0.125 3:0.5625 4:0.3125 10:0.5 11:1 12:1 13:0.8125 17:0.125 18:0.6875 19:1 20:1 21:0.25 25:0.0625 26:0.6875 27:1 28:0.75 34:0.625 35:0.75 36:1 37:0.375 42:0.8125 43:0.0625 44:0.4375 45:0.9375 46:0.0625 50:0.875 51:0.375 52:0.4375 53:0.8125 54:0.125 58:0.125 59:0.6875 60:0.6875 61:0.25 # 0
1.3402580199477335087887563619207e-09 3:0.125 4:0.6875 5:0.8125 6:0.125 10:0.125 11:0.8125 12:1 13:1 14:0.125 17:0.1875 18:0.9375 19:0.875 20:0.8125 21:1 26:0.375 28:0.9375 29:0.5625 36:1 37:0.375 43:0.25 44:1 51:0.3125 52:1 53:0.1875 59:0.1875 60:1 61:0.375 # 0
-1.6533730220470179270592493112361e-10 2:0.5625 3:1 4:1 5:0.875 9:0.2 10:0.9375 11:0.625 12:0.125 13:0.3125 17:0.6875 18:0.5625 25:0.5 26:0.875 27:0.0625 33:0.071428575 34:0.9375 35:0.3125 42:0.6875 43:0.5625 50:0.5625 51:0.75 58:0.875 59:0.5625 # 0
-1.581279331152768886073099642174e-10 1:0.25 2:0.25 3:0.4375 4:0.8125 5:0.9375 6:0.125 9:0.93333334 10:1 11:1 12:0.9375 13:1 14:0.3125 17:0.0625 18:0.25 20:0.875 21:0.875 28:1 29:0.75 35:0.1875 36:1 37:0.4375 43:0.3125 44:1 45:0.4375 51:0.3125 52:1 53:0.375 59:0.4375 60:1 61:0.5625 # 0
8.0738119886064734636211566833411e-11 2:0.375 3:0.6875 4:0.25 10:0.75 11:1 12:0.875 18:0.75 19:1 20:0.375 21:0.0625 26:0.3125 27:1 28:1 29:0.3125 34:0.75 35:1 36:1 37:0.25 42:0.75 43:1 44:1 45:0.5625 50:0.8125 51:1 52:1 53:0.75 58:0.5 59:0.75 60:0.6875 61:0.375 # 0
1.9455319476947532173178565038247e-11 2:0.4375 3:0.9375 4:0.9375 5:0.3125 9:0.26666668 10:1 11:1 12:1 13:0.8125 14:0.0625 17:0.125 18:1 19:1 20:1 21:0.375 26:1 27:1 28:1 29:0.375 34:1 35:1 36:1 41:0.0625 42:1 43:1 44:1 45:0.0625 49:0.25 50:1 51:1 52:0.9375 53:0.1875 57:0.1 58:0.5 59:0.9375 60:0.75 61:0.125 # 0
-4.6570281643839126381428520349255e-11 2:0.125 3:0.9375 4:1 5:0.8125 6:0.0625 10:0.1875 11:0.4375 12:0.625 13:1 14:0.625 21:0.6875 22:0.6875 27:0.125 28:0.5 29:0.9375 30:0.3125 35:0.5625 36:1 37:1 38:0.5714286 43:0.125 44:1 45:0.3125 51:0.75 52:0.4375 58:0.25 59:0.875 60:0.0625 # 0
-2.6556711923959999043801381810883e-10 2:0.5625 3:1 4:0.4375 10:1 11:1 12:0.875 18:0.1875 19:0.8125 20:1 26:0.4375 27:1 28:1 29:0.75 30:0.5 34:0.5 35:1 36:1 37:1 38:0.64285713 43:0.875 44:0.6875 50:0.25 51:1 52:0.3125 58:0.4375 59:0.75 # 0
1.9889384950602470541162101214127e-10 4:0.25 5:1 6:0.3125 11:0.125 12:0.9375 13:1 14:0.25 18:0.0625 19:0.8125 20:1 21:1 25:0.0625 26:0.875 27:0.75 28:0.875 29:0.75 33:0.42857143 34:0.875 35:0.0625 36:0.625 37:0.8125 41:0.25 42:0.125 44:0.5625 45:0.8125 52:0.5 53:0.75 60:0.25 61:0.875 # 0
-9.9513262582103330586442578923717e-12 2:0.1875 3:1 4:0.9375 5:0.1875 10:0.375 11:1 12:0.9375 13:0.1875 18:0.625 19:1 20:0.375 21:0.125 26:0.25 27:0.875 28:1 29:0.1875 33:0.2857143 34:0.8125 35:0.125 36:0.75 37:0.375 41:0.3125 42:0.6875 44:0.0625 45:0.75 46:0.1875 50:0.8125 51:0.1875 53:0.4375 54:0.6875 58:0.1875 59:0.6875 60:0.6875 61:0.875 62:0.625 # 0
-3.1478937444627476483551943448329e-10 3:0.0625 4:0.5 5:0.9375 6:0.625 10:0.1875 11:0.9375 12:0.9375 13:1 14:0.75 18:1 19:0.5625 20:0.375 21:1 22:0.125 25:0.25 26:1 27:0.5625 28:0.8125 29:1 30:0.0625 34:0.625 35:0.75 36:0.9375 37:1 44:0.625 45:0.75 52:0.625 53:0.6875 60:0.375 61:0.375 # 0
1.897238399624646492240924992883e-10 3:0.5625 4:0.8125 5:0.3125 10:0.4375 11:1 12:0.9375 13:0.0625 18:0.4375 19:1 20:0.5 26:0.6875 27:1 28:0.5625 34:0.5625 35:1 36:0.375 42:0.625 43:1 44:0.3125 50:0.6875 51:1 52:0.6875 58:0.0625 59:0.75 60:0.625 # 0
-1.3769448979245928457358290109464e-10 2:0.125 3:1 4:0.625 5:0.0625 10:0.5 11:0.9375 12:0.8125 13:0.4375 18:0.1875 19:0.5625 20:0.25 21:0.8125 28:0.375 29:0.8125 36:0.75 37:0.5 43:0.25 44:1 45:0.1875 50:0.125 51:0.9375 52:0.875 53:0.5 54:0.875 55:0.5 58:0.125 59:0.9375 60:1 61:1 62:0.75 63:0.46666667 # 0
-2.9543269276893619960167753976253e-10 2:0.375 3:0.875 4:0.8125 5:0.3125 10:0.3125 11:0.375 12:0.875 13:0.625 18:0.5625 19:1 20:0.875 21:0.0625 26:0.4375 27:1 28:0.625 34:0.625 35:0.4375 36:0.75 37:0.125 42:0.8125 43:0.1875 44:0.375 45:0.375 50:0.75 51:0.3125 52:0.6875 53:0.5625 58:0.3125 59:1 60:0.9375 61:0.1875 # 0
-2.41036011660326476225871161394e-10 3:0.75 4:0.5 11:1 12:0.5 18:0.625 19:1 20:0.1875 25:0.4375 26:1 27:0.75 28:0.75 29:0.25 33:0.5714286 34:1 35:1 36:1 37:1 38:0.64285713 41:0.0625 42:0.5625 43:0.9375 44:1 45:0.625 46:0.375 51:0.75 52:0.8125 59:0.875 60:0.75 # 0
-7.1082272739330504411607723076118e-12 2:0.125 3:0.9375 4:0.75 5:0.0625 10:0.4375 11:0.9375 12:0.9375 13:0.5625 18:0.3125 19:0.9375 20:0.4375 21:1 22:0.125 26:0.0625 27:0.8125 28:0.875 29:1 30:0.4375 35:0.25 36:0.8125 37:0.9375 38:0.71428573 45:0.875 46:0.6875 51:0.0625 52:0.5 53:1 54:0.625 58:0.125 59:0.8125 60:1 61:0.9375 62:0.1875 # 0
-1.5862140272828327227609593986997e-11 2:0.5625 3:1 4:0.9375 5:0.0625 10:0.1875 11:0.5 12:1 13:0.3125 20:0.875 21:0.4375 25:0.125 26:0.6875 27:0.5625 28:1 29:0.1875 33:0.78571427 34:1 35:1 36:1 37:0.75 38:0.071428575 43:0.8125 44:0.9375 45:1 46:0.3125 50:0.3125 51:1 52:0.125 58:0.625 59:0.625 # 0
-1.503747533250546229066656089127e-10 2:0.4375 3:0.8125 6:0.1875 7:0.5 10:0.9375 11:0.4375 13:0.1875 14:0.9375 15:0.53846157 18:1 19:0.75 20:0.375 21:0.875 22:0.5625 26:0.375 27:0.75 28:1 29:0.75 35:0.125 36:0.875 37:0.125 43:0.5625 44:0.5625 50:0.125 51:0.8125 52:0.0625 58:0.5 59:0.3125 # 0
-8.9672779366450298303530272439127e-11 3:0.5 4:0.9375 5:1 6:0.4375 9:0.06666667 10:0.875 11:0.5625 12:0.0625 14:0.5 17:0.375 18:0.75 21:0.625 22:0.5 25:0.25 26:0.875 27:0.75 28:0.8125 29:0.875 30:0.5 36:0.0625 37:0.25 38:0.5714286 45:0.25 46:0.5 53:0.4375 54:0.5 59:0.5 60:0.75 61:0.9375 62:0.375 # 0
-1.0344660832884835715191793896928e-09 2:0.5 3:0.625 10:0.875 11:1 12:0.3125 18:0.9375 19:0.6875 20:0.6875 26:0.625 27:0.375 28:0.75 34:0.0625 35:0.25 36:0.875 43:0.375 44:0.625 50:0.3125 51:0.9375 52:0.875 53:0.5625 54:0.5625 55:0.2 58:0.625 59:1 60:0.9375 61:0.9375 62:0.75 63:0.06666667 # 0
-2.5033965318515821989328848912606e-11 2:0.625 3:1 4:0.9375 5:0.375 11:0.25 12:1 13:0.9375 20:0.875 21:0.8125 28:0.875 29:1 30:0.1875 36:0.1875 37:0.9375 38:0.85714287 44:0.0625 45:0.9375 46:0.9375 51:0.125 52:0.75 53:1 54:0.5 58:0.4375 59:0.9375 60:0.9375 61:0.4375 # 0
-1.3693263290868626600569807494768e-10 3:0.75 4:0.0625 10:0.25 11:1 12:0.1875 18:0.4375 19:0.875 26:0.5625 27:0.625 28:0.25 29:0.125 34:0.75 35:1 36:1 37:0.9375 38:0.35714287 42:0.625 43:0.5625 46:0.75 47:0.25 50:0.4375 51:0.6875 52:0.0625 53:0.3125 54:0.9375 55:0.2 59:0.6875 60:1 61:0.9375 62:0.5 # 0
2.9539806105866139460928359932682e-10 2:0.125 3:1 4:0.5625 10:0.5 11:1 12:0.9375 17:0.375 18:1 19:1 20:0.9375 21:0.0625 27:0.3125 28:1 29:0.5 36:0.875 37:0.875 44:0.125 45:1 46:0.375 50:0.0625 51:0.25 52:0.4375 53:1 54:0.8125 59:0.6875 60:1 61:1 62:0.9375 63:0.06666667 # 0
-8.0624590997428886018545110161537e-11 2:0.25 3:0.625 4:0.9375 5:0.25 10:0.5 11:0.8125 12:0.375 13:0.0625 17:0.0625 18:0.9375 19:0.875 20:0.625 21:0.0625 26:0.6875 27:0.5 28:0.625 29:0.75 30:0.0625 37:0.625 38:0.42857143 45:0.125 46:0.875 50:0.375 51:0.4375 52:0.1875 53:0.1875 54:0.9375 55:0.2 58:0.25 59:0.8125 60:1 61:1 62:0.9375 63:0.06666667 # 0
-4.2112585105369305601655996920793e-10 2:0.25 3:0.8125 4:0.6875 10:0.0625 11:0.8125 12:1 13:0.4375 20:0.875 21:0.5625 26:0.0625 27:0.375 28:1 29:0.875 30:0.3125 33:0.071428575 34:0.8125 35:1 36:1 37:0.625 38:0.21428572 41:0.125 42:0.5 43:0.8125 44:0.625 50:0.0625 51:1 52:0.125 58:0.25 59:0.8125 60:0.0625 # 0
-5.5073122330330541324237088697804e-11 2:0.0625 3:0.4375 4:0.75 5:0.4375 10:0.375 11:1 12:0.625 13:0.3125 18:0.875 19:1 20:0.875 21:0.25 26:0.1875 27:0.25 28:0.375 29:0.8125 37:0.6875 38:0.42857143 45:0.4375 46:0.5625 50:0.625 51:0.3125 52:0.125 53:0.5 54:0.6875 58:0.25 59:0.875 60:1 61:1 62:0.25 # 0
-3.0248749975721187750171646434129e-10 3:0.1875 4:0.6875 5:0.9375 6:0.0625 10:0.375 11:1 12:1 13:1 14:0.5625 17:0.125 18:1 19:1 20:1 21:0.8125 22:0.875 26:0.6875 27:0.5 28:0.0625 29:0.5625 30:0.5625 36:0.0625 37:0.9375 44:0.375 45:0.625 52:0.75 53:0.1875 60:0.8125 # 0
-8.3741243453885608528036015915907e-11 1:0.625 2:0.875 3:0.75 4:0.9375 5:0.9375 6:0.1875 10:0.125 11:0.25 12:0.6875 13:1 14:0.3125 19:0.0625 20:0.9375 21:0.5625 27:0.4375 28:1 29:0.0625 35:0.1875 36:1 37:0.6875 44:0.9375 45:1 49:0.0625 50:0.4375 51:0.625 52:1 53:0.4375 57:0.2 58:0.75 59:0.8125 60:0.25 # 0
7.7964664774830767497407625695892e-11 3:0.5625 4:0.875 5:0.25 9:0.66666669 10:0.875 11:1 12:1 13:0.375 17:0.1875 18:0.5625 19:1 20:1 21:0.125 27:1 28:0.625 35:0.875 36:0.5625 42:0.125 43:1 44:0.5625 50:0.0625 51:1 52:0.75 59:0.4375 60:0.9375 61:0.0625 # 0
-4.0818565483542703445363463023816e-10 2:0.25 3:0.875 4:0.5 10:0.875 11:0.75 12:0.9375 13:0.5625 18:0.875 19:0.625 20:0.9375 21:0.5625 22:0.0625 26:0.25 27:1 28:0.6875 34:0.5625 35:1 36:0.75 42:0.75 43:0.75 44:1 45:0.0625 49:0.0625 50:0.9375 51:0.875 52:1 53:0.0625 58:0.4375 59:1 60:0.5 # 0
-7.1740148669754736522680120112039e-11 2:0.3125 3:0.8125 4:0.8125 5:0.125 10:0.75 11:0.875 12:1 13:0.5 19:0.1875 20:1 21:0.3125 27:0.25 28:1 29:0.3125 36:0.625 37:0.875 38:0.14285715 44:0.1875 45:1 46:0.375 50:0.0625 52:0.3125 53:1 54:0.25 58:0.375 59:0.8125 60:1 61:0.75 62:0.1875 # 0
-1.2771320541356530946716427511506e-10 3:0.375 4:0.8125 11:0.8125 12:0.5625 18:0.0625 19:1 20:0.1875 26:0.1875 27:0.9375 34:0.375 35:0.875 36:0.5 37:0.4375 38:0.071428575 42:0.4375 43:1 44:0.75 45:0.75 46:0.8125 47:0.5 50:0.25 51:1 52:0.1875 53:0.1875 54:0.8125 55:0.69999999 59:0.4375 60:1 61:1 62:0.6875 63:0.06666667 # 0
-7.3676568592953070969634314069086e-10 1:0.375 2:0.75 3:0.75 4:0.1875 9:0.53333336 10:0.625 11:0.6875 12:0.5625 18:0.125 19:0.875 20:0.25 26:0.75 27:0.8125 28:0.0625 34:0.1875 35:0.8125 36:0.9375 37:0.1875 44:0.4375 45:0.875 46:0.0625 49:0.125 50:0.25 51:0.25 52:0.1875 53:0.6875 54:0.4375 57:0.5 58:0.75 59:0.75 60:0.875 61:1 62:0.5 # 0
-5.3342834463194732517246749845362e-11 1:0.25 2:0.6875 3:0.1875 5:0.125 9:0.13333334 10:0.8125 11:0.75 12:0.3125 13:0.9375 14:0.375 18:0.6875 19:0.875 20:0.875 21:0.0625 26:0.4375 27:0.9375 28:0.0625 34:0.9375 35:0.75 36:0.3125 41:0.25 42:0.625 43:0.25 44:0.5 49:0.4375 50:0.5625 51:0.4375 52:0.5 57:0.2 58:0.875 59:0.9375 60:0.3125 # 0
-2.7363771030120549724902714672844e-11 2:0.1875 3:0.75 10:0.4375 11:1 12:0.125 18:0.8125 19:0.6875 20:0.0625 21:0.4375 22:0.0625 25:0.375 26:1 27:1 28:1 29:1 30:0.5 33:0.14285715 34:0.6875 35:0.875 36:1 37:0.8125 43:0.8125 44:0.9375 45:0.1875 50:0.25 51:1 52:0.75 58:0.3125 59:0.75 60:0.375 # 0
6.9143479632535209385036382333044e-11 2:0.1875 3:0.6875 4:0.6875 5:0.375 9:0.2 10:0.875 11:1 12:1 13:0.75 18:0.4375 19:1 20:1 21:0.75 26:0.8125 27:1 28:1 29:0.75 34:0.8125 35:1 36:1 37:0.875 41:0.125 42:0.9375 43:1 44:1 45:0.8125 50:0.75 51:1 52:1 53:0.75 58:0.1875 59:0.6875 60:0.6875 61:0.4375 # 0
-2.0759401103902749207570505402757e-10 2:0.3125 3:0.875 4:0.6875 10:0.8125 11:1 12:0.875 18:0.375 19:0.5625 20:0.75 27:0.625 28:0.5 34:0.0625 35:0.9375 36:0.1875 42:0.5 43:0.875 50:0.6875 51:1 52:0.75 53:0.9375 54:0.0625 58:0.375 59:1 60:1 61:0.4375 # 0
-1.6647851560579996997061233466079e-10 3:0.4375 4:0.75 5:0.875 6:0.125 10:0.1875 11:0.875 12:0.4375 13:0.8125 14:0.5 18:0.375 19:0.875 20:0.6875 21:1 22:0.3125 25:0.125 26:0.8125 27:1 28:0.9375 29:0.5 30:0.0625 33:0.35714287 34:0.75 35:0.375 36:0.9375 41:0.4375 42:0.625 44:0.5 45:0.625 49:0.125 50:0.75 51:0.4375 52:0.3125 53:1 54:0.1875 59:0.5625 60:0.8125 61:0.875 62:0.125 # 0
1.9140216841204454859891825154485e-11 3:0.625 4:1 5:0.4375 11:0.5625 12:1 13:1 14:0.125 19:0.6875 20:1 21:0.875 27:0.875 28:1 29:0.75 34:0.4375 35:1 36:1 37:0.5 41:0.125 42:0.9375 43:1 44:1 45:0.4375 49:0.1875 50:0.625 51:1 52:1 53:0.5 59:0.6875 60:1 61:0.9375 62:0.1875 # 0
-1.408125073485329736100737833021e-10 1:0.125 2:0.75 3:0.1875 9:0.66666669 10:1 11:0.9375 12:0.0625 17:0.5 18:0.1875 19:0.8125 20:0.3125 25:0.0625 27:0.5625 28:0.5625 35:0.8125 36:0.375 42:0.125 43:0.9375 44:0.125 50:0.8125 51:1 52:0.875 53:0.875 54:0.75 58:0.5 59:0.75 60:0.75 61:0.625 62:0.6875 # 0
-5.5339765000032285611724893132149e-11 4:0.625 5:0.4375 12:0.9375 13:0.3125 19:0.25 20:1 21:0.1875 27:0.4375 28:0.9375 29:0.1875 33:0.21428572 34:0.4375 35:0.875 36:0.75 37:1 38:0.071428575 40:0.16666667 41:0.875 42:1 43:1 44:1 45:0.9375 49:0.5625 50:0.625 51:0.875 52:1 53:1 60:0.75 61:0.5625 # 0
4.2276444162527210046189086233644e-11 4:0.4375 5:0.6875 6:0.0625 12:0.75 13:1 14:0.1875 19:0.25 20:1 21:1 27:0.125 28:1 29:1 34:0.0625 35:0.8125 36:1 37:0.75 42:0.4375 43:1 44:0.9375 45:0.875 49:0.125 50:0.9375 51:0.3125 52:0.75 53:0.6875 58:0.125 60:0.4375 61:0.6875 # 0
-1.4559237065146606930311059060774e-10 2:0.4375 3:1 4:0.875 10:0.6875 11:1 12:1 18:0.0625 19:0.625 20:0.9375 27:0.8125 28:0.6875 34:0.125 35:1 36:0.1875 42:0.375 43:0.9375 45:0.125 50:0.625 51:1 52:1 53:0.875 58:0.375 59:1 60:1 61:0.5625 # 0
-6.514098032111622259982610597733e-11 1:0.125 2:0.4375 3:0.6875 4:0.8125 5:1 6:0.875 10:0.5 11:0.4375 12:0.25 13:0.6875 14:0.625 20:0.0625 21:1 22:0.0625 28:0.6875 29:0.375 33:0.14285715 34:0.6875 35:0.75 36:1 37:0.8125 38:0.2857143 41:0.3125 42:0.5625 43:1 44:0.375 45:0.125 50:0.25 51:0.75 58:0.8125 59:0.1875 # 0
-2.5554774388604972053896718583998e-10 3:0.875 4:0.125 10:0.125 11:1 12:0.125 18:0.4375 19:0.8125 26:0.5 27:0.75 34:0.5625 35:0.6875 36:0.25 37:0.125 42:0.6875 43:1 44:1 45:0.9375 46:0.5 50:0.8125 51:0.9375 52:0.125 53:0.125 54:1 55:0.30000001 59:0.6875 60:0.8125 61:0.75 62:0.625 # 0
-5.7964881240753710089038179484418e-12 2:0.125 3:0.625 4:0.75 5:0.875 6:1 7:0.75 10:0.5 11:1 12:1 13:1 14:0.875 15:0.30769232 18:0.125 19:1 20:0.75 21:0.25 26:0.0625 27:1 28:0.9375 29:0.125 35:0.5 36:1 37:0.6875 44:0.8125 45:1 51:0.4375 52:1 53:0.6875 58:0.0625 59:1 60:0.6875 61:0.0625 # 0
-5.3695102687200995228808393160228e-11 2:0.4375 3:0.75 4:0.5 5:0.625 6:0.9375 7:0.125 10:0.25 11:0.5 12:0.625 13:1 14:0.5 20:0.5625 21:0.625 27:0.3125 28:0.875 29:0.125 33:0.42857143 34:1 35:1 36:1 37:0.8125 38:0.071428575 41:0.1875 42:0.375 43:1 50:0.4375 51:0.8125 58:0.625 59:0.625 # 0
-2.7156270086978731428964747721469e-10 3:0.6875 4:0.25 11:0.875 12:0.3125 13:0.0625 18:0.25 19:0.8125 20:0.5 21:0.5 26:0.625 27:0.3125 28:0.625 29:0.375 33:0.21428572 34:1 35:0.3125 36:0.875 37:0.75 38:0.21428572 41:0.5 42:1 43:1 44:0.9375 45:0.875 46:0.375 50:0.25 51:0.5 52:0.5 59:0.5 60:0.5625 # 0
-1.5333519887068973523569074987561e-10 2:0.125 3:0.9375 4:0.75 10:0.1875 11:1 12:0.875 13:0.625 19:0.3125 20:0.8125 21:1 22:0.125 29:0.75 30:0.5 37:0.4375 38:0.78571427 45:0.4375 46:0.8125 50:0.125 52:0.125 53:0.6875 54:0.6875 58:0.1875 59:0.8125 60:0.9375 61:1 62:0.375 # 0
-3.5855018023582509798697099605711e-12 2:0.3125 3:0.875 4:1 5:0.5625 10:0.5 11:1 12:0.875 13:1 14:0.3125 18:0.4375 19:1 20:0.8125 21:1 22:0.25 25:0.5 26:0.8125 27:1 28:1 29:0.75 33:0.21428572 34:0.9375 35:1 36:0.75 37:0.125 42:0.875 43:1 44:0.75 45:0.0625 50:0.9375 51:1 52:1 53:0.25 58:0.4375 59:1 60:0.6875 61:0.0625 # 0
9.850526257523739490848501334651e-12 2:0.125 3:1 4:1 5:0.25 10:0.5 11:1 12:1 13:0.75 18:0.875 19:1 20:1 25:0.125 26:1 27:1 28:0.875 29:0.25 33:0.5714286 34:1 35:1 36:0.625 37:0.125 41:0.5 42:1 43:1 44:0.875 45:0.125 50:1 51:1 52:1 53:0.875 54:0.125 58:0.125 59:0.5 60:1 61:0.625 # 0
-1.4684579816196973798078742445077e-11 2:0.5625 3:0.9375 4:1 5:0.75 6:0.0625 9:0.73333335 10:1 11:1 12:0.8125 13:0.5 14:0.0625 17:0.1875 18:0.9375 19:0.6875 20:0.0625 26:0.5 27:0.875 34:0.1875 35:1 36:0.25 42:0.0625 43:1 44:0.4375 49:0.1875 50:0.9375 51:1 52:0.25 58:0.8125 59:0.9375 # 0
-1.3264417449855983615845677553658e-10 2:0.1875 3:0.875 4:1 5:0.375 9:0.06666667 10:0.8125 11:0.3125 12:0.25 13:0.8125 17:0.3125 18:0.75 21:0.5625 22:0.25 25:0.3125 26:0.5625 29:0.3125 30:0.5 33:0.5714286 34:0.4375 37:0.1875 38:0.5714286 41:0.375 42:0.5625 45:0.125 46:0.5625 50:0.9375 51:0.1875 52:0.0625 53:0.5625 54:0.5 58:0.3125 59:0.9375 60:0.875 61:0.5625 # 0
-1.3369072082387740375834131588038e-10 3:0.125 4:0.5625 11:0.3125 12:0.625 19:0.75 20:0.25 21:0.5 26:0.25 27:0.75 28:0.375 29:0.8125 34:0.625 35:0.5 36:0.5 37:0.625 41:0.4375 42:1 43:0.8125 44:1 45:0.9375 46:0.125 49:0.375 50:0.625 51:0.6875 52:1 53:0.5 59:0.25 60:0.8125 # 0
-7.6336452811052734769779706936436e-11 3:0.25 4:0.875 11:0.8125 12:0.5625 18:0.125 19:1 20:0.125 25:0.0625 26:0.75 27:0.6875 28:0.0625 29:0.375 30:0.125 33:0.64285713 34:1 35:1 36:1 37:1 38:0.14285715 42:0.4375 43:0.5625 44:1 45:0.5 51:0.375 52:1 53:0.3125 59:0.4375 60:0.8125 61:0.0625 # 0
-3.7801478105595358150163176917999e-12 2:0.5625 3:1 4:0.375 9:0.13333334 10:0.875 11:1 12:1 13:0.5 14:0.1875 18:0.875 19:1 20:1 21:1 22:0.6875 26:0.875 27:1 28:0.75 29:0.3125 30:0.0625 34:0.5625 35:1 36:0.3125 42:0.9375 43:1 44:0.3125 50:1 51:1 52:0.5 58:0.625 59:0.8125 60:0.0625 # 0
-2.2664882576956215227183442164606e-11 3:0.6875 4:0.6875 11:0.875 12:0.6875 17:0.0625 18:0.75 19:0.9375 20:0.125 25:0.5 26:1 27:0.5 28:0.6875 29:0.375 30:0.125 33:0.35714287 34:0.9375 35:1 36:1 37:1 38:0.78571427 42:0.0625 43:0.5625 44:1 45:0.4375 46:0.0625 51:0.5 52:1 53:0.1875 59:0.5625 60:1 61:0.0625 # 0
-2.3703572600355271274345835958587e-11 2:0.125 3:0.75 4:1 5:0.4375 11:0.625 12:1 13:0.1875 19:0.1875 20:0.9375 21:0.3125 28:0.375 29:0.9375 30:0.1875 37:0.5 38:1 45:0.6875 46:1 51:0.1875 52:0.8125 53:1 54:0.5625 58:0.375 59:1 60:0.75 61:0.5 62:0.0625 # 0
-6.8898580684572423062307326696715e-11 2:0.0625 3:0.75 4:1 5:1 6:0.75 11:0.4375 12:0.25 13:0.6875 14:0.8125 21:0.5 22:0.6875 27:0.0625 28:0.25 29:0.75 30:0.5 35:0.75 36:1 37:1 38:0.5714286 43:0.1875 44:0.75 45:0.375 51:0.375 52:0.875 59:0.9375 60:0.3125 # 0
-2.4051966841973714601513846506873e-11 2:0.0625 3:0.75 4:0.9375 5:0.375 10:0.3125 11:0.8125 12:0.0625 13:0.75 18:0.125 19:0.6875 20:0.0625 21:0.9375 27:0.625 28:0.6875 29:0.5625 35:0.375 36:1 37:0.375 42:0.625 43:0.9375 44:0.25 45:0.8125 46:0.1875 50:0.75 51:0.125 53:0.0625 54:0.875 58:0.0625 59:0.625 60:0.625 61:0.5 62:0.9375 63:0.06666667 # 0
-2.0450568770989337927288429609196e-11 2:0.1875 3:0.75 4:1 5:0.5 10:0.75 11:0.75 12:0.9375 13:0.75 20:0.4375 21:0.75 28:0.8125 29:0.4375 34:0.25 35:0.9375 36:1 37:0.5625 38:0.071428575 42:0.3125 43:0.9375 44:1 45:1 46:0.1875 51:0.875 52:0.875 53:0.3125 58:0.25 59:0.9375 60:0.1875 # 0
-3.3888032929785879432814057042752e-11 2:0.3125 3:0.9375 4:0.5 9:0.13333334 10:0.9375 11:0.5625 12:0.625 13:0.1875 14:0.0625 17:0.375 18:0.5625 19:0.4375 20:0.6875 21:0.875 22:0.0625 25:0.125 26:0.9375 27:0.8125 28:0.5 29:0.125 33:0.071428575 34:0.9375 35:0.375 41:0.0625 42:1 43:0.75 49:0.0625 50:1 51:0.8125 52:0.0625 58:0.5 59:0.9375 60:0.1875 # 0
-1.2066459411300884901860605233765e-11 2:0.625 3:0.8125 4:0.5625 9:0.33333334 10:0.6875 11:0.0625 12:0.6875 13:0.3125 17:0.375 18:0.4375 20:0.375 21:0.875 25:0.125 26:0.875 27:0.5 28:0.5625 29:1 30:0.0625 34:0.125 35:0.5 36:0.3125 37:0.8125 38:0.2857143 45:0.4375 46:0.5625 50:0.1875 51:0.125 53:0.3125 54:0.6875 58:0.5 59:0.9375 60:0.8125 61:0.875 62:0.1875 # 0
-6.5940153602819514942546332984851e-12 2:0.375 3:0.75 4:1 5:0.9375 6:0.0625 11:0.25 12:0.375 13:1 14:0.1875 20:0.375 21:1 22:0.125 26:0.125 27:0.3125 28:0.75 29:0.9375 30:0.25 33:0.071428575 34:0.6875 35:0.9375 36:1 37:0.75 38:0.2857143 43:0.5 44:0.75 51:1 52:0.375 58:0.3125 59:0.8125 # 0
