SVM-light Version V6.02
1 # kernel type
8 # kernel parameter -d 
1 # kernel parameter -g 
1 # kernel parameter -s 
1 # kernel parameter -r 
empty# kernel parameter -u 
63 # highest feature index 
2823 # number of training documents 
163 # number of support vectors plus 1 
0.55342283 # threshold b, each following line is a SV (starting with alpha*y)
-3.1760281275536423778853078706442e-10 2:0.25 3:0.625 10:0.125 11:0.9375 12:0.125 18:0.125 19:1 20:0.25 26:0.4375 27:1 28:0.5625 34:0.875 35:0.875 36:0.875 42:0.1875 43:0.1875 44:1 45:0.1875 50:0.0625 51:0.4375 52:0.875 53:0.6875 54:0.25 58:0.25 59:0.875 60:1 61:0.8125 62:0.875 63:0.53333336 # 0
-5.4226308983495043927184372215987e-11 3:0.5 4:0.875 5:0.1875 10:0.0625 11:1 12:0.9375 13:0.4375 18:0.4375 19:0.9375 20:0.3125 25:0.1875 26:0.875 27:0.875 28:0.3125 33:0.21428572 34:1 35:0.625 36:0.75 37:0.625 42:0.6875 43:0.3125 45:0.875 46:0.125 50:0.1875 51:0.6875 52:0.375 53:0.875 54:0.0625 59:0.4375 60:0.9375 61:0.375 # 0
5.6963560539746646189488178476539e-10 2:0.875 3:0.3125 10:0.8125 11:0.5 18:1 19:0.4375 26:0.9375 27:0.5 33:0.14285715 34:1 35:0.3125 36:0.9375 37:0.1875 41:0.125 42:1 43:0.5625 44:0.875 45:0.6875 46:0.0625 49:0.375 50:1 51:1 52:1 53:1 54:0.9375 57:0.1 58:0.5 59:0.3125 60:0.4375 61:1 62:0.5 # 0
-6.1916145908812855240276061313722e-10 3:0.5 4:0.9375 5:1 6:0.4375 9:0.06666667 10:0.875 11:0.5625 12:0.0625 14:0.5 17:0.375 18:0.75 21:0.625 22:0.5 25:0.25 26:0.875 27:0.75 28:0.8125 29:0.875 30:0.5 36:0.0625 37:0.25 38:0.5714286 45:0.25 46:0.5 53:0.4375 54:0.5 59:0.5 60:0.75 61:0.9375 62:0.375 # 0
-9.5511902707032655358947166004453e-11 2:0.1875 3:0.75 4:0.9375 5:0.125 9:0.13333334 10:0.9375 11:0.375 17:0.25 18:0.875 19:0.125 20:0.5625 21:0.875 22:0.5 25:0.0625 26:0.8125 27:1 28:0.875 29:0.25 34:0.5 35:1 36:0.375 42:0.6875 43:0.6875 44:0.9375 50:0.6875 51:0.3125 52:0.75 53:0.125 58:0.1875 59:0.75 60:0.9375 61:0.1875 # 0
-2.3264405323027204497381837641811e-09 3:0.3125 4:0.75 5:0.6875 6:0.0625 10:0.1875 11:0.875 12:0.375 13:0.4375 14:0.6875 17:0.3125 18:1 19:0.125 20:0.0625 21:0.5625 22:0.5625 25:0.5 26:0.875 27:0.5 28:0.875 29:1 30:0.0625 33:0.071428575 34:0.4375 35:0.5 36:0.8125 37:0.625 43:0.0625 44:0.875 45:0.25 51:0.3125 52:0.8125 59:0.6875 60:0.4375 # 0
-3.4719965864820136895991793675551e-10 4:0.9375 5:0.3125 11:0.3125 12:1 13:0.5625 18:0.0625 19:0.9375 20:1 21:0.3125 25:0.375 26:0.8125 27:1 28:1 29:0.4375 33:0.5 34:1 35:0.625 36:1 37:0.375 43:0.125 44:1 45:0.375 51:0.125 52:1 53:0.375 59:0.0625 60:0.9375 61:0.75 # 0
1.3691023304651172435071657159235e-09 3:0.4375 4:0.3125 6:0.0625 10:0.3125 11:0.8125 12:0.0625 14:0.875 15:0.30769232 17:0.0625 18:1 19:0.1875 21:0.5625 22:0.4375 25:0.1875 26:1 27:0.4375 28:0.25 29:1 30:0.1875 33:0.14285715 34:0.9375 35:1 36:1 37:0.875 38:0.2857143 44:0.875 45:0.375 51:0.1875 52:1 53:0.0625 59:0.5 60:0.4375 # 0
-2.7347266933591034003830342829599e-10 3:0.5625 4:1 5:0.625 10:0.1875 11:0.9375 12:0.75 13:0.9375 14:0.25 17:0.0625 18:0.75 19:0.875 20:0.0625 21:0.9375 22:0.6875 25:0.5 26:1 27:0.75 28:0.875 29:1 30:0.4375 33:0.5 34:1 35:1 36:1 37:0.75 42:0.4375 43:0.5 44:1 45:0.3125 51:0.5 52:0.8125 59:0.5625 60:0.6875 # 0
-6.6584649929622336335970489796588e-11 4:0.0625 5:0.875 6:0.25 12:0.125 13:1 14:0.5 20:0.5 21:1 22:0.375 28:0.9375 29:1 30:0.3125 35:0.5 36:1 37:1 38:0.21428572 42:0.375 43:1 44:0.5625 45:1 49:0.125 50:1 51:0.5 52:0.25 53:1 57:0.2 58:0.25 60:0.125 61:0.9375 62:0.1875 # 0
2.5448206656409775747389050463369e-10 3:0.8125 4:0.25 10:0.25 11:1 12:0.5625 13:0.5625 18:0.75 19:0.5 20:0.625 21:0.5625 25:0.4375 26:0.9375 27:0.25 28:0.9375 29:0.5 30:0.0625 33:0.78571427 34:1 35:1 36:1 37:1 38:0.71428573 41:0.0625 42:0.25 43:0.625 44:0.75 51:0.75 52:0.5 59:0.75 60:0.3125 # 0
-1.4575053611082590401456251102627e-10 2:0.3125 3:0.8125 4:0.5 5:0.1875 6:0.3125 9:0.13333334 10:1 11:0.6875 12:0.1875 13:0.125 14:0.1875 17:0.4375 18:0.8125 19:0.25 20:0.25 25:0.3125 26:1 27:0.75 28:0.875 29:0.6875 36:0.125 37:0.875 38:0.14285715 45:0.8125 46:0.1875 50:0.625 51:0.25 52:0.375 53:0.8125 58:0.375 59:0.875 60:0.8125 61:0.1875 # 0
1.9786544253793396015643980522252e-10 2:0.875 3:0.5625 10:0.5 11:1 18:0.5 19:0.75 21:0.125 22:0.0625 26:0.75 27:0.5 29:0.8125 30:0.5625 33:0.071428575 34:1 35:0.25 37:1 38:0.5714286 41:0.3125 42:1 45:0.9375 46:0.375 49:0.5 50:1 51:1 52:1 53:1 54:0.75 57:0.1 58:0.5 59:0.5 60:0.5 61:0.8125 62:0.4375 # 0
1.7775687126399729156306270635339e-09 4:0.8125 5:0.3125 11:0.5625 12:0.8125 13:0.0625 18:0.5 19:0.875 20:0.0625 21:0.3125 22:0.4375 25:0.25 26:1 27:0.875 28:0.8125 29:1 30:0.5 33:0.14285715 34:0.5 35:0.5 36:0.75 37:1 38:0.14285715 44:0.625 45:0.8125 52:0.875 53:0.5625 60:0.8125 61:0.1875 # 0
6.835230756765535368256477091628e-11 2:0.0625 3:0.875 4:0.375 5:0.5625 6:0.3125 10:0.6875 11:0.75 12:0.1875 13:1 14:0.4375 17:0.3125 18:1 19:0.125 20:0.75 21:0.6875 22:0.1875 25:0.625 26:1 27:0.5 28:1 29:1 30:0.875 33:0.5 34:1 35:1 36:0.875 37:0.6875 38:0.21428572 42:0.1875 43:0.8125 44:0.5 51:0.9375 52:0.3125 58:0.125 59:1 60:0.125 # 0
-1.1049700968872867759267895945827e-10 3:0.1875 4:0.8125 5:0.125 11:0.5625 12:1 13:0.125 18:0.125 19:0.9375 20:1 21:0.25 25:0.125 26:0.8125 27:1 28:1 29:0.125 33:0.2857143 34:0.75 35:0.5 36:1 37:0.4375 43:0.25 44:1 45:0.5625 51:0.3125 52:1 53:1 59:0.125 60:0.9375 61:0.5625 # 0
2.3860631969914175697130885495957e-10 3:0.0625 4:0.8125 5:0.8125 10:0.3125 11:0.9375 12:0.9375 13:1 17:0.1875 18:0.9375 19:0.5 20:0.4375 21:0.875 25:0.6875 26:0.9375 27:0.5625 28:0.9375 29:1 30:0.5625 33:0.5714286 34:1 35:0.875 36:0.9375 37:0.9375 38:0.35714287 44:0.75 45:0.5 52:0.75 53:0.375 60:0.75 61:0.25 # 0
-8.0237125807323922398789368457916e-11 1:0.25 2:0.875 3:0.875 4:0.0625 9:0.26666668 10:1 11:0.6875 12:0.25 13:0.375 17:0.25 18:1 19:0.25 20:0.75 21:1 22:0.125 26:0.8125 27:1 28:1 29:0.375 34:0.8125 35:1 36:0.625 42:0.9375 43:1 44:0.25 49:0.25 50:1 51:1 52:0.4375 57:0.2 58:0.8125 59:0.9375 60:0.0625 # 0
-1.0139861826814700194396479096992e-09 3:0.0625 4:0.75 5:0.25 10:0.0625 11:0.875 12:1 13:0.6875 18:0.5625 19:0.8125 20:0.3125 21:0.9375 22:0.25 25:0.125 26:1 27:0.125 29:1 30:0.1875 33:0.071428575 34:1 35:0.4375 36:0.4375 37:1 38:0.2857143 42:0.8125 43:1 44:1 45:1 46:0.0625 50:0.0625 51:0.8125 52:1 53:0.8125 59:0.1875 60:0.75 61:0.3125 # 0
4.6137056487076260837122624249994e-10 2:0.125 3:0.8125 4:0.375 6:0.25 10:0.8125 11:0.6875 13:0.125 14:0.9375 15:0.23076923 17:0.25 18:1 19:0.125 21:0.8125 22:0.5 25:0.1875 26:1 27:1 28:0.75 29:1 30:0.4375 34:0.125 35:0.4375 36:0.9375 37:0.625 38:0.071428575 43:0.25 44:0.8125 51:0.8125 52:0.3125 58:0.125 59:0.75 # 0
-1.1097182661440875297088769599012e-11 2:0.625 3:0.5 10:0.8125 11:0.6875 17:0.0625 18:1 19:0.4375 25:0.25 26:1 27:0.1875 33:0.2857143 34:1 35:0.5625 36:0.6875 37:0.625 38:0.071428575 41:0.5 42:1 43:1 44:1 45:1 46:0.4375 49:0.25 50:1 51:1 52:1 53:1 54:0.3125 58:0.5 59:0.9375 60:1 61:0.75 # 0
1.2058665410779798479524823234436e-16 4:0.375 5:0.5625 11:0.4375 12:0.9375 13:0.25 18:0.1875 19:0.875 20:0.4375 26:0.5625 27:0.5625 29:0.8125 30:0.1875 33:0.14285715 34:1 35:0.125 36:0.125 37:1 41:0.5 42:1 43:0.875 44:1 45:1 46:0.375 49:0.125 50:0.25 51:0.25 52:0.75 53:0.5 60:0.5625 61:0.6875 # 0
-2.3184551385257562537132160299666e-09 3:0.0625 4:0.5625 5:0.8125 6:0.3125 10:0.1875 11:0.8125 12:0.625 13:0.75 14:0.5625 18:0.6875 19:0.5 21:0.8125 22:0.1875 25:0.0625 26:0.9375 27:0.875 28:0.6875 29:1 30:0.125 34:0.0625 35:0.5 36:0.625 37:0.875 44:0.4375 45:0.8125 52:0.625 53:0.5625 60:0.8125 61:0.3125 # 0
-9.8104312132381969458919282734398e-11 3:0.625 4:0.75 10:0.25 11:1 12:0.4375 13:0.0625 18:0.6875 19:0.5 26:0.75 27:0.3125 34:0.875 35:0.125 36:0.1875 37:0.25 38:0.071428575 42:0.6875 43:0.625 44:1 45:0.8125 46:0.8125 50:0.4375 51:1 52:0.4375 54:0.6875 55:0.5 59:0.5 60:0.9375 61:1 62:0.8125 63:0.06666667 # 0
9.8092086209464471705413865184643e-10 3:0.1875 4:0.8125 11:0.75 12:0.5 18:0.3125 19:0.875 20:0.125 25:0.0625 26:0.9375 27:0.25 29:0.1875 30:0.5 33:0.9285714 34:0.9375 35:0.75 36:0.5625 37:0.8125 38:0.71428573 41:0.3125 42:0.5 43:0.5 44:0.9375 45:0.875 46:0.125 51:0.125 52:0.875 53:0.3125 59:0.375 60:0.75 # 0
-2.2988903138666018461866836800566e-10 2:0.1875 3:0.875 4:1 5:0.375 9:0.06666667 10:0.8125 11:0.3125 12:0.25 13:0.8125 17:0.3125 18:0.75 21:0.5625 22:0.25 25:0.3125 26:0.5625 29:0.3125 30:0.5 33:0.5714286 34:0.4375 37:0.1875 38:0.5714286 41:0.375 42:0.5625 45:0.125 46:0.5625 50:0.9375 51:0.1875 52:0.0625 53:0.5625 54:0.5 58:0.3125 59:0.9375 60:0.875 61:0.5625 # 0
9.6774606666400412424408247600736e-10 2:0.625 3:0.4375 9:0.06666667 10:0.875 11:0.5 17:0.3125 18:1 19:0.1875 20:0.125 21:0.5 22:0.25 25:0.4375 26:1 27:0.875 28:1 29:0.9375 30:0.3125 34:0.25 35:0.5 36:1 37:0.75 43:0.375 44:1 45:0.125 50:0.3125 51:1 52:0.4375 58:0.6875 59:0.5625 # 0
-1.6960807843172064325810479794288e-10 2:0.125 3:0.875 4:0.9375 5:0.125 10:0.8125 11:0.9375 12:0.875 13:0.5 18:1 19:0.375 20:0.6875 21:0.625 25:0.0625 26:0.5625 27:0.5 28:0.9375 29:0.5625 33:0.71428573 34:1 35:1 36:1 37:1 38:0.64285713 41:0.0625 42:0.25 43:0.5 44:1 45:0.3125 46:0.3125 51:0.875 52:0.8125 58:0.125 59:1 60:0.375 # 0
-4.7430616124355008548032538166122e-10 2:0.75 3:1 4:0.375 9:0.46666667 10:0.75 11:0.25 12:0.875 17:0.6875 18:0.875 20:0.375 21:0.25 25:0.375 26:0.5 28:0.4375 29:0.25 36:0.625 37:0.1875 43:0.3125 44:0.8125 50:0.1875 51:0.875 52:0.625 58:0.875 59:0.8125 60:0.75 61:0.9375 62:0.8125 63:0.06666667 # 0
6.5016387194821199857317181353307e-10 4:0.4375 5:0.4375 11:0.25 12:0.9375 13:0.0625 19:0.8125 20:0.375 21:0.5625 22:0.0625 26:0.5 27:0.75 29:0.875 30:0.1875 33:0.21428572 34:1 35:0.1875 36:0.125 37:1 41:0.3125 42:1 43:1 44:0.8125 45:1 46:0.25 50:0.0625 51:0.4375 52:0.75 53:0.875 54:0.125 60:0.5625 61:0.625 # 0
-2.3163740417956244318414595158084e-10 2:0.0625 3:0.8125 4:0.1875 10:0.25 11:0.9375 12:0.0625 18:0.5625 19:0.625 26:0.625 27:0.6875 34:0.6875 35:0.75 36:0.375 37:0.3125 42:0.875 43:1 44:1 45:1 46:0.5 50:1 51:1 52:0.6875 53:0.75 54:0.8125 58:0.1875 59:0.5 60:0.875 61:0.625 62:0.375 # 0
7.8426695088415741431752915556225e-10 2:0.8125 3:0.1875 9:0.26666668 10:1 11:0.25 13:0.375 14:0.75 17:0.5625 18:0.9375 20:0.375 21:1 22:0.4375 25:0.375 26:1 27:0.6875 28:1 29:0.5625 34:0.5625 35:1 36:0.875 37:0.1875 42:0.375 43:0.9375 44:0.1875 50:0.8125 51:0.5625 58:0.9375 59:0.4375 # 0
-6.6739939596253846743275205951685e-10 2:0.3125 3:0.75 4:0.9375 5:0.875 6:0.625 7:0.1875 10:0.25 11:0.4375 12:0.25 13:0.3125 14:0.875 15:0.23076923 21:0.5625 22:0.6875 28:0.25 29:1 30:0.25 33:0.14285715 34:0.5 35:0.5625 36:1 37:0.625 41:0.1875 42:0.75 43:1 44:0.5625 50:0.3125 51:0.875 58:0.375 59:0.5625 # 0
-7.5025311147322135592049365738934e-10 2:0.5625 3:1 4:1 5:0.875 9:0.2 10:0.9375 11:0.625 12:0.125 13:0.3125 17:0.6875 18:0.5625 25:0.5 26:0.875 27:0.0625 33:0.071428575 34:0.9375 35:0.3125 42:0.6875 43:0.5625 50:0.5625 51:0.75 58:0.875 59:0.5625 # 0
-5.4375582463363721390067473890893e-11 4:0.1875 5:1 6:0.375 11:0.3125 12:0.9375 13:1 14:0.5625 17:0.0625 18:0.625 19:1 20:0.9375 21:1 22:0.5 25:0.625 26:1 27:0.75 28:0.125 29:1 30:0.3125 33:0.071428575 34:0.375 36:0.25 37:1 38:0.2857143 44:0.3125 45:1 46:0.0625 52:0.375 53:1 54:0.1875 60:0.1875 61:1 62:0.5625 # 0
-1.7876502911728478866023600743452e-10 4:0.4375 5:0.9375 12:0.625 13:1 14:0.0625 18:0.125 19:0.6875 20:1 21:1 25:0.4375 26:1 27:0.875 28:0.6875 29:1 30:0.1875 33:0.071428575 34:0.125 36:0.5 37:1 38:0.21428572 44:0.25 45:1 46:0.25 52:0.25 53:1 54:0.1875 60:0.375 61:0.9375 62:0.125 # 0
4.6000487718089401395892534864522e-10 3:0.8125 4:0.4375 10:0.5625 11:1 12:0.25 17:0.0625 18:0.875 19:0.6875 25:0.4375 26:1 27:0.4375 28:0.375 29:1 30:0.3125 34:0.625 35:0.875 36:1 37:0.875 38:0.071428575 43:0.5 44:1 45:0.375 51:0.9375 52:0.375 59:1 60:0.5625 # 0
-3.932281840137772430091542138163e-10 3:0.625 4:0.8125 5:0.3125 10:0.6875 11:0.75 12:0.5 13:0.9375 14:0.125 17:0.375 18:1 19:0.0625 20:0.0625 21:0.875 22:0.25 25:0.375 26:1 27:0.5 28:0.8125 29:1 30:0.3125 33:0.14285715 34:0.8125 35:0.75 36:1 37:0.75 44:0.875 45:0.375 51:0.25 52:0.875 53:0.0625 59:0.6875 60:0.3125 # 0
3.2808230292953131553121419352725e-09 2:0.4375 3:0.8125 6:0.1875 7:0.5 10:0.9375 11:0.4375 13:0.1875 14:0.9375 15:0.53846157 18:1 19:0.75 20:0.375 21:0.875 22:0.5625 26:0.375 27:0.75 28:1 29:0.75 35:0.125 36:0.875 37:0.125 43:0.5625 44:0.5625 50:0.125 51:0.8125 52:0.0625 58:0.5 59:0.3125 # 0
2.9536356528444736453341177273015e-10 2:0.75 3:0.5 4:0.125 10:1 11:0.375 12:0.875 13:0.375 17:0.125 18:1 19:0.625 20:1 25:0.625 26:0.8125 27:0.875 28:0.625 29:0.25 30:0.0625 33:0.5714286 34:1 35:1 36:1 37:1 38:0.71428573 42:0.8125 43:0.9375 44:0.25 45:0.25 46:0.0625 50:0.75 51:0.75 57:0.1 58:0.875 59:0.3125 # 0
4.7198418936994408522363420510279e-10 2:0.375 3:0.6875 10:0.8125 11:0.4375 13:0.3125 14:1 15:0.15384616 17:0.0625 18:1 19:0.4375 20:0.6875 21:1 22:0.5625 26:0.375 27:0.75 28:1 29:0.6875 35:0.4375 36:0.875 37:0.125 43:0.875 44:0.5 50:0.375 51:1 52:0.125 58:0.5625 59:0.8125 # 0
-6.0984820153336358530986345205462e-10 3:0.0625 4:0.625 5:1 6:0.375 10:0.1875 11:0.875 12:0.5 13:0.375 14:1 15:0.46153846 18:0.6875 19:0.25 21:0.375 22:1 23:0.33333334 25:0.25 26:0.75 27:0.125 28:0.3125 29:1 30:0.6875 33:0.42857143 34:1 35:0.9375 36:0.5 37:0.9375 38:0.2857143 44:0.25 45:0.5625 52:0.625 53:0.25 59:0.0625 60:0.8125 61:0.0625 # 0
-2.8739419063536143924016762474509e-10 4:0.5 5:1 6:0.6875 11:0.8125 12:0.5625 13:0.5 14:0.875 15:0.07692308 18:0.625 19:0.5 21:0.3125 22:1 23:0.66666669 25:0.125 26:0.9375 27:0.5 28:0.875 29:0.875 30:0.75 33:0.14285715 34:0.75 35:0.5625 36:0.125 37:0.625 38:0.42857143 44:0.125 45:0.875 52:0.5625 53:0.4375 60:0.8125 61:0.0625 # 0
-1.6500381387805032957341649424622e-10 2:0.125 3:0.75 4:1 5:0.4375 11:0.625 12:1 13:0.1875 19:0.1875 20:0.9375 21:0.3125 28:0.375 29:0.9375 30:0.1875 37:0.5 38:1 45:0.6875 46:1 51:0.1875 52:0.8125 53:1 54:0.5625 58:0.375 59:1 60:0.75 61:0.5 62:0.0625 # 0
-2.1033305894252229595961011527207e-10 2:0.6875 3:0.9375 4:0.625 9:0.13333334 10:0.8125 12:0.5625 13:0.1875 17:0.1875 18:0.75 20:0.625 26:0.6875 27:0.75 28:0.75 35:0.6875 36:0.875 37:0.375 41:0.0625 42:0.5625 43:0.3125 45:0.625 46:0.3125 49:0.25 50:0.625 53:0.5 54:0.25 57:0.1 58:0.875 59:0.6875 60:0.875 61:0.625 # 0
-1.0120665868731721983037950113836e-10 2:0.5625 3:1 4:0.4375 10:1 11:1 12:0.875 18:0.1875 19:0.8125 20:1 26:0.4375 27:1 28:1 29:0.75 30:0.5 34:0.5 35:1 36:1 37:1 38:0.64285713 43:0.875 44:0.6875 50:0.25 51:1 52:0.3125 58:0.4375 59:0.75 # 0
3.1290218958280593679086985058188e-09 4:0.375 5:0.6875 11:0.1875 12:0.9375 13:0.75 18:0.3125 19:0.875 20:0.625 21:0.75 25:0.125 26:0.9375 27:0.375 28:0.3125 29:0.5625 33:0.42857143 34:0.9375 35:0.75 36:0.9375 37:1 38:0.5714286 41:0.0625 42:0.5 43:0.5 44:0.75 45:0.75 46:0.125 52:0.5 53:0.5 60:0.3125 61:0.6875 # 0
2.0144658862641864834319479896953e-09 3:0.375 4:0.5 11:0.9375 12:0.1875 18:0.125 19:0.875 20:0.125 21:0.6875 26:0.5625 27:0.5 28:0.3125 29:0.625 34:0.875 35:0.125 36:0.5 37:0.4375 38:0.14285715 41:0.25 42:1 43:0.5625 44:0.875 45:1 46:0.5 49:0.125 50:0.5 51:0.75 52:1 53:0.3125 54:0.125 59:0.375 60:0.8125 61:0.125 # 0
2.0323451964521632482286704894821e-09 3:0.4375 4:0.6875 11:0.6875 12:0.3125 13:0.125 18:0.1875 19:0.875 20:0.1875 21:0.875 26:0.5 27:0.375 28:0.4375 29:0.4375 33:0.071428575 34:0.9375 35:0.25 36:0.75 37:0.5625 38:0.2857143 41:0.3125 42:1 43:1 44:1 45:0.9375 46:0.5 49:0.0625 50:0.0625 51:0.375 52:0.625 59:0.625 60:0.5625 # 0
-4.2292970305093312607551885432043e-10 1:0.125 2:0.8125 3:0.3125 9:0.26666668 10:0.875 17:0.25 18:0.5 20:0.0625 21:0.375 22:0.0625 25:0.3125 26:0.5 27:0.0625 28:0.6875 29:1 30:0.3125 33:0.2857143 34:0.625 35:0.4375 36:1 37:1 38:0.5 41:0.25 42:0.875 43:0.625 44:1 45:1 46:0.1875 49:0.0625 50:1 51:1 52:1 53:0.625 58:0.625 59:0.875 60:0.5625 61:0.125 # 0
-6.3893684054576542281291506329347e-11 3:0.0625 4:0.75 5:0.25 11:0.5625 12:0.875 18:0.125 19:1 20:0.3125 26:0.3125 27:1 28:0.5625 29:0.125 33:0.14285715 34:1 35:1 36:0.8125 37:1 38:0.5714286 42:0.5625 43:0.9375 45:0.125 46:0.9375 51:0.9375 52:0.5 53:0.5 54:1 55:0.30000001 59:0.1875 60:0.6875 61:0.8125 62:0.625 # 0
1.4844316016949554286444291534871e-09 3:0.0625 4:0.8125 5:0.75 6:0.1875 10:0.375 11:0.8125 12:0.6875 13:0.75 14:0.625 17:0.375 18:1 19:0.6875 20:0.25 21:0.8125 22:0.4375 25:0.5 26:1 27:1 28:1 29:1 30:0.625 34:0.25 35:0.25 36:0.4375 37:1 38:0.35714287 44:0.75 45:0.5 52:0.8125 53:0.4375 60:0.9375 61:0.25 # 0
6.4888650717386876457946828642602e-10 3:0.8125 4:0.4375 10:0.3125 11:0.8125 12:0.1875 13:0.8125 14:0.125 18:0.875 19:0.375 20:0.25 21:1 25:0.3125 26:1 27:0.5625 28:0.875 29:1 30:0.625 33:0.35714287 34:1 35:0.9375 36:1 37:0.4375 38:0.14285715 43:0.625 44:0.6875 51:0.8125 52:0.375 59:1 60:0.0625 # 0
7.3735580194741862981441338984996e-10 3:0.3125 4:0.5 10:0.25 11:1 12:0.125 14:0.875 18:0.5625 19:0.5 21:0.5 22:0.5 25:0.125 26:0.9375 28:0.0625 29:0.9375 33:0.71428573 34:0.5625 35:0.25 36:0.5625 37:0.9375 38:0.071428575 41:0.6875 42:1 43:1 44:1 45:0.6875 46:0.0625 49:0.1875 50:0.25 51:0.4375 52:0.5625 59:0.5 60:0.3125 # 0
1.353076965336014485005873057258e-09 3:0.375 4:0.5 10:0.125 11:0.875 12:0.1875 18:0.5625 19:0.5 25:0.25 26:0.9375 27:0.0625 29:0.625 30:0.3125 33:0.5 34:0.8125 36:0.125 37:1 38:0.21428572 41:0.6875 42:0.875 43:0.5 44:0.9375 45:0.5625 49:0.75 50:1 51:0.875 52:0.9375 57:0.1 58:0.25 59:0.5625 60:0.5 # 0
-8.4383136851000568702512931718561e-11 1:0.25 2:1 3:0.9375 4:0.25 9:0.26666668 10:1 11:0.875 12:0.5625 13:0.1875 14:0.3125 17:0.25 18:0.9375 19:0.4375 20:1 21:1 22:0.5 25:0.0625 26:0.9375 27:1 28:0.9375 29:0.375 34:0.625 35:1 36:0.25 41:0.0625 42:0.875 43:1 44:0.125 49:0.4375 50:0.625 51:1 57:0.2 58:0.875 59:0.6875 # 0
-7.8063085192856323219859042575011e-11 1:0.125 2:0.375 3:0.6875 4:1 5:0.375 10:0.3125 11:0.8125 12:0.6875 13:1 14:0.375 18:0.25 19:1 20:0.5 26:0.3125 27:0.9375 33:0.071428575 34:0.8125 35:0.625 36:0.25 41:0.375 42:0.625 43:0.25 44:0.5 49:0.5 50:0.4375 51:0.75 52:0.4375 57:0.2 58:0.8125 59:0.875 # 0
-7.0547568909550825337775084353091e-10 2:0.4375 3:0.8125 4:1 5:0.6875 6:0.25 9:0.06666667 10:1 11:0.3125 12:0.125 13:0.8125 14:0.75 17:0.25 18:0.875 20:0.25 21:0.9375 22:0.25 25:0.125 26:0.9375 27:0.8125 28:1 29:0.5 34:0.0625 35:0.5 36:0.9375 37:0.0625 42:0.0625 43:0.8125 44:0.3125 50:0.5625 51:0.625 58:0.75 59:0.375 # 0
1.2218936946449523937925695714042e-09 3:0.4375 4:0.625 10:0.4375 11:1 12:0.3125 18:0.875 19:0.6875 25:0.25 26:1 27:0.3125 28:0.25 29:0.5 33:0.21428572 34:1 35:1 36:1 37:0.875 41:0.0625 42:0.375 43:0.5 44:1 45:0.4375 51:0.1875 52:1 53:0.3125 59:0.5625 60:0.8125 61:0.125 # 0
2.4652217541212450420804087620336e-10 2:0.1875 3:1 4:0.1875 10:0.6875 11:0.8125 12:0.0625 13:0.0625 17:0.375 18:0.875 19:0.125 20:0.5625 21:0.75 25:0.5625 26:0.75 28:0.875 29:0.3125 30:0.0625 33:0.5 34:1 35:0.75 36:1 37:1 38:0.78571427 42:0.375 43:0.6875 44:0.9375 45:0.3125 46:0.0625 51:0.6875 52:0.625 58:0.1875 59:1 60:0.25 # 0
-2.1729877945412684934099389998926e-10 3:0.25 4:0.875 10:0.125 11:0.9375 12:0.4375 18:0.625 19:0.6875 25:0.1875 26:0.9375 27:0.125 33:0.42857143 34:0.75 35:0.4375 36:0.625 37:0.25 41:0.3125 42:0.9375 43:1 44:0.8125 45:0.9375 46:0.25 50:0.5 51:1 52:0.5 53:0.8125 54:0.75 59:0.5 60:0.875 61:0.8125 62:0.375 # 0
-1.3964609995749395549321900183656e-10 2:0.0625 3:0.6875 4:0.1875 10:0.8125 11:0.9375 12:0.8125 17:0.1875 18:1 19:0.125 20:0.5 21:0.3125 25:0.375 26:1 27:0.875 28:0.9375 29:0.875 30:0.125 33:0.14285715 34:0.875 35:1 36:1 37:1 38:0.35714287 42:0.0625 43:0.25 44:0.1875 45:0.5625 46:0.375 50:0.25 51:0.375 52:0.625 53:1 54:0.3125 58:0.0625 59:0.6875 60:0.625 61:0.25 # 0
8.0392498144319980573587885940251e-10 3:0.125 4:0.9375 5:0.125 11:0.625 12:0.5 14:0.5 15:0.23076923 18:0.375 19:0.75 21:0.1875 22:0.9375 25:0.125 26:0.875 27:0.0625 29:0.75 30:0.5 33:0.64285713 34:0.9375 35:0.75 36:1 37:1 38:0.35714287 41:0.1875 42:0.5 43:0.3125 44:0.6875 45:0.625 51:0.0625 52:0.9375 53:0.25 59:0.1875 60:0.5625 # 0
6.8499657663748679886929079547726e-10 4:0.5 5:0.6875 11:0.125 12:0.875 13:0.375 19:0.6875 20:0.5625 21:0.125 22:0.1875 26:0.5625 27:0.75 28:0.0625 29:0.6875 30:0.5625 33:0.2857143 34:1 35:0.375 37:0.8125 38:0.35714287 41:0.5 42:1 43:1 44:1 45:1 51:0.1875 52:0.5 53:0.9375 60:0.375 61:0.75 # 0
-4.9628683854293741410184669001762e-10 4:0.25 5:1 6:0.3125 11:0.125 12:0.9375 13:1 14:0.25 18:0.0625 19:0.8125 20:1 21:1 25:0.0625 26:0.875 27:0.75 28:0.875 29:0.75 33:0.42857143 34:0.875 35:0.0625 36:0.625 37:0.8125 41:0.25 42:0.125 44:0.5625 45:0.8125 52:0.5 53:0.75 60:0.25 61:0.875 # 0
-1.3951469858057818595736214095844e-09 2:0.0625 3:0.375 4:0.75 5:0.875 6:0.25 10:0.25 11:0.8125 12:0.5 13:0.1875 18:0.8125 19:0.25 25:0.1875 26:0.9375 27:0.3125 28:0.125 33:0.5714286 34:1 35:1 36:1 37:0.75 41:0.125 42:0.25 43:0.1875 44:0.4375 45:0.9375 46:0.1875 51:0.125 52:0.4375 53:0.875 54:0.0625 59:0.5 60:0.75 61:0.25 # 0
1.0930519711653735629676940176278e-09 3:0.25 4:0.5 11:0.6875 12:0.5 19:0.8125 20:0.375 26:0.125 27:0.9375 28:0.125 29:0.1875 34:0.6875 35:0.625 36:0.25 37:1 38:0.14285715 41:0.6875 42:0.875 44:0.5625 45:1 46:0.125 49:0.5625 50:0.9375 51:0.75 52:0.9375 53:1 58:0.125 59:0.375 60:0.9375 61:0.375 # 0
-9.6918075269895947712200203964631e-11 2:0.125 3:0.6875 4:1 5:1 6:1 7:0.75 10:0.4375 11:0.9375 12:0.5625 13:0.5 14:0.75 15:1 21:0.0625 22:0.875 23:0.83333331 29:0.6875 30:0.5625 36:0.375 37:0.8125 43:0.0625 44:0.875 45:0.1875 51:0.625 52:0.5625 58:0.0625 59:1 60:0.3125 # 0
-3.5345791498350276645082056474652e-10 2:0.375 3:0.5625 4:0.25 5:0.0625 10:0.375 11:1 12:1 13:0.5625 14:0.0625 18:0.25 19:1 20:0.0625 21:0.8125 22:0.4375 27:0.875 28:0.3125 29:0.75 30:0.5 33:0.071428575 34:0.625 35:0.9375 36:1 37:0.625 41:0.375 42:0.9375 43:0.5625 44:1 45:0.0625 49:0.4375 50:0.8125 51:0.5 52:0.875 53:0.25 58:0.375 59:0.625 60:0.8125 61:0.0625 # 0
-2.015112739692275461165442662333e-10 2:0.5625 3:1 4:0.375 10:0.9375 11:0.625 12:0.9375 13:0.125 18:0.3125 19:0.125 20:1 21:0.125 26:0.125 27:0.4375 28:1 29:0.1875 33:0.5 34:1 35:1 36:1 37:1 38:0.5714286 41:0.0625 42:0.3125 43:0.875 44:0.375 46:0.0625 50:0.5625 51:0.75 58:0.625 59:0.5 # 0
-1.5538658697188409873729517619634e-10 2:0.1875 3:0.6875 4:1 5:1 6:0.875 7:0.0625 10:0.75 11:0.625 12:0.25 13:0.4375 14:0.9375 18:0.4375 19:0.875 20:0.9375 21:1 22:0.25 28:0.4375 29:0.75 35:0.0625 36:0.875 37:0.25 43:0.3125 44:0.8125 51:0.75 52:0.4375 58:0.125 59:0.875 # 0
-4.1853330978315027178763401922502e-10 3:0.5625 4:0.5625 10:0.4375 11:0.9375 12:0.1875 18:0.6875 19:0.5 26:0.875 27:0.25 28:0.125 29:0.1875 34:0.75 35:0.75 36:1 37:0.75 38:0.71428573 42:0.5625 43:0.875 44:0.5 46:0.5 47:1 50:0.25 51:0.5625 52:0.0625 53:0.125 54:0.875 55:0.5 59:0.375 60:0.6875 61:0.875 62:0.5 # 0
-1.2969563424382919425573224814197e-10 3:0.1875 4:1 5:0.4375 10:0.125 11:0.75 12:1 13:0.75 17:0.375 18:0.9375 19:1 20:1 21:0.5 25:0.75 26:0.9375 27:0.375 28:1 29:0.4375 34:0.125 36:0.9375 37:0.5625 44:1 45:0.4375 51:0.125 52:1 53:0.5625 59:0.125 60:0.9375 61:0.625 # 0
-3.8478764689538052460649845911797e-11 1:0.125 2:0.75 3:0.1875 9:0.66666669 10:1 11:0.9375 12:0.0625 17:0.5 18:0.1875 19:0.8125 20:0.3125 25:0.0625 27:0.5625 28:0.5625 35:0.8125 36:0.375 42:0.125 43:0.9375 44:0.125 50:0.8125 51:1 52:0.875 53:0.875 54:0.75 58:0.5 59:0.75 60:0.75 61:0.625 62:0.6875 # 0
-1.5118579861989441253463722634781e-11 4:0.3125 5:0.875 6:0.1875 12:0.6875 13:1 14:0.5 19:0.375 20:1 21:1 22:0.125 26:0.4375 27:1 28:1 29:1 33:0.21428572 34:1 35:0.875 36:0.875 37:1 41:0.25 42:0.75 43:0.25 44:0.8125 45:0.9375 52:0.875 53:1 60:0.375 61:1 62:0.0625 # 0
-8.4831734800862864895478311980104e-11 3:0.0625 4:0.875 5:0.75 9:0.26666668 10:0.375 11:0.9375 12:0.875 13:0.75 17:0.3125 18:1 19:1 20:0.8125 21:0.8125 22:0.0625 26:0.6875 27:1 28:1 29:1 30:0.25 35:0.1875 36:0.125 37:0.5625 38:0.5714286 45:0.5625 46:0.5 52:0.6875 53:1 54:0.25 60:0.6875 61:0.3125 62:0.0625 # 0
-1.9658435852782625259482454513148e-10 3:0.6875 4:0.5 10:0.25 11:1 12:0.9375 13:0.3125 18:0.375 19:0.6875 20:0.25 21:0.9375 26:0.375 27:0.25 29:0.875 30:0.25 34:1 35:0.125 37:0.875 38:0.42857143 42:0.875 43:0.1875 44:0.25 45:1 46:0.3125 50:0.5625 51:0.875 52:0.9375 53:1 54:0.0625 58:0.0625 59:0.6875 60:0.875 61:0.25 # 0
1.1736693583429002217412118114003e-10 4:0.625 5:0.4375 12:0.9375 13:0.3125 19:0.25 20:1 21:0.1875 27:0.4375 28:0.9375 29:0.1875 33:0.21428572 34:0.4375 35:0.875 36:0.75 37:1 38:0.071428575 40:0.16666667 41:0.875 42:1 43:1 44:1 45:0.9375 49:0.5625 50:0.625 51:0.875 52:1 53:1 60:0.75 61:0.5625 # 0
-4.5050340510015439803504603822449e-11 2:0.625 3:0.0625 10:1 17:0.1875 18:0.8125 25:0.3125 26:0.75 27:0.0625 28:0.25 29:0.125 33:0.5714286 34:0.875 35:0.9375 36:1 37:0.9375 38:0.2857143 41:0.5 42:0.9375 43:0.3125 44:0.3125 45:0.875 46:0.5 49:0.5 50:0.875 51:0.25 52:0.625 53:1 54:0.25 57:0.1 58:0.75 59:0.9375 60:0.625 61:0.125 # 0
-1.497933059560981023962179977516e-10 2:0.75 3:0.3125 10:1 11:0.125 17:0.1875 18:0.75 25:0.25 26:0.75 33:0.5 34:0.875 35:1 36:0.875 37:0.1875 41:0.1875 42:1 43:0.5 44:0.5625 45:1 46:0.25 49:0.125 50:1 51:0.1875 52:0.25 53:1 54:0.25 58:0.6875 59:0.75 60:0.6875 61:0.25 # 0
1.5251580614849285548868297680337e-09 3:0.125 4:0.5625 11:0.3125 12:0.625 19:0.75 20:0.25 21:0.5 26:0.25 27:0.75 28:0.375 29:0.8125 34:0.625 35:0.5 36:0.5 37:0.625 41:0.4375 42:1 43:0.8125 44:1 45:0.9375 46:0.125 49:0.375 50:0.625 51:0.6875 52:1 53:0.5 59:0.25 60:0.8125 # 0
2.1163224704922348436907874391969e-10 3:0.6875 4:0.25 11:0.875 12:0.3125 13:0.0625 18:0.25 19:0.8125 20:0.5 21:0.5 26:0.625 27:0.3125 28:0.625 29:0.375 33:0.21428572 34:1 35:0.3125 36:0.875 37:0.75 38:0.21428572 41:0.5 42:1 43:1 44:0.9375 45:0.875 46:0.375 50:0.25 51:0.5 52:0.5 59:0.5 60:0.5625 # 0
-2.7075843551480977281931729146636e-10 3:0.4375 4:0.5 5:0.125 10:0.125 11:0.9375 12:1 13:0.5 18:0.25 19:1 20:1 21:0.5 26:0.5 27:1 28:1 29:0.5625 33:0.21428572 34:1 35:1 36:1 37:1 41:0.0625 42:0.375 43:0.5625 44:1 45:1 51:0.4375 52:1 53:1 54:0.125 59:0.4375 60:0.6875 61:0.1875 # 0
-2.4858989565649837038706839027443e-10 4:0.375 5:0.6875 11:0.25 12:1 13:0.75 18:0.0625 19:0.75 20:1 21:0.6875 25:0.0625 26:0.75 27:0.8125 28:1 29:0.4375 33:0.64285713 34:1 35:0.8125 36:1 37:0.1875 41:0.125 42:0.1875 43:0.375 44:1 45:0.1875 51:0.375 52:1 53:0.1875 60:0.5625 61:0.5 # 0
-3.0329986219759066210248417489923e-10 2:0.9375 3:0.5 9:0.13333334 10:1 11:0.9375 12:0.125 18:1 19:0.5 20:0.625 26:0.75 27:0.5 28:0.75 35:0.5 36:0.5 43:0.75 44:0.5 50:0.75 51:1 52:0.9375 53:0.9375 54:0.3125 58:0.9375 59:0.6875 60:0.375 61:0.125 # 0
-6.4740908660655450121686431182725e-11 1:0.625 2:1 3:1 4:1 5:0.1875 9:0.53333336 10:0.4375 11:0.3125 12:1 13:0.125 17:0.1875 18:0.3125 19:0.625 20:0.875 25:0.4375 26:1 27:1 28:0.9375 29:0.75 30:0.375 34:0.5625 35:0.875 36:0.6875 37:0.875 38:0.42857143 42:1 43:0.375 49:0.1875 50:0.9375 51:0.125 57:0.69999999 58:0.75 # 0
-8.4591844945110221154532310254906e-11 4:0.75 5:0.8125 6:0.0625 11:0.125 12:1 13:1 14:0.1875 19:0.3125 20:1 21:1 22:0.25 27:0.75 28:1 29:1 30:0.3125 34:0.3125 35:1 36:1 37:1 38:0.2857143 41:0.1875 42:0.9375 43:0.875 44:0.9375 45:1 46:0.1875 49:0.1875 50:0.5 51:0.125 52:0.8125 53:1 60:0.75 61:0.6875 62:0.0625 # 0
-6.9814628809102837361638898107993e-11 2:0.9375 3:0.125 9:0.33333334 10:1 11:0.9375 12:0.6875 13:0.3125 17:0.4375 18:1 19:0.9375 20:0.75 21:0.8125 22:0.25 25:0.0625 26:0.9375 27:0.4375 34:0.3125 35:1 36:0.3125 43:0.625 44:0.875 50:0.0625 51:0.75 52:0.9375 58:0.6875 59:1 60:0.375 # 0
-9.1358526689947722208574386028529e-10 2:0.125 3:0.8125 4:0.75 5:0.25 9:0.06666667 10:0.9375 11:0.75 12:0.1875 13:0.8125 14:0.125 17:0.5 18:0.8125 19:0.5 21:0.375 22:0.25 25:0.5 26:0.25 27:0.1875 29:0.1875 30:0.5 33:0.35714287 34:0.3125 37:0.375 38:0.42857143 41:0.0625 42:0.875 43:0.0625 45:0.5 46:0.1875 50:0.5 51:0.5 52:0.3125 53:0.8125 54:0.0625 59:0.6875 60:0.9375 61:0.375 # 0
-7.0189800597024122111383249679939e-10 1:0.25 2:0.6875 3:0.1875 5:0.125 9:0.13333334 10:0.8125 11:0.75 12:0.3125 13:0.9375 14:0.375 18:0.6875 19:0.875 20:0.875 21:0.0625 26:0.4375 27:0.9375 28:0.0625 34:0.9375 35:0.75 36:0.3125 41:0.25 42:0.625 43:0.25 44:0.5 49:0.4375 50:0.5625 51:0.4375 52:0.5 57:0.2 58:0.875 59:0.9375 60:0.3125 # 0
1.4391874490636816781679659210907e-10 2:0.1875 3:1 10:0.625 11:0.625 12:0.1875 13:0.3125 18:1 19:0.3125 20:0.75 21:0.625 25:0.25 26:0.9375 27:0.125 28:0.9375 29:0.25 33:0.71428573 34:0.8125 35:0.5625 36:0.9375 37:0.625 38:0.78571427 41:0.1875 42:0.875 43:1 44:0.875 45:0.5 46:0.125 51:0.9375 52:0.375 58:0.1875 59:0.9375 # 0
-5.5696044708132468967181731973838e-10 2:0.3125 3:0.5 10:0.75 11:0.375 12:0.75 13:0.4375 17:0.125 18:0.625 19:0.375 20:0.5625 21:0.9375 22:0.0625 25:0.4375 26:0.5 29:0.75 30:0.5 33:0.5714286 34:0.5 37:0.75 38:0.42857143 41:0.3125 42:0.8125 45:0.8125 46:0.25 50:0.875 51:0.625 52:0.625 53:0.8125 58:0.25 59:0.75 60:0.6875 61:0.0625 # 0
-8.3716014614242269237992099733739e-11 2:0.6875 3:1 4:0.9375 5:0.1875 10:0.125 11:0.25 12:1 13:0.4375 19:0.25 20:1 21:0.1875 25:0.125 26:0.25 27:0.625 28:0.875 29:0.25 30:0.125 33:0.64285713 34:1 35:1 36:1 37:1 38:0.5714286 42:0.4375 43:0.9375 44:0.125 50:0.625 51:0.5625 58:0.75 59:0.4375 # 0
-1.630651055299900218813398811694e-10 1:0.625 2:0.9375 3:0.8125 9:0.2 10:0.625 11:1 12:0.3125 19:0.875 20:0.25 26:0.375 27:0.875 33:0.071428575 34:0.875 35:0.4375 41:0.4375 42:0.8125 43:0.0625 49:0.8125 50:0.875 51:0.625 52:0.6875 53:0.5625 54:0.3125 57:0.5 58:0.9375 59:1 60:0.875 61:0.625 62:0.1875 # 0
-2.42669126589786471834340888406e-10 2:0.125 3:0.9375 4:0.75 10:0.1875 11:1 12:0.875 13:0.625 19:0.3125 20:0.8125 21:1 22:0.125 29:0.75 30:0.5 37:0.4375 38:0.78571427 45:0.4375 46:0.8125 50:0.125 52:0.125 53:0.6875 54:0.6875 58:0.1875 59:0.8125 60:0.9375 61:1 62:0.375 # 0
-1.1377693515213953183164034505543e-10 4:0.6875 5:0.5 11:0.125 12:1 13:0.5 19:0.375 20:1 21:0.125 27:0.4375 28:0.9375 35:0.625 36:0.875 42:0.8125 43:1 44:1 45:0.6875 50:0.4375 51:0.4375 52:1 53:1 54:0.625 60:0.5 61:1 62:0.9375 # 0
-3.1333846579715003990943658966856e-10 3:0.6875 4:0.8125 10:0.3125 11:0.9375 12:0.8125 17:0.1875 18:1 19:1 20:0.625 26:0.4375 27:1 28:0.625 35:0.9375 36:0.625 43:0.9375 44:0.5 51:1 52:0.375 59:0.75 60:0.6875 # 0
-2.0031946824028716877614495147801e-10 1:0.25 2:0.875 3:0.875 4:0.0625 9:0.60000002 10:0.8125 11:0.8125 12:0.375 17:0.5625 18:0.3125 19:0.1875 20:0.625 26:0.0625 27:0.1875 28:0.5625 35:0.5 36:0.25 42:0.125 43:0.9375 44:0.25 45:0.125 49:0.0625 50:0.8125 51:1 52:1 53:1 54:0.5625 58:0.8125 59:0.5 60:0.5 61:0.4375 62:0.125 # 0
8.2724180348457968788060448966492e-10 3:0.3125 4:0.875 5:0.0625 10:0.0625 11:0.875 12:0.4375 14:0.1875 18:0.5625 19:0.875 20:0.0625 21:0.375 22:0.9375 25:0.1875 26:1 27:0.75 28:0.25 29:0.75 30:0.5 34:0.4375 35:0.625 36:0.875 37:1 38:0.2857143 44:0.625 45:0.8125 51:0.0625 52:1 53:0.1875 59:0.375 60:0.75 # 0
-2.488740452797440737295754812833e-10 3:0.375 4:0.8125 10:0.0625 11:0.8125 12:0.5625 18:0.25 19:1 20:0.25 26:0.5 27:0.875 34:0.8125 35:0.9375 36:0.75 37:0.5 42:0.75 43:0.875 44:0.3125 45:0.625 46:0.75 50:0.5 51:0.8125 52:0.25 53:0.25 54:0.9375 55:0.2 59:0.3125 60:0.75 61:0.875 62:0.4375 # 0
-7.26426472822128837770000975261e-10 2:0.3125 3:0.6875 4:0.9375 5:0.3125 9:0.40000001 10:0.8125 11:0.125 12:0.1875 13:0.9375 14:0.1875 17:0.4375 18:0.8125 19:0.5 20:0.6875 21:1 22:0.5 25:0.0625 26:0.5625 27:0.75 28:0.5 29:0.5 30:0.5 36:0.0625 37:0.8125 38:0.2857143 44:0.5625 45:0.75 51:0.5 52:0.8125 58:0.4375 59:0.625 60:0.0625 # 0
-2.3513825435312750259417393322939e-10 2:0.4375 3:0.9375 4:0.625 10:0.75 11:0.625 12:0.9375 13:0.1875 20:0.75 21:0.6875 28:0.875 29:0.5625 33:0.071428575 34:0.3125 35:0.5 36:1 37:0.75 38:0.14285715 41:0.625 42:1 43:1 44:0.9375 45:0.625 46:0.1875 50:0.125 51:1 52:0.25 58:0.5 59:0.75 # 0
-1.5255744207355905001400516009323e-10 2:0.3125 3:0.8125 4:0.75 5:0.0625 9:0.13333334 10:0.9375 11:0.3125 12:0.375 13:0.4375 17:0.375 18:0.5625 21:1 22:0.25 25:0.375 26:0.625 29:0.875 30:0.375 34:0.5625 35:0.8125 36:0.875 37:0.75 38:0.64285713 46:0.75 50:0.1875 53:0.1875 54:0.875 58:0.3125 59:0.75 60:0.8125 61:0.875 62:0.3125 # 0
-1.1521045663562170010244950857852e-10 2:0.125 3:0.625 4:1 5:1 6:0.125 9:0.06666667 10:1 11:0.9375 12:0.3125 13:0.0625 17:0.5 18:0.8125 25:0.75 26:0.6875 33:0.35714287 34:1 35:0.4375 42:0.1875 43:0.8125 44:0.75 51:0.25 52:1 59:0.875 60:0.75 # 0
-4.955557787037500898261795614821e-12 4:0.3125 5:1 6:0.5 12:0.8125 13:1 14:0.75 19:0.5625 20:1 21:1 22:0.5625 26:0.625 27:1 28:0.875 29:1 30:0.5 33:0.2857143 34:0.9375 35:0.6875 36:0.5 37:1 38:0.35714287 42:0.4375 43:0.0625 44:0.5625 45:1 46:0.1875 52:0.75 53:1 60:0.5 61:0.9375 62:0.125 # 0
-7.4022969380226452025615046801722e-10 2:0.25 3:0.75 4:0.75 5:0.375 10:0.1875 11:0.375 12:0.25 13:0.5 17:0.1875 18:0.8125 19:0.375 20:0.5 21:0.1875 25:0.25 26:1 27:0.8125 28:0.75 29:0.9375 30:0.125 34:0.1875 37:0.625 38:0.5714286 45:0.5 46:0.375 50:0.4375 51:0.375 52:0.3125 53:0.875 54:0.125 58:0.1875 59:0.875 60:0.9375 61:0.375 # 0
-1.4245003854773894169187254017842e-11 1:0.125 2:0.5 3:0.75 4:0.1875 9:0.06666667 10:1 11:1 12:0.875 13:0.125 17:0.125 18:1 19:1 20:1 21:1 22:0.0625 26:0.75 27:1 28:1 29:0.25 34:0.75 35:1 36:1 37:0.4375 41:0.125 42:1 43:1 44:1 45:0.875 49:0.25 50:1 51:1 52:0.9375 53:0.25 57:0.1 58:0.75 59:0.625 60:0.3125 # 0
-1.153084301197266118268317549423e-10 2:0.3125 3:0.875 4:0.25 10:0.75 11:0.75 18:1 19:0.5625 25:0.5 26:1 33:0.5714286 34:1 35:0.8125 36:1 37:0.5625 38:0.071428575 41:0.6875 42:1 43:0.875 44:0.625 45:1 46:0.125 49:0.4375 50:1 51:0.875 52:0.75 53:0.9375 54:0.0625 57:0.1 58:0.5625 59:0.8125 60:0.625 61:0.1875 # 0
3.0102069105303042261238456817822e-10 4:0.75 5:0.1875 11:0.125 12:0.9375 19:0.5625 20:0.5625 26:0.1875 27:0.9375 29:0.1875 30:0.625 33:0.071428575 34:0.875 35:0.1875 37:0.875 38:0.42857143 41:0.625 42:1 43:0.9375 44:0.8125 45:1 46:0.0625 49:0.5625 50:0.625 51:0.5 52:0.875 53:0.6875 60:0.75 61:0.125 # 0
-2.1485616624779140551930508570367e-10 2:0.1875 3:0.8125 4:0.625 5:0.5 6:0.5625 7:0.125 10:0.625 11:0.6875 12:0.5 13:0.6875 14:0.9375 18:0.8125 19:0.1875 20:0.0625 21:0.75 22:0.375 26:0.3125 27:0.1875 28:0.4375 29:0.875 34:0.5625 35:1 36:1 37:1 38:0.35714287 43:0.4375 44:0.6875 45:0.0625 51:0.875 52:0.375 58:0.25 59:0.9375 60:0.125 # 0
-1.0304996322653972836406937640724e-10 2:0.1875 3:0.75 4:1 5:0.625 9:0.2 10:0.875 11:0.3125 13:0.75 17:0.5625 18:0.5 19:0.0625 20:0.5625 21:1 22:0.25 25:0.3125 26:0.9375 27:0.9375 28:0.9375 29:0.875 30:0.125 36:0.9375 37:0.1875 43:0.5 44:0.625 51:0.6875 52:0.375 58:0.1875 59:0.9375 60:0.125 # 0
-1.6348729782211814380535512437068e-10 3:0.75 4:1 5:0.8125 10:0.375 11:1 12:0.625 13:0.3125 16:0.33333334 17:0.875 18:0.125 19:0.375 25:0.75 26:0.6875 33:0.21428572 34:0.875 35:0.6875 36:0.0625 42:0.1875 43:0.8125 44:0.6875 51:0.3125 52:1 53:0.375 59:0.8125 60:1 61:0.375 # 0
-2.0503544558915577539834487692848e-09 2:0.25 3:0.875 4:1 5:0.4375 9:0.06666667 10:1 11:0.875 12:0.5 13:0.3125 17:0.5 18:0.625 25:0.1875 26:0.8125 34:0.75 35:0.375 42:0.25 43:0.8125 51:1 52:0.3125 58:0.4375 59:1 60:0.25 # 0
-1.4322313134350687513813957270681e-11 2:0.125 3:0.75 4:0.625 5:0.125 6:0.3125 10:0.625 11:1 12:0.6875 13:0.8125 14:0.9375 17:0.125 18:0.875 19:0.9375 20:0.875 21:1 22:0.875 26:0.8125 27:1 28:0.875 29:1 30:0.625 36:0.25 37:0.9375 38:0.2857143 43:0.125 44:0.9375 45:0.6875 51:0.875 52:1 53:0.1875 58:0.125 59:0.8125 60:0.25 # 0
-1.8901599353231496198938022214244e-10 2:0.0625 3:0.75 4:0.9375 5:0.375 10:0.3125 11:0.8125 12:0.0625 13:0.75 18:0.125 19:0.6875 20:0.0625 21:0.9375 27:0.625 28:0.6875 29:0.5625 35:0.375 36:1 37:0.375 42:0.625 43:0.9375 44:0.25 45:0.8125 46:0.1875 50:0.75 51:0.125 53:0.0625 54:0.875 58:0.0625 59:0.625 60:0.625 61:0.5 62:0.9375 63:0.06666667 # 0
-2.2957860814423485796701009427351e-10 1:0.375 2:0.75 3:0.75 4:0.1875 9:0.53333336 10:0.625 11:0.6875 12:0.5625 18:0.125 19:0.875 20:0.25 26:0.75 27:0.8125 28:0.0625 34:0.1875 35:0.8125 36:0.9375 37:0.1875 44:0.4375 45:0.875 46:0.0625 49:0.125 50:0.25 51:0.25 52:0.1875 53:0.6875 54:0.4375 57:0.5 58:0.75 59:0.75 60:0.875 61:1 62:0.5 # 0
5.8526269495885473272461118870704e-11 1:0.125 2:0.875 3:0.4375 9:0.53333336 10:1 11:0.125 13:0.1875 14:0.3125 17:0.625 18:0.75 20:0.0625 21:0.875 22:0.6875 25:0.5625 26:0.9375 27:0.0625 28:0.5625 29:1 30:0.1875 33:0.071428575 34:0.9375 35:1 36:1 37:0.5 42:0.3125 43:1 44:0.8125 45:0.3125 50:0.75 51:0.8125 57:0.2 58:1 59:0.375 # 0
-1.0453998207679238265349899595215e-10 3:0.1875 4:0.6875 5:0.9375 6:0.0625 10:0.375 11:1 12:1 13:1 14:0.5625 17:0.125 18:1 19:1 20:1 21:0.8125 22:0.875 26:0.6875 27:0.5 28:0.0625 29:0.5625 30:0.5625 36:0.0625 37:0.9375 44:0.375 45:0.625 52:0.75 53:0.1875 60:0.8125 # 0
-3.6285703241560311495842550536027e-10 2:0.125 3:0.625 4:0.4375 9:0.2 10:1 11:0.6875 12:0.5 13:0.375 17:0.25 18:0.8125 21:0.5 25:0.25 26:1 27:0.5625 28:0.6875 29:0.6875 34:0.625 35:1 36:1 37:0.9375 38:0.14285715 42:0.25 43:1 44:0.25 45:0.1875 46:0.5 50:0.5 51:0.5625 53:0.125 54:0.5625 58:0.1875 59:0.6875 60:0.5 61:0.5 62:0.25 # 0
-1.0782230920468460569672933492471e-10 3:0.3125 4:0.5625 5:0.8125 6:0.875 7:0.375 10:0.25 11:1 12:0.5 13:0.25 14:0.625 15:0.69230771 18:0.375 19:1 20:1 21:1 22:0.9375 23:0.66666669 26:0.0625 27:0.6875 28:0.75 29:1 30:0.375 36:0.125 37:1 38:0.14285715 44:0.625 45:0.375 51:0.125 52:0.9375 59:0.3125 60:0.875 # 0
-1.8316825215858303282990547982084e-10 3:0.25 4:0.8125 5:0.75 6:0.0625 10:0.1875 11:1 12:0.5625 13:0.9375 14:0.875 15:0.15384616 18:0.875 19:0.5 20:0.125 21:0.625 22:0.875 25:0.1875 26:1 27:0.75 28:0.8125 29:1 30:0.4375 34:0.5 35:0.1875 36:0.125 37:1 38:0.14285715 44:0.5 45:0.75 52:0.875 53:0.375 59:0.1875 60:0.875 61:0.125 # 0
-6.9720044645360815971740062985487e-10 2:0.125 3:0.8125 4:0.0625 10:0.3125 11:0.9375 18:0.8125 19:0.375 25:0.3125 26:0.875 33:0.5714286 34:0.75 35:0.1875 36:0.4375 37:0.375 38:0.071428575 41:0.4375 42:1 43:0.875 44:0.5 45:0.875 46:0.4375 49:0.125 50:0.9375 51:0.5625 52:0.3125 53:0.75 54:0.4375 58:0.25 59:0.5625 60:0.8125 61:0.8125 62:0.0625 # 0
5.4741750162747060393040624221104e-11 3:0.375 4:0.8125 10:0.1875 11:0.9375 12:0.3125 18:0.75 19:0.5625 22:0.25 23:0.83333331 25:0.3125 26:1 27:0.125 29:0.1875 30:1 31:1 33:0.64285713 34:0.875 35:0.125 36:0.5625 37:0.9375 38:0.5714286 41:0.4375 42:1 43:0.9375 44:0.8125 45:0.6875 46:0.0625 50:0.125 51:0.0625 52:0.875 53:0.125 59:0.375 60:0.5625 # 0
3.2357124191032848403910412013386e-10 2:0.0625 3:0.6875 4:0.4375 6:0.125 7:0.0625 10:0.625 11:0.8125 13:0.0625 14:0.8125 15:0.46153846 17:0.25 18:1 19:0.1875 21:0.625 22:0.75 25:0.1875 26:1 27:0.6875 28:0.5625 29:1 30:0.1875 34:0.5625 35:1 36:1 37:0.5 43:0.5625 44:0.6875 51:0.875 52:0.1875 59:0.875 60:0.25 # 0
-4.1707440403321763141034648073925e-11 2:0.5 3:1 4:0.125 5:0.1875 10:0.9375 11:0.6875 12:0.3125 13:1 14:0.0625 18:1 19:0.25 20:0.5625 21:1 22:0.0625 26:0.5 27:0.8125 28:0.9375 29:0.75 34:0.5 35:1 36:0.8125 42:0.8125 43:1 44:0.4375 49:0.0625 50:1 51:1 52:0.4375 58:0.5 59:0.8125 60:0.0625 # 0
-1.1023194434524293257800478160711e-10 2:0.5 3:0.875 4:0.8125 5:0.1875 9:0.40000001 10:0.8125 11:0.1875 12:0.375 13:0.6875 17:0.0625 18:0.125 20:0.25 21:0.8125 27:0.6875 28:1 29:0.6875 35:0.1875 36:0.25 37:0.6875 38:0.5 45:0.3125 46:0.5625 49:0.125 50:0.8125 51:0.0625 53:0.4375 54:0.625 58:0.5625 59:1 60:0.8125 61:0.75 62:0.0625 # 0
-8.9444284381286028939171543997058e-11 2:0.5625 3:1 4:0.5 9:0.60000002 10:0.8125 11:0.25 12:0.8125 17:0.4375 18:0.375 19:0.0625 20:0.875 27:0.5625 28:1 29:0.5625 35:0.5 36:0.375 37:0.8125 38:0.42857143 45:0.25 46:0.6875 50:0.375 52:0.1875 53:0.75 54:0.3125 58:0.5625 59:1 60:1 61:0.4375 # 0
-2.0798003437390778554246672257219e-10 2:0.25 3:0.625 10:0.5625 11:0.9375 12:0.125 18:0.75 19:0.625 26:0.9375 27:0.5 28:0.1875 33:0.071428575 34:1 35:1 36:1 37:0.875 38:0.14285715 42:1 43:0.625 44:0.3125 45:0.9375 46:0.5 50:0.6875 51:0.8125 52:0.6875 53:1 54:0.25 58:0.1875 59:0.6875 60:0.8125 61:0.3125 # 0
-1.9434861188123408593868916477746e-10 2:0.25 3:0.75 4:0.4375 10:0.8125 11:0.6875 12:0.75 13:0.25 18:0.5 20:0.1875 21:0.625 28:0.125 29:0.8125 36:0.5625 37:0.5 43:0.1875 44:1 45:0.0625 50:0.5 51:1 52:0.9375 53:0.875 54:0.875 55:0.1 58:0.375 59:0.75 60:0.75 61:0.625 62:0.625 63:0.13333334 # 0
-2.6106975351384957504744784003239e-10 4:0.1875 5:0.875 6:0.0625 11:0.0625 12:0.875 13:0.9375 19:0.5625 20:1 21:0.625 26:0.5625 27:1 28:1 29:0.5 33:0.2857143 34:1 35:0.4375 36:1 37:0.5 41:0.0625 42:0.25 44:0.9375 45:0.625 52:0.6875 53:0.75 60:0.1875 61:0.9375 62:0.1875 # 0
-2.2485256350584205445101530254604e-10 2:0.1875 3:0.875 4:1 5:0.8125 6:0.375 10:0.8125 11:0.4375 12:0.0625 13:0.8125 14:1 15:0.07692308 18:0.75 19:0.3125 21:0.625 22:0.75 26:0.5 27:0.875 28:0.75 29:0.875 30:0.125 35:0.25 36:0.875 37:0.375 43:0.3125 44:0.8125 51:0.8125 52:0.375 58:0.125 59:0.6875 # 0
-1.5177061589906776083612451024518e-10 3:0.5625 4:0.5 10:0.4375 11:0.875 12:0.0625 18:0.875 19:0.1875 25:0.1875 26:0.875 33:0.5 34:0.625 35:0.0625 36:0.3125 37:0.1875 41:0.125 42:1 43:0.75 44:1 45:1 46:0.375 50:0.5 51:1 52:0.6875 53:0.6875 54:0.8125 59:0.4375 60:0.75 61:1 62:0.5625 # 0
-2.6493981033722819598877194378558e-10 2:0.0625 3:0.9375 4:0.75 10:0.375 11:1 12:0.9375 18:0.3125 19:1 20:0.5625 26:0.3125 27:1 28:0.375 34:0.1875 35:1 36:0.5 42:0.125 43:1 44:0.5 50:0.0625 51:1 52:0.5625 58:0.0625 59:0.8125 60:0.375 # 0
-1.2809342656738421780170655720957e-10 2:0.625 3:0.9375 4:1 5:0.375 9:0.06666667 10:0.8125 11:0.3125 12:0.4375 13:0.9375 14:0.125 20:0.4375 21:0.75 22:0.125 27:0.375 28:0.9375 29:0.1875 34:0.4375 35:0.75 36:0.0625 41:0.3125 42:0.875 43:0.125 49:0.5625 50:0.875 51:0.625 52:0.6875 53:0.4375 54:0.0625 57:0.1 58:0.4375 59:0.5 60:0.5 61:0.6875 62:0.25 # 0
-1.9503411248440200047887346936044e-10 2:0.125 3:0.4375 4:0.8125 5:0.75 6:0.125 10:0.625 11:0.8125 12:0.375 13:0.75 14:0.375 17:0.125 18:1 19:0.25 20:0.0625 21:0.8125 22:0.5 26:0.875 27:0.875 28:0.9375 29:0.9375 30:0.625 35:0.1875 36:0.0625 37:0.75 38:0.35714287 44:0.3125 45:0.6875 51:0.125 52:0.875 53:0.125 59:0.5625 60:0.5 # 0
-5.8168963381103582868849731935673e-11 2:0.0625 3:0.75 4:0.75 5:0.8125 6:0.5 10:0.75 11:0.625 12:0.25 13:0.4375 14:0.8125 18:0.9375 19:0.625 20:0.25 21:0.5625 22:0.875 26:0.3125 27:0.75 28:0.75 29:1 30:0.5625 36:0.125 37:0.9375 44:0.6875 45:0.4375 51:0.25 52:0.875 59:0.9375 60:0.125 # 0
-2.3923027514926363756921026181574e-11 1:0.25 4:0.5625 5:0.4375 9:1 10:1 11:1 12:1 13:0.5625 17:0.0625 18:0.3125 19:0.25 20:1 21:0.4375 25:0.0625 26:0.25 27:0.25 28:1 29:0.4375 33:0.35714287 34:1 35:1 36:1 37:0.9375 38:0.14285715 42:0.1875 43:0.0625 44:0.875 45:0.375 52:0.8125 53:0.4375 60:0.625 61:0.6875 # 0
-5.7643918255419331147431920184081e-11 2:0.5625 3:0.75 4:1 5:0.4375 9:0.66666669 10:0.6875 11:0.125 13:1 17:0.1875 18:0.125 20:0.625 21:0.5 27:0.4375 28:0.9375 29:0.3125 35:0.4375 36:0.5625 37:0.875 38:0.14285715 45:0.5 46:0.625 50:0.125 51:0.125 52:0.25 53:0.875 54:0.3125 58:0.875 59:1 60:0.875 61:0.125 # 0
-1.0717998046746672494572378976342e-10 3:0.375 4:0.9375 5:0.375 11:0.75 12:0.625 13:0.8125 19:0.6875 20:0.9375 21:0.875 26:0.5625 27:0.6875 28:0.875 33:0.2857143 34:0.6875 36:0.625 37:0.375 41:0.1875 42:0.5625 44:0.0625 45:0.875 46:0.0625 50:0.6875 51:0.5 52:0.125 53:0.5625 54:0.4375 59:0.375 60:0.75 61:0.8125 62:0.4375 # 0
-6.119667806815587066571684840327e-11 3:0.3125 4:0.625 10:0.0625 11:0.875 12:0.75 18:0.25 19:1 20:0.3125 26:0.5625 27:1 28:0.125 34:0.6875 35:0.625 42:0.6875 43:1 44:0.8125 45:0.75 46:0.3125 50:0.375 51:1 52:1 53:1 54:1 55:0.2 59:0.1875 60:0.75 61:0.9375 62:0.6875 63:0.2 # 0
-1.8511544673988635965049115077024e-11 2:0.0625 3:0.5625 4:0.5 5:0.0625 10:0.5 11:1 12:0.875 13:0.5625 18:0.875 19:0.875 20:0.0625 21:1 25:0.0625 26:1 27:0.1875 29:0.6875 30:0.25 34:1 37:0.9375 38:0.2857143 42:0.875 43:0.0625 44:0.3125 45:1 50:0.6875 51:0.4375 52:0.875 53:0.4375 58:0.25 59:0.9375 60:0.8125 61:0.0625 # 0
-2.2540754141759004360461793269101e-11 2:0.5 3:0.875 4:0.3125 9:0.53333336 10:0.8125 11:0.3125 12:0.875 13:0.3125 17:0.5 18:0.8125 19:0.125 20:0.3125 21:0.875 22:0.1875 25:0.25 26:1 27:0.875 28:0.9375 29:1 30:0.5 34:0.125 35:0.3125 36:0.4375 37:0.625 38:0.5 44:0.1875 45:0.9375 46:0.1875 51:0.25 52:0.875 53:0.625 58:0.625 59:0.8125 60:0.375 # 0
-6.8580763865838864555195939907062e-11 2:0.3125 3:0.75 4:1 5:1 6:0.5625 9:0.2 10:1 11:0.5625 12:0.1875 17:0.4375 18:1 19:0.6875 20:0.3125 25:0.125 26:0.6875 27:0.5625 28:1 29:0.0625 36:0.5625 37:0.5625 44:0.5625 45:0.5625 50:0.5625 51:0.375 52:1 53:0.375 58:0.3125 59:0.75 60:0.375 # 0
3.3320292182414736370978096056917e-11 2:0.375 3:0.9375 4:0.0625 9:0.13333334 10:1 11:0.4375 17:0.5 18:0.9375 21:0.4375 22:0.1875 25:0.6875 26:0.8125 27:0.25 28:0.5 29:1 30:0.3125 33:0.35714287 34:1 35:1 36:1 37:0.625 42:0.0625 43:0.875 44:0.9375 50:0.25 51:1 52:0.375 58:0.625 59:0.8125 # 0
-5.0466915517881267734160560309553e-11 2:0.3125 3:0.5 4:0.8125 5:0.8125 6:0.625 7:0.0625 10:0.4375 11:0.5 12:0.3125 13:0.75 14:0.875 15:0.07692308 21:0.875 22:0.5 26:0.6875 27:1 28:1 29:1 30:0.5625 34:0.125 35:0.375 36:1 37:0.6875 38:0.35714287 43:0.625 44:0.5 50:0.1875 51:1 52:0.0625 58:0.5 59:0.625 # 0
-6.2027278381104852724095300197028e-11 2:0.625 3:0.5 4:0.625 5:0.75 6:0.375 9:0.13333334 10:1 11:0.875 12:0.75 13:0.9375 14:0.6875 17:0.1875 18:0.5625 19:0.125 20:0.25 21:0.875 22:0.125 27:0.0625 28:0.875 29:0.25 35:0.3125 36:0.875 42:0.0625 43:0.8125 44:0.375 49:0.0625 50:0.75 51:1 52:0.0625 58:0.875 59:0.625 # 0
-7.249719756124474606363051489271e-11 3:0.5625 4:0.375 10:0.125 11:0.9375 12:0.375 18:0.375 19:0.625 26:0.6875 27:0.5 28:0.4375 29:0.125 34:0.875 35:0.9375 36:0.5 37:0.875 38:0.35714287 42:1 43:0.3125 45:0.25 46:0.8125 50:0.5625 51:0.8125 53:0.4375 54:0.8125 59:0.6875 60:1 61:0.875 62:0.125 # 0
-9.0205119379495082503080244430726e-11 2:0.1875 3:0.625 4:0.6875 5:0.3125 9:0.53333336 10:1 11:0.625 12:0.5 13:0.3125 17:0.6875 18:0.6875 25:0.5 26:0.875 27:0.6875 28:0.5 29:0.25 34:0.1875 35:0.4375 36:0.5625 37:0.875 38:0.64285713 45:0.3125 46:0.8125 50:0.0625 51:0.25 52:0.625 53:1 54:0.3125 58:0.125 59:0.8125 60:0.625 61:0.125 # 0
-1.6866517615328789415095854181486e-12 3:0.5 4:0.625 10:0.375 11:1 12:0.75 18:0.75 19:0.75 20:0.0625 26:0.9375 27:0.3125 33:0.071428575 34:1 35:0.1875 36:0.8125 37:0.875 38:0.14285715 42:0.875 43:1 44:0.9375 45:0.875 46:0.8125 50:0.5625 51:1 52:0.75 53:0.625 54:0.9375 55:0.1 59:0.375 60:0.75 61:0.9375 62:0.5 # 0
-6.6252447053212420126928754195625e-12 1:0.5 2:1 3:1 4:1 5:0.5 10:0.25 11:0.125 12:0.6875 13:0.75 19:0.1875 20:0.9375 21:0.375 25:0.125 26:0.25 27:0.6875 28:0.9375 29:0.0625 33:0.71428573 34:1 35:1 36:1 37:1 38:0.64285713 41:0.0625 42:0.75 43:0.75 44:0.25 45:0.25 46:0.125 49:0.125 50:1 51:0.125 57:0.69999999 58:0.875 # 0
-4.2900278363094982476361282729518e-11 3:0.125 4:0.75 5:0.6875 11:0.8125 12:1 13:0.625 18:0.5625 19:1 20:1 21:0.5625 25:0.25 26:1 27:0.875 28:1 29:0.375 33:0.071428575 34:0.375 35:0.4375 36:1 37:0.375 43:0.3125 44:1 45:0.375 51:0.1875 52:1 53:0.25 60:0.75 61:0.25 # 0
-2.9708693584629829440329210500971e-11 1:0.125 2:0.625 3:0.75 4:0.875 5:0.5625 9:0.73333335 10:0.6875 11:0.3125 12:0.3125 13:1 14:0.25 17:0.25 18:0.1875 20:0.125 21:1 22:0.125 28:0.75 29:0.5625 34:0.0625 35:0.8125 36:0.625 42:0.5625 43:0.8125 49:0.125 50:1 51:0.25 57:0.1 58:0.8125 59:0.9375 60:0.75 61:0.125 # 0
-8.8747014853902435661115782102054e-11 2:0.0625 3:0.6875 4:0.375 10:0.4375 11:0.8125 12:0.125 18:0.8125 19:0.375 25:0.0625 26:0.8125 27:0.0625 33:0.071428575 34:0.75 36:0.25 37:0.1875 41:0.0625 42:0.6875 43:0.6875 44:0.875 45:0.875 46:0.625 50:0.75 51:0.9375 52:0.3125 53:0.25 54:0.9375 55:0.30000001 58:0.0625 59:0.8125 60:1 61:0.75 62:0.5625 63:0.06666667 # 0
-1.6065392892819673764412982970421e-11 3:0.5 4:0.5 5:0.5 6:0.8125 7:0.5 10:0.375 11:0.9375 12:0.8125 13:0.875 14:0.9375 15:0.07692308 18:0.8125 19:0.375 21:0.75 22:0.3125 26:0.875 27:0.3125 28:0.3125 29:0.625 34:0.0625 35:0.625 36:1 37:0.875 38:0.14285715 43:0.75 44:0.75 45:0.375 46:0.0625 51:0.875 52:0.25 59:0.75 60:0.0625 # 0
-9.9094934264291956081198951579301e-12 2:0.3125 3:0.875 10:0.75 11:0.875 18:0.9375 19:0.75 25:0.0625 26:1 27:0.5625 28:0.3125 29:0.125 33:0.35714287 34:1 35:1 36:1 37:0.9375 38:0.14285715 41:0.4375 42:1 43:0.9375 44:0.625 45:1 46:0.5625 49:0.0625 50:0.9375 51:0.8125 52:0.8125 53:1 54:0.3125 58:0.3125 59:0.8125 60:0.8125 61:0.5625 # 0
-1.9292056067032046078138908457105e-12 2:0.75 3:0.25 10:0.9375 11:0.25 17:0.125 18:0.9375 19:0.125 25:0.125 26:0.9375 27:0.375 28:0.75 29:0.5 33:0.5 34:1 35:0.875 36:0.5625 37:0.625 38:0.42857143 41:0.25 42:1 43:0.875 44:0.1875 45:0.0625 46:0.625 49:0.1875 50:1 51:0.8125 52:0.9375 53:1 54:0.3125 58:0.625 59:0.9375 60:0.625 61:0.1875 # 0
-3.6095050434326537348998483725323e-11 2:0.25 3:0.875 4:0.9375 5:0.3125 9:0.46666667 10:0.875 11:0.4375 12:0.375 13:1 17:0.625 18:0.375 21:0.6875 22:0.1875 25:0.25 26:0.125 28:0.0625 29:0.875 36:0.625 37:0.4375 43:0.3125 44:0.8125 45:0.0625 50:0.375 51:1 52:0.5 58:0.3125 59:0.5625 60:0.75 61:0.75 62:1 63:0.13333334 # 0
-2.5479434743111166072185374095087e-11 2:0.625 3:1 4:1 5:0.5625 9:0.06666667 10:0.375 11:0.25 12:0.3125 13:0.9375 14:0.25 20:0.1875 21:0.9375 22:0.125 25:0.0625 26:0.25 28:0.75 29:0.5 33:0.21428572 34:1 35:1 36:1 37:1 38:0.5714286 42:0.125 43:0.8125 44:0.4375 50:0.4375 51:0.75 58:0.75 59:0.375 # 0
-1.3773946315388583545174942692975e-11 3:0.8125 4:0.875 10:0.3125 11:1 12:0.4375 18:0.5 19:0.8125 26:0.75 27:0.6875 33:0.071428575 34:1 35:1 36:0.875 37:0.125 42:0.625 43:0.6875 44:0.625 45:0.875 50:0.4375 51:0.8125 52:0.5625 53:0.9375 58:0.0625 59:0.6875 60:0.9375 61:0.5 # 0
-2.934843578331936909611259796126e-11 3:0.3125 4:0.9375 5:0.125 10:0.0625 11:0.9375 12:0.5 18:0.5 19:0.75 26:0.75 27:0.5 34:1 35:0.625 36:0.5 37:0.4375 41:0.0625 42:0.875 43:0.75 44:0.5 45:0.5625 46:0.625 50:0.3125 51:0.8125 52:0.0625 53:0.5 54:0.875 59:0.375 60:0.875 61:0.9375 62:0.3125 # 0
-1.0252937689604578516760498597417e-11 2:0.5 3:0.75 4:0.75 5:0.0625 9:0.40000001 10:0.75 11:0.125 12:0.375 13:0.5 17:0.3125 18:0.6875 20:0.1875 21:1 22:0.4375 26:0.875 27:0.375 28:0.625 29:0.625 30:0.0625 34:0.375 35:1 36:0.5 42:0.4375 43:1 44:0.3125 50:0.75 51:0.625 52:0.625 58:0.6875 59:0.875 60:0.5625 # 0
-5.4098019783857150324051022640496e-12 2:0.0625 3:0.4375 4:0.75 5:0.875 6:0.3125 10:0.5 11:0.8125 12:0.0625 13:0.5 14:0.5 17:0.125 18:1 19:0.375 20:1 21:1 22:0.5625 26:0.4375 27:0.5 28:0.375 29:0.75 30:0.625 37:0.75 38:0.5 45:1 46:0.125 52:0.5625 53:0.625 59:0.5 60:0.6875 61:0.25 # 0
