SVM-light Version V6.02
0 # kernel type
3 # kernel parameter -d 
1 # kernel parameter -g 
1 # kernel parameter -s 
1 # kernel parameter -r 
empty# kernel parameter -u 
63 # highest feature index 
2823 # number of training documents 
91 # number of support vectors plus 1 
2.6348045 # threshold b, each following line is a SV (starting with alpha*y)
-0.35653341451024234132205492642242 2:0.375 3:1 4:0.8125 5:0.125 9:0.06666667 10:0.6875 11:1 12:0.9375 13:0.1875 17:0.6875 18:1 19:1 20:1 21:0.125 25:0.375 26:0.6875 27:0.6875 28:1 29:0.75 30:0.0625 35:0.0625 36:0.875 37:1 38:0.5 44:0.375 45:1 46:0.8125 52:0.4375 53:1 54:1 55:0.30000001 58:0.125 59:0.75 60:1 61:0.9375 62:0.5 63:0.06666667 # 0
0.39385078788246130621075735689374 2:0.5625 3:1 4:1 5:0.3125 10:0.8125 11:1 12:0.5625 13:0.375 18:0.5625 19:0.75 26:0.1875 27:1 28:0.1875 35:0.75 36:0.625 43:0.3125 44:0.9375 50:0.1875 51:0.3125 52:1 53:0.3125 58:0.4375 59:1 60:0.9375 61:0.0625 # 0
-0.44951972264676642865310896013398 2:0.125 3:0.9375 4:0.6875 10:0.5 11:1 12:0.6875 17:0.0625 18:0.8125 19:1 20:0.4375 25:0.5 26:1 27:1 28:0.4375 33:0.78571427 34:0.5625 35:1 36:0.75 43:0.4375 44:1 45:0.375 51:0.3125 52:1 53:0.9375 54:0.1875 58:0.1875 59:1 60:1 61:1 62:0.9375 63:0.06666667 # 0
0.82157260032392365189934935187921 3:0.375 4:0.8125 5:0.5625 9:0.06666667 10:0.9375 11:1 12:0.4375 13:0.1875 17:0.4375 18:0.9375 19:0.1875 25:0.4375 26:1 27:1 28:0.5 33:0.14285715 34:0.6875 35:0.3125 36:0.75 37:0.4375 44:0.125 45:0.875 51:0.3125 52:0.6875 53:1 54:0.0625 59:0.25 60:0.9375 61:0.5625 # 0
-0.46100111556225809028575213233125 2:0.5 3:1 4:1 5:0.4375 9:0.13333334 10:0.9375 11:0.1875 12:0.625 13:1 17:0.125 18:0.9375 19:0.75 20:0.875 21:0.6875 26:0.5 27:0.5625 28:0.5 29:0.75 36:0.0625 37:0.9375 45:0.875 46:0.125 50:0.0625 51:0.0625 52:0.3125 53:1 54:0.25 58:0.5625 59:0.8125 60:1 61:0.6875 # 0
-1 2:0.3125 3:0.75 4:0.875 9:0.13333334 10:0.875 11:0.625 12:0.9375 17:0.1875 18:0.9375 19:0.6875 20:0.6875 25:0.125 26:0.75 27:0.9375 28:0.6875 29:0.125 36:0.5 37:0.9375 38:0.071428575 44:0.0625 45:0.875 46:0.25 50:0.125 51:0.4375 52:0.25 53:0.875 54:0.1875 58:0.1875 59:0.8125 60:0.875 61:0.625 # 0
-1 1:0.25 2:0.75 3:1 4:1 5:0.5 9:0.53333336 10:0.625 11:0.5625 12:1 13:0.375 18:0.0625 19:0.8125 20:0.8125 26:0.5 27:1 28:0.3125 34:0.125 35:0.875 36:0.9375 37:0.1875 44:0.5625 45:0.9375 46:0.1875 51:0.1875 52:0.25 53:0.875 54:0.6875 57:0.30000001 58:0.9375 59:1 60:1 61:1 62:0.5625 # 0
0.44558870743285372562070278945612 2:0.4375 3:0.8125 4:0.6875 5:0.1875 9:0.13333334 10:0.9375 11:0.5 12:0.5 13:0.125 17:0.375 18:0.6875 19:0.1875 20:0.1875 25:0.4375 26:1 27:1 28:1 29:0.8125 30:0.125 33:0.071428575 34:0.5 35:0.3125 36:0.1875 37:0.6875 38:0.71428573 45:0.125 46:0.875 50:0.125 51:0.3125 52:0.25 53:0.625 54:0.9375 58:0.5 59:1 60:1 61:0.875 62:0.25 # 0
0.29315180949750124783648175252893 2:0.3125 3:1 4:0.9375 5:0.375 10:0.5625 11:0.9375 12:0.8125 13:0.625 18:0.6875 19:0.9375 20:0.6875 21:0.25 26:0.125 27:0.75 28:0.8125 29:1 30:0.125 37:0.4375 38:0.71428573 45:0.25 46:0.8125 50:0.8125 51:0.6875 52:0.5 53:0.875 54:0.6875 58:0.25 59:0.6875 60:0.9375 61:0.9375 62:0.25 # 0
-0.2234048060971782767580862127943 2:0.25 3:0.875 4:0.25 10:0.8125 11:0.75 12:0.125 18:1 19:0.125 25:0.0625 26:1 27:1 28:1 29:0.5625 33:0.14285715 34:1 35:0.3125 37:0.5 38:0.64285713 42:0.875 43:0.25 45:0.0625 46:0.875 50:0.625 51:0.5625 52:0.25 53:0.75 54:0.8125 58:0.25 59:0.9375 60:0.9375 61:0.5625 62:0.125 # 0
1 2:0.5 3:0.75 4:0.8125 5:0.1875 10:0.6875 11:0.9375 12:0.4375 13:0.0625 18:0.9375 19:1 20:0.875 21:0.1875 26:0.25 27:0.3125 28:0.375 29:0.8125 30:0.125 37:0.5625 38:0.5 42:0.375 45:0.125 46:0.75 49:0.1875 50:0.9375 51:0.5 52:0.25 53:0.625 54:0.6875 58:0.5 59:0.75 60:0.8125 61:0.75 62:0.1875 # 0
-0.9236123570511899361079599657387 3:0.25 4:0.8125 5:0.8125 10:0.1875 11:1 12:0.875 13:0.1875 17:0.0625 18:0.9375 19:0.6875 20:0.0625 21:0.0625 25:0.625 26:0.9375 29:0.6875 30:0.5625 33:0.5 34:0.9375 35:0.5625 36:0.5625 37:1 38:0.42857143 42:0.25 43:0.5 44:1 45:0.9375 46:0.0625 51:0.125 52:1 53:0.4375 59:0.1875 60:1 61:0.0625 # 0
1 2:0.125 3:0.6875 4:0.9375 5:0.5 10:0.875 11:0.8125 12:0.8125 13:0.5 18:0.875 19:0.5 20:0.5 21:0.25 26:0.4375 27:1 28:1 29:0.875 30:0.125 34:0.0625 35:0.25 36:0.0625 37:0.8125 38:0.42857143 45:0.4375 46:0.8125 50:0.625 51:0.4375 52:0.125 53:0.4375 54:0.75 58:0.125 59:0.625 60:0.875 61:1 62:0.4375 # 0
1 2:0.125 3:0.625 4:0.75 5:0.875 6:1 7:0.75 10:0.5 11:1 12:1 13:1 14:0.875 15:0.30769232 18:0.125 19:1 20:0.75 21:0.25 26:0.0625 27:1 28:0.9375 29:0.125 35:0.5 36:1 37:0.6875 44:0.8125 45:1 51:0.4375 52:1 53:0.6875 58:0.0625 59:1 60:0.6875 61:0.0625 # 0
-1 2:0.125 3:0.8125 4:1 5:1 6:0.5625 10:0.75 11:0.625 12:0.25 13:0.4375 14:0.75 17:0.0625 18:0.9375 19:0.5 20:0.125 21:0.375 22:0.25 26:0.25 27:0.625 28:1 29:0.5625 36:0.125 37:1 44:0.5625 45:0.6875 51:0.3125 52:0.9375 53:0.25 59:0.8125 60:0.5625 # 0
0.4823511402199013864411369922891 2:0.4375 3:0.8125 4:0.875 5:0.0625 10:1 11:0.625 12:0.3125 17:0.0625 18:1 19:0.8125 20:0.5 21:0.1875 26:0.75 27:0.625 28:0.6875 29:0.9375 30:0.1875 37:0.5625 38:0.5714286 45:0.1875 46:0.6875 49:0.0625 50:0.4375 51:0.25 52:0.25 53:0.6875 54:0.6875 57:0.1 58:0.6875 59:0.875 60:0.9375 61:0.75 62:0.125 # 0
-0.5376730826911491067932047371869 3:0.5 4:0.75 5:0.6875 6:0.1875 10:0.375 11:0.9375 12:0.375 13:0.5 14:0.75 17:0.125 18:0.9375 19:0.625 21:0.1875 22:0.6875 25:0.25 26:1 27:0.875 28:0.75 29:0.875 30:0.25 34:0.5 35:1 36:1 37:0.875 44:0.3125 45:1 46:0.125 51:0.25 52:0.6875 53:0.9375 59:0.8125 60:0.75 61:0.375 # 0
1 2:0.75 3:0.8125 4:0.5625 5:0.375 6:0.125 9:0.26666668 10:1 11:1 12:1 13:1 14:0.4375 17:0.4375 18:0.8125 19:0.1875 20:0.3125 21:0.1875 25:0.4375 26:0.875 27:0.3125 33:0.2857143 34:1 35:1 36:0.3125 41:0.0625 42:0.5625 43:1 44:0.75 50:0.3125 51:0.75 52:0.75 58:0.5 59:0.9375 60:0.3125 # 0
1 2:0.9375 3:0.125 9:0.33333334 10:1 11:0.9375 12:0.6875 13:0.3125 17:0.4375 18:1 19:0.9375 20:0.75 21:0.8125 22:0.25 25:0.0625 26:0.9375 27:0.4375 34:0.3125 35:1 36:0.3125 43:0.625 44:0.875 50:0.0625 51:0.75 52:0.9375 58:0.6875 59:1 60:0.375 # 0
0.96709923753592397233092015085276 2:0.5625 3:0.75 4:0.9375 5:0.625 9:0.40000001 10:1 11:0.875 12:0.75 13:0.625 17:0.3125 18:0.75 19:0.0625 20:0.375 25:0.4375 26:0.9375 27:0.9375 28:1 29:0.25 33:0.42857143 34:0.8125 35:0.6875 36:0.8125 37:0.5625 44:0.75 45:0.5625 50:0.375 51:0.5 52:1 53:0.625 58:0.8125 59:0.9375 60:0.6875 61:0.125 # 0
1 2:0.375 3:1 4:0.9375 5:0.625 6:0.0625 9:0.06666667 10:0.875 11:0.5 12:0.5 13:0.6875 14:0.125 17:0.3125 18:0.75 19:0.6875 20:0.75 21:0.375 25:0.4375 26:1 27:0.875 28:0.75 29:0.9375 30:0.1875 33:0.071428575 34:0.125 37:0.625 38:0.5714286 42:0.0625 45:0.5625 46:0.375 50:0.875 51:0.25 52:0.3125 53:0.875 54:0.0625 58:0.5 59:1 60:0.8125 61:0.1875 # 0
-1 2:0.9375 3:0.5 9:0.13333334 10:1 11:0.9375 12:0.125 18:1 19:0.5 20:0.625 26:0.75 27:0.5 28:0.75 35:0.5 36:0.5 43:0.75 44:0.5 50:0.75 51:1 52:0.9375 53:0.9375 54:0.3125 58:0.9375 59:0.6875 60:0.375 61:0.125 # 0
0.5635505517543428766202850965783 2:0.1875 3:0.625 4:0.6875 5:0.3125 9:0.53333336 10:1 11:0.625 12:0.5 13:0.3125 17:0.6875 18:0.6875 25:0.5 26:0.875 27:0.6875 28:0.5 29:0.25 34:0.1875 35:0.4375 36:0.5625 37:0.875 38:0.64285713 45:0.3125 46:0.8125 50:0.0625 51:0.25 52:0.625 53:1 54:0.3125 58:0.125 59:0.8125 60:0.625 61:0.125 # 0
-1 2:0.75 3:0.4375 9:0.2 10:1 11:1 12:0.1875 17:0.4375 18:0.6875 19:0.5 20:0.375 25:0.1875 26:0.875 27:0.4375 28:0.5 35:0.875 36:0.1875 42:0.25 43:0.9375 49:0.125 50:0.9375 51:1 52:1 53:0.8125 54:0.5625 58:0.75 59:1 60:1 61:1 62:0.4375 # 0
-0.55607332974595458097155642462894 2:0.1875 3:0.5625 4:0.5 10:0.9375 11:0.5625 12:0.0625 17:0.25 18:1 19:0.5 20:0.125 25:0.3125 26:1 27:0.75 28:0.75 29:0.6875 30:0.0625 33:0.2857143 34:0.75 37:0.3125 38:0.71428573 41:0.0625 42:0.875 43:0.1875 45:0.0625 46:0.875 47:0.25 50:0.625 51:0.375 52:0.3125 53:0.875 54:0.8125 58:0.25 59:0.8125 60:0.875 61:0.5 # 0
1 2:0.125 3:0.625 4:0.8125 5:0.3125 10:0.8125 11:0.9375 12:0.6875 13:0.0625 18:0.875 19:0.25 25:0.375 26:0.875 33:0.42857143 34:1 35:1 36:1 37:1 38:0.14285715 41:0.0625 42:0.25 43:0.25 44:0.0625 45:0.9375 46:0.125 51:0.4375 52:0.625 53:1 58:0.0625 59:1 60:0.9375 61:0.4375 # 0
0.041311499241051929942614151514135 2:0.125 3:0.9375 4:0.9375 5:0.6875 6:0.1875 9:0.13333334 10:0.9375 11:0.375 12:0.25 13:0.25 14:0.1875 17:0.3125 18:1 19:0.9375 20:0.4375 25:0.0625 26:0.25 27:0.375 28:0.8125 29:0.8125 37:0.875 38:0.2857143 42:0.1875 43:0.1875 45:0.6875 46:0.1875 50:0.4375 51:0.4375 52:0.625 53:0.75 58:0.1875 59:0.875 60:0.5625 61:0.0625 # 0
1 2:0.125 3:0.875 4:1 5:0.8125 10:0.9375 11:0.5625 12:0.4375 13:0.5625 18:0.875 19:0.375 20:0.3125 21:0.25 26:0.6875 27:1 28:1 29:1 30:0.1875 34:0.0625 35:0.3125 36:0.25 37:0.6875 38:0.5714286 42:0.1875 45:0.4375 46:0.5625 49:0.125 50:1 51:0.6875 52:0.25 53:0.5 54:0.625 58:0.0625 59:0.625 60:0.875 61:0.9375 62:0.1875 # 0
1 2:0.4375 3:0.6875 4:0.9375 5:0.375 9:0.2 10:1 11:0.9375 12:0.75 13:0.25 17:0.3125 18:1 19:0.8125 20:0.875 21:0.5 25:0.375 26:0.9375 27:0.6875 28:0.5 29:0.9375 30:0.375 37:0.5 38:0.5714286 45:0.25 46:0.5 50:0.8125 51:0.5625 52:0.5 53:0.8125 54:0.3125 58:0.375 59:0.6875 60:0.875 61:0.5625 # 0
-1 2:0.0625 3:0.6875 4:1 5:0.5625 10:0.8125 11:0.6875 12:0.375 13:0.625 17:0.25 18:0.875 20:0.5625 21:0.6875 25:0.4375 26:0.9375 27:0.9375 28:1 29:0.9375 30:0.0625 34:0.4375 35:0.375 37:0.875 38:0.5714286 45:0.9375 46:0.3125 51:0.1875 52:0.625 53:0.9375 54:0.125 58:0.125 59:0.75 60:0.625 61:0.0625 # 0
-0.011832339911464817561181916971691 1:0.25 2:0.6875 3:0.9375 4:1 5:0.625 9:0.33333334 10:0.75 11:0.5625 12:1 13:0.9375 19:0.6875 20:0.9375 21:0.3125 26:0.6875 27:1 28:0.1875 34:0.5 35:0.9375 36:1 37:0.5 43:0.125 44:0.5625 45:1 46:0.3125 50:0.4375 51:0.6875 52:0.9375 53:0.875 54:0.1875 58:0.9375 59:0.8125 60:0.4375 # 0
-0.38630430005461757758666863082908 2:0.125 3:0.375 4:0.9375 5:1 6:0.5 10:0.9375 11:1 12:0.625 13:0.5 14:1 17:0.25 18:1 19:0.3125 21:0.4375 22:0.75 25:0.5625 26:1 27:0.625 28:0.625 29:1 30:0.5 33:0.071428575 34:0.5625 35:1 36:0.9375 37:1 38:0.2857143 44:0.5625 45:0.8125 51:0.1875 52:1 53:0.25 59:0.4375 60:0.8125 # 0
1 2:0.875 3:0.6875 4:0.4375 5:0.0625 9:0.13333334 10:1 11:1 12:1 13:0.875 14:0.25 18:0.9375 19:0.6875 21:0.375 22:0.1875 26:0.4375 27:0.875 34:0.125 35:1 36:0.25 42:0.0625 43:0.75 44:0.75 49:0.25 50:0.75 51:0.875 52:0.6875 58:0.875 59:1 60:0.375 # 0
-1 1:0.25 2:0.4375 3:1 4:0.9375 5:0.5 9:0.33333334 10:1 11:0.6875 12:0.9375 13:0.75 18:0.6875 19:0.9375 20:0.8125 26:0.1875 27:1 28:0.0625 34:0.5625 35:1 36:0.0625 42:0.8125 43:0.625 44:0.3125 50:0.875 51:0.5625 52:0.5 58:0.375 59:1 60:0.3125 # 0
0.40874208011958734765300960134482 2:0.25 3:1 4:0.8125 5:1 6:0.8125 10:0.75 11:0.6875 12:0.3125 13:0.25 14:0.125 17:0.0625 18:1 19:0.0625 20:0.5625 21:0.5 22:0.125 25:0.5 26:1 27:0.875 28:0.625 29:0.8125 30:0.375 33:0.071428575 34:0.25 37:0.5625 38:0.42857143 44:0.3125 45:0.6875 46:0.0625 50:0.0625 51:0.375 52:0.875 53:0.25 58:0.375 59:0.9375 60:0.3125 # 0
-0.4582967286768546144593017288571 2:0.125 3:0.8125 4:0.5625 10:0.5 11:1 12:1 17:0.875 18:1 19:1 20:0.5 25:0.375 26:0.75 27:1 28:0.375 34:0.5 35:1 36:0.375 42:0.375 43:1 44:0.4375 50:0.25 51:1 52:0.6875 58:0.0625 59:0.875 60:0.875 # 0
-1 1:0.125 2:0.9375 3:1 4:1 5:1 6:0.5625 9:0.46666667 10:1 11:0.8125 12:0.6875 13:1 14:0.5625 17:0.5625 18:1 19:0.25 20:0.625 21:0.9375 22:0.0625 25:0.5 26:0.5625 27:0.1875 28:0.9375 29:0.5 35:0.625 36:0.9375 42:0.0625 43:1 44:0.5625 50:0.625 51:1 52:0.125 58:1 59:0.8125 # 0
1 2:0.25 3:0.75 4:0.75 5:0.375 10:0.1875 11:0.375 12:0.25 13:0.5 17:0.1875 18:0.8125 19:0.375 20:0.5 21:0.1875 25:0.25 26:1 27:0.8125 28:0.75 29:0.9375 30:0.125 34:0.1875 37:0.625 38:0.5714286 45:0.5 46:0.375 50:0.4375 51:0.375 52:0.3125 53:0.875 54:0.125 58:0.1875 59:0.875 60:0.9375 61:0.375 # 0
-0.49243286755188098169355725985952 2:0.125 3:0.6875 4:1 5:1 6:1 7:0.75 10:0.4375 11:0.9375 12:0.5625 13:0.5 14:0.75 15:1 21:0.0625 22:0.875 23:0.83333331 29:0.6875 30:0.5625 36:0.375 37:0.8125 43:0.0625 44:0.875 45:0.1875 51:0.625 52:0.5625 58:0.0625 59:1 60:0.3125 # 0
-1 1:0.125 2:0.5 3:0.875 4:1 5:0.75 9:0.06666667 10:0.75 11:0.5625 12:0.6875 13:1 19:0.5625 20:0.9375 21:0.3125 25:0.125 26:0.875 27:1 28:0.4375 33:0.071428575 34:0.6875 35:0.8125 36:1 37:0.5625 44:0.125 45:1 46:0.25 50:0.6875 51:0.5 52:0.875 53:0.8125 58:0.6875 59:0.875 60:0.6875 61:0.0625 # 0
1 1:0.375 2:0.9375 3:0.875 4:0.3125 5:0.0625 9:0.80000001 10:1 11:1 12:1 13:1 14:0.3125 17:0.5625 18:1 19:0.9375 20:0.4375 21:0.5 22:0.1875 25:0.0625 26:0.8125 27:0.8125 34:0.375 35:1 36:0.3125 42:0.0625 43:0.9375 44:0.6875 50:0.4375 51:1 52:0.625 57:0.2 58:1 59:0.8125 60:0.0625 # 0
-0.63264467375127575454740735949599 2:0.375 3:0.6875 4:0.4375 5:0.125 10:0.9375 11:1 12:0.9375 13:0.75 17:0.1875 18:1 19:0.4375 21:0.625 22:0.1875 25:0.25 26:0.5 29:0.125 30:0.5 33:0.5714286 34:0.3125 37:0.3125 38:0.5714286 41:0.3125 42:0.4375 45:0.75 46:0.3125 50:0.875 51:0.3125 52:0.8125 53:0.8125 54:0.0625 58:0.4375 59:1 60:0.6875 # 0
-0.13830789920738317810844364430523 1:0.125 2:0.9375 3:0.375 9:0.46666667 10:1 11:1 17:0.6875 18:0.875 19:1 25:0.125 26:0.5 27:0.9375 34:0.875 35:0.625 41:0.3125 42:1 43:0.1875 49:0.625 50:1 51:1 52:1 53:0.75 54:0.3125 57:0.30000001 58:0.9375 59:1 60:0.75 61:0.875 62:0.875 # 0
-1 3:0.625 4:1 5:0.625 10:0.5625 11:1 12:0.75 13:0.5 17:0.0625 18:0.9375 19:0.8125 20:0.0625 25:0.125 26:1 27:0.3125 33:0.14285715 34:1 35:0.5 41:0.125 42:1 43:1 44:0.5625 49:0.0625 50:0.75 51:1 52:1 53:0.1875 59:0.75 60:1 61:0.4375 # 0
-0.28661514624923428717906404017413 2:0.5 3:0.9375 4:0.625 5:0.0625 10:0.9375 11:0.8125 12:0.9375 13:0.625 18:1 19:0.125 21:0.875 22:0.0625 26:0.875 27:0.3125 28:0.4375 29:1 30:0.125 34:0.4375 35:0.75 36:0.6875 37:0.9375 38:0.21428572 45:0.8125 46:0.25 50:0.375 51:0.375 52:0.5625 53:1 54:0.125 58:0.4375 59:0.8125 60:0.875 61:0.1875 # 0
-1 2:0.6875 3:0.75 4:0.4375 9:0.2 10:1 11:0.875 12:1 13:0.1875 17:0.375 18:1 19:0.375 20:1 21:0.375 25:0.125 26:0.9375 27:1 28:1 29:0.875 34:0.25 35:0.5625 36:0.5 37:0.9375 38:0.42857143 45:0.6875 46:0.6875 50:0.125 51:0.25 52:0.5625 53:1 54:0.4375 58:0.625 59:1 60:0.8125 61:0.5 62:0.0625 # 0
0.36168236251897079025496850590571 2:0.5625 3:1 4:1 5:0.875 9:0.2 10:0.9375 11:0.625 12:0.125 13:0.3125 17:0.6875 18:0.5625 25:0.5 26:0.875 27:0.0625 33:0.071428575 34:0.9375 35:0.3125 42:0.6875 43:0.5625 50:0.5625 51:0.75 58:0.875 59:0.5625 # 0
0.65135061515366254880632368440274 2:0.3125 3:0.8125 4:0.5 5:0.1875 6:0.3125 9:0.13333334 10:1 11:0.6875 12:0.1875 13:0.125 14:0.1875 17:0.4375 18:0.8125 19:0.25 20:0.25 25:0.3125 26:1 27:0.75 28:0.875 29:0.6875 36:0.125 37:0.875 38:0.14285715 45:0.8125 46:0.1875 50:0.625 51:0.25 52:0.375 53:0.8125 58:0.375 59:0.875 60:0.8125 61:0.1875 # 0
-0.046630607240619070807952084578574 2:0.0625 3:0.5 4:0.9375 5:1 6:0.4375 9:0.06666667 10:0.8125 11:0.875 12:0.5625 13:1 14:0.5 17:0.5 18:1 19:0.3125 20:0.6875 21:0.9375 22:0.125 25:0.3125 26:1 27:1 28:1 29:0.625 30:0.0625 34:0.0625 35:0.25 36:0.625 37:1 38:0.64285713 44:0.1875 45:1 46:0.4375 51:0.1875 52:0.875 53:0.875 54:0.0625 59:0.6875 60:0.9375 61:0.1875 # 0
-0.62905814950093896786853520097793 1:0.125 2:0.375 3:0.6875 4:1 5:0.375 10:0.3125 11:0.8125 12:0.6875 13:1 14:0.375 18:0.25 19:1 20:0.5 26:0.3125 27:0.9375 33:0.071428575 34:0.8125 35:0.625 36:0.25 41:0.375 42:0.625 43:0.25 44:0.5 49:0.5 50:0.4375 51:0.75 52:0.4375 57:0.2 58:0.8125 59:0.875 # 0
1 2:0.5 3:0.75 4:0.75 10:0.5 11:0.6875 12:0.125 18:0.9375 19:0.8125 20:0.6875 21:0.1875 25:0.0625 26:0.8125 27:0.5 28:0.625 29:0.9375 30:0.0625 37:0.5625 38:0.5 41:0.0625 42:0.0625 45:0.5 46:0.5 49:0.375 50:0.8125 51:0.25 52:0.25 53:0.6875 54:0.5 57:0.1 58:0.4375 59:0.875 60:1 61:0.8125 62:0.125 # 0
0.73290606455747853154036874911981 1:0.125 2:0.5 3:0.75 4:0.75 5:0.375 9:0.60000002 10:1 11:0.6875 12:0.5 13:0.625 14:0.0625 17:0.375 18:0.875 25:0.0625 26:0.75 27:0.9375 28:0.5 35:0.4375 36:0.9375 37:0.3125 44:0.25 45:0.875 52:0.6875 53:0.6875 58:0.75 59:1 60:0.75 61:0.25 # 0
-0.018705075910556506757487227332604 2:0.5 3:1 4:0.9375 5:0.3125 10:0.875 11:1 12:0.6875 13:0.9375 18:1 19:0.125 21:0.5 22:0.25 25:0.125 26:0.75 29:0.5 30:0.375 33:0.21428572 34:0.6875 37:0.6875 38:0.35714287 41:0.1875 42:0.75 44:0.125 45:0.9375 46:0.0625 49:0.0625 50:0.9375 51:0.125 52:0.875 53:0.5 58:0.4375 59:0.9375 60:0.75 # 0
-0.077758511594498092023286517360248 2:0.25 3:0.875 4:0.6875 5:0.0625 9:0.26666668 10:1 11:0.75 12:0.625 13:0.5 17:0.5625 18:0.875 19:0.0625 20:0.4375 21:0.4375 25:0.0625 26:0.125 28:0.9375 29:0.5625 36:0.4375 37:0.9375 38:0.14285715 45:0.3125 46:0.6875 50:0.75 51:0.1875 52:0.25 53:0.625 54:0.6875 58:0.375 59:0.9375 60:0.9375 61:0.6875 62:0.0625 # 0
0.01425093947724948018063173549308 2:0.0625 3:0.4375 4:0.6875 5:0.8125 6:0.6875 7:0.3125 10:0.4375 11:1 12:1 13:0.8125 14:1 15:0.30769232 18:0.875 19:0.5 25:0.25 26:1 27:0.5625 28:0.5 29:0.3125 33:0.5714286 34:1 35:1 36:1 37:1 38:0.14285715 41:0.125 42:0.25 43:0.25 44:0.75 45:0.9375 51:0.4375 52:1 53:0.3125 59:0.75 60:0.3125 # 0
0.76483952849678016328027752024354 2:0.5 3:0.875 4:0.75 5:0.5625 6:0.0625 10:0.9375 11:0.3125 12:0.5 13:0.5 14:0.0625 18:0.875 19:0.0625 26:0.9375 27:0.25 33:0.35714287 34:1 35:1 36:1 37:0.5625 41:0.0625 42:0.25 44:0.0625 45:0.9375 46:0.3125 50:0.0625 51:0.25 52:0.25 53:0.875 54:0.1875 58:0.3125 59:1 60:0.9375 61:0.1875 # 0
-1 2:0.375 3:0.625 4:0.9375 5:0.6875 6:0.0625 9:0.06666667 10:0.9375 11:0.5625 12:0.375 13:0.75 14:0.25 17:0.3125 18:1 21:0.3125 22:0.375 25:0.25 26:0.875 29:0.375 30:0.5 33:0.42857143 34:0.5625 37:0.75 38:0.14285715 41:0.4375 42:0.5625 44:0.375 45:0.6875 49:0.1875 50:0.9375 51:0.5 52:0.9375 53:0.25 58:0.625 59:0.875 60:0.3125 # 0
-1 3:0.375 4:0.875 5:1 6:0.4375 10:0.625 11:0.9375 12:0.375 13:0.9375 14:0.4375 17:0.25 18:1 19:0.1875 20:0.125 21:0.75 25:0.1875 26:0.9375 27:0.6875 28:0.4375 29:1 30:0.1875 34:0.125 35:0.5625 36:0.9375 37:0.8125 43:0.25 44:0.9375 45:0.3125 51:0.5 52:1 59:0.3125 60:1 # 0
1 2:0.1875 3:0.875 4:0.8125 5:0.125 9:0.06666667 10:0.9375 11:1 12:1 13:0.1875 17:0.125 18:0.875 19:0.9375 20:0.3125 26:0.3125 27:0.9375 28:0.375 35:0.3125 36:1 37:0.4375 44:0.25 45:0.9375 46:0.4375 50:0.1875 51:0.5 52:0.75 53:1 54:0.8125 58:0.1875 59:0.75 60:0.9375 61:0.875 62:0.25 # 0
-1 2:0.375 3:1 4:0.5625 9:0.13333334 10:0.9375 11:1 12:0.875 17:0.125 18:0.625 19:1 20:0.375 25:0.125 26:1 27:1 28:0.5625 29:0.125 34:0.1875 35:0.625 36:1 37:0.875 38:0.071428575 44:0.625 45:1 46:0.3125 50:0.25 51:0.5 52:0.5 53:1 54:0.4375 58:0.5 59:1 60:1 61:0.8125 # 0
1 3:0.75 4:1 5:0.8125 10:0.375 11:1 12:0.625 13:0.3125 16:0.33333334 17:0.875 18:0.125 19:0.375 25:0.75 26:0.6875 33:0.21428572 34:0.875 35:0.6875 36:0.0625 42:0.1875 43:0.8125 44:0.6875 51:0.3125 52:1 53:0.375 59:0.8125 60:1 61:0.375 # 0
1 2:0.0625 3:0.4375 4:0.75 5:0.4375 10:0.375 11:1 12:0.625 13:0.3125 18:0.875 19:1 20:0.875 21:0.25 26:0.1875 27:0.25 28:0.375 29:0.8125 37:0.6875 38:0.42857143 45:0.4375 46:0.5625 50:0.625 51:0.3125 52:0.125 53:0.5 54:0.6875 58:0.25 59:0.875 60:1 61:1 62:0.25 # 0
-0.49389929043952085496727022473351 3:1 4:0.875 5:0.0625 10:0.4375 11:1 12:0.9375 13:0.125 17:0.5625 18:1 19:1 20:0.6875 24:1 25:0.9375 26:0.9375 27:1 28:0.625 33:0.14285715 34:0.1875 35:1 36:0.5625 43:1 44:0.5625 50:0.125 51:1 52:0.375 59:1 60:0.5 # 0
1 2:0.5625 3:1 4:1 5:1 6:0.4375 9:0.33333334 10:1 11:0.8125 12:0.375 13:0.125 14:0.0625 17:0.6875 18:0.9375 19:0.875 20:0.5 25:0.375 26:0.9375 27:0.75 28:1 29:0.5 36:0.625 37:0.9375 41:0.0625 42:0.8125 43:0.1875 44:0.3125 45:0.9375 49:0.1875 50:1 51:0.5625 52:0.9375 53:0.5625 58:0.5 59:1 60:0.875 61:0.0625 # 0
1 2:0.1875 3:0.75 4:0.9375 5:0.1875 10:0.5625 11:0.9375 12:0.9375 13:0.4375 18:0.75 19:0.875 20:0.75 21:0.0625 26:0.5 27:1 28:1 29:0.875 37:0.8125 38:0.5 45:0.4375 46:0.75 49:0.125 50:1 51:0.625 52:0.5 53:0.8125 54:0.625 58:0.375 59:0.6875 60:1 61:0.875 62:0.1875 # 0
1 2:0.3125 3:0.9375 4:0.75 5:0.1875 10:0.5625 11:0.75 12:0.625 13:0.1875 18:0.875 19:0.375 26:0.9375 27:1 28:1 29:0.1875 34:0.4375 35:0.5 36:0.625 37:0.625 44:0.3125 45:0.8125 50:0.25 51:0.75 52:1 53:0.6875 58:0.375 59:1 60:0.6875 61:0.125 # 0
-0.57991028133637456676297006197274 3:0.625 4:0.8125 5:0.1875 10:0.4375 11:1 12:0.75 13:0.375 18:0.75 19:0.8125 20:0.0625 26:1 27:1 28:1 29:0.625 33:0.14285715 34:1 35:0.9375 36:0.0625 37:0.75 38:0.5714286 42:1 43:0.25 45:0.375 46:0.9375 50:0.6875 51:0.875 52:0.5 53:0.9375 54:0.875 55:0.1 58:0.125 59:0.6875 60:1 61:0.6875 62:0.125 # 0
-1 3:0.25 4:0.5625 5:0.9375 6:0.125 10:0.375 11:0.9375 12:0.6875 13:0.8125 14:0.25 17:0.1875 18:1 19:0.25 20:0.25 21:0.9375 26:0.9375 27:1 28:1 29:1 30:0.0625 34:0.125 35:0.25 36:0.1875 37:0.9375 38:0.42857143 44:0.0625 45:1 46:0.0625 51:0.1875 52:0.75 53:0.3125 59:0.4375 60:0.625 # 0
1 2:0.125 3:0.4375 4:0.75 5:0.5 10:0.6875 11:1 12:1 13:0.375 18:0.375 19:0.75 26:0.8125 27:0.5 28:0.25 34:0.875 35:1 36:1 37:0.875 38:0.071428575 42:0.1875 43:0.5 44:0.5625 45:1 46:0.125 51:0.5625 52:0.625 53:0.875 59:0.8125 60:0.8125 61:0.25 # 0
-0.36957670557150912316046742489561 2:0.5 3:0.875 4:0.75 5:0.125 9:0.66666669 10:0.875 11:0.75 12:0.875 17:0.375 18:0.125 19:0.6875 20:0.4375 27:0.75 28:0.3125 35:0.5 36:0.9375 37:0.125 44:0.5625 45:0.875 46:0.1875 50:0.375 51:0.125 52:0.4375 53:0.875 54:0.5 58:0.875 59:0.9375 60:0.6875 61:0.25 # 0
1 2:0.1875 3:0.625 4:0.4375 5:0.9375 6:0.8125 10:0.75 11:0.5625 12:1 13:1 14:0.8125 17:0.0625 18:1 19:0.75 20:0.875 21:0.5 22:0.25 25:0.0625 26:0.875 27:1 28:1 29:1 30:0.625 35:0.0625 37:0.6875 38:0.42857143 44:0.25 45:0.9375 46:0.125 50:0.125 51:0.8125 52:0.9375 53:0.1875 58:0.25 59:0.8125 60:0.1875 # 0
1 2:0.375 3:0.9375 4:0.75 5:0.625 6:0.5 10:0.6875 11:1 12:1 13:1 14:0.4375 17:0.0625 18:0.875 19:0.6875 20:0.75 21:0.375 25:0.25 26:1 27:1 28:1 29:0.8125 33:0.14285715 34:0.6875 35:0.5 36:0.625 37:1 38:0.14285715 44:0.0625 45:1 46:0.0625 51:0.6875 52:0.8125 53:0.9375 58:0.25 59:1 60:0.75 61:0.0625 # 0
-1 1:0.125 2:0.8125 3:1 4:0.5 5:0.0625 9:0.53333336 10:0.875 11:0.625 12:1 13:0.5 17:0.6875 18:0.875 19:0.9375 20:1 21:0.5625 26:0.5 27:0.4375 28:0.375 29:1 30:0.25 37:1 38:0.2857143 42:0.0625 45:0.875 46:0.5 49:0.1875 50:1 51:0.125 52:0.625 53:0.9375 54:0.0625 57:0.2 58:0.8125 59:1 60:0.75 61:0.0625 # 0
-1 3:0.5 4:0.9375 5:1 6:0.4375 9:0.06666667 10:0.875 11:0.5625 12:0.0625 14:0.5 17:0.375 18:0.75 21:0.625 22:0.5 25:0.25 26:0.875 27:0.75 28:0.8125 29:0.875 30:0.5 36:0.0625 37:0.25 38:0.5714286 45:0.25 46:0.5 53:0.4375 54:0.5 59:0.5 60:0.75 61:0.9375 62:0.375 # 0
1 2:0.0625 3:0.75 4:1 5:1 6:0.25 10:0.625 11:1 12:0.8125 13:0.5 14:0.0625 18:0.625 19:0.8125 26:0.8125 27:0.75 28:0.25 34:0.875 35:1 36:1 37:0.375 42:0.375 43:0.5625 44:0.9375 45:0.875 52:0.5625 53:0.875 58:0.25 59:0.75 60:0.9375 61:0.375 # 0
-1 2:0.1875 3:0.75 4:0.9375 5:0.1875 10:0.875 11:0.9375 12:0.875 13:0.25 17:0.0625 18:1 19:0.9375 20:0.0625 25:0.1875 26:1 27:1 28:0.3125 29:0.125 30:0.0625 33:0.14285715 34:1 35:0.6875 36:0.25 37:0.5 38:0.71428573 41:0.125 42:1 43:0.125 45:0.375 46:0.8125 50:0.6875 51:0.6875 52:0.25 53:0.6875 54:0.625 58:0.0625 59:0.625 60:0.8125 61:0.625 62:0.1875 # 0
1 2:0.6875 3:1 4:1 5:0.25 10:0.75 11:1 12:0.75 13:0.1875 17:0.125 18:1 19:1 20:0.9375 21:0.25 26:0.3125 27:0.5 28:0.6875 29:0.9375 30:0.1875 37:0.625 38:0.85714287 42:0.1875 43:0.0625 45:0.1875 46:1 50:1 51:0.75 52:0.5 53:0.6875 54:1 55:0.1 58:0.5 59:0.875 60:1 61:1 62:0.6875 # 0
-0.48064461317723683464464556891471 2:0.75 3:0.625 9:0.2 10:0.8125 11:1 12:0.25 17:0.375 18:1 19:1 20:0.4375 26:0.5 27:0.9375 28:0.5625 35:0.625 36:0.875 43:0.375 44:1 45:0.375 50:0.5625 51:0.8125 52:1 53:0.8125 54:0.5 55:0.30000001 58:0.5625 59:1 60:1 61:1 62:1 63:0.60000002 # 0
-1 1:0.25 2:0.8125 3:1 4:0.875 5:0.1875 9:0.13333334 10:0.5 11:0.6875 12:1 13:0.5 18:0.1875 19:1 20:0.75 21:0.0625 26:0.0625 27:0.6875 28:0.875 29:0.125 36:0.4375 37:0.8125 45:0.6875 46:0.4375 49:0.4375 50:0.6875 51:0.25 52:0.25 53:0.8125 54:0.4375 57:0.2 58:0.6875 59:1 60:0.75 61:0.625 # 0
1 2:0.0625 3:0.375 4:0.75 5:0.875 6:0.25 10:0.25 11:0.8125 12:0.5 13:0.1875 18:0.8125 19:0.25 25:0.1875 26:0.9375 27:0.3125 28:0.125 33:0.5714286 34:1 35:1 36:1 37:0.75 41:0.125 42:0.25 43:0.1875 44:0.4375 45:0.9375 46:0.1875 51:0.125 52:0.4375 53:0.875 54:0.0625 59:0.5 60:0.75 61:0.25 # 0
-0.99376607078736800549023655548808 3:0.8125 4:0.4375 10:0.5625 11:1 12:0.25 17:0.0625 18:0.875 19:0.6875 25:0.4375 26:1 27:0.4375 28:0.375 29:1 30:0.3125 34:0.625 35:0.875 36:1 37:0.875 38:0.071428575 43:0.5 44:1 45:0.375 51:0.9375 52:0.375 59:1 60:0.5625 # 0
0.18572733651392070441943360492587 2:0.75 3:1 4:0.9375 5:0.3125 9:0.2 10:0.9375 11:0.5 12:0.4375 13:0.3125 17:0.5625 18:0.8125 19:0.5 20:0.5 21:0.125 25:0.25 26:0.9375 27:0.75 28:0.9375 29:1 30:0.1875 36:0.0625 37:0.875 38:0.5714286 42:0.0625 45:0.6875 46:0.625 49:0.125 50:1 51:0.5625 52:0.5625 53:0.9375 54:0.1875 58:0.5 59:0.6875 60:0.8125 61:0.25 # 0
-1 2:0.1875 3:0.75 4:0.875 5:0.1875 10:0.6875 11:0.6875 12:0.5 13:0.8125 17:0.3125 18:0.9375 19:0.0625 21:0.4375 22:0.125 25:0.1875 26:0.9375 27:0.1875 29:0.1875 30:0.375 33:0.21428572 34:0.6875 35:0.125 37:0.25 38:0.5 41:0.0625 42:0.5625 45:0.3125 46:0.4375 50:0.6875 51:0.25 52:0.25 53:0.875 54:0.125 58:0.125 59:0.8125 60:0.9375 61:0.5625 # 0
-1 2:0.8125 3:1 4:1 5:0.375 9:0.40000001 10:1 11:0.375 12:0.625 13:1 17:0.0625 18:0.4375 19:0.3125 20:0.875 21:0.5 26:0.0625 27:0.9375 28:1 29:0.8125 30:0.0625 35:0.1875 36:0.25 37:0.8125 38:0.71428573 45:0.5625 46:0.6875 49:0.125 50:0.875 51:0.3125 52:0.375 53:1 54:0.25 57:0.1 58:0.9375 59:1 60:1 61:0.625 # 0
-1 2:0.0625 3:0.75 4:0.9375 5:0.0625 10:0.625 11:1 12:1 17:0.1875 18:1 19:0.9375 20:0.625 25:0.375 26:1 27:0.9375 28:0.9375 29:0.125 34:0.25 35:0.125 36:0.875 37:0.9375 38:0.071428575 44:0.1875 45:0.9375 46:0.3125 50:0.125 51:0.875 52:0.875 53:1 54:0.3125 59:0.9375 60:1 61:0.8125 62:0.0625 # 0
0.67538604626770171179828139429446 1:0.75 2:1 3:1 4:0.8125 5:0.1875 9:0.80000001 10:1 11:0.75 12:0.9375 13:1 14:0.3125 17:0.625 18:0.875 19:0.0625 21:0.25 22:0.0625 25:0.125 26:0.9375 27:0.5 34:0.4375 35:1 36:0.125 42:0.125 43:0.9375 44:0.5625 49:0.0625 50:0.3125 51:0.9375 52:0.625 57:0.69999999 58:1 59:0.9375 60:0.0625 # 0
-1 1:0.125 2:0.4375 3:0.8125 4:1 5:1 6:0.5 9:0.33333334 10:1 11:0.75 12:1 13:1 14:0.3125 18:0.0625 19:0.25 20:1 21:0.5 27:0.6875 28:1 29:0.5625 30:0.0625 36:0.5625 37:0.9375 38:0.71428573 45:0.8125 46:0.5625 51:0.3125 52:0.6875 53:1 54:0.3125 58:0.375 59:1 60:0.875 61:0.4375 # 0
-0.41604504982865125883861878719472 3:0.9375 4:0.875 5:0.375 10:0.1875 11:1 12:1 13:0.375 17:0.125 18:0.8125 19:1 20:0.75 25:0.5 26:1 27:1 28:0.4375 33:0.071428575 34:0.625 35:1 36:0.3125 42:0.4375 43:1 44:0.375 50:0.3125 51:1 52:0.5625 59:0.8125 60:0.9375 # 0
-0.21961399670246600779321966001589 2:0.5 3:1 4:0.375 9:0.13333334 10:0.875 11:0.5 12:0.75 13:0.125 17:0.4375 18:0.875 19:0.5625 20:0.9375 21:0.5625 25:0.0625 26:0.75 27:0.8125 28:0.4375 29:0.875 37:0.6875 38:0.2857143 45:0.5 46:0.5 50:0.125 51:0.25 52:0.3125 53:0.8125 54:0.4375 58:0.375 59:0.9375 60:0.9375 61:0.625 # 0
0.43649882880387935735200244380394 2:0.1875 3:0.8125 4:0.9375 5:1 6:1 7:0.1875 10:0.625 11:1 12:0.8125 13:0.8125 14:0.6875 15:0.07692308 18:0.6875 19:1 20:0.6875 21:0.25 26:0.25 27:0.8125 28:1 29:0.9375 30:0.0625 35:0.125 36:0.8125 37:1 38:0.071428575 44:0.375 45:1 51:0.3125 52:0.9375 53:0.4375 58:0.1875 59:1 60:0.5625 # 0
