SVM-light Version V6.02
1 # kernel type
8 # kernel parameter -d 
1 # kernel parameter -g 
1 # kernel parameter -s 
1 # kernel parameter -r 
empty# kernel parameter -u 
63 # highest feature index 
2823 # number of training documents 
178 # number of support vectors plus 1 
0.33252112 # threshold b, each following line is a SV (starting with alpha*y)
-7.6917051877234204710010759831478e-10 2:0.9375 3:0.5 9:0.13333334 10:1 11:0.9375 12:0.125 18:1 19:0.5 20:0.625 26:0.75 27:0.5 28:0.75 35:0.5 36:0.5 43:0.75 44:0.5 50:0.75 51:1 52:0.9375 53:0.9375 54:0.3125 58:0.9375 59:0.6875 60:0.375 61:0.125 # 0
-7.8718215529479574424386647955214e-11 2:0.75 3:0.875 4:0.0625 9:0.53333336 10:1 11:0.75 12:0.375 17:0.5 18:0.4375 19:0.4375 20:0.5 27:0.5625 28:0.4375 35:0.6875 36:0.3125 43:0.875 44:0.0625 50:0.5625 51:0.8125 52:0.25 53:0.4375 54:0.25 58:0.9375 59:1 60:1 61:1 62:0.8125 # 0
-2.5537037538780820713945317910825e-10 2:0.1875 3:0.6875 4:1 5:1 6:0.875 7:0.0625 10:0.75 11:0.625 12:0.25 13:0.4375 14:0.9375 18:0.4375 19:0.875 20:0.9375 21:1 22:0.25 28:0.4375 29:0.75 35:0.0625 36:0.875 37:0.25 43:0.3125 44:0.8125 51:0.75 52:0.4375 58:0.125 59:0.875 # 0
-6.8061375435196702906134102597038e-10 2:0.1875 3:0.625 4:0.9375 5:0.5 9:0.2 10:0.9375 11:0.5625 12:0.5 13:0.75 17:0.5 18:0.5 20:0.3125 21:0.6875 25:0.125 26:0.375 28:0.625 29:0.4375 35:0.3125 36:0.875 37:0.0625 43:0.875 44:0.3125 50:0.25 51:1 52:0.25 53:0.3125 54:0.6875 58:0.0625 59:0.875 60:0.9375 61:0.6875 62:0.125 # 0
-6.4631431558067733113230937082511e-11 3:0.4375 4:0.6875 11:0.6875 12:0.3125 13:0.125 18:0.1875 19:0.875 20:0.1875 21:0.875 26:0.5 27:0.375 28:0.4375 29:0.4375 33:0.071428575 34:0.9375 35:0.25 36:0.75 37:0.5625 38:0.2857143 41:0.3125 42:1 43:1 44:1 45:0.9375 46:0.5 49:0.0625 50:0.0625 51:0.375 52:0.625 59:0.625 60:0.5625 # 0
-3.4039852264045911195672217660951e-10 2:0.25 3:0.875 4:0.9375 5:0.3125 9:0.46666667 10:0.875 11:0.4375 12:0.375 13:1 17:0.625 18:0.375 21:0.6875 22:0.1875 25:0.25 26:0.125 28:0.0625 29:0.875 36:0.625 37:0.4375 43:0.3125 44:0.8125 45:0.0625 50:0.375 51:1 52:0.5 58:0.3125 59:0.5625 60:0.75 61:0.75 62:1 63:0.13333334 # 0
2.6839995575179117479424304864048e-09 2:0.375 3:0.75 4:0.8125 5:0.75 6:0.375 10:0.375 11:0.5 12:0.125 13:0.3125 14:0.4375 18:0.75 19:0.125 25:0.4375 26:0.9375 27:0.75 28:0.4375 29:0.125 33:0.14285715 34:0.5 35:0.5 36:0.5625 37:0.9375 38:0.2857143 45:0.4375 46:0.4375 50:0.25 51:0.3125 52:0.25 53:0.8125 54:0.125 58:0.25 59:0.9375 60:1 61:0.375 # 0
-1.2078996366075002681566868034582e-09 3:0.375 4:0.875 5:0.125 10:0.25 11:1 12:0.5625 13:0.1875 18:0.8125 19:0.5 26:0.9375 27:0.625 28:0.125 33:0.2857143 34:1 35:0.6875 36:0.8125 37:0.5625 42:0.625 43:0.5 45:0.5625 46:0.5 50:0.125 51:0.8125 52:0.1875 53:0.625 54:0.5 59:0.25 60:0.875 61:1 62:0.125 # 0
-7.7848227123477309827194777958515e-10 2:0.1875 3:0.625 4:0.875 5:0.875 6:0.1875 10:0.9375 11:0.375 12:0.5625 13:1 14:0.25 18:0.0625 19:0.3125 20:0.875 21:0.375 26:0.4375 27:1 28:0.5625 29:0.0625 34:0.125 35:0.5625 36:0.8125 37:0.9375 38:0.071428575 44:0.25 45:1 46:0.125 51:0.4375 52:0.9375 53:0.375 59:0.875 60:0.4375 # 0
5.0902531896958657667412677502641e-09 2:0.6875 3:1 4:1 5:0.5 10:0.6875 11:0.75 12:0.5 13:0.8125 18:0.4375 19:0.625 26:0.1875 27:0.8125 35:0.875 36:0.125 43:0.8125 44:0.375 50:0.375 51:0.75 52:0.625 58:0.6875 59:1 60:0.5625 # 0
-1.8411006412332594348601552415026e-12 2:0.0625 3:0.6875 4:0.5 10:0.5 11:0.9375 12:0.1875 17:0.0625 18:0.9375 19:0.25 25:0.25 26:1 27:0.5 28:0.9375 29:0.875 30:0.1875 33:0.2857143 34:0.875 35:0.6875 36:0.4375 37:0.3125 38:0.71428573 41:0.0625 42:0.8125 45:0.0625 46:0.8125 50:0.6875 51:0.3125 53:0.5625 54:0.8125 58:0.125 59:0.6875 60:1 61:0.75 62:0.0625 # 0
1.4807483215847471954412874802897e-09 2:0.5 3:0.75 4:0.8125 5:0.1875 10:0.6875 11:0.9375 12:0.4375 13:0.0625 18:0.9375 19:1 20:0.875 21:0.1875 26:0.25 27:0.3125 28:0.375 29:0.8125 30:0.125 37:0.5625 38:0.5 42:0.375 45:0.125 46:0.75 49:0.1875 50:0.9375 51:0.5 52:0.25 53:0.625 54:0.6875 58:0.5 59:0.75 60:0.8125 61:0.75 62:0.1875 # 0
1.0621662798264809133251879353678e-09 2:0.25 3:1 4:0.8125 5:1 6:0.8125 10:0.75 11:0.6875 12:0.3125 13:0.25 14:0.125 17:0.0625 18:1 19:0.0625 20:0.5625 21:0.5 22:0.125 25:0.5 26:1 27:0.875 28:0.625 29:0.8125 30:0.375 33:0.071428575 34:0.25 37:0.5625 38:0.42857143 44:0.3125 45:0.6875 46:0.0625 50:0.0625 51:0.375 52:0.875 53:0.25 58:0.375 59:0.9375 60:0.3125 # 0
-7.1398184306269575093191126426324e-10 3:0.4375 4:0.625 10:0.4375 11:1 12:0.3125 18:0.875 19:0.6875 25:0.25 26:1 27:0.3125 28:0.25 29:0.5 33:0.21428572 34:1 35:1 36:1 37:0.875 41:0.0625 42:0.375 43:0.5 44:1 45:0.4375 51:0.1875 52:1 53:0.3125 59:0.5625 60:0.8125 61:0.125 # 0
-1.4689047173993518178370774843656e-11 3:0.375 4:0.8125 11:0.8125 12:0.5625 18:0.0625 19:1 20:0.1875 26:0.1875 27:0.9375 34:0.375 35:0.875 36:0.5 37:0.4375 38:0.071428575 42:0.4375 43:1 44:0.75 45:0.75 46:0.8125 47:0.5 50:0.25 51:1 52:0.1875 53:0.1875 54:0.8125 55:0.69999999 59:0.4375 60:1 61:1 62:0.6875 63:0.06666667 # 0
-5.7986324974821666817657103161878e-10 3:0.4375 4:0.875 5:0.4375 10:0.1875 11:0.8125 12:0.25 13:0.75 14:0.0625 18:0.8125 19:0.1875 21:0.75 22:0.25 25:0.0625 26:0.8125 28:0.375 29:1 30:0.375 34:0.9375 35:0.9375 36:0.5625 37:0.75 38:0.21428572 42:0.0625 43:0.0625 45:0.5625 46:0.125 50:0.125 51:0.5625 52:0.125 53:0.75 58:0.0625 59:0.5625 60:0.9375 61:0.4375 # 0
-8.1084361528364831099073347034102e-11 2:0.375 3:0.9375 4:0.0625 9:0.13333334 10:1 11:0.4375 17:0.5 18:0.9375 21:0.4375 22:0.1875 25:0.6875 26:0.8125 27:0.25 28:0.5 29:1 30:0.3125 33:0.35714287 34:1 35:1 36:1 37:0.625 42:0.0625 43:0.875 44:0.9375 50:0.25 51:1 52:0.375 58:0.625 59:0.8125 # 0
2.207322083600368803477418738556e-12 2:0.125 3:0.625 4:0.8125 5:0.25 10:0.6875 11:1 12:0.9375 13:0.3125 17:0.3125 18:1 19:0.6875 20:0.125 25:0.625 26:0.9375 27:0.125 33:0.21428572 34:0.8125 35:0.9375 36:0.3125 43:0.5 44:1 45:0.375 50:0.125 51:0.625 52:1 53:0.4375 58:0.1875 59:0.9375 60:0.625 # 0
-9.6173909925824217684298256185829e-11 2:0.75 3:0.75 4:1 5:1 6:0.5625 10:0.5 11:0.375 12:0.25 13:0.8125 14:0.5 19:0.25 20:0.5 21:1 22:0.375 25:0.1875 26:1 27:1 28:1 29:0.6875 30:0.25 34:0.1875 35:0.5625 36:0.5625 42:0.1875 43:0.875 50:0.6875 51:0.4375 58:0.875 59:0.1875 # 0
-3.4734417445283956601232386769706e-10 2:0.3125 3:0.9375 4:0.5 9:0.13333334 10:0.9375 11:0.5625 12:0.625 13:0.1875 14:0.0625 17:0.375 18:0.5625 19:0.4375 20:0.6875 21:0.875 22:0.0625 25:0.125 26:0.9375 27:0.8125 28:0.5 29:0.125 33:0.071428575 34:0.9375 35:0.375 41:0.0625 42:1 43:0.75 49:0.0625 50:1 51:0.8125 52:0.0625 58:0.5 59:0.9375 60:0.1875 # 0
-3.2710223821956070017441527239977e-09 2:0.125 3:0.8125 4:1 5:1 6:0.5625 10:0.75 11:0.625 12:0.25 13:0.4375 14:0.75 17:0.0625 18:0.9375 19:0.5 20:0.125 21:0.375 22:0.25 26:0.25 27:0.625 28:1 29:0.5625 36:0.125 37:1 44:0.5625 45:0.6875 51:0.3125 52:0.9375 53:0.25 59:0.8125 60:0.5625 # 0
-4.4928843835186639597343707938702e-10 2:0.75 3:0.3125 10:1 11:0.125 17:0.1875 18:0.75 25:0.25 26:0.75 33:0.5 34:0.875 35:1 36:0.875 37:0.1875 41:0.1875 42:1 43:0.5 44:0.5625 45:1 46:0.25 49:0.125 50:1 51:0.1875 52:0.25 53:1 54:0.25 58:0.6875 59:0.75 60:0.6875 61:0.25 # 0
-3.3182925933503053192012977916305e-10 2:0.625 3:0.4375 9:0.06666667 10:0.875 11:0.5 17:0.3125 18:1 19:0.1875 20:0.125 21:0.5 22:0.25 25:0.4375 26:1 27:0.875 28:1 29:0.9375 30:0.3125 34:0.25 35:0.5 36:1 37:0.75 43:0.375 44:1 45:0.125 50:0.3125 51:1 52:0.4375 58:0.6875 59:0.5625 # 0
1.6272420056214851914231835506696e-09 2:0.1875 3:0.875 4:0.8125 5:0.125 9:0.06666667 10:0.9375 11:1 12:1 13:0.1875 17:0.125 18:0.875 19:0.9375 20:0.3125 26:0.3125 27:0.9375 28:0.375 35:0.3125 36:1 37:0.4375 44:0.25 45:0.9375 46:0.4375 50:0.1875 51:0.5 52:0.75 53:1 54:0.8125 58:0.1875 59:0.75 60:0.9375 61:0.875 62:0.25 # 0
1.6599688115453775740080151127184e-09 3:0.75 4:1 5:0.8125 10:0.375 11:1 12:0.625 13:0.3125 16:0.33333334 17:0.875 18:0.125 19:0.375 25:0.75 26:0.6875 33:0.21428572 34:0.875 35:0.6875 36:0.0625 42:0.1875 43:0.8125 44:0.6875 51:0.3125 52:1 53:0.375 59:0.8125 60:1 61:0.375 # 0
-8.8661716934318043208759951408974e-11 2:0.375 3:1 4:0.5625 9:0.13333334 10:0.9375 11:1 12:0.875 17:0.125 18:0.625 19:1 20:0.375 25:0.125 26:1 27:1 28:0.5625 29:0.125 34:0.1875 35:0.625 36:1 37:0.875 38:0.071428575 44:0.625 45:1 46:0.3125 50:0.25 51:0.5 52:0.5 53:1 54:0.4375 58:0.5 59:1 60:1 61:0.8125 # 0
-4.6289062283528388147322849211418e-10 2:0.3125 3:0.75 4:0.875 5:0.1875 9:0.2 10:0.875 11:0.125 12:0.25 13:0.6875 17:0.25 18:0.75 20:0.3125 21:1 22:0.25 25:0.0625 26:0.875 27:0.375 28:0.875 29:0.25 34:0.4375 35:1 36:0.25 42:0.4375 43:1 44:0.25 50:0.625 51:0.8125 52:0.6875 58:0.4375 59:1 60:0.6875 # 0
2.1688219248033771067746880711484e-10 2:0.1875 3:0.625 4:0.4375 5:0.9375 6:0.8125 10:0.75 11:0.5625 12:1 13:1 14:0.8125 17:0.0625 18:1 19:0.75 20:0.875 21:0.5 22:0.25 25:0.0625 26:0.875 27:1 28:1 29:1 30:0.625 35:0.0625 37:0.6875 38:0.42857143 44:0.25 45:0.9375 46:0.125 50:0.125 51:0.8125 52:0.9375 53:0.1875 58:0.25 59:0.8125 60:0.1875 # 0
1.13176973125136058627228775792e-10 2:0.1875 3:0.8125 4:0.9375 5:1 6:1 7:0.1875 10:0.625 11:1 12:0.8125 13:0.8125 14:0.6875 15:0.07692308 18:0.6875 19:1 20:0.6875 21:0.25 26:0.25 27:0.8125 28:1 29:0.9375 30:0.0625 35:0.125 36:0.8125 37:1 38:0.071428575 44:0.375 45:1 51:0.3125 52:0.9375 53:0.4375 58:0.1875 59:1 60:0.5625 # 0
9.0765687448325984037897930483806e-10 2:0.3125 3:0.625 4:0.75 5:1 6:1 7:0.125 10:0.625 11:1 12:1 13:0.625 14:0.375 18:0.3125 19:1 20:0.3125 27:0.75 28:1 29:0.125 36:0.75 37:0.75 44:0.8125 45:0.5625 50:0.0625 51:0.75 52:0.8125 53:0.125 58:0.4375 59:0.8125 60:0.125 # 0
-1.7362454835731990300424539291104e-10 2:0.0625 3:0.4375 4:0.75 5:0.3125 10:0.25 11:1 12:0.5625 13:0.375 18:0.6875 19:0.5 26:0.9375 27:0.5 28:0.5 29:0.3125 34:1 35:1 36:0.75 37:1 38:0.14285715 42:0.9375 43:0.3125 45:0.9375 46:0.3125 50:0.6875 51:0.5625 52:0.5 53:1 54:0.25 58:0.125 59:0.875 60:0.9375 61:0.5 # 0
-6.3473014875848400898239451906128e-11 4:0.6875 5:0.5 11:0.125 12:1 13:0.5 19:0.375 20:1 21:0.125 27:0.4375 28:0.9375 35:0.625 36:0.875 42:0.8125 43:1 44:1 45:0.6875 50:0.4375 51:0.4375 52:1 53:1 54:0.625 60:0.5 61:1 62:0.9375 # 0
8.6143185196128076222634238043362e-10 2:0.125 3:0.4375 4:0.75 5:0.5 10:0.6875 11:1 12:1 13:0.375 18:0.375 19:0.75 26:0.8125 27:0.5 28:0.25 34:0.875 35:1 36:1 37:0.875 38:0.071428575 42:0.1875 43:0.5 44:0.5625 45:1 46:0.125 51:0.5625 52:0.625 53:0.875 59:0.8125 60:0.8125 61:0.25 # 0
9.9503565213347185393017283220555e-10 1:0.125 2:0.5 3:0.75 4:0.75 5:0.375 9:0.60000002 10:1 11:0.6875 12:0.5 13:0.625 14:0.0625 17:0.375 18:0.875 25:0.0625 26:0.75 27:0.9375 28:0.5 35:0.4375 36:0.9375 37:0.3125 44:0.25 45:0.875 52:0.6875 53:0.6875 58:0.75 59:1 60:0.75 61:0.25 # 0
8.6105171788952179972775329984576e-09 2:0.25 3:0.875 4:1 5:0.4375 9:0.06666667 10:1 11:0.875 12:0.5 13:0.3125 17:0.5 18:0.625 25:0.1875 26:0.8125 34:0.75 35:0.375 42:0.25 43:0.8125 51:1 52:0.3125 58:0.4375 59:1 60:0.25 # 0
2.2855634498004642649711993034024e-10 2:0.25 3:0.625 4:1 5:1 6:0.6875 7:0.0625 10:0.75 11:0.8125 12:0.6875 13:0.5 14:0.4375 17:0.1875 18:1 19:1 20:1 21:0.25 25:0.3125 26:1 27:0.5625 28:0.9375 29:0.375 36:0.375 37:0.6875 44:0.6875 45:0.5 50:0.0625 51:0.5 52:0.8125 53:0.125 58:0.25 59:0.8125 60:0.25 # 0
1.0047849816650210743510209646426e-09 2:0.5625 3:1 4:1 5:0.3125 10:0.8125 11:1 12:0.5625 13:0.375 18:0.5625 19:0.75 26:0.1875 27:1 28:0.1875 35:0.75 36:0.625 43:0.3125 44:0.9375 50:0.1875 51:0.3125 52:1 53:0.3125 58:0.4375 59:1 60:0.9375 61:0.0625 # 0
-7.0695792013135692302363624735863e-11 1:0.125 2:0.5 3:0.875 4:1 5:0.75 9:0.06666667 10:0.75 11:0.5625 12:0.6875 13:1 19:0.5625 20:0.9375 21:0.3125 25:0.125 26:0.875 27:1 28:0.4375 33:0.071428575 34:0.6875 35:0.8125 36:1 37:0.5625 44:0.125 45:1 46:0.25 50:0.6875 51:0.5 52:0.875 53:0.8125 58:0.6875 59:0.875 60:0.6875 61:0.0625 # 0
1.9455708930120183661952754675752e-10 1:0.25 2:0.375 3:0.6875 4:0.5 9:0.60000002 10:1 11:0.875 12:0.3125 17:0.5625 18:1 19:0.75 20:0.5 21:0.125 25:0.5 26:0.9375 27:0.5 28:0.6875 29:0.8125 30:0.0625 37:0.5 38:0.71428573 45:0.3125 46:0.875 50:0.375 51:0.375 52:0.25 53:0.5 54:0.875 58:0.3125 59:0.9375 60:1 61:0.9375 62:0.4375 # 0
2.8875798556397881650585693764878e-09 2:0.125 3:0.9375 4:0.9375 5:0.6875 6:0.1875 9:0.13333334 10:0.9375 11:0.375 12:0.25 13:0.25 14:0.1875 17:0.3125 18:1 19:0.9375 20:0.4375 25:0.0625 26:0.25 27:0.375 28:0.8125 29:0.8125 37:0.875 38:0.2857143 42:0.1875 43:0.1875 45:0.6875 46:0.1875 50:0.4375 51:0.4375 52:0.625 53:0.75 58:0.1875 59:0.875 60:0.5625 61:0.0625 # 0
-1.0070353375654948490864885262774e-10 4:0.5 5:0.8125 6:0.0625 10:0.0625 11:0.5625 12:0.9375 13:0.875 14:0.0625 17:0.375 18:0.875 19:1 20:1 21:0.625 25:0.3125 26:0.6875 27:0.25 28:1 29:0.5625 35:0.1875 36:1 37:0.3125 43:0.1875 44:1 45:0.4375 52:1 53:0.625 60:0.6875 61:0.8125 # 0
-9.9912986343675500499139636590015e-11 4:0.5 5:0.6875 11:0.125 12:0.875 13:0.375 19:0.6875 20:0.5625 21:0.125 22:0.1875 26:0.5625 27:0.75 28:0.0625 29:0.6875 30:0.5625 33:0.2857143 34:1 35:0.375 37:0.8125 38:0.35714287 41:0.5 42:1 43:1 44:1 45:1 51:0.1875 52:0.5 53:0.9375 60:0.375 61:0.75 # 0
-1.3754660937236058070973603999773e-10 2:0.375 3:1 4:0.5 9:0.13333334 10:1 11:0.875 12:0.9375 17:0.125 18:1 19:0.8125 20:1 21:0.5625 26:0.5 27:0.9375 28:1 29:0.875 30:0.0625 37:0.8125 38:0.5 45:0.1875 46:0.8125 50:0.1875 51:0.25 52:0.25 53:0.4375 54:0.9375 58:0.4375 59:0.8125 60:1 61:0.8125 62:0.5625 # 0
-5.1526746038891300332813486540233e-10 2:0.1875 3:0.75 4:0.9375 5:0.4375 10:0.25 11:0.5625 12:0.1875 13:0.75 18:0.8125 19:0.3125 20:0.6875 21:0.3125 26:0.1875 27:1 28:0.6875 34:0.125 35:1 36:0.5625 42:0.625 43:0.375 44:0.6875 45:0.375 50:0.8125 51:0.1875 52:0.4375 53:0.75 58:0.25 59:0.9375 60:0.8125 61:0.5 # 0
-5.7878976218950147274262395353183e-10 3:0.625 4:0.375 10:0.3125 11:1 12:0.5625 18:0.625 19:1 20:0.625 25:0.25 26:0.9375 27:0.75 28:0.75 33:0.14285715 34:0.25 35:0.1875 36:1 37:0.125 44:0.6875 45:0.5625 51:0.4375 52:0.75 53:0.9375 54:0.25 59:0.75 60:1 61:1 62:0.5 # 0
-3.9713233362160273213340690622237e-10 3:0.5 4:0.75 5:0.6875 6:0.1875 10:0.375 11:0.9375 12:0.375 13:0.5 14:0.75 17:0.125 18:0.9375 19:0.625 21:0.1875 22:0.6875 25:0.25 26:1 27:0.875 28:0.75 29:0.875 30:0.25 34:0.5 35:1 36:1 37:0.875 44:0.3125 45:1 46:0.125 51:0.25 52:0.6875 53:0.9375 59:0.8125 60:0.75 61:0.375 # 0
-1.526019745258264730539751845905e-10 3:0.5 4:0.5 5:0.5 6:0.8125 7:0.5 10:0.375 11:0.9375 12:0.8125 13:0.875 14:0.9375 15:0.07692308 18:0.8125 19:0.375 21:0.75 22:0.3125 26:0.875 27:0.3125 28:0.3125 29:0.625 34:0.0625 35:0.625 36:1 37:0.875 38:0.14285715 43:0.75 44:0.75 45:0.375 46:0.0625 51:0.875 52:0.25 59:0.75 60:0.0625 # 0
6.278117363140422943423369795066e-11 2:0.625 3:0.8125 4:1 5:0.625 10:0.9375 11:0.5625 12:0.125 13:0.125 17:0.25 18:1 19:1 20:0.875 21:0.25 26:0.1875 27:0.0625 28:0.25 29:1 30:0.1875 37:0.75 38:0.5 45:0.75 46:0.4375 49:0.3125 50:0.5 52:0.25 53:0.9375 54:0.0625 57:0.1 58:0.6875 59:0.875 60:0.9375 61:0.125 # 0
1.1999073965162033710816210459096e-09 2:0.9375 3:0.125 9:0.33333334 10:1 11:0.9375 12:0.6875 13:0.3125 17:0.4375 18:1 19:0.9375 20:0.75 21:0.8125 22:0.25 25:0.0625 26:0.9375 27:0.4375 34:0.3125 35:1 36:0.3125 43:0.625 44:0.875 50:0.0625 51:0.75 52:0.9375 58:0.6875 59:1 60:0.375 # 0
-6.7659963510611398371352786528551e-10 2:0.3125 3:0.75 4:0.9375 5:0.875 6:0.625 7:0.1875 10:0.25 11:0.4375 12:0.25 13:0.3125 14:0.875 15:0.23076923 21:0.5625 22:0.6875 28:0.25 29:1 30:0.25 33:0.14285715 34:0.5 35:0.5625 36:1 37:0.625 41:0.1875 42:0.75 43:1 44:0.5625 50:0.3125 51:0.875 58:0.375 59:0.5625 # 0
-6.7563478579262306185016310062759e-11 1:0.125 2:0.8125 3:1 4:0.5 5:0.0625 9:0.53333336 10:0.875 11:0.625 12:1 13:0.5 17:0.6875 18:0.875 19:0.9375 20:1 21:0.5625 26:0.5 27:0.4375 28:0.375 29:1 30:0.25 37:1 38:0.2857143 42:0.0625 45:0.875 46:0.5 49:0.1875 50:1 51:0.125 52:0.625 53:0.9375 54:0.0625 57:0.2 58:0.8125 59:1 60:0.75 61:0.0625 # 0
-4.8911770555184928042511140856364e-10 2:0.5625 3:0.75 4:1 5:0.4375 9:0.66666669 10:0.6875 11:0.125 13:1 17:0.1875 18:0.125 20:0.625 21:0.5 27:0.4375 28:0.9375 29:0.3125 35:0.4375 36:0.5625 37:0.875 38:0.14285715 45:0.5 46:0.625 50:0.125 51:0.125 52:0.25 53:0.875 54:0.3125 58:0.875 59:1 60:0.875 61:0.125 # 0
-3.7839104262975565025323015616967e-10 1:0.25 2:0.4375 3:1 4:0.9375 5:0.5 9:0.33333334 10:1 11:0.6875 12:0.9375 13:0.75 18:0.6875 19:0.9375 20:0.8125 26:0.1875 27:1 28:0.0625 34:0.5625 35:1 36:0.0625 42:0.8125 43:0.625 44:0.3125 50:0.875 51:0.5625 52:0.5 58:0.375 59:1 60:0.3125 # 0
-7.0059270968566685152477087268922e-10 3:0.1875 4:0.8125 11:0.75 12:0.5 18:0.3125 19:0.875 20:0.125 25:0.0625 26:0.9375 27:0.25 29:0.1875 30:0.5 33:0.9285714 34:0.9375 35:0.75 36:0.5625 37:0.8125 38:0.71428573 41:0.3125 42:0.5 43:0.5 44:0.9375 45:0.875 46:0.125 51:0.125 52:0.875 53:0.3125 59:0.375 60:0.75 # 0
-5.7581186267367874377315361500928e-10 1:0.25 2:0.75 3:0.9375 4:1 5:0.625 6:0.0625 9:0.2 10:1 11:0.3125 12:0.625 13:1 14:0.1875 19:0.3125 20:0.9375 21:0.4375 27:0.875 28:0.5 35:0.9375 36:0.25 43:0.25 44:0.875 45:0.125 49:0.0625 50:0.125 51:0.125 52:0.9375 53:0.375 57:0.2 58:0.75 59:0.9375 60:0.75 61:0.0625 # 0
-1.5969241138919372147268261969354e-10 2:0.125 3:0.8125 4:0.5625 10:0.5 11:1 12:1 17:0.875 18:1 19:1 20:0.5 25:0.375 26:0.75 27:1 28:0.375 34:0.5 35:1 36:0.375 42:0.375 43:1 44:0.4375 50:0.25 51:1 52:0.6875 58:0.0625 59:0.875 60:0.875 # 0
5.8653536909158978670903366507103e-11 2:0.375 3:0.9375 4:0.9375 5:0.25 10:0.6875 11:0.625 12:0.25 13:0.125 18:0.8125 19:0.6875 20:0.125 26:0.75 27:0.875 28:0.75 29:0.3125 36:0.1875 37:0.9375 38:0.21428572 45:0.25 46:0.6875 50:0.9375 51:0.5 52:0.1875 53:0.125 54:0.9375 58:0.3125 59:0.75 60:1 61:1 62:0.75 # 0
1.0875834987268153479262254603702e-09 2:0.125 3:0.6875 4:0.9375 5:0.5 10:0.875 11:0.8125 12:0.8125 13:0.5 18:0.875 19:0.5 20:0.5 21:0.25 26:0.4375 27:1 28:1 29:0.875 30:0.125 34:0.0625 35:0.25 36:0.0625 37:0.8125 38:0.42857143 45:0.4375 46:0.8125 50:0.625 51:0.4375 52:0.125 53:0.4375 54:0.75 58:0.125 59:0.625 60:0.875 61:1 62:0.4375 # 0
3.5473758878919404447365751299141e-09 2:0.5625 3:1 4:1 5:0.875 9:0.2 10:0.9375 11:0.625 12:0.125 13:0.3125 17:0.6875 18:0.5625 25:0.5 26:0.875 27:0.0625 33:0.071428575 34:0.9375 35:0.3125 42:0.6875 43:0.5625 50:0.5625 51:0.75 58:0.875 59:0.5625 # 0
-1.5294546450038675233147167270066e-09 2:0.1875 3:0.5625 4:0.5 10:0.9375 11:0.5625 12:0.0625 17:0.25 18:1 19:0.5 20:0.125 25:0.3125 26:1 27:0.75 28:0.75 29:0.6875 30:0.0625 33:0.2857143 34:0.75 37:0.3125 38:0.71428573 41:0.0625 42:0.875 43:0.1875 45:0.0625 46:0.875 47:0.25 50:0.625 51:0.375 52:0.3125 53:0.875 54:0.8125 58:0.25 59:0.8125 60:0.875 61:0.5 # 0
-1.9751010940669546942585087971958e-09 3:0.5 4:0.9375 5:1 6:0.4375 9:0.06666667 10:0.875 11:0.5625 12:0.0625 14:0.5 17:0.375 18:0.75 21:0.625 22:0.5 25:0.25 26:0.875 27:0.75 28:0.8125 29:0.875 30:0.5 36:0.0625 37:0.25 38:0.5714286 45:0.25 46:0.5 53:0.4375 54:0.5 59:0.5 60:0.75 61:0.9375 62:0.375 # 0
-1.9682833366302226664736720670047e-09 1:0.125 2:0.375 3:0.6875 4:1 5:0.375 10:0.3125 11:0.8125 12:0.6875 13:1 14:0.375 18:0.25 19:1 20:0.5 26:0.3125 27:0.9375 33:0.071428575 34:0.8125 35:0.625 36:0.25 41:0.375 42:0.625 43:0.25 44:0.5 49:0.5 50:0.4375 51:0.75 52:0.4375 57:0.2 58:0.8125 59:0.875 # 0
-2.0909046598527571603840501778665e-10 2:0.1875 3:0.6875 4:0.9375 5:0.5 10:0.5625 11:0.875 12:0.5 13:0.5625 18:0.375 19:0.875 20:0.3125 27:0.75 28:1 29:0.4375 34:0.25 35:0.875 36:0.6875 37:0.6875 42:0.75 43:0.5 45:1 46:0.0625 50:0.875 51:0.6875 52:0.6875 53:0.9375 54:0.0625 58:0.1875 59:0.8125 60:0.8125 61:0.375 # 0
-3.7513081920026106183119894273907e-10 3:0.625 4:1 5:0.625 10:0.5625 11:1 12:0.75 13:0.5 17:0.0625 18:0.9375 19:0.8125 20:0.0625 25:0.125 26:1 27:0.3125 33:0.14285715 34:1 35:0.5 41:0.125 42:1 43:1 44:0.5625 49:0.0625 50:0.75 51:1 52:1 53:0.1875 59:0.75 60:1 61:0.4375 # 0
-4.681421454255015414737745470719e-10 2:0.125 3:0.8125 4:1 5:0.375 10:0.6875 11:0.625 12:0.0625 18:0.875 19:0.0625 25:0.0625 26:0.9375 33:0.071428575 34:0.875 35:0.375 36:0.5 37:0.125 42:0.9375 43:0.8125 44:0.5 45:0.6875 46:0.0625 50:0.5625 51:0.75 53:0.5625 54:0.4375 59:0.8125 60:1 61:0.9375 62:0.375 # 0
-3.1140574014968866086648693045948e-09 2:0.3125 3:0.75 4:0.875 9:0.13333334 10:0.875 11:0.625 12:0.9375 17:0.1875 18:0.9375 19:0.6875 20:0.6875 25:0.125 26:0.75 27:0.9375 28:0.6875 29:0.125 36:0.5 37:0.9375 38:0.071428575 44:0.0625 45:0.875 46:0.25 50:0.125 51:0.4375 52:0.25 53:0.875 54:0.1875 58:0.1875 59:0.8125 60:0.875 61:0.625 # 0
-3.5895783608866061570193971194112e-10 2:0.3125 3:0.75 4:0.625 9:0.13333334 10:0.9375 11:0.875 12:1 13:0.0625 18:0.6875 19:0.1875 20:1 21:0.0625 28:0.6875 29:0.3125 36:0.4375 37:0.875 45:0.5625 46:0.625 50:0.625 51:0.4375 52:0.3125 53:0.75 54:0.75 58:0.375 59:0.875 60:1 61:0.8125 62:0.25 # 0
-1.0988652866703013443875890797633e-09 2:0.375 3:0.625 4:0.9375 5:0.6875 6:0.0625 9:0.06666667 10:0.9375 11:0.5625 12:0.375 13:0.75 14:0.25 17:0.3125 18:1 21:0.3125 22:0.375 25:0.25 26:0.875 29:0.375 30:0.5 33:0.42857143 34:0.5625 37:0.75 38:0.14285715 41:0.4375 42:0.5625 44:0.375 45:0.6875 49:0.1875 50:0.9375 51:0.5 52:0.9375 53:0.25 58:0.625 59:0.875 60:0.3125 # 0
-5.2970102931890523870407083800626e-11 3:0.8125 4:0.4375 10:0.5625 11:1 12:0.25 17:0.0625 18:0.875 19:0.6875 25:0.4375 26:1 27:0.4375 28:0.375 29:1 30:0.3125 34:0.625 35:0.875 36:1 37:0.875 38:0.071428575 43:0.5 44:1 45:0.375 51:0.9375 52:0.375 59:1 60:0.5625 # 0
-1.5743436515652764470691866559998e-10 3:0.5 4:0.875 5:0.9375 6:0.125 10:0.5625 11:0.75 12:0.25 13:0.8125 14:0.4375 18:0.875 19:0.8125 20:0.5 21:0.875 22:0.1875 26:0.1875 27:1 28:1 29:1 30:0.125 37:0.9375 42:0.1875 44:0.0625 45:1 46:0.0625 50:0.875 51:0.8125 52:0.5625 53:0.875 58:0.125 59:0.625 60:0.75 61:0.25 # 0
1.1974045170098579885824935817805e-09 3:0.4375 4:0.8125 5:0.875 6:0.25 10:0.9375 11:0.8125 12:0.25 14:0.0625 17:0.0625 18:1 19:0.125 25:0.3125 26:1 27:0.5625 28:0.875 29:0.8125 30:0.0625 33:0.5 34:0.9375 35:0.5 36:0.0625 37:0.6875 38:0.2857143 45:0.8125 46:0.25 51:0.3125 52:0.4375 53:0.75 59:0.5 60:0.875 61:0.1875 # 0
-3.4514496472455505988110135268641e-10 2:0.25 3:0.8125 4:1 5:1 6:0.5625 9:0.13333334 10:0.75 11:0.375 12:0.0625 13:0.75 14:0.75 17:0.0625 18:0.1875 19:0.125 20:0.9375 21:0.625 27:0.6875 28:0.5625 35:0.25 36:0.875 37:0.125 44:0.8125 45:0.625 52:0.625 53:0.6875 57:0.60000002 58:0.5625 59:0.8125 60:0.75 61:0.0625 # 0
1.0597605851212304418330931128156e-09 2:0.375 3:0.5625 4:0.9375 5:0.875 6:0.125 9:0.53333336 10:0.8125 11:0.75 12:0.375 13:0.25 14:0.0625 17:0.625 18:0.8125 19:0.5 20:0.1875 25:0.125 26:0.6875 27:0.9375 28:1 29:0.3125 36:0.4375 37:0.75 44:0.0625 45:0.8125 51:0.0625 52:0.5625 53:0.75 58:0.5 59:0.75 60:0.625 61:0.0625 # 0
4.4232842477644257577939300119733e-10 1:0.125 2:0.6875 3:0.75 4:0.75 5:0.8125 6:0.125 9:0.46666667 10:1 11:0.5625 12:0.5 13:0.5 14:0.125 17:0.4375 18:0.875 19:0.5 20:0.5 21:0.0625 25:0.1875 26:0.9375 27:0.6875 28:0.6875 29:0.8125 36:0.25 37:1 44:0.5625 45:0.8125 50:0.125 51:0.6875 52:0.875 53:0.25 58:0.75 59:0.5625 60:0.0625 # 0
3.0169482153025847554483421524181e-10 2:0.4375 3:0.8125 4:0.875 5:0.0625 10:1 11:0.625 12:0.3125 17:0.0625 18:1 19:0.8125 20:0.5 21:0.1875 26:0.75 27:0.625 28:0.6875 29:0.9375 30:0.1875 37:0.5625 38:0.5714286 45:0.1875 46:0.6875 49:0.0625 50:0.4375 51:0.25 52:0.25 53:0.6875 54:0.6875 57:0.1 58:0.6875 59:0.875 60:0.9375 61:0.75 62:0.125 # 0
-9.6724793137572546310410291582529e-10 1:0.25 2:0.6875 3:0.1875 5:0.125 9:0.13333334 10:0.8125 11:0.75 12:0.3125 13:0.9375 14:0.375 18:0.6875 19:0.875 20:0.875 21:0.0625 26:0.4375 27:0.9375 28:0.0625 34:0.9375 35:0.75 36:0.3125 41:0.25 42:0.625 43:0.25 44:0.5 49:0.4375 50:0.5625 51:0.4375 52:0.5 57:0.2 58:0.875 59:0.9375 60:0.3125 # 0
-8.7287208933245129750143910779114e-10 2:0.75 3:1 4:0.375 9:0.46666667 10:0.75 11:0.25 12:0.875 17:0.6875 18:0.875 20:0.375 21:0.25 25:0.375 26:0.5 28:0.4375 29:0.25 36:0.625 37:0.1875 43:0.3125 44:0.8125 50:0.1875 51:0.875 52:0.625 58:0.875 59:0.8125 60:0.75 61:0.9375 62:0.8125 63:0.06666667 # 0
-1.0233717480968590023964166090646e-10 3:0.5 4:0.9375 10:0.1875 11:1 12:0.625 17:0.0625 18:0.875 19:0.9375 25:0.25 26:1 27:0.625 33:0.14285715 34:0.875 35:1 36:1 37:1 38:0.42857143 42:0.1875 43:0.75 44:1 45:0.9375 46:0.125 51:0.1875 52:1 53:0.625 59:0.25 60:0.8125 61:0.1875 # 0
-4.0430148594409647881107861831014e-10 2:0.3125 3:1 4:0.8125 5:0.0625 10:0.75 11:0.875 12:0.9375 13:0.3125 18:0.75 19:0.625 20:1 21:0.4375 26:0.1875 27:0.9375 28:1 29:0.75 36:0.125 37:0.9375 38:0.14285715 45:0.5 46:0.5625 49:0.125 50:0.75 51:0.5 52:0.5 53:0.8125 54:0.75 57:0.1 58:0.375 59:0.625 60:0.75 61:0.75 62:0.125 # 0
9.9649919100976430000813518041077e-11 2:0.25 3:0.5625 4:0.5625 9:0.06666667 10:1 11:0.9375 12:0.75 13:0.625 17:0.1875 18:1 19:0.3125 25:0.375 26:1 27:1 28:0.4375 33:0.21428572 34:1 35:0.9375 36:1 37:0.0625 42:0.0625 44:0.75 45:0.3125 50:0.8125 51:0.625 52:1 53:0.375 58:0.5 59:1 60:0.5625 # 0
-1.0740827903856028022172552504628e-10 2:0.0625 3:0.6875 4:0.375 10:0.4375 11:0.8125 12:0.125 18:0.8125 19:0.375 25:0.0625 26:0.8125 27:0.0625 33:0.071428575 34:0.75 36:0.25 37:0.1875 41:0.0625 42:0.6875 43:0.6875 44:0.875 45:0.875 46:0.625 50:0.75 51:0.9375 52:0.3125 53:0.25 54:0.9375 55:0.30000001 58:0.0625 59:0.8125 60:1 61:0.75 62:0.5625 63:0.06666667 # 0
8.3914499835797270055692625122246e-09 2:0.25 3:0.75 4:0.75 5:0.375 10:0.1875 11:0.375 12:0.25 13:0.5 17:0.1875 18:0.8125 19:0.375 20:0.5 21:0.1875 25:0.25 26:1 27:0.8125 28:0.75 29:0.9375 30:0.125 34:0.1875 37:0.625 38:0.5714286 45:0.5 46:0.375 50:0.4375 51:0.375 52:0.3125 53:0.875 54:0.125 58:0.1875 59:0.875 60:0.9375 61:0.375 # 0
3.1966161074824839852357988826846e-09 2:0.1875 3:0.625 4:0.6875 5:0.3125 9:0.53333336 10:1 11:0.625 12:0.5 13:0.3125 17:0.6875 18:0.6875 25:0.5 26:0.875 27:0.6875 28:0.5 29:0.25 34:0.1875 35:0.4375 36:0.5625 37:0.875 38:0.64285713 45:0.3125 46:0.8125 50:0.0625 51:0.25 52:0.625 53:1 54:0.3125 58:0.125 59:0.8125 60:0.625 61:0.125 # 0
-1.8919933207271890573559256865186e-09 2:0.5 3:0.875 4:0.75 5:0.125 9:0.66666669 10:0.875 11:0.75 12:0.875 17:0.375 18:0.125 19:0.6875 20:0.4375 27:0.75 28:0.3125 35:0.5 36:0.9375 37:0.125 44:0.5625 45:0.875 46:0.1875 50:0.375 51:0.125 52:0.4375 53:0.875 54:0.5 58:0.875 59:0.9375 60:0.6875 61:0.25 # 0
-2.1765948522523988730282854474861e-09 2:0.125 3:0.8125 4:0.75 5:0.25 9:0.06666667 10:0.9375 11:0.75 12:0.1875 13:0.8125 14:0.125 17:0.5 18:0.8125 19:0.5 21:0.375 22:0.25 25:0.5 26:0.25 27:0.1875 29:0.1875 30:0.5 33:0.35714287 34:0.3125 37:0.375 38:0.42857143 41:0.0625 42:0.875 43:0.0625 45:0.5 46:0.1875 50:0.5 51:0.5 52:0.3125 53:0.8125 54:0.0625 59:0.6875 60:0.9375 61:0.375 # 0
-4.7036508650836314884657590260487e-10 3:0.4375 4:0.75 5:0.125 10:0.3125 11:0.875 12:0.5625 13:0.1875 18:1 19:0.5 25:0.1875 26:0.8125 33:0.2857143 34:0.5625 35:0.75 36:0.875 37:0.4375 41:0.0625 42:0.6875 43:0.75 44:0.5 45:0.4375 46:0.6875 47:0.25 50:0.25 51:0.625 52:0.125 54:0.6875 55:0.5 59:0.375 60:0.8125 61:0.875 62:0.875 63:0.06666667 # 0
1.097049568874558142033414659992e-10 2:0.4375 3:0.8125 4:0.6875 5:0.1875 9:0.13333334 10:0.9375 11:0.5 12:0.5 13:0.125 17:0.375 18:0.6875 19:0.1875 20:0.1875 25:0.4375 26:1 27:1 28:1 29:0.8125 30:0.125 33:0.071428575 34:0.5 35:0.3125 36:0.1875 37:0.6875 38:0.71428573 45:0.125 46:0.875 50:0.125 51:0.3125 52:0.25 53:0.625 54:0.9375 58:0.5 59:1 60:1 61:0.875 62:0.25 # 0
2.8822862734379538191415621610275e-09 2:0.0625 3:0.375 4:0.75 5:0.875 6:0.25 10:0.25 11:0.8125 12:0.5 13:0.1875 18:0.8125 19:0.25 25:0.1875 26:0.9375 27:0.3125 28:0.125 33:0.5714286 34:1 35:1 36:1 37:0.75 41:0.125 42:0.25 43:0.1875 44:0.4375 45:0.9375 46:0.1875 51:0.125 52:0.4375 53:0.875 54:0.0625 59:0.5 60:0.75 61:0.25 # 0
-1.2810802752830817509989822648752e-10 3:0.375 4:0.5 10:0.125 11:0.875 12:0.1875 18:0.5625 19:0.5 25:0.25 26:0.9375 27:0.0625 29:0.625 30:0.3125 33:0.5 34:0.8125 36:0.125 37:1 38:0.21428572 41:0.6875 42:0.875 43:0.5 44:0.9375 45:0.5625 49:0.75 50:1 51:0.875 52:0.9375 57:0.1 58:0.25 59:0.5625 60:0.5 # 0
-1.4587828305071483569744588109762e-09 2:0.125 3:0.8125 4:0.8125 5:0.25 10:0.75 11:0.8125 12:0.6875 13:0.875 18:0.5625 19:0.8125 20:0.8125 21:0.875 22:0.0625 27:0.25 28:0.5 29:0.8125 30:0.1875 37:0.4375 38:0.64285713 45:0.1875 46:0.8125 50:0.875 51:0.375 53:0.375 54:0.75 58:0.125 59:0.75 60:1 61:1 62:0.4375 # 0
7.9752699739303288036271613657777e-10 1:0.125 2:0.6875 3:0.75 4:0.75 5:0.75 6:0.25 10:0.9375 11:0.5 12:0.5 13:0.6875 14:0.4375 18:0.75 26:0.8125 27:0.0625 33:0.21428572 34:1 35:0.9375 36:0.6875 37:0.3125 42:0.25 43:0.25 44:0.625 45:0.9375 46:0.125 50:0.75 51:0.3125 52:0.3125 53:0.875 54:0.1875 58:0.6875 59:0.8125 60:0.75 61:0.5 # 0
-1.2280518008255484492735115702134e-10 3:0.6875 4:0.8125 10:0.3125 11:0.9375 12:0.8125 17:0.1875 18:1 19:1 20:0.625 26:0.4375 27:1 28:0.625 35:0.9375 36:0.625 43:0.9375 44:0.5 51:1 52:0.375 59:0.75 60:0.6875 # 0
-9.3726522461207787184821461733261e-10 2:0.4375 3:0.8125 6:0.1875 7:0.5 10:0.9375 11:0.4375 13:0.1875 14:0.9375 15:0.53846157 18:1 19:0.75 20:0.375 21:0.875 22:0.5625 26:0.375 27:0.75 28:1 29:0.75 35:0.125 36:0.875 37:0.125 43:0.5625 44:0.5625 50:0.125 51:0.8125 52:0.0625 58:0.5 59:0.3125 # 0
-1.5221552959760233614959477503126e-10 1:0.125 2:0.9375 3:0.375 9:0.46666667 10:0.9375 11:1 12:0.1875 17:0.6875 18:0.3125 19:0.75 20:0.25 25:0.125 26:0.1875 27:0.625 28:0.4375 34:0.0625 35:1 36:0.125 42:0.375 43:0.875 50:0.875 51:1 52:1 53:0.9375 54:0.375 58:0.5 59:0.5 60:0.5 61:0.625 62:0.8125 # 0
-7.4940151012808867637718213198599e-12 2:0.25 3:0.6875 4:1 5:0.75 6:0.3125 10:0.375 11:0.4375 12:0.1875 13:0.6875 14:0.5625 21:0.75 22:0.25 27:0.1875 28:0.625 29:0.625 34:0.25 35:1 36:0.9375 37:0.125 42:0.0625 43:0.4375 44:0.75 45:0.9375 46:0.0625 50:0.5 51:0.4375 52:0.3125 53:0.9375 58:0.4375 59:0.75 60:0.9375 61:0.375 # 0
3.3732045436692320120011076605348e-09 2:0.0625 3:0.4375 4:0.75 5:0.4375 10:0.375 11:1 12:0.625 13:0.3125 18:0.875 19:1 20:0.875 21:0.25 26:0.1875 27:0.25 28:0.375 29:0.8125 37:0.6875 38:0.42857143 45:0.4375 46:0.5625 50:0.625 51:0.3125 52:0.125 53:0.5 54:0.6875 58:0.25 59:0.875 60:1 61:1 62:0.25 # 0
-1.9862329930153317825109737250998e-09 2:0.0625 3:0.6875 4:1 5:0.5625 10:0.8125 11:0.6875 12:0.375 13:0.625 17:0.25 18:0.875 20:0.5625 21:0.6875 25:0.4375 26:0.9375 27:0.9375 28:1 29:0.9375 30:0.0625 34:0.4375 35:0.375 37:0.875 38:0.5714286 45:0.9375 46:0.3125 51:0.1875 52:0.625 53:0.9375 54:0.125 58:0.125 59:0.75 60:0.625 61:0.0625 # 0
-1.1361656169040237981324365486107e-09 2:0.125 3:0.75 4:1 5:0.4375 11:0.625 12:1 13:0.1875 19:0.1875 20:0.9375 21:0.3125 28:0.375 29:0.9375 30:0.1875 37:0.5 38:1 45:0.6875 46:1 51:0.1875 52:0.8125 53:1 54:0.5625 58:0.375 59:1 60:0.75 61:0.5 62:0.0625 # 0
-2.3446326306836117636211733135159e-09 2:0.1875 3:0.6875 4:0.8125 5:0.5 9:0.06666667 10:0.875 11:0.3125 12:0.0625 13:0.75 14:0.1875 17:0.25 18:0.75 21:0.5 22:0.6875 25:0.0625 26:0.9375 27:0.375 28:0.25 29:0.9375 30:0.25 34:0.125 35:0.5 36:0.625 37:0.875 38:0.2857143 45:0.6875 46:0.25 51:0.125 52:0.125 53:0.6875 54:0.25 58:0.125 59:0.875 60:0.6875 61:0.4375 62:0.0625 # 0
-1.8284608869035450669781348118775e-09 2:0.1875 3:0.75 4:0.875 5:0.1875 10:0.6875 11:0.6875 12:0.5 13:0.8125 17:0.3125 18:0.9375 19:0.0625 21:0.4375 22:0.125 25:0.1875 26:0.9375 27:0.1875 29:0.1875 30:0.375 33:0.21428572 34:0.6875 35:0.125 37:0.25 38:0.5 41:0.0625 42:0.5625 45:0.3125 46:0.4375 50:0.6875 51:0.25 52:0.25 53:0.875 54:0.125 58:0.125 59:0.8125 60:0.9375 61:0.5625 # 0
-2.5913676474041943193171848053725e-09 2:0.0625 3:0.9375 4:0.75 10:0.375 11:1 12:0.9375 18:0.3125 19:1 20:0.5625 26:0.3125 27:1 28:0.375 34:0.1875 35:1 36:0.5 42:0.125 43:1 44:0.5 50:0.0625 51:1 52:0.5625 58:0.0625 59:0.8125 60:0.375 # 0
-3.5478787916571492806592307487615e-10 2:0.125 3:0.6875 4:1 5:1 6:1 7:0.75 10:0.4375 11:0.9375 12:0.5625 13:0.5 14:0.75 15:1 21:0.0625 22:0.875 23:0.83333331 29:0.6875 30:0.5625 36:0.375 37:0.8125 43:0.0625 44:0.875 45:0.1875 51:0.625 52:0.5625 58:0.0625 59:1 60:0.3125 # 0
1.3728829664649006167462053618452e-10 2:0.125 3:0.625 4:0.75 5:0.875 6:1 7:0.75 10:0.5 11:1 12:1 13:1 14:0.875 15:0.30769232 18:0.125 19:1 20:0.75 21:0.25 26:0.0625 27:1 28:0.9375 29:0.125 35:0.5 36:1 37:0.6875 44:0.8125 45:1 51:0.4375 52:1 53:0.6875 58:0.0625 59:1 60:0.6875 61:0.0625 # 0
-9.891632938714733236565391864668e-11 2:0.5 3:0.25 10:0.9375 11:0.1875 17:0.125 18:0.8125 25:0.25 26:0.875 27:0.6875 28:0.5625 29:0.0625 33:0.2857143 34:0.5625 35:0.8125 36:1 37:0.875 38:0.071428575 41:0.125 42:0.75 45:0.5625 46:0.6875 50:1 51:0.5 52:0.3125 53:0.8125 54:0.6875 58:0.25 59:0.9375 60:1 61:0.75 62:0.0625 # 0
6.2115879020638057066259546111259e-10 2:0.5 3:0.8125 4:0.9375 5:0.625 6:0.1875 10:0.8125 11:0.9375 12:0.75 13:0.75 14:0.5625 17:0.1875 18:0.875 19:0.4375 25:0.4375 26:0.5 27:0.25 28:0.125 33:0.14285715 34:1 35:1 36:0.9375 42:0.0625 43:0.3125 44:0.8125 51:0.625 52:0.375 58:0.375 59:0.8125 60:0.0625 # 0
-6.300289455194379138529967597897e-11 2:0.0625 3:0.75 4:1 5:0.3125 10:0.5625 11:1 12:0.5625 13:0.125 17:0.1875 18:1 19:0.375 25:0.375 26:1 27:0.5 28:0.0625 33:0.71428573 34:1 35:0.6875 36:0.8125 37:0.1875 41:0.25 42:1 43:0.0625 44:0.5625 45:0.8125 46:0.0625 50:0.5625 51:0.6875 52:0.5625 53:1 54:0.0625 58:0.0625 59:0.75 60:1 61:0.75 # 0
-2.419837942105882741280728649556e-10 3:0.3125 4:0.75 5:0.9375 6:0.4375 10:0.1875 11:0.875 12:0.25 13:0.8125 14:0.375 18:0.25 19:0.8125 21:0.875 22:0.4375 27:0.8125 28:0.875 29:1 30:0.5 36:0.1875 37:0.5 38:0.5714286 41:0.0625 42:0.1875 45:0.625 46:0.5 49:0.3125 50:1 51:0.4375 53:0.75 54:0.25 58:0.125 59:0.375 60:0.8125 61:0.9375 62:0.0625 # 0
-5.5707711724059536872437101858954e-10 2:0.6875 3:0.9375 4:0.625 9:0.13333334 10:0.8125 12:0.5625 13:0.1875 17:0.1875 18:0.75 20:0.625 26:0.6875 27:0.75 28:0.75 35:0.6875 36:0.875 37:0.375 41:0.0625 42:0.5625 43:0.3125 45:0.625 46:0.3125 49:0.25 50:0.625 53:0.5 54:0.25 57:0.1 58:0.875 59:0.6875 60:0.875 61:0.625 # 0
-4.8305564176419773119702801617741e-11 2:0.25 3:0.8125 4:0.8125 5:0.5 10:1 11:0.0625 12:0.0625 13:0.6875 14:0.125 17:0.25 18:0.8125 21:0.375 22:0.4375 25:0.1875 26:0.875 28:0.5625 29:0.875 30:0.125 34:0.5625 35:0.9375 36:0.875 37:0.0625 42:0.3125 43:1 44:0.5625 50:0.5 51:0.75 52:0.9375 53:0.125 58:0.25 59:0.9375 60:0.8125 61:0.125 # 0
-1.3363062525725614359028126483997e-11 4:0.5625 5:0.375 11:0.5625 12:0.875 13:0.125 18:0.1875 19:0.9375 20:0.25 21:0.1875 22:0.375 25:0.0625 26:0.8125 27:0.6875 29:0.8125 30:0.4375 33:0.5 34:1 35:0.8125 36:0.8125 37:1 38:0.21428572 42:0.25 43:0.25 44:0.8125 45:0.8125 46:0.0625 51:0.0625 52:1 53:0.4375 59:0.0625 60:0.875 61:0.0625 # 0
2.2006580513512561171360638868043e-09 2:0.3125 3:0.8125 4:0.5 5:0.1875 6:0.3125 9:0.13333334 10:1 11:0.6875 12:0.1875 13:0.125 14:0.1875 17:0.4375 18:0.8125 19:0.25 20:0.25 25:0.3125 26:1 27:0.75 28:0.875 29:0.6875 36:0.125 37:0.875 38:0.14285715 45:0.8125 46:0.1875 50:0.625 51:0.25 52:0.375 53:0.8125 58:0.375 59:0.875 60:0.8125 61:0.1875 # 0
7.7395406210932244432878198341997e-10 2:0.3125 3:0.9375 4:0.75 5:0.1875 10:0.5625 11:0.75 12:0.625 13:0.1875 18:0.875 19:0.375 26:0.9375 27:1 28:1 29:0.1875 34:0.4375 35:0.5 36:0.625 37:0.625 44:0.3125 45:0.8125 50:0.25 51:0.75 52:1 53:0.6875 58:0.375 59:1 60:0.6875 61:0.125 # 0
7.6185027719121487956267412398783e-10 3:0.375 4:0.8125 5:0.5625 9:0.06666667 10:0.9375 11:1 12:0.4375 13:0.1875 17:0.4375 18:0.9375 19:0.1875 25:0.4375 26:1 27:1 28:0.5 33:0.14285715 34:0.6875 35:0.3125 36:0.75 37:0.4375 44:0.125 45:0.875 51:0.3125 52:0.6875 53:1 54:0.0625 59:0.25 60:0.9375 61:0.5625 # 0
-1.2790841126463577807534505645089e-10 2:0.125 3:0.8125 4:0.8125 9:0.06666667 10:0.875 11:0.8125 12:0.125 17:0.375 18:1 19:0.1875 25:0.4375 26:1 27:0.375 29:0.625 30:0.4375 33:0.071428575 34:0.875 35:1 36:0.875 37:1 38:0.71428573 42:0.3125 43:0.9375 44:1 45:0.6875 51:0.6875 52:1 58:0.1875 59:1 60:0.5 # 0
-3.2882036401449213819726380059389e-10 3:0.25 4:0.8125 5:0.8125 10:0.1875 11:1 12:0.875 13:0.1875 17:0.0625 18:0.9375 19:0.6875 20:0.0625 21:0.0625 25:0.625 26:0.9375 29:0.6875 30:0.5625 33:0.5 34:0.9375 35:0.5625 36:0.5625 37:1 38:0.42857143 42:0.25 43:0.5 44:1 45:0.9375 46:0.0625 51:0.125 52:1 53:0.4375 59:0.1875 60:1 61:0.0625 # 0
-6.6560073797701715537052670728767e-10 2:0.3125 3:0.75 4:0.5 10:0.8125 11:0.375 12:0.0625 17:0.125 18:0.875 19:0.0625 25:0.25 26:0.875 28:0.1875 29:0.0625 33:0.5 34:0.6875 35:0.8125 36:0.8125 37:0.8125 38:0.35714287 41:0.25 42:1 43:0.5 45:0.125 46:0.75 49:0.0625 50:0.9375 51:0.375 52:0.125 53:0.75 54:0.1875 58:0.375 59:0.8125 60:0.75 61:0.25 # 0
-1.5194647239564060884032840669866e-09 2:0.5 3:1 4:0.375 9:0.13333334 10:0.875 11:0.5 12:0.75 13:0.125 17:0.4375 18:0.875 19:0.5625 20:0.9375 21:0.5625 25:0.0625 26:0.75 27:0.8125 28:0.4375 29:0.875 37:0.6875 38:0.2857143 45:0.5 46:0.5 50:0.125 51:0.25 52:0.3125 53:0.8125 54:0.4375 58:0.375 59:0.9375 60:0.9375 61:0.625 # 0
-6.9829264265521466155520228868232e-10 1:0.375 2:0.75 3:0.75 4:0.1875 9:0.53333336 10:0.625 11:0.6875 12:0.5625 18:0.125 19:0.875 20:0.25 26:0.75 27:0.8125 28:0.0625 34:0.1875 35:0.8125 36:0.9375 37:0.1875 44:0.4375 45:0.875 46:0.0625 49:0.125 50:0.25 51:0.25 52:0.1875 53:0.6875 54:0.4375 57:0.5 58:0.75 59:0.75 60:0.875 61:1 62:0.5 # 0
-4.1309068987219598393327662548481e-10 2:0.5625 3:1 4:0.5 9:0.60000002 10:0.8125 11:0.25 12:0.8125 17:0.4375 18:0.375 19:0.0625 20:0.875 27:0.5625 28:1 29:0.5625 35:0.5 36:0.375 37:0.8125 38:0.42857143 45:0.25 46:0.6875 50:0.375 52:0.1875 53:0.75 54:0.3125 58:0.5625 59:1 60:1 61:0.4375 # 0
-8.0592710271966817116350363984866e-11 1:0.125 2:0.75 3:1 4:1 5:0.5 9:0.06666667 10:0.5 11:0.3125 12:0.5625 13:0.75 20:0.6875 21:0.5 26:0.3125 27:0.875 28:0.875 29:0.625 30:0.3125 34:0.1875 35:0.9375 36:0.875 37:0.75 38:0.35714287 42:0.125 43:1 44:0.1875 50:0.625 51:0.5625 58:0.8125 59:0.125 # 0
-1.820962931046927562988947660094e-10 2:0.125 3:0.75 4:0.8125 5:0.25 10:0.75 11:0.6875 12:0.5 13:0.8125 18:0.8125 20:0.8125 21:0.3125 25:0.6875 26:0.875 27:0.4375 28:0.6875 34:0.4375 35:1 36:0.3125 42:0.4375 43:0.75 44:0.75 45:0.25 50:0.5625 51:0.375 52:0.625 53:0.625 58:0.125 59:0.875 60:0.9375 61:0.375 # 0
-1.9504684850276891056762400447719e-10 3:0.0625 4:0.875 5:0.75 9:0.26666668 10:0.375 11:0.9375 12:0.875 13:0.75 17:0.3125 18:1 19:1 20:0.8125 21:0.8125 22:0.0625 26:0.6875 27:1 28:1 29:1 30:0.25 35:0.1875 36:0.125 37:0.5625 38:0.5714286 45:0.5625 46:0.5 52:0.6875 53:1 54:0.25 60:0.6875 61:0.3125 62:0.0625 # 0
2.5211299833117696521213033561187e-10 2:0.3125 3:0.75 4:1 5:1 6:0.5625 9:0.2 10:1 11:0.5625 12:0.1875 17:0.4375 18:1 19:0.6875 20:0.3125 25:0.125 26:0.6875 27:0.5625 28:1 29:0.0625 36:0.5625 37:0.5625 44:0.5625 45:0.5625 50:0.5625 51:0.375 52:1 53:0.375 58:0.3125 59:0.75 60:0.375 # 0
-1.3469242822971638758423983518817e-10 1:0.125 2:0.4375 3:0.6875 4:0.8125 5:1 6:0.875 10:0.5 11:0.4375 12:0.25 13:0.6875 14:0.625 20:0.0625 21:1 22:0.0625 28:0.6875 29:0.375 33:0.14285715 34:0.6875 35:0.75 36:1 37:0.8125 38:0.2857143 41:0.3125 42:0.5625 43:1 44:0.375 45:0.125 50:0.25 51:0.75 58:0.8125 59:0.1875 # 0
-4.6535628528375993126730535789337e-11 4:0.0625 5:0.875 6:0.25 12:0.125 13:1 14:0.5 20:0.5 21:1 22:0.375 28:0.9375 29:1 30:0.3125 35:0.5 36:1 37:1 38:0.21428572 42:0.375 43:1 44:0.5625 45:1 49:0.125 50:1 51:0.5 52:0.25 53:1 57:0.2 58:0.25 60:0.125 61:0.9375 62:0.1875 # 0
-5.712146988899276342126389394789e-10 2:0.625 3:0.5 4:0.625 5:0.75 6:0.375 9:0.13333334 10:1 11:0.875 12:0.75 13:0.9375 14:0.6875 17:0.1875 18:0.5625 19:0.125 20:0.25 21:0.875 22:0.125 27:0.0625 28:0.875 29:0.25 35:0.3125 36:0.875 42:0.0625 43:0.8125 44:0.375 49:0.0625 50:0.75 51:1 52:0.0625 58:0.875 59:0.625 # 0
-4.1998007349387288956905945892745e-12 2:0.375 3:1 4:0.8125 5:0.125 9:0.06666667 10:0.6875 11:1 12:0.9375 13:0.1875 17:0.6875 18:1 19:1 20:1 21:0.125 25:0.375 26:0.6875 27:0.6875 28:1 29:0.75 30:0.0625 35:0.0625 36:0.875 37:1 38:0.5 44:0.375 45:1 46:0.8125 52:0.4375 53:1 54:1 55:0.30000001 58:0.125 59:0.75 60:1 61:0.9375 62:0.5 63:0.06666667 # 0
-2.3210871735535479068113873655268e-10 4:0.5 5:1 6:0.6875 11:0.8125 12:0.5625 13:0.5 14:0.875 15:0.07692308 18:0.625 19:0.5 21:0.3125 22:1 23:0.66666669 25:0.125 26:0.9375 27:0.5 28:0.875 29:0.875 30:0.75 33:0.14285715 34:0.75 35:0.5625 36:0.125 37:0.625 38:0.42857143 44:0.125 45:0.875 52:0.5625 53:0.4375 60:0.8125 61:0.0625 # 0
-2.6064906407810404978846574118709e-10 4:0.75 5:0.1875 11:0.125 12:0.9375 19:0.5625 20:0.5625 26:0.1875 27:0.9375 29:0.1875 30:0.625 33:0.071428575 34:0.875 35:0.1875 37:0.875 38:0.42857143 41:0.625 42:1 43:0.9375 44:0.8125 45:1 46:0.0625 49:0.5625 50:0.625 51:0.5 52:0.875 53:0.6875 60:0.75 61:0.125 # 0
-4.4386450127085195489776189041377e-10 2:0.25 3:0.75 4:0.4375 10:0.8125 11:0.6875 12:0.75 13:0.25 18:0.5 20:0.1875 21:0.625 28:0.125 29:0.8125 36:0.5625 37:0.5 43:0.1875 44:1 45:0.0625 50:0.5 51:1 52:0.9375 53:0.875 54:0.875 55:0.1 58:0.375 59:0.75 60:0.75 61:0.625 62:0.625 63:0.13333334 # 0
-2.5073138826017040029874461712453e-10 2:0.0625 3:0.75 4:0.9375 5:0.0625 10:0.625 11:1 12:1 17:0.1875 18:1 19:0.9375 20:0.625 25:0.375 26:1 27:0.9375 28:0.9375 29:0.125 34:0.25 35:0.125 36:0.875 37:0.9375 38:0.071428575 44:0.1875 45:0.9375 46:0.3125 50:0.125 51:0.875 52:0.875 53:1 54:0.3125 59:0.9375 60:1 61:0.8125 62:0.0625 # 0
-1.2627226958672477108013158112392e-10 2:0.0625 3:0.8125 4:0.625 10:0.5625 11:1 12:0.25 17:0.0625 18:1 19:0.5 21:0.25 25:0.25 26:1 27:1 28:1 29:1 30:0.375 34:0.5 35:0.5 36:0.75 37:1 38:0.35714287 43:0.0625 44:1 45:0.8125 51:0.8125 52:1 53:0.1875 58:0.125 59:0.9375 60:0.3125 # 0
-1.3852979467260522552224573965068e-10 1:0.25 2:0.75 3:1 4:0.9375 5:0.5625 9:0.06666667 10:0.25 11:0.4375 12:0.9375 13:0.875 18:0.1875 19:0.9375 20:0.875 21:0.1875 26:0.375 27:0.875 28:0.3125 34:0.0625 35:0.6875 36:1 37:0.4375 44:0.375 45:1 46:0.4375 50:0.1875 51:0.5625 52:0.875 53:0.9375 54:0.3125 57:0.1 58:0.875 59:0.75 60:0.5 61:0.0625 # 0
-3.8936743599390379688599164727085e-10 2:0.125 3:0.5 4:0.75 5:0.8125 6:0.125 9:0.13333334 10:1 11:0.9375 12:0.375 13:0.5 14:0.5 17:0.4375 18:0.6875 19:0.3125 20:0.125 21:0.8125 22:0.4375 25:0.375 26:0.9375 27:0.8125 28:0.9375 29:0.9375 30:0.0625 34:0.1875 35:0.125 36:0.5625 37:0.375 43:0.0625 44:0.875 45:0.0625 51:0.4375 52:0.625 59:0.8125 60:0.1875 # 0
-6.5668448204880579195073825088982e-11 2:0.5625 3:1 4:0.875 5:0.75 6:0.1875 9:0.2 10:0.8125 11:0.25 12:0.6875 13:0.5 14:0.6875 17:0.0625 18:0.9375 19:0.3125 21:0.75 22:0.25 26:0.1875 27:0.875 28:0.8125 29:0.4375 35:0.625 36:0.8125 42:0.3125 43:0.75 44:0.9375 50:0.75 51:0.125 52:0.75 58:0.625 59:1 60:0.375 # 0
-7.0247440999155268114485034392359e-10 3:0.5 4:0.8125 5:0.375 10:0.3125 11:0.875 12:0.375 13:0.875 14:0.125 18:0.5 19:0.5 20:0.0625 21:0.875 22:0.25 26:0.125 27:0.8125 28:0.6875 29:1 30:0.3125 35:0.1875 36:0.4375 37:0.5625 38:0.2857143 41:0.0625 42:0.125 45:0.5 46:0.5 49:0.0625 50:0.8125 51:0.1875 53:0.875 54:0.3125 59:0.6875 60:1 61:0.8125 62:0.0625 # 0
-1.5159517708724054177672645445725e-10 4:0.1875 5:0.875 6:0.0625 11:0.0625 12:0.875 13:0.9375 19:0.5625 20:1 21:0.625 26:0.5625 27:1 28:1 29:0.5 33:0.2857143 34:1 35:0.4375 36:1 37:0.5 41:0.0625 42:0.25 44:0.9375 45:0.625 52:0.6875 53:0.75 60:0.1875 61:0.9375 62:0.1875 # 0
1.8032724046500048177559404793724e-10 2:0.25 3:0.375 4:0.875 5:0.625 6:0.125 10:0.9375 11:1 12:0.75 13:0.75 14:0.75 17:0.25 18:0.875 19:0.0625 25:0.3125 26:1 27:1 28:0.75 29:0.0625 34:0.25 35:0.5 36:0.9375 37:0.625 44:0.3125 45:0.5625 51:0.3125 52:0.875 53:0.1875 58:0.3125 59:0.875 60:0.3125 # 0
-2.1971339534281183293890407812833e-10 2:0.3125 3:0.75 4:0.9375 5:0.9375 6:0.3125 10:0.5 11:0.4375 12:0.25 13:0.8125 14:0.4375 20:0.125 21:1 22:0.0625 26:0.125 27:0.25 28:0.75 29:0.625 33:0.5 34:1 35:0.875 36:1 37:0.75 38:0.14285715 41:0.125 43:0.6875 44:0.4375 50:0.1875 51:0.875 52:0.0625 58:0.5 59:0.4375 # 0
-6.5505036400475117603620276948186e-11 2:0.5 3:0.875 4:0.3125 9:0.53333336 10:0.8125 11:0.3125 12:0.875 13:0.3125 17:0.5 18:0.8125 19:0.125 20:0.3125 21:0.875 22:0.1875 25:0.25 26:1 27:0.875 28:0.9375 29:1 30:0.5 34:0.125 35:0.3125 36:0.4375 37:0.625 38:0.5 44:0.1875 45:0.9375 46:0.1875 51:0.25 52:0.875 53:0.625 58:0.625 59:0.8125 60:0.375 # 0
-2.7472797617089195920083719294996e-10 2:0.375 3:1 4:0.6875 9:0.06666667 10:1 11:0.125 12:0.75 13:0.5625 17:0.25 18:0.9375 19:0.3125 20:0.8125 21:0.625 26:0.5625 27:0.625 28:0.5625 29:0.9375 37:0.6875 38:0.35714287 45:0.4375 46:0.4375 49:0.1875 50:0.5625 51:0.0625 53:0.5 54:0.25 57:0.1 58:0.4375 59:0.875 60:1 61:0.75 62:0.0625 # 0
-1.0688095188829789563712259590507e-10 3:0.25 4:0.5 11:0.6875 12:0.5 19:0.8125 20:0.375 26:0.125 27:0.9375 28:0.125 29:0.1875 34:0.6875 35:0.625 36:0.25 37:1 38:0.14285715 41:0.6875 42:0.875 44:0.5625 45:1 46:0.125 49:0.5625 50:0.9375 51:0.75 52:0.9375 53:1 58:0.125 59:0.375 60:0.9375 61:0.375 # 0
1.5374531659087066921085702443189e-10 2:0.375 3:0.5 4:0.6875 5:0.9375 10:0.9375 11:1 12:1 13:0.625 18:0.9375 19:0.75 20:0.25 26:0.4375 27:0.9375 28:0.1875 35:0.4375 36:0.75 43:0.25 44:0.9375 51:0.6875 52:0.6875 58:0.625 59:1 60:0.375 # 0
-1.7781440210326021214243009718048e-10 2:0.6875 3:1 4:1 5:0.5625 10:0.625 11:0.5 12:0.75 13:0.6875 20:0.75 21:0.375 26:0.5 27:0.8125 28:1 29:0.375 34:0.4375 35:0.875 36:0.875 37:0.8125 38:0.42857143 43:0.8125 44:0.1875 50:0.375 51:0.9375 58:0.6875 59:0.625 # 0
-6.8229270586826856808502193411134e-11 2:0.4375 3:0.75 4:0.5 5:0.625 6:0.9375 7:0.125 10:0.25 11:0.5 12:0.625 13:1 14:0.5 20:0.5625 21:0.625 27:0.3125 28:0.875 29:0.125 33:0.42857143 34:1 35:1 36:1 37:0.8125 38:0.071428575 41:0.1875 42:0.375 43:1 50:0.4375 51:0.8125 58:0.625 59:0.625 # 0
-6.0023636184193508426711317308311e-10 2:0.5625 3:0.5 4:0.0625 9:0.33333334 10:1 11:1 12:0.4375 17:0.5 18:0.625 19:0.5 20:0.5 26:0.125 27:0.25 28:0.75 35:0.375 36:0.625 43:0.4375 44:0.5625 50:0.375 51:1 52:0.9375 53:0.6875 54:0.3125 58:0.5625 59:0.875 60:0.75 61:0.875 62:0.625 # 0
-4.7612821470594649309988732725513e-10 2:0.3125 3:0.6875 4:0.9375 5:0.3125 9:0.40000001 10:0.8125 11:0.125 12:0.1875 13:0.9375 14:0.1875 17:0.4375 18:0.8125 19:0.5 20:0.6875 21:1 22:0.5 25:0.0625 26:0.5625 27:0.75 28:0.5 29:0.5 30:0.5 36:0.0625 37:0.8125 38:0.2857143 44:0.5625 45:0.75 51:0.5 52:0.8125 58:0.4375 59:0.625 60:0.0625 # 0
-1.781283625702176088371760215618e-10 4:0.375 5:0.6875 11:0.1875 12:0.9375 13:0.75 18:0.3125 19:0.875 20:0.625 21:0.75 25:0.125 26:0.9375 27:0.375 28:0.3125 29:0.5625 33:0.42857143 34:0.9375 35:0.75 36:0.9375 37:1 38:0.5714286 41:0.0625 42:0.5 43:0.5 44:0.75 45:0.75 46:0.125 52:0.5 53:0.5 60:0.3125 61:0.6875 # 0
-1.5654566707817534488434422406192e-10 4:0.8125 5:0.3125 11:0.5625 12:0.8125 13:0.0625 18:0.5 19:0.875 20:0.0625 21:0.3125 22:0.4375 25:0.25 26:1 27:0.875 28:0.8125 29:1 30:0.5 33:0.14285715 34:0.5 35:0.5 36:0.75 37:1 38:0.14285715 44:0.625 45:0.8125 52:0.875 53:0.5625 60:0.8125 61:0.1875 # 0
-2.5329329872747375026864895607257e-10 1:0.25 2:0.875 3:0.875 4:0.0625 9:0.60000002 10:0.8125 11:0.8125 12:0.375 17:0.5625 18:0.3125 19:0.1875 20:0.625 26:0.0625 27:0.1875 28:0.5625 35:0.5 36:0.25 42:0.125 43:0.9375 44:0.25 45:0.125 49:0.0625 50:0.8125 51:1 52:1 53:1 54:0.5625 58:0.8125 59:0.5 60:0.5 61:0.4375 62:0.125 # 0
-3.5072401606417853642253820736866e-11 2:0.1875 3:0.6875 4:1 5:0.3125 10:0.75 11:0.9375 12:0.75 13:0.4375 18:0.9375 19:0.375 26:1 27:0.9375 28:0.6875 29:0.0625 34:0.9375 35:0.9375 36:0.875 37:0.5625 42:0.9375 43:0.375 44:0.125 45:1 46:0.125 50:0.75 51:0.75 52:0.75 53:1 54:0.3125 58:0.1875 59:0.8125 60:0.9375 61:0.5625 # 0
-1.1545467527803038692309924284065e-09 2:0.4375 3:0.625 4:0.8125 5:0.625 10:0.875 11:0.6875 12:0.25 13:0.6875 14:0.1875 17:0.125 18:0.9375 19:0.0625 21:0.3125 22:0.5 25:0.4375 26:0.5625 29:0.1875 30:0.5 33:0.35714287 34:0.75 37:0.25 38:0.5714286 41:0.3125 42:0.6875 45:0.5 46:0.25 50:0.75 51:0.125 52:0.125 53:0.75 58:0.375 59:0.9375 60:0.875 61:0.125 # 0
-4.9816412604776025082068470787797e-10 2:0.25 3:0.875 4:0.6875 5:0.0625 9:0.26666668 10:1 11:0.75 12:0.625 13:0.5 17:0.5625 18:0.875 19:0.0625 20:0.4375 21:0.4375 25:0.0625 26:0.125 28:0.9375 29:0.5625 36:0.4375 37:0.9375 38:0.14285715 45:0.3125 46:0.6875 50:0.75 51:0.1875 52:0.25 53:0.625 54:0.6875 58:0.375 59:0.9375 60:0.9375 61:0.6875 62:0.0625 # 0
-3.1098343041266063060083497357781e-10 2:0.25 3:0.8125 4:0.9375 5:0.5 9:0.13333334 10:0.8125 11:0.25 13:0.75 17:0.375 18:0.5625 20:0.125 21:0.625 25:0.1875 26:0.8125 27:0.0625 28:0.25 29:0.9375 30:0.3125 34:0.3125 35:0.875 36:0.875 37:0.1875 42:0.1875 43:1 44:0.8125 50:0.5 51:0.375 52:0.875 53:0.25 58:0.375 59:0.8125 60:0.9375 61:0.1875 # 0
6.2659845064269918319058519869699e-11 1:0.125 2:0.5 3:0.625 4:0.875 5:0.9375 6:0.375 9:0.40000001 10:1 11:0.6875 12:0.4375 13:0.3125 14:0.125 17:0.1875 18:1 19:0.5 25:0.125 26:1 27:1 28:0.625 34:0.0625 35:0.1875 36:0.8125 37:0.125 44:0.5625 45:0.25 50:0.6875 51:0.6875 52:0.875 53:0.0625 58:0.6875 59:0.5625 60:0.125 # 0
-1.6483363182287572882822533356739e-10 2:0.25 3:0.625 10:0.125 11:0.9375 12:0.125 18:0.125 19:1 20:0.25 26:0.4375 27:1 28:0.5625 34:0.875 35:0.875 36:0.875 42:0.1875 43:0.1875 44:1 45:0.1875 50:0.0625 51:0.4375 52:0.875 53:0.6875 54:0.25 58:0.25 59:0.875 60:1 61:0.8125 62:0.875 63:0.53333336 # 0
-5.0080576299054128395203612600324e-11 2:0.125 3:1 4:0.5625 10:0.5 11:1 12:0.9375 17:0.375 18:1 19:1 20:0.9375 21:0.0625 27:0.3125 28:1 29:0.5 36:0.875 37:0.875 44:0.125 45:1 46:0.375 50:0.0625 51:0.25 52:0.4375 53:1 54:0.8125 59:0.6875 60:1 61:1 62:0.9375 63:0.06666667 # 0
-5.1032773012991235198822059672866e-11 2:0.25 3:0.875 4:0.3125 10:0.75 11:0.9375 12:0.875 18:0.75 19:0.5 20:0.9375 21:0.5625 26:0.3125 27:1 28:0.9375 29:1 30:0.25 36:0.375 37:0.75 38:0.71428573 45:0.3125 46:0.9375 50:0.1875 51:0.5 52:0.25 53:0.5625 54:1 55:0.40000001 58:0.3125 59:0.75 60:0.9375 61:0.75 62:0.6875 # 0
-1.6535968292286351054054662005195e-10 4:0.4375 5:0.8125 6:0.125 12:0.5 13:1 14:0.25 17:0.1875 18:0.5 19:0.5625 20:0.9375 21:0.9375 22:0.0625 25:0.25 26:0.75 27:0.6875 28:0.875 29:0.75 36:0.75 37:0.75 44:0.6875 45:0.8125 52:0.5 53:1 54:0.3125 60:0.375 61:1 62:0.3125 # 0
-9.5774424602253172925044670353161e-11 1:0.125 2:0.5625 3:0.9375 4:0.5625 9:0.26666668 10:0.8125 11:0.4375 12:0.9375 13:0.25 19:0.125 20:0.9375 21:0.1875 26:0.75 27:1 28:1 29:0.6875 30:0.0625 34:0.3125 35:0.3125 36:0.3125 37:0.8125 38:0.5714286 44:0.0625 45:0.75 46:0.375 50:0.5625 51:0.5 52:0.875 53:0.75 54:0.0625 58:0.9375 59:0.75 60:0.375 # 0
-9.9586010546280816218268626929035e-11 1:0.125 2:0.625 3:0.75 4:0.875 5:0.5625 9:0.73333335 10:0.6875 11:0.3125 12:0.3125 13:1 14:0.25 17:0.25 18:0.1875 20:0.125 21:1 22:0.125 28:0.75 29:0.5625 34:0.0625 35:0.8125 36:0.625 42:0.5625 43:0.8125 49:0.125 50:1 51:0.25 57:0.1 58:0.8125 59:0.9375 60:0.75 61:0.125 # 0
-1.1839594024570266123021899392449e-10 2:0.0625 3:0.75 4:1 5:1 6:0.75 11:0.4375 12:0.25 13:0.6875 14:0.8125 21:0.5 22:0.6875 27:0.0625 28:0.25 29:0.75 30:0.5 35:0.75 36:1 37:1 38:0.5714286 43:0.1875 44:0.75 45:0.375 51:0.375 52:0.875 59:0.9375 60:0.3125 # 0
-1.1508130603967995355116378943894e-10 4:0.375 5:0.5625 11:0.4375 12:0.9375 13:0.25 18:0.1875 19:0.875 20:0.4375 26:0.5625 27:0.5625 29:0.8125 30:0.1875 33:0.14285715 34:1 35:0.125 36:0.125 37:1 41:0.5 42:1 43:0.875 44:1 45:1 46:0.375 49:0.125 50:0.25 51:0.25 52:0.75 53:0.5 60:0.5625 61:0.6875 # 0
-4.0408224187277828141439742927054e-11 3:0.5625 4:0.5625 10:0.4375 11:0.9375 12:0.1875 18:0.6875 19:0.5 26:0.875 27:0.25 28:0.125 29:0.1875 34:0.75 35:0.75 36:1 37:0.75 38:0.71428573 42:0.5625 43:0.875 44:0.5 46:0.5 47:1 50:0.25 51:0.5625 52:0.0625 53:0.125 54:0.875 55:0.5 59:0.375 60:0.6875 61:0.875 62:0.5 # 0
-3.5165489810978516101441484379504e-11 2:0.375 3:0.9375 4:0.875 5:0.5 9:0.2 10:0.8125 12:0.1875 13:0.875 14:0.1875 17:0.375 18:0.875 20:0.125 21:0.875 22:0.25 26:0.8125 27:1 28:1 29:1 30:0.25 35:0.25 36:0.25 37:0.8125 38:0.2857143 45:0.75 46:0.3125 50:0.875 51:0.375 53:0.8125 54:0.25 58:0.375 59:0.9375 60:1 61:0.5625 # 0
-1.744073901675288903468060378534e-10 3:0.5 4:0.875 5:0.1875 10:0.0625 11:1 12:0.9375 13:0.4375 18:0.4375 19:0.9375 20:0.3125 25:0.1875 26:0.875 27:0.875 28:0.3125 33:0.21428572 34:1 35:0.625 36:0.75 37:0.625 42:0.6875 43:0.3125 45:0.875 46:0.125 50:0.1875 51:0.6875 52:0.375 53:0.875 54:0.0625 59:0.4375 60:0.9375 61:0.375 # 0
9.5045009180745599223815908295783e-11 2:0.125 3:0.625 4:1 5:1 6:0.125 9:0.06666667 10:1 11:0.9375 12:0.3125 13:0.0625 17:0.5 18:0.8125 25:0.75 26:0.6875 33:0.35714287 34:1 35:0.4375 42:0.1875 43:0.8125 44:0.75 51:0.25 52:1 59:0.875 60:0.75 # 0
-1.1666104629939095017594818409513e-10 2:0.6875 3:0.75 4:0.125 9:0.2 10:1 11:0.75 12:0.4375 17:0.125 18:0.875 19:0.1875 20:0.625 27:0.3125 28:0.5 35:0.6875 36:0.3125 42:0.1875 43:1 44:0.0625 50:0.6875 51:0.875 52:0.5625 53:0.9375 54:0.9375 58:0.5 59:0.8125 60:0.75 61:0.5 62:0.625 63:0.13333334 # 0
-4.7777670019087374712429992979802e-11 2:0.0625 3:0.75 4:0.9375 5:0.375 10:0.3125 11:0.8125 12:0.0625 13:0.75 18:0.125 19:0.6875 20:0.0625 21:0.9375 27:0.625 28:0.6875 29:0.5625 35:0.375 36:1 37:0.375 42:0.625 43:0.9375 44:0.25 45:0.8125 46:0.1875 50:0.75 51:0.125 53:0.0625 54:0.875 58:0.0625 59:0.625 60:0.625 61:0.5 62:0.9375 63:0.06666667 # 0
-8.6759940449128477008890143862122e-11 2:0.4375 3:0.8125 4:0.5625 5:0.0625 9:0.06666667 10:0.8125 11:0.3125 12:0.5625 13:0.5 17:0.4375 18:0.625 20:0.3125 21:0.75 25:0.3125 26:0.9375 27:0.5 28:0.625 29:1 30:0.25 34:0.4375 35:0.5625 36:0.4375 37:0.3125 38:0.5714286 45:0.0625 46:0.6875 50:0.1875 53:0.3125 54:0.625 58:0.5625 59:1 60:1 61:0.875 62:0.1875 # 0
-1.2740489404190009910070350002533e-10 2:0.3125 3:0.9375 4:0.5625 9:0.13333334 10:0.8125 11:0.5 12:0.9375 13:0.3125 17:0.125 18:0.125 20:0.5 21:0.3125 26:0.3125 27:0.5625 28:0.9375 29:0.125 34:0.6875 35:0.9375 36:0.9375 37:0.6875 44:0.0625 45:0.875 46:0.0625 50:0.25 51:0.5625 52:0.25 53:0.6875 54:0.1875 58:0.3125 59:0.75 60:0.8125 61:0.5625 # 0
-9.9141078006279633633186332059676e-12 1:0.125 2:0.5 3:0.8125 4:1 5:0.5 9:0.73333335 10:0.8125 11:0.375 12:0.5 13:0.9375 14:0.0625 17:0.125 18:0.0625 19:0.5625 20:0.875 21:0.3125 26:0.875 27:1 28:0.875 29:0.1875 34:0.5 35:0.25 36:0.625 37:0.9375 38:0.071428575 45:0.8125 46:0.4375 49:0.125 50:0.9375 51:0.5 52:0.5625 53:0.9375 54:0.0625 57:0.1 58:0.625 59:0.8125 60:0.8125 61:0.25 # 0
-2.2045825140165733310708014995214e-11 2:0.125 3:0.8125 4:0.5625 5:0.0625 9:0.06666667 10:0.8125 11:0.4375 12:0.9375 13:0.3125 16:0.33333334 17:0.9375 18:0.5625 20:0.9375 21:0.125 25:0.375 26:0.8125 27:0.4375 28:0.8125 34:0.3125 35:1 36:0.5 42:0.0625 43:0.9375 44:0.875 45:0.125 50:0.25 51:0.75 52:0.375 53:0.6875 59:0.6875 60:1 61:0.5 # 0
-9.3100258606266443415167805625532e-11 3:0.125 4:0.75 5:0.8125 6:0.5 7:0.0625 10:0.1875 11:0.75 12:0.3125 13:0.875 14:1 15:0.15384616 18:0.6875 19:0.0625 21:0.75 22:0.875 25:0.125 26:0.6875 27:0.1875 28:0.4375 29:0.875 30:0.1875 33:0.21428572 34:0.9375 35:0.6875 36:0.3125 37:0.625 44:0.5625 45:0.375 51:0.0625 52:0.875 53:0.125 60:0.875 61:0.0625 # 0
-6.8750531715519900362124059470622e-11 2:0.4375 3:0.9375 4:0.9375 5:0.5 6:0.1875 9:0.2 10:0.875 11:0.1875 13:0.8125 14:0.5 17:0.375 18:0.625 19:0.0625 20:0.375 21:0.875 22:0.5 26:0.5 27:0.75 28:0.375 29:0.5 30:0.5 37:0.5 38:0.42857143 45:0.75 46:0.1875 52:0.4375 53:0.8125 58:0.4375 59:0.9375 60:0.875 61:0.125 # 0
-1.6558401834331753714792192223454e-11 2:0.3125 3:0.875 4:0.8125 5:0.125 9:0.2 10:0.875 11:0.3125 12:0.5 13:0.75 17:0.1875 18:0.5625 20:0.75 21:0.25 25:0.0625 26:0.875 27:0.5625 28:0.8125 34:0.125 35:0.875 36:0.75 42:0.25 43:0.875 44:0.875 45:0.1875 50:0.625 51:0.4375 52:0.75 53:0.375 58:0.375 59:1 60:0.8125 61:0.0625 # 0
-1.4164347149191633599627893678497e-12 3:0.125 4:0.6875 5:0.8125 6:0.125 10:0.125 11:0.8125 12:1 13:1 14:0.125 17:0.1875 18:0.9375 19:0.875 20:0.8125 21:1 26:0.375 28:0.9375 29:0.5625 36:1 37:0.375 43:0.25 44:1 51:0.3125 52:1 53:0.1875 59:0.1875 60:1 61:0.375 # 0
