SVM-light Version V6.02
2 # kernel type
3 # kernel parameter -d 
50 # kernel parameter -g 
1 # kernel parameter -s 
1 # kernel parameter -r 
empty# kernel parameter -u 
63 # highest feature index 
2823 # number of training documents 
2824 # number of support vectors plus 1 
0.89321787 # threshold b, each following line is a SV (starting with alpha*y)
-0.10765859948040912286160164512694 3:0.375 4:0.9375 5:0.125 6:0.125 10:0.1875 11:0.9375 12:0.625 13:0.25 14:0.9375 17:0.125 18:0.875 19:0.5625 21:0.75 22:0.6875 25:0.5625 26:1 27:0.25 28:0.1875 29:1 30:0.875 33:0.78571427 34:1 35:1 36:1 37:0.9375 38:0.5 41:0.0625 42:0.625 43:0.6875 44:1 45:0.5 51:0.1875 52:1 53:0.0625 59:0.5 60:0.6875 # 0
-0.10643086911021992779780021010083 1:0.25 2:0.9375 3:1 4:0.625 9:0.53333336 10:1 11:0.625 12:1 13:0.125 17:0.25 18:0.4375 20:1 21:0.375 27:0.125 28:1 29:0.25 35:0.5 36:0.875 42:0.125 43:1 44:0.4375 49:0.125 50:0.9375 51:1 52:0.5625 53:0.5 54:0.5 57:0.30000001 58:1 59:1 60:1 61:1 62:0.75 # 0
-0.1064287754384919404415654753393 1:0.5 2:0.9375 3:1 4:0.75 9:0.80000001 10:0.9375 11:0.4375 12:1 13:0.3125 17:0.1875 18:0.1875 20:0.9375 21:0.25 28:0.8125 29:0.4375 35:0.3125 36:0.9375 37:0.125 42:0.0625 43:0.875 44:0.6875 49:0.0625 50:0.8125 51:1 52:0.5625 53:0.5 54:0.1875 57:0.30000001 58:1 59:1 60:1 61:1 62:1 63:0.06666667 # 0
-0.10645968460134924704618697433034 2:0.4375 3:0.9375 4:0.8125 5:0.1875 10:0.6875 11:0.375 12:0.5 13:0.875 19:0.1875 20:0.5 21:0.75 27:1 28:0.875 29:0.125 35:0.625 36:0.9375 37:0.4375 44:0.125 45:0.6875 46:0.625 49:0.0625 50:0.9375 51:0.1875 52:0.0625 53:0.6875 54:0.625 58:0.25 59:0.9375 60:1 61:0.8125 62:0.125 # 0
-0.10756278270512353856247500516474 2:0.625 3:1 4:0.75 9:0.06666667 10:0.875 11:0.8125 12:1 13:0.25 18:0.125 19:0.1875 20:1 21:0.3125 27:0.25 28:1 29:0.125 35:0.6875 36:0.875 42:0.125 43:1 44:0.5 46:0.1875 49:0.0625 50:0.8125 51:1 52:0.875 53:1 54:1 55:0.30000001 58:0.75 59:1 60:1 61:0.8125 62:0.4375 # 0
0.99999999999999988897769753748435 2:0.0625 3:0.8125 4:0.625 10:0.5625 11:1 12:0.6875 17:0.1875 18:1 19:0.6875 25:0.3125 26:1 27:0.6875 28:0.4375 29:0.0625 33:0.2857143 34:1 35:1 36:1 37:0.9375 38:0.21428572 41:0.1875 42:1 43:0.75 44:0.125 45:0.75 46:0.6875 50:0.75 51:0.875 52:0.3125 53:0.5625 54:0.9375 59:0.625 60:0.9375 61:1 62:0.6875 # 0
0.99999999999999988897769753748435 3:0.75 4:0.4375 10:0.4375 11:1 12:0.1875 17:0.125 18:0.9375 19:0.375 25:0.25 26:1 27:0.625 28:0.4375 33:0.35714287 34:1 35:1 36:1 37:0.75 41:0.375 42:1 43:0.5625 44:0.3125 45:1 46:0.1875 49:0.0625 50:0.875 51:0.9375 52:0.6875 53:1 54:0.1875 58:0.0625 59:0.625 60:1 61:0.4375 # 0
1 3:0.6875 4:0.75 10:0.4375 11:1 12:0.6875 13:0.0625 17:0.125 18:1 19:0.75 25:0.125 26:1 27:0.4375 33:0.5714286 34:1 35:1 36:0.5 37:0.0625 41:0.25 42:1 43:0.8125 44:0.8125 45:0.875 46:0.1875 50:0.8125 51:0.875 52:0.4375 53:1 54:0.75 59:0.625 60:1 61:0.75 62:0.375 # 0
1 2:0.125 3:0.875 4:0.0625 10:0.6875 11:0.8125 17:0.125 18:1 19:0.0625 25:0.25 26:1 27:0.0625 28:0.1875 33:0.5714286 34:0.75 35:0.75 36:1 37:0.8125 41:0.25 42:1 43:0.5625 44:0.25 45:0.8125 46:0.375 50:0.8125 51:0.75 52:0.5 53:0.75 54:0.6875 58:0.125 59:0.625 60:0.8125 61:0.875 62:0.25 # 0
1 2:0.0625 3:0.75 4:0.875 5:0.0625 10:0.5 11:0.9375 12:0.4375 17:0.0625 18:0.875 19:0.4375 25:0.0625 26:1 27:1 28:1 29:0.625 30:0.125 33:0.071428575 34:1 35:0.9375 36:0.3125 37:0.6875 38:0.71428573 41:0.0625 42:1 43:0.25 45:0.5 46:0.8125 50:0.6875 51:0.6875 52:0.5625 53:1 54:0.5 58:0.125 59:0.6875 60:0.9375 61:0.3125 # 0
-0.10756278270512353856247500516474 2:0.3125 3:1 4:1 5:0.9375 6:0.0625 10:0.625 11:0.5625 12:0.625 13:1 14:0.125 19:0.0625 20:0.75 21:0.625 27:0.5625 28:1 29:0.5 35:0.125 36:0.875 37:1 38:0.35714287 43:0.25 45:1 46:0.3125 50:0.1875 51:0.875 52:0.5 53:0.8125 58:0.25 59:1 60:0.8125 61:0.1875 # 0
-0.10756392313323925868928654381307 2:0.6875 3:1 4:0.9375 5:0.125 10:0.75 11:0.625 12:0.875 13:0.5 20:0.6875 21:0.5 27:0.0625 28:0.9375 29:0.1875 34:0.0625 35:0.6875 36:0.6875 41:0.375 42:0.9375 43:0.9375 44:0.125 49:0.5625 50:1 51:0.875 52:0.5625 53:0.1875 57:0.1 58:0.5625 59:0.75 60:0.9375 61:1 62:0.8125 # 0
-0.10755630120322057230453083320754 2:0.0625 3:0.5625 4:0.9375 5:0.75 10:0.8125 11:0.5 12:0.3125 13:0.875 14:0.25 18:0.875 19:0.0625 20:0.3125 21:0.875 22:0.0625 26:0.4375 27:0.8125 28:1 29:0.25 34:0.6875 35:0.75 36:0.875 37:0.75 38:0.071428575 41:0.25 42:0.8125 45:0.6875 46:0.4375 49:0.0625 50:0.8125 51:0.4375 52:0.125 53:0.5 54:0.5 58:0.0625 59:0.5625 60:1 61:0.8125 62:0.125 # 0
0.99999999999999988897769753748435 2:0.0625 3:0.75 4:0.8125 5:0.125 10:0.75 11:1 12:0.625 13:0.125 17:0.125 18:1 19:0.4375 25:0.0625 26:1 27:0.75 28:0.5 29:0.125 33:0.14285715 34:1 35:0.8125 36:0.8125 37:0.875 38:0.14285715 42:0.8125 43:0.4375 45:0.75 46:0.75 50:0.5625 51:0.8125 52:0.375 53:0.9375 54:0.8125 58:0.0625 59:0.6875 60:0.9375 61:0.875 62:0.375 # 0
0.99999999999999988897769753748435 2:0.125 3:0.5625 4:1 5:0.375 9:0.06666667 10:0.9375 11:1 12:0.6875 13:0.3125 17:0.125 18:1 19:0.4375 25:0.3125 26:1 28:0.1875 33:0.2857143 34:1 35:1 36:1 37:0.875 38:0.21428572 41:0.125 42:1 43:0.375 44:0.0625 45:0.625 46:0.625 50:0.625 51:0.75 52:0.5 53:0.9375 54:0.625 58:0.0625 59:0.6875 60:1 61:0.75 62:0.25 # 0
0.99999999999999988897769753748435 2:0.1875 3:0.8125 4:0.875 5:0.0625 10:0.5 11:0.9375 12:0.4375 13:0.125 18:0.625 19:0.75 20:0.125 26:0.8125 27:1 28:1 29:0.625 30:0.0625 34:0.9375 35:0.875 36:0.6875 37:0.625 38:0.71428573 42:0.8125 43:0.3125 45:0.375 46:0.875 50:0.5 51:0.75 52:0.5 53:0.75 54:0.625 58:0.0625 59:0.625 60:0.75 61:0.75 62:0.25 # 0
-0.10761237514108790147560057448572 1:0.375 2:0.9375 3:1 4:0.6875 9:0.66666669 10:0.9375 11:0.8125 12:1 13:0.125 17:0.625 18:0.4375 19:0.25 20:1 25:0.0625 27:0.5625 28:0.75 34:0.0625 35:1 36:0.375 42:0.625 43:0.9375 49:0.4375 50:1 51:0.875 52:0.75 53:0.875 54:0.6875 57:0.60000002 58:1 59:1 60:1 61:0.6875 62:0.1875 # 0
-0.10652906503789227876666245720116 2:0.5625 3:0.8125 4:0.9375 5:0.625 6:0.0625 10:0.4375 11:0.25 12:0.25 13:0.75 14:0.8125 21:0.4375 22:0.6875 26:0.125 27:0.75 28:0.8125 29:0.75 30:0.125 35:0.625 36:0.9375 37:0.0625 43:0.0625 44:0.6875 45:0.5625 50:0.75 51:0.1875 52:0.1875 53:0.9375 58:0.5 59:1 60:1 61:0.1875 # 0
-0.10645965279047131524237101984909 1:0.25 2:1 3:0.625 4:0.5625 5:0.5 10:0.625 11:1 12:1 13:0.75 17:0.0625 18:0.3125 19:0.625 20:1 21:0.625 22:0.375 25:0.6875 26:1 27:1 28:1 29:0.9375 30:0.4375 33:0.21428572 34:0.3125 35:0.875 36:0.5625 37:0.125 42:0.375 43:1 50:0.625 51:0.625 57:0.30000001 58:1 59:0.0625 # 0
1 3:0.625 4:0.8125 5:0.1875 10:0.4375 11:1 12:0.75 13:0.375 18:0.75 19:0.8125 20:0.0625 26:1 27:1 28:1 29:0.625 33:0.14285715 34:1 35:0.9375 36:0.0625 37:0.75 38:0.5714286 42:1 43:0.25 45:0.375 46:0.9375 50:0.6875 51:0.875 52:0.5 53:0.9375 54:0.875 55:0.1 58:0.125 59:0.6875 60:1 61:0.6875 62:0.125 # 0
1 3:0.6875 4:0.9375 5:0.3125 10:0.5 11:1 12:0.8125 13:0.375 18:0.6875 19:0.875 26:0.9375 27:0.9375 28:0.75 29:0.5 34:1 35:0.875 36:0.75 37:0.9375 38:0.64285713 42:1 43:0.375 45:0.6875 46:0.875 50:0.625 51:0.875 52:0.5625 53:1 54:0.6875 58:0.0625 59:0.6875 60:0.8125 61:0.75 62:0.0625 # 0
1 2:0.125 3:0.8125 4:1 5:0.375 10:0.6875 11:1 12:0.6875 13:0.3125 18:0.9375 19:0.375 25:0.25 26:1 27:0.25 28:0.625 29:0.125 33:0.21428572 34:0.875 35:0.9375 36:1 37:0.875 38:0.071428575 41:0.1875 42:1 43:0.5 45:0.875 46:0.5625 50:0.8125 51:0.5 52:0.3125 53:1 54:0.3125 58:0.25 59:0.8125 60:1 61:0.625 # 0
-0.10645952505610145610859262887971 2:0.1875 3:0.875 4:1 5:0.75 6:0.0625 9:0.2 10:1 11:0.875 12:0.1875 13:0.6875 14:0.25 17:0.125 18:0.8125 19:0.0625 20:0.1875 21:0.9375 22:0.25 26:0.625 27:1 28:1 29:0.5 33:0.14285715 34:0.9375 35:0.625 36:0.875 37:0.25 41:0.3125 42:0.875 44:0.1875 45:0.875 46:0.0625 50:0.875 51:0.25 52:0.0625 53:0.875 54:0.125 58:0.125 59:0.8125 60:1 61:0.625 # 0
-0.10645952505610145610859262887971 3:0.5625 4:0.875 10:0.3125 11:1 12:0.25 13:0.25 14:0.5625 17:0.25 18:1 19:0.1875 21:0.8125 22:0.5625 25:0.375 26:1 27:0.9375 28:0.75 29:1 30:0.8125 34:0.5 35:0.6875 36:0.9375 37:0.875 38:0.21428572 44:1 45:0.3125 51:0.375 52:0.8125 59:0.5625 60:0.625 # 0
-0.10757386167011206978827431157697 4:0.5 5:0.8125 6:0.0625 10:0.0625 11:0.5625 12:0.9375 13:0.875 14:0.0625 17:0.375 18:0.875 19:1 20:1 21:0.625 25:0.3125 26:0.6875 27:0.25 28:1 29:0.5625 35:0.1875 36:1 37:0.3125 43:0.1875 44:1 45:0.4375 52:1 53:0.625 60:0.6875 61:0.8125 # 0
1 2:0.0625 3:0.4375 4:0.75 5:0.3125 10:0.25 11:1 12:0.5625 13:0.375 18:0.6875 19:0.5 26:0.9375 27:0.5 28:0.5 29:0.3125 34:1 35:1 36:0.75 37:1 38:0.14285715 42:0.9375 43:0.3125 45:0.9375 46:0.3125 50:0.6875 51:0.5625 52:0.5 53:1 54:0.25 58:0.125 59:0.875 60:0.9375 61:0.5 # 0
1 3:0.6875 4:0.875 5:0.125 10:0.5625 11:1 12:0.75 13:0.375 17:0.125 18:0.9375 19:0.5 26:1 27:0.25 28:0.1875 29:0.0625 34:1 35:0.875 36:1 37:0.9375 38:0.21428572 42:0.8125 43:0.875 44:0.125 45:0.25 46:0.875 47:0.25 50:0.4375 51:0.875 52:0.3125 53:0.5 54:1 55:0.40000001 58:0.0625 59:0.5625 60:0.9375 61:0.875 62:0.4375 # 0
1 2:0.1875 3:0.75 4:0.9375 5:0.1875 10:0.875 11:0.9375 12:0.875 13:0.25 17:0.0625 18:1 19:0.9375 20:0.0625 25:0.1875 26:1 27:1 28:0.3125 29:0.125 30:0.0625 33:0.14285715 34:1 35:0.6875 36:0.25 37:0.5 38:0.71428573 41:0.125 42:1 43:0.125 45:0.375 46:0.8125 50:0.6875 51:0.6875 52:0.25 53:0.6875 54:0.625 58:0.0625 59:0.625 60:0.8125 61:0.625 62:0.1875 # 0
-0.1075639933223941913098542499938 2:0.0625 3:0.8125 4:0.875 5:0.125 10:0.4375 11:1 12:0.625 13:0.75 17:0.1875 18:0.9375 19:0.625 21:0.75 22:0.1875 25:0.4375 26:0.5625 29:0.5 30:0.4375 33:0.35714287 34:0.5625 37:0.5 38:0.5 41:0.0625 42:0.8125 45:0.6875 46:0.125 50:0.8125 51:0.4375 52:0.3125 53:0.625 58:0.1875 59:0.875 60:0.9375 61:0.1875 # 0
-0.10757386169706517620170416194014 4:0.9375 5:0.9375 6:0.0625 11:0.125 12:1 13:1 14:0.25 18:0.125 19:0.6875 20:1 21:0.9375 22:0.0625 25:0.5625 26:1 27:1 28:1 29:0.75 33:0.21428572 34:0.625 35:0.5 36:1 37:0.5 44:1 45:0.6875 52:0.9375 53:0.8125 60:0.9375 61:0.9375 # 0
-0.10752769675590667652897991501959 2:0.125 3:0.875 4:0.9375 5:0.5 10:0.5 11:0.625 12:0.1875 13:0.9375 14:0.0625 18:0.3125 19:0.6875 20:0.0625 21:0.9375 22:0.25 27:0.75 28:0.9375 29:1 30:0.3125 36:0.125 37:0.5 38:0.42857143 41:0.0625 42:0.1875 45:0.4375 46:0.3125 49:0.0625 50:0.75 51:0.25 53:0.625 54:0.4375 58:0.25 59:0.875 60:0.875 61:0.8125 62:0.0625 # 0
1 2:0.0625 3:0.75 4:0.4375 10:0.875 11:1 12:0.375 17:0.125 18:1 19:0.3125 25:0.0625 26:1 27:0.125 33:0.21428572 34:1 35:0.6875 36:0.3125 37:0.1875 41:0.0625 42:1 43:0.9375 44:0.875 45:1 46:0.5 50:0.6875 51:1 52:0.3125 53:0.4375 54:1 55:0.5 58:0.0625 59:0.625 60:1 61:1 62:0.8125 63:0.06666667 # 0
1 2:0.375 3:0.5 10:0.6875 11:0.875 18:0.8125 19:0.4375 26:1 27:0.4375 34:1 35:0.5625 36:0.375 41:0.25 42:1 43:1 44:1 45:0.875 46:0.125 49:0.125 50:0.875 51:0.875 52:0.5 53:1 54:0.5625 58:0.375 59:0.9375 60:1 61:1 62:0.375 # 0
1 3:0.5 4:0.6875 10:0.3125 11:0.875 12:0.4375 18:0.75 19:0.625 25:0.25 26:1 27:0.1875 33:0.35714287 34:0.9375 35:0.75 36:0.625 37:0.1875 41:0.25 42:1 43:0.75 44:0.5 45:0.9375 46:0.3125 50:0.625 51:0.9375 52:0.375 53:0.625 54:0.9375 59:0.4375 60:0.75 61:0.75 62:0.5 # 0
-0.10757573686110699640039456426166 2:0.5625 3:0.9375 4:0.875 5:0.0625 9:0.13333334 10:1 11:0.5 12:0.9375 13:0.625 17:0.125 18:0.875 19:0.25 20:0.8125 21:0.875 22:0.0625 26:0.4375 27:0.9375 28:0.9375 29:0.875 30:0.375 35:0.0625 36:0.0625 37:0.4375 38:0.64285713 45:0.1875 46:0.75 50:0.375 53:0.375 54:0.75 58:0.5625 59:1 60:1 61:1 62:0.375 # 0
-0.10756604611883324729149080667412 2:0.4375 3:0.625 4:0.8125 5:0.3125 9:0.40000001 10:1 11:0.75 12:1 13:0.75 17:0.375 18:0.9375 19:0.375 20:1 21:0.875 22:0.0625 25:0.0625 26:0.8125 27:1 28:0.75 29:1 30:0.125 37:0.8125 38:0.2857143 45:0.6875 46:0.4375 50:0.6875 51:0.375 52:0.25 53:0.8125 54:0.5 58:0.5625 59:1 60:1 61:0.75 62:0.1875 # 0
-0.10639217386248778218771349202143 2:0.5 3:1 4:1 5:1 6:1 7:0.125 10:0.5 11:0.625 12:0.4375 13:0.75 14:0.8125 20:0.1875 21:0.9375 22:0.125 26:0.25 27:0.6875 28:0.9375 29:1 30:0.8125 34:0.6875 35:1 36:0.875 37:0.375 42:0.0625 43:0.875 44:0.375 50:0.4375 51:0.8125 52:0.0625 58:0.75 59:0.5 # 0
1 2:0.3125 3:0.875 10:0.75 11:0.875 18:0.9375 19:0.75 25:0.0625 26:1 27:0.5625 28:0.3125 29:0.125 33:0.35714287 34:1 35:1 36:1 37:0.9375 38:0.14285715 41:0.4375 42:1 43:0.9375 44:0.625 45:1 46:0.5625 49:0.0625 50:0.9375 51:0.8125 52:0.8125 53:1 54:0.3125 58:0.3125 59:0.8125 60:0.8125 61:0.5625 # 0
1 2:0.4375 3:0.875 10:0.75 11:0.9375 18:1 19:0.5625 25:0.0625 26:0.9375 27:0.4375 28:0.125 33:0.071428575 34:1 35:1 36:0.9375 37:0.625 38:0.14285715 41:0.1875 42:1 43:0.75 44:0.25 45:0.875 46:0.75 50:0.75 51:0.625 52:0.0625 53:0.875 54:0.5625 58:0.3125 59:1 60:1 61:0.6875 62:0.1875 # 0
1 2:0.0625 3:0.75 4:0.5625 10:0.4375 11:1 12:0.3125 18:0.625 19:0.5625 26:0.9375 27:0.6875 28:0.6875 29:0.0625 34:0.8125 35:1 36:0.875 37:0.875 38:0.071428575 42:0.625 43:0.8125 45:0.75 46:0.3125 50:0.25 51:0.8125 52:0.125 53:1 54:0.1875 59:0.6875 60:1 61:0.5 # 0
-0.10653244267931560873563512359397 2:0.625 3:0.75 4:0.8125 5:0.6875 6:0.125 10:0.875 11:0.5625 12:0.5 13:0.5 14:0.125 18:0.9375 25:0.375 26:1 27:0.375 33:0.21428572 34:0.75 35:0.8125 36:0.9375 37:0.3125 44:0.375 45:0.8125 46:0.0625 50:0.5625 51:0.3125 52:0.25 53:0.875 58:0.5 59:0.9375 60:0.9375 61:0.4375 # 0
-0.10751425780999390724446129752323 2:0.125 3:0.8125 4:0.8125 5:0.25 10:0.75 11:0.8125 12:0.6875 13:0.875 18:0.5625 19:0.8125 20:0.8125 21:0.875 22:0.0625 27:0.25 28:0.5 29:0.8125 30:0.1875 37:0.4375 38:0.64285713 45:0.1875 46:0.8125 50:0.875 51:0.375 53:0.375 54:0.75 58:0.125 59:0.75 60:1 61:1 62:0.4375 # 0
-0.10597124154465764611643407988595 3:0.3125 4:0.75 5:0.9375 6:0.4375 10:0.1875 11:0.875 12:0.25 13:0.8125 14:0.375 18:0.25 19:0.8125 21:0.875 22:0.4375 27:0.8125 28:0.875 29:1 30:0.5 36:0.1875 37:0.5 38:0.5714286 41:0.0625 42:0.1875 45:0.625 46:0.5 49:0.3125 50:1 51:0.4375 53:0.75 54:0.25 58:0.125 59:0.375 60:0.8125 61:0.9375 62:0.0625 # 0
1 3:0.625 4:0.75 10:0.1875 11:1 12:0.5625 18:0.5 19:0.75 26:0.625 27:0.625 28:0.0625 34:0.75 35:1 36:1 37:0.9375 38:0.21428572 42:0.625 43:0.9375 44:0.25 45:0.5 46:1 47:0.25 50:0.375 51:0.875 53:0.5625 54:0.9375 58:0.0625 59:0.625 60:1 61:0.9375 62:0.25 # 0
1 3:0.8125 4:0.1875 10:0.3125 11:1 12:0.4375 18:0.5625 19:0.875 26:0.625 27:0.875 28:0.5 29:0.1875 34:0.9375 35:0.9375 36:0.75 37:0.875 38:0.42857143 42:0.9375 43:0.5625 45:0.25 46:0.9375 47:0.25 50:0.4375 51:0.875 52:0.125 53:0.5625 54:1 58:0.0625 59:0.6875 60:0.9375 61:0.875 62:0.375 # 0
1 3:0.625 4:0.6875 10:0.125 11:1 12:0.4375 18:0.4375 19:0.75 26:0.625 27:0.625 34:0.625 35:1 36:1 37:0.5625 42:0.625 43:0.875 44:0.125 45:0.875 46:0.1875 50:0.375 51:0.875 52:0.0625 53:0.875 54:0.3125 59:0.4375 60:1 61:0.9375 62:0.0625 # 0
-0.10588117355082382609055002831155 2:0.375 3:0.75 4:0.9375 5:0.9375 6:0.5625 10:0.5 11:0.75 12:0.25 13:0.25 14:0.1875 18:0.75 19:0.1875 25:0.0625 26:0.9375 27:0.375 28:0.1875 33:0.5714286 34:1 35:0.75 36:1 37:0.375 41:0.1875 42:0.25 44:0.25 45:0.6875 49:0.25 50:0.9375 51:0.3125 52:0.8125 53:0.375 58:0.375 59:1 60:0.625 # 0
-0.10585647204181447555981776531553 2:0.1875 3:0.625 4:0.8125 5:0.3125 10:0.9375 11:0.75 12:0.3125 13:0.875 14:0.0625 17:0.25 18:0.75 19:0.0625 21:0.625 22:0.25 25:0.3125 26:0.5 29:0.5 30:0.4375 33:0.35714287 34:0.5 37:0.5 38:0.5714286 41:0.25 42:0.6875 45:0.6875 46:0.3125 49:0.0625 50:0.875 51:0.375 52:0.4375 53:0.75 58:0.25 59:0.9375 60:0.875 61:0.25 # 0
-0.10585601886822149086953004371026 3:0.125 4:0.9375 5:0.4375 11:0.6875 12:0.75 13:0.0625 18:0.375 19:0.9375 20:0.0625 21:0.875 22:0.125 25:0.3125 26:0.9375 27:0.3125 28:0.1875 29:1 30:0.0625 33:0.5 34:1 35:0.875 36:0.8125 37:1 38:0.5714286 41:0.0625 42:0.375 43:0.75 44:0.9375 45:0.875 46:0.1875 51:0.0625 52:0.8125 53:0.4375 59:0.1875 60:1 61:0.0625 # 0
1 3:0.5 4:1 5:0.125 10:0.5 11:1 12:0.5625 13:0.0625 18:0.8125 19:0.625 26:0.9375 27:0.9375 28:0.5 29:0.0625 33:0.071428575 34:1 35:0.6875 36:0.75 37:0.625 42:0.9375 43:0.3125 44:0.0625 45:0.9375 46:0.0625 50:0.5 51:0.6875 52:0.1875 53:1 58:0.0625 59:0.625 60:1 61:0.4375 # 0
1 3:0.5 4:0.75 5:0.0625 10:0.375 11:1 12:0.8125 18:0.625 19:0.875 20:0.0625 26:0.875 27:0.5 34:0.9375 35:0.75 36:0.5 37:0.5 38:0.14285715 42:0.6875 43:1 44:0.8125 45:0.875 46:0.8125 50:0.5 51:1 52:0.3125 53:0.625 54:0.9375 59:0.5 60:1 61:0.8125 62:0.4375 # 0
0.99999999999999944488848768742173 3:0.75 4:0.6875 10:0.25 11:1 12:0.3125 18:0.5625 19:0.5 26:0.8125 27:0.4375 34:0.875 35:0.6875 36:0.75 37:0.3125 42:0.75 43:1 44:0.625 45:0.9375 46:0.25 50:0.375 51:0.8125 52:0.125 53:0.6875 54:0.5625 59:0.625 60:0.8125 61:0.9375 62:0.1875 # 0
-0.10582703376597746292020474356832 2:0.3125 3:0.8125 4:0.75 5:0.9375 6:0.125 10:0.8125 11:0.8125 12:0.5 13:0.5 14:0.125 17:0.1875 18:1 19:0.3125 25:0.4375 26:1 27:0.8125 28:0.3125 33:0.071428575 34:0.4375 35:0.625 36:1 37:0.625 44:0.25 45:1 46:0.25 50:0.5 51:0.375 52:0.3125 53:1 54:0.25 58:0.4375 59:0.8125 60:0.8125 61:0.625 # 0
-0.10637891062199855696235317736864 3:0.125 4:0.875 5:0.3125 6:0.0625 10:0.0625 11:0.75 12:0.8125 13:0.0625 14:0.9375 15:0.30769232 18:0.5625 19:0.9375 20:0.125 21:0.375 22:1 23:0.33333334 25:0.4375 26:1 27:0.8125 28:0.5 29:0.875 30:0.75 33:0.64285713 34:1 35:1 36:1 37:1 38:0.71428573 43:0.1875 44:0.6875 45:0.9375 46:0.0625 52:0.875 53:0.625 59:0.125 60:1 61:0.25 # 0
-0.10645950255244174265101264609257 2:0.4375 3:0.8125 4:0.75 5:0.5625 6:0.0625 9:0.2 10:0.9375 11:0.3125 12:0.3125 13:1 14:0.25 17:0.1875 18:0.9375 19:0.125 20:0.4375 21:1 22:0.0625 26:0.3125 27:0.9375 28:1 29:0.9375 30:0.25 37:0.6875 38:0.5 41:0.0625 42:0.25 45:0.5625 46:0.4375 49:0.1875 50:0.8125 51:0.0625 53:0.625 54:0.5 58:0.5625 59:0.9375 60:1 61:1 62:0.0625 # 0
1 2:0.0625 3:0.875 4:0.4375 10:0.625 11:1 12:0.25 17:0.0625 18:0.9375 19:0.4375 25:0.125 26:1 27:0.1875 33:0.21428572 34:1 35:1 36:1 37:0.875 38:0.21428572 41:0.0625 42:0.9375 43:1 45:0.25 46:0.8125 47:0.25 50:0.625 51:0.9375 52:0.1875 53:0.4375 54:1 55:0.5 58:0.0625 59:0.6875 60:0.9375 61:0.9375 62:0.5625 # 0
1 3:0.375 4:0.8125 11:0.8125 12:0.5625 18:0.0625 19:1 20:0.1875 26:0.1875 27:0.9375 34:0.375 35:0.875 36:0.5 37:0.4375 38:0.071428575 42:0.4375 43:1 44:0.75 45:0.75 46:0.8125 47:0.5 50:0.25 51:1 52:0.1875 53:0.1875 54:0.8125 55:0.69999999 59:0.4375 60:1 61:1 62:0.6875 63:0.06666667 # 0
1 3:0.625 4:0.625 10:0.1875 11:1 12:0.625 18:0.625 19:0.625 26:1 27:0.3125 34:1 35:0.4375 36:0.5 37:0.4375 42:0.75 43:1 44:0.8125 45:0.5625 46:0.8125 47:0.5 50:0.375 51:1 52:0.3125 53:0.3125 54:0.8125 55:0.80000001 59:0.5625 60:0.875 61:0.8125 62:0.5625 63:0.06666667 # 0
-0.1064591025040101390786162482982 2:0.125 3:0.875 4:0.75 5:0.125 10:0.75 11:0.8125 12:0.4375 13:0.8125 17:0.3125 18:1 19:0.0625 21:0.75 22:0.1875 25:0.375 26:0.75 27:0.125 29:0.25 30:0.5 33:0.5 34:0.5 37:0.4375 38:0.5714286 41:0.0625 42:0.875 43:0.0625 45:0.5625 46:0.375 50:0.5625 51:0.6875 52:0.4375 53:1 54:0.0625 58:0.125 59:0.75 60:1 61:0.5 # 0
-0.10588118370365084963680146756815 2:0.125 3:0.5 4:0.9375 5:0.4375 10:0.6875 11:0.9375 12:0.375 13:0.875 14:0.1875 18:1 19:0.375 21:0.25 22:0.5625 25:0.5 26:0.25 29:0.25 30:0.5 33:0.42857143 34:0.4375 37:0.3125 38:0.5714286 41:0.1875 42:0.8125 45:0.8125 46:0.0625 50:0.625 51:0.6875 52:0.5 53:0.6875 58:0.0625 59:0.8125 60:0.6875 61:0.125 # 0
-0.10751487897169265117724989977432 1:0.375 2:1 3:1 4:0.625 9:0.13333334 10:0.75 11:0.6875 12:1 13:0.1875 19:0.125 20:1 21:0.3125 27:0.1875 28:1 29:0.125 34:0.0625 35:0.9375 36:0.625 42:0.8125 43:1 44:0.0625 49:0.4375 50:1 51:0.8125 52:0.625 53:0.75 54:0.8125 57:0.2 58:0.9375 59:1 60:1 61:0.75 62:0.375 # 0
1 2:0.0625 3:0.6875 4:0.8125 10:0.4375 11:1 12:0.5 13:0.0625 18:0.9375 19:0.75 25:0.0625 26:0.9375 27:0.4375 34:0.9375 35:0.4375 36:0.25 37:0.3125 38:0.071428575 42:0.9375 43:1 44:1 45:1 46:0.8125 47:0.25 50:0.625 51:1 52:0.5625 53:0.5 54:1 55:0.60000002 58:0.0625 59:0.5625 60:0.875 61:1 62:0.8125 63:0.13333334 # 0
1 3:0.875 4:0.9375 5:0.25 10:0.4375 11:1 12:0.875 13:0.125 18:0.875 19:0.8125 20:0.0625 26:0.1875 27:0.4375 33:0.21428572 34:1 35:0.375 36:0.5 37:0.1875 41:0.125 42:0.9375 43:1 44:1 45:0.9375 46:0.1875 50:0.5625 51:1 52:0.9375 53:0.9375 54:0.6875 59:0.625 60:1 61:1 62:0.6875 # 0
1 3:0.6875 4:0.8125 10:0.25 11:1 12:0.5 13:0.0625 18:0.8125 19:0.625 26:0.9375 27:0.3125 33:0.071428575 34:1 35:0.1875 36:0.25 37:0.125 42:0.8125 43:1 44:0.9375 45:0.875 46:0.4375 50:0.4375 51:1 52:0.4375 53:0.25 54:1 55:0.1 59:0.5625 60:1 61:1 62:0.6875 # 0
-0.10642533440900070473844607477076 2:0.875 3:1 4:0.875 5:0.3125 10:0.1875 12:0.125 13:1 14:0.1875 19:0.25 20:0.625 21:0.9375 22:0.0625 25:0.375 26:1 27:1 28:0.875 29:0.125 33:0.071428575 34:0.25 35:0.375 36:0.75 37:0.75 45:0.75 46:0.5625 50:0.625 52:0.25 53:0.875 54:0.3125 58:0.8125 59:1 60:0.8125 61:0.25 # 0
-0.10588878379493849024584051221609 3:0.8125 4:1 5:1 6:1 7:0.0625 11:0.4375 12:0.5 13:0.8125 14:0.6875 21:0.875 22:0.625 23:0.16666667 25:0.375 26:0.75 27:0.8125 28:1 29:0.875 30:0.5625 33:0.42857143 34:0.875 35:0.625 36:1 37:0.375 43:0.4375 44:0.8125 45:0.0625 51:0.8125 52:0.625 59:0.9375 60:0.1875 # 0
-0.10600728998222452847954855315038 2:0.375 3:0.75 4:0.8125 5:0.75 6:0.375 10:0.375 11:0.5 12:0.125 13:0.3125 14:0.4375 18:0.75 19:0.125 25:0.4375 26:0.9375 27:0.75 28:0.4375 29:0.125 33:0.14285715 34:0.5 35:0.5 36:0.5625 37:0.9375 38:0.2857143 45:0.4375 46:0.4375 50:0.25 51:0.3125 52:0.25 53:0.8125 54:0.125 58:0.25 59:0.9375 60:1 61:0.375 # 0
1 2:0.0625 3:0.6875 4:0.375 10:0.4375 11:0.8125 12:0.125 18:0.8125 19:0.375 25:0.0625 26:0.8125 27:0.0625 33:0.071428575 34:0.75 36:0.25 37:0.1875 41:0.0625 42:0.6875 43:0.6875 44:0.875 45:0.875 46:0.625 50:0.75 51:0.9375 52:0.3125 53:0.25 54:0.9375 55:0.30000001 58:0.0625 59:0.8125 60:1 61:0.75 62:0.5625 63:0.06666667 # 0
1 3:0.625 4:0.75 10:0.25 11:1 12:0.4375 13:0.0625 18:0.6875 19:0.5 26:0.75 27:0.3125 34:0.875 35:0.125 36:0.1875 37:0.25 38:0.071428575 42:0.6875 43:0.625 44:1 45:0.8125 46:0.8125 50:0.4375 51:1 52:0.4375 54:0.6875 55:0.5 59:0.5 60:0.9375 61:1 62:0.8125 63:0.06666667 # 0
1 2:0.0625 3:0.6875 4:0.5 10:0.5 11:0.9375 12:0.1875 17:0.0625 18:0.9375 19:0.25 25:0.25 26:1 27:0.5 28:0.9375 29:0.875 30:0.1875 33:0.2857143 34:0.875 35:0.6875 36:0.4375 37:0.3125 38:0.71428573 41:0.0625 42:0.8125 45:0.0625 46:0.8125 50:0.6875 51:0.3125 53:0.5625 54:0.8125 58:0.125 59:0.6875 60:1 61:0.75 62:0.0625 # 0
-0.10762769670037664049289105605567 2:0.0625 3:0.5 4:0.9375 5:0.5 10:0.875 11:0.6875 12:0.875 13:1 17:0.1875 18:0.75 20:0.375 21:0.5625 25:0.0625 26:0.9375 27:0.625 28:0.875 29:0.0625 34:0.0625 35:0.9375 36:1 37:0.3125 42:0.3125 43:0.75 44:0.1875 45:0.9375 46:0.1875 50:0.375 51:0.6875 52:0.0625 53:0.8125 54:0.25 59:0.5 60:1 61:0.8125 62:0.0625 # 0
-0.10643086911025534391228575259447 2:0.3125 3:0.5 4:0.75 5:0.75 6:0.8125 10:0.875 11:0.75 12:0.5 13:0.25 14:0.25 18:0.875 20:0.125 25:0.1875 26:1 27:1 28:1 29:0.625 34:0.3125 35:0.0625 36:0.125 37:0.9375 38:0.14285715 45:1 50:0.25 51:0.625 52:0.5 53:0.5625 58:0.1875 59:1 60:0.8125 61:0.0625 # 0
-0.10755482945452832233002027351176 2:0.25 3:0.9375 4:0.625 9:0.2 10:1 11:0.5625 12:0.625 13:0.4375 17:0.4375 18:0.9375 19:0.1875 20:0.0625 21:0.6875 22:0.125 25:0.5 26:0.375 29:0.375 30:0.4375 33:0.5714286 34:0.3125 37:0.25 38:0.5714286 41:0.25 42:0.625 45:0.4375 46:0.5 50:0.8125 51:0.375 52:0.3125 53:0.9375 54:0.1875 58:0.25 59:0.9375 60:0.875 61:0.375 # 0
1 3:0.625 4:0.9375 5:0.25 10:0.375 11:1 12:0.625 13:0.0625 18:0.6875 19:0.9375 20:0.0625 26:1 27:0.625 28:0.375 29:0.1875 33:0.2857143 34:1 35:1 36:1 37:1 38:0.5 42:0.9375 43:1 44:0.6875 45:0.375 46:1 47:0.25 50:0.6875 51:0.8125 52:0.125 53:0.25 54:1 55:0.40000001 59:0.625 60:1 61:1 62:0.8125 63:0.06666667 # 0
1 2:0.0625 3:0.875 4:0.375 10:0.375 11:0.9375 12:0.1875 17:0.0625 18:0.875 19:0.4375 26:1 27:0.5625 28:0.5 29:0.1875 33:0.5 34:1 35:1 36:0.75 37:0.9375 38:0.21428572 41:0.3125 42:0.875 43:0.4375 45:0.25 46:0.5625 49:0.1875 50:0.9375 51:0.375 52:0.0625 53:0.75 54:0.5625 58:0.25 59:0.8125 60:1 61:0.875 62:0.1875 # 0
1 2:0.125 3:0.8125 4:0.875 5:0.125 10:0.625 11:1 12:0.8125 13:0.25 18:0.8125 19:0.9375 20:0.0625 25:0.0625 26:1 27:0.5625 33:0.071428575 34:1 35:0.9375 36:0.75 37:0.125 41:0.0625 42:0.9375 43:1 44:0.6875 45:0.8125 50:0.6875 51:0.75 52:0.5 53:1 54:0.0625 58:0.125 59:0.8125 60:1 61:0.9375 # 0
-0.10761415952317832100959549279651 3:0.1875 4:0.9375 5:0.25 11:0.8125 12:0.5625 18:0.5 19:0.75 21:0.4375 22:0.25 25:0.25 26:0.875 27:0.1875 29:0.9375 30:0.3125 33:0.78571427 34:1 35:1 36:1 37:1 38:0.71428573 41:0.3125 42:0.5625 43:0.5625 44:0.8125 45:0.75 52:0.75 53:0.4375 59:0.125 60:1 61:0.1875 # 0
-0.10588117354469472886080438911449 3:0.125 4:0.6875 5:0.0625 11:0.4375 12:0.8125 13:0.0625 18:0.375 19:0.9375 20:0.125 21:0.25 22:0.4375 25:0.0625 26:0.875 27:0.6875 29:0.875 30:0.5 33:0.5 34:1 35:1 36:1 37:1 38:0.21428572 43:0.1875 44:0.8125 45:0.875 52:0.9375 53:0.5625 59:0.1875 60:0.9375 61:0.3125 # 0
-0.105971340723336693301348532259 2:0.25 3:0.875 4:0.3125 10:0.75 11:0.9375 12:0.875 18:0.75 19:0.5 20:0.9375 21:0.5625 26:0.3125 27:1 28:0.9375 29:1 30:0.25 36:0.375 37:0.75 38:0.71428573 45:0.3125 46:0.9375 50:0.1875 51:0.5 52:0.25 53:0.5625 54:1 55:0.40000001 58:0.3125 59:0.75 60:0.9375 61:0.75 62:0.6875 # 0
1 2:0.0625 3:0.75 4:1 5:0.1875 10:0.5 11:0.5 12:0.25 18:0.875 19:0.0625 25:0.125 26:1 27:0.5625 28:0.5 29:0.375 30:0.0625 33:0.2857143 34:1 35:0.875 36:0.6875 37:0.75 38:0.42857143 41:0.125 42:1 43:0.25 44:0.0625 45:0.4375 46:0.6875 50:0.6875 51:0.6875 52:0.3125 53:0.8125 54:0.5625 59:0.625 60:0.8125 61:0.625 62:0.1875 # 0
1 2:0.0625 3:0.875 4:0.8125 10:0.375 11:1 12:0.5 18:0.75 19:0.5625 26:0.875 27:0.625 28:1 29:0.75 30:0.0625 33:0.071428575 34:1 35:0.625 36:0.875 37:0.5 38:0.9285714 42:0.8125 43:0.5625 44:0.625 46:0.75 47:1 50:0.5 51:0.625 53:0.3125 54:1 55:0.5 58:0.0625 59:0.6875 60:1 61:1 62:0.6875 # 0
1 3:0.5 4:0.9375 5:0.0625 10:0.125 11:1 12:0.4375 18:0.4375 19:0.9375 20:0.0625 26:0.625 27:0.6875 34:0.875 35:1 36:1 37:0.8125 38:0.14285715 42:0.9375 43:1 44:0.3125 45:0.375 46:0.875 47:0.25 50:0.5625 51:0.75 52:0.125 53:0.25 54:0.875 55:0.5 59:0.5 60:0.9375 61:1 62:0.8125 63:0.26666668 # 0
-0.10761398745907291285561768745538 3:0.1875 4:0.75 11:0.75 12:0.5625 13:0.0625 14:0.0625 18:0.1875 19:1 20:0.1875 21:0.625 22:0.4375 25:0.0625 26:0.8125 27:0.625 28:0.0625 29:1 30:0.1875 33:0.5714286 34:1 35:0.8125 36:0.8125 37:1 38:0.14285715 41:0.1875 42:0.375 43:0.5 44:1 45:0.875 46:0.125 51:0.125 52:1 53:0.125 59:0.1875 60:0.8125 # 0
-0.10761329513283202086171286282479 2:0.125 3:0.8125 4:0.875 5:0.125 9:0.06666667 10:0.9375 11:1 12:1 13:0.5625 17:0.4375 18:1 19:0.5 20:0.3125 21:1 22:0.0625 25:0.375 26:1 27:0.1875 29:0.6875 30:0.4375 33:0.35714287 34:1 35:0.25 37:0.5 38:0.5714286 42:1 43:0.5625 45:0.625 46:0.6875 50:0.625 51:0.9375 52:0.625 53:1 54:0.5 58:0.125 59:0.8125 60:1 61:0.875 62:0.125 # 0
-0.10760448358301855087404419464292 2:0.1875 3:0.9375 4:0.5 10:0.5 11:1 12:1 13:0.4375 18:0.4375 19:0.6875 20:0.5625 21:0.75 26:0.125 27:0.3125 28:0.5625 29:0.6875 36:0.8125 37:0.4375 42:0.4375 43:0.625 44:1 45:0.25 50:0.875 51:1 52:1 53:1 54:0.9375 58:0.0625 59:0.25 60:0.25 61:0.4375 62:0.6875 63:0.06666667 # 0
1 2:0.0625 3:0.8125 4:1 5:0.3125 10:0.375 11:1 12:0.6875 13:0.125 18:0.8125 19:0.9375 25:0.1875 26:1 27:0.5625 33:0.2857143 34:1 35:0.3125 36:0.3125 37:0.625 38:0.21428572 41:0.25 42:1 43:0.3125 44:1 45:0.875 46:0.9375 47:1 50:0.8125 51:0.6875 52:0.4375 53:0.5 54:1 55:0.69999999 58:0.125 59:0.75 60:1 61:1 62:0.75 63:0.13333334 # 0
1 2:0.125 3:0.6875 10:0.6875 11:0.8125 18:1 19:0.375 26:0.9375 27:0.4375 28:0.25 29:0.0625 33:0.2857143 34:1 35:1 36:1 37:0.9375 38:0.21428572 41:0.0625 42:1 43:0.8125 44:0.5 45:0.875 46:0.75 50:0.875 51:0.9375 52:0.75 53:0.9375 54:0.75 58:0.125 59:0.9375 60:1 61:0.875 62:0.25 # 0
0.99999999999999944488848768742173 3:0.625 4:0.8125 10:0.0625 11:1 12:0.6875 13:0.125 18:0.5 19:1 26:0.8125 27:0.75 34:0.875 35:1 36:0.875 37:0.5625 42:0.75 43:0.9375 44:0.3125 45:0.5625 46:0.8125 50:0.1875 51:1 52:0.25 53:0.375 54:1 55:0.2 59:0.5 60:0.8125 61:0.875 62:0.5625 # 0
-0.10765859948040912286160164512694 3:0.375 4:0.6875 5:0.375 10:0.5 11:0.8125 12:0.5625 13:1 14:0.1875 17:0.125 18:0.9375 19:0.25 21:0.8125 22:0.1875 26:0.4375 27:0.875 28:0.5625 29:0.8125 34:0.0625 35:0.9375 36:1 37:0.375 42:0.6875 43:0.625 44:0.625 45:0.75 50:0.5625 51:0.625 52:0.0625 53:1 54:0.1875 59:0.5625 60:0.75 61:0.625 62:0.0625 # 0
-0.10753917532460866013366285187658 2:0.25 3:1 4:0.4375 5:0.0625 10:0.625 11:0.8125 12:0.9375 13:0.6875 17:0.125 18:0.9375 19:0.1875 20:0.25 21:0.9375 22:0.1875 25:0.25 26:1 29:0.75 30:0.5 33:0.35714287 34:1 35:0.0625 37:0.5625 38:0.5714286 41:0.25 42:1 43:0.125 44:0.0625 45:0.8125 46:0.4375 50:0.875 51:0.5625 52:0.5625 53:0.875 54:0.0625 58:0.3125 59:0.875 60:0.9375 61:0.375 # 0
-0.10772447359564762958683559190831 2:0.3125 3:0.75 4:0.375 10:0.6875 11:1 12:0.9375 13:0.375 18:0.625 19:0.6875 20:0.6875 21:0.9375 22:0.125 26:0.25 27:0.9375 28:0.9375 29:1 30:0.375 35:0.25 36:0.5 37:0.8125 38:0.64285713 45:0.5 46:0.8125 50:0.5625 51:0.5 52:0.5 53:0.75 54:0.8125 58:0.3125 59:0.625 60:0.8125 61:0.75 62:0.3125 # 0
1 2:0.25 3:1 4:0.0625 10:0.625 11:0.75 17:0.0625 18:0.875 19:0.5 25:0.1875 26:1 27:1 28:0.875 29:0.25 33:0.21428572 34:1 35:0.5 36:0.375 37:0.9375 38:0.35714287 41:0.0625 42:0.875 43:0.1875 45:0.4375 46:0.75 50:0.6875 51:0.6875 52:0.4375 53:1 54:0.5 58:0.3125 59:0.875 60:0.875 61:0.5625 # 0
1 2:0.1875 3:0.6875 10:0.6875 11:0.625 18:1 19:0.3125 25:0.125 26:1 27:0.3125 28:0.25 29:0.125 33:0.21428572 34:1 35:1 36:1 37:1 38:0.42857143 41:0.125 42:1 43:0.375 45:0.375 46:0.8125 50:0.9375 51:0.4375 52:0.1875 53:0.75 54:0.6875 58:0.25 59:0.875 60:1 61:0.6875 62:0.1875 # 0
1 3:0.9375 4:0.1875 10:0.1875 11:1 12:0.125 18:0.4375 19:0.9375 26:0.625 27:0.75 28:0.1875 34:0.875 35:1 36:1 37:0.6875 38:0.14285715 41:0.0625 42:0.9375 43:0.6875 44:0.0625 45:0.6875 46:0.6875 50:0.75 51:0.8125 52:0.25 53:0.5 54:0.8125 58:0.125 59:0.6875 60:0.875 61:0.8125 62:0.3125 # 0
-0.10645965279047131524237101984909 2:0.125 3:0.5625 4:0.1875 9:0.33333334 10:0.875 11:0.5625 12:0.8125 13:0.5625 17:0.4375 18:0.875 20:0.625 21:0.625 26:0.5625 27:0.875 28:0.9375 29:0.375 34:0.4375 35:1 36:1 42:0.75 43:0.375 44:0.4375 45:0.75 46:0.0625 50:0.9375 51:0.3125 53:0.875 54:0.375 58:0.125 59:0.5 60:0.75 61:0.6875 62:0.1875 # 0
-0.10756412769938261675406465656124 2:0.375 3:0.75 4:0.5 5:0.25 9:0.06666667 10:0.875 11:0.3125 12:0.4375 13:1 14:0.0625 17:0.125 18:1 19:0.25 20:0.375 21:0.8125 26:0.5625 27:0.875 28:0.9375 29:0.125 34:0.4375 35:0.875 36:0.75 37:0.0625 42:0.9375 43:0.125 44:0.5625 45:0.6875 50:0.9375 51:0.4375 52:0.375 53:1 58:0.1875 59:0.5 60:0.5625 61:0.375 # 0
-0.10756412769938261675406465656124 1:0.125 2:0.5 3:0.9375 4:0.625 9:0.40000001 10:0.9375 11:0.8125 12:1 13:0.5 19:0.1875 20:0.875 21:0.75 26:0.25 27:0.9375 28:1 29:0.625 34:0.4375 35:0.75 36:0.8125 37:1 38:0.42857143 45:0.875 46:0.5 50:0.5 51:0.625 52:0.8125 53:1 54:0.1875 58:0.625 59:1 60:0.75 61:0.3125 # 0
1 3:0.75 4:0.6875 10:0.3125 11:1 12:0.5 18:0.75 19:0.6875 26:0.9375 27:0.5 28:0.25 29:0.0625 33:0.21428572 34:1 35:1 36:1 37:0.9375 38:0.35714287 41:0.125 42:1 43:0.1875 44:0.0625 45:0.5625 46:0.8125 50:0.75 51:0.5625 52:0.25 53:0.8125 54:0.8125 59:0.6875 60:1 61:0.8125 62:0.1875 # 0
1 3:0.6875 4:1 5:0.5 10:0.5625 11:0.9375 12:0.3125 13:0.1875 18:0.875 19:0.375 25:0.25 26:0.875 33:0.35714287 34:0.6875 35:0.125 36:0.25 37:0.0625 41:0.25 42:0.875 43:0.9375 44:0.9375 45:0.9375 46:0.1875 49:0.0625 50:0.6875 51:1 52:0.6875 53:0.6875 54:0.9375 58:0.0625 59:0.6875 60:0.9375 61:1 62:0.75 # 0
1 2:0.125 3:0.6875 4:0.8125 5:0.0625 10:0.6875 11:0.9375 12:0.5 13:0.0625 17:0.0625 18:1 19:0.3125 25:0.25 26:0.9375 33:0.21428572 34:1 35:0.625 36:0.75 37:0.625 38:0.14285715 41:0.125 42:1 43:0.9375 44:0.6875 45:0.75 46:0.875 50:0.875 51:0.75 52:0.4375 53:0.6875 54:1 55:0.2 58:0.1875 59:0.6875 60:1 61:0.875 62:0.375 # 0
-0.10756648662996015630710644472856 1:0.125 2:0.8125 3:0.75 9:0.46666667 10:1 11:1 12:0.5 17:0.5 18:0.625 19:0.25 20:0.875 25:0.125 26:0.375 27:0.125 28:0.9375 35:0.5625 36:0.625 42:0.3125 43:1 44:0.3125 49:0.125 50:1 51:1 52:1 53:1 54:0.6875 57:0.1 58:0.6875 59:0.6875 60:0.5 61:0.5625 62:0.5625 # 0
-0.10653244267931816224859176145401 2:0.5 3:0.75 4:0.5625 5:0.0625 9:0.2 10:1 11:1 12:1 13:0.625 17:0.1875 18:1 19:1 20:1 21:0.625 26:0.5 27:1 28:1 29:0.25 34:0.75 35:1 36:1 37:0.5 41:0.0625 42:0.9375 43:1 44:1 45:0.5625 50:0.8125 51:1 52:1 53:0.5625 58:0.375 59:0.5625 60:0.6875 61:0.1875 # 0
-0.10757790837985581333668960724026 2:0.375 3:0.875 4:1 5:0.3125 9:0.2 10:1 11:0.8125 12:0.8125 13:0.75 17:0.0625 18:0.25 19:0.0625 20:0.75 21:0.75 26:0.25 27:0.875 28:1 29:0.375 34:0.375 35:0.875 36:1 37:0.9375 38:0.14285715 44:0.5 45:1 46:0.125 49:0.125 50:1 51:0.625 52:0.8125 53:0.9375 58:0.5625 59:0.875 60:0.5 61:0.125 # 0
1 2:0.25 3:0.875 4:0.9375 5:0.5625 10:0.875 11:0.5625 13:0.125 17:0.125 18:0.9375 19:0.0625 25:0.3125 26:0.5625 33:0.5 34:0.75 35:0.625 36:0.9375 37:0.4375 41:0.25 42:1 43:0.9375 44:0.1875 45:0.6875 46:0.375 50:0.8125 51:0.9375 52:0.875 53:0.6875 54:0.625 58:0.3125 59:0.875 60:1 61:0.6875 62:0.125 # 0
1 2:0.1875 3:0.875 4:0.8125 5:0.0625 10:0.75 11:0.75 12:0.1875 13:0.125 17:0.0625 18:1 19:0.125 25:0.25 26:0.875 33:0.14285715 34:0.875 36:0.125 37:0.125 41:0.125 42:0.875 43:0.875 44:1 45:1 46:0.5 50:0.6875 51:1 52:0.6875 53:0.6875 54:1 55:0.2 58:0.0625 59:0.625 60:0.75 61:0.75 62:0.5625 # 0
1 3:0.625 4:0.875 5:0.5625 10:0.625 11:0.875 12:0.375 13:0.25 17:0.0625 18:1 19:0.3125 25:0.375 26:0.75 33:0.5 34:0.625 35:0.0625 36:0.25 37:0.0625 41:0.125 42:0.9375 43:1 44:0.875 45:0.875 46:0.0625 50:0.75 51:0.75 52:0.25 53:0.875 54:0.6875 58:0.0625 59:0.625 60:0.8125 61:0.75 62:0.25 # 0
-0.10755482945613292766751101225964 2:0.375 3:0.75 4:0.75 5:0.5 10:0.6875 11:1 12:1 13:1 18:0.5625 19:1 20:1 21:1 22:0.0625 26:0.75 27:1 28:1 29:0.9375 30:0.125 34:0.75 35:1 36:1 37:1 38:0.2857143 42:0.75 43:1 44:1 45:0.6875 46:0.0625 50:0.5 51:1 52:1 53:0.0625 57:0.1 58:0.6875 59:0.75 60:0.3125 # 0
-0.10755608944040351282467327109771 2:0.0625 3:0.75 4:0.875 5:1 6:0.625 10:0.1875 11:0.625 12:0.5 13:1 14:0.375 20:0.1875 21:0.9375 22:0.0625 26:0.0625 27:0.4375 28:0.875 29:0.875 30:0.1875 34:0.25 35:0.8125 36:1 37:0.75 38:0.35714287 43:0.4375 44:0.8125 51:0.8125 52:0.4375 58:0.125 59:0.875 60:0.125 # 0
-0.10763552726131009329435528343311 2:0.625 3:1 4:0.375 10:0.9375 11:0.875 12:1 18:0.875 19:0.25 20:1 27:0.125 28:0.9375 35:0.375 36:0.625 42:0.0625 43:0.875 44:0.375 49:0.0625 50:0.875 51:1 52:0.8125 53:0.75 54:0.375 58:0.5 59:0.5 60:0.5 61:0.6875 62:0.6875 # 0
1 3:0.625 4:0.5 10:0.125 11:1 12:0.6875 13:0.0625 18:0.375 19:0.9375 20:0.0625 26:0.625 27:0.6875 34:0.8125 35:0.75 36:0.5 37:0.375 42:0.8125 43:1 44:1 45:1 46:0.75 47:0.25 50:0.5625 51:1 52:0.8125 53:0.6875 54:1 55:0.40000001 59:0.625 60:0.9375 61:0.75 62:0.3125 # 0
1 2:0.0625 3:0.75 4:0.9375 5:0.3125 10:0.75 11:0.6875 12:0.25 13:0.1875 17:0.0625 18:0.9375 19:0.125 25:0.3125 26:0.75 33:0.21428572 34:1 35:1 36:0.6875 37:0.125 41:0.125 42:1 43:0.9375 44:0.5 45:0.75 50:0.625 51:0.5625 52:0.0625 53:0.9375 54:0.3125 59:0.75 60:1 61:0.625 # 0
1 3:0.375 4:0.875 5:0.5625 10:0.5 11:0.9375 12:0.5 13:0.125 17:0.1875 18:0.9375 19:0.5625 25:0.4375 26:0.9375 33:0.5 34:1 35:0.25 36:0.375 37:0.1875 41:0.0625 42:1 43:0.9375 44:0.75 45:0.9375 46:0.3125 50:0.4375 51:0.875 52:0.375 53:0.6875 54:0.875 59:0.3125 60:0.8125 61:0.9375 62:0.5 # 0
-0.10763552726131009329435528343311 3:0.25 4:0.9375 10:0.0625 11:0.8125 12:0.6875 18:0.4375 19:1 20:0.4375 21:0.75 25:0.125 26:1 27:0.6875 28:0.625 29:1 30:0.125 33:0.42857143 34:1 35:1 36:1 37:1 38:0.21428572 42:0.25 43:0.25 44:0.9375 45:0.8125 46:0.0625 51:0.0625 52:1 53:0.4375 59:0.25 60:0.6875 61:0.0625 # 0
-0.10753917834946302711784937855555 2:0.125 3:1 4:0.9375 5:0.375 9:0.46666667 10:0.6875 11:0.9375 12:0.75 13:1 17:0.5625 18:1 19:0.625 20:0.625 21:1 22:0.0625 26:0.6875 27:1 28:1 29:0.375 34:0.9375 35:1 36:0.9375 37:0.125 42:0.875 43:0.3125 44:0.625 45:0.8125 46:0.0625 50:0.6875 51:0.6875 52:0.375 53:1 54:0.4375 58:0.1875 59:0.6875 60:1 61:0.75 62:0.1875 # 0
-0.10755316379354484812580494690337 3:0.25 4:0.9375 10:0.1875 11:0.9375 12:0.625 18:0.6875 19:0.9375 21:0.25 25:0.3125 26:1 27:0.5 28:0.25 29:1 30:0.1875 33:0.21428572 34:1 35:0.875 36:0.8125 37:1 38:0.14285715 42:0.25 43:0.375 44:0.9375 45:0.875 46:0.125 52:0.9375 53:0.375 59:0.125 60:0.9375 61:0.125 # 0
1 2:0.125 3:0.75 4:0.5 10:0.8125 11:0.6875 12:0.0625 17:0.125 18:0.9375 19:0.0625 25:0.375 26:0.8125 33:0.5714286 34:0.875 35:0.625 36:0.6875 37:0.3125 41:0.25 42:1 43:0.9375 44:0.5 45:0.75 46:0.4375 50:0.9375 51:0.6875 52:0.25 53:0.6875 54:0.625 58:0.1875 59:0.8125 60:0.9375 61:0.75 62:0.1875 # 0
1 2:0.0625 3:0.875 4:0.625 10:0.5625 11:1 12:0.375 18:0.8125 19:1 20:0.0625 26:1 27:0.6875 33:0.14285715 34:1 35:0.9375 36:0.6875 37:0.375 38:0.071428575 41:0.1875 42:1 43:1 44:1 45:1 46:0.6875 50:0.75 51:1 52:0.875 53:1 54:0.6875 58:0.0625 59:0.625 60:0.9375 61:0.6875 62:0.125 # 0
1 2:0.0625 3:0.9375 4:0.25 10:0.5625 11:0.75 17:0.0625 18:0.875 19:0.375 25:0.0625 26:1 27:0.25 28:0.1875 29:0.1875 33:0.14285715 34:1 35:0.5 36:1 37:0.9375 38:0.14285715 41:0.0625 42:1 43:1 44:0.625 45:0.3125 46:0.75 50:0.8125 51:0.9375 52:0.5 53:0.75 54:0.625 59:0.8125 60:0.9375 61:0.625 62:0.0625 # 0
-0.10752769675590667652897991501959 1:0.125 2:0.5625 3:0.8125 4:0.75 5:0.375 9:0.33333334 10:1 11:0.8125 12:0.5 13:0.625 14:0.125 17:0.25 18:0.875 19:0.0625 25:0.125 26:1 27:0.875 28:0.25 33:0.35714287 34:1 35:0.9375 36:1 37:0.25 43:0.0625 44:0.6875 45:1 46:0.1875 50:0.375 51:0.375 52:0.9375 53:0.9375 54:0.0625 58:0.4375 59:0.8125 60:0.625 61:0.1875 # 0
-0.10752769675590667652897991501959 2:0.5625 3:1 4:0.9375 5:0.3125 9:0.26666668 10:1 11:0.75 12:0.75 13:1 14:0.4375 17:0.3125 18:1 19:0.25 21:0.0625 22:0.0625 25:0.5 26:1 27:0.9375 28:0.6875 29:0.1875 33:0.2857143 34:0.875 35:0.75 36:0.875 37:0.9375 38:0.14285715 44:0.25 45:1 46:0.25 50:0.3125 51:0.5 52:0.9375 53:0.9375 54:0.125 58:0.6875 59:0.9375 60:0.5625 61:0.125 # 0
-0.10756123055392730059054429148091 1:0.125 2:0.9375 3:0.75 4:0.1875 9:0.06666667 10:0.75 11:1 12:0.9375 13:0.25 19:0.25 20:1 21:0.625 27:0.9375 28:1 29:0.3125 35:0.75 36:0.875 37:0.8125 38:0.071428575 45:0.5 46:0.75 50:0.4375 51:0.5 52:0.375 53:0.8125 54:0.8125 58:0.8125 59:1 60:1 61:0.8125 62:0.4375 # 0
1 3:0.625 4:0.9375 5:0.25 10:0.3125 11:1 12:0.875 13:0.1875 18:0.75 19:0.9375 20:0.0625 25:0.0625 26:0.9375 27:0.5 33:0.2857143 34:1 35:0.75 36:0.125 41:0.1875 42:1 43:1 44:0.9375 45:0.25 50:0.75 51:0.875 52:1 53:0.625 58:0.0625 59:0.5625 60:0.9375 61:0.625 # 0
1 3:0.5625 4:0.75 10:0.125 11:1 12:0.625 18:0.5625 19:1 20:0.1875 26:0.875 27:0.75 33:0.071428575 34:1 35:0.3125 37:0.125 41:0.125 42:1 43:0.8125 44:1 45:1 46:0.375 50:0.5 51:1 52:0.5 53:0.75 54:1 55:0.30000001 59:0.3125 60:0.75 61:1 62:0.9375 63:0.26666668 # 0
1 3:0.3125 4:0.625 10:0.0625 11:0.875 12:0.75 18:0.25 19:1 20:0.3125 26:0.5625 27:1 28:0.125 34:0.6875 35:0.625 42:0.6875 43:1 44:0.8125 45:0.75 46:0.3125 50:0.375 51:1 52:1 53:1 54:1 55:0.2 59:0.1875 60:0.75 61:0.9375 62:0.6875 63:0.2 # 0
-0.10756123055392730059054429148091 1:0.375 2:0.875 3:0.875 4:0.25 9:0.53333336 10:0.9375 11:0.6875 12:1 13:0.375 17:0.0625 18:0.25 19:0.25 20:1 21:0.4375 26:0.3125 27:1 28:1 29:0.25 34:0.125 35:0.5625 36:0.9375 37:1 38:0.21428572 44:0.25 45:1 46:0.5 50:0.4375 51:0.25 52:0.6875 53:1 54:0.3125 57:0.2 58:0.875 59:1 60:0.875 61:0.4375 # 0
-0.10756648662954571005201387379202 2:0.25 3:0.875 4:0.9375 5:0.25 9:0.06666667 10:1 11:0.875 12:0.9375 13:0.8125 17:0.25 18:1 19:0.4375 20:0.25 21:1 22:0.1875 25:0.3125 26:1 27:0.1875 29:0.75 30:0.25 33:0.2857143 34:1 35:0.125 37:0.6875 38:0.5714286 41:0.125 42:1 43:0.375 44:0.0625 45:0.9375 46:0.25 50:0.75 51:0.8125 52:0.8125 53:0.875 54:0.0625 58:0.1875 59:1 60:0.9375 61:0.25 # 0
-0.10756082131830380088644005809329 2:0.375 3:0.875 4:0.5625 9:0.2 10:1 11:0.8125 12:1 13:0.375 17:0.125 18:1 19:0.1875 20:0.5625 21:0.8125 25:0.0625 26:1 27:0.0625 28:0.0625 29:0.9375 30:0.25 33:0.21428572 34:1 37:0.75 38:0.42857143 42:1 43:0.0625 45:0.8125 46:0.25 50:1 51:0.5 52:0.5 53:0.9375 54:0.0625 58:0.4375 59:0.9375 60:0.875 61:0.3125 # 0
1 3:0.125 4:0.875 10:0.0625 11:0.8125 12:0.875 13:0.0625 18:0.3125 19:1 20:0.25 26:0.6875 27:0.5 34:0.75 35:0.5 36:0.0625 42:0.5 43:1 44:1 45:0.875 46:0.3125 50:0.25 51:1 52:0.25 53:0.5 54:1 55:0.30000001 59:0.25 60:0.6875 61:0.9375 62:0.875 63:0.40000001 # 0
1 4:0.6875 5:0.5 11:0.125 12:1 13:0.5 19:0.375 20:1 21:0.125 27:0.4375 28:0.9375 35:0.625 36:0.875 42:0.8125 43:1 44:1 45:0.6875 50:0.4375 51:0.4375 52:1 53:1 54:0.625 60:0.5 61:1 62:0.9375 # 0
1 3:0.625 4:1 5:0.625 10:0.5625 11:1 12:0.75 13:0.5 17:0.0625 18:0.9375 19:0.8125 20:0.0625 25:0.125 26:1 27:0.3125 33:0.14285715 34:1 35:0.5 41:0.125 42:1 43:1 44:0.5625 49:0.0625 50:0.75 51:1 52:1 53:0.1875 59:0.75 60:1 61:0.4375 # 0
-0.10756648662924805925911186932353 2:0.25 3:0.875 4:0.6875 9:0.2 10:1 11:0.5625 12:0.9375 13:0.4375 17:0.5625 18:0.9375 20:0.25 21:0.875 22:0.125 25:0.5 26:0.8125 29:0.75 30:0.375 33:0.5714286 34:0.75 37:0.6875 38:0.5 41:0.375 42:0.875 43:0.0625 45:0.875 46:0.25 50:0.875 51:0.6875 52:0.5 53:1 54:0.0625 58:0.3125 59:1 60:0.875 61:0.375 # 0
-0.10754294959332977299482081434689 2:0.0625 3:0.5 4:0.375 10:0.875 11:1 12:1 13:1 18:1 19:1 20:1 21:1 26:1 27:1 28:1 29:1 34:1 35:1 36:1 37:0.9375 42:1 43:1 44:1 45:0.8125 50:0.5625 51:1 52:1 53:0.5625 58:0.375 59:0.5 60:0.375 61:0.0625 # 0
-0.10772447359564751856453312939266 1:0.25 2:0.625 3:0.9375 4:0.5 9:0.40000001 10:1 11:0.9375 12:1 13:0.5 17:0.5 18:1 19:0.3125 20:0.8125 21:1 25:0.25 26:1 27:0.75 28:1 29:1 30:0.3125 34:0.3125 35:0.6875 36:0.8125 37:1 38:0.5 44:0.0625 45:1 46:0.5 50:0.125 51:0.25 52:0.625 53:1 54:0.5 58:0.75 59:1 60:0.875 61:0.6875 # 0
1 2:0.0625 3:0.875 4:0.75 5:0.0625 10:0.5 11:1 12:0.5625 18:0.9375 19:1 26:1 27:0.75 33:0.071428575 34:1 35:0.6875 42:1 43:1 44:0.9375 45:0.25 50:0.6875 51:0.8125 52:0.8125 53:1 54:0.0625 58:0.125 59:0.75 60:1 61:0.875 62:0.125 # 0
1 3:0.5 4:0.9375 5:0.0625 10:0.0625 11:0.9375 12:0.9375 13:0.0625 18:0.5 19:1 20:0.3125 26:0.75 27:0.9375 28:0.0625 34:0.9375 35:0.4375 42:0.875 43:0.875 44:0.75 45:0.4375 50:0.5 51:1 52:0.75 53:1 54:0.4375 59:0.4375 60:0.9375 61:1 62:0.8125 # 0
1 3:0.5 4:0.9375 5:0.125 11:0.8125 12:1 13:0.1875 18:0.25 19:1 20:0.875 26:0.4375 27:1 28:0.4375 34:0.5625 35:1 36:0.125 42:0.75 43:1 44:0.25 50:0.5 51:1 52:1 53:0.5 59:0.375 60:0.9375 61:0.9375 # 0
-0.10637891062199877900695810239995 3:0.6875 4:0.75 5:0.0625 10:0.125 11:0.875 12:1 13:0.1875 18:0.3125 19:1 20:0.6875 26:0.4375 27:1 28:0.5 34:0.375 35:1 36:0.5 42:0.625 43:1 44:0.4375 50:0.4375 51:1 52:0.5625 53:0.25 59:0.625 60:1 61:0.75 62:0.0625 # 0
-0.10772447359564762958683559190831 1:0.25 2:0.9375 3:0.8125 4:0.125 9:0.40000001 10:1 11:0.875 12:0.9375 13:0.0625 17:0.4375 18:0.75 20:0.9375 21:0.5 25:0.25 26:0.4375 28:1 29:0.5 35:0.0625 36:1 37:0.1875 43:0.5625 44:0.9375 49:0.125 50:0.9375 51:1 52:1 53:0.875 54:0.3125 57:0.2 58:0.625 59:0.75 60:0.8125 61:1 62:0.5 # 0
-0.10765994085290464532533860619878 2:0.8125 3:0.875 4:0.25 9:0.26666668 10:1 11:0.8125 12:0.875 13:0.125 18:1 19:0.25 20:1 21:0.875 22:0.125 26:0.6875 27:0.875 28:1 29:0.875 35:0.5 36:0.6875 37:0.9375 44:0.25 45:1 46:0.125 50:0.375 51:0.375 52:0.4375 53:1 54:0.125 58:0.75 59:1 60:1 61:0.625 # 0
1 3:0.75 4:1 5:0.125 10:0.25 11:1 12:0.75 13:0.0625 18:0.875 19:1 20:0.125 26:1 27:0.625 33:0.071428575 34:1 35:0.5 36:0.3125 42:0.875 43:1 44:1 45:0.8125 46:0.0625 50:0.4375 51:0.9375 52:0.4375 53:0.9375 54:0.8125 58:0.0625 59:0.5625 60:1 61:1 62:1 63:0.2 # 0
1 2:0.1875 3:0.75 4:0.125 10:0.5625 11:1 12:0.1875 18:1 19:0.625 25:0.0625 26:1 27:0.375 33:0.35714287 34:1 35:0.625 36:0.5 37:0.1875 41:0.375 42:1 43:1 44:1 45:1 46:0.3125 50:0.8125 51:1 52:0.5 53:1 54:0.25 58:0.0625 59:0.6875 60:0.9375 61:0.875 # 0
1 3:0.375 4:0.875 5:0.125 10:0.125 11:0.875 12:0.75 18:0.4375 19:0.9375 20:0.0625 26:0.8125 27:0.625 33:0.071428575 34:1 35:0.6875 36:0.5 37:0.25 41:0.0625 42:0.9375 43:1 44:1 45:1 46:0.5 50:0.5 51:0.8125 52:0.125 53:0.25 54:0.9375 55:0.1 59:0.4375 60:0.875 61:1 62:0.875 63:0.06666667 # 0
-0.10766809188936687924353918788256 1:0.125 2:0.75 3:1 4:0.9375 5:0.6875 6:0.1875 9:0.46666667 10:1 11:0.875 12:0.6875 13:0.5625 14:0.25 17:0.1875 18:1 19:0.5 20:0.125 25:0.3125 26:1 27:1 28:0.9375 29:0.1875 33:0.14285715 34:0.875 35:1 36:1 37:0.875 44:0.75 45:1 46:0.0625 49:0.125 50:0.75 51:0.75 52:1 53:1 57:0.1 58:0.875 59:1 60:0.625 61:0.1875 # 0
-0.10765584928321414448504356187186 2:0.5 3:1 4:0.9375 5:0.3125 10:0.4375 11:0.5 12:0.9375 13:0.625 20:0.875 21:0.625 26:0.3125 27:0.75 28:1 29:0.875 30:0.125 34:1 35:1 36:0.9375 37:0.625 38:0.42857143 42:0.0625 43:0.875 44:0.4375 50:0.25 51:1 58:0.25 59:0.75 # 0
-0.10760317871972480130438043488539 2:0.5 3:0.75 4:0.1875 9:0.33333334 10:1 11:1 12:0.875 13:0.25 17:0.625 18:0.9375 19:0.125 20:0.875 21:1 22:0.125 25:0.1875 26:1 27:0.625 28:0.8125 29:1 30:0.4375 34:0.3125 35:0.5 36:0.625 37:1 38:0.5714286 45:0.75 46:0.75 50:0.625 51:0.4375 52:0.25 53:0.875 54:0.75 58:0.625 59:1 60:1 61:0.875 62:0.4375 # 0
0.99999999999999977795539507496869 2:0.25 3:0.75 10:0.875 11:0.375 17:0.25 18:1 19:0.25 25:0.4375 26:1 27:0.0625 33:0.5714286 34:1 35:1 36:1 37:0.8125 38:0.071428575 41:0.3125 42:1 43:0.4375 44:0.5625 45:1 46:0.3125 49:0.0625 50:0.875 51:0.75 52:0.25 53:1 54:0.3125 58:0.1875 59:0.9375 60:1 61:0.5 # 0
1 2:0.25 3:0.9375 4:0.1875 10:0.5 11:1 12:0.0625 18:0.875 19:0.8125 25:0.1875 26:1 27:0.625 28:0.25 29:0.1875 33:0.5714286 34:1 35:1 36:1 37:1 38:0.35714287 41:0.5 42:1 43:0.375 44:0.25 45:0.875 46:0.5 49:0.3125 50:1 51:0.6875 52:0.5 53:1 54:0.3125 58:0.375 59:0.9375 60:1 61:0.6875 # 0
1 2:0.1875 3:0.8125 4:0.0625 10:0.8125 11:0.75 17:0.1875 18:1 19:0.0625 25:0.125 26:0.875 27:0.0625 28:0.0625 29:0.25 33:0.35714287 34:0.875 35:0.375 36:0.875 37:1 38:0.5 41:0.0625 42:1 43:1 44:0.6875 45:0.3125 46:0.9375 50:0.625 51:1 52:0.875 53:1 54:0.6875 58:0.125 59:0.75 60:1 61:0.8125 # 0
-0.10760317871972591152740506004193 2:0.1875 3:0.5 4:0.375 5:0.0625 9:0.13333334 10:0.9375 11:1 12:1 13:0.75 18:0.8125 19:1 20:1 21:0.8125 26:0.625 27:1 28:1 29:1 34:0.75 35:1 36:1 37:1 42:0.875 43:1 44:1 45:1 46:0.125 50:0.75 51:1 52:1 53:0.9375 54:0.125 58:0.0625 59:0.375 60:0.375 # 0
-0.10765284405632102870953303863644 2:0.3125 3:0.875 4:0.75 5:0.0625 10:0.875 11:0.9375 12:1 13:0.625 17:0.25 18:0.8125 19:0.0625 20:0.1875 21:0.9375 25:0.3125 26:0.4375 29:0.6875 30:0.4375 33:0.2857143 34:0.8125 37:0.375 38:0.5714286 41:0.25 42:1 43:0.125 45:0.5625 46:0.5 50:0.8125 51:0.9375 52:0.625 53:1 54:0.1875 58:0.25 59:0.8125 60:1 61:0.6875 # 0
-0.10756604611883324729149080667412 1:0.125 2:0.5625 3:0.8125 4:0.5625 5:0.125 9:0.40000001 10:1 11:0.625 12:1 13:0.4375 19:0.125 20:1 21:0.375 26:0.125 27:0.8125 28:0.875 34:0.125 35:0.8125 36:1 37:0.8125 44:0.25 45:0.9375 46:0.5 50:0.5 51:0.25 52:0.25 53:0.875 54:0.6875 57:0.1 58:0.875 59:1 60:1 61:0.75 62:0.0625 # 0
1 2:0.75 3:0.25 10:0.9375 11:0.25 17:0.125 18:0.9375 19:0.125 25:0.125 26:0.9375 27:0.375 28:0.75 29:0.5 33:0.5 34:1 35:0.875 36:0.5625 37:0.625 38:0.42857143 41:0.25 42:1 43:0.875 44:0.1875 45:0.0625 46:0.625 49:0.1875 50:1 51:0.8125 52:0.9375 53:1 54:0.3125 58:0.625 59:0.9375 60:0.625 61:0.1875 # 0
1 2:0.6875 3:0.1875 9:0.13333334 10:1 11:0.25 17:0.25 18:0.9375 25:0.25 26:0.875 27:0.375 28:0.75 29:0.6875 30:0.0625 33:0.5 34:1 35:1 36:0.9375 37:0.875 38:0.5714286 41:0.25 42:1 43:0.9375 44:0.1875 45:0.5625 46:0.6875 49:0.0625 50:1 51:1 52:1 53:1 54:0.375 58:0.4375 59:0.875 60:0.8125 61:0.3125 # 0
1 2:0.25 3:0.875 4:0.25 10:0.8125 11:0.625 12:0.0625 17:0.375 18:0.9375 19:0.0625 25:0.4375 26:0.75 33:0.5714286 34:0.4375 35:0.625 36:1 37:0.875 41:0.3125 42:0.875 43:1 44:0.875 45:1 46:0.4375 49:0.125 50:1 51:1 52:0.75 53:1 54:0.5 58:0.375 59:0.9375 60:0.875 61:0.5 62:0.0625 # 0
-0.10751912053312229211599060363369 2:0.5 3:0.8125 4:1 5:0.625 6:0.1875 9:0.33333334 10:1 11:0.625 12:0.5 13:0.625 14:0.375 17:0.375 18:0.75 25:0.375 26:0.9375 27:0.75 28:0.1875 33:0.2857143 34:0.75 35:0.875 36:1 37:0.0625 44:1 45:0.5 50:0.25 51:0.4375 52:1 53:0.4375 58:0.6875 59:0.875 60:0.625 # 0
-0.10754049584298941422133566447883 3:0.375 4:0.4375 10:0.125 11:0.9375 12:0.375 18:0.625 19:0.6875 20:0.0625 21:0.0625 25:0.25 26:1 27:0.3125 28:0.625 29:0.5625 33:0.5714286 34:1 35:1 36:1 37:0.9375 38:0.14285715 41:0.0625 42:0.25 43:0.4375 44:1 45:0.625 51:0.3125 52:1 53:0.0625 59:0.5625 60:0.6875 # 0
-0.10766305537088349808527709683403 2:0.125 3:0.75 4:0.3125 9:0.06666667 10:0.8125 11:1 12:0.8125 13:0.125 17:0.1875 18:1 19:0.625 20:0.875 21:0.6875 25:0.4375 26:1 27:0.5 28:0.3125 29:1 30:0.25 33:0.5 34:1 35:0.5 36:0.0625 37:0.875 38:0.35714287 41:0.125 42:0.9375 43:0.5625 44:0.0625 45:0.9375 46:0.3125 50:0.6875 51:0.875 52:0.6875 53:0.9375 54:0.125 58:0.1875 59:1 60:0.9375 61:0.1875 # 0
1 2:0.375 3:1 10:0.8125 11:0.4375 17:0.125 18:1 26:1 27:0.1875 33:0.2857143 34:0.9375 35:0.625 36:0.625 37:0.25 41:0.3125 42:1 43:0.875 44:0.5 45:0.8125 46:0.5 49:0.125 50:1 51:0.8125 52:0.6875 53:0.9375 54:0.6875 58:0.3125 59:0.75 60:0.8125 61:0.4375 # 0
1 2:0.25 3:0.875 4:0.0625 10:0.75 11:0.625 18:0.9375 19:0.3125 25:0.1875 26:1 27:0.125 28:0.5 29:0.125 33:0.2857143 34:1 35:1 36:0.8125 37:0.9375 38:0.14285715 41:0.25 42:1 43:0.75 45:0.5 46:0.5625 49:0.0625 50:0.8125 51:0.8125 52:0.5 53:0.875 54:0.5 58:0.1875 59:0.75 60:0.75 61:0.5 # 0
1 2:0.5 3:0.75 9:0.06666667 10:0.8125 11:0.5 17:0.25 18:0.8125 25:0.125 26:0.875 33:0.35714287 34:0.75 35:0.4375 36:0.75 37:0.5 41:0.3125 42:1 43:1 44:1 45:1 46:0.5 49:0.0625 50:0.875 51:1 52:0.8125 53:0.9375 54:0.5 58:0.375 59:0.9375 60:1 61:0.6875 # 0
-0.10754515995329683164527523331344 2:0.0625 3:0.5 4:0.75 5:0.4375 9:0.13333334 10:0.9375 11:0.5 12:0.3125 13:0.875 18:0.6875 19:0.3125 20:0.1875 21:0.9375 26:0.0625 27:0.875 28:1 29:0.75 34:0.3125 35:0.9375 36:0.9375 37:0.5625 41:0.0625 42:0.9375 43:0.375 44:0.0625 45:0.75 46:0.0625 50:0.75 51:0.6875 52:0.0625 53:0.75 54:0.3125 58:0.0625 59:0.5 60:0.5 61:0.5625 62:0.1875 # 0
-0.10754515995329683164527523331344 2:0.125 3:0.75 4:1 5:0.875 6:0.625 10:0.0625 11:0.5 12:0.25 13:0.6875 14:0.8125 21:0.875 22:0.3125 27:0.1875 28:0.5625 29:0.9375 34:0.3125 35:1 36:1 37:0.9375 38:0.21428572 42:0.125 43:0.625 44:0.8125 45:0.1875 51:0.8125 52:0.4375 58:0.0625 59:0.9375 60:0.125 # 0
-0.107573861698092465566389819287 2:0.5625 3:1 4:0.5 5:0.0625 9:0.33333334 10:1 11:0.5625 12:0.875 13:0.6875 14:0.0625 17:0.625 18:0.625 20:0.5 21:1 22:0.25 25:0.25 26:1 27:0.9375 28:0.9375 29:1 30:0.5 34:0.25 35:0.5 36:0.4375 37:0.8125 38:0.5714286 45:0.5625 46:0.6875 50:0.6875 51:0.375 52:0.5625 53:1 54:0.4375 58:0.6875 59:0.8125 60:0.75 61:0.375 # 0
1 2:0.25 3:0.5 10:0.8125 11:0.625 17:0.1875 18:1 19:0.3125 25:0.125 26:1 27:0.1875 33:0.35714287 34:1 35:0.625 36:0.75 37:0.4375 38:0.071428575 42:1 43:1 44:1 45:1 46:0.5 50:0.75 51:1 52:0.8125 53:1 54:0.5625 58:0.1875 59:0.5625 60:0.8125 61:0.625 # 0
1 2:0.75 3:0.75 9:0.06666667 10:0.9375 11:0.6875 17:0.375 18:1 19:0.1875 25:0.375 26:1 27:0.0625 33:0.78571427 34:0.8125 35:0.1875 36:0.875 37:0.9375 38:0.21428572 41:0.5625 42:0.9375 43:1 44:0.8125 45:0.8125 46:0.9375 49:0.3125 50:1 51:0.4375 52:0.0625 53:0.6875 54:0.9375 57:0.1 58:0.6875 59:1 60:1 61:0.9375 62:0.375 # 0
1 2:0.4375 3:0.8125 9:0.13333334 10:0.9375 11:0.6875 17:0.5625 18:1 19:0.125 25:0.4375 26:1 33:0.64285713 34:1 35:0.125 36:0.25 37:0.25 41:0.3125 42:1 43:1 44:1 45:1 46:0.75 49:0.1875 50:1 51:1 52:0.5625 53:0.8125 54:1 58:0.3125 59:0.8125 60:1 61:1 62:0.4375 # 0
-0.10639686941163550848443719587522 2:0.4375 3:0.875 4:0.4375 10:0.9375 11:0.875 12:1 13:0.1875 18:0.9375 19:0.75 20:1 21:0.375 26:0.375 27:1 28:1 29:0.25 34:0.5 35:1 36:1 37:0.6875 42:0.9375 43:0.75 44:0.1875 45:1 46:0.5 49:0.125 50:0.9375 51:0.6875 52:0.5 53:1 54:0.625 58:0.5625 59:1 60:1 61:0.75 62:0.375 # 0
-0.10755714831998886005237636709353 2:0.0625 3:0.875 4:0.8125 5:0.0625 10:0.75 11:1 12:1 13:0.75 17:0.0625 18:0.6875 19:0.875 20:0.6875 21:1 22:0.3125 25:0.1875 26:0.5 27:1 28:0.125 29:0.5 30:0.625 34:0.3125 35:0.875 37:0.5 38:0.5 42:0.4375 43:0.75 45:0.9375 46:0.1875 50:0.4375 51:0.875 52:0.6875 53:0.6875 58:0.125 59:1 60:0.8125 61:0.125 # 0
-0.10758194296547185508927668706747 1:0.375 2:0.75 3:1 4:0.9375 5:0.25 9:0.26666668 10:0.6875 11:0.5 12:0.875 13:0.6875 19:0.375 20:1 21:0.1875 26:0.1875 27:0.9375 28:0.9375 29:0.0625 34:0.0625 35:0.6875 36:0.9375 37:0.875 38:0.071428575 44:0.25 45:0.75 46:0.375 49:0.0625 50:0.5 51:0.75 52:0.9375 53:1 54:0.375 57:0.2 58:0.75 59:0.75 60:0.6875 61:0.4375 # 0
1 2:0.5 3:1 4:0.3125 10:1 11:0.5625 17:0.375 18:1 19:0.125 25:0.4375 26:1 28:0.0625 33:0.71428573 34:0.8125 35:0.5625 36:1 37:0.875 38:0.21428572 41:0.5 42:0.9375 43:1 44:0.5625 45:0.5625 46:0.9375 49:0.25 50:1 51:0.8125 53:0.5625 54:1 55:0.1 58:0.375 59:1 60:1 61:1 62:0.625 # 0
1 2:0.125 3:0.8125 4:0.0625 10:0.3125 11:0.9375 18:0.8125 19:0.375 25:0.3125 26:0.875 33:0.5714286 34:0.75 35:0.1875 36:0.4375 37:0.375 38:0.071428575 41:0.4375 42:1 43:0.875 44:0.5 45:0.875 46:0.4375 49:0.125 50:0.9375 51:0.5625 52:0.3125 53:0.75 54:0.4375 58:0.25 59:0.5625 60:0.8125 61:0.8125 62:0.0625 # 0
1 3:0.6875 4:0.5625 10:0.375 11:1 12:0.5 18:0.8125 19:0.75 26:1 27:0.375 28:0.25 29:0.125 34:1 35:1 36:0.9375 37:0.9375 38:0.2857143 42:0.9375 43:0.375 46:0.9375 47:0.25 50:0.5625 51:0.8125 53:0.375 54:0.875 55:0.5 59:0.5625 60:1 61:1 62:0.625 # 0
-0.10751487897169265117724989977432 2:0.125 3:0.375 4:0.5625 5:0.25 9:0.2 10:0.9375 11:0.3125 12:0.5 13:0.8125 17:0.25 18:0.9375 19:0.1875 20:0.3125 21:1 26:0.5625 27:0.8125 28:0.9375 29:0.4375 34:0.1875 35:1 36:0.75 42:0.5625 43:0.5625 44:0.8125 45:0.375 50:0.625 51:0.5 52:0.6875 53:1 54:0.0625 58:0.3125 59:0.75 60:0.75 61:0.4375 # 0
-0.10645786628397568840398434986128 2:0.4375 3:0.9375 4:0.875 5:0.1875 10:0.5 11:0.6875 12:0.625 13:0.75 20:0.3125 21:0.8125 27:0.3125 28:0.9375 29:0.5625 35:0.3125 36:0.75 37:0.9375 38:0.42857143 45:0.5 46:0.75 50:0.5 51:0.0625 52:0.0625 53:0.75 54:0.75 58:0.5625 59:0.9375 60:1 61:0.8125 62:0.0625 # 0
-0.10641465332215616079736264509847 1:0.125 2:0.5 3:0.9375 4:1 5:0.75 6:0.1875 9:0.26666668 10:1 11:0.8125 12:0.3125 13:0.375 14:0.125 18:1 19:0.4375 20:0.0625 25:0.375 26:1 27:1 28:0.9375 29:0.5 33:0.071428575 34:0.75 35:0.5 36:0.75 37:1 38:0.35714287 44:0.3125 45:1 46:0.3125 50:0.1875 51:0.5 52:0.9375 53:0.75 58:0.5 59:0.875 60:0.5 # 0
1 3:0.75 4:0.25 10:0.375 11:1 12:0.625 18:0.875 19:0.6875 26:0.8125 27:0.4375 34:0.875 35:1 36:0.9375 37:0.5625 38:0.071428575 42:0.75 43:0.6875 44:0.25 45:0.625 46:0.8125 50:0.25 51:0.875 52:0.25 53:0.625 54:1 55:0.30000001 59:0.5625 60:1 61:0.875 62:0.5625 # 0
1 3:0.75 4:0.8125 5:0.0625 10:0.4375 11:1 12:0.625 13:0.0625 18:0.6875 19:0.8125 26:0.8125 27:0.625 28:0.25 29:0.0625 34:0.8125 35:1 36:1 37:0.8125 38:0.21428572 41:0.125 42:1 43:0.875 44:0.375 45:0.625 46:0.9375 47:0.5 49:0.125 50:0.8125 51:0.875 52:0.5 53:0.8125 54:0.9375 55:0.1 58:0.0625 59:0.8125 60:1 61:0.875 62:0.1875 # 0
0.99999999999999944488848768742173 3:0.5625 4:0.9375 5:0.4375 10:0.4375 11:1 12:0.625 13:0.375 18:0.875 19:0.5 25:0.0625 26:1 27:0.3125 28:0.6875 29:0.5 33:0.21428572 34:1 35:1 36:0.625 37:0.9375 38:0.64285713 41:0.0625 42:0.9375 43:0.5625 45:0.25 46:0.8125 50:0.6875 51:0.875 52:0.375 53:0.6875 54:0.9375 59:0.625 60:0.875 61:0.8125 62:0.5 # 0
-0.107573861698092465566389819287 2:0.25 3:0.9375 4:0.375 10:0.8125 11:0.8125 12:1 17:0.25 18:0.9375 19:0.0625 20:1 21:0.125 27:0.125 28:1 35:0.5 36:0.75 41:0.0625 42:0.75 43:1 44:0.375 45:0.25 49:0.4375 50:1 51:1 52:1 53:1 54:0.375 58:0.125 60:0.25 61:0.5 62:0.1875 # 0
-0.10764677485558848957225563935935 3:0.5 4:0.75 5:0.0625 10:0.5 11:1 12:0.875 13:0.5 17:0.375 18:1 19:0.125 20:0.125 21:1 25:0.5 26:1 27:0.125 29:0.625 30:0.375 33:0.2857143 34:1 35:0.1875 37:0.5 38:0.5714286 42:0.625 43:0.5625 45:0.5 46:0.5 50:0.25 51:1 52:0.75 53:1 54:0.125 59:0.4375 60:0.8125 61:0.5 # 0
-0.10765584928321414448504356187186 2:0.625 3:0.75 4:0.8125 5:0.5625 6:0.25 9:0.13333334 10:1 11:0.6875 12:0.5 13:0.3125 14:0.1875 17:0.1875 18:1 19:0.0625 25:0.4375 26:1 27:1 28:0.9375 29:0.1875 33:0.42857143 34:0.75 35:0.5625 36:0.875 37:0.9375 38:0.071428575 44:0.375 45:1 46:0.125 50:0.25 51:0.25 52:0.8125 53:0.9375 54:0.0625 58:0.8125 59:0.9375 60:0.5625 61:0.125 # 0
1 2:0.0625 3:0.875 4:0.375 10:0.5625 11:0.9375 12:0.1875 18:0.75 19:0.375 26:1 27:0.1875 33:0.21428572 34:1 35:1 36:1 37:0.875 38:0.2857143 41:0.0625 42:1 43:0.4375 44:0.25 45:0.375 46:0.8125 50:0.625 51:0.625 53:0.25 54:0.875 58:0.0625 59:0.6875 60:0.875 61:1 62:0.4375 # 0
1 2:0.0625 3:0.6875 4:0.9375 5:0.0625 10:0.6875 11:0.9375 12:0.3125 17:0.1875 18:1 19:0.375 25:0.375 26:0.4375 28:0.3125 29:0.1875 33:0.5714286 34:0.625 35:0.25 36:0.8125 37:0.9375 38:0.14285715 41:0.25 42:1 43:0.25 45:0.5 46:0.625 50:0.8125 51:0.625 52:0.3125 53:0.875 54:0.5625 58:0.0625 59:0.625 60:0.8125 61:0.8125 62:0.25 # 0
1 3:0.375 4:0.75 10:0.125 11:1 12:0.625 18:0.4375 19:0.875 20:0.0625 26:0.6875 27:0.625 34:0.875 35:0.6875 36:0.0625 42:0.9375 43:0.9375 44:0.9375 45:1 46:0.625 47:0.25 50:0.5 51:0.875 52:0.1875 53:0.4375 54:1 55:0.69999999 59:0.5 60:0.9375 61:1 62:0.75 63:0.2 # 0
-0.10756392313323548393100281828083 2:0.6875 3:1 4:0.75 5:0.0625 10:1 11:0.75 12:1 13:0.75 18:0.1875 19:0.125 20:0.75 21:0.75 26:0.3125 27:1 28:1 29:0.375 34:0.25 35:0.75 36:1 37:0.9375 38:0.14285715 44:0.3125 45:0.9375 46:0.4375 49:0.0625 50:0.6875 51:0.75 52:0.75 53:1 54:0.4375 57:0.2 58:0.75 59:0.9375 60:0.75 61:0.3125 62:0.0625 # 0
0.99999999999999988897769753748435 2:0.125 3:0.8125 4:0.6875 10:0.625 11:0.875 12:0.125 18:0.75 19:0.3125 26:0.875 27:0.25 34:0.9375 35:0.5 36:0.5 37:0.5 38:0.14285715 42:0.875 43:1 44:0.75 45:0.75 46:0.8125 50:0.625 51:0.625 52:0.25 53:0.375 54:1 58:0.1875 59:0.6875 60:0.9375 61:0.75 62:0.4375 # 0
-0.10756604611883324729149080667412 2:0.8125 3:0.9375 4:0.1875 9:0.13333334 10:1 11:0.6875 12:0.9375 13:0.25 17:0.25 18:1 19:0.125 20:1 21:1 25:0.125 26:0.8125 27:1 28:1 29:1 30:0.125 35:0.25 36:0.3125 37:0.9375 38:0.14285715 45:0.75 46:0.4375 50:0.125 51:0.25 52:0.25 53:0.6875 54:0.75 58:0.6875 59:1 60:1 61:0.9375 62:0.625 # 0
-0.10618805196144187608098263808643 2:0.75 3:1 4:0.375 9:0.40000001 10:1 11:0.6875 12:0.9375 13:0.3125 17:0.5 18:1 20:0.6875 21:0.9375 22:0.0625 25:0.5 26:0.875 28:0.125 29:1 30:0.3125 33:0.5714286 34:0.875 37:0.75 38:0.5 41:0.3125 42:1 43:0.125 44:0.0625 45:1 46:0.25 49:0.1875 50:0.9375 51:0.625 52:0.6875 53:0.875 54:0.125 58:0.375 59:0.75 60:0.625 61:0.0625 # 0
1 2:0.0625 3:0.8125 4:0.625 10:0.375 11:1 12:0.25 18:0.625 19:0.75 26:0.875 27:0.625 34:1 35:0.875 36:0.75 37:0.75 38:0.14285715 41:0.25 42:1 43:0.875 44:0.75 45:0.8125 46:0.875 50:0.6875 51:0.875 52:0.25 53:0.4375 54:1 55:0.1 58:0.0625 59:0.75 60:1 61:1 62:0.8125 # 0
1 2:0.125 3:0.75 10:0.6875 11:0.6875 17:0.3125 18:0.75 19:0.0625 25:0.25 26:0.625 33:0.35714287 34:0.5625 35:0.125 36:0.6875 37:0.75 38:0.21428572 41:0.0625 42:0.9375 43:1 44:1 45:0.875 46:0.6875 50:0.6875 51:0.8125 52:0.375 53:0.9375 54:0.5 58:0.1875 59:0.9375 60:0.875 61:0.5 # 0
-0.10752769675590667652897991501959 2:0.1875 3:0.6875 4:0.4375 9:0.26666668 10:1 11:1 12:1 17:0.25 18:1 19:1 20:1 25:0.25 26:1 27:1 28:0.625 33:0.071428575 34:0.875 35:1 36:1 42:0.75 43:1 44:1 45:0.375 50:0.6875 51:1 52:1 53:0.6875 58:0.125 59:0.6875 60:0.75 61:0.375 # 0
-0.10752569499909370165369182359427 2:0.375 3:0.6875 4:0.875 5:0.1875 9:0.13333334 10:1 11:0.75 12:0.6875 13:1 17:0.25 18:1 19:0.5625 20:0.4375 21:0.9375 26:0.875 27:0.9375 28:1 29:0.75 34:0.625 35:1 36:1 37:0.1875 41:0.0625 42:1 43:0.375 44:0.6875 45:0.9375 46:0.0625 49:0.1875 50:1 51:0.1875 52:0.4375 53:1 54:0.1875 58:0.4375 59:0.875 60:1 61:0.75 62:0.0625 # 0
-0.10765314873431885978050104313297 1:0.25 2:0.75 3:1 4:1 5:0.625 6:0.125 9:0.46666667 10:1 11:0.5 12:0.375 13:0.5 14:0.125 17:0.375 18:0.9375 25:0.375 26:1 27:0.8125 28:0.5 33:0.42857143 34:0.9375 35:0.75 36:1 37:0.375 44:0.6875 45:0.8125 50:0.25 51:0.375 52:1 53:0.75 57:0.2 58:0.9375 59:0.875 60:0.5625 # 0
1 3:0.5625 4:0.5 10:0.4375 11:0.875 12:0.0625 18:0.875 19:0.1875 25:0.1875 26:0.875 33:0.5 34:0.625 35:0.0625 36:0.3125 37:0.1875 41:0.125 42:1 43:0.75 44:1 45:1 46:0.375 50:0.5 51:1 52:0.6875 53:0.6875 54:0.8125 59:0.4375 60:0.75 61:1 62:0.5625 # 0
1 3:0.8125 4:0.1875 10:0.4375 11:0.9375 12:0.1875 18:0.9375 19:0.5 25:0.125 26:1 27:0.0625 33:0.21428572 34:0.875 35:0.0625 36:0.25 37:0.25 41:0.125 42:1 43:0.9375 44:1 45:1 46:0.5625 50:0.6875 51:1 52:0.75 53:1 54:0.9375 55:0.2 58:0.0625 59:0.625 60:0.9375 61:0.8125 62:0.625 # 0
1 3:0.375 4:0.375 11:0.8125 12:0.5625 18:0.3125 19:1 20:0.25 26:0.4375 27:0.9375 34:0.5 35:0.75 36:0.75 37:0.5 38:0.14285715 42:0.75 43:1 44:0.75 45:0.75 46:0.875 47:0.25 50:0.375 51:1 52:0.375 53:0.5 54:1 55:0.60000002 59:0.25 60:0.875 61:1 62:0.9375 63:0.06666667 # 0
-0.10754713269577165224433201728971 2:0.375 3:1 4:0.3125 9:0.40000001 10:1 11:1 12:1 13:0.4375 17:0.6875 18:0.9375 19:0.125 20:1 21:0.875 25:0.5625 26:1 27:0.625 28:1 29:1 30:0.4375 33:0.14285715 34:0.8125 35:1 36:1 37:1 38:0.5714286 45:0.8125 46:0.75 50:0.1875 51:0.5 52:0.75 53:1 54:0.4375 58:0.3125 59:1 60:0.75 61:0.3125 # 0
-0.10761830404475514200157704181038 1:0.125 2:0.625 3:1 4:0.75 5:0.0625 9:0.46666667 10:1 11:0.625 12:0.8125 13:0.3125 17:0.0625 18:0.375 20:0.5625 21:0.5 27:0.4375 28:0.9375 29:0.625 35:0.375 36:0.75 37:0.875 38:0.5 45:0.125 46:0.875 50:0.4375 51:0.375 52:0.25 53:0.5625 54:0.875 58:0.4375 59:0.9375 60:1 61:0.8125 62:0.4375 # 0
-0.107573861698092465566389819287 2:0.5 3:0.9375 4:0.625 5:0.0625 10:0.9375 11:0.8125 12:0.9375 13:0.625 18:1 19:0.125 21:0.875 22:0.0625 26:0.875 27:0.3125 28:0.4375 29:1 30:0.125 34:0.4375 35:0.75 36:0.6875 37:0.9375 38:0.21428572 45:0.8125 46:0.25 50:0.375 51:0.375 52:0.5625 53:1 54:0.125 58:0.4375 59:0.8125 60:0.875 61:0.1875 # 0
0.99999999999999933386618522490608 3:0.6875 4:0.625 5:0.0625 10:0.625 11:1 12:0.5625 13:0.1875 18:0.9375 19:0.875 25:0.125 26:1 27:0.4375 34:1 35:0.3125 36:0.25 42:0.9375 43:1 44:1 45:0.8125 46:0.0625 50:0.375 51:1 52:1 53:1 54:0.6875 59:0.375 60:1 61:1 62:0.5625 # 0
1 2:0.0625 3:0.8125 4:0.9375 5:0.3125 10:0.625 11:0.9375 12:0.5 13:0.375 17:0.125 18:1 19:0.375 25:0.25 26:0.9375 27:0.0625 28:0.25 33:0.35714287 34:0.8125 35:0.1875 36:1 37:0.6875 38:0.071428575 42:0.9375 43:0.0625 44:0.3125 45:0.9375 46:0.3125 50:0.6875 51:0.75 52:0.5 53:1 54:0.375 59:0.625 60:1 61:0.625 # 0
0.99999999999999933386618522490608 3:0.5625 4:0.9375 5:0.125 10:0.5 11:1 12:0.5625 13:0.0625 17:0.0625 18:0.9375 19:0.75 25:0.1875 26:1 27:0.25 33:0.071428575 34:1 35:0.125 36:0.3125 42:0.875 43:1 44:1 45:0.6875 46:0.0625 50:0.3125 51:1 52:1 53:1 54:0.4375 59:0.5 60:0.75 61:0.8125 62:0.0625 # 0
-0.10754071550332755524692629478523 1:0.5 2:1 3:1 4:1 5:1 6:0.8125 9:0.33333334 10:0.75 11:0.75 12:0.8125 13:1 14:0.875 20:0.625 21:0.9375 22:0.25 27:0.1875 28:1 29:0.5625 35:0.4375 36:1 37:0.125 42:0.1875 43:0.9375 44:0.5625 50:0.8125 51:1 52:0.125 57:0.2 58:1 59:0.75 # 0
-0.10642707218463631768656796339201 2:0.0625 3:1 4:0.9375 5:0.3125 10:0.5625 11:1 12:1 13:0.75 17:0.125 18:1 19:1 20:1 21:0.4375 26:0.75 27:1 28:1 29:0.125 34:0.5 35:1 36:1 37:0.3125 42:0.9375 43:1 44:1 45:0.6875 50:0.9375 51:1 52:1 53:1 54:0.5 58:0.125 59:0.625 60:0.9375 61:0.6875 62:0.25 # 0
-0.10587059848148749896523668212467 2:0.125 3:1 4:0.625 5:0.0625 10:0.5 11:0.9375 12:0.8125 13:0.4375 18:0.1875 19:0.5625 20:0.25 21:0.8125 28:0.375 29:0.8125 36:0.75 37:0.5 43:0.25 44:1 45:0.1875 50:0.125 51:0.9375 52:0.875 53:0.5 54:0.875 55:0.5 58:0.125 59:0.9375 60:1 61:1 62:0.75 63:0.46666667 # 0
1 2:0.3125 3:0.8125 10:0.75 11:0.6875 17:0.1875 18:1 19:0.125 25:0.3125 26:0.9375 33:0.5 34:0.875 36:0.25 37:0.0625 41:0.3125 42:1 43:1 44:1 45:0.8125 49:0.1875 50:1 51:1 52:0.625 53:1 54:0.3125 58:0.375 59:0.8125 60:1 61:0.75 # 0
1 2:0.3125 3:0.875 4:0.25 10:0.75 11:0.75 18:1 19:0.5625 25:0.5 26:1 33:0.5714286 34:1 35:0.8125 36:1 37:0.5625 38:0.071428575 41:0.6875 42:1 43:0.875 44:0.625 45:1 46:0.125 49:0.4375 50:1 51:0.875 52:0.75 53:0.9375 54:0.0625 57:0.1 58:0.5625 59:0.8125 60:0.625 61:0.1875 # 0
1 2:0.5625 3:0.375 10:1 11:0.375 17:0.0625 18:1 25:0.25 26:1 33:0.2857143 34:0.9375 35:0.75 36:0.8125 37:0.5625 38:0.071428575 41:0.375 42:1 43:0.6875 44:0.5 45:0.875 46:0.3125 49:0.1875 50:1 51:0.75 52:0.625 53:0.9375 54:0.375 58:0.5 59:0.9375 60:0.875 61:0.4375 # 0
-0.10752769675590667652897991501959 2:0.25 3:0.5625 4:0.5625 9:0.06666667 10:1 11:0.9375 12:0.75 13:0.625 17:0.1875 18:1 19:0.3125 25:0.375 26:1 27:1 28:0.4375 33:0.21428572 34:1 35:0.9375 36:1 37:0.0625 42:0.0625 44:0.75 45:0.3125 50:0.8125 51:0.625 52:1 53:0.375 58:0.5 59:1 60:0.5625 # 0
-0.10752769675590667652897991501959 2:0.75 3:0.875 4:0.5 5:0.1875 9:0.2 10:1 11:0.9375 12:1 13:1 14:0.1875 18:0.875 19:0.75 20:0.875 21:0.8125 22:0.0625 26:0.4375 27:1 28:1 29:0.1875 34:0.75 35:1 36:1 37:0.125 41:0.0625 42:0.9375 43:0.25 44:0.5625 45:0.875 49:0.1875 50:0.9375 51:0.25 52:0.3125 53:1 54:0.0625 57:0.1 58:0.75 59:1 60:1 61:0.75 # 0
-0.10756637862587936638192331884056 1:0.125 2:0.6875 3:0.5625 4:0.875 5:0.6875 6:0.0625 9:0.53333336 10:1 11:0.875 12:0.875 13:1 14:0.125 17:0.4375 18:1 20:0.6875 21:0.75 25:0.0625 26:0.0625 27:0.0625 28:0.9375 29:0.3125 35:0.625 36:0.875 42:0.125 43:0.9375 44:0.3125 50:0.75 51:1 52:0.25 58:0.9375 59:0.6875 60:0.0625 # 0
1 2:0.8125 3:0.9375 9:0.26666668 10:1 11:0.25 17:0.4375 18:1 25:0.625 26:0.875 28:0.1875 29:0.0625 33:0.64285713 34:0.75 35:0.625 36:1 37:0.875 38:0.21428572 41:0.5 42:1 43:0.8125 44:0.3125 45:0.4375 46:0.9375 49:0.125 50:1 51:0.5625 53:0.4375 54:1 58:0.8125 59:1 60:1 61:1 62:0.4375 # 0
1 3:0.625 4:1 10:0.375 11:0.875 12:0.125 18:0.75 19:0.4375 25:0.25 26:1 27:0.5 28:0.4375 29:0.0625 33:0.21428572 34:1 35:0.9375 36:0.8125 37:0.8125 38:0.21428572 42:1 43:0.125 45:0.5 46:0.6875 50:0.5625 51:0.5625 52:0.0625 53:0.25 54:0.875 58:0.0625 59:0.625 60:1 61:1 62:0.5 # 0
1 3:0.625 4:1 5:0.1875 10:0.125 11:1 12:0.4375 18:0.5625 19:0.9375 26:0.9375 27:0.75 28:0.25 29:0.125 33:0.071428575 34:1 35:0.625 37:0.6875 38:0.14285715 42:1 43:0.375 45:0.3125 46:0.8125 50:0.4375 51:0.875 52:0.3125 53:0.5 54:1 55:0.1 59:0.1875 60:0.75 61:0.75 62:0.5625 # 0
-0.10756637862587936638192331884056 2:0.6875 3:0.9375 4:1 5:1 6:1 7:0.4375 10:0.875 11:0.875 12:0.75 13:1 14:1 15:0.23076923 18:0.0625 20:0.25 21:1 22:0.375 28:0.8125 29:0.75 35:0.4375 36:0.9375 37:0.25 42:0.1875 43:1 44:0.5625 50:0.6875 51:1 52:0.3125 58:0.9375 59:0.9375 # 0
-0.10763355972100729918139450091985 2:0.6875 3:0.75 4:0.125 9:0.2 10:1 11:0.75 12:0.4375 17:0.125 18:0.875 19:0.1875 20:0.625 27:0.3125 28:0.5 35:0.6875 36:0.3125 42:0.1875 43:1 44:0.0625 50:0.6875 51:0.875 52:0.5625 53:0.9375 54:0.9375 58:0.5 59:0.8125 60:0.75 61:0.5 62:0.625 63:0.13333334 # 0
-0.1076335597210074102036969634355 2:0.125 3:1 4:0.6875 9:0.06666667 10:0.6875 11:1 12:1 13:0.4375 17:0.625 18:1 19:1 20:1 21:0.5625 25:0.125 26:0.5625 27:0.9375 28:1 29:0.6875 35:0.75 36:1 37:0.5 42:0.25 43:1 44:1 45:0.3125 50:0.625 51:1 52:1 53:0.9375 54:0.25 58:0.1875 59:0.9375 60:1 61:0.75 # 0
1 2:0.0625 3:0.75 4:0.875 5:0.1875 10:0.625 11:0.9375 12:0.4375 18:0.8125 19:0.5 26:0.9375 27:1 28:0.6875 29:0.3125 34:0.875 35:0.8125 36:0.5625 37:0.875 38:0.5 42:0.875 43:0.375 45:0.1875 46:0.875 50:0.625 51:0.6875 52:0.25 53:0.4375 54:1 55:0.1 58:0.0625 59:0.6875 60:0.9375 61:0.875 62:0.4375 63:0.06666667 # 0
1 3:0.5 4:0.625 10:0.375 11:1 12:0.75 18:0.75 19:0.75 20:0.0625 26:0.9375 27:0.3125 33:0.071428575 34:1 35:0.1875 36:0.8125 37:0.875 38:0.14285715 42:0.875 43:1 44:0.9375 45:0.875 46:0.8125 50:0.5625 51:1 52:0.75 53:0.625 54:0.9375 55:0.1 59:0.375 60:0.75 61:0.9375 62:0.5 # 0
1 3:0.4375 4:0.8125 5:0.3125 10:0.125 11:1 12:0.9375 13:0.1875 18:0.625 19:0.9375 20:0.25 25:0.0625 26:1 27:0.5 33:0.35714287 34:1 35:0.875 36:1 37:0.875 38:0.14285715 41:0.1875 42:1 43:0.875 44:0.75 45:0.875 46:0.625 50:0.6875 51:0.8125 52:0.3125 53:0.75 54:0.875 58:0.0625 59:0.5 60:0.875 61:0.9375 62:0.3125 # 0
-0.10643105844874867216276470571756 1:0.5 2:0.5 3:0.5 4:0.75 5:1 6:0.3125 9:0.53333336 10:1 11:1 12:1 13:0.9375 14:0.1875 17:0.125 18:0.1875 19:0.4375 20:1 21:0.4375 27:0.75 28:0.875 29:0.0625 34:0.5625 35:1 36:0.4375 42:0.875 43:1 49:0.375 50:1 51:0.75 57:0.60000002 58:0.875 59:0.4375 # 0
-0.10756104450652725912362939197919 2:0.5625 3:1 4:1 5:0.4375 10:0.8125 11:0.9375 12:0.8125 13:0.6875 17:0.0625 18:0.9375 19:0.6875 20:0.0625 25:0.125 26:1 27:1 28:0.9375 29:0.1875 34:0.4375 35:0.75 36:0.75 37:0.625 44:0.5625 45:0.875 50:0.25 51:0.5 52:0.9375 53:0.9375 58:0.625 59:1 60:1 61:0.4375 # 0
-0.10657805202541903444313220461481 2:0.3125 3:0.4375 4:0.8125 5:0.4375 9:0.46666667 10:1 11:1 12:0.625 13:0.9375 17:0.3125 18:0.9375 19:0.3125 20:0.375 21:0.6875 25:0.0625 26:0.5625 27:0.9375 28:0.9375 29:0.25 34:0.3125 35:1 36:1 37:0.1875 42:0.875 43:0.4375 44:0.8125 45:0.5 50:0.9375 51:0.6875 52:0.8125 53:0.6875 58:0.3125 59:0.75 60:0.75 61:0.25 # 0
1 3:0.3125 4:0.75 10:0.3125 11:1 12:0.875 13:0.125 18:0.9375 19:0.9375 20:0.0625 25:0.125 26:1 27:0.5625 34:1 35:0.625 36:0.8125 37:0.9375 38:0.2857143 42:0.8125 43:1 44:1 45:1 46:0.9375 47:0.25 50:0.3125 51:1 52:1 53:0.8125 54:1 55:0.40000001 59:0.3125 60:0.875 61:1 62:0.75 # 0
1 2:0.0625 3:0.75 4:1 5:0.4375 10:0.5 11:1 12:0.6875 13:0.25 18:0.8125 19:0.75 25:0.125 26:1 27:0.375 33:0.2857143 34:1 35:0.8125 36:0.75 37:0.3125 41:0.375 42:1 43:0.875 44:0.75 45:0.9375 46:0.25 50:0.6875 51:0.875 52:0.3125 53:0.875 54:0.6875 59:0.75 60:1 61:1 62:0.5 # 0
1 3:0.5625 4:0.375 10:0.125 11:0.9375 12:0.375 18:0.375 19:0.625 26:0.6875 27:0.5 28:0.4375 29:0.125 34:0.875 35:0.9375 36:0.5 37:0.875 38:0.35714287 42:1 43:0.3125 45:0.25 46:0.8125 50:0.5625 51:0.8125 53:0.4375 54:0.8125 59:0.6875 60:1 61:0.875 62:0.125 # 0
-0.1075887832739207405907677639334 2:0.25 3:0.9375 4:0.5625 5:0.0625 10:0.6875 11:1 12:1 13:0.5625 18:0.0625 19:0.625 20:1 21:0.6875 27:0.5 28:1 29:0.75 35:0.6875 36:1 37:0.625 42:0.0625 43:1 44:1 45:0.4375 50:0.3125 51:1 52:1 53:0.75 58:0.3125 59:1 60:0.875 61:0.375 # 0
-0.10759136274175740144443125245743 1:0.5 2:0.9375 3:0.5625 4:0.5 5:0.5 6:0.0625 9:0.26666668 10:1 11:1 12:1 13:1 14:0.5 17:0.5625 18:0.9375 19:0.125 20:0.9375 21:0.875 22:0.0625 25:0.3125 26:0.3125 27:0.3125 28:1 29:0.25 35:0.75 36:0.75 42:0.4375 43:0.9375 44:0.125 49:0.1875 50:1 51:0.4375 57:0.60000002 58:1 59:0.25 # 0
-0.10751914751244484591552463825792 2:0.625 3:0.8125 4:0.6875 5:0.625 10:0.75 11:1 12:1 13:1 18:0.8125 19:0.6875 21:0.125 26:0.875 27:1 28:0.8125 29:0.0625 34:0.3125 35:0.625 36:0.875 37:0.5625 44:0.625 45:0.8125 50:0.875 51:1 52:1 53:0.6875 58:0.625 59:1 60:0.8125 61:0.0625 # 0
1 2:0.1875 3:0.875 10:0.1875 11:1 12:0.0625 18:0.5 19:0.8125 26:0.4375 27:0.8125 34:0.6875 35:0.6875 36:0.5 37:0.25 42:0.875 43:1 44:1 45:1 46:0.5 50:0.75 51:1 52:0.4375 53:0.625 54:0.9375 58:0.125 59:0.875 60:1 61:0.9375 62:0.5 # 0
1 2:0.625 3:0.0625 10:1 17:0.1875 18:0.8125 25:0.3125 26:0.75 27:0.0625 28:0.25 29:0.125 33:0.5714286 34:0.875 35:0.9375 36:1 37:0.9375 38:0.2857143 41:0.5 42:0.9375 43:0.3125 44:0.3125 45:0.875 46:0.5 49:0.5 50:0.875 51:0.25 52:0.625 53:1 54:0.25 57:0.1 58:0.75 59:0.9375 60:0.625 61:0.125 # 0
1 2:0.5 3:0.25 10:0.9375 11:0.1875 17:0.125 18:0.8125 25:0.25 26:0.875 27:0.6875 28:0.5625 29:0.0625 33:0.2857143 34:0.5625 35:0.8125 36:1 37:0.875 38:0.071428575 41:0.125 42:0.75 45:0.5625 46:0.6875 50:1 51:0.5 52:0.3125 53:0.8125 54:0.6875 58:0.25 59:0.9375 60:1 61:0.75 62:0.0625 # 0
-0.10755714831998886005237636709353 2:0.1875 3:0.875 4:0.1875 9:0.2 10:0.9375 11:1 12:0.9375 13:0.0625 17:0.375 18:0.9375 19:0.3125 20:0.5 21:0.6875 25:0.4375 26:0.625 29:0.75 30:0.3125 33:0.2857143 34:0.6875 37:0.375 38:0.71428573 41:0.125 42:0.875 45:0.375 46:0.75 50:0.75 51:0.5625 52:0.3125 53:0.8125 54:0.5 58:0.125 59:0.9375 60:1 61:0.8125 62:0.125 # 0
-0.10758194296547185508927668706747 2:0.5 3:0.75 4:0.8125 5:0.125 9:0.46666667 10:1 11:0.625 12:0.625 13:0.9375 14:0.125 17:0.625 18:0.6875 20:0.0625 21:1 22:0.25 25:0.375 26:0.9375 27:0.75 28:1 29:1 30:0.4375 34:0.3125 35:0.5 36:0.25 37:0.75 38:0.5714286 45:0.75 46:0.75 50:0.6875 51:0.625 52:0.75 53:1 54:0.5 58:0.5625 59:0.75 60:0.9375 61:0.5625 62:0.0625 # 0
-0.10763763865800224373003857181175 2:0.3125 3:0.8125 4:0.75 5:0.125 10:0.875 11:0.75 12:0.75 13:0.8125 18:0.6875 19:0.25 20:0.125 21:0.9375 26:0.5 27:0.5 28:0.25 29:1 30:0.0625 34:0.125 35:0.875 36:1 37:1 38:0.42857143 45:0.4375 46:0.625 50:0.5 51:0.5625 52:0.5 53:0.9375 54:0.625 58:0.25 59:1 60:1 61:0.8125 62:0.125 # 0
1 2:0.5 3:0.125 10:0.75 11:0.375 17:0.125 18:1 19:0.25 26:1 27:0.5 33:0.2857143 34:1 35:0.875 36:0.6875 37:0.375 41:0.125 42:1 43:1 44:1 45:1 46:0.5625 50:0.9375 51:1 52:0.375 53:1 54:0.75 58:0.4375 59:0.9375 60:1 61:0.875 62:0.1875 # 0
1 2:0.375 3:0.625 10:0.625 11:0.6875 17:0.0625 18:0.9375 19:0.25 25:0.25 26:1 27:0.3125 28:0.25 33:0.42857143 34:1 35:1 36:1 37:0.875 38:0.21428572 41:0.4375 42:1 43:0.25 44:0.375 45:0.875 46:0.5 49:0.125 50:0.9375 51:0.5 52:0.5625 53:0.875 54:0.1875 58:0.3125 59:0.875 60:0.8125 61:0.1875 # 0
1 2:0.1875 3:0.9375 4:0.0625 10:0.8125 11:0.8125 17:0.125 18:1 19:0.0625 25:0.4375 26:0.625 28:0.0625 29:0.1875 33:0.5714286 34:0.5625 35:0.25 36:0.9375 37:0.9375 38:0.14285715 41:0.1875 42:1 43:0.375 45:0.5625 46:0.5 50:1 51:0.875 52:0.5625 53:0.9375 54:0.4375 58:0.1875 59:0.8125 60:1 61:0.5625 # 0
-0.10765583126737543473439018271165 3:0.9375 4:0.75 5:0.1875 11:1 12:1 13:0.5 18:0.5625 19:1 20:1 21:0.5625 27:0.625 28:1 29:0.8125 35:0.25 36:1 37:1 38:0.14285715 42:0.0625 43:0.5 44:1 45:1 46:0.625 50:0.5 51:1 52:1 53:1 54:1 55:0.5 58:0.0625 59:0.5625 60:0.75 61:0.875 62:0.75 63:0.26666668 # 0
-0.10765583126737543473439018271165 2:0.875 3:0.9375 4:0.75 5:0.75 6:0.375 9:0.06666667 10:1 11:0.75 12:0.75 13:1 14:0.4375 18:0.375 19:0.0625 20:0.75 21:0.75 27:0.5 28:0.9375 29:0.125 35:0.8125 36:0.4375 42:0.375 43:0.9375 44:0.0625 50:0.9375 51:0.625 58:0.9375 59:0.375 # 0
-0.1064287754384919404415654753393 1:0.125 2:0.75 3:0.8125 4:0.5625 5:0.3125 9:0.33333334 10:1 11:0.6875 12:0.9375 13:1 17:0.25 18:1 19:0.3125 20:0.5 21:1 22:0.25 25:0.125 26:0.8125 27:1 28:1 29:1 30:0.3125 35:0.1875 36:0.25 37:0.9375 38:0.42857143 44:0.0625 45:0.9375 46:0.375 50:0.6875 51:0.5625 52:0.75 53:1 54:0.125 58:0.6875 59:1 60:0.875 61:0.5 # 0
1 3:0.9375 4:0.125 10:0.5625 11:0.8125 18:1 19:0.375 25:0.25 26:0.875 27:0.125 33:0.2857143 34:1 35:0.375 36:0.375 37:0.4375 38:0.071428575 41:0.25 42:1 43:0.9375 44:0.5 45:0.875 46:0.375 50:0.5625 51:0.9375 52:0.5 53:0.9375 54:0.4375 58:0.125 59:0.875 60:0.9375 61:0.5 # 0
1 3:0.4375 4:0.75 5:0.125 10:0.3125 11:0.875 12:0.5625 13:0.1875 18:1 19:0.5 25:0.1875 26:0.8125 33:0.2857143 34:0.5625 35:0.75 36:0.875 37:0.4375 41:0.0625 42:0.6875 43:0.75 44:0.5 45:0.4375 46:0.6875 47:0.25 50:0.25 51:0.625 52:0.125 54:0.6875 55:0.5 59:0.375 60:0.8125 61:0.875 62:0.875 63:0.06666667 # 0
1 2:0.0625 3:0.75 4:1 5:0.3125 10:0.5625 11:1 12:0.5625 13:0.125 17:0.1875 18:1 19:0.375 25:0.375 26:1 27:0.5 28:0.0625 33:0.71428573 34:1 35:0.6875 36:0.8125 37:0.1875 41:0.25 42:1 43:0.0625 44:0.5625 45:0.8125 46:0.0625 50:0.5625 51:0.6875 52:0.5625 53:1 54:0.0625 58:0.0625 59:0.75 60:1 61:0.75 # 0
-0.10644211535000069890344320810982 3:0.4375 4:0.5 11:0.875 12:0.25 13:0.3125 18:0.125 19:0.875 20:0.25 21:0.75 26:0.5625 27:0.4375 28:0.4375 29:0.5625 33:0.071428575 34:1 35:0.125 36:0.625 37:0.75 38:0.21428572 41:0.625 42:1 43:1 44:1 45:1 46:0.1875 49:0.25 50:0.5 51:0.5 52:0.9375 53:0.25 59:0.4375 60:0.6875 # 0
-0.10761329513286133074956296695746 2:0.25 3:1 4:0.875 5:0.125 10:1 11:0.6875 12:0.6875 13:0.625 17:0.0625 18:0.25 19:0.0625 20:0.6875 21:0.625 26:0.0625 27:0.6875 28:1 29:0.375 34:0.375 35:1 36:0.875 37:0.8125 38:0.14285715 42:0.0625 43:0.125 44:0.0625 45:0.625 46:0.6875 50:0.4375 51:0.6875 52:0.375 53:0.8125 54:0.875 58:0.1875 59:0.75 60:1 61:0.9375 62:0.4375 # 0
-0.10761192827159260509972682484658 2:0.5625 3:0.6875 4:0.5 5:0.3125 9:0.13333334 10:1 11:0.875 12:1 13:0.9375 17:0.375 18:1 19:0.6875 20:0.125 25:0.5 26:1 27:1 28:0.8125 29:0.125 33:0.071428575 34:0.1875 36:0.75 37:0.5625 44:0.5625 45:0.75 50:0.3125 51:0.5 52:1 53:0.375 58:0.5 59:0.9375 60:0.625 # 0
1 3:0.5 4:1 5:0.3125 10:0.3125 11:0.9375 12:0.625 13:0.125 17:0.125 18:0.9375 19:0.375 25:0.3125 26:0.75 33:0.2857143 34:0.9375 35:0.875 36:1 37:0.875 38:0.35714287 42:1 43:0.9375 44:0.0625 45:0.3125 46:0.75 50:0.4375 51:0.9375 52:0.0625 53:0.4375 54:0.875 59:0.5 60:1 61:0.9375 62:0.25 # 0
1 3:0.3125 4:0.9375 5:0.125 10:0.0625 11:0.9375 12:0.5 18:0.5 19:0.75 26:0.75 27:0.5 34:1 35:0.625 36:0.5 37:0.4375 41:0.0625 42:0.875 43:0.75 44:0.5 45:0.5625 46:0.625 50:0.3125 51:0.8125 52:0.0625 53:0.5 54:0.875 59:0.375 60:0.875 61:0.9375 62:0.3125 # 0
1 3:0.6875 4:0.8125 5:0.0625 10:0.75 11:0.875 12:0.5625 13:0.125 17:0.25 18:0.9375 19:0.1875 25:0.4375 26:0.75 27:0.75 28:0.75 29:0.375 30:0.0625 33:0.5 34:1 35:0.8125 36:0.5 37:0.75 38:0.5 41:0.25 42:1 43:0.375 45:0.4375 46:0.6875 50:0.75 51:0.625 52:0.3125 53:1 54:0.375 58:0.125 59:0.625 60:0.9375 61:0.625 # 0
-0.10762526382995774021367196837673 2:0.25 3:0.875 4:0.625 10:0.875 11:0.9375 12:0.9375 13:0.375 17:0.0625 18:1 19:0.3125 20:0.3125 21:0.6875 26:0.3125 27:0.25 28:0.375 29:0.8125 36:0.875 37:0.375 43:0.1875 44:1 45:0.125 50:0.1875 51:0.9375 52:1 53:0.75 54:1 55:0.30000001 58:0.25 59:1 60:0.75 61:0.75 62:0.75 63:0.33333334 # 0
-0.10764677485558848957225563935935 2:0.375 3:0.9375 4:1 5:0.375 9:0.33333334 10:0.9375 11:1 12:1 13:0.6875 17:0.5 18:1 19:1 20:1 21:0.5625 26:0.25 27:1 28:1 29:0.375 34:0.125 35:1 36:1 42:0.5 43:1 44:1 45:0.125 50:0.6875 51:1 52:1 53:0.8125 54:0.125 58:0.3125 59:0.8125 60:0.6875 61:0.5 62:0.125 # 0
-0.1075724286243466831791693039122 2:0.3125 3:0.1875 4:0.625 5:0.625 9:0.26666668 10:1 11:0.8125 12:0.875 13:0.8125 17:0.25 18:0.875 20:0.5 21:0.5 25:0.0625 26:0.8125 27:0.8125 28:0.9375 35:0.875 36:1 37:0.0625 42:0.8125 43:0.8125 44:0.5 45:0.3125 49:0.0625 50:0.8125 51:0.625 52:0.5 53:0.625 58:0.125 59:0.8125 60:1 61:0.375 # 0
1 2:0.25 3:0.6875 10:0.6875 11:0.8125 17:0.125 18:0.9375 19:0.5 25:0.1875 26:1 27:0.25 33:0.5 34:1 35:1 36:1 37:0.5625 41:0.25 42:1 43:0.75 44:0.5625 45:1 46:0.4375 49:0.125 50:0.9375 51:0.5625 52:0.375 53:1 54:0.5625 58:0.25 59:0.9375 60:1 61:0.8125 62:0.125 # 0
1 3:0.875 4:0.375 10:0.25 11:1 12:0.375 18:0.625 19:0.875 20:0.0625 26:0.875 27:0.9375 28:0.1875 33:0.14285715 34:1 35:1 36:1 37:0.8125 38:0.071428575 41:0.1875 42:1 43:0.8125 44:0.375 45:0.9375 46:0.6875 50:0.625 51:1 52:0.3125 53:0.9375 54:0.8125 58:0.0625 59:0.625 60:1 61:0.9375 62:0.4375 # 0
1 3:0.5625 4:1 5:0.25 10:0.375 11:1 12:1 13:0.25 18:0.6875 19:0.9375 20:0.0625 26:0.875 27:0.8125 34:1 35:1 36:1 37:0.5625 41:0.0625 42:1 43:0.75 44:0.5 45:0.875 46:0.3125 50:0.6875 51:0.9375 52:0.5625 53:0.9375 54:0.5625 59:0.625 60:0.8125 61:0.9375 62:0.1875 # 0
-0.1075391271163207429495400901942 2:0.3125 3:0.625 4:0.75 5:0.4375 9:0.06666667 10:0.875 11:1 12:1 13:1 17:0.6875 18:1 19:0.25 20:0.4375 21:0.9375 25:0.3125 26:0.75 28:0.6875 29:0.875 35:0.3125 36:1 37:0.5625 42:0.125 43:0.875 44:0.8125 45:0.3125 46:0.0625 50:0.625 51:1 52:1 53:1 54:0.9375 58:0.4375 59:0.75 60:0.75 61:0.5625 62:0.75 63:0.06666667 # 0
-0.10762526382995774021367196837673 2:0.5625 3:0.875 4:0.5625 5:0.125 9:0.13333334 10:1 11:0.625 12:0.875 13:0.5 17:0.125 18:1 19:0.125 20:0.375 21:1 22:0.0625 26:0.875 27:0.5625 28:0.6875 29:1 30:0.3125 34:0.125 35:0.6875 36:0.6875 37:0.875 38:0.64285713 45:0.8125 46:0.6875 50:0.3125 51:0.5625 52:0.6875 53:1 54:0.375 58:0.4375 59:0.8125 60:0.75 61:0.5 # 0
-0.10772447359564762958683559190831 2:0.6875 3:1 4:0.875 5:0.4375 6:0.0625 9:0.46666667 10:0.9375 11:0.4375 12:0.8125 13:1 14:0.25 17:0.625 18:0.75 20:0.3125 21:1 22:0.375 25:0.1875 26:1 27:0.75 28:0.9375 29:1 30:0.5 34:0.125 35:0.25 36:0.4375 37:1 38:0.42857143 44:0.1875 45:1 46:0.25 50:0.4375 51:0.625 52:0.625 53:0.9375 54:0.125 58:0.6875 59:1 60:0.875 61:0.375 # 0
1 2:0.125 3:0.5 4:0.875 5:0.125 10:0.5625 11:1 12:0.625 13:0.0625 17:0.0625 18:1 19:0.5625 20:0.0625 25:0.125 26:1 27:1 28:0.875 29:0.1875 34:0.9375 35:0.625 36:0.4375 37:0.875 42:0.875 43:0.0625 45:0.8125 46:0.25 50:0.4375 51:0.625 52:0.3125 53:0.9375 54:0.25 59:0.5625 60:1 61:0.75 # 0
1 2:0.25 3:0.9375 10:0.8125 11:0.3125 18:1 25:0.25 26:0.8125 33:0.5 34:0.9375 35:0.5 36:0.5625 37:0.1875 41:0.375 42:1 43:0.75 44:0.8125 45:1 46:0.25 50:0.9375 51:0.5 52:0.125 53:0.875 54:0.4375 58:0.25 59:0.9375 60:0.8125 61:0.375 # 0
1 3:0.875 4:0.3125 10:0.5625 11:0.8125 12:0.0625 18:0.9375 19:0.375 25:0.1875 26:1 27:0.1875 33:0.5 34:0.75 35:0.5 36:1 37:0.5 41:0.25 42:1 43:0.9375 44:0.5625 45:0.9375 46:0.25 50:0.75 51:0.75 52:0.25 53:0.625 54:0.75 58:0.0625 59:0.75 60:0.9375 61:1 62:0.375 # 0
-0.10765582963396069793304832273861 2:0.3125 3:0.9375 4:0.75 5:0.1875 10:0.5625 11:0.75 12:0.625 13:0.1875 18:0.875 19:0.375 26:0.9375 27:1 28:1 29:0.1875 34:0.4375 35:0.5 36:0.625 37:0.625 44:0.3125 45:0.8125 50:0.25 51:0.75 52:1 53:0.6875 58:0.375 59:1 60:0.6875 61:0.125 # 0
-0.10756007432211145413702979567461 2:0.3125 3:0.75 4:0.6875 5:0.125 9:0.06666667 10:0.875 11:0.9375 12:0.8125 13:0.875 17:0.125 18:0.9375 19:0.25 20:0.375 21:1 27:0.125 28:0.8125 29:0.75 35:0.6875 36:1 37:0.8125 38:0.14285715 43:0.0625 44:0.3125 45:0.75 46:0.75 50:0.5 51:0.6875 52:0.5 53:0.875 54:0.75 58:0.4375 59:1 60:0.75 61:0.75 62:0.1875 # 0
-0.10766305537088349808527709683403 2:0.6875 3:0.75 4:1 5:0.625 6:0.0625 9:0.33333334 10:1 11:0.9375 12:0.4375 13:0.9375 14:0.25 17:0.3125 18:1 19:0.375 20:0.5 21:0.9375 22:0.0625 26:0.4375 27:1 28:1 29:0.625 34:0.375 35:1 36:1 37:0.4375 42:0.875 43:0.625 44:0.625 45:0.75 49:0.25 50:1 51:0.5625 52:0.75 53:0.875 57:0.1 58:0.6875 59:1 60:0.9375 61:0.3125 # 0
1 2:0.1875 3:1 4:0.375 10:0.625 11:0.875 12:0.25 18:0.9375 19:0.625 25:0.125 26:1 27:0.25 33:0.35714287 34:1 35:0.9375 36:0.875 37:0.375 41:0.1875 42:1 43:1 44:0.75 45:1 46:0.25 50:0.9375 51:0.875 52:0.375 53:0.8125 54:0.75 58:0.1875 59:0.625 60:0.8125 61:0.625 62:0.25 # 0
1 2:0.125 3:0.8125 4:0.0625 10:0.4375 11:1 12:0.375 18:0.75 19:1 20:0.1875 26:0.5625 27:1 28:0.3125 34:0.9375 35:1 36:1 37:0.9375 38:0.35714287 42:0.8125 43:1 44:0.625 45:0.875 46:0.9375 50:0.625 51:0.875 52:0.5625 53:1 54:0.875 58:0.125 59:0.6875 60:0.9375 61:0.9375 62:0.25 # 0
1 2:0.375 3:0.9375 4:0.125 10:0.875 11:0.6875 18:1 19:0.5 25:0.25 26:1 27:0.25 33:0.42857143 34:1 35:0.6875 36:0.5 37:0.1875 41:0.4375 42:1 43:1 44:0.875 45:0.9375 46:0.1875 50:1 51:0.8125 52:0.5 53:1 54:0.4375 58:0.4375 59:1 60:1 61:0.625 62:0.0625 # 0
-0.10756146992141135676490648620529 3:0.3125 4:0.25 5:0.0625 11:0.875 12:0.5 13:0.75 18:0.25 19:0.8125 20:0.25 21:0.75 26:0.75 27:0.3125 28:0.4375 29:0.5625 33:0.14285715 34:1 35:0.25 36:0.8125 37:1 38:0.5 41:0.625 42:1 43:1 44:1 45:0.6875 46:0.0625 49:0.3125 50:0.375 51:0.4375 52:0.9375 59:0.4375 60:0.4375 # 0
-0.10756146992141135676490648620529 3:0.6875 4:0.5 11:0.8125 12:0.4375 18:0.1875 19:1 20:0.375 21:0.9375 26:0.5625 27:0.6875 28:0.4375 29:0.875 33:0.071428575 34:0.9375 35:0.375 36:0.75 37:0.8125 38:0.071428575 41:0.4375 42:1 43:1 44:1 45:1 46:0.6875 49:0.3125 50:0.75 51:0.8125 52:1 53:0.5 54:0.1875 59:0.75 60:0.75 # 0
-0.10757790837985581333668960724026 2:0.3125 3:0.75 4:0.5 5:0.125 10:0.75 11:0.375 12:0.5 13:0.8125 17:0.125 18:0.625 21:0.75 22:0.125 26:0.875 27:0.75 28:0.75 29:0.625 34:0.0625 35:0.9375 36:1 37:0.4375 42:0.875 43:0.5 45:0.5625 46:0.0625 50:0.875 51:0.125 52:0.0625 53:0.75 54:0.125 58:0.5 59:0.75 60:0.75 61:0.375 # 0
1 2:0.375 3:0.6875 10:0.5 11:1 12:0.0625 18:0.6875 19:1 20:0.0625 26:0.875 27:0.8125 28:0.125 34:0.8125 35:1 36:1 37:0.8125 38:0.21428572 42:0.9375 43:0.875 44:0.5 45:0.875 46:0.75 50:0.875 51:0.6875 52:0.4375 53:0.9375 54:0.625 58:0.25 59:0.8125 60:1 61:0.625 62:0.125 # 0
1 2:0.875 3:0.1875 9:0.40000001 10:1 11:0.125 17:0.5 18:1 25:0.5 26:1 27:0.25 28:0.1875 33:0.5714286 34:1 35:1 36:1 37:0.875 38:0.071428575 41:0.5 42:1 43:0.3125 44:0.3125 45:1 46:0.5 49:0.25 50:1 51:0.125 52:0.4375 53:1 54:0.125 58:0.75 59:1 60:0.9375 61:0.4375 # 0
1 3:0.8125 4:0.875 10:0.3125 11:1 12:0.4375 18:0.5 19:0.8125 26:0.75 27:0.6875 33:0.071428575 34:1 35:1 36:0.875 37:0.125 42:0.625 43:0.6875 44:0.625 45:0.875 50:0.4375 51:0.8125 52:0.5625 53:0.9375 58:0.0625 59:0.6875 60:0.9375 61:0.5 # 0
-0.10757573679697296498147807142232 2:0.25 3:0.6875 4:0.25 10:0.75 11:0.9375 12:1 13:0.875 17:0.25 18:0.9375 20:0.3125 21:0.75 22:0.375 25:0.375 26:0.625 29:0.4375 30:0.5 33:0.5 34:0.5 37:0.5 38:0.5714286 41:0.375 42:0.8125 44:0.0625 45:0.8125 46:0.1875 49:0.125 50:1 51:0.625 52:0.75 53:0.8125 58:0.375 59:0.8125 60:0.75 61:0.0625 # 0
-0.10754970907018746029137901132344 2:0.1875 3:1 4:0.6875 10:0.3125 11:1 12:1 17:0.0625 18:0.6875 19:1 20:0.9375 25:0.1875 26:0.9375 27:1 28:0.9375 34:0.125 35:1 36:0.875 43:0.9375 44:1 50:0.0625 51:1 52:1 53:0.125 58:0.0625 59:0.6875 60:0.875 61:0.3125 # 0
-0.10752769675590634346207252747263 2:0.1875 3:0.875 4:0.4375 5:0.0625 10:0.6875 11:0.9375 12:1 13:0.75 18:0.875 19:0.5 21:0.8125 22:0.25 25:0.0625 26:1 27:0.125 29:0.75 30:0.375 33:0.071428575 34:1 35:0.125 37:0.8125 38:0.5 41:0.125 42:1 44:0.25 45:1 46:0.0625 50:0.8125 51:0.625 52:0.9375 53:0.8125 58:0.375 59:0.9375 60:0.75 61:0.375 # 0
1 3:0.5625 4:0.8125 10:0.3125 11:1 12:0.8125 13:0.25 18:0.75 19:0.75 26:0.875 27:0.3125 34:1 35:0.6875 36:0.9375 37:0.6875 42:0.8125 43:1 44:0.8125 45:0.9375 46:0.5 50:0.4375 51:1 52:0.3125 53:0.8125 54:0.625 59:0.5625 60:0.8125 61:0.8125 62:0.1875 # 0
1 3:0.4375 4:0.75 5:0.0625 10:0.4375 11:1 12:0.5625 13:0.0625 18:0.75 19:0.6875 26:0.875 27:0.25 34:0.9375 35:0.0625 42:0.6875 43:0.8125 44:1 45:1 46:0.5 50:0.5625 51:1 52:0.8125 53:0.6875 54:1 55:0.30000001 59:0.5625 60:0.75 61:0.8125 62:0.5625 # 0
1 3:0.5625 4:0.5625 10:0.4375 11:0.9375 12:0.1875 18:0.6875 19:0.5 26:0.875 27:0.25 28:0.125 29:0.1875 34:0.75 35:0.75 36:1 37:0.75 38:0.71428573 42:0.5625 43:0.875 44:0.5 46:0.5 47:1 50:0.25 51:0.5625 52:0.0625 53:0.125 54:0.875 55:0.5 59:0.375 60:0.6875 61:0.875 62:0.5 # 0
-0.10761398745908279384053685134859 2:0.5625 3:0.8125 4:0.25 9:0.06666667 10:1 11:0.5625 12:0.6875 17:0.125 18:0.6875 20:0.8125 26:0.125 27:0.1875 28:0.8125 35:0.6875 36:0.3125 42:0.1875 43:0.875 44:0.0625 50:0.6875 51:0.875 52:0.625 53:0.5 54:0.6875 58:0.6875 59:0.8125 60:0.75 61:0.75 62:0.875 63:0.13333334 # 0
-0.10759136274175740144443125245743 2:0.4375 3:0.6875 4:0.8125 5:0.4375 9:0.06666667 10:0.9375 11:0.9375 12:0.8125 13:0.9375 14:0.125 17:0.25 18:1 19:0.25 20:0.3125 21:0.875 22:0.25 26:0.625 27:1 28:1 29:0.8125 30:0.125 34:0.4375 35:0.9375 36:1 37:0.1875 41:0.0625 42:1 43:0.5625 44:0.5 45:0.9375 49:0.1875 50:0.9375 51:0.375 52:0.5625 53:1 58:0.375 59:1 60:0.9375 61:0.375 # 0
-0.10758878327392029650155791387078 2:0.25 3:0.875 4:0.9375 5:0.5 6:0.0625 10:0.875 11:0.875 12:0.75 13:0.9375 14:0.4375 17:0.1875 18:0.9375 19:0.0625 21:0.5625 22:0.4375 25:0.375 26:0.75 29:0.5 30:0.5 33:0.5714286 34:0.6875 37:0.5625 38:0.5714286 41:0.5 42:0.75 45:0.875 46:0.3125 49:0.1875 50:1 51:0.5625 52:0.875 53:0.6875 58:0.375 59:0.875 60:0.6875 # 0
1 2:0.125 3:0.8125 4:0.0625 10:0.6875 11:0.625 12:0.0625 17:0.125 18:0.9375 19:0.0625 25:0.375 26:0.6875 27:0.0625 28:0.25 29:0.0625 33:0.5 34:0.625 35:0.5625 36:1 37:0.875 38:0.071428575 41:0.25 42:0.75 43:0.4375 44:0.375 45:0.4375 46:0.625 49:0.0625 50:0.8125 51:0.375 52:0.125 53:0.625 54:0.875 58:0.1875 59:0.75 60:0.8125 61:0.8125 62:0.1875 # 0
1 3:0.375 4:0.875 5:0.625 10:0.3125 11:1 12:0.6875 13:0.4375 18:0.75 19:0.8125 25:0.3125 26:1 27:0.1875 33:0.2857143 34:1 35:1 36:0.9375 37:0.4375 41:0.25 42:1 43:0.6875 44:0.5 45:0.9375 46:0.3125 49:0.0625 50:0.8125 51:0.875 52:0.5 53:0.6875 54:0.875 59:0.4375 60:0.875 61:1 62:0.5625 # 0
1 2:0.5625 3:0.875 9:0.26666668 10:1 11:0.5 17:0.4375 18:0.875 19:0.0625 25:0.5625 26:0.6875 28:0.25 29:0.3125 30:0.0625 33:0.64285713 34:0.75 35:0.8125 36:1 37:1 38:0.78571427 41:0.25 42:1 43:0.9375 44:0.5 45:0.6875 46:0.875 49:0.1875 50:1 51:0.6875 52:0.5625 53:1 54:0.375 58:0.5 59:1 60:1 61:0.5 # 0
-0.10761400165372825288301328328089 1:0.25 2:0.75 3:1 4:1 5:1 6:0.875 9:0.60000002 10:1 11:1 12:0.9375 13:1 14:0.375 17:0.6875 18:0.8125 20:0.6875 21:0.875 27:0.125 28:1 29:0.375 35:0.75 36:0.875 37:0.0625 42:0.25 43:1 44:0.375 50:0.6875 51:1 52:0.0625 57:0.2 58:0.9375 59:0.8125 # 0
-0.10765617050108511332240368574276 2:0.3125 3:0.625 4:0.75 5:0.125 9:0.13333334 10:1 11:0.8125 12:0.6875 13:0.6875 17:0.4375 18:0.875 20:0.25 21:0.9375 25:0.0625 26:0.375 28:0.625 29:0.75 35:0.125 36:1 37:0.375 43:0.5625 44:0.75 50:0.25 51:1 52:1 53:1 54:1 55:0.2 58:0.4375 59:0.9375 60:0.6875 61:0.5 62:0.5 63:0.06666667 # 0
-0.10765617050108511332240368574276 2:0.4375 3:0.8125 4:1 5:0.5 9:0.60000002 10:1 11:0.75 12:0.5 13:1 14:0.125 17:0.25 18:0.4375 20:0.375 21:0.9375 22:0.0625 26:0.25 27:0.8125 28:1 29:0.5 34:0.375 35:0.8125 36:0.9375 37:1 38:0.21428572 44:0.125 45:0.6875 46:0.75 50:0.4375 51:0.5 52:0.25 53:0.875 54:0.75 58:0.625 59:1 60:1 61:0.875 62:0.25 # 0
1 2:0.125 3:0.625 4:0.875 5:0.125 10:0.625 11:0.8125 12:0.375 18:0.875 19:0.25 25:0.0625 26:1 33:0.2857143 34:1 35:1 36:1 37:0.6875 41:0.3125 42:1 43:0.375 44:0.3125 45:0.8125 46:0.5625 50:0.9375 51:0.5625 52:0.375 53:0.8125 54:0.4375 58:0.25 59:0.875 60:0.875 61:0.375 # 0
1 2:0.125 3:0.75 4:0.4375 10:0.6875 11:1 12:0.3125 18:1 19:0.5625 26:0.9375 27:0.6875 28:0.25 29:0.1875 34:1 35:1 36:1 37:1 38:0.42857143 42:0.9375 43:0.8125 45:0.625 46:0.875 50:0.6875 51:0.9375 52:0.5 53:1 54:0.6875 58:0.0625 59:0.6875 60:0.875 61:0.6875 62:0.0625 # 0
1 2:0.3125 3:0.875 4:0.1875 10:0.9375 11:0.9375 12:0.1875 17:0.125 18:1 19:0.25 25:0.25 26:1 27:0.25 28:0.1875 29:0.0625 33:0.42857143 34:1 35:0.5625 36:1 37:0.9375 38:0.21428572 41:0.25 42:1 43:1 44:0.5625 45:0.8125 46:0.6875 50:0.875 51:0.9375 52:0.3125 53:1 54:0.375 58:0.25 59:0.875 60:0.875 61:0.5625 # 0
-0.10639686941163550848443719587522 2:0.625 3:0.9375 4:0.625 9:0.66666669 10:0.9375 11:0.625 12:1 13:0.375 17:0.125 18:0.125 19:0.8125 20:0.9375 21:0.0625 26:0.25 27:1 28:1 29:0.3125 35:0.1875 36:0.4375 37:0.9375 38:0.35714287 45:0.5625 46:0.8125 50:0.8125 51:0.4375 52:0.3125 53:0.6875 54:0.875 58:0.4375 59:1 60:1 61:0.875 62:0.1875 # 0
-0.10607862578460114377776335459203 2:0.625 3:0.875 4:0.6875 5:0.5625 10:0.5625 11:0.75 12:0.5 13:0.5625 18:0.6875 19:0.5625 20:0.0625 26:0.9375 27:1 28:0.875 29:0.125 34:0.75 35:0.125 36:0.625 37:0.375 45:0.8125 50:0.4375 51:0.3125 52:0.5 53:0.75 58:0.625 59:1 60:0.9375 61:0.25 # 0
-0.10607862578460114377776335459203 2:0.5 3:0.6875 4:0.9375 5:0.25 10:0.875 11:0.875 12:0.75 13:0.375 18:0.6875 19:0.5625 26:0.625 27:1 28:0.875 29:0.125 34:0.25 35:0.5 36:0.5625 37:0.875 38:0.14285715 45:0.9375 46:0.125 50:0.25 51:0.6875 52:0.8125 53:1 54:0.0625 58:0.25 59:0.9375 60:0.75 61:0.5625 # 0
1 3:0.625 4:1 5:0.3125 10:0.125 11:1 12:0.8125 13:0.125 18:0.4375 19:1 20:0.25 26:0.5 27:1 28:0.0625 34:0.6875 35:1 36:0.625 37:0.0625 42:0.8125 43:1 44:1 45:0.8125 46:0.25 50:0.4375 51:1 52:0.4375 53:0.9375 54:0.875 59:0.5625 60:1 61:1 62:0.75 # 0
1 2:0.0625 3:0.9375 10:0.4375 11:1 18:0.625 19:0.6875 26:0.875 27:0.625 34:1 35:0.8125 36:0.75 37:0.5625 38:0.071428575 41:0.0625 42:1 43:0.9375 44:0.75 45:0.9375 46:0.6875 50:0.5625 51:0.875 52:0.25 53:0.8125 54:0.625 59:0.6875 60:1 61:0.875 62:0.125 # 0
1 2:0.25 3:0.875 4:0.1875 10:0.75 11:0.6875 17:0.0625 18:1 19:0.25 26:1 33:0.2857143 34:1 35:0.5625 36:0.75 37:0.625 38:0.14285715 41:0.375 42:1 43:0.5625 44:0.5 45:0.875 46:0.5625 50:0.8125 51:0.4375 52:0.25 53:1 54:0.5625 58:0.1875 59:0.9375 60:1 61:0.5 # 0
-0.10606638846174898382912488159491 2:0.5 3:0.75 4:0.875 5:0.9375 6:0.9375 7:0.0625 9:0.2 10:0.9375 11:1 12:0.875 13:1 14:0.9375 15:0.15384616 18:0.625 19:0.125 20:0.3125 21:1 22:0.4375 27:0.0625 28:0.875 29:0.75 35:0.375 36:1 37:0.3125 43:0.9375 44:0.75 50:0.375 51:1 52:0.4375 58:0.6875 59:1 60:0.1875 # 0
-0.10603893139335041073678667089553 2:0.4375 3:0.5 4:0.5 5:0.5 10:0.75 11:1 12:0.875 13:0.75 18:0.9375 19:0.3125 20:0.125 26:0.875 27:1 28:0.8125 29:0.125 34:0.4375 35:0.25 36:0.75 37:0.5625 44:0.375 45:0.75 50:0.6875 51:0.75 52:1 53:0.625 58:0.5 59:0.8125 60:0.5 61:0.0625 # 0
-0.10585647204185355541028457082575 3:0.625 4:0.875 10:0.25 11:1 12:0.4375 18:0.5 19:1 20:0.375 21:0.5 26:0.875 27:0.5625 28:0.5 29:0.9375 33:0.2857143 34:1 35:0.1875 36:0.6875 37:0.9375 38:0.42857143 41:0.625 42:1 43:1 44:1 45:1 46:0.5625 49:0.375 50:0.75 51:0.8125 52:1 53:0.4375 59:0.75 60:1 61:0.125 # 0
1 2:0.125 3:0.875 4:0.3125 10:0.625 11:0.8125 12:0.25 18:0.75 19:0.5625 26:0.75 27:0.5 34:0.75 35:0.875 36:1 37:0.9375 38:0.21428572 42:0.8125 43:0.875 44:0.375 45:0.5625 46:0.625 50:0.8125 51:0.75 52:0.4375 53:0.875 54:0.5 58:0.125 59:0.9375 60:0.9375 61:0.625 62:0.0625 # 0
1 2:0.25 3:1 4:0.3125 10:0.5625 11:1 12:0.125 18:0.6875 19:0.8125 26:0.6875 27:0.75 34:0.9375 35:0.9375 36:0.8125 37:0.75 38:0.35714287 42:0.8125 43:1 44:0.9375 45:0.6875 46:0.9375 47:0.5 50:0.75 51:1 52:0.5625 53:0.875 54:0.9375 55:0.2 58:0.3125 59:0.9375 60:1 61:0.8125 62:0.125 # 0
1 1:0.125 2:0.8125 3:0.3125 9:0.26666668 10:0.875 17:0.25 18:0.5 20:0.0625 21:0.375 22:0.0625 25:0.3125 26:0.5 27:0.0625 28:0.6875 29:1 30:0.3125 33:0.2857143 34:0.625 35:0.4375 36:1 37:1 38:0.5 41:0.25 42:0.875 43:0.625 44:1 45:1 46:0.1875 49:0.0625 50:1 51:1 52:1 53:0.625 58:0.625 59:0.875 60:0.5625 61:0.125 # 0
-0.10755250607309396748689778178232 2:0.0625 3:0.625 4:0.875 5:0.8125 6:0.125 10:0.5625 11:0.9375 12:0.8125 13:1 14:0.3125 21:0.6875 22:0.3125 28:0.25 29:0.8125 34:0.5 35:1 36:1 37:0.8125 38:0.14285715 42:0.5 43:0.875 44:1 45:0.625 46:0.0625 51:0.75 52:0.4375 59:0.875 60:0.125 # 0
-0.10598400841610877698428794246865 2:0.4375 3:0.9375 4:0.5 5:0.125 10:0.75 11:1 12:0.875 13:0.3125 18:0.75 19:1 20:1 21:0.25 26:0.75 27:1 28:1 29:0.125 34:0.8125 35:1 36:1 37:0.125 42:0.875 43:1 44:1 49:0.0625 50:0.875 51:1 52:1 53:0.875 54:0.0625 57:0.1 58:0.5 59:1 60:0.6875 61:0.5 # 0
-0.10599742727701977340615258071921 2:0.375 3:0.5625 4:0.25 5:0.0625 10:0.375 11:1 12:1 13:0.5625 14:0.0625 18:0.25 19:1 20:0.0625 21:0.8125 22:0.4375 27:0.875 28:0.3125 29:0.75 30:0.5 33:0.071428575 34:0.625 35:0.9375 36:1 37:0.625 41:0.375 42:0.9375 43:0.5625 44:1 45:0.0625 49:0.4375 50:0.8125 51:0.5 52:0.875 53:0.25 58:0.375 59:0.625 60:0.8125 61:0.0625 # 0
1 2:0.75 3:0.4375 9:0.2 10:1 11:0.25 17:0.4375 18:0.9375 25:0.5 26:0.75 27:0.1875 28:0.5 29:0.125 33:0.85714287 34:0.875 35:1 36:1 37:1 38:0.2857143 41:0.5625 42:1 43:0.8125 44:0.1875 45:0.5625 46:0.8125 49:0.1875 50:1 51:0.5625 52:0.3125 53:0.8125 54:0.75 58:0.625 59:1 60:1 61:0.8125 62:0.0625 # 0
1 2:0.625 3:0.4375 10:0.9375 11:0.5625 17:0.125 18:1 19:0.125 25:0.4375 26:1 27:0.0625 28:0.3125 29:0.1875 33:0.5714286 34:1 35:0.8125 36:1 37:0.9375 38:0.14285715 41:0.5 42:1 43:1 44:0.75 45:1 46:0.5 49:0.1875 50:1 51:0.9375 52:0.75 53:1 54:0.25 58:0.5625 59:1 60:0.9375 61:0.5 # 0
1 2:0.3125 3:1 4:0.3125 10:0.6875 11:0.9375 12:0.125 17:0.0625 18:1 19:0.625 25:0.375 26:1 27:0.1875 33:0.5714286 34:1 35:0.9375 36:1 37:0.875 38:0.14285715 41:0.5 42:1 43:0.75 44:0.5 45:0.8125 46:0.6875 49:0.5 50:1 51:0.75 52:0.125 53:0.8125 54:0.5625 58:0.3125 59:0.8125 60:1 61:0.9375 62:0.0625 # 0
-0.10592822771989274244219814136159 2:0.3125 3:0.75 4:0.5 5:0.0625 10:0.9375 11:1 12:1 13:0.5 18:0.9375 19:1 20:1 21:0.375 25:0.0625 26:0.875 27:1 28:1 29:0.25 33:0.14285715 34:0.9375 35:1 36:1 37:0.5625 42:0.375 43:1 44:1 45:0.875 46:0.0625 50:0.5 51:1 52:1 53:0.9375 58:0.25 59:0.75 60:0.625 61:0.25 # 0
-0.10611818441559184300615470419871 3:0.125 4:0.9375 5:0.1875 11:0.5 12:0.875 19:0.75 20:0.5 21:0.125 22:0.25 26:0.25 27:0.9375 28:0.125 29:0.9375 30:0.5 33:0.2857143 34:0.8125 35:0.875 36:0.5625 37:1 38:0.42857143 40:0.5 41:1 42:1 43:1 44:1 45:0.875 48:0.2 49:0.375 50:0.25 51:0.25 52:0.8125 53:0.5625 59:0.1875 60:1 61:0.25 # 0
-0.10762354237830717984536477160873 2:0.4375 3:1 4:0.625 9:0.06666667 10:0.8125 11:0.875 12:1 13:0.5 17:0.3125 18:1 19:0.25 20:0.4375 21:0.8125 25:0.25 26:1 27:0.25 29:0.8125 30:0.3125 33:0.5 34:1 37:0.75 38:0.5714286 41:0.125 42:0.9375 43:0.4375 45:0.625 46:0.6875 50:0.75 51:0.9375 52:0.75 53:1 54:0.3125 58:0.375 59:0.9375 60:1 61:0.5 # 0
1 2:0.375 3:1 4:0.1875 10:0.8125 11:0.8125 17:0.0625 18:1 19:0.5 25:0.375 26:1 27:0.0625 33:0.5714286 34:0.875 35:0.375 36:0.5625 37:0.375 41:0.4375 42:1 43:0.9375 44:0.75 45:0.875 46:0.75 49:0.125 50:1 51:0.5625 53:0.0625 54:1 55:0.30000001 58:0.3125 59:0.9375 60:1 61:1 62:0.875 63:0.06666667 # 0
1 2:0.3125 3:0.9375 4:0.25 9:0.13333334 10:1 11:0.6875 12:0.0625 17:0.375 18:0.875 25:0.375 26:0.75 27:0.25 28:0.25 29:0.0625 33:0.5 34:1 35:1 36:1 37:0.9375 38:0.21428572 42:1 43:0.5625 45:0.5625 46:0.8125 50:0.625 51:0.75 52:0.5 53:0.75 54:0.5625 58:0.125 59:0.75 60:0.875 61:0.5 62:0.0625 # 0
1 2:0.25 3:0.875 4:0.25 10:0.8125 11:0.75 12:0.125 18:1 19:0.125 25:0.0625 26:1 27:1 28:1 29:0.5625 33:0.14285715 34:1 35:0.3125 37:0.5 38:0.64285713 42:0.875 43:0.25 45:0.0625 46:0.875 50:0.625 51:0.5625 52:0.25 53:0.75 54:0.8125 58:0.25 59:0.9375 60:0.9375 61:0.5625 62:0.125 # 0
-0.10762354237830717984536477160873 2:0.25 3:0.875 4:1 5:0.6875 10:0.75 11:0.75 12:1 13:0.9375 19:0.0625 20:1 21:0.6875 26:0.125 27:0.5625 28:1 29:0.5625 34:0.8125 35:1 36:1 37:1 38:0.64285713 42:0.125 43:0.9375 44:0.75 45:0.5 46:0.0625 50:0.25 51:1 52:0.5625 58:0.3125 59:0.9375 60:0.4375 # 0
-0.10760317871972591152740506004193 2:0.1875 3:0.75 4:0.9375 5:0.1875 10:0.5625 11:0.9375 12:0.9375 13:0.4375 18:0.75 19:0.875 20:0.75 21:0.0625 26:0.5 27:1 28:1 29:0.875 37:0.8125 38:0.5 45:0.4375 46:0.75 49:0.125 50:1 51:0.625 52:0.5 53:0.8125 54:0.625 58:0.375 59:0.6875 60:1 61:0.875 62:0.1875 # 0
-0.10756606598476703418043598503573 3:0.1875 4:0.9375 5:0.3125 11:0.375 12:1 13:0.125 19:0.375 20:1 21:0.1875 26:0.125 27:0.8125 28:0.3125 29:0.75 30:0.125 33:0.35714287 34:0.8125 35:0.8125 36:0.5625 37:1 38:0.071428575 40:0.66666669 41:1 42:1 43:1 44:1 45:0.9375 48:0.40000001 49:0.5625 50:0.4375 51:0.25 52:0.8125 53:0.5625 59:0.3125 60:1 61:0.3125 # 0
1 2:0.4375 3:1 4:0.375 10:1 11:0.8125 12:0.0625 17:0.125 18:1 19:0.1875 25:0.1875 26:1 27:0.25 28:0.25 29:0.125 33:0.35714287 34:1 35:1 36:1 37:0.9375 38:0.2857143 41:0.25 42:1 43:0.375 44:0.25 45:0.4375 46:1 47:0.25 50:1 51:0.5 52:0.25 53:0.75 54:0.9375 55:0.2 58:0.375 59:1 60:1 61:0.875 62:0.375 # 0
1 2:0.1875 3:0.5625 4:0.5 10:0.9375 11:0.5625 12:0.0625 17:0.25 18:1 19:0.5 20:0.125 25:0.3125 26:1 27:0.75 28:0.75 29:0.6875 30:0.0625 33:0.2857143 34:0.75 37:0.3125 38:0.71428573 41:0.0625 42:0.875 43:0.1875 45:0.0625 46:0.875 47:0.25 50:0.625 51:0.375 52:0.3125 53:0.875 54:0.8125 58:0.25 59:0.8125 60:0.875 61:0.5 # 0
1 2:0.125 3:0.8125 4:0.4375 10:0.75 11:0.875 12:0.25 18:0.9375 19:0.1875 25:0.375 26:0.875 27:0.125 28:0.375 33:0.5 34:1 35:1 36:1 37:0.8125 38:0.071428575 41:0.25 42:1 43:0.5 44:0.0625 45:0.75 46:0.625 49:0.0625 50:0.75 51:0.5625 52:0.25 53:0.5625 54:0.9375 58:0.125 59:0.6875 60:1 61:0.9375 62:0.25 # 0
-0.10582569097409544323085128780804 1:0.375 2:0.8125 3:1 4:1 5:0.375 9:0.26666668 10:1 11:0.5625 12:0.875 13:0.75 18:0.5 19:0.1875 20:0.875 21:0.4375 27:0.75 28:1 29:0.1875 35:0.3125 36:0.9375 37:0.9375 38:0.071428575 44:0.0625 45:1 46:0.625 49:0.125 50:0.75 51:0.5 52:0.6875 53:1 54:0.4375 57:0.2 58:0.9375 59:1 60:0.9375 61:0.5625 # 0
-0.10619389131827150496434342130669 1:0.125 2:0.875 3:1 4:0.5625 9:0.53333336 10:1 11:0.75 12:0.9375 13:0.375 17:0.375 18:1 19:0.4375 20:0.3125 21:0.875 25:0.25 26:1 27:0.25 29:0.875 30:0.25 33:0.2857143 34:1 35:0.1875 37:0.625 38:0.42857143 41:0.375 42:1 43:0.0625 45:0.625 46:0.5 49:0.1875 50:1 51:0.5625 52:0.4375 53:0.9375 54:0.375 57:0.1 58:0.9375 59:1 60:0.9375 61:0.5625 # 0
-0.10606638846174898382912488159491 2:0.5 3:1 4:0.6875 9:0.06666667 10:0.9375 11:0.9375 12:0.875 13:0.5625 17:0.0625 18:0.9375 19:0.75 21:0.75 22:0.375 26:1 27:0.4375 29:0.625 30:0.25 34:1 35:0.375 37:0.625 38:0.5714286 41:0.1875 42:1 43:0.1875 45:0.9375 46:0.1875 49:0.0625 50:0.875 51:0.875 52:0.75 53:1 58:0.4375 59:0.8125 60:1 61:0.5 # 0
1 3:0.8125 4:0.4375 10:0.5 11:0.9375 12:0.3125 17:0.0625 18:1 19:0.4375 25:0.125 26:1 27:0.25 28:0.4375 29:0.375 33:0.2857143 34:1 35:1 36:1 37:1 38:0.5714286 41:0.1875 42:1 43:0.5625 45:0.5625 46:0.6875 50:0.6875 51:0.75 52:0.3125 53:0.75 54:0.75 58:0.0625 59:0.625 60:0.8125 61:0.8125 62:0.3125 # 0
1 3:0.375 4:0.6875 10:0.0625 11:1 12:0.875 13:0.0625 18:0.3125 19:1 20:0.125 26:0.5 27:0.875 34:0.5 35:0.75 36:0.125 42:0.6875 43:1 44:1 45:1 46:0.6875 47:0.5 50:0.125 51:1 52:0.25 53:0.1875 54:0.75 55:1 59:0.25 60:0.875 61:1 62:0.8125 63:0.53333336 # 0
