SVM-light Version V6.02
0 # kernel type
3 # kernel parameter -d 
1 # kernel parameter -g 
1 # kernel parameter -s 
1 # kernel parameter -r 
empty# kernel parameter -u 
63 # highest feature index 
2823 # number of training documents 
60 # number of support vectors plus 1 
2.0128032 # threshold b, each following line is a SV (starting with alpha*y)
-0.74063650842004258301187746837968 1:0.625 2:1 3:0.3125 9:0.60000002 10:1 11:0.875 17:0.75 18:0.875 19:0.875 25:0.4375 26:0.8125 27:0.75 34:0.6875 35:0.5 37:0.1875 38:0.071428575 42:1 43:0.5 44:0.4375 45:0.875 46:0.6875 49:0.5 50:1 51:1 52:1 53:1 54:0.6875 57:0.60000002 58:1 59:1 60:0.6875 61:0.375 62:0.0625 # 0
1 3:0.625 4:0.9375 5:0.25 10:0.3125 11:1 12:0.875 13:0.1875 18:0.75 19:0.9375 20:0.0625 25:0.0625 26:0.9375 27:0.5 33:0.2857143 34:1 35:0.75 36:0.125 41:0.1875 42:1 43:1 44:0.9375 45:0.25 50:0.75 51:0.875 52:1 53:0.625 58:0.0625 59:0.5625 60:0.9375 61:0.625 # 0
-0.49942844509591211021870549302548 3:0.375 4:1 11:0.875 12:0.6875 18:0.25 19:1 20:0.1875 26:0.75 27:0.6875 28:0.1875 33:0.2857143 34:1 35:0.3125 36:1 37:0.4375 40:0.16666667 41:0.9375 42:1 43:0.8125 44:1 45:0.875 46:0.25 49:0.5625 50:0.9375 51:0.9375 52:1 53:0.9375 54:0.0625 59:0.375 60:0.9375 # 0
-0.055602671686643970194730002276629 2:0.75 3:0.4375 10:0.5625 11:0.9375 18:0.6875 19:1 20:0.3125 26:0.625 27:1 28:0.4375 35:0.6875 36:0.875 43:0.375 44:1 45:0.125 50:0.875 51:1 52:1 53:0.8125 54:0.75 55:0.30000001 58:0.5 59:0.9375 60:0.9375 61:0.875 62:1 63:0.73333335 # 0
1 2:0.1875 3:0.75 4:0.9375 5:0.1875 10:0.875 11:0.9375 12:0.875 13:0.25 17:0.0625 18:1 19:0.9375 20:0.0625 25:0.1875 26:1 27:1 28:0.3125 29:0.125 30:0.0625 33:0.14285715 34:1 35:0.6875 36:0.25 37:0.5 38:0.71428573 41:0.125 42:1 43:0.125 45:0.375 46:0.8125 50:0.6875 51:0.6875 52:0.25 53:0.6875 54:0.625 58:0.0625 59:0.625 60:0.8125 61:0.625 62:0.1875 # 0
-0.85441580357964719283359045221005 2:0.3125 3:0.9375 4:0.3125 10:0.8125 11:0.6875 12:0.75 18:0.875 19:0.4375 20:0.125 21:0.25 22:0.25 26:0.5625 27:0.9375 28:0.875 29:0.8125 30:0.3125 33:0.071428575 34:0.8125 35:1 36:0.8125 41:0.4375 42:0.875 43:0.25 44:0.875 45:0.5625 50:0.9375 51:0.25 52:0.125 53:0.875 54:0.4375 58:0.1875 59:0.8125 60:1 61:1 62:0.4375 # 0
0.6479815597366478385765731218271 2:0.125 3:0.5 4:0.875 5:0.125 10:0.5625 11:1 12:0.625 13:0.0625 17:0.0625 18:1 19:0.5625 20:0.0625 25:0.125 26:1 27:1 28:0.875 29:0.1875 34:0.9375 35:0.625 36:0.4375 37:0.875 42:0.875 43:0.0625 45:0.8125 46:0.25 50:0.4375 51:0.625 52:0.3125 53:0.9375 54:0.25 59:0.5625 60:1 61:0.75 # 0
0.81828237892950705933969857142074 2:0.0625 3:0.4375 4:0.75 5:0.3125 10:0.25 11:1 12:0.5625 13:0.375 18:0.6875 19:0.5 26:0.9375 27:0.5 28:0.5 29:0.3125 34:1 35:1 36:0.75 37:1 38:0.14285715 42:0.9375 43:0.3125 45:0.9375 46:0.3125 50:0.6875 51:0.5625 52:0.5 53:1 54:0.25 58:0.125 59:0.875 60:0.9375 61:0.5 # 0
-1 2:0.875 3:0.3125 10:0.8125 11:0.5 18:1 19:0.4375 26:0.9375 27:0.5 33:0.14285715 34:1 35:0.3125 36:0.9375 37:0.1875 41:0.125 42:1 43:0.5625 44:0.875 45:0.6875 46:0.0625 49:0.375 50:1 51:1 52:1 53:1 54:0.9375 57:0.1 58:0.5 59:0.3125 60:0.4375 61:1 62:0.5 # 0
-1 3:0.5625 4:0.9375 10:0.3125 11:1 12:0.75 18:0.8125 19:0.9375 20:0.125 25:0.3125 26:1 27:0.5 33:0.78571427 34:1 35:0.125 36:0.125 37:0.5 38:0.21428572 41:0.8125 42:1 43:0.875 44:0.9375 45:1 46:0.375 49:0.1875 50:0.9375 51:1 52:1 53:0.75 58:0.125 59:0.75 60:1 61:0.3125 # 0
1 1:0.125 2:0.8125 3:0.3125 9:0.26666668 10:0.875 17:0.25 18:0.5 20:0.0625 21:0.375 22:0.0625 25:0.3125 26:0.5 27:0.0625 28:0.6875 29:1 30:0.3125 33:0.2857143 34:0.625 35:0.4375 36:1 37:1 38:0.5 41:0.25 42:0.875 43:0.625 44:1 45:1 46:0.1875 49:0.0625 50:1 51:1 52:1 53:0.625 58:0.625 59:0.875 60:0.5625 61:0.125 # 0
1 3:0.5 4:0.9375 5:0.125 11:0.8125 12:1 13:0.1875 18:0.25 19:1 20:0.875 26:0.4375 27:1 28:0.4375 34:0.5625 35:1 36:0.125 42:0.75 43:1 44:0.25 50:0.5 51:1 52:1 53:0.5 59:0.375 60:0.9375 61:0.9375 # 0
1 3:0.4375 4:0.6875 11:1 12:0.625 18:0.25 19:1 26:0.25 27:0.75 34:0.5 35:0.75 36:0.75 37:0.6875 38:0.14285715 42:0.5 43:1 44:0.75 45:0.5 46:0.75 50:0.1875 51:1 52:0.3125 53:0.5 54:0.9375 55:0.2 59:0.5625 60:1 61:0.875 62:0.3125 # 0
1 4:0.6875 5:0.5 11:0.125 12:1 13:0.5 19:0.375 20:1 21:0.125 27:0.4375 28:0.9375 35:0.625 36:0.875 42:0.8125 43:1 44:1 45:0.6875 50:0.4375 51:0.4375 52:1 53:1 54:0.625 60:0.5 61:1 62:0.9375 # 0
-0.31250412527173665466762031428516 2:0.25 3:0.6875 4:0.875 5:0.4375 10:0.9375 11:0.75 12:1 13:0.1875 18:0.5 19:1 20:0.625 26:0.5625 27:1 28:0.4375 33:0.21428572 34:0.9375 35:0.25 36:0.875 37:0.25 41:0.125 42:0.8125 44:0.1875 45:0.9375 46:0.375 50:0.5 51:0.5625 52:0.25 53:0.5 54:0.875 59:0.4375 60:0.75 61:0.75 62:0.5 # 0
-0.6595847110188377548922744608717 2:0.25 3:0.8125 4:0.875 5:0.1875 10:0.875 11:0.4375 12:0.25 13:0.875 17:0.1875 18:0.625 21:0.5 22:0.1875 25:0.5 26:0.25 29:0.25 30:0.5 33:0.35714287 34:0.75 37:0.125 38:0.5714286 42:0.9375 43:0.0625 45:0.25 46:0.4375 50:0.625 51:0.5 52:0.0625 53:0.75 54:0.375 58:0.125 59:0.75 60:1 61:0.9375 # 0
1 2:0.0625 3:0.6875 4:0.6875 5:0.0625 10:0.5625 11:1 12:0.9375 13:0.1875 17:0.0625 18:0.9375 19:0.375 25:0.3125 26:0.875 33:0.5 34:0.6875 36:0.0625 37:0.125 41:0.25 42:0.875 43:0.3125 44:0.9375 45:1 46:0.4375 49:0.0625 50:0.75 51:1 52:1 53:0.75 54:0.9375 58:0.125 59:0.6875 60:1 61:0.875 62:0.5625 # 0
-0.13722679927399927812814439676004 3:0.75 4:0.5 11:1 12:0.5 18:0.625 19:1 20:0.1875 25:0.4375 26:1 27:0.75 28:0.75 29:0.25 33:0.5714286 34:1 35:1 36:1 37:1 38:0.64285713 41:0.0625 42:0.5625 43:0.9375 44:1 45:0.625 46:0.375 51:0.75 52:0.8125 59:0.875 60:0.75 # 0
1 3:0.6875 4:0.9375 5:0.25 10:0.25 11:1 12:0.875 13:0.125 18:0.6875 19:1 20:0.1875 26:0.875 27:0.8125 33:0.071428575 34:1 35:0.75 36:0.1875 41:0.125 42:1 43:1 44:1 45:0.375 50:0.6875 51:1 52:1 53:0.9375 59:0.5 60:1 61:0.9375 62:0.0625 # 0
-0.19008368072628933909129500534618 1:0.125 2:0.3125 3:0.6875 4:0.8125 5:0.3125 9:0.66666669 10:1 11:1 12:0.9375 13:0.1875 17:0.625 18:0.8125 25:0.625 26:0.875 27:0.5 28:0.5 29:0.1875 33:0.14285715 34:0.75 35:0.8125 36:0.8125 37:1 38:0.35714287 45:0.6875 46:0.875 50:0.125 51:0.6875 52:0.5 53:0.875 54:0.9375 58:0.125 59:0.6875 60:1 61:0.875 62:0.375 # 0
0.24568949972290121674944884944125 2:0.25 3:0.9375 4:0.1875 10:0.5 11:1 12:0.0625 18:0.875 19:0.8125 25:0.1875 26:1 27:0.625 28:0.25 29:0.1875 33:0.5714286 34:1 35:1 36:1 37:1 38:0.35714287 41:0.5 42:1 43:0.375 44:0.25 45:0.875 46:0.5 49:0.3125 50:1 51:0.6875 52:0.5 53:1 54:0.3125 58:0.375 59:0.9375 60:1 61:0.6875 # 0
-0.065318302273016826120510813780129 2:0.4375 3:0.8125 4:0.9375 5:0.1875 9:0.2 10:1 11:0.25 12:0.5 13:0.25 17:0.0625 18:1 19:0.1875 20:0.625 26:0.5 27:1 28:0.375 34:0.375 35:0.6875 36:0.6875 37:0.625 38:0.071428575 41:0.0625 42:0.8125 43:0.1875 45:0.5625 46:0.375 49:0.125 50:0.875 51:0.0625 53:0.5625 54:0.1875 58:0.25 59:0.8125 60:0.875 61:0.5625 # 0
1 3:0.5 4:0.875 5:0.1875 10:0.0625 11:1 12:0.9375 13:0.4375 18:0.4375 19:0.9375 20:0.3125 25:0.1875 26:0.875 27:0.875 28:0.3125 33:0.21428572 34:1 35:0.625 36:0.75 37:0.625 42:0.6875 43:0.3125 45:0.875 46:0.125 50:0.1875 51:0.6875 52:0.375 53:0.875 54:0.0625 59:0.4375 60:0.9375 61:0.375 # 0
1 3:0.625 4:1 5:0.625 10:0.5625 11:1 12:0.75 13:0.5 17:0.0625 18:0.9375 19:0.8125 20:0.0625 25:0.125 26:1 27:0.3125 33:0.14285715 34:1 35:0.5 41:0.125 42:1 43:1 44:0.5625 49:0.0625 50:0.75 51:1 52:1 53:0.1875 59:0.75 60:1 61:0.4375 # 0
-0.051219075298286842468087343149818 2:0.0625 3:0.75 4:0.9375 5:0.125 10:0.6875 11:0.8125 12:0.5 13:0.625 17:0.25 18:1 19:0.8125 20:0.0625 21:0.625 25:0.5 26:0.9375 27:0.1875 29:0.375 30:0.1875 33:0.5714286 34:0.75 37:0.5 38:0.35714287 41:0.125 42:1 43:0.5 45:0.5 46:0.5 50:0.625 51:0.6875 52:0.4375 53:0.9375 54:0.25 59:0.8125 60:0.9375 61:0.375 # 0
-1 3:0.4375 4:0.75 11:0.6875 12:0.6875 18:0.125 19:1 20:0.1875 26:0.5625 27:0.75 28:0.5625 29:0.1875 33:0.071428575 34:0.9375 35:0.4375 36:1 37:0.4375 41:0.5625 42:1 43:0.875 44:1 45:1 46:0.5 49:0.5 50:0.75 51:0.875 52:1 53:0.75 54:0.3125 59:0.4375 60:0.9375 # 0
-1 3:0.625 4:0.5625 10:0.0625 11:0.9375 12:0.4375 18:0.6875 19:0.8125 25:0.0625 26:1 27:0.4375 33:0.5 34:1 35:0.375 36:0.4375 37:0.9375 38:0.21428572 41:0.375 42:1 43:1 44:1 45:0.9375 46:0.125 51:0.5 52:1 53:0.25 59:0.5625 60:0.75 # 0
1 2:0.1875 3:0.5625 4:0.5 10:0.9375 11:0.5625 12:0.0625 17:0.25 18:1 19:0.5 20:0.125 25:0.3125 26:1 27:0.75 28:0.75 29:0.6875 30:0.0625 33:0.2857143 34:0.75 37:0.3125 38:0.71428573 41:0.0625 42:0.875 43:0.1875 45:0.0625 46:0.875 47:0.25 50:0.625 51:0.375 52:0.3125 53:0.875 54:0.8125 58:0.25 59:0.8125 60:0.875 61:0.5 # 0
-0.70132290698498489511791831318988 2:0.1875 3:0.8125 4:0.625 10:0.6875 11:0.6875 12:0.6875 13:0.3125 17:0.125 18:1 19:0.375 21:0.625 22:0.0625 25:0.125 26:0.875 27:0.0625 29:0.375 30:0.3125 33:0.21428572 34:0.6875 37:0.125 38:0.64285713 41:0.125 42:0.875 45:0.25 46:0.5625 50:0.75 51:0.5625 52:0.4375 53:0.75 54:0.5625 58:0.125 59:0.6875 60:0.9375 61:0.75 62:0.25 # 0
-1 2:0.75 3:0.4375 9:0.2 10:1 11:1 12:0.1875 17:0.4375 18:0.6875 19:0.5 20:0.375 25:0.1875 26:0.875 27:0.4375 28:0.5 35:0.875 36:0.1875 42:0.25 43:0.9375 49:0.125 50:0.9375 51:1 52:1 53:0.8125 54:0.5625 58:0.75 59:1 60:1 61:1 62:0.4375 # 0
-1 3:0.5625 4:0.8125 5:0.0625 10:0.1875 11:0.9375 12:0.375 13:0.75 17:0.0625 18:0.625 19:0.5625 21:0.625 22:0.1875 25:0.25 26:1 27:0.3125 29:0.3125 30:0.4375 33:0.35714287 34:1 35:0.1875 37:0.375 38:0.5714286 42:1 43:0.3125 45:0.375 46:0.5625 50:0.5 51:0.875 52:0.4375 53:0.9375 54:0.1875 59:0.625 60:1 61:0.5625 # 0
-1 2:0.25 3:0.6875 4:0.875 5:0.75 6:0.125 10:0.6875 11:0.75 12:0.25 13:0.5 17:0.0625 18:1 19:0.375 25:0.1875 26:1 27:0.5 28:0.4375 29:0.125 33:0.35714287 34:1 35:1 36:1 37:0.9375 38:0.14285715 42:0.1875 44:0.0625 45:0.9375 46:0.375 50:0.1875 51:0.5 52:0.5625 53:0.9375 54:0.5625 58:0.4375 59:1 60:0.75 61:0.625 62:0.125 # 0
1 3:0.8125 4:0.875 10:0.3125 11:1 12:0.4375 18:0.5 19:0.8125 26:0.75 27:0.6875 33:0.071428575 34:1 35:1 36:0.875 37:0.125 42:0.625 43:0.6875 44:0.625 45:0.875 50:0.4375 51:0.8125 52:0.5625 53:0.9375 58:0.0625 59:0.6875 60:0.9375 61:0.5 # 0
-0.57266790136469192251666981974267 3:0.25 4:0.875 11:0.75 12:0.75 18:0.0625 19:1 20:0.5625 26:0.625 27:1 28:0.4375 29:0.8125 33:0.21428572 34:1 35:0.5625 36:0.5625 37:1 41:0.875 42:1 43:0.8125 44:0.9375 45:1 46:0.3125 49:0.3125 50:0.8125 51:0.875 52:1 53:0.9375 54:0.1875 59:0.1875 60:1 61:0.625 # 0
1 2:0.3125 3:0.875 4:0.25 10:0.75 11:0.75 18:1 19:0.5625 25:0.5 26:1 33:0.5714286 34:1 35:0.8125 36:1 37:0.5625 38:0.071428575 41:0.6875 42:1 43:0.875 44:0.625 45:1 46:0.125 49:0.4375 50:1 51:0.875 52:0.75 53:0.9375 54:0.0625 57:0.1 58:0.5625 59:0.8125 60:0.625 61:0.1875 # 0
-1 2:0.125 3:0.625 4:0.8125 5:0.3125 10:0.8125 11:0.9375 12:0.6875 13:0.0625 18:0.875 19:0.25 25:0.375 26:0.875 33:0.42857143 34:1 35:1 36:1 37:1 38:0.14285715 41:0.0625 42:0.25 43:0.25 44:0.0625 45:0.9375 46:0.125 51:0.4375 52:0.625 53:1 58:0.0625 59:1 60:0.9375 61:0.4375 # 0
-0.97691984142384358236199659586418 2:0.0625 3:0.375 4:0.75 5:0.875 6:0.25 10:0.25 11:0.8125 12:0.5 13:0.1875 18:0.8125 19:0.25 25:0.1875 26:0.9375 27:0.3125 28:0.125 33:0.5714286 34:1 35:1 36:1 37:0.75 41:0.125 42:0.25 43:0.1875 44:0.4375 45:0.9375 46:0.1875 51:0.125 52:0.4375 53:0.875 54:0.0625 59:0.5 60:0.75 61:0.25 # 0
1 3:0.375 4:1 5:0.625 10:0.1875 11:0.9375 12:0.9375 13:0.25 18:0.3125 19:1 20:0.5 26:0.625 27:1 28:0.25 34:0.625 35:1 36:0.5 37:0.0625 41:0.0625 42:0.9375 43:1 44:1 45:0.9375 46:0.125 49:0.0625 50:0.8125 51:1 52:0.9375 53:1 54:0.4375 59:0.3125 60:0.9375 61:0.9375 62:0.3125 # 0
-1 3:0.0625 4:0.75 5:0.5 11:0.25 12:1 13:0.25 19:0.5625 20:1 21:0.0625 26:0.3125 27:1 28:0.5 29:0.0625 34:0.625 35:1 36:0.6875 37:0.9375 41:0.3125 42:1 43:0.6875 44:0.9375 45:0.9375 46:0.1875 49:0.75 50:1 51:1 52:1 53:1 54:0.3125 60:0.9375 61:0.875 # 0
0.54122216426718250392724485209328 2:0.875 3:0.1875 9:0.40000001 10:1 11:0.125 17:0.5 18:1 25:0.5 26:1 27:0.25 28:0.1875 33:0.5714286 34:1 35:1 36:1 37:0.875 38:0.071428575 41:0.5 42:1 43:0.3125 44:0.3125 45:1 46:0.5 49:0.25 50:1 51:0.125 52:0.4375 53:1 54:0.125 58:0.75 59:1 60:0.9375 61:0.4375 # 0
1 2:0.625 3:0.0625 10:1 17:0.1875 18:0.8125 25:0.3125 26:0.75 27:0.0625 28:0.25 29:0.125 33:0.5714286 34:0.875 35:0.9375 36:1 37:0.9375 38:0.2857143 41:0.5 42:0.9375 43:0.3125 44:0.3125 45:0.875 46:0.5 49:0.5 50:0.875 51:0.25 52:0.625 53:1 54:0.25 57:0.1 58:0.75 59:0.9375 60:0.625 61:0.125 # 0
-1 2:0.125 3:0.6875 4:0.875 5:0.3125 9:0.06666667 10:0.875 11:0.8125 12:0.8125 13:0.5 17:0.3125 18:1 20:0.0625 21:0.0625 25:0.1875 26:1 27:0.375 28:0.75 29:1 30:0.3125 34:0.5625 35:1 36:1 37:0.5 38:0.14285715 41:0.125 42:0.875 43:0.75 44:0.75 45:0.8125 46:0.0625 49:0.125 50:0.9375 51:0.4375 52:0.125 53:0.875 54:0.4375 58:0.1875 59:0.8125 60:0.875 61:0.75 62:0.0625 # 0
-0.48538416645953619266151690680999 2:0.375 3:0.6875 4:0.25 10:0.75 11:1 12:0.875 18:0.75 19:1 20:0.375 21:0.0625 26:0.3125 27:1 28:1 29:0.3125 34:0.75 35:1 36:1 37:0.25 42:0.75 43:1 44:1 45:0.5625 50:0.8125 51:1 52:1 53:0.75 58:0.5 59:0.75 60:0.6875 61:0.375 # 0
0.23578105433384299871590883412864 3:0.125 4:0.875 10:0.0625 11:0.8125 12:0.875 13:0.0625 18:0.3125 19:1 20:0.25 26:0.6875 27:0.5 34:0.75 35:0.5 36:0.0625 42:0.5 43:1 44:1 45:0.875 46:0.3125 50:0.25 51:1 52:0.25 53:0.5 54:1 55:0.30000001 59:0.25 60:0.6875 61:0.9375 62:0.875 63:0.40000001 # 0
1 2:0.1875 3:0.6875 4:1 5:0.3125 10:0.75 11:0.9375 12:0.75 13:0.4375 18:0.9375 19:0.375 26:1 27:0.9375 28:0.6875 29:0.0625 34:0.9375 35:0.9375 36:0.875 37:0.5625 42:0.9375 43:0.375 44:0.125 45:1 46:0.125 50:0.75 51:0.75 52:0.75 53:1 54:0.3125 58:0.1875 59:0.8125 60:0.9375 61:0.5625 # 0
0.11661354384483496593460927215347 2:0.0625 3:0.75 4:1 5:0.3125 10:0.5625 11:1 12:0.5625 13:0.125 17:0.1875 18:1 19:0.375 25:0.375 26:1 27:0.5 28:0.0625 33:0.71428573 34:1 35:0.6875 36:0.8125 37:0.1875 41:0.25 42:1 43:0.0625 44:0.5625 45:0.8125 46:0.0625 50:0.5625 51:0.6875 52:0.5625 53:1 54:0.0625 58:0.0625 59:0.75 60:1 61:0.75 # 0
-1 3:0.75 4:0.875 5:0.125 10:0.375 11:0.9375 12:1 13:0.25 18:0.8125 19:1 20:0.75 25:0.0625 26:0.875 27:1 28:0.5 33:0.071428575 34:0.9375 35:1 36:0.125 41:0.0625 42:0.9375 43:1 44:0.25 50:0.625 51:1 52:0.6875 53:0.25 59:0.6875 60:0.8125 61:0.3125 # 0
0.053438806851794140584388514980674 2:0.1875 3:0.8125 4:0.875 5:0.0625 10:0.5 11:0.9375 12:0.4375 13:0.125 18:0.625 19:0.75 20:0.125 26:0.8125 27:1 28:1 29:0.625 30:0.0625 34:0.9375 35:0.875 36:0.6875 37:0.625 38:0.71428573 42:0.8125 43:0.3125 45:0.375 46:0.875 50:0.5 51:0.75 52:0.5 53:0.75 54:0.625 58:0.0625 59:0.625 60:0.75 61:0.75 62:0.25 # 0
1 2:0.4375 3:0.6875 10:0.875 11:0.8125 17:0.1875 18:1 19:0.625 20:0.1875 25:0.1875 26:1 27:1 28:1 29:0.6875 33:0.42857143 34:1 35:1 36:1 37:1 38:0.071428575 41:0.25 42:1 43:0.375 44:0.0625 45:1 46:0.5625 49:0.125 50:0.9375 51:0.875 52:0.875 53:1 54:0.1875 58:0.3125 59:1 60:0.875 61:0.375 # 0
-0.29252967999175627511476704967208 3:0.625 4:0.75 5:0.25 10:0.4375 11:0.75 12:0.375 13:0.8125 18:0.4375 19:0.5625 20:0.125 21:0.8125 26:0.0625 27:0.9375 28:0.9375 29:0.375 34:0.4375 35:0.9375 36:0.6875 37:0.5625 42:1 43:0.0625 45:0.625 46:0.5625 50:0.8125 51:0.3125 54:0.9375 58:0.0625 59:0.5625 60:0.875 61:0.875 62:0.75 # 0
-1 3:0.625 4:1 5:0.375 10:0.25 11:1 12:1 13:0.25 18:0.875 19:1 20:1 21:0.25 26:1 27:1 28:1 29:0.5 34:1 35:1 36:1 37:0.5 42:0.9375 43:1 44:1 45:0.875 46:0.1875 50:0.625 51:1 52:1 53:1 54:0.5 58:0.0625 59:0.75 60:0.75 61:0.9375 62:0.4375 # 0
-0.91249732593595433982613940315787 1:0.125 2:0.75 3:0.875 4:0.0625 9:0.66666669 10:1 11:1 12:0.25 17:0.5 18:0.6875 19:1 26:0.375 27:0.8125 34:0.6875 35:0.6875 42:1 43:0.5 49:0.25 50:1 51:0.9375 52:1 53:1 54:0.5625 57:0.1 58:1 59:1 60:1 61:0.875 62:0.5 # 0
0.75781590212641791737269159057178 3:0.5 4:0.9375 5:0.0625 10:0.0625 11:0.9375 12:0.9375 13:0.0625 18:0.5 19:1 20:0.3125 26:0.75 27:0.9375 28:0.0625 34:0.9375 35:0.4375 42:0.875 43:0.875 44:0.75 45:0.4375 50:0.5 51:1 52:0.75 53:1 54:0.4375 59:0.4375 60:0.9375 61:1 62:0.8125 # 0
-0.86820947469970022325469471979886 3:0.875 4:0.875 10:0.3125 11:1 12:0.75 18:0.4375 19:1 20:0.375 26:0.75 27:1 28:0.25 34:0.75 35:1 36:0.0625 42:0.75 43:1 50:0.5625 51:1 52:0.25 58:0.0625 59:0.8125 60:0.9375 61:0.125 # 0
-0.5636561308851577578593605721835 3:0.0625 4:0.9375 5:0.625 11:0.5625 12:1 13:0.25 18:0.0625 19:0.9375 20:0.75 26:0.5625 27:1 28:0.1875 33:0.071428575 34:0.9375 35:0.625 37:0.9375 38:0.78571427 41:0.5 42:1 43:1 44:1 45:1 46:0.5 50:0.25 51:0.5 52:1 53:0.75 59:0.25 60:1 61:0.4375 # 0
0.38187678239113043154873139428673 2:0.8125 3:0.8125 9:0.40000001 10:1 11:0.4375 17:0.625 18:0.8125 25:0.5 26:1 27:0.8125 28:1 29:0.625 33:0.5714286 34:1 35:0.875 36:0.5625 37:0.9375 38:0.42857143 41:0.3125 42:1 43:0.375 45:0.125 46:0.9375 49:0.4375 50:1 51:0.75 53:0.1875 54:0.9375 57:0.1 58:0.375 59:0.8125 60:1 61:1 62:0.5 # 0
-0.056115628425297714443331642542034 3:0.25 4:0.75 5:0.6875 6:0.0625 10:0.75 11:0.9375 12:0.625 13:0.8125 14:0.25 17:0.5 18:0.625 20:0.1875 21:0.9375 22:0.0625 25:0.1875 26:0.875 27:0.3125 28:0.9375 29:0.375 34:0.8125 35:1 36:0.6875 41:0.1875 42:0.9375 43:0.375 44:0.6875 45:0.75 46:0.1875 49:0.0625 50:0.875 51:0.625 52:0.125 53:0.625 54:0.625 58:0.0625 59:0.375 60:0.6875 61:1 62:0.375 # 0
0.19726095717632041726119496161118 2:0.75 3:0.75 9:0.06666667 10:0.9375 11:0.6875 17:0.375 18:1 19:0.1875 25:0.375 26:1 27:0.0625 33:0.78571427 34:0.8125 35:0.1875 36:0.875 37:0.9375 38:0.21428572 41:0.5625 42:0.9375 43:1 44:0.8125 45:0.8125 46:0.9375 49:0.3125 50:1 51:0.4375 52:0.0625 53:0.6875 54:0.9375 57:0.1 58:0.6875 59:1 60:1 61:0.9375 62:0.375 # 0
-0.00063947056525393008996616117656231 2:0.125 3:0.8125 4:0.9375 5:0.0625 9:0.13333334 10:0.8125 11:0.9375 12:0.3125 13:0.5625 17:0.4375 18:0.9375 19:0.125 21:0.5 25:0.5 26:0.9375 29:0.3125 30:0.25 33:0.5 34:1 37:0.5625 38:0.42857143 42:0.875 43:0.4375 45:0.8125 46:0.4375 50:0.625 51:0.9375 52:0.875 53:0.875 59:0.875 60:0.875 61:0.3125 # 0
