SVM-light Version V6.02
1 # kernel type
8 # kernel parameter -d 
1 # kernel parameter -g 
1 # kernel parameter -s 
1 # kernel parameter -r 
empty# kernel parameter -u 
63 # highest feature index 
2823 # number of training documents 
134 # number of support vectors plus 1 
0.73515885 # threshold b, each following line is a SV (starting with alpha*y)
-1.7816165876538225519422855270776e-10 3:0.4375 4:0.9375 5:0.375 10:0.625 11:0.8125 12:0.875 13:0.8125 17:0.125 18:0.8125 20:0.75 21:0.375 26:0.125 27:0.1875 28:0.75 29:0.0625 34:0.0625 35:0.9375 36:0.1875 41:0.125 42:0.8125 43:0.5 49:0.625 50:1 51:0.875 52:0.75 53:0.5 57:0.2 58:0.25 59:0.4375 60:0.5625 61:0.875 # 0
-1.3302929780880792920349588061827e-11 2:0.3125 3:0.8125 4:0.75 5:0.0625 9:0.13333334 10:0.9375 11:0.3125 12:0.375 13:0.4375 17:0.375 18:0.5625 21:1 22:0.25 25:0.375 26:0.625 29:0.875 30:0.375 34:0.5625 35:0.8125 36:0.875 37:0.75 38:0.64285713 46:0.75 50:0.1875 53:0.1875 54:0.875 58:0.3125 59:0.75 60:0.8125 61:0.875 62:0.3125 # 0
-1.6761418751331338325866788751509e-09 2:0.25 3:0.875 4:1 5:0.4375 9:0.06666667 10:1 11:0.875 12:0.5 13:0.3125 17:0.5 18:0.625 25:0.1875 26:0.8125 34:0.75 35:0.375 42:0.25 43:0.8125 51:1 52:0.3125 58:0.4375 59:1 60:0.25 # 0
-7.3961384965794569979605928335413e-11 2:0.75 3:1 4:0.375 9:0.46666667 10:0.75 11:0.25 12:0.875 17:0.6875 18:0.875 20:0.375 21:0.25 25:0.375 26:0.5 28:0.4375 29:0.25 36:0.625 37:0.1875 43:0.3125 44:0.8125 50:0.1875 51:0.875 52:0.625 58:0.875 59:0.8125 60:0.75 61:0.9375 62:0.8125 63:0.06666667 # 0
-5.6738633001318828913557024772149e-10 2:0.125 3:0.625 4:0.4375 9:0.2 10:1 11:0.6875 12:0.5 13:0.375 17:0.25 18:0.8125 21:0.5 25:0.25 26:1 27:0.5625 28:0.6875 29:0.6875 34:0.625 35:1 36:1 37:0.9375 38:0.14285715 42:0.25 43:1 44:0.25 45:0.1875 46:0.5 50:0.5 51:0.5625 53:0.125 54:0.5625 58:0.1875 59:0.6875 60:0.5 61:0.5 62:0.25 # 0
3.1385301570278370817023104105757e-10 2:0.0625 3:0.6875 4:0.5 10:0.5 11:0.9375 12:0.1875 17:0.0625 18:0.9375 19:0.25 25:0.25 26:1 27:0.5 28:0.9375 29:0.875 30:0.1875 33:0.2857143 34:0.875 35:0.6875 36:0.4375 37:0.3125 38:0.71428573 41:0.0625 42:0.8125 45:0.0625 46:0.8125 50:0.6875 51:0.3125 53:0.5625 54:0.8125 58:0.125 59:0.6875 60:1 61:0.75 62:0.0625 # 0
-3.1074646000345599761337391943165e-10 2:0.3125 3:0.75 4:0.9375 5:0.875 6:0.625 7:0.1875 10:0.25 11:0.4375 12:0.25 13:0.3125 14:0.875 15:0.23076923 21:0.5625 22:0.6875 28:0.25 29:1 30:0.25 33:0.14285715 34:0.5 35:0.5625 36:1 37:0.625 41:0.1875 42:0.75 43:1 44:0.5625 50:0.3125 51:0.875 58:0.375 59:0.5625 # 0
4.4883376559258056972109961252533e-10 1:0.125 2:0.8125 3:0.3125 9:0.26666668 10:0.875 17:0.25 18:0.5 20:0.0625 21:0.375 22:0.0625 25:0.3125 26:0.5 27:0.0625 28:0.6875 29:1 30:0.3125 33:0.2857143 34:0.625 35:0.4375 36:1 37:1 38:0.5 41:0.25 42:0.875 43:0.625 44:1 45:1 46:0.1875 49:0.0625 50:1 51:1 52:1 53:0.625 58:0.625 59:0.875 60:0.5625 61:0.125 # 0
3.7772271803377072844792131529326e-10 2:0.5 3:0.25 10:0.9375 11:0.1875 17:0.125 18:0.8125 25:0.25 26:0.875 27:0.6875 28:0.5625 29:0.0625 33:0.2857143 34:0.5625 35:0.8125 36:1 37:0.875 38:0.071428575 41:0.125 42:0.75 45:0.5625 46:0.6875 50:1 51:0.5 52:0.3125 53:0.8125 54:0.6875 58:0.25 59:0.9375 60:1 61:0.75 62:0.0625 # 0
1.2312876914013047995032880605523e-09 4:0.6875 5:0.5 11:0.125 12:1 13:0.5 19:0.375 20:1 21:0.125 27:0.4375 28:0.9375 35:0.625 36:0.875 42:0.8125 43:1 44:1 45:0.6875 50:0.4375 51:0.4375 52:1 53:1 54:0.625 60:0.5 61:1 62:0.9375 # 0
2.4349382905823652427088199111556e-10 3:0.375 4:0.8125 11:0.8125 12:0.5625 18:0.0625 19:1 20:0.1875 26:0.1875 27:0.9375 34:0.375 35:0.875 36:0.5 37:0.4375 38:0.071428575 42:0.4375 43:1 44:0.75 45:0.75 46:0.8125 47:0.5 50:0.25 51:1 52:0.1875 53:0.1875 54:0.8125 55:0.69999999 59:0.4375 60:1 61:1 62:0.6875 63:0.06666667 # 0
3.7999857465932795142628520233558e-09 3:0.5 4:0.9375 5:0.125 11:0.8125 12:1 13:0.1875 18:0.25 19:1 20:0.875 26:0.4375 27:1 28:0.4375 34:0.5625 35:1 36:0.125 42:0.75 43:1 44:0.25 50:0.5 51:1 52:1 53:0.5 59:0.375 60:0.9375 61:0.9375 # 0
-6.4433906580459273138708169154218e-10 2:0.875 3:0.3125 10:0.8125 11:0.5 18:1 19:0.4375 26:0.9375 27:0.5 33:0.14285715 34:1 35:0.3125 36:0.9375 37:0.1875 41:0.125 42:1 43:0.5625 44:0.875 45:0.6875 46:0.0625 49:0.375 50:1 51:1 52:1 53:1 54:0.9375 57:0.1 58:0.5 59:0.3125 60:0.4375 61:1 62:0.5 # 0
-6.9737282678479301612198394069736e-11 1:0.625 2:1 3:0.3125 9:0.60000002 10:1 11:0.875 17:0.75 18:0.875 19:0.875 25:0.4375 26:0.8125 27:0.75 34:0.6875 35:0.5 37:0.1875 38:0.071428575 42:1 43:0.5 44:0.4375 45:0.875 46:0.6875 49:0.5 50:1 51:1 52:1 53:1 54:0.6875 57:0.60000002 58:1 59:1 60:0.6875 61:0.375 62:0.0625 # 0
-1.1740200206297975662903596237574e-10 2:0.3125 3:0.6875 4:0.9375 5:0.3125 9:0.40000001 10:0.8125 11:0.125 12:0.1875 13:0.9375 14:0.1875 17:0.4375 18:0.8125 19:0.5 20:0.6875 21:1 22:0.5 25:0.0625 26:0.5625 27:0.75 28:0.5 29:0.5 30:0.5 36:0.0625 37:0.8125 38:0.2857143 44:0.5625 45:0.75 51:0.5 52:0.8125 58:0.4375 59:0.625 60:0.0625 # 0
1.0423012755467364017109430776912e-09 2:0.0625 3:0.6875 4:0.375 10:0.4375 11:0.8125 12:0.125 18:0.8125 19:0.375 25:0.0625 26:0.8125 27:0.0625 33:0.071428575 34:0.75 36:0.25 37:0.1875 41:0.0625 42:0.6875 43:0.6875 44:0.875 45:0.875 46:0.625 50:0.75 51:0.9375 52:0.3125 53:0.25 54:0.9375 55:0.30000001 58:0.0625 59:0.8125 60:1 61:0.75 62:0.5625 63:0.06666667 # 0
3.3528936074973436969388561302522e-09 3:0.5 4:0.875 5:0.1875 10:0.0625 11:1 12:0.9375 13:0.4375 18:0.4375 19:0.9375 20:0.3125 25:0.1875 26:0.875 27:0.875 28:0.3125 33:0.21428572 34:1 35:0.625 36:0.75 37:0.625 42:0.6875 43:0.3125 45:0.875 46:0.125 50:0.1875 51:0.6875 52:0.375 53:0.875 54:0.0625 59:0.4375 60:0.9375 61:0.375 # 0
7.510723669281485591055424832314e-10 3:0.8125 4:0.875 10:0.3125 11:1 12:0.4375 18:0.5 19:0.8125 26:0.75 27:0.6875 33:0.071428575 34:1 35:1 36:0.875 37:0.125 42:0.625 43:0.6875 44:0.625 45:0.875 50:0.4375 51:0.8125 52:0.5625 53:0.9375 58:0.0625 59:0.6875 60:0.9375 61:0.5 # 0
-5.0827117486729697123324884318243e-10 2:0.125 3:0.625 4:0.8125 5:0.3125 10:0.8125 11:0.9375 12:0.6875 13:0.0625 18:0.875 19:0.25 25:0.375 26:0.875 33:0.42857143 34:1 35:1 36:1 37:1 38:0.14285715 41:0.0625 42:0.25 43:0.25 44:0.0625 45:0.9375 46:0.125 51:0.4375 52:0.625 53:1 58:0.0625 59:1 60:0.9375 61:0.4375 # 0
-1.4617569488050965933046265089219e-10 3:0.0625 4:0.75 5:0.5 11:0.25 12:1 13:0.25 19:0.5625 20:1 21:0.0625 26:0.3125 27:1 28:0.5 29:0.0625 34:0.625 35:1 36:0.6875 37:0.9375 41:0.3125 42:1 43:0.6875 44:0.9375 45:0.9375 46:0.1875 49:0.75 50:1 51:1 52:1 53:1 54:0.3125 60:0.9375 61:0.875 # 0
-4.0450219437987154123429501406542e-10 2:0.125 3:0.4375 4:0.75 5:0.5 10:0.6875 11:1 12:1 13:0.375 18:0.375 19:0.75 26:0.8125 27:0.5 28:0.25 34:0.875 35:1 36:1 37:0.875 38:0.071428575 42:0.1875 43:0.5 44:0.5625 45:1 46:0.125 51:0.5625 52:0.625 53:0.875 59:0.8125 60:0.8125 61:0.25 # 0
1.3944595707130825327269229329846e-09 3:0.4375 4:0.75 5:0.125 10:0.3125 11:0.875 12:0.5625 13:0.1875 18:1 19:0.5 25:0.1875 26:0.8125 33:0.2857143 34:0.5625 35:0.75 36:0.875 37:0.4375 41:0.0625 42:0.6875 43:0.75 44:0.5 45:0.4375 46:0.6875 47:0.25 50:0.25 51:0.625 52:0.125 54:0.6875 55:0.5 59:0.375 60:0.8125 61:0.875 62:0.875 63:0.06666667 # 0
-3.9903805612046446738211501594016e-09 3:0.6875 4:0.75 5:0.0625 10:0.125 11:0.875 12:1 13:0.1875 18:0.3125 19:1 20:0.6875 26:0.4375 27:1 28:0.5 34:0.375 35:1 36:0.5 42:0.625 43:1 44:0.4375 50:0.4375 51:1 52:0.5625 53:0.25 59:0.625 60:1 61:0.75 62:0.0625 # 0
-3.7828443553603518255431937214884e-10 3:0.5625 4:0.9375 10:0.3125 11:1 12:0.75 18:0.8125 19:0.9375 20:0.125 25:0.3125 26:1 27:0.5 33:0.78571427 34:1 35:0.125 36:0.125 37:0.5 38:0.21428572 41:0.8125 42:1 43:0.875 44:0.9375 45:1 46:0.375 49:0.1875 50:0.9375 51:1 52:1 53:0.75 58:0.125 59:0.75 60:1 61:0.3125 # 0
2.6246735071393614994079051099775e-11 3:0.4375 4:0.6875 11:1 12:0.625 18:0.25 19:1 26:0.25 27:0.75 34:0.5 35:0.75 36:0.75 37:0.6875 38:0.14285715 42:0.5 43:1 44:0.75 45:0.5 46:0.75 50:0.1875 51:1 52:0.3125 53:0.5 54:0.9375 55:0.2 59:0.5625 60:1 61:0.875 62:0.3125 # 0
-1.1985726762641621935302428402805e-10 1:0.125 2:0.5625 3:0.9375 4:0.125 9:0.66666669 10:0.875 11:0.875 12:0.4375 17:0.3125 18:0.1875 19:0.625 20:0.5 27:0.875 28:0.25 34:0.125 35:1 42:0.625 43:0.75 44:0.0625 49:0.125 50:1 51:1 52:1 53:0.875 54:0.5 58:0.4375 59:0.5625 60:0.875 61:1 62:0.4375 # 0
-4.904192143479899431490624103964e-10 3:0.375 4:0.9375 5:0.375 11:0.75 12:0.625 13:0.8125 19:0.6875 20:0.9375 21:0.875 26:0.5625 27:0.6875 28:0.875 33:0.2857143 34:0.6875 36:0.625 37:0.375 41:0.1875 42:0.5625 44:0.0625 45:0.875 46:0.0625 50:0.6875 51:0.5 52:0.125 53:0.5625 54:0.4375 59:0.375 60:0.75 61:0.8125 62:0.4375 # 0
9.8194319752424657488213407348279e-10 3:0.625 4:1 5:0.625 10:0.5625 11:1 12:0.75 13:0.5 17:0.0625 18:0.9375 19:0.8125 20:0.0625 25:0.125 26:1 27:0.3125 33:0.14285715 34:1 35:0.5 41:0.125 42:1 43:1 44:0.5625 49:0.0625 50:0.75 51:1 52:1 53:0.1875 59:0.75 60:1 61:0.4375 # 0
-9.9430643476792702745109357991699e-10 3:0.75 4:0.875 5:0.125 10:0.375 11:0.9375 12:1 13:0.25 18:0.8125 19:1 20:0.75 25:0.0625 26:0.875 27:1 28:0.5 33:0.071428575 34:0.9375 35:1 36:0.125 41:0.0625 42:0.9375 43:1 44:0.25 50:0.625 51:1 52:0.6875 53:0.25 59:0.6875 60:0.8125 61:0.3125 # 0
7.6127137562669444085314012845439e-11 3:0.0625 4:0.75 5:0.25 11:0.5625 12:0.875 18:0.125 19:1 20:0.3125 26:0.3125 27:1 28:0.5625 29:0.125 33:0.14285715 34:1 35:1 36:0.8125 37:1 38:0.5714286 42:0.5625 43:0.9375 45:0.125 46:0.9375 51:0.9375 52:0.5 53:0.5 54:1 55:0.30000001 59:0.1875 60:0.6875 61:0.8125 62:0.625 # 0
2.0815813529171402955806776232045e-10 3:0.125 4:0.875 10:0.0625 11:0.8125 12:0.875 13:0.0625 18:0.3125 19:1 20:0.25 26:0.6875 27:0.5 34:0.75 35:0.5 36:0.0625 42:0.5 43:1 44:1 45:0.875 46:0.3125 50:0.25 51:1 52:0.25 53:0.5 54:1 55:0.30000001 59:0.25 60:0.6875 61:0.9375 62:0.875 63:0.40000001 # 0
-6.3058827631298958604701380659628e-11 4:0.375 5:0.8125 6:0.0625 11:0.1875 12:1 13:0.4375 19:0.9375 20:0.8125 21:0.0625 26:0.75 27:0.9375 28:0.0625 33:0.35714287 34:1 35:0.4375 36:0.4375 37:0.875 38:0.35714287 41:0.375 42:1 43:1 44:1 45:0.9375 46:0.1875 51:0.0625 52:0.875 53:0.75 60:0.5625 61:0.6875 # 0
1.9974937372595891036945283308684e-09 2:0.1875 3:0.5625 4:0.5 10:0.9375 11:0.5625 12:0.0625 17:0.25 18:1 19:0.5 20:0.125 25:0.3125 26:1 27:0.75 28:0.75 29:0.6875 30:0.0625 33:0.2857143 34:0.75 37:0.3125 38:0.71428573 41:0.0625 42:0.875 43:0.1875 45:0.0625 46:0.875 47:0.25 50:0.625 51:0.375 52:0.3125 53:0.875 54:0.8125 58:0.25 59:0.8125 60:0.875 61:0.5 # 0
-4.0048359336984821607464271752568e-11 2:0.875 3:0.5625 10:0.5 11:1 18:0.5 19:0.75 21:0.125 22:0.0625 26:0.75 27:0.5 29:0.8125 30:0.5625 33:0.071428575 34:1 35:0.25 37:1 38:0.5714286 41:0.3125 42:1 45:0.9375 46:0.375 49:0.5 50:1 51:1 52:1 53:1 54:0.75 57:0.1 58:0.5 59:0.5 60:0.5 61:0.8125 62:0.4375 # 0
-1.8068433081075517907476162189108e-10 2:0.25 3:0.875 4:0.625 9:0.2 10:1 11:0.5625 12:0.5 13:0.4375 17:0.5 18:1 20:0.125 21:0.6875 25:0.375 26:0.875 29:0.375 30:0.375 33:0.35714287 34:0.875 37:0.1875 38:0.64285713 42:0.9375 43:0.0625 45:0.3125 46:0.8125 50:0.75 51:0.5625 52:0.125 53:0.8125 54:0.625 58:0.125 59:0.875 60:0.9375 61:0.625 62:0.0625 # 0
-1.467489593203370141968579020526e-09 3:0.5625 4:0.8125 5:0.0625 10:0.1875 11:0.9375 12:0.375 13:0.75 17:0.0625 18:0.625 19:0.5625 21:0.625 22:0.1875 25:0.25 26:1 27:0.3125 29:0.3125 30:0.4375 33:0.35714287 34:1 35:0.1875 37:0.375 38:0.5714286 42:1 43:0.3125 45:0.375 46:0.5625 50:0.5 51:0.875 52:0.4375 53:0.9375 54:0.1875 59:0.625 60:1 61:0.5625 # 0
-1.414608924443475631268087997744e-10 3:0.25 4:1 5:0.125 11:0.5 12:1 19:0.875 20:0.6875 26:0.4375 27:0.9375 28:0.0625 34:0.9375 35:0.6875 36:0.5625 37:0.1875 41:0.5625 42:1 43:0.6875 44:1 45:0.5625 49:0.8125 50:1 51:1 52:1 53:1 54:0.375 57:0.1 59:0.5 60:1 61:0.3125 # 0
-7.9000241985639181693064986156528e-10 2:0.375 3:0.75 4:0.8125 5:0.75 6:0.375 10:0.375 11:0.5 12:0.125 13:0.3125 14:0.4375 18:0.75 19:0.125 25:0.4375 26:0.9375 27:0.75 28:0.4375 29:0.125 33:0.14285715 34:0.5 35:0.5 36:0.5625 37:0.9375 38:0.2857143 45:0.4375 46:0.4375 50:0.25 51:0.3125 52:0.25 53:0.8125 54:0.125 58:0.25 59:0.9375 60:1 61:0.375 # 0
8.9302750758986294035807106622373e-11 2:0.125 3:0.5 4:0.875 5:0.125 10:0.5625 11:1 12:0.625 13:0.0625 17:0.0625 18:1 19:0.5625 20:0.0625 25:0.125 26:1 27:1 28:0.875 29:0.1875 34:0.9375 35:0.625 36:0.4375 37:0.875 42:0.875 43:0.0625 45:0.8125 46:0.25 50:0.4375 51:0.625 52:0.3125 53:0.9375 54:0.25 59:0.5625 60:1 61:0.75 # 0
7.288596717290383484551642291724e-10 3:0.5625 4:0.5625 10:0.4375 11:0.9375 12:0.1875 18:0.6875 19:0.5 26:0.875 27:0.25 28:0.125 29:0.1875 34:0.75 35:0.75 36:1 37:0.75 38:0.71428573 42:0.5625 43:0.875 44:0.5 46:0.5 47:1 50:0.25 51:0.5625 52:0.0625 53:0.125 54:0.875 55:0.5 59:0.375 60:0.6875 61:0.875 62:0.5 # 0
-2.2249002375528759826985719322084e-10 1:0.125 2:0.6875 3:0.75 4:0.75 5:0.75 6:0.25 10:0.9375 11:0.5 12:0.5 13:0.6875 14:0.4375 18:0.75 26:0.8125 27:0.0625 33:0.21428572 34:1 35:0.9375 36:0.6875 37:0.3125 42:0.25 43:0.25 44:0.625 45:0.9375 46:0.125 50:0.75 51:0.3125 52:0.3125 53:0.875 54:0.1875 58:0.6875 59:0.8125 60:0.75 61:0.5 # 0
-5.8041799070023763748509701095903e-10 2:0.25 3:0.6875 4:0.875 5:0.4375 10:0.9375 11:0.75 12:1 13:0.1875 18:0.5 19:1 20:0.625 26:0.5625 27:1 28:0.4375 33:0.21428572 34:0.9375 35:0.25 36:0.875 37:0.25 41:0.125 42:0.8125 44:0.1875 45:0.9375 46:0.375 50:0.5 51:0.5625 52:0.25 53:0.5 54:0.875 59:0.4375 60:0.75 61:0.75 62:0.5 # 0
-6.1154422461123735659984846269217e-10 3:0.75 4:1 5:0.8125 10:0.375 11:1 12:0.625 13:0.3125 16:0.33333334 17:0.875 18:0.125 19:0.375 25:0.75 26:0.6875 33:0.21428572 34:0.875 35:0.6875 36:0.0625 42:0.1875 43:0.8125 44:0.6875 51:0.3125 52:1 53:0.375 59:0.8125 60:1 61:0.375 # 0
2.6302608272135587158865589708576e-09 2:0.3125 3:0.75 4:0.5 10:0.8125 11:0.375 12:0.0625 17:0.125 18:0.875 19:0.0625 25:0.25 26:0.875 28:0.1875 29:0.0625 33:0.5 34:0.6875 35:0.8125 36:0.8125 37:0.8125 38:0.35714287 41:0.25 42:1 43:0.5 45:0.125 46:0.75 49:0.0625 50:0.9375 51:0.375 52:0.125 53:0.75 54:0.1875 58:0.375 59:0.8125 60:0.75 61:0.25 # 0
-1.578171961322678740694357570984e-10 2:0.125 3:0.6875 4:0.875 5:0.3125 9:0.06666667 10:0.875 11:0.8125 12:0.8125 13:0.5 17:0.3125 18:1 20:0.0625 21:0.0625 25:0.1875 26:1 27:0.375 28:0.75 29:1 30:0.3125 34:0.5625 35:1 36:1 37:0.5 38:0.14285715 41:0.125 42:0.875 43:0.75 44:0.75 45:0.8125 46:0.0625 49:0.125 50:0.9375 51:0.4375 52:0.125 53:0.875 54:0.4375 58:0.1875 59:0.8125 60:0.875 61:0.75 62:0.0625 # 0
-7.9120211216413434361002328233203e-11 2:0.625 3:1 4:0.125 10:0.6875 11:0.9375 17:0.1875 18:1 19:0.4375 25:0.625 26:1 27:0.3125 28:0.4375 29:0.75 30:0.3125 33:0.35714287 34:1 35:1 36:1 37:0.9375 38:0.21428572 42:0.25 43:1 44:0.9375 45:0.1875 50:0.4375 51:1 52:0.1875 58:0.5 59:0.9375 60:0.125 # 0
2.4272102769202748954261043312674e-10 3:0.375 4:0.6875 5:0.0625 10:0.3125 11:0.9375 12:0.6875 13:0.0625 18:0.5625 19:0.75 26:0.8125 27:0.25 34:0.875 35:0.1875 36:0.1875 42:0.6875 43:1 44:1 45:0.875 46:0.25 50:0.3125 51:1 52:0.6875 53:0.875 54:0.8125 59:0.25 60:0.5625 61:0.875 62:0.8125 # 0
-1.0410573676196477253151889584901e-10 4:0.4375 5:0.8125 6:0.125 12:0.5 13:1 14:0.25 17:0.1875 18:0.5 19:0.5625 20:0.9375 21:0.9375 22:0.0625 25:0.25 26:0.75 27:0.6875 28:0.875 29:0.75 36:0.75 37:0.75 44:0.6875 45:0.8125 52:0.5 53:1 54:0.3125 60:0.375 61:1 62:0.3125 # 0
-6.2338554084840510032533402802235e-11 3:0.0625 4:0.9375 5:0.625 11:0.5625 12:1 13:0.25 18:0.0625 19:0.9375 20:0.75 26:0.5625 27:1 28:0.1875 33:0.071428575 34:0.9375 35:0.625 37:0.9375 38:0.78571427 41:0.5 42:1 43:1 44:1 45:1 46:0.5 50:0.25 51:0.5 52:1 53:0.75 59:0.25 60:1 61:0.4375 # 0
2.8918151591736656923151385446054e-10 3:0.375 4:0.875 5:0.125 10:0.25 11:1 12:0.5625 13:0.1875 18:0.8125 19:0.5 26:0.9375 27:0.625 28:0.125 33:0.2857143 34:1 35:0.6875 36:0.8125 37:0.5625 42:0.625 43:0.5 45:0.5625 46:0.5 50:0.125 51:0.8125 52:0.1875 53:0.625 54:0.5 59:0.25 60:0.875 61:1 62:0.125 # 0
-2.2012718268595023291941023022787e-10 3:0.1875 4:0.9375 5:1 6:0.1875 11:0.75 12:0.625 13:0.9375 14:0.1875 19:0.125 20:0.375 21:0.875 27:0.0625 28:0.9375 29:0.3125 34:0.0625 35:0.8125 36:0.5625 41:0.0625 42:0.75 43:0.75 44:0.0625 49:0.5625 50:1 51:1 52:1 53:0.8125 54:0.3125 57:0.2 58:0.25 59:0.3125 60:0.625 61:0.8125 62:0.75 # 0
-1.7886920323287784830296938177351e-10 2:0.25 3:0.625 4:0.9375 5:0.25 10:0.5 11:0.8125 12:0.375 13:0.0625 17:0.0625 18:0.9375 19:0.875 20:0.625 21:0.0625 26:0.6875 27:0.5 28:0.625 29:0.75 30:0.0625 37:0.625 38:0.42857143 45:0.125 46:0.875 50:0.375 51:0.4375 52:0.1875 53:0.1875 54:0.9375 55:0.2 58:0.25 59:0.8125 60:1 61:1 62:0.9375 63:0.06666667 # 0
-9.8292953479649075245179074429005e-11 2:0.375 3:0.875 4:0.9375 5:0.0625 10:0.6875 11:0.75 12:0.25 18:0.9375 19:0.625 20:0.25 21:0.0625 26:0.8125 27:0.8125 28:0.875 29:0.75 30:0.0625 37:0.625 38:0.71428573 45:0.25 46:0.875 51:0.125 52:0.0625 53:0.5625 54:0.875 58:0.375 59:1 60:1 61:1 62:0.375 # 0
-1.843366776367987337244684858698e-10 2:0.25 3:0.625 10:0.125 11:0.9375 12:0.125 18:0.125 19:1 20:0.25 26:0.4375 27:1 28:0.5625 34:0.875 35:0.875 36:0.875 42:0.1875 43:0.1875 44:1 45:0.1875 50:0.0625 51:0.4375 52:0.875 53:0.6875 54:0.25 58:0.25 59:0.875 60:1 61:0.8125 62:0.875 63:0.53333336 # 0
1.3947826020809583440524136022771e-09 2:0.75 3:0.3125 10:1 11:0.125 17:0.1875 18:0.75 25:0.25 26:0.75 33:0.5 34:0.875 35:1 36:0.875 37:0.1875 41:0.1875 42:1 43:0.5 44:0.5625 45:1 46:0.25 49:0.125 50:1 51:0.1875 52:0.25 53:1 54:0.25 58:0.6875 59:0.75 60:0.6875 61:0.25 # 0
-4.5781427133235686336374305752594e-11 2:0.5625 3:0.9375 4:0.5 9:0.40000001 10:0.875 11:0.125 12:0.4375 13:0.625 17:0.5625 18:0.625 20:0.125 21:1 22:0.1875 25:0.3125 26:1 27:1 28:1 29:0.875 30:0.125 33:0.42857143 34:1 35:1 36:1 37:0.875 38:0.071428575 41:0.3125 42:1 45:0.5625 46:0.6875 49:0.0625 50:1 51:0.5625 52:0.4375 53:0.875 54:0.375 58:0.5625 59:0.75 60:0.8125 61:0.5 # 0
-6.4259508097395888747308432626055e-10 3:0.375 4:0.5 11:0.9375 12:0.1875 18:0.125 19:0.875 20:0.125 21:0.6875 26:0.5625 27:0.5 28:0.3125 29:0.625 34:0.875 35:0.125 36:0.5 37:0.4375 38:0.14285715 41:0.25 42:1 43:0.5625 44:0.875 45:1 46:0.5 49:0.125 50:0.5 51:0.75 52:1 53:0.3125 54:0.125 59:0.375 60:0.8125 61:0.125 # 0
-1.0158228461304131038954883827202e-10 2:0.125 3:0.6875 4:1 5:1 6:1 7:0.75 10:0.4375 11:0.9375 12:0.5625 13:0.5 14:0.75 15:1 21:0.0625 22:0.875 23:0.83333331 29:0.6875 30:0.5625 36:0.375 37:0.8125 43:0.0625 44:0.875 45:0.1875 51:0.625 52:0.5625 58:0.0625 59:1 60:0.3125 # 0
-4.4203823810515175209841263108217e-11 4:0.5 5:1 6:0.6875 11:0.8125 12:0.5625 13:0.5 14:0.875 15:0.07692308 18:0.625 19:0.5 21:0.3125 22:1 23:0.66666669 25:0.125 26:0.9375 27:0.5 28:0.875 29:0.875 30:0.75 33:0.14285715 34:0.75 35:0.5625 36:0.125 37:0.625 38:0.42857143 44:0.125 45:0.875 52:0.5625 53:0.4375 60:0.8125 61:0.0625 # 0
4.4728599293185884617678028575972e-10 2:0.125 3:0.8125 4:0.0625 10:0.6875 11:0.625 12:0.0625 17:0.125 18:0.9375 19:0.0625 25:0.375 26:0.6875 27:0.0625 28:0.25 29:0.0625 33:0.5 34:0.625 35:0.5625 36:1 37:0.875 38:0.071428575 41:0.25 42:0.75 43:0.4375 44:0.375 45:0.4375 46:0.625 49:0.0625 50:0.8125 51:0.375 52:0.125 53:0.625 54:0.875 58:0.1875 59:0.75 60:0.8125 61:0.8125 62:0.1875 # 0
1.3017771090068577729993235382426e-09 2:0.125 3:0.8125 4:0.0625 10:0.3125 11:0.9375 18:0.8125 19:0.375 25:0.3125 26:0.875 33:0.5714286 34:0.75 35:0.1875 36:0.4375 37:0.375 38:0.071428575 41:0.4375 42:1 43:0.875 44:0.5 45:0.875 46:0.4375 49:0.125 50:0.9375 51:0.5625 52:0.3125 53:0.75 54:0.4375 58:0.25 59:0.5625 60:0.8125 61:0.8125 62:0.0625 # 0
-6.6480502104553297539777508912617e-10 2:0.1875 3:0.75 4:0.625 10:0.625 11:0.6875 12:0.3125 13:0.625 17:0.0625 18:1 19:0.4375 21:0.625 22:0.125 25:0.125 26:1 27:0.125 29:0.375 30:0.375 33:0.21428572 34:0.9375 35:0.625 37:0.4375 38:0.5 42:0.75 43:0.4375 45:0.625 46:0.3125 50:0.8125 51:0.125 52:0.375 53:0.9375 54:0.0625 58:0.1875 59:0.9375 60:0.875 61:0.4375 # 0
5.6239273986562374794945673117078e-10 2:0.125 3:0.8125 4:1 5:0.375 10:0.6875 11:0.625 12:0.0625 18:0.875 19:0.0625 25:0.0625 26:0.9375 33:0.071428575 34:0.875 35:0.375 36:0.5 37:0.125 42:0.9375 43:0.8125 44:0.5 45:0.6875 46:0.0625 50:0.5625 51:0.75 53:0.5625 54:0.4375 59:0.8125 60:1 61:0.9375 62:0.375 # 0
-6.0196623915790122787128479868815e-10 2:0.4375 3:0.8125 4:0.9375 5:0.1875 9:0.2 10:1 11:0.25 12:0.5 13:0.25 17:0.0625 18:1 19:0.1875 20:0.625 26:0.5 27:1 28:0.375 34:0.375 35:0.6875 36:0.6875 37:0.625 38:0.071428575 41:0.0625 42:0.8125 43:0.1875 45:0.5625 46:0.375 49:0.125 50:0.875 51:0.0625 53:0.5625 54:0.1875 58:0.25 59:0.8125 60:0.875 61:0.5625 # 0
-5.3565223817612812264727580486299e-10 3:0.125 4:0.9375 5:0.25 11:0.4375 12:1 13:0.3125 18:0.5 19:1 20:0.875 21:0.0625 25:0.4375 26:1 27:1 28:0.75 33:0.14285715 34:0.5 35:0.875 36:0.75 43:0.5625 44:0.8125 51:0.375 52:1 53:0.8125 54:0.125 59:0.125 60:0.75 61:0.8125 62:0.125 # 0
-1.7463553556159537291957331077522e-11 1:0.125 2:0.375 3:0.6875 4:1 5:0.375 10:0.3125 11:0.8125 12:0.6875 13:1 14:0.375 18:0.25 19:1 20:0.5 26:0.3125 27:0.9375 33:0.071428575 34:0.8125 35:0.625 36:0.25 41:0.375 42:0.625 43:0.25 44:0.5 49:0.5 50:0.4375 51:0.75 52:0.4375 57:0.2 58:0.8125 59:0.875 # 0
3.8356559044487660387967806817724e-10 3:0.875 4:0.125 10:0.125 11:1 12:0.125 18:0.4375 19:0.8125 26:0.5 27:0.75 34:0.5625 35:0.6875 36:0.25 37:0.125 42:0.6875 43:1 44:1 45:0.9375 46:0.5 50:0.8125 51:0.9375 52:0.125 53:0.125 54:1 55:0.30000001 59:0.6875 60:0.8125 61:0.75 62:0.625 # 0
-8.165104469624170611286437512018e-10 2:0.5625 3:1 4:1 5:0.875 9:0.2 10:0.9375 11:0.625 12:0.125 13:0.3125 17:0.6875 18:0.5625 25:0.5 26:0.875 27:0.0625 33:0.071428575 34:0.9375 35:0.3125 42:0.6875 43:0.5625 50:0.5625 51:0.75 58:0.875 59:0.5625 # 0
-7.5845001974138112909760927346251e-12 2:0.25 3:0.9375 4:0.375 10:0.8125 11:0.8125 12:1 17:0.25 18:0.9375 19:0.0625 20:1 21:0.125 27:0.125 28:1 35:0.5 36:0.75 41:0.0625 42:0.75 43:1 44:0.375 45:0.25 49:0.4375 50:1 51:1 52:1 53:1 54:0.375 58:0.125 60:0.25 61:0.5 62:0.1875 # 0
-7.2624752246509471077387406154899e-11 4:0.0625 5:0.875 6:0.25 12:0.125 13:1 14:0.5 20:0.5 21:1 22:0.375 28:0.9375 29:1 30:0.3125 35:0.5 36:1 37:1 38:0.21428572 42:0.375 43:1 44:0.5625 45:1 49:0.125 50:1 51:0.5 52:0.25 53:1 57:0.2 58:0.25 60:0.125 61:0.9375 62:0.1875 # 0
-7.540994192073830648960269254231e-11 3:0.625 4:1 5:0.375 10:0.25 11:1 12:1 13:0.25 18:0.875 19:1 20:1 21:0.25 26:1 27:1 28:1 29:0.5 34:1 35:1 36:1 37:0.5 42:0.9375 43:1 44:1 45:0.875 46:0.1875 50:0.625 51:1 52:1 53:1 54:0.5 58:0.0625 59:0.75 60:0.75 61:0.9375 62:0.4375 # 0
-1.9371424431197524236985471172447e-10 3:0.375 4:0.8125 5:0.5625 9:0.06666667 10:0.9375 11:1 12:0.4375 13:0.1875 17:0.4375 18:0.9375 19:0.1875 25:0.4375 26:1 27:1 28:0.5 33:0.14285715 34:0.6875 35:0.3125 36:0.75 37:0.4375 44:0.125 45:0.875 51:0.3125 52:0.6875 53:1 54:0.0625 59:0.25 60:0.9375 61:0.5625 # 0
-1.2408428283215231982225246569259e-11 2:0.6875 3:1 4:0.5 9:0.33333334 10:1 11:0.75 12:0.9375 17:0.625 18:0.75 19:0.5625 20:0.6875 25:0.4375 26:0.9375 27:0.9375 28:0.375 34:0.875 35:1 36:0.6875 37:0.0625 41:0.0625 42:0.875 43:0.6875 44:0.75 45:0.9375 46:0.1875 49:0.4375 50:1 51:0.125 53:0.6875 54:0.75 57:0.1 58:0.625 59:0.9375 60:1 61:1 62:0.375 # 0
-1.0480606625880742645562472895298e-09 2:0.0625 3:0.375 4:0.75 5:0.875 6:0.25 10:0.25 11:0.8125 12:0.5 13:0.1875 18:0.8125 19:0.25 25:0.1875 26:0.9375 27:0.3125 28:0.125 33:0.5714286 34:1 35:1 36:1 37:0.75 41:0.125 42:0.25 43:0.1875 44:0.4375 45:0.9375 46:0.1875 51:0.125 52:0.4375 53:0.875 54:0.0625 59:0.5 60:0.75 61:0.25 # 0
7.3922858451952649972938393807152e-10 3:0.5625 4:0.375 10:0.125 11:0.9375 12:0.375 18:0.375 19:0.625 26:0.6875 27:0.5 28:0.4375 29:0.125 34:0.875 35:0.9375 36:0.5 37:0.875 38:0.35714287 42:1 43:0.3125 45:0.25 46:0.8125 50:0.5625 51:0.8125 53:0.4375 54:0.8125 59:0.6875 60:1 61:0.875 62:0.125 # 0
-4.5641799894468751890192064939796e-11 2:0.1875 3:0.6875 4:0.9375 5:0.5 10:0.5625 11:0.875 12:0.5 13:0.5625 18:0.375 19:0.875 20:0.3125 27:0.75 28:1 29:0.4375 34:0.25 35:0.875 36:0.6875 37:0.6875 42:0.75 43:0.5 45:1 46:0.0625 50:0.875 51:0.6875 52:0.6875 53:0.9375 54:0.0625 58:0.1875 59:0.8125 60:0.8125 61:0.375 # 0
-4.3381927503925050446870626764999e-11 3:0.625 4:0.75 5:0.25 10:0.4375 11:0.75 12:0.375 13:0.8125 18:0.4375 19:0.5625 20:0.125 21:0.8125 26:0.0625 27:0.9375 28:0.9375 29:0.375 34:0.4375 35:0.9375 36:0.6875 37:0.5625 42:1 43:0.0625 45:0.625 46:0.5625 50:0.8125 51:0.3125 54:0.9375 58:0.0625 59:0.5625 60:0.875 61:0.875 62:0.75 # 0
-5.2393914764547432011327141840361e-10 3:0.625 4:0.5625 10:0.0625 11:0.9375 12:0.4375 18:0.6875 19:0.8125 25:0.0625 26:1 27:0.4375 33:0.5 34:1 35:0.375 36:0.4375 37:0.9375 38:0.21428572 41:0.375 42:1 43:1 44:1 45:0.9375 46:0.125 51:0.5 52:1 53:0.25 59:0.5625 60:0.75 # 0
-3.8224623389663456284042485223268e-10 2:0.4375 3:0.8125 6:0.1875 7:0.5 10:0.9375 11:0.4375 13:0.1875 14:0.9375 15:0.53846157 18:1 19:0.75 20:0.375 21:0.875 22:0.5625 26:0.375 27:0.75 28:1 29:0.75 35:0.125 36:0.875 37:0.125 43:0.5625 44:0.5625 50:0.125 51:0.8125 52:0.0625 58:0.5 59:0.3125 # 0
-7.5606725331519385439853616935949e-11 1:0.125 2:0.875 3:0.4375 9:0.53333336 10:1 11:0.125 13:0.1875 14:0.3125 17:0.625 18:0.75 20:0.0625 21:0.875 22:0.6875 25:0.5625 26:0.9375 27:0.0625 28:0.5625 29:1 30:0.1875 33:0.071428575 34:0.9375 35:1 36:1 37:0.5 42:0.3125 43:1 44:0.8125 45:0.3125 50:0.75 51:0.8125 57:0.2 58:1 59:0.375 # 0
-9.862368354676287360785539337399e-11 3:0.5 4:0.9375 10:0.1875 11:1 12:0.625 17:0.0625 18:0.875 19:0.9375 25:0.25 26:1 27:0.625 33:0.14285715 34:0.875 35:1 36:1 37:1 38:0.42857143 42:0.1875 43:0.75 44:1 45:0.9375 46:0.125 51:0.1875 52:1 53:0.625 59:0.25 60:0.8125 61:0.1875 # 0
1.3923560832320354138006629618062e-09 3:0.375 4:0.75 5:0.125 10:0.125 11:0.9375 12:0.625 13:0.25 18:0.8125 19:0.5625 25:0.0625 26:0.9375 27:0.0625 33:0.14285715 34:0.8125 35:0.375 36:0.5625 37:0.125 42:0.9375 43:1 44:0.75 45:0.8125 46:0.0625 50:0.375 51:0.75 52:0.5 53:0.9375 54:0.25 59:0.4375 60:0.9375 61:0.6875 62:0.0625 # 0
-1.9911758135439294398315733749556e-10 2:0.6875 3:0.75 4:0.125 9:0.2 10:1 11:0.75 12:0.4375 17:0.125 18:0.875 19:0.1875 20:0.625 27:0.3125 28:0.5 35:0.6875 36:0.3125 42:0.1875 43:1 44:0.0625 50:0.6875 51:0.875 52:0.5625 53:0.9375 54:0.9375 58:0.5 59:0.8125 60:0.75 61:0.5 62:0.625 63:0.13333334 # 0
-1.5003407169599351764335530708648e-10 2:0.25 3:0.75 4:0.4375 10:0.8125 11:0.6875 12:0.75 13:0.25 18:0.5 20:0.1875 21:0.625 28:0.125 29:0.8125 36:0.5625 37:0.5 43:0.1875 44:1 45:0.0625 50:0.5 51:1 52:0.9375 53:0.875 54:0.875 55:0.1 58:0.375 59:0.75 60:0.75 61:0.625 62:0.625 63:0.13333334 # 0
-3.3304241949629151527191122574164e-10 2:0.6875 3:0.9375 4:0.625 9:0.13333334 10:0.8125 12:0.5625 13:0.1875 17:0.1875 18:0.75 20:0.625 26:0.6875 27:0.75 28:0.75 35:0.6875 36:0.875 37:0.375 41:0.0625 42:0.5625 43:0.3125 45:0.625 46:0.3125 49:0.25 50:0.625 53:0.5 54:0.25 57:0.1 58:0.875 59:0.6875 60:0.875 61:0.625 # 0
-9.6962543686526066572939118874447e-11 4:0.5 5:0.6875 11:0.125 12:0.875 13:0.375 19:0.6875 20:0.5625 21:0.125 22:0.1875 26:0.5625 27:0.75 28:0.0625 29:0.6875 30:0.5625 33:0.2857143 34:1 35:0.375 37:0.8125 38:0.35714287 41:0.5 42:1 43:1 44:1 45:1 51:0.1875 52:0.5 53:0.9375 60:0.375 61:0.75 # 0
-2.4096447590872861946768621333175e-10 2:0.4375 3:0.8125 4:0.6875 5:0.1875 9:0.13333334 10:0.9375 11:0.5 12:0.5 13:0.125 17:0.375 18:0.6875 19:0.1875 20:0.1875 25:0.4375 26:1 27:1 28:1 29:0.8125 30:0.125 33:0.071428575 34:0.5 35:0.3125 36:0.1875 37:0.6875 38:0.71428573 45:0.125 46:0.875 50:0.125 51:0.3125 52:0.25 53:0.625 54:0.9375 58:0.5 59:1 60:1 61:0.875 62:0.25 # 0
-4.3473068050336596221108741279298e-11 1:0.25 2:0.375 3:0.6875 4:0.5 9:0.60000002 10:1 11:0.875 12:0.3125 17:0.5625 18:1 19:0.75 20:0.5 21:0.125 25:0.5 26:0.9375 27:0.5 28:0.6875 29:0.8125 30:0.0625 37:0.5 38:0.71428573 45:0.3125 46:0.875 50:0.375 51:0.375 52:0.25 53:0.5 54:0.875 58:0.3125 59:0.9375 60:1 61:0.9375 62:0.4375 # 0
-3.9462620497940329171353326260103e-11 2:0.625 3:0.875 4:0.75 9:0.13333334 10:1 11:0.5 12:0.1875 17:0.3125 18:1 19:0.75 20:0.6875 21:0.0625 25:0.125 26:0.75 27:0.5625 28:0.625 29:0.8125 30:0.0625 37:0.75 38:0.42857143 45:0.25 46:0.75 49:0.125 50:0.875 51:0.25 52:0.25 53:0.8125 54:0.5625 58:0.625 59:0.875 60:0.9375 61:0.6875 62:0.0625 # 0
-1.6777360387313556049047687447644e-10 3:0.0625 4:1 5:0.5625 11:0.375 12:1 13:0.6875 19:0.6875 20:1 21:0.375 25:0.0625 26:0.4375 27:0.9375 28:0.875 29:0.0625 33:0.42857143 34:0.875 35:1 36:0.9375 42:0.0625 43:0.8125 44:0.9375 51:0.875 52:1 53:0.25 60:0.75 61:0.9375 62:0.375 # 0
-4.3530969782830128072746234302217e-10 2:0.1875 3:0.875 4:0.25 10:0.75 11:0.9375 12:0.75 13:0.25 17:0.1875 18:0.9375 19:0.3125 20:0.125 21:0.75 25:0.3125 26:0.5625 29:0.5 30:0.3125 33:0.5714286 34:0.5 37:0.25 38:0.5714286 41:0.25 42:0.75 45:0.125 46:0.75 50:0.875 51:0.3125 53:0.5625 54:0.5 58:0.1875 59:0.9375 60:1 61:0.8125 62:0.0625 # 0
-1.229753698293748710007363548051e-10 2:0.25 3:0.875 4:0.9375 5:0.3125 9:0.46666667 10:0.875 11:0.4375 12:0.375 13:1 17:0.625 18:0.375 21:0.6875 22:0.1875 25:0.25 26:0.125 28:0.0625 29:0.875 36:0.625 37:0.4375 43:0.3125 44:0.8125 45:0.0625 50:0.375 51:1 52:0.5 58:0.3125 59:0.5625 60:0.75 61:0.75 62:1 63:0.13333334 # 0
-2.1329775259851911836262145950459e-10 3:0.5 4:0.9375 5:1 6:0.4375 9:0.06666667 10:0.875 11:0.5625 12:0.0625 14:0.5 17:0.375 18:0.75 21:0.625 22:0.5 25:0.25 26:0.875 27:0.75 28:0.8125 29:0.875 30:0.5 36:0.0625 37:0.25 38:0.5714286 45:0.25 46:0.5 53:0.4375 54:0.5 59:0.5 60:0.75 61:0.9375 62:0.375 # 0
-1.8844635046966692762348705717434e-10 2:0.0625 3:0.75 4:0.9375 5:0.375 10:0.3125 11:0.8125 12:0.0625 13:0.75 18:0.125 19:0.6875 20:0.0625 21:0.9375 27:0.625 28:0.6875 29:0.5625 35:0.375 36:1 37:0.375 42:0.625 43:0.9375 44:0.25 45:0.8125 46:0.1875 50:0.75 51:0.125 53:0.0625 54:0.875 58:0.0625 59:0.625 60:0.625 61:0.5 62:0.9375 63:0.06666667 # 0
-1.3168886727300065852097121536985e-10 1:0.375 2:0.75 3:0.75 4:0.1875 9:0.53333336 10:0.625 11:0.6875 12:0.5625 18:0.125 19:0.875 20:0.25 26:0.75 27:0.8125 28:0.0625 34:0.1875 35:0.8125 36:0.9375 37:0.1875 44:0.4375 45:0.875 46:0.0625 49:0.125 50:0.25 51:0.25 52:0.1875 53:0.6875 54:0.4375 57:0.5 58:0.75 59:0.75 60:0.875 61:1 62:0.5 # 0
-2.1433600309165319477717003683284e-10 3:0.25 4:0.5 11:0.6875 12:0.5 19:0.8125 20:0.375 26:0.125 27:0.9375 28:0.125 29:0.1875 34:0.6875 35:0.625 36:0.25 37:1 38:0.14285715 41:0.6875 42:0.875 44:0.5625 45:1 46:0.125 49:0.5625 50:0.9375 51:0.75 52:0.9375 53:1 58:0.125 59:0.375 60:0.9375 61:0.375 # 0
-8.7001010133713989851441592491275e-11 2:0.125 3:0.75 4:1 5:0.4375 11:0.625 12:1 13:0.1875 19:0.1875 20:0.9375 21:0.3125 28:0.375 29:0.9375 30:0.1875 37:0.5 38:1 45:0.6875 46:1 51:0.1875 52:0.8125 53:1 54:0.5625 58:0.375 59:1 60:0.75 61:0.5 62:0.0625 # 0
-4.3374403411099132266579042431419e-11 1:0.5 2:0.75 3:0.875 4:0.75 5:0.375 9:0.13333334 10:0.25 11:0.25 12:0.3125 13:1 14:0.375 20:0.375 21:1 22:0.25 27:0.3125 28:1 29:0.375 35:0.3125 36:1 37:0.1875 44:0.6875 45:0.8125 51:0.3125 52:0.8125 53:1 57:0.5 58:1 59:0.75 60:0.6875 61:0.0625 # 0
-2.5201594497322429712977292792932e-11 1:0.125 2:0.625 3:0.3125 9:0.13333334 10:1 11:1 12:0.75 13:0.0625 18:0.625 19:0.3125 20:0.6875 21:0.375 27:0.0625 28:0.75 29:0.4375 34:0.375 35:1 36:1 37:0.375 42:0.1875 43:0.5 44:0.625 45:0.9375 46:0.5 50:0.1875 51:0.25 52:0.4375 53:0.875 54:0.9375 58:0.375 59:0.9375 60:0.9375 61:0.6875 62:0.25 # 0
-6.7436317514630639690853461749506e-11 3:0.3125 4:0.5 10:0.25 11:1 12:0.125 14:0.875 18:0.5625 19:0.5 21:0.5 22:0.5 25:0.125 26:0.9375 28:0.0625 29:0.9375 33:0.71428573 34:0.5625 35:0.25 36:0.5625 37:0.9375 38:0.071428575 41:0.6875 42:1 43:1 44:1 45:0.6875 46:0.0625 49:0.1875 50:0.25 51:0.4375 52:0.5625 59:0.5 60:0.3125 # 0
-9.0360027605918931330348869710779e-11 2:0.0625 3:0.75 4:1 5:1 6:0.75 11:0.4375 12:0.25 13:0.6875 14:0.8125 21:0.5 22:0.6875 27:0.0625 28:0.25 29:0.75 30:0.5 35:0.75 36:1 37:1 38:0.5714286 43:0.1875 44:0.75 45:0.375 51:0.375 52:0.875 59:0.9375 60:0.3125 # 0
-3.3927420595081638993629313492747e-11 4:0.4375 5:0.6875 6:0.0625 12:0.75 13:1 14:0.1875 19:0.25 20:1 21:1 27:0.125 28:1 29:1 34:0.0625 35:0.8125 36:1 37:0.75 42:0.4375 43:1 44:0.9375 45:0.875 49:0.125 50:0.9375 51:0.3125 52:0.75 53:0.6875 58:0.125 60:0.4375 61:0.6875 # 0
-1.219760010373558515242946476644e-10 1:0.25 2:0.875 3:0.875 4:0.0625 9:0.60000002 10:0.8125 11:0.8125 12:0.375 17:0.5625 18:0.3125 19:0.1875 20:0.625 26:0.0625 27:0.1875 28:0.5625 35:0.5 36:0.25 42:0.125 43:0.9375 44:0.25 45:0.125 49:0.0625 50:0.8125 51:1 52:1 53:1 54:0.5625 58:0.8125 59:0.5 60:0.5 61:0.4375 62:0.125 # 0
-6.5784564646118911141520462981997e-10 2:0.1875 3:0.8125 4:0.625 10:0.6875 11:0.6875 12:0.6875 13:0.3125 17:0.125 18:1 19:0.375 21:0.625 22:0.0625 25:0.125 26:0.875 27:0.0625 29:0.375 30:0.3125 33:0.21428572 34:0.6875 37:0.125 38:0.64285713 41:0.125 42:0.875 45:0.25 46:0.5625 50:0.75 51:0.5625 52:0.4375 53:0.75 54:0.5625 58:0.125 59:0.6875 60:0.9375 61:0.75 62:0.25 # 0
4.7071575960867247070560820228148e-10 3:0.5625 4:0.75 10:0.3125 11:1 12:0.375 18:0.625 19:0.6875 26:0.75 27:0.5 28:0.25 34:0.8125 35:1 36:0.9375 37:0.6875 38:0.071428575 42:0.8125 43:0.875 44:0.0625 45:0.375 46:0.375 50:0.3125 51:0.75 52:0.0625 53:0.6875 54:0.375 59:0.5625 60:0.9375 61:0.625 # 0
-9.5544266101573159534020028400511e-11 2:0.375 3:0.9375 4:0.9375 5:0.25 10:0.6875 11:0.625 12:0.25 13:0.125 18:0.8125 19:0.6875 20:0.125 26:0.75 27:0.875 28:0.75 29:0.3125 36:0.1875 37:0.9375 38:0.21428572 45:0.25 46:0.6875 50:0.9375 51:0.5 52:0.1875 53:0.125 54:0.9375 58:0.3125 59:0.75 60:1 61:1 62:0.75 # 0
-5.9739699672453008109776663571926e-11 3:0.6875 4:0.125 10:0.25 11:1 18:0.6875 19:0.4375 21:0.125 25:0.1875 26:0.9375 27:0.125 28:0.4375 29:0.9375 30:0.5625 33:0.64285713 34:1 35:1 36:1 37:0.9375 38:0.21428572 41:0.375 42:0.5 43:0.375 44:1 45:0.5 51:0.5 52:0.625 59:0.9375 60:0.3125 # 0
1.2610482882908367525759387383581e-11 2:0.0625 3:0.6875 4:0.9375 5:0.0625 10:0.6875 11:0.9375 12:0.3125 17:0.1875 18:1 19:0.375 25:0.375 26:0.4375 28:0.3125 29:0.1875 33:0.5714286 34:0.625 35:0.25 36:0.8125 37:0.9375 38:0.14285715 41:0.25 42:1 43:0.25 45:0.5 46:0.625 50:0.8125 51:0.625 52:0.3125 53:0.875 54:0.5625 58:0.0625 59:0.625 60:0.8125 61:0.8125 62:0.25 # 0
-7.6666276985982708648983162620286e-11 3:0.625 4:0.375 10:0.3125 11:1 12:0.5625 18:0.625 19:1 20:0.625 25:0.25 26:0.9375 27:0.75 28:0.75 33:0.14285715 34:0.25 35:0.1875 36:1 37:0.125 44:0.6875 45:0.5625 51:0.4375 52:0.75 53:0.9375 54:0.25 59:0.75 60:1 61:1 62:0.5 # 0
-3.7163962982654330342464374061688e-11 2:0.25 3:0.8125 4:0.25 9:0.13333334 10:0.8125 11:1 12:0.9375 13:0.0625 17:0.5625 18:1 19:0.3125 20:0.625 21:0.5625 25:0.6875 26:1 27:0.0625 28:0.0625 29:0.875 30:0.0625 33:0.42857143 34:1 35:0.1875 37:0.375 38:0.64285713 41:0.125 42:1 43:0.125 45:0.3125 46:0.6875 50:0.75 51:0.75 52:0.5 53:0.9375 54:0.5625 58:0.125 59:0.75 60:0.8125 61:0.5625 62:0.0625 # 0
-3.6823276565029821457439192470965e-11 3:0.4375 4:0.75 11:0.6875 12:0.6875 18:0.125 19:1 20:0.1875 26:0.5625 27:0.75 28:0.5625 29:0.1875 33:0.071428575 34:0.9375 35:0.4375 36:1 37:0.4375 41:0.5625 42:1 43:0.875 44:1 45:1 46:0.5 49:0.5 50:0.75 51:0.875 52:1 53:0.75 54:0.3125 59:0.4375 60:0.9375 # 0
-2.3958310701811326990933891014496e-10 2:0.125 3:0.8125 4:0.75 5:0.25 9:0.06666667 10:0.9375 11:0.75 12:0.1875 13:0.8125 14:0.125 17:0.5 18:0.8125 19:0.5 21:0.375 22:0.25 25:0.5 26:0.25 27:0.1875 29:0.1875 30:0.5 33:0.35714287 34:0.3125 37:0.375 38:0.42857143 41:0.0625 42:0.875 43:0.0625 45:0.5 46:0.1875 50:0.5 51:0.5 52:0.3125 53:0.8125 54:0.0625 59:0.6875 60:0.9375 61:0.375 # 0
-9.6405264343613126451189084878526e-11 3:0.125 4:0.75 5:0.8125 6:0.5 7:0.0625 10:0.1875 11:0.75 12:0.3125 13:0.875 14:1 15:0.15384616 18:0.6875 19:0.0625 21:0.75 22:0.875 25:0.125 26:0.6875 27:0.1875 28:0.4375 29:0.875 30:0.1875 33:0.21428572 34:0.9375 35:0.6875 36:0.3125 37:0.625 44:0.5625 45:0.375 51:0.0625 52:0.875 53:0.125 60:0.875 61:0.0625 # 0
-9.944677566765100795171406311779e-11 4:0.4375 5:0.4375 11:0.25 12:0.9375 13:0.0625 19:0.8125 20:0.375 21:0.5625 22:0.0625 26:0.5 27:0.75 29:0.875 30:0.1875 33:0.21428572 34:1 35:0.1875 36:0.125 37:1 41:0.3125 42:1 43:1 44:0.8125 45:1 46:0.25 50:0.0625 51:0.4375 52:0.75 53:0.875 54:0.125 60:0.5625 61:0.625 # 0
-4.0464470507778988060376103249222e-11 1:0.125 2:0.8125 3:0.6875 9:0.33333334 10:0.875 11:1 12:0.375 17:0.4375 18:0.1875 19:0.75 20:0.375 27:0.875 34:0.375 35:0.75 41:0.125 42:0.9375 43:0.25 49:0.25 50:1 51:0.5625 52:0.5 53:0.625 54:0.3125 57:0.1 58:0.8125 59:1 60:1 61:0.9375 62:0.4375 # 0
-9.2669247724209990278672868009596e-11 2:0.1875 3:0.625 4:0.6875 5:0.3125 9:0.53333336 10:1 11:0.625 12:0.5 13:0.3125 17:0.6875 18:0.6875 25:0.5 26:0.875 27:0.6875 28:0.5 29:0.25 34:0.1875 35:0.4375 36:0.5625 37:0.875 38:0.64285713 45:0.3125 46:0.8125 50:0.0625 51:0.25 52:0.625 53:1 54:0.3125 58:0.125 59:0.8125 60:0.625 61:0.125 # 0
-3.7781412059011347835177544157698e-11 1:0.125 2:0.4375 3:0.6875 4:0.8125 5:1 6:0.875 10:0.5 11:0.4375 12:0.25 13:0.6875 14:0.625 20:0.0625 21:1 22:0.0625 28:0.6875 29:0.375 33:0.14285715 34:0.6875 35:0.75 36:1 37:0.8125 38:0.2857143 41:0.3125 42:0.5625 43:1 44:0.375 45:0.125 50:0.25 51:0.75 58:0.8125 59:0.1875 # 0
-5.5370690721327391415436076760581e-11 3:0.1875 4:0.625 5:0.0625 10:0.1875 11:0.9375 12:0.5625 14:0.25 18:0.75 19:0.75 21:0.25 22:0.6875 25:0.125 26:0.875 27:0.1875 29:0.8125 30:0.375 33:0.5 34:0.875 35:0.5 36:0.5625 37:1 38:0.14285715 41:0.3125 42:0.75 43:0.75 44:0.875 45:0.9375 46:0.0625 52:0.6875 53:0.375 60:0.8125 61:0.1875 # 0
-5.3328994866276437468849043172078e-11 2:0.125 3:0.625 4:1 5:1 6:0.125 9:0.06666667 10:1 11:0.9375 12:0.3125 13:0.0625 17:0.5 18:0.8125 25:0.75 26:0.6875 33:0.35714287 34:1 35:0.4375 42:0.1875 43:0.8125 44:0.75 51:0.25 52:1 59:0.875 60:0.75 # 0
-8.5669419614754460235931465226242e-11 2:0.125 3:0.75 4:0.375 9:0.06666667 10:0.75 11:0.625 12:0.6875 13:0.1875 17:0.0625 18:1 19:0.4375 20:0.1875 21:0.8125 22:0.0625 25:0.125 26:1 27:0.0625 29:0.5625 30:0.3125 33:0.14285715 34:1 35:0.125 37:0.125 38:0.71428573 42:0.875 43:0.5 45:0.4375 46:0.8125 50:0.625 51:0.4375 52:0.4375 53:1 54:0.3125 58:0.125 59:0.8125 60:0.75 61:0.375 # 0
-9.7395179562375848546764400279148e-11 2:0.5 3:0.75 4:0.75 10:0.5 11:0.6875 12:0.125 18:0.9375 19:0.8125 20:0.6875 21:0.1875 25:0.0625 26:0.8125 27:0.5 28:0.625 29:0.9375 30:0.0625 37:0.5625 38:0.5 41:0.0625 42:0.0625 45:0.5 46:0.5 49:0.375 50:0.8125 51:0.25 52:0.25 53:0.6875 54:0.5 57:0.1 58:0.4375 59:0.875 60:1 61:0.8125 62:0.125 # 0
-2.7570053812606193977360155865147e-11 2:0.25 3:0.8125 4:0.9375 5:0.125 9:0.06666667 10:0.8125 11:0.1875 12:0.4375 13:0.625 17:0.375 18:0.5 21:0.75 25:0.25 26:0.625 27:0.1875 28:0.6875 29:0.6875 34:0.875 35:1 36:0.9375 37:0.9375 38:0.071428575 42:0.5 43:1 44:0.0625 45:0.3125 46:0.5 50:0.5 51:0.625 52:0.3125 53:0.8125 54:0.4375 58:0.25 59:0.9375 60:0.6875 61:0.375 # 0
-1.6492641183878109887301453872432e-11 2:0.1875 3:0.6875 4:1 5:1 6:0.875 7:0.0625 10:0.75 11:0.625 12:0.25 13:0.4375 14:0.9375 18:0.4375 19:0.875 20:0.9375 21:1 22:0.25 28:0.4375 29:0.75 35:0.0625 36:0.875 37:0.25 43:0.3125 44:0.8125 51:0.75 52:0.4375 58:0.125 59:0.875 # 0
-5.8361984394115993892615973256911e-11 3:0.6875 4:0.25 11:0.875 12:0.3125 13:0.0625 18:0.25 19:0.8125 20:0.5 21:0.5 26:0.625 27:0.3125 28:0.625 29:0.375 33:0.21428572 34:1 35:0.3125 36:0.875 37:0.75 38:0.21428572 41:0.5 42:1 43:1 44:0.9375 45:0.875 46:0.375 50:0.25 51:0.5 52:0.5 59:0.5 60:0.5625 # 0
1.3238529590130258632266789822448e-10 2:0.1875 3:0.8125 10:0.75 11:0.375 17:0.125 18:1 19:0.0625 25:0.3125 26:0.75 33:0.5714286 34:0.625 35:0.3125 36:0.6875 37:0.4375 41:0.375 42:1 43:1 44:0.5625 45:0.75 46:0.5 50:0.875 51:0.5625 52:0.25 53:0.6875 54:0.5 58:0.1875 59:0.75 60:0.8125 61:0.5625 62:0.0625 # 0
-4.0774264419402010480720443421731e-11 2:0.3125 3:0.8125 4:0.5 5:0.1875 6:0.3125 9:0.13333334 10:1 11:0.6875 12:0.1875 13:0.125 14:0.1875 17:0.4375 18:0.8125 19:0.25 20:0.25 25:0.3125 26:1 27:0.75 28:0.875 29:0.6875 36:0.125 37:0.875 38:0.14285715 45:0.8125 46:0.1875 50:0.625 51:0.25 52:0.375 53:0.8125 58:0.375 59:0.875 60:0.8125 61:0.1875 # 0
-1.9827084806300817197762212149462e-11 3:0.875 4:0.875 10:0.3125 11:1 12:0.75 18:0.4375 19:1 20:0.375 26:0.75 27:1 28:0.25 34:0.75 35:1 36:0.0625 42:0.75 43:1 50:0.5625 51:1 52:0.25 58:0.0625 59:0.8125 60:0.9375 61:0.125 # 0
-2.993384071322085762869039485425e-11 2:0.25 3:0.75 4:0.75 5:0.375 10:0.1875 11:0.375 12:0.25 13:0.5 17:0.1875 18:0.8125 19:0.375 20:0.5 21:0.1875 25:0.25 26:1 27:0.8125 28:0.75 29:0.9375 30:0.125 34:0.1875 37:0.625 38:0.5714286 45:0.5 46:0.375 50:0.4375 51:0.375 52:0.3125 53:0.875 54:0.125 58:0.1875 59:0.875 60:0.9375 61:0.375 # 0
-7.5720130778031171074488388359855e-12 3:0.125 4:0.9375 5:0.125 11:0.625 12:0.5 14:0.5 15:0.23076923 18:0.375 19:0.75 21:0.1875 22:0.9375 25:0.125 26:0.875 27:0.0625 29:0.75 30:0.5 33:0.64285713 34:0.9375 35:0.75 36:1 37:1 38:0.35714287 41:0.1875 42:0.5 43:0.3125 44:0.6875 45:0.625 51:0.0625 52:0.9375 53:0.25 59:0.1875 60:0.5625 # 0
-9.2865890283056566281938804000618e-12 3:0.5625 4:0.25 11:1 12:0.1875 18:0.5 19:0.75 21:0.0625 25:0.25 26:0.9375 27:0.125 28:0.0625 29:0.9375 30:0.1875 33:0.5714286 34:0.8125 36:0.5 37:1 38:0.21428572 41:0.5 42:1 43:1 44:1 45:0.8125 46:0.25 50:0.25 51:0.625 52:0.8125 59:0.4375 60:0.75 # 0
-2.699155648321556080703251619952e-11 2:0.1875 3:0.875 4:1 5:0.375 9:0.06666667 10:0.8125 11:0.3125 12:0.25 13:0.8125 17:0.3125 18:0.75 21:0.5625 22:0.25 25:0.3125 26:0.5625 29:0.3125 30:0.5 33:0.5714286 34:0.4375 37:0.1875 38:0.5714286 41:0.375 42:0.5625 45:0.125 46:0.5625 50:0.9375 51:0.1875 52:0.0625 53:0.5625 54:0.5 58:0.3125 59:0.9375 60:0.875 61:0.5625 # 0
-1.8382130839515420542745221064572e-12 3:0.375 4:0.8125 10:0.1875 11:0.9375 12:0.3125 18:0.75 19:0.5625 22:0.25 23:0.83333331 25:0.3125 26:1 27:0.125 29:0.1875 30:1 31:1 33:0.64285713 34:0.875 35:0.125 36:0.5625 37:0.9375 38:0.5714286 41:0.4375 42:1 43:0.9375 44:0.8125 45:0.6875 46:0.0625 50:0.125 51:0.0625 52:0.875 53:0.125 59:0.375 60:0.5625 # 0
-1.2089240618484389443821249880387e-12 3:0.25 4:0.875 11:0.8125 12:0.5625 18:0.125 19:1 20:0.125 25:0.0625 26:0.75 27:0.6875 28:0.0625 29:0.375 30:0.125 33:0.64285713 34:1 35:1 36:1 37:1 38:0.14285715 42:0.4375 43:0.5625 44:1 45:0.5 51:0.375 52:1 53:0.3125 59:0.4375 60:0.8125 61:0.0625 # 0
