SVM-light Version V6.02
0 # kernel type
3 # kernel parameter -d 
1 # kernel parameter -g 
1 # kernel parameter -s 
1 # kernel parameter -r 
empty# kernel parameter -u 
63 # highest feature index 
2823 # number of training documents 
239 # number of support vectors plus 1 
5.6252892 # threshold b, each following line is a SV (starting with alpha*y)
-1 2:0.5625 3:1 4:0.8125 5:0.1875 9:0.13333334 10:1 11:1 12:1 13:0.75 19:0.375 20:1 21:0.4375 26:0.0625 27:0.9375 28:0.75 34:0.8125 35:0.9375 36:0.125 41:0.25 42:1 43:0.4375 49:0.5 50:1 51:0.5 52:0.375 53:0.5 54:0.1875 57:0.1 58:0.6875 59:1 60:1 61:0.75 62:0.25 # 0
1 2:0.125 3:0.6875 4:0.5625 10:0.75 11:0.4375 12:0.5 13:0.5 17:0.375 18:1 19:0.1875 20:0.5625 21:0.6875 25:0.0625 26:0.8125 27:1 28:1 29:0.875 30:0.125 34:0.25 35:1 36:0.5 37:0.625 38:0.35714287 42:0.5 43:0.6875 45:0.25 46:0.375 50:0.625 51:0.5625 53:0.5 54:0.3125 58:0.1875 59:0.6875 60:0.75 61:0.375 # 0
-1 2:0.4375 3:0.9375 4:0.8125 5:0.1875 10:0.6875 11:0.375 12:0.5 13:0.875 19:0.1875 20:0.5 21:0.75 27:1 28:0.875 29:0.125 35:0.625 36:0.9375 37:0.4375 44:0.125 45:0.6875 46:0.625 49:0.0625 50:0.9375 51:0.1875 52:0.0625 53:0.6875 54:0.625 58:0.25 59:0.9375 60:1 61:0.8125 62:0.125 # 0
1 2:0.0625 3:0.5625 4:0.9375 5:0.75 10:0.8125 11:0.5 12:0.3125 13:0.875 14:0.25 18:0.875 19:0.0625 20:0.3125 21:0.875 22:0.0625 26:0.4375 27:0.8125 28:1 29:0.25 34:0.6875 35:0.75 36:0.875 37:0.75 38:0.071428575 41:0.25 42:0.8125 45:0.6875 46:0.4375 49:0.0625 50:0.8125 51:0.4375 52:0.125 53:0.5 54:0.5 58:0.0625 59:0.5625 60:1 61:0.8125 62:0.125 # 0
1 2:0.0625 3:0.5 4:0.9375 5:0.5 10:0.875 11:0.6875 12:0.875 13:1 17:0.1875 18:0.75 20:0.375 21:0.5625 25:0.0625 26:0.9375 27:0.625 28:0.875 29:0.0625 34:0.0625 35:0.9375 36:1 37:0.3125 42:0.3125 43:0.75 44:0.1875 45:0.9375 46:0.1875 50:0.375 51:0.6875 52:0.0625 53:0.8125 54:0.25 59:0.5 60:1 61:0.8125 62:0.0625 # 0
-0.7951066268039813644818991633656 2:0.1875 3:0.75 4:1 5:0.9375 6:0.25 10:0.875 11:1 12:0.875 13:1 14:0.375 17:0.0625 18:0.6875 19:0.1875 20:0.8125 21:0.8125 22:0.0625 26:0.0625 27:0.875 28:0.75 29:0.0625 34:0.1875 35:1 36:0.875 37:0.1875 42:0.0625 43:0.375 44:1 45:0.875 46:0.0625 50:0.875 51:0.8125 52:0.875 53:0.9375 58:0.25 59:1 60:0.9375 61:0.3125 # 0
-1 2:0.5 3:1 4:1 5:0.5625 10:0.9375 11:0.5625 12:0.375 13:0.875 14:0.125 18:1 19:0.3125 20:0.0625 21:1 22:0.5 26:0.5625 27:1 28:1 29:1 30:0.6875 35:0.375 36:0.4375 37:0.625 38:0.85714287 41:0.0625 42:0.1875 45:0.5 46:0.875 49:0.25 50:0.8125 51:0.3125 53:0.6875 54:0.75 58:0.5625 59:1 60:1 61:1 62:0.375 # 0
-1 3:0.3125 4:0.5 5:0.1875 10:0.9375 11:1 12:1 13:1 18:1 19:1 20:1 21:0.8125 26:1 27:1 28:1 29:0.3125 34:1 35:1 36:1 37:0.5625 42:1 43:1 44:1 45:0.25 50:0.9375 51:1 52:1 53:0.625 58:0.125 59:0.5 60:0.5 61:0.4375 # 0
-1 2:0.1875 3:0.6875 4:1 5:0.3125 10:0.75 11:0.9375 12:0.75 13:0.4375 18:0.9375 19:0.375 26:1 27:0.9375 28:0.6875 29:0.0625 34:0.9375 35:0.9375 36:0.875 37:0.5625 42:0.9375 43:0.375 44:0.125 45:1 46:0.125 50:0.75 51:0.75 52:0.75 53:1 54:0.3125 58:0.1875 59:0.8125 60:0.9375 61:0.5625 # 0
-1 2:0.0625 3:0.5 4:0.375 10:0.875 11:1 12:1 13:1 18:1 19:1 20:1 21:1 26:1 27:1 28:1 29:1 34:1 35:1 36:1 37:0.9375 42:1 43:1 44:1 45:0.8125 50:0.5625 51:1 52:1 53:0.5625 58:0.375 59:0.5 60:0.375 61:0.0625 # 0
-1 2:0.0625 3:0.75 4:0.9375 5:0.3125 10:0.75 11:0.6875 12:0.25 13:0.1875 17:0.0625 18:0.9375 19:0.125 25:0.3125 26:0.75 33:0.21428572 34:1 35:1 36:0.6875 37:0.125 41:0.125 42:1 43:0.9375 44:0.5 45:0.75 50:0.625 51:0.5625 52:0.0625 53:0.9375 54:0.3125 59:0.75 60:1 61:0.625 # 0
1 2:0.6875 3:0.4375 4:0.625 5:0.1875 10:0.5625 11:0.75 12:0.75 13:0.875 19:0.9375 20:0.9375 21:0.6875 22:0.0625 26:0.0625 27:0.875 28:0.5625 34:0.5625 35:0.8125 36:0.5 42:0.875 43:0.3125 44:0.625 50:0.875 51:0.125 52:0.75 58:0.625 59:1 60:0.625 # 0
1 2:0.375 3:0.5625 4:0.25 5:0.0625 10:0.375 11:1 12:1 13:0.5625 14:0.0625 18:0.25 19:1 20:0.0625 21:0.8125 22:0.4375 27:0.875 28:0.3125 29:0.75 30:0.5 33:0.071428575 34:0.625 35:0.9375 36:1 37:0.625 41:0.375 42:0.9375 43:0.5625 44:1 45:0.0625 49:0.4375 50:0.8125 51:0.5 52:0.875 53:0.25 58:0.375 59:0.625 60:0.8125 61:0.0625 # 0
1 2:0.5625 3:0.9375 4:1 5:0.4375 10:1 11:0.5625 12:0.4375 13:0.9375 18:0.3125 19:0.875 20:0.8125 21:0.5 27:0.875 28:0.875 34:0.25 35:1 36:0.8125 42:0.625 43:0.5 44:0.75 50:0.8125 51:0.5 52:0.9375 53:0.0625 58:0.6875 59:1 60:0.3125 # 0
-1 1:0.125 2:0.625 3:0.75 4:0.875 5:0.5625 9:0.73333335 10:0.6875 11:0.3125 12:0.3125 13:1 14:0.25 17:0.25 18:0.1875 20:0.125 21:1 22:0.125 28:0.75 29:0.5625 34:0.0625 35:0.8125 36:0.625 42:0.5625 43:0.8125 49:0.125 50:1 51:0.25 57:0.1 58:0.8125 59:0.9375 60:0.75 61:0.125 # 0
-1 2:0.6875 3:0.875 4:0.625 5:0.1875 10:0.375 11:0.5 12:0.75 13:0.9375 14:0.1875 20:0.375 21:1 22:0.3125 27:0.375 28:0.9375 29:0.75 30:0.0625 34:0.3125 35:1 36:0.8125 37:0.0625 42:0.9375 43:0.8125 49:0.3125 50:1 51:0.5 52:0.25 53:0.125 57:0.1 58:0.625 59:1 60:1 61:0.625 # 0
1 2:0.125 3:0.6875 4:0.9375 5:0.125 9:0.06666667 10:0.9375 11:0.875 12:0.6875 13:0.625 17:0.4375 18:1 19:0.125 20:0.0625 21:1 25:0.375 26:1 27:0.75 28:0.875 29:1 30:0.0625 34:0.625 35:1 36:1 37:1 38:0.2857143 42:0.25 43:1 44:0.75 45:0.5625 46:0.625 50:0.4375 51:1 52:0.3125 53:0.9375 54:0.5 58:0.125 59:0.75 60:0.75 61:0.8125 62:0.125 # 0
1 2:0.25 3:0.8125 4:0.375 9:0.26666668 10:1 11:0.8125 12:0.25 13:0.1875 17:0.75 18:0.625 19:0.0625 20:0.75 21:1 22:0.1875 25:0.4375 26:0.875 27:0.5625 28:1 29:0.3125 34:0.75 35:1 36:0.8125 37:0.0625 42:0.3125 43:0.9375 44:0.9375 45:0.9375 46:0.1875 50:0.4375 51:0.875 52:0.75 53:1 54:0.625 58:0.1875 59:1 60:0.6875 61:0.5 62:0.125 # 0
-0.9514266832633961890053342358442 2:0.0625 3:0.875 4:0.4375 9:0.06666667 10:0.8125 11:1 12:0.875 13:0.6875 17:0.25 18:1 19:0.75 21:0.875 22:0.1875 25:0.375 26:0.875 27:0.875 29:0.5 30:0.5 33:0.2857143 34:1 35:0.875 37:0.5 38:0.5714286 41:0.0625 42:0.9375 43:0.1875 45:0.625 46:0.5 50:0.4375 51:0.9375 52:0.625 53:1 54:0.0625 58:0.0625 59:0.5625 60:1 61:0.5 # 0
1 1:0.25 3:0.8125 4:0.75 5:0.1875 8:1 9:0.93333334 10:0.0625 11:0.8125 12:1 13:0.3125 17:0.5 18:1 19:0.875 20:1 21:0.25 26:0.5 27:1 28:1 29:0.125 35:1 36:1 37:0.5625 42:0.1875 43:1 44:1 45:1 46:0.25 50:0.6875 51:1 52:1 53:1 54:0.375 58:0.0625 59:0.9375 60:1 61:0.625 # 0
-0.7867772666933612324413616079255 2:0.4375 3:0.6875 10:0.875 11:0.8125 17:0.1875 18:1 19:0.625 20:0.1875 25:0.1875 26:1 27:1 28:1 29:0.6875 33:0.42857143 34:1 35:1 36:1 37:1 38:0.071428575 41:0.25 42:1 43:0.375 44:0.0625 45:1 46:0.5625 49:0.125 50:0.9375 51:0.875 52:0.875 53:1 54:0.1875 58:0.3125 59:1 60:0.875 61:0.375 # 0
-1 2:0.4375 3:0.8125 4:1 5:0.6875 6:0.25 9:0.06666667 10:1 11:0.3125 12:0.125 13:0.8125 14:0.75 17:0.25 18:0.875 20:0.25 21:0.9375 22:0.25 25:0.125 26:0.9375 27:0.8125 28:1 29:0.5 34:0.0625 35:0.5 36:0.9375 37:0.0625 42:0.0625 43:0.8125 44:0.3125 50:0.5625 51:0.625 58:0.75 59:0.375 # 0
0.54470053635450366158465840271674 2:0.3125 3:0.625 4:0.9375 5:0.6875 6:0.0625 9:0.40000001 10:1 11:0.5 12:0.4375 13:1 14:0.3125 17:0.375 18:0.9375 19:0.125 20:0.5 21:0.875 22:0.0625 26:0.6875 27:0.875 28:1 29:0.1875 35:0.8125 36:0.9375 37:0.0625 42:0.3125 43:0.9375 44:0.9375 45:0.375 50:0.6875 51:1 52:1 53:0.4375 58:0.375 59:0.8125 60:0.6875 61:0.125 # 0
1 2:0.25 3:0.8125 4:0.9375 5:0.5 9:0.13333334 10:0.8125 11:0.25 13:0.75 17:0.375 18:0.5625 20:0.125 21:0.625 25:0.1875 26:0.8125 27:0.0625 28:0.25 29:0.9375 30:0.3125 34:0.3125 35:0.875 36:0.875 37:0.1875 42:0.1875 43:1 44:0.8125 50:0.5 51:0.375 52:0.875 53:0.25 58:0.375 59:0.8125 60:0.9375 61:0.1875 # 0
1 1:0.25 2:0.6875 3:1 4:0.625 5:0.0625 9:0.46666667 10:0.875 11:0.4375 12:1 13:0.875 14:0.125 17:0.375 18:0.5625 19:0.4375 20:0.9375 21:0.0625 25:0.0625 26:0.8125 27:1 28:0.4375 34:0.5625 35:1 36:0.5625 42:0.75 43:1 44:0.6875 49:0.1875 50:1 51:1 52:0.1875 58:0.875 59:0.5625 # 0
1 2:0.5 3:0.8125 4:0.375 9:0.13333334 10:1 11:0.75 12:0.6875 13:0.625 18:1 19:1 20:0.875 21:0.5 22:0.0625 26:0.8125 27:0.6875 33:0.14285715 34:0.9375 35:0.25 42:1 43:0.8125 49:0.125 50:0.9375 51:1 52:0.125 58:0.6875 59:1 60:0.25 # 0
-0.67323670984056072086332278558984 1:0.125 2:0.5625 3:0.8125 4:0.8125 5:0.3125 9:0.66666669 10:0.875 11:0.375 12:0.5625 13:1 14:0.1875 17:0.4375 18:0.625 21:1 22:0.375 28:0.625 29:0.875 30:0.0625 35:0.5625 36:0.9375 37:0.1875 42:0.4375 43:1 44:0.125 50:0.875 51:0.5625 53:0.1875 54:0.0625 58:0.875 59:1 60:0.9375 61:0.75 62:0.125 # 0
-1 2:0.4375 3:0.625 10:0.75 11:0.8125 17:0.125 18:1 19:0.5 26:1 27:0.3125 33:0.2857143 34:1 35:0.625 36:0.375 41:0.25 42:1 43:1 44:1 45:0.875 46:0.3125 49:0.1875 50:1 51:0.625 52:0.6875 53:1 54:0.6875 58:0.4375 59:0.875 60:0.75 61:0.5625 62:0.125 # 0
-1 2:0.3125 3:0.75 4:0.875 5:0.4375 9:0.33333334 10:1 11:0.4375 12:0.3125 13:1 14:0.125 17:0.5 18:0.625 20:0.25 21:1 22:0.25 25:0.125 26:0.6875 27:0.9375 28:0.6875 29:0.8125 30:0.25 37:0.5 38:0.2857143 45:0.3125 46:0.5 49:0.0625 50:0.4375 51:0.0625 53:0.6875 54:0.3125 58:0.3125 59:0.8125 60:0.625 61:0.5625 62:0.0625 # 0
1 1:0.375 2:0.375 3:0.9375 4:0.8125 5:0.0625 9:0.66666669 10:1 11:0.3125 12:0.6875 13:0.625 17:0.0625 18:0.6875 19:0.625 20:0.6875 21:0.6875 27:0.625 28:1 29:0.1875 34:0.0625 35:0.8125 36:0.8125 37:0.1875 42:0.4375 43:0.9375 44:0.375 45:0.6875 50:0.625 51:0.75 52:0.4375 53:0.875 58:0.25 59:1 60:0.9375 61:0.1875 # 0
1 3:0.375 4:0.9375 5:0.375 11:0.75 12:0.625 13:0.8125 19:0.6875 20:0.9375 21:0.875 26:0.5625 27:0.6875 28:0.875 33:0.2857143 34:0.6875 36:0.625 37:0.375 41:0.1875 42:0.5625 44:0.0625 45:0.875 46:0.0625 50:0.6875 51:0.5 52:0.125 53:0.5625 54:0.4375 59:0.375 60:0.75 61:0.8125 62:0.4375 # 0
1 2:0.1875 3:1 4:0.9375 5:0.1875 10:0.375 11:1 12:0.9375 13:0.1875 18:0.625 19:1 20:0.375 21:0.125 26:0.25 27:0.875 28:1 29:0.1875 33:0.2857143 34:0.8125 35:0.125 36:0.75 37:0.375 41:0.3125 42:0.6875 44:0.0625 45:0.75 46:0.1875 50:0.8125 51:0.1875 53:0.4375 54:0.6875 58:0.1875 59:0.6875 60:0.6875 61:0.875 62:0.625 # 0
-0.1882639296564736497430203598924 1:0.125 2:0.5 3:0.9375 4:0.625 9:0.26666668 10:1 11:1 12:1 13:0.5625 18:0.75 19:1 20:1 21:0.75 26:0.625 27:1 28:1 29:0.5 34:0.5 35:1 36:1 37:0.625 42:0.5625 43:1 44:1 45:0.8125 50:0.5 51:1 52:1 53:0.75 58:0.3125 59:0.9375 60:1 61:0.5625 62:0.0625 # 0
-1 3:0.0625 4:0.6875 5:0.625 11:0.3125 12:1 13:1 14:0.125 19:0.375 20:1 21:1 22:0.125 27:0.75 28:1 29:1 34:0.4375 35:1 36:1 37:0.5 41:0.375 42:1 43:1 44:1 45:0.5625 49:0.125 50:0.75 51:0.75 52:1 53:0.6875 60:0.75 61:0.6875 # 0
-1 2:0.125 3:0.75 4:1 5:0.8125 6:0.125 9:0.06666667 10:0.875 11:0.75 12:0.375 13:0.9375 14:0.4375 17:0.4375 18:1 19:0.125 20:0.4375 21:0.9375 22:0.375 25:0.125 26:1 27:1 28:1 29:1 30:0.1875 34:0.1875 35:0.375 36:0.625 37:0.8125 43:0.0625 44:0.875 45:0.3125 51:0.5 52:0.875 53:0.0625 59:0.9375 60:0.5625 # 0
1 2:0.5 3:1 4:1 5:0.6875 9:0.33333334 10:0.9375 11:0.4375 12:0.125 13:1 14:0.1875 17:0.75 18:0.625 20:0.25 21:1 22:0.0625 25:0.6875 26:0.875 27:0.125 28:0.75 29:0.75 34:0.6875 35:0.875 36:1 37:0.125 42:0.0625 43:1 44:0.8125 45:0.0625 50:0.4375 51:0.8125 52:1 53:0.5 58:0.8125 59:0.5625 60:0.75 61:0.75 # 0
1 1:0.25 2:0.6875 3:0.1875 5:0.125 9:0.13333334 10:0.8125 11:0.75 12:0.3125 13:0.9375 14:0.375 18:0.6875 19:0.875 20:0.875 21:0.0625 26:0.4375 27:0.9375 28:0.0625 34:0.9375 35:0.75 36:0.3125 41:0.25 42:0.625 43:0.25 44:0.5 49:0.4375 50:0.5625 51:0.4375 52:0.5 57:0.2 58:0.875 59:0.9375 60:0.3125 # 0
-1 3:0.625 4:0.8125 5:0.3125 10:0.6875 11:0.75 12:0.5 13:0.9375 14:0.125 17:0.375 18:1 19:0.0625 20:0.0625 21:0.875 22:0.25 25:0.375 26:1 27:0.5 28:0.8125 29:1 30:0.3125 33:0.14285715 34:0.8125 35:0.75 36:1 37:0.75 44:0.875 45:0.375 51:0.25 52:0.875 53:0.0625 59:0.6875 60:0.3125 # 0
-1 1:0.125 2:0.9375 3:0.625 9:0.46666667 10:1 11:0.3125 12:0.0625 13:0.8125 14:0.375 17:0.5625 18:1 19:0.1875 20:0.5625 21:1 22:0.25 25:0.1875 26:0.9375 27:1 28:1 29:0.6875 34:0.125 35:0.875 36:0.9375 37:0.1875 42:0.1875 43:1 44:0.5 50:0.75 51:0.9375 57:0.1 58:1 59:0.3125 # 0
-1 1:0.125 2:0.5625 3:1 4:1 5:0.875 6:0.125 9:0.73333335 10:1 11:0.4375 12:0.3125 13:1 14:0.375 17:1 18:0.875 19:0.625 20:1 21:1 22:0.25 25:0.25 26:0.5 27:0.625 28:1 29:0.8125 34:0.0625 35:0.8125 36:0.8125 37:0.0625 42:0.375 43:1 44:0.375 50:0.75 51:0.625 58:0.6875 59:0.6875 # 0
1 2:0.1875 3:0.6875 4:0.9375 5:0.5 10:0.5625 11:0.875 12:0.5 13:0.5625 18:0.375 19:0.875 20:0.3125 27:0.75 28:1 29:0.4375 34:0.25 35:0.875 36:0.6875 37:0.6875 42:0.75 43:0.5 45:1 46:0.0625 50:0.875 51:0.6875 52:0.6875 53:0.9375 54:0.0625 58:0.1875 59:0.8125 60:0.8125 61:0.375 # 0
1 2:0.0625 3:0.75 4:0.9375 5:0.75 6:0.0625 10:0.125 11:0.75 12:0.625 13:1 14:0.25 17:0.375 18:0.625 19:0.375 20:0.875 21:0.5625 25:0.3125 26:0.8125 27:1 28:1 29:0.4375 34:0.3125 35:0.9375 36:0.625 37:0.9375 42:0.3125 43:0.75 45:0.6875 46:0.4375 50:0.25 51:0.875 52:0.25 53:0.8125 54:0.4375 58:0.125 59:0.75 60:0.9375 61:0.625 62:0.0625 # 0
1 2:0.4375 3:0.875 4:0.4375 10:0.9375 11:0.875 12:1 13:0.1875 18:0.9375 19:0.75 20:1 21:0.375 26:0.375 27:1 28:1 29:0.25 34:0.5 35:1 36:1 37:0.6875 42:0.9375 43:0.75 44:0.1875 45:1 46:0.5 49:0.125 50:0.9375 51:0.6875 52:0.5 53:1 54:0.625 58:0.5625 59:1 60:1 61:0.75 62:0.375 # 0
-1 2:0.875 3:0.1875 9:0.40000001 10:1 11:0.125 17:0.5 18:1 25:0.5 26:1 27:0.25 28:0.1875 33:0.5714286 34:1 35:1 36:1 37:0.875 38:0.071428575 41:0.5 42:1 43:0.3125 44:0.3125 45:1 46:0.5 49:0.25 50:1 51:0.125 52:0.4375 53:1 54:0.125 58:0.75 59:1 60:0.9375 61:0.4375 # 0
1 2:0.4375 3:0.875 4:0.1875 9:0.2 10:1 11:1 12:0.75 17:0.625 18:0.9375 19:0.625 20:1 21:1 22:0.125 25:0.5 26:1 27:1 28:1 29:0.625 30:0.125 33:0.2857143 34:1 35:0.9375 36:0.125 41:0.25 42:1 43:1 44:0.25 49:0.1875 50:1 51:1 52:0.9375 58:0.5625 59:1 60:0.9375 # 0
-0.6723175762022474133416949371167 2:0.25 3:0.8125 4:0.625 5:0.1875 10:1 11:0.9375 12:0.8125 13:0.8125 17:0.0625 18:1 19:0.5625 20:0.5 21:0.9375 25:0.125 26:1 27:0.9375 28:0.9375 29:1 30:0.0625 34:0.4375 35:0.75 36:0.75 37:1 38:0.42857143 45:0.875 46:0.625 50:0.1875 51:0.125 52:0.0625 53:0.875 54:0.6875 58:0.3125 59:0.8125 60:0.875 61:0.75 62:0.125 # 0
-0.2070864618772536580593168764608 2:0.4375 3:0.9375 4:0.5 5:0.125 10:0.75 11:1 12:0.875 13:0.3125 18:0.75 19:1 20:1 21:0.25 26:0.75 27:1 28:1 29:0.125 34:0.8125 35:1 36:1 37:0.125 42:0.875 43:1 44:1 49:0.0625 50:0.875 51:1 52:1 53:0.875 54:0.0625 57:0.1 58:0.5 59:1 60:0.6875 61:0.5 # 0
1 2:0.5625 3:0.625 4:0.9375 5:0.875 9:0.13333334 10:1 11:1 12:1 13:0.9375 17:0.125 18:1 19:0.25 20:0.9375 21:0.3125 26:0.75 27:1 28:0.75 34:0.8125 35:1 36:0.25 41:0.125 42:1 43:0.875 44:0.75 49:0.0625 50:1 51:0.6875 52:1 53:0.25 58:0.5625 59:1 60:0.9375 61:0.1875 # 0
-1 2:0.4375 3:1 4:1 5:0.625 9:0.26666668 10:1 11:0.8125 12:1 13:0.9375 18:0.5 19:0.125 20:1 21:0.75 27:0.5 28:1 29:0.375 34:0.25 35:1 36:0.5625 41:0.0625 42:0.8125 43:0.9375 44:0.125 49:0.0625 50:1 51:0.9375 52:0.75 53:0.75 54:0.3125 58:0.5625 59:1 60:0.875 61:0.4375 62:0.0625 # 0
1 2:0.4375 3:0.875 4:0.25 9:0.06666667 10:1 11:1 12:1 13:0.4375 17:0.25 18:1 19:1 20:1 21:0.875 26:0.8125 27:1 28:1 29:0.6875 34:0.5 35:1 36:1 37:0.0625 42:0.625 43:1 44:1 45:0.375 50:0.6875 51:1 52:1 53:0.8125 58:0.375 59:0.75 60:0.8125 61:0.625 # 0
1 3:0.8125 4:0.4375 9:0.33333334 10:0.875 11:1 12:1 13:0.5 17:0.75 18:0.625 20:0.375 21:1 25:0.125 26:0.875 27:0.75 28:0.3125 29:1 30:0.1875 35:0.6875 36:1 37:0.6875 42:0.125 43:0.9375 44:0.5625 45:1 46:0.3125 50:0.625 51:0.875 52:0.25 53:0.8125 54:0.75 58:0.0625 59:0.5625 60:0.875 61:1 62:0.6875 # 0
1 2:0.1875 3:0.8125 4:1 5:0.8125 6:0.0625 10:0.75 11:0.8125 12:0.5 13:1 14:0.1875 17:0.125 18:0.9375 19:1 20:1 21:0.5 25:0.375 26:0.5 27:0.6875 28:0.9375 29:0.625 34:0.25 35:0.875 36:0.25 37:1 42:0.5 43:0.5625 44:0.0625 45:0.8125 46:0.4375 50:0.4375 51:0.5625 53:0.875 54:0.375 58:0.1875 59:0.875 60:0.875 61:0.875 62:0.0625 # 0
1 2:0.5625 3:0.8125 4:1 5:0.75 6:0.0625 9:0.33333334 10:1 11:0.875 12:1 13:1 14:0.25 17:0.25 18:1 20:0.8125 21:0.8125 22:0.0625 25:0.125 26:0.875 27:0.875 28:0.9375 29:0.1875 34:0.5 35:1 36:0.25 42:0.9375 43:1 44:0.3125 49:0.0625 50:1 51:1 52:0.4375 58:0.75 59:1 60:0.375 # 0
1 2:0.1875 3:0.6875 4:0.75 5:0.25 9:0.40000001 10:0.9375 11:0.375 12:0.3125 13:0.8125 17:0.4375 18:0.8125 20:0.125 21:1 22:0.0625 25:0.1875 26:1 27:1 28:1 29:0.875 34:0.9375 35:0.8125 36:0.5 37:0.8125 38:0.42857143 42:0.75 43:0.0625 45:0.1875 46:0.5625 50:0.5625 51:0.75 52:0.5 53:0.875 54:0.6875 58:0.3125 59:0.8125 60:0.75 61:0.5625 62:0.0625 # 0
-1 2:0.3125 3:1 4:1 5:0.625 6:0.0625 9:0.53333336 10:0.875 11:0.875 12:0.5 13:0.5625 14:0.0625 17:0.875 18:1 19:0.5625 20:0.0625 25:0.75 26:1 27:1 28:0.9375 29:0.1875 33:0.071428575 34:0.625 35:0.75 36:0.8125 37:0.8125 44:0.25 45:1 50:0.0625 51:0.25 52:0.75 53:0.875 58:0.25 59:0.9375 60:1 61:0.25 # 0
-1 2:0.125 3:0.8125 4:0.5625 10:0.5 11:1 12:1 17:0.875 18:1 19:1 20:0.5 25:0.375 26:0.75 27:1 28:0.375 34:0.5 35:1 36:0.375 42:0.375 43:1 44:0.4375 50:0.25 51:1 52:0.6875 58:0.0625 59:0.875 60:0.875 # 0
0.51337943533438612497832309600199 1:0.125 2:0.4375 3:0.9375 4:0.625 9:0.40000001 10:0.875 11:0.4375 12:1 13:0.125 17:0.375 18:0.875 19:0.75 20:1 21:0.8125 25:0.0625 26:0.75 27:1 28:0.6875 35:0.8125 36:1 37:0.1875 42:0.25 43:0.75 44:0.1875 45:0.875 46:0.125 50:0.5 51:0.5625 53:0.6875 54:0.5 58:0.375 59:1 60:1 61:0.6875 62:0.125 # 0
1 1:0.125 2:0.8125 3:1 4:0.8125 5:0.3125 6:0.125 9:0.13333334 10:1 11:0.5625 12:0.8125 13:0.875 18:0.6875 19:0.8125 20:0.9375 21:0.3125 26:0.1875 27:1 28:0.8125 34:0.1875 35:1 36:0.5 42:0.625 43:1 44:0.75 49:0.0625 50:0.9375 51:1 52:0.75 57:0.1 58:1 59:0.625 60:0.0625 # 0
1 1:0.125 2:0.75 3:1 4:0.75 9:0.73333335 10:0.8125 11:0.3125 12:1 13:0.1875 14:0.5 17:0.625 18:0.8125 19:0.25 20:1 21:0.9375 22:0.1875 25:0.125 26:1 27:0.75 28:0.9375 29:0.375 34:0.875 35:0.875 36:0.125 41:0.125 42:1 43:1 44:0.1875 49:0.25 50:0.9375 51:0.75 52:0.6875 58:0.875 59:1 60:0.8125 # 0
1 2:0.5625 3:0.875 4:1 5:1 6:0.3125 10:0.375 11:1 12:0.4375 13:0.6875 14:0.625 19:0.9375 20:0.4375 21:0.5625 22:0.5625 27:0.75 28:0.9375 29:0.9375 30:0.1875 34:0.4375 35:1 36:1 37:0.375 41:0.1875 42:0.875 43:0.125 44:1 45:0.125 49:0.3125 50:0.9375 51:0.3125 52:1 53:0.25 57:0.1 58:0.6875 59:1 60:0.75 # 0
-1 2:0.4375 3:0.9375 4:0.9375 5:0.3125 9:0.26666668 10:1 11:1 12:1 13:0.8125 14:0.0625 17:0.125 18:1 19:1 20:1 21:0.375 26:1 27:1 28:1 29:0.375 34:1 35:1 36:1 41:0.0625 42:1 43:1 44:1 45:0.0625 49:0.25 50:1 51:1 52:0.9375 53:0.1875 57:0.1 58:0.5 59:0.9375 60:0.75 61:0.125 # 0
0.71281466699966355982098775712075 2:0.4375 3:0.75 4:0.8125 5:0.0625 9:0.40000001 10:1 11:0.375 12:0.5 13:0.4375 18:1 19:0.625 20:0.6875 21:0.5 26:0.5 27:0.9375 28:1 29:0.3125 34:0.625 35:0.9375 36:0.75 37:0.875 38:0.071428575 42:0.9375 43:0.4375 45:0.6875 46:0.4375 50:0.9375 51:0.5 52:0.5 53:0.9375 54:0.4375 58:0.375 59:0.75 60:0.75 61:0.5 62:0.0625 # 0
-1 2:0.1875 3:1 4:1 5:0.5625 10:0.8125 11:0.875 12:0.5625 13:1 14:0.1875 18:0.9375 19:0.375 20:0.3125 21:1 22:0.1875 26:0.5 27:1 28:1 29:1 30:0.1875 35:0.375 36:0.4375 37:1 38:0.14285715 42:0.0625 44:0.1875 45:1 46:0.1875 49:0.0625 50:0.875 51:0.1875 52:0.375 53:0.9375 54:0.0625 58:0.1875 59:0.9375 60:1 61:0.8125 # 0
-1 2:0.3125 3:0.9375 4:0.8125 5:0.4375 9:0.26666668 10:0.9375 11:0.5 12:0.4375 13:1 14:0.25 17:0.375 18:0.75 19:0.0625 20:0.625 21:0.875 22:0.0625 27:0.75 28:0.75 29:0.125 35:0.875 36:0.6875 37:0.1875 43:0.0625 44:0.625 45:0.875 52:0.25 53:0.875 54:0.5 58:0.25 59:1 60:1 61:0.875 62:0.25 # 0
0.60553605805613086587868565402459 3:0.5625 4:0.5625 5:0.0625 10:0.625 11:1 12:0.625 13:0.75 14:0.0625 18:0.3125 19:0.875 20:0.0625 21:0.75 22:0.25 27:0.6875 28:0.9375 29:1 30:0.125 34:0.1875 35:0.75 36:1 37:0.5625 41:0.0625 42:0.75 43:0.625 44:0.25 45:1 46:0.4375 49:0.125 50:0.9375 51:0.3125 53:0.6875 54:0.75 58:0.0625 59:0.625 60:0.8125 61:0.8125 62:0.375 # 0
1 2:0.375 3:0.875 4:1 5:0.625 10:0.8125 11:0.8125 12:0.625 13:0.9375 18:0.3125 19:0.9375 20:0.6875 21:0.875 27:0.625 28:1 29:0.4375 35:0.875 36:1 37:0.0625 42:0.5 43:0.9375 44:0.9375 45:0.125 50:0.75 51:0.875 52:1 53:0.0625 58:0.625 59:1 60:0.6875 # 0
-1 2:0.0625 3:0.6875 4:1 5:0.9375 6:0.1875 9:0.06666667 10:0.8125 11:0.8125 12:0.3125 13:0.8125 14:0.5 17:0.375 18:1 19:0.5 20:0.125 21:0.9375 22:0.5 25:0.625 26:1 27:1 28:1 29:1 30:0.4375 33:0.071428575 34:0.0625 35:0.375 36:0.9375 37:0.875 38:0.071428575 43:0.1875 44:1 45:0.3125 51:0.5625 52:0.875 58:0.0625 59:0.9375 60:0.4375 # 0
1 1:0.25 2:1 3:0.9375 4:0.25 9:0.26666668 10:1 11:0.875 12:0.5625 13:0.1875 14:0.3125 17:0.25 18:0.9375 19:0.4375 20:1 21:1 22:0.5 25:0.0625 26:0.9375 27:1 28:0.9375 29:0.375 34:0.625 35:1 36:0.25 41:0.0625 42:0.875 43:1 44:0.125 49:0.4375 50:0.625 51:1 57:0.2 58:0.875 59:0.6875 # 0
-1 2:0.375 3:0.8125 4:1 5:1 6:0.8125 9:0.40000001 10:1 11:0.625 12:0.4375 13:0.9375 14:0.875 17:0.0625 18:0.25 20:0.625 21:1 22:0.375 27:0.625 28:1 29:0.25 34:0.1875 35:1 36:0.5625 42:0.9375 43:0.6875 50:1 51:0.625 58:0.5625 59:1 60:1 61:0.75 62:0.0625 # 0
-1 2:0.4375 3:0.75 4:0.875 5:0.625 6:0.0625 9:0.40000001 10:1 11:0.6875 12:0.625 13:1 14:0.25 17:0.1875 18:0.3125 20:0.5 21:0.8125 22:0.0625 27:0.3125 28:0.9375 29:0.3125 34:0.125 35:0.9375 36:0.6875 42:0.8125 43:0.875 44:0.0625 49:0.0625 50:0.9375 51:0.6875 52:0.375 53:0.5 54:0.1875 58:0.4375 59:0.875 60:0.75 61:0.75 62:0.375 # 0
0.85924877043641889606817585445242 2:0.1875 3:0.9375 4:0.9375 5:0.0625 10:0.5625 11:1 12:0.75 13:0.125 17:0.25 18:1 19:0.5625 20:0.375 21:0.5625 22:0.125 25:0.5 26:1 27:1 28:1 29:0.625 30:0.1875 33:0.14285715 34:1 35:1 36:0.875 37:0.0625 41:0.25 42:1 43:1 44:1 45:0.25 49:0.0625 50:0.875 51:1 52:1 53:0.75 58:0.1875 59:0.875 60:0.75 61:0.3125 # 0
-0.35527659407436351646225602962659 2:0.0625 3:0.625 4:0.125 10:0.1875 11:1 12:0.3125 18:0.5 19:0.9375 26:0.75 27:0.5 34:0.8125 35:0.5625 36:0.1875 41:0.125 42:1 43:1 44:1 45:1 46:0.4375 50:0.875 51:0.5 52:0.125 53:0.5 54:1 55:0.2 58:0.125 59:0.9375 60:1 61:1 62:0.8125 63:0.06666667 # 0
-1 2:0.6875 3:1 4:0.75 5:0.3125 9:0.26666668 10:1 11:0.6875 12:1 13:1 14:0.1875 17:0.25 18:1 19:0.6875 20:1 21:0.875 26:0.625 27:1 28:1 29:0.375 35:0.9375 36:0.875 42:0.4375 43:1 44:0.3125 50:0.9375 51:0.8125 58:0.75 59:0.6875 # 0
-1 2:0.4375 3:1 4:1 5:0.625 6:0.0625 10:0.5 11:1 12:1 13:0.8125 14:0.0625 18:0.375 19:1 20:1 21:0.75 26:0.25 27:1 28:1 29:0.5 34:0.4375 35:1 36:1 37:0.3125 41:0.0625 42:0.875 43:1 44:1 45:0.1875 49:0.25 50:1 51:1 52:0.5 57:0.2 58:0.875 59:1 60:0.875 61:0.125 # 0
-1 2:0.375 3:0.9375 4:1 5:0.375 9:0.33333334 10:0.9375 11:1 12:1 13:0.6875 17:0.5 18:1 19:1 20:1 21:0.5625 26:0.25 27:1 28:1 29:0.375 34:0.125 35:1 36:1 42:0.5 43:1 44:1 45:0.125 50:0.6875 51:1 52:1 53:0.8125 54:0.125 58:0.3125 59:0.8125 60:0.6875 61:0.5 62:0.125 # 0
-0.78127994429280700483531063582632 2:0.25 3:0.9375 10:0.8125 11:0.3125 18:1 25:0.25 26:0.8125 33:0.5 34:0.9375 35:0.5 36:0.5625 37:0.1875 41:0.375 42:1 43:0.75 44:0.8125 45:1 46:0.25 50:0.9375 51:0.5 52:0.125 53:0.875 54:0.4375 58:0.25 59:0.9375 60:0.8125 61:0.375 # 0
1 2:0.125 3:0.6875 4:1 5:0.8125 6:0.0625 9:0.06666667 10:1 11:0.6875 12:0.25 13:0.75 14:0.5 18:0.875 19:0.5 20:0.1875 21:0.6875 22:0.5 26:0.8125 27:1 28:1 29:0.875 30:0.0625 34:0.625 35:1 36:0.625 37:0.9375 38:0.21428572 42:0.875 43:0.4375 45:0.625 46:0.3125 50:0.6875 51:0.75 52:0.5 53:0.875 54:0.25 58:0.1875 59:0.875 60:0.75 61:0.625 62:0.0625 # 0
1 1:0.25 2:0.4375 3:1 4:0.9375 5:0.5 9:0.33333334 10:1 11:0.6875 12:0.9375 13:0.75 18:0.6875 19:0.9375 20:0.8125 26:0.1875 27:1 28:0.0625 34:0.5625 35:1 36:0.0625 42:0.8125 43:0.625 44:0.3125 50:0.875 51:0.5625 52:0.5 58:0.375 59:1 60:0.3125 # 0
-1 2:0.0625 3:0.9375 4:0.875 10:0.375 11:1 12:1 13:0.5 18:0.75 19:1 20:1 21:0.125 26:0.75 27:1 28:0.8125 34:0.9375 35:1 36:0.4375 42:0.875 43:1 44:0.4375 50:0.6875 51:1 52:0.6875 58:0.125 59:0.875 60:0.8125 # 0
-1 2:0.125 3:0.8125 4:1 5:0.1875 9:0.26666668 10:0.9375 11:0.875 12:0.9375 13:0.75 17:0.25 18:0.4375 19:0.0625 20:0.875 21:0.4375 27:0.375 28:1 29:0.1875 34:0.25 35:1 36:0.3125 41:0.0625 42:0.8125 43:0.625 50:0.875 51:0.75 52:0.3125 53:0.5 54:0.1875 58:0.1875 59:0.75 60:1 61:0.625 62:0.125 # 0
-1 1:0.375 2:0.875 3:1 4:1 5:0.8125 9:0.53333336 10:0.9375 11:0.5 12:0.8125 13:1 18:0.0625 19:0.125 20:1 21:0.625 27:0.75 28:0.9375 29:0.0625 34:0.5625 35:0.9375 36:0.1875 41:0.125 42:1 43:0.5 49:0.375 50:1 51:0.25 52:0.25 53:0.4375 54:0.4375 57:0.30000001 58:0.9375 59:1 60:1 61:0.8125 62:0.4375 # 0
-1 1:0.125 2:0.5 3:0.75 4:0.9375 5:0.375 9:0.13333334 10:0.75 11:0.5 12:0.8125 13:0.9375 14:0.125 20:0.8125 21:1 22:0.0625 27:0.375 28:1 29:0.625 34:0.375 35:1 36:0.6875 42:0.8125 43:1 44:0.1875 50:1 51:0.75 52:0.125 53:0.375 58:0.5 59:0.875 60:1 61:0.625 62:0.125 # 0
-1 2:0.5 3:0.875 4:1 5:0.3125 9:0.13333334 10:1 11:0.5 12:0.625 13:0.5 18:0.25 19:0.125 20:0.8125 21:0.375 27:0.4375 28:0.75 34:0.0625 35:0.9375 36:0.4375 42:0.5625 43:0.6875 49:0.25 50:1 51:0.5625 52:0.5 53:0.75 54:0.125 58:0.625 59:0.875 60:0.5625 61:0.125 # 0
-1 2:0.5 3:1 4:1 5:0.25 9:0.33333334 10:1 11:0.5 12:0.8125 13:0.625 17:0.375 18:0.6875 19:0.0625 20:0.875 21:0.4375 27:0.375 28:1 29:0.0625 35:0.9375 36:0.5625 42:0.5 43:0.875 44:0.125 50:1 51:0.5625 53:0.125 54:0.1875 58:0.625 59:1 60:1 61:0.75 62:0.1875 # 0
1 2:0.3125 3:0.75 4:1 5:0.25 9:0.13333334 10:1 11:0.9375 12:0.625 13:0.25 17:0.25 18:1 19:0.875 20:1 21:0.3125 25:0.25 26:0.9375 27:1 28:1 29:0.5625 34:0.4375 35:1 36:1 37:0.8125 38:0.14285715 42:0.625 43:0.9375 44:0.375 45:1 46:0.5 50:0.875 51:0.875 52:0.8125 53:0.875 54:0.0625 58:0.4375 59:1 60:0.6875 61:0.3125 # 0
-0.31758087895448827708833050564863 2:0.125 3:0.875 4:0.1875 10:0.5625 11:0.875 18:0.6875 19:0.625 26:1 27:0.4375 33:0.14285715 34:1 35:0.75 36:0.5 37:0.25 42:1 43:1 44:1 45:1 46:0.6875 50:0.75 51:0.625 52:0.25 53:0.4375 54:0.875 58:0.1875 59:0.6875 60:1 61:1 62:0.4375 # 0
-1 2:0.5 3:1 4:0.875 5:0.125 9:0.06666667 10:0.875 11:0.375 12:0.6875 13:0.5 17:0.5 18:1 20:0.25 21:1 25:0.125 26:0.6875 27:0.9375 28:0.9375 29:1 30:0.375 35:0.375 36:0.4375 37:0.75 38:0.42857143 45:0.5 46:0.5 50:0.75 51:0.375 52:0.25 53:0.8125 54:0.625 58:0.375 59:0.875 60:1 61:0.625 62:0.125 # 0
-1 2:0.4375 3:0.8125 4:0.875 5:0.25 9:0.53333336 10:0.9375 11:0.4375 12:0.5 13:1 17:0.75 18:0.75 20:0.125 21:1 22:0.25 25:0.1875 26:0.8125 27:1 28:1 29:1 30:0.125 37:0.6875 38:0.64285713 45:0.375 46:0.75 50:0.3125 53:0.625 54:0.75 58:0.5 59:0.75 60:0.875 61:0.625 62:0.125 # 0
-1 1:0.125 2:0.5 3:0.875 4:0.8125 5:0.1875 9:0.66666669 10:0.8125 11:0.3125 12:0.625 13:0.75 17:0.1875 19:0.125 20:0.875 21:0.5625 27:0.9375 28:0.5 35:0.8125 36:0.8125 37:0.0625 44:0.4375 45:0.875 46:0.25 49:0.0625 50:0.375 51:0.0625 53:0.6875 54:0.625 58:0.625 59:0.75 60:1 61:1 62:0.4375 # 0
1 2:0.3125 3:0.8125 4:0.375 5:0.0625 10:0.5 11:1 12:1 13:0.9375 14:0.125 18:0.1875 19:0.8125 20:0.0625 21:0.8125 22:0.5 26:0.125 27:0.875 28:0.9375 29:0.875 30:0.125 33:0.14285715 34:0.875 35:0.9375 36:0.9375 37:0.1875 41:0.4375 42:0.6875 44:0.375 45:0.625 49:0.3125 50:0.6875 51:0.0625 52:0.0625 53:1 58:0.5 59:0.8125 60:1 61:0.8125 62:0.0625 # 0
-1 2:0.125 3:0.8125 4:0.5625 5:0.0625 10:0.8125 11:0.875 12:0.625 13:0.625 18:0.875 19:0.1875 21:0.5 26:0.9375 27:0.5625 29:0.3125 30:0.1875 34:1 35:0.5 37:0.4375 38:0.35714287 42:1 43:0.4375 44:0.125 45:1 46:0.125 50:0.6875 51:0.5625 52:0.8125 53:0.875 54:0.0625 58:0.125 59:0.9375 60:0.8125 61:0.0625 # 0
-1 2:0.8125 3:0.1875 9:0.26666668 10:1 11:0.25 13:0.375 14:0.75 17:0.5625 18:0.9375 20:0.375 21:1 22:0.4375 25:0.375 26:1 27:0.6875 28:1 29:0.5625 34:0.5625 35:1 36:0.875 37:0.1875 42:0.375 43:0.9375 44:0.1875 50:0.8125 51:0.5625 58:0.9375 59:0.4375 # 0
-1 2:0.375 3:1 10:0.8125 11:0.4375 17:0.125 18:1 26:1 27:0.1875 33:0.2857143 34:0.9375 35:0.625 36:0.625 37:0.25 41:0.3125 42:1 43:0.875 44:0.5 45:0.8125 46:0.5 49:0.125 50:1 51:0.8125 52:0.6875 53:0.9375 54:0.6875 58:0.3125 59:0.75 60:0.8125 61:0.4375 # 0
1 2:0.5625 3:1 4:1 5:0.5625 10:0.8125 11:0.8125 12:0.9375 13:1 18:0.5625 19:1 20:1 21:0.4375 26:0.25 27:1 28:0.75 34:0.625 35:0.9375 36:0.875 37:0.0625 42:0.875 43:0.4375 44:0.75 45:0.3125 50:0.9375 51:0.5625 52:1 53:0.3125 58:0.5625 59:1 60:0.875 61:0.0625 # 0
-1 2:0.75 3:0.3125 10:1 11:0.125 17:0.1875 18:0.75 25:0.25 26:0.75 33:0.5 34:0.875 35:1 36:0.875 37:0.1875 41:0.1875 42:1 43:0.5 44:0.5625 45:1 46:0.25 49:0.125 50:1 51:0.1875 52:0.25 53:1 54:0.25 58:0.6875 59:0.75 60:0.6875 61:0.25 # 0
1 2:0.25 3:0.875 4:0.8125 5:0.25 10:0.8125 11:0.875 12:0.375 13:0.9375 18:0.25 19:0.9375 20:0.5 21:1 27:0.1875 28:0.875 29:0.875 35:0.5625 36:1 37:0.75 42:0.5 43:0.9375 44:0.25 45:0.9375 46:0.1875 50:0.9375 51:0.5 52:0.25 53:0.875 54:0.4375 58:0.25 59:0.8125 60:0.8125 61:0.75 62:0.125 # 0
1 2:0.4375 3:0.9375 4:0.75 5:0.25 9:0.33333334 10:0.9375 11:0.25 12:0.5625 13:0.875 17:0.625 18:0.5 20:0.25 21:1 22:0.125 25:0.375 26:0.6875 27:0.125 28:0.75 29:0.6875 34:0.8125 35:1 36:1 37:0.375 42:0.3125 43:1 44:1 45:0.5 50:0.625 51:0.875 52:0.3125 53:1 54:0.4375 58:0.5625 59:0.9375 60:1 61:1 62:0.5 # 0
1 1:0.125 2:0.375 3:0.6875 4:1 5:0.375 10:0.3125 11:0.8125 12:0.6875 13:1 14:0.375 18:0.25 19:1 20:0.5 26:0.3125 27:0.9375 33:0.071428575 34:0.8125 35:0.625 36:0.25 41:0.375 42:0.625 43:0.25 44:0.5 49:0.5 50:0.4375 51:0.75 52:0.4375 57:0.2 58:0.8125 59:0.875 # 0
1 2:0.25 3:0.8125 4:0.8125 5:0.5 10:1 11:0.0625 12:0.0625 13:0.6875 14:0.125 17:0.25 18:0.8125 21:0.375 22:0.4375 25:0.1875 26:0.875 28:0.5625 29:0.875 30:0.125 34:0.5625 35:0.9375 36:0.875 37:0.0625 42:0.3125 43:1 44:0.5625 50:0.5 51:0.75 52:0.9375 53:0.125 58:0.25 59:0.9375 60:0.8125 61:0.125 # 0
-1 2:0.0625 3:0.875 4:0.8125 5:0.0625 10:0.75 11:1 12:1 13:0.75 17:0.0625 18:0.6875 19:0.875 20:0.6875 21:1 22:0.3125 25:0.1875 26:0.5 27:1 28:0.125 29:0.5 30:0.625 34:0.3125 35:0.875 37:0.5 38:0.5 42:0.4375 43:0.75 45:0.9375 46:0.1875 50:0.4375 51:0.875 52:0.6875 53:0.6875 58:0.125 59:1 60:0.8125 61:0.125 # 0
1 2:0.1875 3:0.75 4:0.9375 5:0.5625 6:0.0625 9:0.13333334 10:1 11:0.8125 12:0.5625 13:0.875 14:0.625 17:0.375 18:1 19:0.5 21:0.6875 22:0.625 25:0.25 26:1 27:1 28:0.875 29:1 30:0.25 34:0.25 35:0.75 36:1 37:0.9375 42:0.0625 43:0.6875 44:1 45:1 46:0.125 50:0.4375 51:1 52:1 53:0.875 58:0.1875 59:0.9375 60:0.8125 61:0.125 # 0
-1 2:0.3125 3:0.875 4:0.9375 5:0.3125 9:0.13333334 10:1 11:0.5625 12:0.5625 13:0.9375 14:0.125 17:0.125 18:0.625 20:0.375 21:1 22:0.1875 26:0.125 27:0.875 28:1 29:0.4375 35:0.6875 36:1 37:0.875 38:0.071428575 42:0.375 43:0.1875 44:0.375 45:1 46:0.0625 50:0.8125 51:0.6875 52:0.625 53:0.9375 58:0.5625 59:1 60:1 61:0.4375 # 0
1 2:0.125 3:0.625 4:0.4375 9:0.2 10:1 11:0.6875 12:0.5 13:0.375 17:0.25 18:0.8125 21:0.5 25:0.25 26:1 27:0.5625 28:0.6875 29:0.6875 34:0.625 35:1 36:1 37:0.9375 38:0.14285715 42:0.25 43:1 44:0.25 45:0.1875 46:0.5 50:0.5 51:0.5625 53:0.125 54:0.5625 58:0.1875 59:0.6875 60:0.5 61:0.5 62:0.25 # 0
1 2:0.375 3:0.8125 4:0.875 5:0.1875 9:0.46666667 10:0.9375 11:0.5 12:0.5625 13:0.75 17:0.375 18:0.9375 19:0.3125 20:0.25 21:1 22:0.0625 26:0.5 27:1 28:1 29:1 30:0.375 35:0.6875 36:1 37:0.75 42:0.3125 43:0.9375 44:0.5625 45:0.9375 50:0.625 51:0.8125 52:0.0625 53:1 54:0.25 58:0.3125 59:0.75 60:1 61:0.9375 62:0.125 # 0
1 1:0.25 2:0.5 3:1 4:0.6875 5:0.0625 9:0.66666669 10:0.9375 11:0.3125 12:0.6875 13:0.3125 17:0.6875 18:0.625 19:0.8125 20:1 21:0.375 25:0.5625 26:1 27:1 28:0.75 29:0.8125 30:0.125 33:0.071428575 34:0.9375 35:0.5 37:0.375 38:0.64285713 42:0.75 43:0.3125 45:0.3125 46:0.6875 50:0.5625 51:0.5625 52:0.4375 53:1 54:0.5 58:0.25 59:0.875 60:0.9375 61:0.375 # 0
1 2:0.375 3:1 4:0.375 9:0.26666668 10:1 11:0.8125 12:1 13:0.125 17:0.5 18:0.9375 19:0.0625 20:0.9375 21:0.3125 25:0.3125 26:1 27:1 28:1 29:1 30:0.375 34:0.875 35:1 36:0.875 37:0.8125 38:0.5714286 42:0.5625 43:1 44:0.1875 45:0.875 46:0.5 50:0.75 51:0.875 52:0.6875 53:0.9375 54:0.125 58:0.25 59:0.625 60:0.875 61:0.4375 # 0
-0.018437314342655497512168949469924 3:0.625 4:1 5:0.375 10:0.25 11:1 12:1 13:0.25 18:0.875 19:1 20:1 21:0.25 26:1 27:1 28:1 29:0.5 34:1 35:1 36:1 37:0.5 42:0.9375 43:1 44:1 45:0.875 46:0.1875 50:0.625 51:1 52:1 53:1 54:0.5 58:0.0625 59:0.75 60:0.75 61:0.9375 62:0.4375 # 0
1 3:0.4375 4:0.75 5:0.875 6:0.125 10:0.1875 11:0.875 12:0.4375 13:0.8125 14:0.5 18:0.375 19:0.875 20:0.6875 21:1 22:0.3125 25:0.125 26:0.8125 27:1 28:0.9375 29:0.5 30:0.0625 33:0.35714287 34:0.75 35:0.375 36:0.9375 41:0.4375 42:0.625 44:0.5 45:0.625 49:0.125 50:0.75 51:0.4375 52:0.3125 53:1 54:0.1875 59:0.5625 60:0.8125 61:0.875 62:0.125 # 0
1 2:0.5 3:0.8125 4:0.6875 5:0.3125 9:0.26666668 10:1 11:0.875 12:1 13:0.625 17:0.0625 18:0.875 19:1 20:0.4375 26:0.6875 27:1 28:0.875 29:0.125 33:0.14285715 34:1 35:0.1875 36:0.5 37:0.9375 38:0.071428575 41:0.375 42:0.9375 43:0.125 44:0.0625 45:1 46:0.3125 49:0.3125 50:1 51:0.5625 52:0.6875 53:1 54:0.1875 58:0.5625 59:0.9375 60:0.9375 61:0.4375 # 0
1 2:0.3125 3:0.9375 4:0.9375 5:0.6875 10:1 11:0.3125 13:0.6875 14:0.3125 18:0.9375 19:0.1875 21:0.75 22:0.625 26:0.3125 27:0.8125 29:0.75 30:0.375 35:0.625 36:1 37:0.5625 43:0.625 44:1 45:0.25 50:0.375 51:0.75 52:0.5 53:0.5625 58:0.375 59:1 60:0.75 61:0.25 # 0
1 1:0.125 2:0.5 3:0.9375 4:1 5:0.6875 6:0.0625 9:0.33333334 10:1 11:0.8125 12:0.625 13:0.8125 14:0.4375 17:0.25 18:0.8125 21:0.5625 22:0.5 25:0.0625 26:0.8125 27:0.5 28:0.375 29:0.9375 30:0.25 34:0.125 35:0.9375 36:1 37:0.5625 42:0.5 43:0.875 44:0.9375 45:0.5 50:0.875 51:0.5 52:0.5625 53:0.875 58:0.6875 59:1 60:0.875 61:0.5 # 0
1 1:0.25 2:0.875 3:0.875 4:0.0625 9:0.26666668 10:1 11:0.6875 12:0.25 13:0.375 17:0.25 18:1 19:0.25 20:0.75 21:1 22:0.125 26:0.8125 27:1 28:1 29:0.375 34:0.8125 35:1 36:0.625 42:0.9375 43:1 44:0.25 49:0.25 50:1 51:1 52:0.4375 57:0.2 58:0.8125 59:0.9375 60:0.0625 # 0
-0.11350343539352181210233538877219 2:0.5 3:0.25 10:0.9375 11:0.1875 17:0.125 18:0.8125 25:0.25 26:0.875 27:0.6875 28:0.5625 29:0.0625 33:0.2857143 34:0.5625 35:0.8125 36:1 37:0.875 38:0.071428575 41:0.125 42:0.75 45:0.5625 46:0.6875 50:1 51:0.5 52:0.3125 53:0.8125 54:0.6875 58:0.25 59:0.9375 60:1 61:0.75 62:0.0625 # 0
0.71560243998792572028833092190325 1:0.375 2:0.9375 3:0.9375 4:0.5 5:0.5625 9:0.46666667 10:0.875 11:0.6875 12:1 13:1 14:0.375 17:0.125 18:1 19:0.125 20:0.4375 21:0.9375 22:0.1875 26:0.5 27:0.875 28:1 29:0.3125 34:0.4375 35:1 36:0.375 41:0.0625 42:0.9375 43:0.875 44:0.5 49:0.375 50:0.875 51:0.875 52:0.4375 57:0.30000001 58:1 59:0.9375 60:0.125 # 0
-0.85782397581296532251826647552662 2:0.5625 3:1 4:0.75 5:0.1875 10:0.5625 11:1 12:1 13:0.4375 18:0.5 19:1 20:0.875 21:0.125 26:0.875 27:1 28:0.875 34:0.9375 35:1 36:1 37:0.0625 41:0.125 42:0.9375 43:1 44:0.875 45:0.0625 50:0.875 51:1 52:0.5 58:0.75 59:1 60:0.625 # 0
1 2:0.125 3:0.8125 4:0.9375 5:0.125 10:0.6875 11:1 12:0.8125 13:0.625 18:0.875 19:0.5625 20:0.5 21:0.75 26:0.5 27:0.875 28:1 29:0.625 34:0.3125 35:1 36:0.8125 37:0.0625 42:0.5625 43:0.9375 44:0.875 45:0.125 50:0.4375 51:0.875 52:0.875 53:0.375 58:0.0625 59:0.8125 60:1 61:0.125 # 0
-1 2:0.3125 3:0.875 4:1 5:0.5 9:0.2 10:1 11:0.875 12:0.9375 13:0.9375 18:0.5 19:0.1875 20:0.875 21:0.6875 27:0.5625 28:0.9375 29:0.1875 34:0.1875 35:0.9375 36:0.5 42:0.625 43:0.875 44:0.0625 50:1 51:0.8125 52:0.25 53:0.5625 54:0.5 58:0.3125 59:0.875 60:0.9375 61:0.75 62:0.1875 # 0
-1 2:0.5 3:0.75 4:0.6875 5:0.375 9:0.06666667 10:0.875 11:1 12:1 13:0.8125 17:0.25 18:1 19:1 20:1 21:0.5 25:0.0625 26:0.9375 27:1 28:1 29:0.1875 33:0.21428572 34:0.9375 35:1 36:1 37:0.4375 41:0.125 42:0.8125 43:1 44:1 45:0.5 49:0.0625 50:0.875 51:1 52:1 53:0.4375 58:0.4375 59:0.75 60:0.5625 # 0
1 2:0.0625 3:0.5 4:0.875 5:0.8125 6:0.125 9:0.13333334 10:0.8125 11:0.75 12:0.5 13:0.9375 14:0.125 17:0.375 18:0.9375 19:0.125 20:0.6875 21:0.375 26:0.3125 27:0.875 28:0.9375 29:0.0625 35:0.75 36:0.8125 43:0.9375 44:0.9375 45:0.3125 51:1 52:0.5625 53:0.9375 59:0.5625 60:1 61:0.625 # 0
1 2:0.25 3:0.875 4:0.6875 5:0.0625 10:0.5625 11:0.5 12:0.625 13:0.5625 18:0.4375 20:0.875 21:0.25 26:0.5625 27:0.6875 28:0.875 29:0.0625 34:0.0625 35:0.9375 36:0.5 42:0.1875 43:0.8125 44:0.75 45:0.3125 50:0.5 51:0.5 52:0.25 53:0.875 58:0.1875 59:0.9375 60:1 61:0.8125 # 0
1 1:0.125 2:0.75 3:1 4:0.875 5:0.375 9:0.13333334 10:0.8125 11:0.4375 12:0.3125 13:0.9375 14:0.125 18:0.375 19:0.9375 20:0.5625 21:0.8125 27:0.625 28:0.9375 29:0.0625 34:0.25 35:0.9375 36:0.5 42:0.75 43:0.25 44:0.75 49:0.1875 50:0.875 51:0.625 52:0.6875 58:0.875 59:0.8125 60:0.1875 # 0
1 3:0.75 4:0.9375 5:0.3125 10:0.1875 11:0.8125 12:0.5625 13:1 17:0.75 18:0.875 19:0.625 20:0.0625 21:0.875 22:0.25 25:0.1875 26:0.75 27:0.8125 28:0.6875 29:0.8125 34:0.125 35:0.625 36:1 37:0.5625 43:0.3125 44:1 45:0.5 51:0.8125 52:1 53:0.5625 59:0.75 60:0.75 61:0.125 # 0
-1 2:0.3125 3:0.75 4:0.75 5:0.1875 10:0.5625 11:1 12:1 13:0.75 18:0.5625 19:1 20:1 21:0.9375 26:0.6875 27:1 28:1 29:0.625 34:0.6875 35:1 36:1 37:0.5625 42:0.8125 43:1 44:1 45:0.1875 50:0.75 51:1 52:0.9375 53:0.125 58:0.125 59:0.5625 60:0.6875 61:0.125 # 0
1 2:0.25 3:0.75 4:0.5625 9:0.26666668 10:0.8125 11:0.4375 12:0.9375 13:0.25 17:0.4375 18:0.6875 20:0.5 21:0.625 25:0.125 26:1 27:1 28:1 29:0.4375 34:0.375 35:1 36:1 37:0.9375 38:0.14285715 42:0.5 43:0.6875 44:0.0625 45:0.375 46:0.5 50:0.5 51:0.75 52:0.5 53:0.8125 54:0.375 58:0.25 59:1 60:0.8125 61:0.5 # 0
-1 1:0.125 2:0.4375 3:0.6875 4:0.9375 5:0.6875 6:0.0625 9:0.26666668 10:0.5625 11:0.25 13:0.8125 14:0.3125 20:0.5625 21:0.9375 22:0.0625 26:0.25 27:0.9375 28:0.6875 29:0.1875 34:0.1875 35:1 36:0.5 37:0.125 43:0.125 44:0.4375 45:1 46:0.375 51:0.375 52:0.5625 53:1 54:0.3125 58:0.8125 59:0.75 60:0.4375 61:0.1875 # 0
1 2:0.125 3:1 4:0.9375 5:0.4375 10:0.1875 11:0.75 12:0.8125 13:0.8125 19:0.375 20:1 21:0.625 27:0.375 28:1 29:0.1875 34:0.1875 35:0.9375 36:0.625 37:0.75 41:0.0625 42:0.8125 43:0.3125 45:0.8125 46:0.375 50:1 51:0.3125 53:0.4375 54:0.9375 58:0.1875 59:0.6875 60:1 61:1 62:0.75 63:0.13333334 # 0
1 1:0.25 2:0.9375 3:1 4:1 5:0.9375 6:0.0625 9:0.13333334 10:0.8125 11:0.8125 12:0.6875 13:1 14:0.0625 18:0.125 19:1 20:0.9375 21:0.4375 27:0.875 28:0.875 34:0.5625 35:0.875 36:1 41:0.0625 42:0.875 43:0.5 44:0.75 45:0.3125 49:0.1875 50:1 51:0.375 52:0.9375 53:0.1875 57:0.2 58:1 59:1 60:0.625 # 0
-1 2:0.1875 3:0.625 4:0.5 5:0.0625 10:0.6875 11:1 12:1 13:0.5625 17:0.1875 18:1 19:1 20:1 21:0.1875 25:0.25 26:1 27:1 28:1 29:0.1875 33:0.2857143 34:1 35:1 36:0.75 41:0.0625 42:1 43:1 44:0.9375 50:0.5625 51:1 52:1 58:0.125 59:0.625 60:0.75 61:0.0625 # 0
-0.91465727082787706692101892258506 2:0.25 3:0.5625 4:0.5625 9:0.06666667 10:1 11:0.9375 12:0.75 13:0.625 17:0.1875 18:1 19:0.3125 25:0.375 26:1 27:1 28:0.4375 33:0.21428572 34:1 35:0.9375 36:1 37:0.0625 42:0.0625 44:0.75 45:0.3125 50:0.8125 51:0.625 52:1 53:0.375 58:0.5 59:1 60:0.5625 # 0
1 2:0.125 3:0.9375 4:1 5:0.875 6:0.3125 10:0.3125 11:0.9375 12:0.5 13:0.8125 14:0.6875 17:0.125 18:0.6875 19:0.75 20:0.4375 21:0.9375 22:0.5 25:0.4375 26:1 27:1 28:1 29:0.5 30:0.0625 33:0.14285715 34:0.9375 35:1 36:0.5 42:0.4375 43:1 44:0.75 50:0.25 51:1 52:1 58:0.125 59:0.875 60:0.875 # 0
-0.21571246481327266408811738074291 2:0.3125 3:0.9375 4:0.9375 5:0.5625 10:0.9375 11:0.5 12:0.3125 13:0.8125 14:0.3125 17:0.375 18:1 19:0.5625 21:0.375 22:0.625 25:0.5 26:1 27:0.25 29:0.375 30:0.75 34:1 35:0.25 37:0.25 38:0.85714287 42:1 43:0.1875 45:0.5625 46:0.5625 50:0.9375 51:0.5 52:0.4375 53:0.9375 54:0.0625 58:0.375 59:1 60:1 61:0.375 # 0
-1 2:0.1875 3:1 4:0.875 5:0.1875 10:0.375 11:1 12:1 13:0.3125 18:0.75 19:1 20:0.5625 26:1 27:1 28:0.3125 33:0.14285715 34:1 35:1 36:0.0625 41:0.0625 42:1 43:1 44:0.0625 50:0.8125 51:1 52:0.0625 58:0.25 59:0.9375 # 0
-0.6224073466385053876592792221345 1:0.125 2:0.625 3:1 4:0.75 5:0.0625 9:0.53333336 10:0.9375 11:0.3125 12:0.75 13:0.6875 17:0.6875 18:0.75 19:0.1875 20:0.8125 21:1 22:0.1875 25:0.25 26:0.875 27:1 28:0.8125 29:0.875 30:0.5625 35:0.25 37:0.5 38:0.9285714 42:0.0625 45:0.1875 46:1 47:0.25 49:0.125 50:0.9375 51:0.0625 53:0.5 54:0.9375 55:0.1 58:0.5625 59:1 60:1 61:1 62:0.375 # 0
-1 2:0.375 3:0.9375 4:0.6875 5:0.0625 10:0.9375 11:0.4375 12:0.8125 13:0.9375 14:0.125 17:0.3125 18:0.875 20:0.125 21:1 22:0.25 25:0.1875 26:0.9375 27:0.5 28:0.625 29:1 30:0.25 34:0.375 35:0.75 36:0.625 37:0.875 38:0.5714286 41:0.125 42:0.1875 45:0.75 46:0.4375 49:0.5625 50:0.9375 51:0.5 52:0.5 53:1 54:0.1875 58:0.4375 59:0.9375 60:0.9375 61:0.25 # 0
-0.092191714215871911619615275412798 3:1 4:0.875 5:0.0625 10:0.4375 11:1 12:0.9375 13:0.125 17:0.5625 18:1 19:1 20:0.6875 24:1 25:0.9375 26:0.9375 27:1 28:0.625 33:0.14285715 34:0.1875 35:1 36:0.5625 43:1 44:0.5625 50:0.125 51:1 52:0.375 59:1 60:0.5 # 0
1 1:0.125 2:0.875 3:0.8125 4:0.5625 5:0.125 9:0.13333334 10:1 11:1 12:1 13:0.875 14:0.125 18:0.875 19:0.625 20:0.1875 21:1 22:0.1875 26:0.3125 27:0.9375 28:0.875 29:0.8125 34:0.0625 35:0.9375 36:0.9375 37:0.1875 42:0.5 43:1 44:1 45:0.125 50:1 51:0.8125 52:1 53:0.5 58:0.75 59:0.75 60:0.5625 61:0.125 # 0
-1 2:0.5 3:0.75 4:0.5625 5:0.0625 9:0.2 10:1 11:1 12:1 13:0.625 17:0.1875 18:1 19:1 20:1 21:0.625 26:0.5 27:1 28:1 29:0.25 34:0.75 35:1 36:1 37:0.5 41:0.0625 42:0.9375 43:1 44:1 45:0.5625 50:0.8125 51:1 52:1 53:0.5625 58:0.375 59:0.5625 60:0.6875 61:0.1875 # 0
-1 1:0.125 2:0.5 3:0.625 4:0.1875 9:0.13333334 10:0.9375 11:1 12:1 13:0.75 17:0.0625 18:0.875 19:1 20:1 21:0.75 25:0.25 26:1 27:1 28:1 29:0.5 33:0.2857143 34:1 35:1 36:1 37:0.375 41:0.25 42:1 43:1 44:0.9375 45:0.1875 49:0.25 50:1 51:1 52:0.8125 53:0.125 57:0.1 58:0.4375 59:0.625 60:0.5 61:0.125 # 0
-1 3:0.5625 4:0.9375 5:0.625 10:0.125 11:1 12:1 13:1 19:0.9375 20:1 21:1 26:0.125 27:1 28:1 29:0.75 34:0.875 35:1 36:1 37:0.75 41:0.25 42:1 43:1 44:1 45:0.6875 51:0.75 52:1 53:1 54:0.25 59:0.875 60:0.9375 61:0.625 62:0.125 # 0
1 2:0.0625 3:0.4375 4:0.875 5:0.9375 6:0.125 9:0.13333334 10:0.75 11:0.875 12:0.5 13:0.875 14:0.4375 17:0.1875 18:0.875 19:0.8125 20:0.3125 21:0.875 22:0.3125 26:0.3125 27:0.9375 28:1 29:0.9375 30:0.125 35:0.625 36:1 37:0.625 42:0.125 43:0.875 44:0.875 45:0.75 50:0.25 51:1 52:0.875 53:0.75 59:0.75 60:0.8125 61:0.375 # 0
-1 2:0.1875 3:0.5 4:0.375 5:0.0625 9:0.13333334 10:0.9375 11:1 12:1 13:0.75 18:0.8125 19:1 20:1 21:0.8125 26:0.625 27:1 28:1 29:1 34:0.75 35:1 36:1 37:1 42:0.875 43:1 44:1 45:1 46:0.125 50:0.75 51:1 52:1 53:0.9375 54:0.125 58:0.0625 59:0.375 60:0.375 # 0
1 2:0.375 3:0.875 4:0.8125 5:0.3125 10:0.3125 11:0.375 12:0.875 13:0.625 18:0.5625 19:1 20:0.875 21:0.0625 26:0.4375 27:1 28:0.625 34:0.625 35:0.4375 36:0.75 37:0.125 42:0.8125 43:0.1875 44:0.375 45:0.375 50:0.75 51:0.3125 52:0.6875 53:0.5625 58:0.3125 59:1 60:0.9375 61:0.1875 # 0
-0.97696934145085556622234435053542 2:0.875 3:1 4:0.875 5:0.3125 10:0.1875 12:0.125 13:1 14:0.1875 19:0.25 20:0.625 21:0.9375 22:0.0625 25:0.375 26:1 27:1 28:0.875 29:0.125 33:0.071428575 34:0.25 35:0.375 36:0.75 37:0.75 45:0.75 46:0.5625 50:0.625 52:0.25 53:0.875 54:0.3125 58:0.8125 59:1 60:0.8125 61:0.25 # 0
-1 1:0.5 2:0.9375 3:1 4:1 5:0.75 6:0.0625 9:1 10:0.8125 11:0.3125 12:0.3125 13:1 14:0.5 17:0.4375 18:0.1875 20:0.625 21:1 22:0.25 26:0.0625 27:0.6875 28:1 29:0.625 34:0.4375 35:1 36:0.625 42:0.0625 43:0.4375 44:1 45:0.375 49:0.1875 50:0.5 51:0.375 52:1 53:0.625 57:0.5 58:1 59:1 60:0.75 61:0.0625 # 0
1 2:0.25 3:0.6875 4:0.875 5:0.4375 10:0.9375 11:0.75 12:1 13:0.1875 18:0.5 19:1 20:0.625 26:0.5625 27:1 28:0.4375 33:0.21428572 34:0.9375 35:0.25 36:0.875 37:0.25 41:0.125 42:0.8125 44:0.1875 45:0.9375 46:0.375 50:0.5 51:0.5625 52:0.25 53:0.5 54:0.875 59:0.4375 60:0.75 61:0.75 62:0.5 # 0
-1 2:0.4375 3:0.75 4:0.75 5:0.4375 10:0.6875 11:1 12:1 13:0.6875 18:0.625 19:1 20:1 21:0.4375 26:0.75 27:1 28:1 29:0.375 34:0.75 35:1 36:1 37:0.4375 42:0.8125 43:1 44:1 45:0.6875 50:1 51:1 52:1 53:0.8125 58:0.375 59:0.625 60:0.5 61:0.1875 # 0
-1 2:0.0625 3:1 4:0.9375 5:0.3125 10:0.5625 11:1 12:1 13:0.75 17:0.125 18:1 19:1 20:1 21:0.4375 26:0.75 27:1 28:1 29:0.125 34:0.5 35:1 36:1 37:0.3125 42:0.9375 43:1 44:1 45:0.6875 50:0.9375 51:1 52:1 53:1 54:0.5 58:0.125 59:0.625 60:0.9375 61:0.6875 62:0.25 # 0
-1 2:0.375 3:0.75 4:0.8125 5:0.3125 10:0.875 11:0.5625 12:0.5 13:1 14:0.125 18:0.3125 19:0.0625 20:0.375 21:0.9375 22:0.1875 27:0.1875 28:1 29:0.5 34:0.125 35:0.875 36:0.5 42:0.6875 43:0.8125 49:0.0625 50:1 51:0.3125 58:0.5625 59:0.9375 60:0.8125 61:0.625 62:0.5 # 0
-1 2:0.5625 3:0.8125 4:0.9375 5:0.625 6:0.0625 10:0.4375 11:0.25 12:0.25 13:0.75 14:0.8125 21:0.4375 22:0.6875 26:0.125 27:0.75 28:0.8125 29:0.75 30:0.125 35:0.625 36:0.9375 37:0.0625 43:0.0625 44:0.6875 45:0.5625 50:0.75 51:0.1875 52:0.1875 53:0.9375 58:0.5 59:1 60:1 61:0.1875 # 0
1 2:0.25 3:0.9375 4:0.4375 9:0.2 10:1 11:0.6875 12:0.125 17:0.6875 18:0.6875 20:0.5 21:0.6875 22:0.0625 25:0.4375 26:0.875 27:0.6875 28:0.9375 29:0.125 33:0.071428575 34:0.8125 35:1 36:0.25 42:0.5 43:1 44:0.5 50:0.5 51:1 52:1 53:0.125 58:0.125 59:0.75 60:0.9375 61:0.3125 # 0
1 2:0.125 3:0.8125 4:0.5625 5:0.0625 9:0.06666667 10:0.8125 11:0.4375 12:0.9375 13:0.3125 16:0.33333334 17:0.9375 18:0.5625 20:0.9375 21:0.125 25:0.375 26:0.8125 27:0.4375 28:0.8125 34:0.3125 35:1 36:0.5 42:0.0625 43:0.9375 44:0.875 45:0.125 50:0.25 51:0.75 52:0.375 53:0.6875 59:0.6875 60:1 61:0.5 # 0
1 1:0.125 2:0.5625 3:0.875 4:0.3125 9:0.46666667 10:0.5625 11:0.4375 12:0.6875 13:0.5 14:0.25 17:0.25 18:0.5625 19:0.3125 20:0.875 21:0.4375 22:0.125 26:0.6875 27:0.875 28:0.25 34:0.625 35:0.9375 36:0.3125 41:0.125 42:0.875 43:0.125 44:0.9375 45:0.0625 49:0.25 50:0.8125 51:0.125 52:0.9375 53:0.125 58:0.75 59:1 60:0.4375 # 0
-1 2:0.1875 3:0.75 4:1 5:0.625 9:0.2 10:0.875 11:0.3125 13:0.75 17:0.5625 18:0.5 19:0.0625 20:0.5625 21:1 22:0.25 25:0.3125 26:0.9375 27:0.9375 28:0.9375 29:0.875 30:0.125 36:0.9375 37:0.1875 43:0.5 44:0.625 51:0.6875 52:0.375 58:0.1875 59:0.9375 60:0.125 # 0
-1 2:0.1875 3:0.8125 4:0.9375 5:0.375 9:0.13333334 10:0.6875 11:0.9375 12:0.4375 13:1 14:0.1875 17:1 18:1 19:0.5625 20:0.5 21:1 22:0.375 25:0.5625 26:1 27:1 28:1 29:1 30:0.3125 34:0.25 35:0.5 36:1 37:0.6875 43:0.5625 44:1 45:0.0625 51:0.875 52:0.6875 58:0.0625 59:1 60:0.4375 # 0
1 2:0.3125 3:0.6875 4:0.75 10:1 11:1 12:1 13:0.8125 14:0.4375 18:0.75 19:1 20:1 21:0.9375 22:0.25 26:0.25 27:0.9375 28:0.875 29:0.5 34:0.75 35:0.25 36:0.0625 37:0.25 41:0.0625 42:0.875 44:0.1875 45:0.4375 49:0.0625 50:1 51:0.75 52:1 53:0.25 58:0.1875 59:0.5625 60:0.3125 # 0
-0.70272067183016884150958958343836 2:0.4375 3:1 4:0.875 5:0.5 10:0.3125 11:0.875 12:0.8125 13:0.75 18:0.5 19:1 20:1 21:0.625 26:0.5625 27:1 28:1 29:0.375 34:0.6875 35:1 36:1 37:0.3125 41:0.125 42:0.875 43:1 44:1 45:0.25 49:0.0625 50:1 51:1 52:1 53:0.1875 58:0.4375 59:0.875 60:1 61:0.625 62:0.0625 # 0
-1 2:0.1875 3:0.6875 4:0.6875 5:0.375 9:0.2 10:0.875 11:1 12:1 13:0.75 18:0.4375 19:1 20:1 21:0.75 26:0.8125 27:1 28:1 29:0.75 34:0.8125 35:1 36:1 37:0.875 41:0.125 42:0.9375 43:1 44:1 45:0.8125 50:0.75 51:1 52:1 53:0.75 58:0.1875 59:0.6875 60:0.6875 61:0.4375 # 0
-0.27090027795130211529794905800372 2:0.25 3:1 4:0.75 5:0.0625 10:0.8125 11:1 12:0.8125 13:0.75 17:0.3125 18:1 19:0.6875 21:0.875 22:0.125 25:0.3125 26:1 27:0.75 29:0.5625 30:0.4375 33:0.35714287 34:1 35:0.375 37:0.5625 38:0.42857143 41:0.0625 42:1 43:0.25 45:0.875 46:0.375 50:0.625 51:0.75 52:0.875 53:1 54:0.25 58:0.1875 59:0.875 60:1 61:0.4375 # 0
1 2:0.125 3:0.625 4:0.875 5:0.1875 9:0.2 10:1 11:1 12:1 13:0.9375 14:0.0625 17:0.75 18:0.75 19:0.3125 20:1 21:0.25 25:0.125 26:0.9375 27:1 28:0.75 34:0.3125 35:1 36:0.8125 42:0.25 43:0.875 44:0.875 45:0.5625 50:0.4375 51:0.9375 52:0.9375 53:0.75 59:0.75 60:1 61:0.375 # 0
0.26179354796340892352901619233307 2:0.4375 3:0.8125 4:0.375 9:0.2 10:1 11:0.5 12:0.8125 17:0.125 18:0.875 19:0.5 26:0.375 27:1 28:1 29:0.875 30:0.375 33:0.071428575 34:0.875 35:0.875 36:0.8125 38:0.071428575 41:0.25 42:1 43:0.125 44:0.8125 45:0.375 49:0.0625 50:0.9375 51:0.25 52:0.25 53:0.8125 58:0.3125 59:0.875 60:1 61:0.625 # 0
1 1:0.125 2:0.5 3:0.9375 4:0.9375 5:0.375 9:0.66666669 10:1 11:0.9375 12:0.9375 13:0.875 17:0.25 18:0.8125 19:0.4375 20:1 21:0.4375 25:0.125 26:0.875 27:1 28:0.875 29:0.0625 34:0.1875 35:1 36:0.4375 42:0.6875 43:1 44:0.9375 50:0.8125 51:1 52:1 53:0.1875 58:0.4375 59:1 60:0.9375 61:0.0625 # 0
-1 2:0.25 3:0.75 4:0.8125 5:0.125 10:1 11:0.5625 12:0.75 13:0.5625 17:0.125 18:0.75 19:0.0625 20:0.9375 21:0.3125 26:0.0625 27:0.375 28:0.875 29:0.0625 35:0.9375 36:0.4375 42:0.5625 43:0.75 50:0.5625 51:0.5625 52:0.25 53:0.5 54:0.875 55:0.2 58:0.25 59:0.8125 60:0.8125 61:0.5625 62:0.125 # 0
-1 2:0.625 3:0.9375 4:1 5:0.375 9:0.06666667 10:0.8125 11:0.3125 12:0.4375 13:0.9375 14:0.125 20:0.4375 21:0.75 22:0.125 27:0.375 28:0.9375 29:0.1875 34:0.4375 35:0.75 36:0.0625 41:0.3125 42:0.875 43:0.125 49:0.5625 50:0.875 51:0.625 52:0.6875 53:0.4375 54:0.0625 57:0.1 58:0.4375 59:0.5 60:0.5 61:0.6875 62:0.25 # 0
-1 2:0.375 3:0.9375 4:1 5:0.3125 9:0.33333334 10:1 11:0.8125 12:0.9375 13:0.6875 17:0.625 18:0.75 19:0.0625 20:1 21:0.5625 25:0.1875 26:0.1875 27:0.5625 28:1 29:0.125 34:0.25 35:1 36:0.4375 42:0.6875 43:0.8125 50:0.75 51:0.875 52:0.5 53:0.5 54:0.125 58:0.3125 59:1 60:1 61:1 62:0.6875 # 0
-1 1:0.125 2:0.5625 3:0.75 4:0.875 5:0.625 6:0.0625 9:0.46666667 10:0.9375 11:0.4375 12:0.375 13:0.9375 14:0.5 17:0.0625 18:0.0625 20:0.1875 21:1 22:0.3125 26:0.125 27:0.6875 28:1 29:0.5625 34:0.125 35:0.875 36:1 37:0.5 43:0.0625 44:0.4375 45:0.9375 46:0.4375 50:0.75 51:0.375 52:0.375 53:0.9375 54:0.4375 58:0.5 59:0.9375 60:0.875 61:0.5625 # 0
1 1:0.125 2:0.5 3:0.75 4:0.1875 9:0.06666667 10:1 11:1 12:0.875 13:0.125 17:0.125 18:1 19:1 20:1 21:1 22:0.0625 26:0.75 27:1 28:1 29:0.25 34:0.75 35:1 36:1 37:0.4375 41:0.125 42:1 43:1 44:1 45:0.875 49:0.25 50:1 51:1 52:0.9375 53:0.25 57:0.1 58:0.75 59:0.625 60:0.3125 # 0
-1 2:0.375 3:1 4:0.875 9:0.06666667 10:0.6875 11:1 12:1 13:0.25 18:0.75 19:1 20:1 21:0.25 26:0.9375 27:1 28:1 29:0.0625 34:1 35:1 36:1 41:0.25 42:1 43:1 44:0.9375 45:0.1875 50:0.5625 51:1 52:1 53:0.8125 58:0.25 59:0.875 60:1 61:0.375 # 0
-1 2:0.375 3:0.75 4:0.75 5:0.5625 10:0.6875 11:1 12:1 13:0.8125 18:0.5625 19:1 20:1 21:0.75 26:0.875 27:1 28:1 29:0.75 34:0.75 35:1 36:1 37:0.75 41:0.125 42:1 43:1 44:1 45:0.5625 49:0.0625 50:0.9375 51:1 52:0.9375 53:0.125 58:0.4375 59:0.6875 60:0.1875 # 0
1 2:0.3125 3:0.8125 4:0.875 5:0.3125 10:0.5625 11:0.5 12:0.5625 13:0.75 17:0.1875 18:0.75 19:0.125 20:0.6875 21:0.5625 25:0.1875 26:0.8125 27:0.9375 28:0.875 29:0.0625 35:0.6875 36:0.75 37:0.75 38:0.14285715 42:0.25 43:0.625 45:0.5625 46:0.5625 50:0.625 51:0.3125 52:0.125 53:0.5 54:0.8125 58:0.3125 59:0.875 60:0.9375 61:0.6875 62:0.125 # 0
1 2:0.0625 3:0.5625 4:0.9375 5:0.9375 6:0.125 9:0.06666667 10:0.9375 11:0.5625 12:0.3125 13:1 14:0.125 17:0.5 18:0.625 19:0.0625 20:0.75 21:0.5 25:0.4375 26:0.9375 27:0.75 28:0.6875 29:0.0625 34:0.4375 35:1 36:0.8125 37:0.1875 42:0.375 43:0.5 44:0.5 45:0.9375 46:0.1875 50:0.125 51:0.9375 52:0.125 53:0.75 54:0.5 59:0.625 60:1 61:0.8125 62:0.25 # 0
-1 2:0.375 3:0.9375 4:0.875 5:0.5 9:0.2 10:0.8125 12:0.1875 13:0.875 14:0.1875 17:0.375 18:0.875 20:0.125 21:0.875 22:0.25 26:0.8125 27:1 28:1 29:1 30:0.25 35:0.25 36:0.25 37:0.8125 38:0.2857143 45:0.75 46:0.3125 50:0.875 51:0.375 53:0.8125 54:0.25 58:0.375 59:0.9375 60:1 61:0.5625 # 0
-1 2:0.125 3:0.875 4:0.8125 5:0.3125 10:0.5 11:1 12:1 13:0.625 17:0.375 18:1 19:1 20:1 21:0.4375 25:0.5625 26:1 27:1 28:1 29:0.1875 34:0.4375 35:1 36:1 37:0.125 42:0.5 43:1 44:1 45:0.375 50:0.625 51:1 52:1 53:0.6875 58:0.1875 59:0.8125 60:0.875 61:0.4375 # 0
-1 2:0.0625 3:0.75 4:1 5:0.875 6:0.0625 10:0.25 11:1 12:1 13:1 14:0.25 17:0.125 18:0.875 19:1 20:1 21:1 22:0.375 25:0.125 26:0.75 27:1 28:1 29:0.625 34:0.5 35:1 36:1 37:0.5 42:0.6875 43:1 44:1 45:0.3125 50:0.5 51:1 52:1 53:0.25 58:0.0625 59:0.9375 60:1 61:0.5 # 0
1 2:0.375 3:0.9375 4:0.875 5:0.25 10:1 11:0.375 12:0.25 13:0.9375 17:0.3125 18:1 19:0.375 20:0.8125 21:0.6875 25:0.0625 26:1 27:1 28:1 29:0.8125 30:0.0625 33:0.42857143 34:0.9375 35:0.4375 37:0.6875 38:0.5714286 41:0.25 42:0.75 45:0.5625 46:0.6875 50:1 51:0.25 52:0.5625 53:0.9375 54:0.125 58:0.5 59:0.875 60:0.5625 61:0.125 # 0
1 2:0.125 3:0.5625 4:0.3125 10:0.5 11:1 12:1 13:0.8125 17:0.125 18:0.6875 19:1 20:1 21:0.25 25:0.0625 26:0.6875 27:1 28:0.75 34:0.625 35:0.75 36:1 37:0.375 42:0.8125 43:0.0625 44:0.4375 45:0.9375 46:0.0625 50:0.875 51:0.375 52:0.4375 53:0.8125 54:0.125 58:0.125 59:0.6875 60:0.6875 61:0.25 # 0
1 2:0.375 3:0.75 4:0.4375 9:0.13333334 10:0.9375 11:0.8125 12:0.9375 13:0.8125 17:0.5 18:0.8125 20:0.5625 21:0.9375 25:0.0625 26:0.9375 27:0.4375 28:0.875 29:0.6875 34:0.375 35:1 36:1 37:0.0625 42:0.3125 43:1 44:1 45:0.875 50:0.6875 51:1 52:1 53:1 54:0.25 58:0.1875 59:0.4375 60:0.75 61:0.75 62:0.1875 # 0
-1 2:0.25 3:0.9375 4:1 5:0.3125 10:0.4375 11:1 12:1 13:0.8125 18:0.9375 19:1 20:1 21:0.5625 26:0.8125 27:1 28:1 29:0.4375 33:0.14285715 34:0.875 35:1 36:1 37:0.4375 42:0.625 43:1 44:1 45:0.3125 50:0.375 51:1 52:1 53:0.625 54:0.125 58:0.125 59:0.625 60:0.875 61:0.1875 # 0
-1 2:0.0625 3:0.625 4:0.75 5:0.6875 6:0.3125 10:0.5 11:1 12:1 13:1 14:0.1875 18:0.8125 19:1 20:1 21:0.6875 25:0.0625 26:1 27:1 28:1 29:0.75 33:0.14285715 34:1 35:1 36:1 37:0.625 41:0.125 42:1 43:1 44:1 45:0.375 50:0.4375 51:1 52:1 53:0.5 58:0.125 59:0.6875 60:0.75 61:0.25 # 0
1 2:0.3125 3:0.8125 4:1 5:0.4375 9:0.13333334 10:1 11:0.4375 12:0.5 13:0.6875 17:0.5 18:0.9375 19:0.3125 20:0.625 21:0.5 25:0.125 26:0.375 27:0.9375 28:1 29:0.4375 34:0.0625 35:0.8125 36:0.625 37:1 38:0.2857143 42:0.25 43:0.8125 44:0.0625 45:0.5625 46:0.75 50:0.4375 51:0.625 52:0.3125 53:0.9375 54:0.4375 58:0.125 59:0.8125 60:0.9375 61:0.5 62:0.0625 # 0
1 2:0.3125 3:0.75 4:0.5625 5:0.0625 9:0.26666668 10:1 11:0.5625 12:0.6875 13:0.375 14:0.0625 17:0.0625 18:0.9375 19:0.25 20:0.0625 21:0.75 22:0.25 26:0.375 27:0.375 28:0.8125 29:0.875 34:0.1875 35:1 36:1 37:0.25 42:0.4375 43:1 44:1 45:0.0625 50:0.625 51:1 52:1 53:0.4375 58:0.5 59:0.75 60:0.75 61:0.25 # 0
1 2:0.0625 3:0.5625 4:1 5:0.9375 6:0.25 10:0.25 11:1 12:0.625 13:0.875 14:0.625 18:0.1875 19:1 20:0.4375 21:0.875 22:0.6875 26:0.5625 27:1 28:1 29:0.8125 33:0.35714287 34:1 35:1 36:1 37:0.125 41:0.375 42:0.875 43:0.5625 44:1 45:0.125 50:0.75 51:1 52:1 53:0.25 59:0.75 60:0.6875 61:0.1875 # 0
1 2:0.6875 3:0.9375 4:0.625 9:0.13333334 10:0.8125 12:0.5625 13:0.1875 17:0.1875 18:0.75 20:0.625 26:0.6875 27:0.75 28:0.75 35:0.6875 36:0.875 37:0.375 41:0.0625 42:0.5625 43:0.3125 45:0.625 46:0.3125 49:0.25 50:0.625 53:0.5 54:0.25 57:0.1 58:0.875 59:0.6875 60:0.875 61:0.625 # 0
1 2:0.5625 3:0.9375 4:0.75 5:0.375 9:0.2 10:1 11:0.9375 12:0.8125 13:0.5 17:0.125 18:1 19:0.25 20:0.75 21:0.3125 26:0.8125 27:1 28:0.625 34:0.5 35:0.875 36:0.6875 37:0.0625 41:0.0625 42:0.75 44:0.875 45:0.375 50:0.8125 51:0.3125 52:0.125 53:1 54:0.125 58:0.4375 59:0.875 60:1 61:1 62:0.125 # 0
1 2:0.125 3:0.75 4:0.8125 5:0.25 10:0.75 11:0.6875 12:0.5 13:0.8125 18:0.8125 20:0.8125 21:0.3125 25:0.6875 26:0.875 27:0.4375 28:0.6875 34:0.4375 35:1 36:0.3125 42:0.4375 43:0.75 44:0.75 45:0.25 50:0.5625 51:0.375 52:0.625 53:0.625 58:0.125 59:0.875 60:0.9375 61:0.375 # 0
-1 2:0.0625 3:0.5625 4:1 5:0.8125 6:0.0625 10:0.8125 11:0.5625 12:0.3125 13:0.875 14:0.5 17:0.1875 18:0.875 21:0.8125 22:0.75 25:0.125 26:0.9375 27:0.75 28:1 29:1 30:0.1875 34:0.1875 35:0.5 36:0.6875 37:0.75 43:0.1875 44:0.875 45:0.125 51:0.75 52:0.5625 58:0.0625 59:0.9375 60:0.1875 # 0
1 2:0.3125 3:0.9375 4:0.5 9:0.13333334 10:0.9375 11:0.5625 12:0.625 13:0.1875 14:0.0625 17:0.375 18:0.5625 19:0.4375 20:0.6875 21:0.875 22:0.0625 25:0.125 26:0.9375 27:0.8125 28:0.5 29:0.125 33:0.071428575 34:0.9375 35:0.375 41:0.0625 42:1 43:0.75 49:0.0625 50:1 51:0.8125 52:0.0625 58:0.5 59:0.9375 60:0.1875 # 0
-0.31645971452008225810459407512099 3:0.75 4:0.875 5:0.125 10:0.375 11:0.9375 12:1 13:0.25 18:0.8125 19:1 20:0.75 25:0.0625 26:0.875 27:1 28:0.5 33:0.071428575 34:0.9375 35:1 36:0.125 41:0.0625 42:0.9375 43:1 44:0.25 50:0.625 51:1 52:0.6875 53:0.25 59:0.6875 60:0.8125 61:0.3125 # 0
-1 2:0.125 3:0.8125 4:0.875 5:0.125 10:0.625 11:1 12:0.8125 13:0.25 18:0.8125 19:0.9375 20:0.0625 25:0.0625 26:1 27:0.5625 33:0.071428575 34:1 35:0.9375 36:0.75 37:0.125 41:0.0625 42:0.9375 43:1 44:0.6875 45:0.8125 50:0.6875 51:0.75 52:0.5 53:1 54:0.0625 58:0.125 59:0.8125 60:1 61:0.9375 # 0
1 2:0.0625 3:0.5625 4:0.9375 5:0.8125 6:0.0625 10:0.6875 11:0.75 12:0.375 13:1 14:0.25 17:0.625 18:0.9375 19:0.0625 20:0.4375 21:0.875 25:0.1875 26:0.9375 27:0.875 28:0.9375 29:0.1875 34:0.0625 35:0.75 36:0.9375 37:0.1875 43:0.75 44:0.5 45:0.8125 46:0.0625 51:0.75 52:0.375 53:1 54:0.125 59:0.5625 60:0.9375 61:0.375 # 0
-0.24359185640958513907605720305583 1:0.25 2:0.625 3:0.9375 4:1 5:0.9375 9:0.26666668 10:1 11:0.5625 12:0.25 13:0.375 17:0.5 18:0.9375 25:0.375 26:0.875 27:0.3125 33:0.071428575 34:0.75 35:1 36:0.8125 37:0.3125 43:0.125 44:0.5625 45:1 46:0.5625 50:0.5625 51:0.5 52:0.625 53:1 54:0.5625 58:0.4375 59:1 60:0.75 61:0.5 62:0.0625 # 0
-1 2:0.25 3:0.6875 4:0.875 5:0.75 9:0.26666668 10:1 11:0.5625 12:0.3125 13:1 14:0.0625 17:0.6875 18:0.5 20:0.375 21:0.8125 25:0.3125 26:0.375 27:0.0625 28:0.8125 29:0.3125 35:0.6875 36:0.5625 42:0.25 43:1 44:0.0625 50:0.625 51:0.5625 54:0.0625 58:0.1875 59:1 60:1 61:0.875 62:0.375 # 0
-1 2:0.5 3:1 4:0.5 9:0.60000002 10:1 11:0.8125 12:1 13:0.3125 17:0.4375 18:0.1875 19:0.375 20:1 21:0.25 27:0.9375 28:0.8125 34:0.5625 35:1 36:0.125 42:0.875 43:0.5625 50:1 51:0.6875 52:0.25 53:0.375 54:0.5 58:0.4375 59:1 60:1 61:0.6875 62:0.4375 # 0
1 2:0.0625 3:0.5625 4:0.75 5:0.5 9:0.06666667 10:0.75 11:0.5625 12:0.8125 13:0.8125 17:0.375 18:0.6875 20:0.125 21:0.9375 25:0.0625 26:0.875 27:0.875 28:0.875 29:0.5 35:0.6875 36:1 37:0.8125 38:0.071428575 42:0.25 43:0.8125 44:0.125 45:0.875 46:0.375 50:0.5 51:0.5625 52:0.125 53:0.875 54:0.4375 58:0.25 59:1 60:1 61:0.5 62:0.0625 # 0
-1 2:0.125 3:1 4:0.6875 9:0.06666667 10:0.6875 11:1 12:1 13:0.4375 17:0.625 18:1 19:1 20:1 21:0.5625 25:0.125 26:0.5625 27:0.9375 28:1 29:0.6875 35:0.75 36:1 37:0.5 42:0.25 43:1 44:1 45:0.3125 50:0.625 51:1 52:1 53:0.9375 54:0.25 58:0.1875 59:0.9375 60:1 61:0.75 # 0
-0.3820791098271163477306799904909 2:0.9375 3:0.4375 5:0.125 6:0.6875 7:0.0625 9:0.2 10:1 11:0.375 12:0.0625 13:0.75 14:0.8125 15:0.15384616 17:0.25 18:1 19:0.3125 20:0.5 21:0.9375 22:0.1875 25:0.125 26:1 27:1 28:1 29:0.8125 34:0.25 35:0.875 36:0.9375 37:0.1875 42:0.4375 43:1 44:0.1875 49:0.0625 50:0.8125 51:0.625 57:0.1 58:1 59:0.1875 # 0
-1 2:0.375 3:0.75 4:0.6875 5:0.375 10:0.5 11:1 12:1 13:1 14:0.1875 18:0.5 19:1 20:1 21:0.8125 26:0.5 27:1 28:1 29:0.75 34:0.625 35:1 36:1 37:0.75 41:0.1875 42:0.9375 43:1 44:1 45:0.4375 49:0.1875 50:0.9375 51:1 52:1 53:0.125 58:0.1875 59:0.5 60:0.5625 61:0.3125 # 0
1 2:0.25 3:0.875 4:0.5 10:0.875 11:0.75 12:0.9375 13:0.5625 18:0.875 19:0.625 20:0.9375 21:0.5625 22:0.0625 26:0.25 27:1 28:0.6875 34:0.5625 35:1 36:0.75 42:0.75 43:0.75 44:1 45:0.0625 49:0.0625 50:0.9375 51:0.875 52:1 53:0.0625 58:0.4375 59:1 60:0.5 # 0
0.47457250641862724904740389320068 3:0.25 4:0.75 5:0.6875 6:0.0625 10:0.75 11:0.9375 12:0.625 13:0.8125 14:0.25 17:0.5 18:0.625 20:0.1875 21:0.9375 22:0.0625 25:0.1875 26:0.875 27:0.3125 28:0.9375 29:0.375 34:0.8125 35:1 36:0.6875 41:0.1875 42:0.9375 43:0.375 44:0.6875 45:0.75 46:0.1875 49:0.0625 50:0.875 51:0.625 52:0.125 53:0.625 54:0.625 58:0.0625 59:0.375 60:0.6875 61:1 62:0.375 # 0
-1 2:0.1875 3:0.8125 4:0.75 9:0.06666667 10:1 11:0.8125 12:1 13:0.25 17:0.5 18:0.375 19:0.4375 20:1 21:0.0625 26:0.125 27:0.9375 28:0.5625 34:0.6875 35:0.875 42:1 43:0.625 50:0.9375 51:0.8125 52:0.5 53:0.5625 54:0.25 58:0.1875 59:0.8125 60:0.9375 61:0.8125 62:0.125 # 0
1 2:0.3125 3:0.875 4:0.6875 5:0.125 9:0.2 10:1 11:0.625 12:0.9375 13:0.8125 17:0.5 18:0.8125 20:0.875 21:1 22:0.0625 25:0.1875 26:1 27:0.8125 28:1 29:0.9375 30:0.1875 34:0.1875 35:1 36:1 37:0.1875 42:0.0625 43:1 44:1 45:0.875 50:0.375 51:1 52:0.8125 53:1 54:0.25 58:0.3125 59:0.9375 60:0.75 61:0.75 62:0.0625 # 0
1 2:0.0625 3:0.75 4:0.9375 5:0.375 10:0.3125 11:0.8125 12:0.0625 13:0.75 18:0.125 19:0.6875 20:0.0625 21:0.9375 27:0.625 28:0.6875 29:0.5625 35:0.375 36:1 37:0.375 42:0.625 43:0.9375 44:0.25 45:0.8125 46:0.1875 50:0.75 51:0.125 53:0.0625 54:0.875 58:0.0625 59:0.625 60:0.625 61:0.5 62:0.9375 63:0.06666667 # 0
1 2:0.3125 3:0.875 4:1 5:0.5625 10:0.5 11:1 12:0.875 13:1 14:0.3125 18:0.4375 19:1 20:0.8125 21:1 22:0.25 25:0.5 26:0.8125 27:1 28:1 29:0.75 33:0.21428572 34:0.9375 35:1 36:0.75 37:0.125 42:0.875 43:1 44:0.75 45:0.0625 50:0.9375 51:1 52:1 53:0.25 58:0.4375 59:1 60:0.6875 61:0.0625 # 0
1 2:0.25 3:1 4:0.9375 5:0.4375 10:0.375 11:1 12:0.625 13:0.8125 14:0.125 18:0.125 19:0.9375 20:0.75 21:0.9375 22:0.375 26:0.1875 27:0.875 28:0.9375 29:0.8125 30:0.125 33:0.14285715 34:0.9375 35:0.9375 36:0.9375 37:0.5625 41:0.375 42:1 43:0.125 44:0.4375 45:0.8125 49:0.1875 50:1 51:0.6875 52:0.5 53:1 54:0.25 58:0.25 59:0.75 60:1 61:0.8125 62:0.0625 # 0
1 2:0.25 3:0.8125 4:0.9375 5:0.125 9:0.06666667 10:0.8125 11:0.1875 12:0.4375 13:0.625 17:0.375 18:0.5 21:0.75 25:0.25 26:0.625 27:0.1875 28:0.6875 29:0.6875 34:0.875 35:1 36:0.9375 37:0.9375 38:0.071428575 42:0.5 43:1 44:0.0625 45:0.3125 46:0.5 50:0.5 51:0.625 52:0.3125 53:0.8125 54:0.4375 58:0.25 59:0.9375 60:0.6875 61:0.375 # 0
1 2:0.0625 3:0.625 4:0.9375 5:0.25 9:0.26666668 10:0.8125 11:0.75 12:0.5 13:0.8125 17:0.625 18:0.875 20:0.0625 21:0.875 25:0.5 26:0.9375 27:0.5 28:0.875 29:0.875 33:0.071428575 34:0.875 35:1 36:1 37:0.9375 38:0.071428575 42:0.6875 43:0.625 45:0.625 46:0.5625 50:0.25 51:0.875 52:0.3125 53:0.625 54:0.75 58:0.0625 59:0.8125 60:1 61:0.8125 62:0.375 # 0
-1 4:0.75 5:0.8125 6:0.0625 11:0.125 12:1 13:1 14:0.1875 19:0.3125 20:1 21:1 22:0.25 27:0.75 28:1 29:1 30:0.3125 34:0.3125 35:1 36:1 37:1 38:0.2857143 41:0.1875 42:0.9375 43:0.875 44:0.9375 45:1 46:0.1875 49:0.1875 50:0.5 51:0.125 52:0.8125 53:1 60:0.75 61:0.6875 62:0.0625 # 0
-1 2:0.3125 3:0.75 4:0.75 9:0.2 10:1 11:0.75 12:0.9375 13:0.25 17:0.25 18:0.875 20:0.875 21:0.375 25:0.0625 26:0.75 27:0.6875 28:0.75 34:0.4375 35:1 36:0.5 37:0.0625 42:0.0625 43:0.3125 44:0.75 45:0.8125 46:0.0625 50:0.5 51:0.25 53:1 54:0.25 58:0.5 59:0.9375 60:0.9375 61:0.6875 62:0.0625 # 0
-1 2:0.0625 3:0.8125 4:1 5:0.375 9:0.40000001 10:0.875 11:1 12:1 13:0.4375 16:0.66666669 17:0.875 18:1 19:1 20:1 21:0.125 26:0.3125 27:1 28:1 29:0.125 34:0.125 35:1 36:1 37:0.125 43:1 44:1 45:0.0625 51:0.875 52:1 53:0.125 59:0.8125 60:1 61:0.0625 # 0
-1 1:0.375 2:1 3:0.3125 5:0.1875 6:0.3125 9:0.46666667 10:1 11:0.3125 13:0.75 14:0.875 17:0.625 18:1 19:0.125 20:0.5625 21:1 22:0.3125 25:0.4375 26:1 27:0.875 28:1 29:0.8125 34:0.4375 35:1 36:0.9375 37:0.3125 42:0.3125 43:1 44:0.375 50:0.875 51:0.6875 57:0.30000001 58:1 59:0.5625 # 0
-1 2:0.3125 3:0.6875 4:0.9375 5:0.5 9:0.26666668 10:0.875 11:0.5 12:0.625 13:1 17:0.5 18:0.8125 19:0.0625 20:0.9375 21:0.75 25:0.25 26:1 27:0.9375 28:1 29:0.8125 34:0.25 35:0.75 36:0.8125 37:1 38:0.2857143 42:0.25 43:0.0625 45:0.875 46:0.5 50:0.8125 51:0.8125 52:0.375 53:0.875 54:0.4375 58:0.125 59:0.875 60:0.875 61:0.5625 62:0.125 # 0
-1 2:0.0625 3:0.875 4:0.625 10:0.5625 11:1 12:0.375 18:0.8125 19:1 20:0.0625 26:1 27:0.6875 33:0.14285715 34:1 35:0.9375 36:0.6875 37:0.375 38:0.071428575 41:0.1875 42:1 43:1 44:1 45:1 46:0.6875 50:0.75 51:1 52:0.875 53:1 54:0.6875 58:0.0625 59:0.625 60:0.9375 61:0.6875 62:0.125 # 0
1 2:0.125 3:0.6875 4:0.875 5:0.3125 9:0.06666667 10:0.875 11:0.8125 12:0.8125 13:0.5 17:0.3125 18:1 20:0.0625 21:0.0625 25:0.1875 26:1 27:0.375 28:0.75 29:1 30:0.3125 34:0.5625 35:1 36:1 37:0.5 38:0.14285715 41:0.125 42:0.875 43:0.75 44:0.75 45:0.8125 46:0.0625 49:0.125 50:0.9375 51:0.4375 52:0.125 53:0.875 54:0.4375 58:0.1875 59:0.8125 60:0.875 61:0.75 62:0.0625 # 0
1 2:0.3125 3:0.875 4:0.8125 5:0.125 9:0.2 10:0.875 11:0.3125 12:0.5 13:0.75 17:0.1875 18:0.5625 20:0.75 21:0.25 25:0.0625 26:0.875 27:0.5625 28:0.8125 34:0.125 35:0.875 36:0.75 42:0.25 43:0.875 44:0.875 45:0.1875 50:0.625 51:0.4375 52:0.75 53:0.375 58:0.375 59:1 60:0.8125 61:0.0625 # 0
1 2:0.25 3:0.75 4:0.9375 5:0.5625 6:0.0625 9:0.46666667 10:0.875 11:0.5 12:0.8125 13:0.9375 14:0.125 17:0.3125 18:0.4375 19:0.75 20:0.6875 21:0.0625 26:0.25 27:1 28:0.3125 34:0.625 35:0.9375 36:0.625 42:0.5625 43:0.375 44:0.75 45:0.25 50:0.4375 51:0.5625 52:0.625 53:0.5625 58:0.125 59:0.75 60:1 61:0.4375 # 0
-1 2:0.1875 3:0.6875 4:0.4375 9:0.26666668 10:1 11:1 12:1 17:0.25 18:1 19:1 20:1 25:0.25 26:1 27:1 28:0.625 33:0.071428575 34:0.875 35:1 36:1 42:0.75 43:1 44:1 45:0.375 50:0.6875 51:1 52:1 53:0.6875 58:0.125 59:0.6875 60:0.75 61:0.375 # 0
-0.54175220450273342542857335502049 1:0.125 2:0.5 3:0.75 4:0.75 5:0.375 9:0.60000002 10:1 11:0.6875 12:0.5 13:0.625 14:0.0625 17:0.375 18:0.875 25:0.0625 26:0.75 27:0.9375 28:0.5 35:0.4375 36:0.9375 37:0.3125 44:0.25 45:0.875 52:0.6875 53:0.6875 58:0.75 59:1 60:0.75 61:0.25 # 0
-0.44357447669266369949525596894091 2:0.3125 3:0.875 4:1 5:0.875 9:0.46666667 10:1 11:0.9375 12:0.5 13:0.5 17:0.875 18:0.8125 25:0.8125 26:1 27:0.8125 28:0.1875 34:0.3125 35:0.6875 36:0.9375 37:0.0625 44:1 45:0.5625 50:0.3125 51:0.6875 52:1 53:0.5 58:0.6875 59:1 60:0.625 61:0.0625 # 0
-0.48974712070225878690621357236523 2:0.125 3:0.75 4:0.875 5:0.3125 9:0.13333334 10:0.9375 11:0.375 12:0.5 13:0.875 14:0.375 17:0.3125 18:0.5625 20:0.3125 21:1 22:0.25 25:0.3125 26:0.5625 27:0.25 28:0.9375 29:0.75 34:0.875 35:0.8125 36:1 37:0.3125 43:0.25 44:0.75 51:0.6875 52:0.3125 58:0.125 59:0.9375 60:0.25 # 0
0.48656696953469147359783164574765 2:0.375 3:1 4:0.75 5:0.1875 9:0.2 10:0.9375 11:0.4375 12:0.375 13:0.875 14:0.0625 17:0.4375 18:0.8125 20:0.0625 21:0.875 22:0.0625 25:0.25 26:0.8125 27:0.5 28:0.8125 29:0.8125 33:0.14285715 34:0.9375 35:0.9375 36:0.4375 37:0.8125 38:0.35714287 42:0.75 43:0.3125 45:0.5625 46:0.5 50:0.75 51:0.3125 52:0.375 53:0.875 54:0.125 58:0.3125 59:1 60:0.75 61:0.1875 # 0
0.99476889329549766927129894611426 2:0.25 3:0.5625 4:1 5:0.5 9:0.2 10:1 11:1 12:1 13:0.8125 17:0.1875 18:1 19:0.5 20:1 21:0.5 26:0.6875 27:1 28:0.75 34:0.625 35:1 36:0.25 42:0.875 43:1 44:0.625 50:0.875 51:0.875 52:0.8125 58:0.375 59:1 60:0.5625 # 0
-1 2:0.125 3:0.9375 4:0.875 5:0.25 10:0.5 11:1 12:1 13:0.6875 18:0.4375 19:1 20:1 21:0.625 26:0.4375 27:1 28:1 29:0.5625 34:0.625 35:1 36:1 37:0.375 42:0.625 43:1 44:1 45:0.5 50:0.8125 51:1 52:1 53:0.8125 58:0.125 59:0.6875 60:0.9375 61:0.4375 # 0
-0.075285529192591127412015339359641 3:0.6875 4:0.75 10:0.4375 11:1 12:0.6875 13:0.0625 17:0.125 18:1 19:0.75 25:0.125 26:1 27:0.4375 33:0.5714286 34:1 35:1 36:0.5 37:0.0625 41:0.25 42:1 43:0.8125 44:0.8125 45:0.875 46:0.1875 50:0.8125 51:0.875 52:0.4375 53:1 54:0.75 59:0.625 60:1 61:0.75 62:0.375 # 0
0.78593886297463377843541820766404 2:0.5625 3:1 4:0.375 9:0.13333334 10:0.875 11:1 12:1 13:0.5 14:0.1875 18:0.875 19:1 20:1 21:1 22:0.6875 26:0.875 27:1 28:0.75 29:0.3125 30:0.0625 34:0.5625 35:1 36:0.3125 42:0.9375 43:1 44:0.3125 50:1 51:1 52:0.5 58:0.625 59:0.8125 60:0.0625 # 0
1 2:0.875 3:0.625 4:0.625 5:0.25 10:1 11:0.5 12:0.5 13:0.9375 14:0.25 18:0.8125 19:0.3125 21:0.4375 22:0.5 26:0.375 27:0.875 28:0.5 29:0.9375 30:0.4375 34:0.5 35:1 36:1 37:0.5625 41:0.125 42:0.9375 43:0.5625 44:0.9375 45:0.375 49:0.3125 50:0.9375 51:0.5 52:0.875 53:0.625 58:0.5 59:0.625 60:1 61:0.4375 # 0
1 2:0.125 3:0.5 4:0.8125 5:0.8125 6:0.125 9:0.40000001 10:0.875 11:0.875 12:0.6875 13:0.9375 14:0.1875 17:0.625 18:0.875 19:0.25 20:0.625 21:0.375 25:0.0625 26:0.875 27:0.75 28:0.8125 34:0.5625 35:0.9375 36:0.6875 42:0.8125 43:0.125 44:0.6875 45:0.5 50:0.5 51:0.625 52:0.25 53:0.875 54:0.1875 58:0.0625 59:0.5 60:0.875 61:0.875 62:0.0625 # 0
1 2:0.0625 3:0.9375 4:1 5:0.5 10:0.375 11:1 12:0.9375 13:0.8125 18:0.3125 19:1 20:1 21:0.6875 27:0.9375 28:1 29:0.4375 34:0.375 35:1 36:0.9375 42:0.8125 43:0.6875 44:0.6875 45:0.4375 50:0.8125 51:0.625 52:0.3125 53:1 58:0.1875 59:0.8125 60:1 61:0.75 # 0
1 2:0.4375 3:0.8125 4:0.9375 5:0.1875 9:0.2 10:1 11:0.25 12:0.5 13:0.25 17:0.0625 18:1 19:0.1875 20:0.625 26:0.5 27:1 28:0.375 34:0.375 35:0.6875 36:0.6875 37:0.625 38:0.071428575 41:0.0625 42:0.8125 43:0.1875 45:0.5625 46:0.375 49:0.125 50:0.875 51:0.0625 53:0.5625 54:0.1875 58:0.25 59:0.8125 60:0.875 61:0.5625 # 0
1 1:0.125 2:0.5 3:0.625 4:0.1875 9:0.26666668 10:1 11:1 12:1 13:0.6875 14:0.0625 17:0.1875 18:1 19:0.5625 20:0.5 21:0.6875 22:0.25 26:0.625 27:0.4375 28:0.1875 29:0.625 30:0.125 34:0.1875 35:1 36:0.8125 37:0.3125 42:0.8125 43:0.9375 44:0.5 49:0.25 50:0.9375 51:0.3125 52:0.8125 57:0.1 58:0.4375 59:0.75 60:0.6875 # 0
-1 1:0.625 2:1 3:0.3125 9:0.60000002 10:1 11:0.875 17:0.75 18:0.875 19:0.875 25:0.4375 26:0.8125 27:0.75 34:0.6875 35:0.5 37:0.1875 38:0.071428575 42:1 43:0.5 44:0.4375 45:0.875 46:0.6875 49:0.5 50:1 51:1 52:1 53:1 54:0.6875 57:0.60000002 58:1 59:1 60:0.6875 61:0.375 62:0.0625 # 0
1 2:0.125 3:0.75 4:0.875 5:0.0625 10:0.875 11:0.5625 12:0.6875 13:0.875 14:0.4375 17:0.3125 18:0.75 20:0.5 21:0.6875 22:0.0625 25:0.25 26:0.875 27:0.5 28:0.8125 29:0.0625 34:0.5625 35:1 36:0.25 42:0.4375 43:0.8125 44:0.8125 45:0.0625 50:0.5 51:0.4375 52:0.875 53:0.375 58:0.25 59:0.875 60:0.75 61:0.25 # 0
-1 3:0.5625 4:0.75 5:0.3125 10:0.9375 11:1 12:1 13:0.5625 18:0.8125 19:1 20:1 21:0.9375 26:0.8125 27:1 28:1 29:0.75 34:0.6875 35:1 36:1 37:0.8125 42:0.4375 43:1 44:1 45:0.6875 46:0.0625 50:0.4375 51:1 52:1 53:0.5 59:0.625 60:0.75 61:0.3125 # 0
0.40643313400588176875771750928834 2:0.375 3:0.75 4:0.875 5:0.375 9:0.80000001 10:0.875 11:0.375 12:0.25 13:0.9375 17:0.6875 18:0.0625 20:0.3125 21:0.75 25:0.375 26:0.6875 27:0.3125 28:0.9375 29:0.1875 34:0.4375 35:0.9375 36:0.75 37:0.125 42:0.3125 43:0.8125 44:0.5 45:0.8125 46:0.0625 50:0.6875 51:0.3125 52:0.375 53:0.875 54:0.4375 58:0.3125 59:1 60:0.75 61:0.4375 62:0.0625 # 0
-1 3:0.75 4:0.9375 5:0.125 10:0.4375 11:1 12:0.4375 13:0.0625 18:0.9375 19:0.625 25:0.0625 26:1 27:0.5625 28:0.0625 33:0.21428572 34:1 35:1 36:0.9375 37:0.3125 41:0.0625 42:0.9375 43:0.6875 44:0.25 45:0.75 46:0.5625 50:0.625 51:0.75 52:0.1875 53:0.6875 54:0.875 58:0.0625 59:0.5625 60:1 61:1 62:0.375 # 0
-1 2:0.1875 3:0.75 4:0.6875 5:0.4375 10:0.5 11:1 12:1 13:0.375 17:0.1875 18:1 19:1 20:1 21:0.375 25:0.25 26:1 27:1 28:0.9375 29:0.0625 33:0.071428575 34:0.5 35:0.5625 36:1 37:0.25 41:0.0625 42:0.9375 43:1 44:1 45:0.5625 50:0.5 51:1 52:1 53:0.75 58:0.25 59:0.6875 60:0.6875 61:0.375 # 0
-1 2:0.1875 3:1 4:0.5625 5:0.0625 10:0.75 11:1 12:1 13:0.0625 18:0.9375 19:1 20:0.625 26:0.875 27:1 28:0.3125 34:0.8125 35:1 36:0.25 42:0.8125 43:1 44:0.25 50:0.5625 51:1 52:0.3125 58:0.125 59:1 60:0.375 # 0
-1 2:0.375 3:0.9375 4:0.9375 5:0.125 10:0.5625 11:1 12:1 13:0.3125 18:0.5625 19:1 20:1 21:0.0625 26:0.6875 27:1 28:1 29:0.0625 34:0.875 35:1 36:0.875 37:0.125 42:0.875 43:1 44:0.875 50:0.9375 51:1 52:0.9375 53:0.25 58:0.3125 59:1 60:0.75 # 0
0.71477946404961567594682492199354 2:0.6875 3:0.875 4:0.625 5:0.125 10:0.75 11:0.8125 12:0.8125 13:0.9375 18:0.1875 19:0.6875 20:0.75 21:0.75 22:0.0625 27:0.9375 28:0.75 34:0.3125 35:0.9375 36:0.625 42:0.75 43:0.25 44:0.6875 50:0.875 51:0.0625 52:0.75 53:0.125 58:0.625 59:1 60:0.625 # 0
-0.069968788628423705944214816554449 2:0.5625 3:1 4:0.9375 5:0.5 9:0.2 10:1 11:0.8125 12:0.4375 13:0.5 17:0.625 18:1 19:0.3125 25:0.625 26:1 27:0.9375 28:0.3125 34:0.25 35:0.5625 36:0.9375 37:0.1875 43:0.125 44:1 45:0.5 50:0.125 51:0.75 52:1 53:0.1875 58:0.5625 59:1 60:0.5 # 0
