SVM-light Version V6.02
1 # kernel type
8 # kernel parameter -d 
1 # kernel parameter -g 
1 # kernel parameter -s 
1 # kernel parameter -r 
empty# kernel parameter -u 
63 # highest feature index 
2823 # number of training documents 
236 # number of support vectors plus 1 
0.52463176 # threshold b, each following line is a SV (starting with alpha*y)
-5.4724904079252134303117746790771e-10 2:0.25 3:0.875 4:0.9375 5:0.1875 10:0.75 11:0.625 12:0.3125 13:0.8125 14:0.0625 17:0.1875 18:0.8125 21:1 22:0.25 25:0.25 26:0.6875 29:0.8125 30:0.375 33:0.35714287 34:0.625 37:0.75 38:0.2857143 41:0.125 42:0.8125 45:0.5625 46:0.375 50:0.875 51:0.1875 52:0.25 53:0.75 58:0.1875 59:0.875 60:0.875 61:0.375 # 0
7.453195737032698844381288828684e-11 2:0.25 3:0.875 4:0.3125 10:0.75 11:0.9375 12:0.875 18:0.75 19:0.5 20:0.9375 21:0.5625 26:0.3125 27:1 28:0.9375 29:1 30:0.25 36:0.375 37:0.75 38:0.71428573 45:0.3125 46:0.9375 50:0.1875 51:0.5 52:0.25 53:0.5625 54:1 55:0.40000001 58:0.3125 59:0.75 60:0.9375 61:0.75 62:0.6875 # 0
-1.9833435720093832963104856924492e-11 2:0.5625 3:0.8125 4:0.9375 5:0.625 9:0.13333334 10:0.9375 11:0.3125 12:0.375 13:1 14:0.375 18:0.1875 20:0.125 21:1 22:0.375 28:0.6875 29:0.8125 35:0.5 36:0.875 37:0.0625 42:0.3125 43:0.9375 44:0.1875 50:0.75 51:0.375 58:0.5 59:1 60:1 61:0.75 # 0
1.7067799090493095202030264152001e-16 2:0.4375 3:0.8125 4:0.5625 5:0.0625 9:0.06666667 10:0.8125 11:0.3125 12:0.5625 13:0.5 17:0.4375 18:0.625 20:0.3125 21:0.75 25:0.3125 26:0.9375 27:0.5 28:0.625 29:1 30:0.25 34:0.4375 35:0.5625 36:0.4375 37:0.3125 38:0.5714286 45:0.0625 46:0.6875 50:0.1875 53:0.3125 54:0.625 58:0.5625 59:1 60:1 61:0.875 62:0.1875 # 0
1.9106147156605391799743567905149e-09 2:0.125 3:0.875 4:0.9375 5:0.5 10:0.5 11:0.625 12:0.1875 13:0.9375 14:0.0625 18:0.3125 19:0.6875 20:0.0625 21:0.9375 22:0.25 27:0.75 28:0.9375 29:1 30:0.3125 36:0.125 37:0.5 38:0.42857143 41:0.0625 42:0.1875 45:0.4375 46:0.3125 49:0.0625 50:0.75 51:0.25 53:0.625 54:0.4375 58:0.25 59:0.875 60:0.875 61:0.8125 62:0.0625 # 0
5.0954367017800977623237766869031e-10 2:0.3125 3:0.6875 4:0.9375 5:0.5 9:0.26666668 10:0.875 11:0.5 12:0.625 13:1 17:0.5 18:0.8125 19:0.0625 20:0.9375 21:0.75 25:0.25 26:1 27:0.9375 28:1 29:0.8125 34:0.25 35:0.75 36:0.8125 37:1 38:0.2857143 42:0.25 43:0.0625 45:0.875 46:0.5 50:0.8125 51:0.8125 52:0.375 53:0.875 54:0.4375 58:0.125 59:0.875 60:0.875 61:0.5625 62:0.125 # 0
1.7889648693492703759299196303805e-10 2:0.25 3:1 4:0.8125 10:0.875 11:0.5625 12:0.9375 17:0.3125 18:0.875 19:0.125 20:1 21:0.375 25:0.5625 26:0.75 27:0.4375 28:0.9375 29:0.625 33:0.21428572 34:1 35:0.9375 36:0.5625 37:1 38:0.071428575 42:0.25 44:0.0625 45:0.875 46:0.3125 51:0.375 52:0.375 53:0.75 54:0.4375 58:0.125 59:1 60:1 61:0.8125 62:0.0625 # 0
1.4352188287763418888040412200948e-09 2:0.125 3:0.8125 4:0.8125 5:0.25 10:0.75 11:0.8125 12:0.6875 13:0.875 18:0.5625 19:0.8125 20:0.8125 21:0.875 22:0.0625 27:0.25 28:0.5 29:0.8125 30:0.1875 37:0.4375 38:0.64285713 45:0.1875 46:0.8125 50:0.875 51:0.375 53:0.375 54:0.75 58:0.125 59:0.75 60:1 61:1 62:0.4375 # 0
-1.8308576318091972996869291109829e-10 2:0.3125 3:0.5625 4:1 5:0.8125 6:0.25 9:0.06666667 10:0.9375 11:0.5 12:0.3125 13:0.875 14:0.75 18:0.25 20:0.25 21:0.875 22:0.5 27:0.125 28:0.875 29:0.625 35:0.75 36:0.875 42:0.4375 43:0.875 44:0.1875 50:0.9375 51:0.625 58:0.25 59:0.75 60:0.75 61:0.375 # 0
-8.2980863904380226163442764607454e-10 2:0.0625 3:0.375 4:0.75 5:0.875 6:0.25 10:0.25 11:0.8125 12:0.5 13:0.1875 18:0.8125 19:0.25 25:0.1875 26:0.9375 27:0.3125 28:0.125 33:0.5714286 34:1 35:1 36:1 37:0.75 41:0.125 42:0.25 43:0.1875 44:0.4375 45:0.9375 46:0.1875 51:0.125 52:0.4375 53:0.875 54:0.0625 59:0.5 60:0.75 61:0.25 # 0
-1.9738207188451943597361676803221e-10 2:0.3125 3:1 4:0.9375 5:0.375 10:0.5625 11:0.9375 12:0.8125 13:0.625 18:0.6875 19:0.9375 20:0.6875 21:0.25 26:0.125 27:0.75 28:0.8125 29:1 30:0.125 37:0.4375 38:0.71428573 45:0.25 46:0.8125 50:0.8125 51:0.6875 52:0.5 53:0.875 54:0.6875 58:0.25 59:0.6875 60:0.9375 61:0.9375 62:0.25 # 0
-7.2916153364470086509788399400933e-11 2:0.25 3:0.625 4:0.875 5:0.3125 10:0.8125 11:0.625 13:0.875 14:0.25 17:0.375 18:0.9375 20:0.5625 21:0.9375 22:0.125 25:0.375 26:1 27:1 28:1 29:0.8125 34:0.75 35:0.9375 36:0.4375 37:0.75 38:0.2857143 42:0.625 43:0.5625 45:0.625 46:0.4375 50:0.6875 51:0.5625 52:0.4375 53:0.9375 54:0.1875 58:0.3125 59:0.9375 60:0.75 61:0.1875 # 0
-1.47257463712720132258939011974e-09 2:0.125 3:0.6875 4:0.5625 10:0.75 11:0.4375 12:0.5 13:0.5 17:0.375 18:1 19:0.1875 20:0.5625 21:0.6875 25:0.0625 26:0.8125 27:1 28:1 29:0.875 30:0.125 34:0.25 35:1 36:0.5 37:0.625 38:0.35714287 42:0.5 43:0.6875 45:0.25 46:0.375 50:0.625 51:0.5625 53:0.5 54:0.3125 58:0.1875 59:0.6875 60:0.75 61:0.375 # 0
-3.5362764843164717808973433895402e-10 2:0.0625 3:0.75 4:0.9375 5:0.375 10:0.3125 11:0.8125 12:0.0625 13:0.75 18:0.125 19:0.6875 20:0.0625 21:0.9375 27:0.625 28:0.6875 29:0.5625 35:0.375 36:1 37:0.375 42:0.625 43:0.9375 44:0.25 45:0.8125 46:0.1875 50:0.75 51:0.125 53:0.0625 54:0.875 58:0.0625 59:0.625 60:0.625 61:0.5 62:0.9375 63:0.06666667 # 0
-2.3348594569682311780527088030605e-10 2:0.25 3:0.8125 4:0.6875 5:0.125 10:0.125 11:0.8125 12:1 13:0.4375 19:0.4375 20:1 21:0.9375 27:0.1875 28:1 29:0.9375 30:0.25 35:0.4375 36:1 37:1 38:0.071428575 43:0.625 44:1 45:0.875 50:0.0625 51:0.8125 52:0.9375 53:0.25 58:0.5 59:1 60:0.875 # 0
9.4776219299845426909493820224757e-11 1:0.125 2:0.625 3:0.9375 4:0.5625 9:0.33333334 10:1 11:0.5 12:1 13:0.4375 17:0.3125 18:0.875 20:0.75 21:0.5625 25:0.0625 26:0.75 27:0.8125 28:1 29:1 30:0.125 34:0.0625 35:0.5625 36:0.75 37:0.875 38:0.5 45:0.25 46:0.8125 50:0.875 51:0.75 52:0.5 53:0.6875 54:1 58:0.4375 59:1 60:1 61:1 62:0.5625 # 0
2.0517925823248555488559884547569e-09 2:0.3125 3:1 4:0.8125 5:0.0625 10:0.75 11:0.875 12:0.9375 13:0.3125 18:0.75 19:0.625 20:1 21:0.4375 26:0.1875 27:0.9375 28:1 29:0.75 36:0.125 37:0.9375 38:0.14285715 45:0.5 46:0.5625 49:0.125 50:0.75 51:0.5 52:0.5 53:0.8125 54:0.75 57:0.1 58:0.375 59:0.625 60:0.75 61:0.75 62:0.125 # 0
-4.9547502970193211419184970180159e-11 3:0.4375 4:0.75 5:0.875 6:0.125 10:0.1875 11:0.875 12:0.4375 13:0.8125 14:0.5 18:0.375 19:0.875 20:0.6875 21:1 22:0.3125 25:0.125 26:0.8125 27:1 28:0.9375 29:0.5 30:0.0625 33:0.35714287 34:0.75 35:0.375 36:0.9375 41:0.4375 42:0.625 44:0.5 45:0.625 49:0.125 50:0.75 51:0.4375 52:0.3125 53:1 54:0.1875 59:0.5625 60:0.8125 61:0.875 62:0.125 # 0
-8.0731616381953834133857733821823e-10 2:0.125 3:0.5625 4:0.9375 5:0.75 9:0.06666667 10:0.8125 11:0.8125 12:0.625 13:1 14:0.0625 18:0.625 19:0.125 20:0.5 21:1 27:0.25 28:1 29:0.875 30:0.0625 36:0.25 37:0.9375 38:0.2857143 45:0.9375 46:0.3125 51:0.75 52:0.9375 53:1 54:0.0625 59:0.5625 60:0.8125 61:0.4375 # 0
3.2924900958658377405782925451377e-10 2:0.25 3:0.875 4:0.625 5:0.125 10:0.75 11:0.8125 12:0.875 13:0.8125 18:0.6875 19:0.3125 20:0.1875 21:0.8125 26:0.4375 27:0.75 28:0.6875 29:1 30:0.0625 34:0.0625 35:0.625 36:0.5625 37:0.875 38:0.21428572 45:0.8125 46:0.3125 50:0.25 51:0.5 52:0.5 53:1 54:0.3125 58:0.4375 59:1 60:1 61:0.6875 # 0
4.7427532998441418046029855200133e-10 3:0.5625 4:1 5:0.625 10:0.1875 11:0.9375 12:0.75 13:0.9375 14:0.25 17:0.0625 18:0.75 19:0.875 20:0.0625 21:0.9375 22:0.6875 25:0.5 26:1 27:0.75 28:0.875 29:1 30:0.4375 33:0.5 34:1 35:1 36:1 37:0.75 42:0.4375 43:0.5 44:1 45:0.3125 51:0.5 52:0.8125 59:0.5625 60:0.6875 # 0
6.8814632786743660028138735586353e-11 2:0.5 3:0.9375 4:0.9375 5:0.75 6:0.25 10:0.9375 11:0.25 12:0.1875 13:0.625 14:1 18:0.5 19:0.875 20:0.75 21:1 22:0.75 27:0.125 28:0.25 29:0.5625 30:0.5 37:0.5625 38:0.5 41:0.0625 42:0.0625 45:0.75 46:0.25 49:0.4375 50:0.6875 51:0.0625 52:0.25 53:0.75 54:0.0625 58:0.625 59:1 60:0.8125 61:0.1875 # 0
-6.2552823401610444285768868784834e-10 2:0.25 3:0.375 4:0.875 5:0.625 6:0.125 10:0.9375 11:1 12:0.75 13:0.75 14:0.75 17:0.25 18:0.875 19:0.0625 25:0.3125 26:1 27:1 28:0.75 29:0.0625 34:0.25 35:0.5 36:0.9375 37:0.625 44:0.3125 45:0.5625 51:0.3125 52:0.875 53:0.1875 58:0.3125 59:0.875 60:0.3125 # 0
-4.8665126019322928578938304846019e-10 2:0.3125 3:0.6875 4:0.75 10:1 11:1 12:1 13:0.8125 14:0.4375 18:0.75 19:1 20:1 21:0.9375 22:0.25 26:0.25 27:0.9375 28:0.875 29:0.5 34:0.75 35:0.25 36:0.0625 37:0.25 41:0.0625 42:0.875 44:0.1875 45:0.4375 49:0.0625 50:1 51:0.75 52:1 53:0.25 58:0.1875 59:0.5625 60:0.3125 # 0
-4.1566147619305458594917479935883e-10 2:0.375 3:0.6875 10:0.8125 11:0.4375 13:0.3125 14:1 15:0.15384616 17:0.0625 18:1 19:0.4375 20:0.6875 21:1 22:0.5625 26:0.375 27:0.75 28:1 29:0.6875 35:0.4375 36:0.875 37:0.125 43:0.875 44:0.5 50:0.375 51:1 52:0.125 58:0.5625 59:0.8125 # 0
-1.2186240136760404305643897701302e-09 2:0.3125 3:0.75 4:0.875 9:0.13333334 10:0.875 11:0.625 12:0.9375 17:0.1875 18:0.9375 19:0.6875 20:0.6875 25:0.125 26:0.75 27:0.9375 28:0.6875 29:0.125 36:0.5 37:0.9375 38:0.071428575 44:0.0625 45:0.875 46:0.25 50:0.125 51:0.4375 52:0.25 53:0.875 54:0.1875 58:0.1875 59:0.8125 60:0.875 61:0.625 # 0
1.0711209789401818100333952171678e-09 2:0.375 3:0.875 4:0.875 5:0.25 10:0.875 11:0.9375 12:0.375 13:0.8125 14:0.125 18:0.4375 19:1 20:1 21:0.9375 22:0.0625 27:0.625 28:0.625 36:0.875 37:0.0625 44:0.25 45:0.6875 49:0.1875 50:0.625 51:0.25 53:0.8125 58:0.5625 59:0.75 60:1 61:0.75 # 0
5.8158202056925398718245850211619e-10 1:0.125 2:0.875 3:1 4:0.875 5:0.25 9:0.2 10:1 11:0.5 12:0.5 13:0.875 18:0.9375 19:0.875 20:0.8125 21:0.5625 26:0.1875 27:0.6875 28:1 29:0.25 36:0.75 37:0.75 44:0.25 45:1 46:0.1875 50:0.1875 51:0.25 52:0.1875 53:1 54:0.0625 58:0.75 59:0.875 60:1 61:0.875 62:0.0625 # 0
5.7099868591110338749423923048322e-10 2:0.6875 3:1 4:0.75 5:0.3125 9:0.26666668 10:1 11:0.6875 12:1 13:1 14:0.1875 17:0.25 18:1 19:0.6875 20:1 21:0.875 26:0.625 27:1 28:1 29:0.375 35:0.9375 36:0.875 42:0.4375 43:1 44:0.3125 50:0.9375 51:0.8125 58:0.75 59:0.6875 # 0
-3.8229740448193079892436123346997e-09 2:0.5 3:0.875 4:0.8125 5:0.1875 9:0.40000001 10:0.8125 11:0.1875 12:0.375 13:0.6875 17:0.0625 18:0.125 20:0.25 21:0.8125 27:0.6875 28:1 29:0.6875 35:0.1875 36:0.25 37:0.6875 38:0.5 45:0.3125 46:0.5625 49:0.125 50:0.8125 51:0.0625 53:0.4375 54:0.625 58:0.5625 59:1 60:0.8125 61:0.75 62:0.0625 # 0
2.9121471136436554469999515513246e-11 2:0.5625 3:0.8125 4:0.625 5:0.0625 9:0.46666667 10:0.875 11:0.25 12:0.9375 13:0.5 17:0.625 18:0.5 20:0.625 21:0.875 25:0.25 26:0.875 27:0.75 28:0.875 29:0.9375 30:0.25 34:0.125 35:0.25 36:0.125 37:0.75 38:0.42857143 44:0.0625 45:0.9375 46:0.3125 51:0.25 52:0.625 53:0.9375 54:0.0625 58:0.5625 59:0.75 60:0.5625 61:0.125 # 0
-3.2058779415029554527243528995342e-10 3:0.0625 4:0.8125 5:0.8125 10:0.3125 11:0.9375 12:0.9375 13:1 17:0.1875 18:0.9375 19:0.5 20:0.4375 21:0.875 25:0.6875 26:0.9375 27:0.5625 28:0.9375 29:1 30:0.5625 33:0.5714286 34:1 35:0.875 36:0.9375 37:0.9375 38:0.35714287 44:0.75 45:0.5 52:0.75 53:0.375 60:0.75 61:0.25 # 0
1.5676095945439879766054905393962e-10 2:0.25 3:0.6875 4:0.75 5:0.4375 9:0.06666667 10:1 11:0.8125 12:0.875 13:0.75 17:0.125 18:1 19:0.3125 20:0.5 21:0.875 25:0.0625 26:0.9375 27:1 28:1 29:0.875 34:0.375 35:0.75 36:0.75 37:1 38:0.42857143 42:0.0625 43:0.1875 44:0.125 45:0.9375 46:0.3125 50:0.4375 51:1 52:1 53:1 54:0.125 58:0.0625 59:0.8125 60:0.75 61:0.3125 # 0
-3.0331486706233228139150630863662e-11 3:0.125 4:0.75 5:0.375 6:0.875 10:0.0625 11:0.9375 12:0.8125 13:0.5 14:0.625 17:0.125 18:0.9375 19:0.4375 21:0.9375 22:0.25 25:0.5625 26:0.9375 27:0.4375 28:0.4375 29:1 30:0.3125 33:0.5714286 34:1 35:1 36:1 37:1 38:0.71428573 41:0.0625 42:0.25 43:0.25 44:0.8125 45:0.5 51:0.1875 52:0.9375 53:0.0625 59:0.1875 60:0.875 # 0
-1.3122306721327689523544749385136e-10 3:0.625 4:0.875 6:0.1875 7:0.0625 10:0.3125 11:1 12:0.375 13:0.0625 14:0.875 15:0.38461539 17:0.125 18:0.9375 19:0.5 20:0.1875 21:0.625 22:0.8125 25:0.5 26:1 27:0.875 28:1 29:1 30:0.5 33:0.35714287 34:0.6875 35:0.375 36:0.9375 37:0.8125 38:0.21428572 43:0.0625 44:0.9375 51:0.4375 52:0.625 59:0.8125 60:0.1875 # 0
1.5726005495768521360954576125018e-09 3:0.125 4:0.75 5:0.8125 6:0.5 7:0.0625 10:0.1875 11:0.75 12:0.3125 13:0.875 14:1 15:0.15384616 18:0.6875 19:0.0625 21:0.75 22:0.875 25:0.125 26:0.6875 27:0.1875 28:0.4375 29:0.875 30:0.1875 33:0.21428572 34:0.9375 35:0.6875 36:0.3125 37:0.625 44:0.5625 45:0.375 51:0.0625 52:0.875 53:0.125 60:0.875 61:0.0625 # 0
-4.3759349063627955032816512681755e-10 2:0.125 3:0.4375 4:0.875 5:0.75 6:0.0625 9:0.13333334 10:0.875 11:0.9375 12:0.625 13:1 14:0.4375 17:0.25 18:0.5625 20:0.3125 21:1 22:0.1875 27:0.125 28:1 29:0.8125 35:0.125 36:0.9375 37:0.6875 44:0.375 45:1 46:0.25 51:0.3125 52:1 53:0.8125 59:0.5625 60:0.6875 61:0.125 # 0
-8.5119111406118819772459618253112e-10 3:0.1875 4:0.625 5:0.625 9:0.53333336 10:0.875 11:1 12:0.875 13:0.9375 14:0.25 18:0.1875 19:0.0625 20:0.0625 21:0.9375 22:0.25 27:0.4375 28:0.875 29:1 30:0.375 34:0.5625 35:1 36:0.9375 37:0.625 42:0.125 43:0.125 44:0.875 45:0.25 51:0.4375 52:0.6875 59:0.5625 60:0.25 # 0
-6.643617418452498356261192071506e-13 3:0.625 4:0.3125 11:0.9375 12:0.3125 18:0.625 19:0.75 20:0.0625 21:0.875 22:0.0625 25:0.3125 26:1 27:0.25 28:0.5 29:0.9375 33:0.5 34:1 35:1 36:1 37:1 38:0.35714287 42:0.1875 43:0.3125 44:0.9375 45:0.5 46:0.0625 51:0.5625 52:0.75 59:0.75 60:0.5 # 0
9.1459499895378370242470602807339e-10 2:0.3125 3:0.75 4:0.8125 5:0.0625 10:0.4375 11:1 12:1 13:0.625 18:0.0625 19:0.8125 20:1 21:0.8125 28:0.625 29:0.9375 36:0.5625 37:0.9375 42:0.125 43:0.3125 44:0.9375 45:0.75 50:0.6875 51:1 52:1 53:0.4375 58:0.25 59:0.8125 60:0.5625 # 0
-1.6967514091139991768466990537618e-10 1:0.125 2:0.9375 3:1 4:1 5:1 6:0.5625 9:0.46666667 10:1 11:0.8125 12:0.6875 13:1 14:0.5625 17:0.5625 18:1 19:0.25 20:0.625 21:0.9375 22:0.0625 25:0.5 26:0.5625 27:0.1875 28:0.9375 29:0.5 35:0.625 36:0.9375 42:0.0625 43:1 44:0.5625 50:0.625 51:1 52:0.125 58:1 59:0.8125 # 0
-1.3978224657186730838689945859567e-10 1:0.5 2:0.9375 3:0.5625 4:0.5 5:0.5 6:0.0625 9:0.26666668 10:1 11:1 12:1 13:1 14:0.5 17:0.5625 18:0.9375 19:0.125 20:0.9375 21:0.875 22:0.0625 25:0.3125 26:0.3125 27:0.3125 28:1 29:0.25 35:0.75 36:0.75 42:0.4375 43:0.9375 44:0.125 49:0.1875 50:1 51:0.4375 57:0.60000002 58:1 59:0.25 # 0
-7.5835000193521755214670476274042e-10 2:0.125 3:0.9375 4:0.9375 5:0.6875 6:0.1875 9:0.13333334 10:0.9375 11:0.375 12:0.25 13:0.25 14:0.1875 17:0.3125 18:1 19:0.9375 20:0.4375 25:0.0625 26:0.25 27:0.375 28:0.8125 29:0.8125 37:0.875 38:0.2857143 42:0.1875 43:0.1875 45:0.6875 46:0.1875 50:0.4375 51:0.4375 52:0.625 53:0.75 58:0.1875 59:0.875 60:0.5625 61:0.0625 # 0
6.9841784731897806783649516372287e-10 2:0.125 3:0.4375 4:0.875 5:0.875 6:0.125 9:0.13333334 10:0.9375 11:0.5625 12:0.3125 13:0.9375 14:0.1875 17:0.125 18:1 19:0.5 20:0.5 21:0.9375 26:0.25 27:0.4375 28:0.6875 29:0.9375 30:0.125 37:1 38:0.42857143 44:0.625 45:0.8125 46:0.0625 51:0.375 52:0.875 53:0.125 59:0.625 60:0.25 # 0
-1.5494571178171559097402578929746e-10 2:0.5 3:1 4:1 5:0.75 9:0.26666668 10:1 11:1 12:1 13:0.9375 14:0.125 17:0.125 18:0.6875 19:1 20:1 21:0.6875 27:0.9375 28:1 29:0.4375 36:0.6875 37:1 38:0.14285715 42:0.4375 45:0.9375 46:0.3125 49:0.125 50:1 51:0.4375 52:0.4375 53:0.9375 54:0.4375 58:0.5 59:0.875 60:0.75 61:0.3125 # 0
-1.1127898926406800826750186288823e-10 2:0.0625 3:0.5625 4:0.9375 5:0.8125 6:0.0625 10:0.6875 11:0.75 12:0.375 13:1 14:0.25 17:0.625 18:0.9375 19:0.0625 20:0.4375 21:0.875 25:0.1875 26:0.9375 27:0.875 28:0.9375 29:0.1875 34:0.0625 35:0.75 36:0.9375 37:0.1875 43:0.75 44:0.5 45:0.8125 46:0.0625 51:0.75 52:0.375 53:1 54:0.125 59:0.5625 60:0.9375 61:0.375 # 0
8.6009955577472427186951545023154e-10 2:0.0625 3:0.4375 4:0.875 5:0.75 10:0.8125 11:0.6875 12:0.75 13:0.875 17:0.5625 18:1 19:0.75 20:0.875 21:0.875 25:0.125 26:0.25 27:0.125 28:0.3125 29:0.9375 36:0.1875 37:0.9375 44:0.1875 45:1 52:0.875 53:0.4375 58:0.125 59:0.6875 60:0.6875 61:0.0625 # 0
-6.0781801202269162298281966467887e-10 2:0.4375 3:0.8125 4:0.875 5:0.0625 10:1 11:0.625 12:0.3125 17:0.0625 18:1 19:0.8125 20:0.5 21:0.1875 26:0.75 27:0.625 28:0.6875 29:0.9375 30:0.1875 37:0.5625 38:0.5714286 45:0.1875 46:0.6875 49:0.0625 50:0.4375 51:0.25 52:0.25 53:0.6875 54:0.6875 57:0.1 58:0.6875 59:0.875 60:0.9375 61:0.75 62:0.125 # 0
2.263335519583114270070409033064e-09 2:0.4375 3:0.8125 4:1 5:0.6875 6:0.25 9:0.06666667 10:1 11:0.3125 12:0.125 13:0.8125 14:0.75 17:0.25 18:0.875 20:0.25 21:0.9375 22:0.25 25:0.125 26:0.9375 27:0.8125 28:1 29:0.5 34:0.0625 35:0.5 36:0.9375 37:0.0625 42:0.0625 43:0.8125 44:0.3125 50:0.5625 51:0.625 58:0.75 59:0.375 # 0
1.544597390182498766550718747822e-09 2:0.1875 3:0.75 4:1 5:0.625 9:0.2 10:0.875 11:0.3125 13:0.75 17:0.5625 18:0.5 19:0.0625 20:0.5625 21:1 22:0.25 25:0.3125 26:0.9375 27:0.9375 28:0.9375 29:0.875 30:0.125 36:0.9375 37:0.1875 43:0.5 44:0.625 51:0.6875 52:0.375 58:0.1875 59:0.9375 60:0.125 # 0
-2.7481523667036235073461753364733e-09 3:0.0625 4:0.8125 5:0.75 6:0.1875 10:0.375 11:0.8125 12:0.6875 13:0.75 14:0.625 17:0.375 18:1 19:0.6875 20:0.25 21:0.8125 22:0.4375 25:0.5 26:1 27:1 28:1 29:1 30:0.625 34:0.25 35:0.25 36:0.4375 37:1 38:0.35714287 44:0.75 45:0.5 52:0.8125 53:0.4375 60:0.9375 61:0.25 # 0
-8.6974796782107440815254795695669e-10 3:0.3125 4:0.875 5:0.0625 10:0.0625 11:0.875 12:0.4375 14:0.1875 18:0.5625 19:0.875 20:0.0625 21:0.375 22:0.9375 25:0.1875 26:1 27:0.75 28:0.25 29:0.75 30:0.5 34:0.4375 35:0.625 36:0.875 37:1 38:0.2857143 44:0.625 45:0.8125 51:0.0625 52:1 53:0.1875 59:0.375 60:0.75 # 0
1.0828877493970682342492443813408e-10 3:0.375 4:0.875 5:1 6:0.4375 10:0.625 11:0.9375 12:0.375 13:0.9375 14:0.4375 17:0.25 18:1 19:0.1875 20:0.125 21:0.75 25:0.1875 26:0.9375 27:0.6875 28:0.4375 29:1 30:0.1875 34:0.125 35:0.5625 36:0.9375 37:0.8125 43:0.25 44:0.9375 45:0.3125 51:0.5 52:1 59:0.3125 60:1 # 0
6.5498991167498246734552900947179e-10 1:0.375 2:1 3:0.9375 4:0.4375 9:0.33333334 10:1 11:1 12:1 13:0.8125 14:0.125 18:0.4375 19:0.5 20:0.625 21:1 22:0.375 28:0.125 29:1 30:0.25 36:0.25 37:1 38:0.071428575 44:0.75 45:0.5625 50:0.25 51:0.6875 52:0.9375 53:0.1875 57:0.2 58:0.9375 59:0.75 60:0.1875 # 0
-6.9048685787515181475227869016781e-10 2:0.5625 3:1 4:1 5:0.875 9:0.2 10:0.9375 11:0.625 12:0.125 13:0.3125 17:0.6875 18:0.5625 25:0.5 26:0.875 27:0.0625 33:0.071428575 34:0.9375 35:0.3125 42:0.6875 43:0.5625 50:0.5625 51:0.75 58:0.875 59:0.5625 # 0
3.7777498685603774966116182509532e-09 3:0.5 4:0.8125 5:0.375 10:0.3125 11:0.875 12:0.375 13:0.875 14:0.125 18:0.5 19:0.5 20:0.0625 21:0.875 22:0.25 26:0.125 27:0.8125 28:0.6875 29:1 30:0.3125 35:0.1875 36:0.4375 37:0.5625 38:0.2857143 41:0.0625 42:0.125 45:0.5 46:0.5 49:0.0625 50:0.8125 51:0.1875 53:0.875 54:0.3125 59:0.6875 60:1 61:0.8125 62:0.0625 # 0
-6.9231840079904799368254831908249e-11 2:0.0625 3:0.625 4:0.9375 5:0.25 9:0.26666668 10:0.8125 11:0.75 12:0.5 13:0.8125 17:0.625 18:0.875 20:0.0625 21:0.875 25:0.5 26:0.9375 27:0.5 28:0.875 29:0.875 33:0.071428575 34:0.875 35:1 36:1 37:0.9375 38:0.071428575 42:0.6875 43:0.625 45:0.625 46:0.5625 50:0.25 51:0.875 52:0.3125 53:0.625 54:0.75 58:0.0625 59:0.8125 60:1 61:0.8125 62:0.375 # 0
3.4277105480919915067961378862349e-10 3:0.0625 4:0.625 5:1 6:0.375 10:0.1875 11:0.875 12:0.5 13:0.375 14:1 15:0.46153846 18:0.6875 19:0.25 21:0.375 22:1 23:0.33333334 25:0.25 26:0.75 27:0.125 28:0.3125 29:1 30:0.6875 33:0.42857143 34:1 35:0.9375 36:0.5 37:0.9375 38:0.2857143 44:0.25 45:0.5625 52:0.625 53:0.25 59:0.0625 60:0.8125 61:0.0625 # 0
5.3850269065504116399853054537135e-10 1:0.125 2:0.875 3:0.8125 4:0.25 9:0.40000001 10:0.9375 11:0.6875 12:0.9375 17:0.5 18:0.875 19:0.5625 20:1 21:0.25 25:0.125 26:0.5 27:0.6875 28:0.9375 29:0.375 36:0.4375 37:0.8125 38:0.071428575 45:0.6875 46:0.625 50:0.625 51:0.25 53:0.1875 54:0.9375 58:0.625 59:0.875 60:1 61:1 62:0.9375 # 0
-4.3254334263405670326921772581691e-10 2:0.1875 3:0.75 4:0.9375 5:0.6875 10:0.875 11:0.9375 12:0.9375 13:1 14:0.0625 18:0.1875 19:0.125 20:0.875 21:1 22:0.75 23:0.16666667 27:0.8125 28:1 29:0.875 30:0.5625 35:0.125 36:0.875 37:0.5 43:0.125 44:1 45:0.3125 51:0.8125 52:0.8125 58:0.1875 59:1 60:0.1875 # 0
-2.7198291601895223671543755051487e-10 2:0.1875 3:0.625 4:0.4375 5:0.9375 6:0.8125 10:0.75 11:0.5625 12:1 13:1 14:0.8125 17:0.0625 18:1 19:0.75 20:0.875 21:0.5 22:0.25 25:0.0625 26:0.875 27:1 28:1 29:1 30:0.625 35:0.0625 37:0.6875 38:0.42857143 44:0.25 45:0.9375 46:0.125 50:0.125 51:0.8125 52:0.9375 53:0.1875 58:0.25 59:0.8125 60:0.1875 # 0
-8.737256277850304671794351059897e-11 2:0.1875 3:0.5625 4:0.9375 5:0.5 9:0.06666667 10:0.9375 11:1 12:1 13:0.4375 18:0.3125 19:1 20:1 21:0.625 22:0.25 26:0.1875 27:1 28:1 29:1 30:0.5625 35:0.9375 36:0.875 37:0.25 43:0.8125 44:0.3125 50:0.0625 51:0.9375 52:0.1875 58:0.25 59:0.8125 # 0
5.3769878310843920725920477818224e-11 2:0.3125 3:0.8125 4:0.75 5:0.125 10:0.875 11:0.75 12:0.75 13:0.8125 18:0.6875 19:0.25 20:0.125 21:0.9375 26:0.5 27:0.5 28:0.25 29:1 30:0.0625 34:0.125 35:0.875 36:1 37:1 38:0.42857143 45:0.4375 46:0.625 50:0.5 51:0.5625 52:0.5 53:0.9375 54:0.625 58:0.25 59:1 60:1 61:0.8125 62:0.125 # 0
-1.3118359777819716129546881254854e-09 2:0.25 3:0.6875 4:0.875 5:0.375 9:0.26666668 10:0.875 11:0.4375 12:0.375 13:0.9375 17:0.25 18:0.3125 20:0.3125 21:0.6875 27:0.4375 28:0.9375 29:0.6875 35:0.6875 36:0.625 37:0.9375 38:0.2857143 45:0.625 46:0.5 50:0.0625 51:0.25 52:0.4375 53:0.9375 54:0.0625 58:0.1875 59:1 60:0.6875 61:0.125 # 0
-1.6085959042031534603728079027893e-10 2:0.25 3:0.9375 4:1 5:0.3125 9:0.26666668 10:1 11:0.625 12:0.625 13:0.9375 17:0.625 18:1 19:0.4375 20:0.25 21:0.9375 25:0.0625 26:0.25 27:0.1875 28:0.8125 29:0.5625 35:0.5625 36:1 37:1 38:0.2857143 43:0.0625 45:0.6875 46:0.6875 50:0.125 51:0.75 52:0.25 53:0.8125 54:0.5625 58:0.25 59:1 60:1 61:0.75 62:0.0625 # 0
-7.2732812323038659568765121248642e-10 2:0.25 3:0.75 4:0.9375 5:0.3125 9:0.13333334 10:0.9375 11:0.8125 12:0.6875 13:0.6875 17:0.125 18:0.625 19:0.125 20:0.3125 21:1 27:0.25 28:0.875 29:0.875 35:0.3125 36:0.75 37:0.875 38:0.5 45:0.1875 46:0.875 50:0.5625 51:0.625 52:0.1875 53:0.5 54:0.9375 55:0.2 58:0.125 59:0.5625 60:1 61:1 62:0.4375 # 0
2.1623965209051987423626456927619e-09 2:0.1875 3:0.6875 4:1 5:1 6:0.875 7:0.0625 10:0.75 11:0.625 12:0.25 13:0.4375 14:0.9375 18:0.4375 19:0.875 20:0.9375 21:1 22:0.25 28:0.4375 29:0.75 35:0.0625 36:0.875 37:0.25 43:0.3125 44:0.8125 51:0.75 52:0.4375 58:0.125 59:0.875 # 0
3.5578061036999715784201403029558e-09 2:0.125 3:0.8125 4:1 5:1 6:0.5625 10:0.75 11:0.625 12:0.25 13:0.4375 14:0.75 17:0.0625 18:0.9375 19:0.5 20:0.125 21:0.375 22:0.25 26:0.25 27:0.625 28:1 29:0.5625 36:0.125 37:1 44:0.5625 45:0.6875 51:0.3125 52:0.9375 53:0.25 59:0.8125 60:0.5625 # 0
8.7019102802419701783932940843754e-10 3:0.1875 4:0.6875 5:0.9375 6:0.0625 10:0.375 11:1 12:1 13:1 14:0.5625 17:0.125 18:1 19:1 20:1 21:0.8125 22:0.875 26:0.6875 27:0.5 28:0.0625 29:0.5625 30:0.5625 36:0.0625 37:0.9375 44:0.375 45:0.625 52:0.75 53:0.1875 60:0.8125 # 0
-2.8222810277457184212290786368539e-10 3:0.125 4:0.9375 5:0.125 11:0.625 12:0.5 14:0.5 15:0.23076923 18:0.375 19:0.75 21:0.1875 22:0.9375 25:0.125 26:0.875 27:0.0625 29:0.75 30:0.5 33:0.64285713 34:0.9375 35:0.75 36:1 37:1 38:0.35714287 41:0.1875 42:0.5 43:0.3125 44:0.6875 45:0.625 51:0.0625 52:0.9375 53:0.25 59:0.1875 60:0.5625 # 0
-1.4062925643575010674608788550281e-10 3:0.6875 4:1 5:0.125 6:0.4375 10:0.4375 11:1 12:0.4375 13:0.625 14:0.8125 17:0.125 18:1 19:0.4375 20:0.25 21:1 22:0.5625 25:0.375 26:1 27:0.8125 28:0.75 29:1 30:0.9375 33:0.071428575 34:0.6875 35:1 36:1 37:0.75 38:0.21428572 43:0.125 44:1 45:0.125 51:0.4375 52:0.75 59:0.6875 60:0.5625 # 0
-5.2552712960545457507917933081079e-10 1:0.125 2:0.625 3:0.9375 4:0.875 5:0.125 9:0.46666667 10:0.625 11:0.1875 12:0.6875 13:0.625 17:0.0625 18:0.0625 20:0.5 21:0.875 26:0.1875 27:0.5625 28:0.9375 29:0.5625 34:0.25 35:0.5 36:0.5625 37:0.9375 38:0.14285715 45:0.875 46:0.375 50:0.375 51:0.0625 53:0.8125 54:0.5 58:0.5625 59:1 60:1 61:0.75 62:0.1875 # 0
-1.5890076280920344691091212499751e-10 2:0.3125 3:0.8125 4:0.375 5:0.0625 10:0.5 11:1 12:1 13:0.9375 14:0.125 18:0.1875 19:0.8125 20:0.0625 21:0.8125 22:0.5 26:0.125 27:0.875 28:0.9375 29:0.875 30:0.125 33:0.14285715 34:0.875 35:0.9375 36:0.9375 37:0.1875 41:0.4375 42:0.6875 44:0.375 45:0.625 49:0.3125 50:0.6875 51:0.0625 52:0.0625 53:1 58:0.5 59:0.8125 60:1 61:0.8125 62:0.0625 # 0
7.2904578288800877379600840345712e-10 2:0.125 3:0.5 4:0.75 5:0.8125 6:0.125 9:0.13333334 10:1 11:0.9375 12:0.375 13:0.5 14:0.5 17:0.4375 18:0.6875 19:0.3125 20:0.125 21:0.8125 22:0.4375 25:0.375 26:0.9375 27:0.8125 28:0.9375 29:0.9375 30:0.0625 34:0.1875 35:0.125 36:0.5625 37:0.375 43:0.0625 44:0.875 45:0.0625 51:0.4375 52:0.625 59:0.8125 60:0.1875 # 0
2.285791742204102766117612472058e-11 1:0.125 2:0.8125 3:1 4:1 5:0.75 6:0.0625 9:0.13333334 10:1 11:1 12:1 13:0.9375 14:0.125 18:0.3125 19:0.75 20:1 21:0.875 28:0.625 29:0.9375 36:0.75 37:0.75 43:0.1875 44:1 45:0.5625 49:0.0625 50:0.5 51:0.8125 52:0.9375 53:0.125 57:0.2 58:0.8125 59:1 60:0.375 # 0
-4.1503572607866745830224517041577e-11 3:0.375 4:0.8125 11:0.8125 12:0.75 18:0.0625 19:0.8125 20:0.25 26:0.5625 27:0.5625 28:0.0625 29:0.5625 30:0.0625 33:0.2857143 34:0.8125 36:0.25 37:0.875 40:0.33333334 41:1 42:1 43:1 44:1 45:0.8125 48:0.60000002 49:0.5 50:0.4375 51:0.5625 52:0.875 53:0.125 59:0.625 60:0.3125 # 0
-4.9446564033197535800349808882267e-10 2:0.4375 3:1 4:0.875 5:0.125 10:0.8125 11:0.8125 12:0.5625 13:0.8125 18:0.6875 19:0.625 21:0.875 22:0.3125 26:0.3125 27:0.875 29:0.75 30:0.5625 37:0.75 38:0.5714286 44:0.25 45:1 46:0.3125 50:0.125 51:0.5 52:0.875 53:0.9375 58:0.5 59:1 60:1 61:1 62:1 63:0.26666668 # 0
8.0554202935445588105744028326093e-10 2:0.75 3:0.625 4:0.125 9:0.13333334 10:1 11:0.5 12:0.625 13:0.125 18:1 20:0.625 21:0.625 26:0.3125 27:0.625 28:0.75 29:0.9375 35:0.375 36:0.5 37:0.875 38:0.21428572 45:0.3125 46:0.75 51:0.0625 52:0.25 53:0.5625 54:0.8125 58:0.625 59:0.9375 60:1 61:0.9375 62:0.3125 # 0
-3.9946280990525492931185639214971e-10 4:0.8125 5:0.3125 11:0.5625 12:0.8125 13:0.0625 18:0.5 19:0.875 20:0.0625 21:0.3125 22:0.4375 25:0.25 26:1 27:0.875 28:0.8125 29:1 30:0.5 33:0.14285715 34:0.5 35:0.5 36:0.75 37:1 38:0.14285715 44:0.625 45:0.8125 52:0.875 53:0.5625 60:0.8125 61:0.1875 # 0
-2.5281817359643342153791935038201e-10 3:0.4375 4:0.6875 11:0.6875 12:0.3125 13:0.125 18:0.1875 19:0.875 20:0.1875 21:0.875 26:0.5 27:0.375 28:0.4375 29:0.4375 33:0.071428575 34:0.9375 35:0.25 36:0.75 37:0.5625 38:0.2857143 41:0.3125 42:1 43:1 44:1 45:0.9375 46:0.5 49:0.0625 50:0.0625 51:0.375 52:0.625 59:0.625 60:0.5625 # 0
2.2334409307519265116935597737403e-09 2:0.3125 3:0.6875 4:0.9375 5:0.3125 9:0.40000001 10:0.8125 11:0.125 12:0.1875 13:0.9375 14:0.1875 17:0.4375 18:0.8125 19:0.5 20:0.6875 21:1 22:0.5 25:0.0625 26:0.5625 27:0.75 28:0.5 29:0.5 30:0.5 36:0.0625 37:0.8125 38:0.2857143 44:0.5625 45:0.75 51:0.5 52:0.8125 58:0.4375 59:0.625 60:0.0625 # 0
-2.5054266184184238853075556601238e-10 2:0.1875 3:0.8125 4:0.625 5:0.5 6:0.5625 7:0.125 10:0.625 11:0.6875 12:0.5 13:0.6875 14:0.9375 18:0.8125 19:0.1875 20:0.0625 21:0.75 22:0.375 26:0.3125 27:0.1875 28:0.4375 29:0.875 34:0.5625 35:1 36:1 37:1 38:0.35714287 43:0.4375 44:0.6875 45:0.0625 51:0.875 52:0.375 58:0.25 59:0.9375 60:0.125 # 0
9.8840636383650299251391688762835e-10 1:0.125 2:0.5625 3:0.9375 4:0.75 5:0.125 9:0.53333336 10:0.625 12:0.4375 13:0.875 17:0.5 18:0.25 21:1 22:0.25 25:0.125 26:0.75 27:0.5625 28:0.5625 29:1 30:0.4375 34:0.0625 35:0.3125 36:0.3125 37:0.5625 38:0.5714286 45:0.25 46:0.6875 50:0.375 51:0.0625 53:0.625 54:0.5 58:0.5625 59:0.8125 60:0.875 61:0.6875 62:0.125 # 0
5.1013481722944917659573760780285e-12 1:0.125 2:0.8125 3:1 4:0.5 5:0.0625 9:0.53333336 10:0.875 11:0.625 12:1 13:0.5 17:0.6875 18:0.875 19:0.9375 20:1 21:0.5625 26:0.5 27:0.4375 28:0.375 29:1 30:0.25 37:1 38:0.2857143 42:0.0625 45:0.875 46:0.5 49:0.1875 50:1 51:0.125 52:0.625 53:0.9375 54:0.0625 57:0.2 58:0.8125 59:1 60:0.75 61:0.0625 # 0
-1.3317610815828132176908624580104e-10 2:0.5625 3:0.8125 4:0.8125 5:0.5625 6:0.0625 10:1 11:0.5625 12:0.25 13:0.875 14:0.375 18:0.125 20:0.5 21:0.8125 27:0.625 28:1 29:0.4375 35:0.125 36:0.375 37:0.9375 38:0.2857143 45:0.5 46:0.5 49:0.375 50:0.25 52:0.125 53:0.9375 54:0.25 57:0.2 58:0.625 59:0.9375 60:0.9375 61:0.4375 # 0
-2.5143181149988320598763551851117e-10 1:0.125 2:0.9375 3:0.625 9:0.46666667 10:1 11:0.3125 12:0.0625 13:0.8125 14:0.375 17:0.5625 18:1 19:0.1875 20:0.5625 21:1 22:0.25 25:0.1875 26:0.9375 27:1 28:1 29:0.6875 34:0.125 35:0.875 36:0.9375 37:0.1875 42:0.1875 43:1 44:0.5 50:0.75 51:0.9375 57:0.1 58:1 59:0.3125 # 0
-8.637026629061602042816989604308e-11 2:0.5 3:0.875 4:0.75 5:0.125 9:0.2 10:1 11:0.75 12:0.9375 13:0.375 17:0.1875 18:0.4375 19:0.4375 20:0.8125 21:0.5625 26:0.3125 27:0.9375 28:1 29:0.1875 35:0.4375 36:0.875 37:0.875 38:0.071428575 44:0.1875 45:1 46:0.3125 50:0.4375 51:0.3125 52:0.625 53:1 54:0.3125 58:0.8125 59:0.625 60:0.5 61:0.1875 # 0
-2.9787973837784250742281072717491e-10 2:0.5625 3:1 4:0.8125 5:0.125 9:0.2 10:1 11:0.5625 12:0.75 13:0.75 17:0.25 18:1 21:1 25:0.0625 26:0.5 28:0.125 29:1 36:0.3125 37:0.8125 43:0.0625 44:0.6875 45:0.5625 50:0.25 51:0.6875 52:1 53:0.625 54:0.4375 58:0.5625 59:0.75 60:0.5 61:0.5625 62:0.8125 # 0
-3.4014089226905905307730541050747e-10 2:0.4375 3:0.75 10:0.9375 11:0.9375 12:0.625 13:0.8125 17:0.3125 18:0.875 19:0.1875 20:0.1875 21:0.875 22:0.125 25:0.25 26:0.625 29:0.625 30:0.3125 33:0.21428572 34:0.5625 37:0.9375 38:0.21428572 41:0.125 42:0.5625 44:0.1875 45:1 46:0.0625 50:0.875 51:0.25 52:0.8125 53:0.5 58:0.3125 59:1 60:0.75 61:0.0625 # 0
-8.0941682041984036133159668494606e-10 2:0.25 3:0.625 4:1 5:1 6:0.6875 7:0.0625 10:0.75 11:0.8125 12:0.6875 13:0.5 14:0.4375 17:0.1875 18:1 19:1 20:1 21:0.25 25:0.3125 26:1 27:0.5625 28:0.9375 29:0.375 36:0.375 37:0.6875 44:0.6875 45:0.5 50:0.0625 51:0.5 52:0.8125 53:0.125 58:0.25 59:0.8125 60:0.25 # 0
-2.5988405919897967509223999397962e-10 2:0.375 3:0.5625 4:0.9375 5:0.875 6:0.125 9:0.53333336 10:0.8125 11:0.75 12:0.375 13:0.25 14:0.0625 17:0.625 18:0.8125 19:0.5 20:0.1875 25:0.125 26:0.6875 27:0.9375 28:1 29:0.3125 36:0.4375 37:0.75 44:0.0625 45:0.8125 51:0.0625 52:0.5625 53:0.75 58:0.5 59:0.75 60:0.625 61:0.0625 # 0
-1.0400865723116031858751656688383e-10 2:0.9375 3:0.9375 4:0.5 5:0.0625 10:0.25 11:0.375 12:0.6875 13:0.9375 14:0.125 21:1 22:0.25 26:0.25 27:0.5625 28:0.9375 29:0.8125 30:0.0625 34:0.25 35:0.75 36:1 37:0.8125 38:0.071428575 42:0.0625 44:0.125 45:0.625 46:0.5 49:0.25 50:0.6875 51:0.1875 52:0.3125 53:0.75 54:0.5 57:0.1 58:0.5625 59:0.9375 60:0.9375 61:0.625 # 0
6.4315788661080920213734802936114e-10 3:0.0625 4:0.875 5:0.75 9:0.26666668 10:0.375 11:0.9375 12:0.875 13:0.75 17:0.3125 18:1 19:1 20:0.8125 21:0.8125 22:0.0625 26:0.6875 27:1 28:1 29:1 30:0.25 35:0.1875 36:0.125 37:0.5625 38:0.5714286 45:0.5625 46:0.5 52:0.6875 53:1 54:0.25 60:0.6875 61:0.3125 62:0.0625 # 0
3.1081741163474944429375625972812e-09 2:0.125 3:0.6875 4:0.6875 5:0.125 10:0.6875 11:1 12:1 13:0.3125 18:0.625 19:1 20:1 21:0.3125 26:0.125 27:0.6875 28:0.875 29:0.5625 36:0.5 37:0.75 44:0.5 45:1 51:0.5 52:0.9375 53:0.625 58:0.0625 59:0.875 60:0.875 61:0.1875 # 0
-6.6916664515127450276564208486935e-11 2:0.5 3:0.75 4:0.75 5:0.0625 9:0.40000001 10:0.75 11:0.125 12:0.375 13:0.5 17:0.3125 18:0.6875 20:0.1875 21:1 22:0.4375 26:0.875 27:0.375 28:0.625 29:0.625 30:0.0625 34:0.375 35:1 36:0.5 42:0.4375 43:1 44:0.3125 50:0.75 51:0.625 52:0.625 58:0.6875 59:0.875 60:0.5625 # 0
-3.2493490498149169524684958573323e-10 2:0.125 3:1 4:0.875 5:0.0625 10:0.375 11:1 12:1 13:0.3125 17:0.125 18:1 19:1 20:1 21:0.1875 26:0.1875 27:0.5625 28:1 29:0.25 35:0.125 36:1 37:0.625 44:0.9375 45:1 50:0.125 51:0.5625 52:1 53:1 54:0.1875 58:0.125 59:0.875 60:1 61:0.625 62:0.0625 # 0
-1.6253631040298467885334052756018e-10 2:0.5 3:1 4:1 5:0.625 9:0.06666667 10:1 11:0.875 12:0.6875 13:1 14:0.0625 18:0.75 19:0.5 20:0.8125 21:0.9375 22:0.0625 26:0.0625 27:0.4375 28:1 29:0.4375 35:0.25 36:1 37:0.375 44:0.6875 45:0.875 51:0.25 52:0.8125 53:1 54:0.125 58:0.625 59:1 60:1 61:0.75 # 0
-7.8260717639343292043146744944653e-11 2:0.6875 3:1 4:0.6875 10:0.8125 11:0.75 12:0.875 13:0.375 18:0.375 19:0.875 20:0.625 21:0.625 27:0.0625 28:0.375 29:0.875 36:0.375 37:0.875 44:0.5625 45:0.875 50:0.5625 51:0.5625 52:0.9375 53:0.75 54:0.125 58:0.625 59:1 60:1 61:1 62:1 63:0.26666668 # 0
-4.8848894482679804772042375725187e-09 2:0.25 3:0.75 4:0.75 5:0.375 10:0.1875 11:0.375 12:0.25 13:0.5 17:0.1875 18:0.8125 19:0.375 20:0.5 21:0.1875 25:0.25 26:1 27:0.8125 28:0.75 29:0.9375 30:0.125 34:0.1875 37:0.625 38:0.5714286 45:0.5 46:0.375 50:0.4375 51:0.375 52:0.3125 53:0.875 54:0.125 58:0.1875 59:0.875 60:0.9375 61:0.375 # 0
-8.7164722171344839768314353306046e-10 2:0.125 3:0.875 4:0.6875 5:0.5 6:0.75 7:0.0625 10:0.5 11:0.625 12:0.5625 13:0.875 14:0.875 18:0.625 19:0.0625 21:0.75 22:0.25 26:0.0625 27:0.125 28:0.4375 29:0.8125 30:0.0625 34:0.0625 35:0.9375 36:1 37:1 38:0.35714287 43:0.1875 44:0.8125 45:0.125 51:0.5625 52:0.4375 59:0.9375 60:0.25 # 0
-3.4638670478353281452226590238046e-10 3:0.3125 4:0.875 5:1 6:1 7:0.3125 10:0.625 11:1 12:0.9375 13:1 14:1 15:0.53846157 17:0.25 18:0.9375 19:0.375 20:0.0625 21:1 22:0.75 26:0.125 28:0.3125 29:1 30:0.4375 36:0.25 37:1 38:0.14285715 44:0.375 45:1 46:0.0625 51:0.125 52:0.9375 53:0.875 59:0.1875 60:0.9375 61:0.4375 # 0
-5.9391089111578548323194941428857e-10 2:0.1875 3:0.625 4:0.6875 5:0.3125 9:0.53333336 10:1 11:0.625 12:0.5 13:0.3125 17:0.6875 18:0.6875 25:0.5 26:0.875 27:0.6875 28:0.5 29:0.25 34:0.1875 35:0.4375 36:0.5625 37:0.875 38:0.64285713 45:0.3125 46:0.8125 50:0.0625 51:0.25 52:0.625 53:1 54:0.3125 58:0.125 59:0.8125 60:0.625 61:0.125 # 0
4.7675390737728560280732516664728e-09 2:0.125 3:0.75 4:0.875 5:0.3125 9:0.13333334 10:0.9375 11:0.375 12:0.5 13:0.875 14:0.375 17:0.3125 18:0.5625 20:0.3125 21:1 22:0.25 25:0.3125 26:0.5625 27:0.25 28:0.9375 29:0.75 34:0.875 35:0.8125 36:1 37:0.3125 43:0.25 44:0.75 51:0.6875 52:0.3125 58:0.125 59:0.9375 60:0.25 # 0
-4.6405713244195548955405863902001e-10 2:0.625 3:0.8125 4:1 5:0.625 10:0.9375 11:0.5625 12:0.125 13:0.125 17:0.25 18:1 19:1 20:0.875 21:0.25 26:0.1875 27:0.0625 28:0.25 29:1 30:0.1875 37:0.75 38:0.5 45:0.75 46:0.4375 49:0.3125 50:0.5 52:0.25 53:0.9375 54:0.0625 57:0.1 58:0.6875 59:0.875 60:0.9375 61:0.125 # 0
-2.7086785219691504127746290315473e-09 2:0.25 3:0.875 4:0.3125 10:0.8125 11:0.4375 12:0.6875 13:0.25 14:0.125 17:0.125 18:0.8125 20:0.375 21:0.875 22:0.25 25:0.1875 26:0.5625 28:0.1875 29:0.875 30:0.4375 33:0.35714287 34:0.5 36:0.25 37:0.6875 38:0.5714286 41:0.25 42:0.5 45:0.0625 46:0.75 49:0.0625 50:0.875 51:0.125 53:0.625 54:0.4375 58:0.1875 59:0.9375 60:1 61:0.8125 62:0.125 # 0
-1.1957297715112407549337331970352e-10 2:0.5625 3:1 4:0.875 5:0.75 6:0.1875 9:0.2 10:0.8125 11:0.25 12:0.6875 13:0.5 14:0.6875 17:0.0625 18:0.9375 19:0.3125 21:0.75 22:0.25 26:0.1875 27:0.875 28:0.8125 29:0.4375 35:0.625 36:0.8125 42:0.3125 43:0.75 44:0.9375 50:0.75 51:0.125 52:0.75 58:0.625 59:1 60:0.375 # 0
-7.1951202851593445513308590669958e-10 3:0.75 4:0.9375 5:0.3125 10:0.1875 11:0.8125 12:0.5625 13:1 17:0.75 18:0.875 19:0.625 20:0.0625 21:0.875 22:0.25 25:0.1875 26:0.75 27:0.8125 28:0.6875 29:0.8125 34:0.125 35:0.625 36:1 37:0.5625 43:0.3125 44:1 45:0.5 51:0.8125 52:1 53:0.5625 59:0.75 60:0.75 61:0.125 # 0
-2.3130386982711937152515464333967e-11 4:0.375 5:0.875 6:0.125 12:0.625 13:1 14:0.25 19:0.375 20:1 21:1 22:0.125 26:0.5 27:0.9375 28:1 29:0.9375 33:0.2857143 34:1 35:0.6875 36:0.75 37:1 41:0.0625 42:0.25 43:0.0625 44:0.5 45:0.9375 52:0.5 53:0.75 60:0.375 61:1 62:0.125 # 0
7.8095293353528225703056338456135e-10 4:0.5 5:1 6:0.6875 11:0.8125 12:0.5625 13:0.5 14:0.875 15:0.07692308 18:0.625 19:0.5 21:0.3125 22:1 23:0.66666669 25:0.125 26:0.9375 27:0.5 28:0.875 29:0.875 30:0.75 33:0.14285715 34:0.75 35:0.5625 36:0.125 37:0.625 38:0.42857143 44:0.125 45:0.875 52:0.5625 53:0.4375 60:0.8125 61:0.0625 # 0
2.5566928724351956865915799923345e-09 2:0.125 3:0.9375 4:0.75 10:0.1875 11:1 12:0.875 13:0.625 19:0.3125 20:0.8125 21:1 22:0.125 29:0.75 30:0.5 37:0.4375 38:0.78571427 45:0.4375 46:0.8125 50:0.125 52:0.125 53:0.6875 54:0.6875 58:0.1875 59:0.8125 60:0.9375 61:1 62:0.375 # 0
-1.9534688954921455978511758271596e-09 2:0.4375 3:0.8125 6:0.1875 7:0.5 10:0.9375 11:0.4375 13:0.1875 14:0.9375 15:0.53846157 18:1 19:0.75 20:0.375 21:0.875 22:0.5625 26:0.375 27:0.75 28:1 29:0.75 35:0.125 36:0.875 37:0.125 43:0.5625 44:0.5625 50:0.125 51:0.8125 52:0.0625 58:0.5 59:0.3125 # 0
-3.30459077406655180369990257392e-09 2:0.0625 3:0.4375 4:0.75 5:0.4375 10:0.375 11:1 12:0.625 13:0.3125 18:0.875 19:1 20:0.875 21:0.25 26:0.1875 27:0.25 28:0.375 29:0.8125 37:0.6875 38:0.42857143 45:0.4375 46:0.5625 50:0.625 51:0.3125 52:0.125 53:0.5 54:0.6875 58:0.25 59:0.875 60:1 61:1 62:0.25 # 0
1.1484906294863990811093744783154e-10 2:0.5 3:0.875 4:0.3125 9:0.53333336 10:0.8125 11:0.3125 12:0.875 13:0.3125 17:0.5 18:0.8125 19:0.125 20:0.3125 21:0.875 22:0.1875 25:0.25 26:1 27:0.875 28:0.9375 29:1 30:0.5 34:0.125 35:0.3125 36:0.4375 37:0.625 38:0.5 44:0.1875 45:0.9375 46:0.1875 51:0.25 52:0.875 53:0.625 58:0.625 59:0.8125 60:0.375 # 0
-1.5066122448409595251817364627377e-11 2:0.9375 3:0.125 9:0.33333334 10:1 11:0.9375 12:0.6875 13:0.3125 17:0.4375 18:1 19:0.9375 20:0.75 21:0.8125 22:0.25 25:0.0625 26:0.9375 27:0.4375 34:0.3125 35:1 36:0.3125 43:0.625 44:0.875 50:0.0625 51:0.75 52:0.9375 58:0.6875 59:1 60:0.375 # 0
-4.8374357713030939859427763586708e-10 1:0.25 2:0.6875 3:0.1875 5:0.125 9:0.13333334 10:0.8125 11:0.75 12:0.3125 13:0.9375 14:0.375 18:0.6875 19:0.875 20:0.875 21:0.0625 26:0.4375 27:0.9375 28:0.0625 34:0.9375 35:0.75 36:0.3125 41:0.25 42:0.625 43:0.25 44:0.5 49:0.4375 50:0.5625 51:0.4375 52:0.5 57:0.2 58:0.875 59:0.9375 60:0.3125 # 0
-1.0749723883480458267205836454176e-09 2:0.125 3:0.8125 4:0.375 6:0.25 10:0.8125 11:0.6875 13:0.125 14:0.9375 15:0.23076923 17:0.25 18:1 19:0.125 21:0.8125 22:0.5 25:0.1875 26:1 27:1 28:0.75 29:1 30:0.4375 34:0.125 35:0.4375 36:0.9375 37:0.625 38:0.071428575 43:0.25 44:0.8125 51:0.8125 52:0.3125 58:0.125 59:0.75 # 0
-1.7624606028419538570737568717673e-10 2:0.0625 3:0.5 4:0.9375 5:1 6:0.5625 9:0.06666667 10:0.75 11:0.9375 12:0.5625 13:0.8125 14:0.875 17:0.3125 18:0.8125 19:0.125 21:0.8125 22:0.6875 25:0.1875 26:0.3125 28:0.0625 29:0.9375 30:0.4375 35:0.125 36:0.625 37:1 38:0.64285713 43:0.875 44:1 45:0.6875 46:0.0625 51:0.8125 52:0.875 59:0.75 60:0.3125 # 0
1.1726078125483529175245379688654e-09 2:0.3125 3:0.8125 4:0.75 5:0.0625 9:0.13333334 10:0.9375 11:0.3125 12:0.375 13:0.4375 17:0.375 18:0.5625 21:1 22:0.25 25:0.375 26:0.625 29:0.875 30:0.375 34:0.5625 35:0.8125 36:0.875 37:0.75 38:0.64285713 46:0.75 50:0.1875 53:0.1875 54:0.875 58:0.3125 59:0.75 60:0.8125 61:0.875 62:0.3125 # 0
2.9259138880437915121823581313023e-09 3:0.5 4:0.9375 5:1 6:0.4375 9:0.06666667 10:0.875 11:0.5625 12:0.0625 14:0.5 17:0.375 18:0.75 21:0.625 22:0.5 25:0.25 26:0.875 27:0.75 28:0.8125 29:0.875 30:0.5 36:0.0625 37:0.25 38:0.5714286 45:0.25 46:0.5 53:0.4375 54:0.5 59:0.5 60:0.75 61:0.9375 62:0.375 # 0
2.3021169890555511702076732445709e-09 2:0.4375 3:0.9375 4:0.9375 5:0.5 6:0.1875 9:0.2 10:0.875 11:0.1875 13:0.8125 14:0.5 17:0.375 18:0.625 19:0.0625 20:0.375 21:0.875 22:0.5 26:0.5 27:0.75 28:0.375 29:0.5 30:0.5 37:0.5 38:0.42857143 45:0.75 46:0.1875 52:0.4375 53:0.8125 58:0.4375 59:0.9375 60:0.875 61:0.125 # 0
3.1464359765062819396151245186517e-09 2:0.625 3:0.8125 4:0.5625 9:0.33333334 10:0.6875 11:0.0625 12:0.6875 13:0.3125 17:0.375 18:0.4375 20:0.375 21:0.875 25:0.125 26:0.875 27:0.5 28:0.5625 29:1 30:0.0625 34:0.125 35:0.5 36:0.3125 37:0.8125 38:0.2857143 45:0.4375 46:0.5625 50:0.1875 51:0.125 53:0.3125 54:0.6875 58:0.5 59:0.9375 60:0.8125 61:0.875 62:0.1875 # 0
-8.5456872755589408770217840164568e-11 2:0.875 3:1 4:0.875 5:0.3125 10:0.1875 12:0.125 13:1 14:0.1875 19:0.25 20:0.625 21:0.9375 22:0.0625 25:0.375 26:1 27:1 28:0.875 29:0.125 33:0.071428575 34:0.25 35:0.375 36:0.75 37:0.75 45:0.75 46:0.5625 50:0.625 52:0.25 53:0.875 54:0.3125 58:0.8125 59:1 60:0.8125 61:0.25 # 0
-2.3293737913560715415877982353062e-11 2:0.5625 3:1 4:0.4375 10:0.8125 11:0.9375 12:0.875 13:0.4375 18:0.9375 19:0.625 20:0.4375 21:0.9375 26:0.3125 27:0.25 28:0.3125 29:0.8125 36:0.5 37:0.75 42:0.0625 43:0.25 44:0.8125 45:0.625 50:0.75 51:1 52:1 53:0.8125 54:0.5 55:0.1 58:0.25 59:0.75 60:0.5625 61:0.5625 62:0.75 63:0.33333334 # 0
-1.1354519868640371327823126461798e-09 3:0.4375 4:0.75 5:0.4375 10:0.8125 11:0.8125 12:0.8125 13:0.75 17:0.1875 18:0.75 20:0.5625 21:0.5625 27:0.4375 28:1 29:0.5625 35:0.125 36:0.5 37:1 44:0.0625 45:0.9375 46:0.1875 51:0.75 52:0.5625 53:0.9375 58:0.0625 59:0.75 60:0.9375 61:0.3125 # 0
-4.6079686515535361236450847982637e-10 2:0.5625 3:0.9375 4:0.375 9:0.06666667 10:1 11:0.375 12:0.875 13:0.125 18:0.875 19:0.0625 20:0.5 21:0.5 26:0.4375 27:0.4375 28:0.3125 29:0.5625 36:0.5625 37:0.3125 43:0.0625 44:0.875 45:0.125 50:0.3125 51:0.9375 52:0.75 53:0.6875 54:0.375 58:0.9375 59:0.875 60:0.75 61:0.5 62:0.5 # 0
-1.8822241030968756056499567706644e-10 2:0.5 3:1 4:1 5:0.9375 9:0.2 10:1 11:0.5625 12:0.5 13:1 14:0.25 17:0.5625 18:0.5 20:0.375 21:1 22:0.125 25:0.0625 26:0.5 27:0.8125 28:1 29:1 30:0.3125 34:0.9375 35:0.75 36:1 37:0.8125 38:0.5714286 43:0.5625 44:0.9375 45:0.0625 50:0.125 51:1 52:0.25 58:0.6875 59:0.6875 # 0
1.7700988189685331087705007148837e-09 2:0.375 3:1 4:0.6875 9:0.06666667 10:1 11:0.125 12:0.75 13:0.5625 17:0.25 18:0.9375 19:0.3125 20:0.8125 21:0.625 26:0.5625 27:0.625 28:0.5625 29:0.9375 37:0.6875 38:0.35714287 45:0.4375 46:0.4375 49:0.1875 50:0.5625 51:0.0625 53:0.5 54:0.25 57:0.1 58:0.4375 59:0.875 60:1 61:0.75 62:0.0625 # 0
5.5871948605813712329344202065125e-09 3:0.0625 4:0.5625 5:0.8125 6:0.3125 10:0.1875 11:0.8125 12:0.625 13:0.75 14:0.5625 18:0.6875 19:0.5 21:0.8125 22:0.1875 25:0.0625 26:0.9375 27:0.875 28:0.6875 29:1 30:0.125 34:0.0625 35:0.5 36:0.625 37:0.875 44:0.4375 45:0.8125 52:0.625 53:0.5625 60:0.8125 61:0.3125 # 0
-6.3314481747151846822124009970265e-10 4:0.4375 5:0.9375 12:0.625 13:1 14:0.0625 18:0.125 19:0.6875 20:1 21:1 25:0.4375 26:1 27:0.875 28:0.6875 29:1 30:0.1875 33:0.071428575 34:0.125 36:0.5 37:1 38:0.21428572 44:0.25 45:1 46:0.25 52:0.25 53:1 54:0.1875 60:0.375 61:0.9375 62:0.125 # 0
-1.4212851516007469605126289842771e-09 2:0.125 3:0.6875 4:0.9375 5:0.5 10:0.875 11:0.8125 12:0.8125 13:0.5 18:0.875 19:0.5 20:0.5 21:0.25 26:0.4375 27:1 28:1 29:0.875 30:0.125 34:0.0625 35:0.25 36:0.0625 37:0.8125 38:0.42857143 45:0.4375 46:0.8125 50:0.625 51:0.4375 52:0.125 53:0.4375 54:0.75 58:0.125 59:0.625 60:0.875 61:1 62:0.4375 # 0
-1.7143473942115141275976782699606e-09 3:0.4375 4:0.8125 5:0.875 6:0.25 10:0.9375 11:0.8125 12:0.25 14:0.0625 17:0.0625 18:1 19:0.125 25:0.3125 26:1 27:0.5625 28:0.875 29:0.8125 30:0.0625 33:0.5 34:0.9375 35:0.5 36:0.0625 37:0.6875 38:0.2857143 45:0.8125 46:0.25 51:0.3125 52:0.4375 53:0.75 59:0.5 60:0.875 61:0.1875 # 0
3.4358404323840181219768456593027e-09 3:0.4375 4:0.875 5:0.4375 10:0.1875 11:0.8125 12:0.25 13:0.75 14:0.0625 18:0.8125 19:0.1875 21:0.75 22:0.25 25:0.0625 26:0.8125 28:0.375 29:1 30:0.375 34:0.9375 35:0.9375 36:0.5625 37:0.75 38:0.21428572 42:0.0625 43:0.0625 45:0.5625 46:0.125 50:0.125 51:0.5625 52:0.125 53:0.75 58:0.0625 59:0.5625 60:0.9375 61:0.4375 # 0
2.6692535785297918068095517383576e-09 2:0.1875 3:0.875 4:1 5:0.8125 6:0.375 10:0.8125 11:0.4375 12:0.0625 13:0.8125 14:1 15:0.07692308 18:0.75 19:0.3125 21:0.625 22:0.75 26:0.5 27:0.875 28:0.75 29:0.875 30:0.125 35:0.25 36:0.875 37:0.375 43:0.3125 44:0.8125 51:0.8125 52:0.375 58:0.125 59:0.6875 # 0
-7.6413220144718857283178022800504e-10 2:0.25 3:0.8125 4:1 5:1 6:0.5625 9:0.13333334 10:0.75 11:0.375 12:0.0625 13:0.75 14:0.75 17:0.0625 18:0.1875 19:0.125 20:0.9375 21:0.625 27:0.6875 28:0.5625 35:0.25 36:0.875 37:0.125 44:0.8125 45:0.625 52:0.625 53:0.6875 57:0.60000002 58:0.5625 59:0.8125 60:0.75 61:0.0625 # 0
-3.6125384692340821675017461916664e-10 1:0.125 2:0.5625 3:0.75 4:0.9375 5:0.875 6:0.25 9:0.40000001 10:0.875 11:0.25 12:0.25 13:0.875 14:0.5 17:0.1875 18:0.5 20:0.4375 21:0.9375 22:0.125 27:0.375 28:0.875 29:0.125 35:0.5 36:0.6875 43:0.0625 44:0.9375 45:0.125 50:0.3125 52:0.75 53:0.5625 58:0.6875 59:1 60:0.875 61:0.1875 # 0
-1.5421699018175315755161203124538e-10 3:1 4:0.375 11:1 12:0.875 19:0.875 20:1 27:0.9375 28:0.9375 35:0.875 36:0.9375 43:0.9375 44:0.875 51:0.8125 52:0.875 59:0.625 60:0.8125 # 0
1.0939909272582919409409948276082e-09 2:0.0625 3:0.6875 4:0.1875 10:0.8125 11:0.9375 12:0.8125 17:0.1875 18:1 19:0.125 20:0.5 21:0.3125 25:0.375 26:1 27:0.875 28:0.9375 29:0.875 30:0.125 33:0.14285715 34:0.875 35:1 36:1 37:1 38:0.35714287 42:0.0625 43:0.25 44:0.1875 45:0.5625 46:0.375 50:0.25 51:0.375 52:0.625 53:1 54:0.3125 58:0.0625 59:0.6875 60:0.625 61:0.25 # 0
-2.1338949223547189271035161754151e-10 2:0.3125 3:0.75 4:0.625 9:0.13333334 10:0.9375 11:0.875 12:1 13:0.0625 18:0.6875 19:0.1875 20:1 21:0.0625 28:0.6875 29:0.3125 36:0.4375 37:0.875 45:0.5625 46:0.625 50:0.625 51:0.4375 52:0.3125 53:0.75 54:0.75 58:0.375 59:0.875 60:1 61:0.8125 62:0.25 # 0
1.4496715018530924859178403183249e-09 3:0.125 4:0.5625 5:0.9375 6:0.5625 10:0.5 11:0.875 12:0.4375 13:0.5625 14:0.75 17:0.1875 18:1 19:0.3125 20:0.25 21:0.8125 22:0.375 25:0.125 26:0.625 27:0.75 28:0.9375 29:0.875 36:0.0625 37:0.8125 38:0.21428572 44:0.125 45:1 52:0.4375 53:0.75 60:0.75 61:0.375 # 0
-1.0150872848416892602059808690169e-11 3:0.8125 4:0.4375 9:0.33333334 10:0.875 11:1 12:1 13:0.5 17:0.75 18:0.625 20:0.375 21:1 25:0.125 26:0.875 27:0.75 28:0.3125 29:1 30:0.1875 35:0.6875 36:1 37:0.6875 42:0.125 43:0.9375 44:0.5625 45:1 46:0.3125 50:0.625 51:0.875 52:0.25 53:0.8125 54:0.75 58:0.0625 59:0.5625 60:0.875 61:1 62:0.6875 # 0
-1.7228379850135304382300421123042e-09 2:0.125 3:0.75 4:0.9375 5:0.3125 10:0.8125 11:0.3125 12:0.3125 13:0.625 14:0.25 18:0.875 19:0.0625 20:0.1875 21:0.9375 22:0.4375 26:0.75 27:0.625 28:0.625 29:0.4375 34:0.0625 35:0.9375 36:0.6875 42:0.25 43:0.875 44:0.875 50:0.375 51:0.625 52:0.75 53:0.0625 58:0.0625 59:0.9375 60:0.6875 # 0
-1.7205241890931680689794692944373e-10 2:0.5625 3:1 4:0.5 9:0.60000002 10:0.8125 11:0.25 12:0.8125 17:0.4375 18:0.375 19:0.0625 20:0.875 27:0.5625 28:1 29:0.5625 35:0.5 36:0.375 37:0.8125 38:0.42857143 45:0.25 46:0.6875 50:0.375 52:0.1875 53:0.75 54:0.3125 58:0.5625 59:1 60:1 61:0.4375 # 0
-4.589670557524553703038621989388e-10 2:0.1875 3:0.8125 4:0.9375 5:1 6:1 7:0.1875 10:0.625 11:1 12:0.8125 13:0.8125 14:0.6875 15:0.07692308 18:0.6875 19:1 20:0.6875 21:0.25 26:0.25 27:0.8125 28:1 29:0.9375 30:0.0625 35:0.125 36:0.8125 37:1 38:0.071428575 44:0.375 45:1 51:0.3125 52:0.9375 53:0.4375 58:0.1875 59:1 60:0.5625 # 0
-1.0415002168600051474746704085659e-09 2:0.75 3:0.75 4:1 5:1 6:0.5625 10:0.5 11:0.375 12:0.25 13:0.8125 14:0.5 19:0.25 20:0.5 21:1 22:0.375 25:0.1875 26:1 27:1 28:1 29:0.6875 30:0.25 34:0.1875 35:0.5625 36:0.5625 42:0.1875 43:0.875 50:0.6875 51:0.4375 58:0.875 59:0.1875 # 0
-1.9245619870336368457018102527223e-10 2:0.1875 3:0.6875 4:0.75 5:0.25 9:0.40000001 10:0.9375 11:0.375 12:0.3125 13:0.8125 17:0.4375 18:0.8125 20:0.125 21:1 22:0.0625 25:0.1875 26:1 27:1 28:1 29:0.875 34:0.9375 35:0.8125 36:0.5 37:0.8125 38:0.42857143 42:0.75 43:0.0625 45:0.1875 46:0.5625 50:0.5625 51:0.75 52:0.5 53:0.875 54:0.6875 58:0.3125 59:0.8125 60:0.75 61:0.5625 62:0.0625 # 0
-1.6245994350666644579057139474036e-11 2:0.75 3:0.3125 10:1 11:0.125 17:0.1875 18:0.75 25:0.25 26:0.75 33:0.5 34:0.875 35:1 36:0.875 37:0.1875 41:0.1875 42:1 43:0.5 44:0.5625 45:1 46:0.25 49:0.125 50:1 51:0.1875 52:0.25 53:1 54:0.25 58:0.6875 59:0.75 60:0.6875 61:0.25 # 0
-1.223461190917287215239359964914e-09 3:0.0625 4:0.4375 5:0.9375 6:0.3125 10:0.3125 11:0.8125 12:1 13:1 14:0.5 17:0.25 18:0.9375 19:0.6875 20:0.3125 21:1 22:0.4375 25:0.0625 26:0.25 28:0.1875 29:1 30:0.25 36:0.25 37:1 44:0.5 45:1 52:0.75 53:1 60:0.75 61:0.75 # 0
-1.5489647253639282450469280774397e-10 2:0.125 3:0.75 4:0.8125 5:0.25 9:0.33333334 10:1 11:0.375 12:0.0625 13:0.875 17:0.8125 18:0.6875 19:0.3125 20:0.75 21:0.9375 25:0.5625 26:1 27:1 28:1 29:0.75 33:0.071428575 34:0.75 35:0.875 36:0.1875 37:0.4375 38:0.5 42:0.5 43:0.4375 46:0.8125 50:0.5 51:0.5625 52:0.0625 53:0.75 54:0.8125 59:0.875 60:0.875 61:0.75 62:0.1875 # 0
-2.1487746549288680194955135867633e-10 2:0.25 3:0.9375 4:0.9375 5:0.5 6:0.0625 9:0.13333334 10:0.75 11:0.1875 12:0.625 13:0.875 14:0.6875 17:0.1875 18:0.875 19:0.3125 20:0.1875 21:0.6875 22:0.6875 26:0.4375 27:0.9375 28:1 29:0.875 30:0.125 34:0.3125 35:1 36:0.6875 37:0.9375 38:0.14285715 42:0.8125 43:0.0625 44:0.125 45:1 46:0.0625 50:0.625 51:0.6875 52:0.5 53:0.9375 58:0.1875 59:0.8125 60:0.875 61:0.1875 # 0
-4.1780565718573859512910113050293e-11 2:0.5625 3:0.8125 4:0.9375 5:0.625 6:0.0625 10:0.4375 11:0.25 12:0.25 13:0.75 14:0.8125 21:0.4375 22:0.6875 26:0.125 27:0.75 28:0.8125 29:0.75 30:0.125 35:0.625 36:0.9375 37:0.0625 43:0.0625 44:0.6875 45:0.5625 50:0.75 51:0.1875 52:0.1875 53:0.9375 58:0.5 59:1 60:1 61:0.1875 # 0
-2.1552324289959409584470440891281e-09 2:0.25 3:0.875 4:1 5:0.4375 9:0.06666667 10:1 11:0.875 12:0.5 13:0.3125 17:0.5 18:0.625 25:0.1875 26:0.8125 34:0.75 35:0.375 42:0.25 43:0.8125 51:1 52:0.3125 58:0.4375 59:1 60:0.25 # 0
-5.7893766578672869776072091256959e-10 2:0.1875 3:0.875 4:1 5:0.375 9:0.06666667 10:0.8125 11:0.3125 12:0.25 13:0.8125 17:0.3125 18:0.75 21:0.5625 22:0.25 25:0.3125 26:0.5625 29:0.3125 30:0.5 33:0.5714286 34:0.4375 37:0.1875 38:0.5714286 41:0.375 42:0.5625 45:0.125 46:0.5625 50:0.9375 51:0.1875 52:0.0625 53:0.5625 54:0.5 58:0.3125 59:0.9375 60:0.875 61:0.5625 # 0
-6.1190734273936085067222595516184e-10 3:0.8125 4:0.4375 10:0.3125 11:0.8125 12:0.1875 13:0.8125 14:0.125 18:0.875 19:0.375 20:0.25 21:1 25:0.3125 26:1 27:0.5625 28:0.875 29:1 30:0.625 33:0.35714287 34:1 35:0.9375 36:1 37:0.4375 38:0.14285715 43:0.625 44:0.6875 51:0.8125 52:0.375 59:1 60:0.0625 # 0
9.2075204915974557237570685528814e-10 2:0.125 3:0.5625 4:0.75 5:0.8125 6:0.1875 9:0.06666667 10:0.875 11:0.625 12:0.25 13:0.875 14:0.3125 17:0.375 18:0.75 19:0.25 20:0.5 21:1 22:0.125 25:0.0625 26:0.6875 27:0.75 28:0.75 29:1 30:0.1875 36:0.5 37:0.6875 43:0.0625 44:0.875 45:0.25 51:0.3125 52:0.875 59:0.4375 60:0.625 # 0
-2.091638423615574010591490888573e-10 1:0.25 2:0.9375 3:1 4:0.9375 5:0.1875 9:0.26666668 10:1 11:0.4375 12:0.8125 13:0.8125 18:0.4375 19:0.75 20:1 21:0.5 26:0.4375 27:1 28:0.9375 29:0.375 35:0.25 36:0.6875 37:1 38:0.2857143 41:0.0625 45:0.875 46:0.6875 49:0.5625 50:0.5625 52:0.375 53:0.875 54:0.5625 57:0.30000001 58:0.875 59:1 60:1 61:0.8125 62:0.0625 # 0
3.6764733827818700089418440542623e-09 2:0.1875 3:0.6875 4:0.8125 5:0.5 9:0.06666667 10:0.875 11:0.3125 12:0.0625 13:0.75 14:0.1875 17:0.25 18:0.75 21:0.5 22:0.6875 25:0.0625 26:0.9375 27:0.375 28:0.25 29:0.9375 30:0.25 34:0.125 35:0.5 36:0.625 37:0.875 38:0.2857143 45:0.6875 46:0.25 51:0.125 52:0.125 53:0.6875 54:0.25 58:0.125 59:0.875 60:0.6875 61:0.4375 62:0.0625 # 0
-1.6982095309740937276642203495052e-10 2:0.125 3:0.625 4:1 5:0.1875 10:0.9375 11:1 12:1 13:0.25 17:0.1875 18:0.75 19:0.0625 20:1 21:0.9375 22:0.5625 27:0.4375 28:1 29:1 30:0.8125 35:1 36:0.9375 37:0.125 43:0.5 44:0.75 51:0.8125 52:0.5625 59:0.875 60:0.1875 # 0
-2.3289284981911001143132258898755e-10 2:0.75 3:1 4:0.375 9:0.46666667 10:0.75 11:0.25 12:0.875 17:0.6875 18:0.875 20:0.375 21:0.25 25:0.375 26:0.5 28:0.4375 29:0.25 36:0.625 37:0.1875 43:0.3125 44:0.8125 50:0.1875 51:0.875 52:0.625 58:0.875 59:0.8125 60:0.75 61:0.9375 62:0.8125 63:0.06666667 # 0
2.5887349868426297970429160482568e-10 2:0.5625 3:0.875 4:0.5625 9:0.40000001 10:0.9375 11:0.3125 12:1 13:0.375 17:0.3125 18:0.875 19:0.0625 20:0.375 21:0.8125 26:0.625 27:0.875 28:0.8125 29:1 35:0.3125 36:0.3125 37:0.75 38:0.14285715 45:0.5625 46:0.3125 50:1 51:0.5625 52:0.4375 53:0.625 54:0.5 58:0.375 59:0.625 60:0.875 61:1 62:0.3125 # 0
-1.0013917789207707974052105114949e-10 2:0.9375 3:0.9375 4:0.125 9:0.26666668 10:1 11:0.6875 12:0.8125 13:0.0625 17:0.1875 18:0.9375 19:0.3125 20:0.9375 21:0.375 26:0.1875 27:0.0625 28:0.5 29:0.75 36:0.375 37:0.9375 44:0.5625 45:0.75 50:0.3125 51:0.5625 52:1 53:0.625 54:0.0625 58:0.8125 59:1 60:1 61:1 62:1 63:0.40000001 # 0
-1.9744331456043423167262871155761e-10 1:0.25 2:0.5 3:0.9375 4:0.9375 5:0.1875 9:0.73333335 10:1 11:0.75 12:0.9375 13:0.75 17:0.25 18:0.4375 20:0.625 21:0.875 28:0.5 29:1 36:0.4375 37:1 38:0.14285715 44:0.0625 45:0.9375 46:0.5 50:0.0625 51:0.375 52:0.6875 53:1 54:0.4375 58:0.5 59:1 60:0.625 61:0.3125 # 0
-1.9958918662678834241466402280013e-10 3:0.6875 4:0.625 5:0.3125 6:0.5 7:0.3125 10:0.3125 11:0.875 12:0.8125 13:1 14:0.8125 15:0.23076923 18:0.75 19:0.3125 20:0.0625 21:0.9375 22:0.1875 26:0.4375 27:0.0625 28:0.5625 29:0.5625 34:0.5625 35:1 36:1 37:1 38:0.42857143 43:0.375 44:0.75 45:0.25 46:0.0625 51:0.8125 52:0.3125 58:0.125 59:0.8125 60:0.0625 # 0
-9.3845304056215183884560836338274e-10 3:0.375 4:0.9375 5:0.375 11:0.75 12:0.625 13:0.8125 19:0.6875 20:0.9375 21:0.875 26:0.5625 27:0.6875 28:0.875 33:0.2857143 34:0.6875 36:0.625 37:0.375 41:0.1875 42:0.5625 44:0.0625 45:0.875 46:0.0625 50:0.6875 51:0.5 52:0.125 53:0.5625 54:0.4375 59:0.375 60:0.75 61:0.8125 62:0.4375 # 0
-5.6241396780325035569933707672256e-09 2:0.1875 3:0.6875 4:1 5:0.9375 6:0.3125 10:0.625 11:0.375 12:0.25 13:0.75 14:0.625 21:0.75 22:0.5 25:0.25 26:0.75 27:0.625 28:0.75 29:1 30:0.1875 33:0.14285715 34:0.5 35:0.3125 36:1 37:0.5625 43:0.375 44:0.6875 51:0.8125 52:0.375 59:0.9375 60:0.0625 # 0
-2.5634766971764857792617817298551e-10 1:0.25 2:0.875 3:0.875 4:0.0625 9:0.60000002 10:0.8125 11:0.8125 12:0.375 17:0.5625 18:0.3125 19:0.1875 20:0.625 26:0.0625 27:0.1875 28:0.5625 35:0.5 36:0.25 42:0.125 43:0.9375 44:0.25 45:0.125 49:0.0625 50:0.8125 51:1 52:1 53:1 54:0.5625 58:0.8125 59:0.5 60:0.5 61:0.4375 62:0.125 # 0
-2.070630477380261957219654981441e-11 2:0.4375 3:0.6875 4:0.9375 5:0.375 9:0.2 10:1 11:0.9375 12:0.75 13:0.25 17:0.3125 18:1 19:0.8125 20:0.875 21:0.5 25:0.375 26:0.9375 27:0.6875 28:0.5 29:0.9375 30:0.375 37:0.5 38:0.5714286 45:0.25 46:0.5 50:0.8125 51:0.5625 52:0.5 53:0.8125 54:0.3125 58:0.375 59:0.6875 60:0.875 61:0.5625 # 0
-2.8254717300692852870502585376552e-10 2:0.5 3:0.8125 4:0.9375 5:0.625 6:0.1875 10:0.8125 11:0.9375 12:0.75 13:0.75 14:0.5625 17:0.1875 18:0.875 19:0.4375 25:0.4375 26:0.5 27:0.25 28:0.125 33:0.14285715 34:1 35:1 36:0.9375 42:0.0625 43:0.3125 44:0.8125 51:0.625 52:0.375 58:0.375 59:0.8125 60:0.0625 # 0
-7.7394557041793043447815286930503e-10 2:0.5 3:0.8125 4:0.5 9:0.26666668 10:0.8125 11:0.375 12:0.875 13:0.1875 17:0.4375 18:0.5 20:0.75 21:0.3125 25:0.1875 26:0.625 27:0.5 28:1 29:0.0625 35:0.3125 36:0.875 37:0.75 45:0.8125 46:0.5 50:0.625 51:0.625 53:0.375 54:0.75 58:0.25 59:0.9375 60:1 61:1 62:0.375 # 0
2.2627449406028317231155986294518e-10 3:0.3125 4:0.5625 5:0.8125 6:0.875 7:0.375 10:0.25 11:1 12:0.5 13:0.25 14:0.625 15:0.69230771 18:0.375 19:1 20:1 21:1 22:0.9375 23:0.66666669 26:0.0625 27:0.6875 28:0.75 29:1 30:0.375 36:0.125 37:1 38:0.14285715 44:0.625 45:0.375 51:0.125 52:0.9375 59:0.3125 60:0.875 # 0
2.0323860586691070033932900607693e-09 2:0.4375 3:0.8125 4:0.3125 9:0.26666668 10:0.875 11:0.25 12:0.875 13:0.8125 18:0.8125 19:0.5 20:0.75 21:1 22:0.25 26:0.3125 27:0.75 28:0.6875 29:0.375 30:0.375 37:0.3125 38:0.64285713 45:0.5625 46:0.4375 50:0.125 51:0.125 52:0.5 53:1 54:0.125 58:0.625 59:1 60:0.75 61:0.1875 # 0
7.3534151162648841449040100446961e-10 2:0.0625 3:0.6875 4:1 5:0.5625 10:0.8125 11:0.6875 12:0.375 13:0.625 17:0.25 18:0.875 20:0.5625 21:0.6875 25:0.4375 26:0.9375 27:0.9375 28:1 29:0.9375 30:0.0625 34:0.4375 35:0.375 37:0.875 38:0.5714286 45:0.9375 46:0.3125 51:0.1875 52:0.625 53:0.9375 54:0.125 58:0.125 59:0.75 60:0.625 61:0.0625 # 0
-9.0021108524254766835782326327283e-10 1:0.125 2:0.6875 3:0.75 4:0.75 5:0.8125 6:0.125 9:0.46666667 10:1 11:0.5625 12:0.5 13:0.5 14:0.125 17:0.4375 18:0.875 19:0.5 20:0.5 21:0.0625 25:0.1875 26:0.9375 27:0.6875 28:0.6875 29:0.8125 36:0.25 37:1 44:0.5625 45:0.8125 50:0.125 51:0.6875 52:0.875 53:0.25 58:0.75 59:0.5625 60:0.0625 # 0
5.3526238467578784687653428974721e-10 2:0.5 3:1 4:0.375 9:0.13333334 10:0.875 11:0.5 12:0.75 13:0.125 17:0.4375 18:0.875 19:0.5625 20:0.9375 21:0.5625 25:0.0625 26:0.75 27:0.8125 28:0.4375 29:0.875 37:0.6875 38:0.2857143 45:0.5 46:0.5 50:0.125 51:0.25 52:0.3125 53:0.8125 54:0.4375 58:0.375 59:0.9375 60:0.9375 61:0.625 # 0
-1.8323864797247136221714230460257e-09 1:0.125 2:0.5625 3:0.8125 4:0.4375 9:0.46666667 10:0.75 11:0.375 12:0.9375 13:0.375 18:0.0625 19:0.25 20:0.8125 21:0.625 26:0.25 27:1 28:1 29:0.8125 36:0.125 37:0.8125 38:0.42857143 45:0.625 46:0.5 50:0.5625 51:0.4375 52:0.5625 53:0.9375 54:0.0625 58:0.8125 59:0.9375 60:0.5625 61:0.0625 # 0
-2.0243075443216167568525715290164e-10 4:0.75 5:0.1875 11:0.125 12:0.9375 19:0.5625 20:0.5625 26:0.1875 27:0.9375 29:0.1875 30:0.625 33:0.071428575 34:0.875 35:0.1875 37:0.875 38:0.42857143 41:0.625 42:1 43:0.9375 44:0.8125 45:1 46:0.0625 49:0.5625 50:0.625 51:0.5 52:0.875 53:0.6875 60:0.75 61:0.125 # 0
5.1877467175861693763571933575747e-09 3:0.3125 4:0.75 5:0.6875 6:0.0625 10:0.1875 11:0.875 12:0.375 13:0.4375 14:0.6875 17:0.3125 18:1 19:0.125 20:0.0625 21:0.5625 22:0.5625 25:0.5 26:0.875 27:0.5 28:0.875 29:1 30:0.0625 33:0.071428575 34:0.4375 35:0.5 36:0.8125 37:0.625 43:0.0625 44:0.875 45:0.25 51:0.3125 52:0.8125 59:0.6875 60:0.4375 # 0
5.6425413377890523192715702227953e-11 3:0.5625 4:0.75 5:0.3125 11:1 12:0.5625 13:0.9375 14:0.125 19:1 20:0.375 21:1 22:0.25 27:0.25 28:1 29:1 30:0.5 36:0.125 37:0.9375 38:0.2857143 45:0.625 46:0.4375 50:1 51:0.6875 52:0.1875 53:0.8125 54:0.25 58:0.1875 59:0.375 60:0.8125 61:0.9375 62:0.125 # 0
-1.4771296718661743908431561692507e-10 2:0.4375 3:0.9375 4:0.25 10:0.875 11:1 12:0.75 18:0.75 19:0.375 20:1 27:0.625 28:1 29:0.125 35:0.5 36:0.875 37:0.9375 38:0.21428572 45:0.5625 46:0.6875 50:0.3125 51:0.5625 52:0.5625 53:0.9375 54:0.6875 58:0.5625 59:0.875 60:0.75 61:0.5625 62:0.0625 # 0
-3.634937201752762939855718764059e-10 3:0.3125 4:0.9375 5:1 6:0.375 9:0.06666667 10:0.9375 11:0.9375 12:0.625 13:0.9375 14:0.875 18:0.0625 21:0.5 22:0.75 27:0.125 28:0.3125 29:0.9375 30:0.5625 35:0.5 36:1 37:1 38:0.42857143 44:0.5 45:0.8125 52:0.75 53:0.5 59:0.125 60:0.8125 61:0.125 # 0
-4.8726472299869232955796461269501e-10 3:0.125 4:0.6875 5:0.8125 6:0.125 10:0.125 11:0.8125 12:1 13:1 14:0.125 17:0.1875 18:0.9375 19:0.875 20:0.8125 21:1 26:0.375 28:0.9375 29:0.5625 36:1 37:0.375 43:0.25 44:1 51:0.3125 52:1 53:0.1875 59:0.1875 60:1 61:0.375 # 0
-5.0170145941342929582335266312809e-10 2:0.0625 3:0.875 4:0.9375 5:0.5625 6:0.0625 9:0.06666667 10:0.5625 11:0.875 12:0.0625 13:0.4375 14:0.5 17:0.4375 18:1 19:0.375 21:0.6875 22:0.375 26:0.5 27:0.875 28:0.8125 29:0.625 34:0.0625 35:0.875 36:0.9375 37:0.4375 42:0.6875 43:0.4375 44:0.0625 45:1 46:0.0625 50:0.6875 51:0.375 53:0.8125 54:0.1875 58:0.1875 59:0.8125 60:0.875 61:0.6875 # 0
-2.8534649915241260698118656846927e-10 2:0.25 3:0.875 4:0.75 5:0.0625 10:0.6875 11:0.6875 12:0.625 13:0.3125 20:0.75 21:0.5625 27:0.4375 28:1 29:0.75 30:0.125 36:0.25 37:0.625 38:0.71428573 42:0.0625 43:0.0625 45:0.1875 46:0.875 50:0.6875 51:0.375 52:0.1875 53:0.75 54:0.8125 58:0.375 59:0.875 60:1 61:0.6875 62:0.0625 # 0
-1.6726082498123025212774639590104e-09 3:0.4375 4:0.3125 6:0.0625 10:0.3125 11:0.8125 12:0.0625 14:0.875 15:0.30769232 17:0.0625 18:1 19:0.1875 21:0.5625 22:0.4375 25:0.1875 26:1 27:0.4375 28:0.25 29:1 30:0.1875 33:0.14285715 34:0.9375 35:1 36:1 37:0.875 38:0.2857143 44:0.875 45:0.375 51:0.1875 52:1 53:0.0625 59:0.5 60:0.4375 # 0
-1.6726712792077442860088510044646e-10 3:0.5625 4:0.75 10:0.25 11:1 12:0.375 17:0.1875 18:0.9375 19:0.625 21:0.625 22:0.4375 25:0.625 26:0.875 28:0.375 29:1 30:0.25 33:0.71428573 34:0.9375 35:0.75 36:0.875 37:0.8125 42:0.3125 43:0.5625 44:1 45:0.4375 51:0.3125 52:1 53:0.125 59:0.5625 60:0.75 # 0
-5.1617005151267418437914982873478e-10 2:0.25 3:0.875 4:0.9375 5:0.3125 9:0.46666667 10:0.875 11:0.4375 12:0.375 13:1 17:0.625 18:0.375 21:0.6875 22:0.1875 25:0.25 26:0.125 28:0.0625 29:0.875 36:0.625 37:0.4375 43:0.3125 44:0.8125 45:0.0625 50:0.375 51:1 52:0.5 58:0.3125 59:0.5625 60:0.75 61:0.75 62:1 63:0.13333334 # 0
-1.1919451408633648693511056129539e-09 2:0.25 3:1 4:0.8125 5:1 6:0.8125 10:0.75 11:0.6875 12:0.3125 13:0.25 14:0.125 17:0.0625 18:1 19:0.0625 20:0.5625 21:0.5 22:0.125 25:0.5 26:1 27:0.875 28:0.625 29:0.8125 30:0.375 33:0.071428575 34:0.25 37:0.5625 38:0.42857143 44:0.3125 45:0.6875 46:0.0625 50:0.0625 51:0.375 52:0.875 53:0.25 58:0.375 59:0.9375 60:0.3125 # 0
-1.0307494490738704016270839915908e-10 2:0.125 3:1 4:0.5625 10:0.5 11:1 12:0.9375 17:0.375 18:1 19:1 20:0.9375 21:0.0625 27:0.3125 28:1 29:0.5 36:0.875 37:0.875 44:0.125 45:1 46:0.375 50:0.0625 51:0.25 52:0.4375 53:1 54:0.8125 59:0.6875 60:1 61:1 62:0.9375 63:0.06666667 # 0
-7.3060312982599700046384591614916e-10 2:0.125 3:0.75 4:1 5:0.4375 11:0.625 12:1 13:0.1875 19:0.1875 20:0.9375 21:0.3125 28:0.375 29:0.9375 30:0.1875 37:0.5 38:1 45:0.6875 46:1 51:0.1875 52:0.8125 53:1 54:0.5625 58:0.375 59:1 60:0.75 61:0.5 62:0.0625 # 0
-2.3132557881615104843236093652882e-10 2:0.125 3:0.6875 4:1 5:1 6:1 7:0.75 10:0.4375 11:0.9375 12:0.5625 13:0.5 14:0.75 15:1 21:0.0625 22:0.875 23:0.83333331 29:0.6875 30:0.5625 36:0.375 37:0.8125 43:0.0625 44:0.875 45:0.1875 51:0.625 52:0.5625 58:0.0625 59:1 60:0.3125 # 0
-3.9839576735868079826484401506734e-10 2:0.3125 3:0.9375 4:0.8125 5:0.4375 9:0.26666668 10:0.9375 11:0.5 12:0.4375 13:1 14:0.25 17:0.375 18:0.75 19:0.0625 20:0.625 21:0.875 22:0.0625 27:0.75 28:0.75 29:0.125 35:0.875 36:0.6875 37:0.1875 43:0.0625 44:0.625 45:0.875 52:0.25 53:0.875 54:0.5 58:0.25 59:1 60:1 61:0.875 62:0.25 # 0
-5.7946638398546510219419964514401e-11 2:0.5625 3:1 4:0.9375 5:0.25 10:0.75 11:0.875 12:0.75 13:1 14:0.0625 19:0.625 20:1 21:0.875 26:0.125 27:1 28:1 29:0.625 30:0.0625 35:0.25 36:0.5 37:0.8125 38:0.9285714 45:0.25 46:1 47:0.5 50:0.5625 51:0.375 52:0.5625 53:0.9375 54:0.9375 58:0.625 59:1 60:1 61:0.875 62:0.1875 # 0
-1.3125660066988179806219561147841e-10 2:0.0625 3:0.875 4:0.8125 5:0.0625 10:0.75 11:1 12:1 13:0.75 17:0.0625 18:0.6875 19:0.875 20:0.6875 21:1 22:0.3125 25:0.1875 26:0.5 27:1 28:0.125 29:0.5 30:0.625 34:0.3125 35:0.875 37:0.5 38:0.5 42:0.4375 43:0.75 45:0.9375 46:0.1875 50:0.4375 51:0.875 52:0.6875 53:0.6875 58:0.125 59:1 60:0.8125 61:0.125 # 0
3.8523071769367075773610495603673e-10 2:0.0625 3:0.5 4:0.8125 5:0.75 6:0.0625 9:0.06666667 10:0.9375 11:0.5 12:0.25 13:0.875 14:0.375 17:0.375 18:0.625 20:0.0625 21:0.625 22:0.5 25:0.4375 26:0.75 27:0.3125 28:0.6875 29:1 30:0.4375 33:0.14285715 34:0.6875 35:0.75 36:0.625 37:1 38:0.14285715 44:0.5625 45:0.625 51:0.25 52:1 53:0.0625 59:0.75 60:0.4375 # 0
-2.9633560185752565070682062556306e-10 1:0.375 2:0.75 3:0.75 4:0.1875 9:0.53333336 10:0.625 11:0.6875 12:0.5625 18:0.125 19:0.875 20:0.25 26:0.75 27:0.8125 28:0.0625 34:0.1875 35:0.8125 36:0.9375 37:0.1875 44:0.4375 45:0.875 46:0.0625 49:0.125 50:0.25 51:0.25 52:0.1875 53:0.6875 54:0.4375 57:0.5 58:0.75 59:0.75 60:0.875 61:1 62:0.5 # 0
3.3790720342587408742494818214444e-10 2:0.5 3:1 4:0.5 9:0.40000001 10:0.875 11:0.3125 12:0.8125 13:0.375 17:0.4375 18:0.75 19:0.125 20:0.4375 21:1 22:0.125 26:0.75 27:1 28:1 29:1 30:0.375 35:0.1875 36:0.1875 37:0.5625 38:0.5714286 44:0.3125 45:1 46:0.1875 50:0.1875 51:0.5625 52:1 53:0.5 58:0.625 59:0.6875 60:0.25 # 0
-4.7804463438054626071144337300469e-10 2:0.625 3:0.5 4:0.625 5:0.75 6:0.375 9:0.13333334 10:1 11:0.875 12:0.75 13:0.9375 14:0.6875 17:0.1875 18:0.5625 19:0.125 20:0.25 21:0.875 22:0.125 27:0.0625 28:0.875 29:0.25 35:0.3125 36:0.875 42:0.0625 43:0.8125 44:0.375 49:0.0625 50:0.75 51:1 52:0.0625 58:0.875 59:0.625 # 0
-2.4902833312866267655639786712839e-10 2:0.3125 3:0.9375 4:0.9375 5:0.6875 10:1 11:0.3125 13:0.6875 14:0.3125 18:0.9375 19:0.1875 21:0.75 22:0.625 26:0.3125 27:0.8125 29:0.75 30:0.375 35:0.625 36:1 37:0.5625 43:0.625 44:1 45:0.25 50:0.375 51:0.75 52:0.5 53:0.5625 58:0.375 59:1 60:0.75 61:0.25 # 0
-1.0162869035397717870335722972866e-10 2:0.5 3:0.875 4:0.8125 5:0.8125 6:0.625 9:0.26666668 10:1 11:0.8125 12:0.8125 13:1 14:0.5625 17:0.25 18:1 19:0.125 20:0.375 21:1 22:0.0625 27:0.0625 28:0.875 29:0.3125 35:0.375 36:0.9375 42:0.0625 43:0.9375 44:0.375 50:0.6875 51:1 52:0.1875 58:0.6875 59:0.6875 60:0.0625 # 0
-5.0761109764880280878542491700568e-10 4:0.4375 5:0.8125 6:0.125 12:0.5 13:1 14:0.25 17:0.1875 18:0.5 19:0.5625 20:0.9375 21:0.9375 22:0.0625 25:0.25 26:0.75 27:0.6875 28:0.875 29:0.75 36:0.75 37:0.75 44:0.6875 45:0.8125 52:0.5 53:1 54:0.3125 60:0.375 61:1 62:0.3125 # 0
-3.798910851889669219084414805601e-10 2:0.0625 3:0.875 4:0.625 10:0.1875 11:1 12:1 13:0.0625 18:0.1875 19:1 20:0.8125 26:0.3125 27:1 28:0.5625 34:0.375 35:1 36:0.625 42:0.25 43:1 44:0.5625 50:0.1875 51:1 52:0.375 58:0.0625 59:0.75 60:0.375 # 0
-5.0476812290893343851521846726401e-11 2:0.75 3:0.6875 9:0.53333336 10:1 11:0.25 13:0.3125 14:0.1875 17:0.6875 18:1 20:0.25 21:1 22:0.5625 25:0.6875 26:1 27:0.5 28:0.8125 29:0.875 30:0.0625 33:0.14285715 34:0.8125 35:1 36:1 37:0.5 42:0.0625 43:0.9375 44:0.625 50:0.3125 51:1 52:0.1875 58:0.75 59:0.75 # 0
-7.0056069596373221110618614978702e-12 3:0.25 4:0.9375 5:0.1875 11:0.75 12:0.5 14:0.625 15:0.07692308 18:0.5 19:0.6875 21:0.375 22:0.875 25:0.3125 26:0.9375 27:0.8125 28:0.875 29:1 30:0.9375 33:0.5 34:0.9375 35:0.75 36:0.625 37:1 38:0.21428572 44:0.5625 45:0.5625 52:0.9375 53:0.0625 59:0.375 60:0.75 # 0
-2.8533282875819342885899017382722e-10 2:0.125 3:0.625 4:0.4375 9:0.2 10:1 11:0.6875 12:0.5 13:0.375 17:0.25 18:0.8125 21:0.5 25:0.25 26:1 27:0.5625 28:0.6875 29:0.6875 34:0.625 35:1 36:1 37:0.9375 38:0.14285715 42:0.25 43:1 44:0.25 45:0.1875 46:0.5 50:0.5 51:0.5625 53:0.125 54:0.5625 58:0.1875 59:0.6875 60:0.5 61:0.5 62:0.25 # 0
-1.6080769750999933776170654660669e-10 2:0.375 3:0.75 4:0.875 5:0.625 6:0.0625 9:0.13333334 10:0.8125 11:0.25 13:0.625 14:0.5625 17:0.125 18:0.875 20:0.1875 21:0.875 22:0.375 25:0.0625 26:0.875 27:0.6875 28:0.875 29:0.3125 34:0.5625 35:1 36:0.375 41:0.125 42:0.875 43:0.625 44:0.75 49:0.125 50:0.6875 51:0.0625 52:0.875 58:0.6875 59:0.8125 60:0.5625 # 0
-4.1169891840452016068126052684702e-10 2:0.6875 3:0.9375 4:0.625 9:0.13333334 10:0.8125 12:0.5625 13:0.1875 17:0.1875 18:0.75 20:0.625 26:0.6875 27:0.75 28:0.75 35:0.6875 36:0.875 37:0.375 41:0.0625 42:0.5625 43:0.3125 45:0.625 46:0.3125 49:0.25 50:0.625 53:0.5 54:0.25 57:0.1 58:0.875 59:0.6875 60:0.875 61:0.625 # 0
-1.4156117780919385237023459303852e-11 2:0.375 3:1 4:0.8125 5:0.125 9:0.06666667 10:0.6875 11:1 12:0.9375 13:0.1875 17:0.6875 18:1 19:1 20:1 21:0.125 25:0.375 26:0.6875 27:0.6875 28:1 29:0.75 30:0.0625 35:0.0625 36:0.875 37:1 38:0.5 44:0.375 45:1 46:0.8125 52:0.4375 53:1 54:1 55:0.30000001 58:0.125 59:0.75 60:1 61:0.9375 62:0.5 63:0.06666667 # 0
-7.3828006384073391492315111515887e-12 2:0.5625 3:1 4:0.375 10:0.9375 11:0.625 12:0.9375 13:0.125 18:0.3125 19:0.125 20:1 21:0.125 26:0.125 27:0.4375 28:1 29:0.1875 33:0.5 34:1 35:1 36:1 37:1 38:0.5714286 41:0.0625 42:0.3125 43:0.875 44:0.375 46:0.0625 50:0.5625 51:0.75 58:0.625 59:0.5 # 0
-1.8455513498631806741615501713313e-10 3:0.5625 4:0.875 10:0.3125 11:1 12:0.25 13:0.25 14:0.5625 17:0.25 18:1 19:0.1875 21:0.8125 22:0.5625 25:0.375 26:1 27:0.9375 28:0.75 29:1 30:0.8125 34:0.5 35:0.6875 36:0.9375 37:0.875 38:0.21428572 44:1 45:0.3125 51:0.375 52:0.8125 59:0.5625 60:0.625 # 0
-1.2589336368331083381662989582788e-11 3:0.375 4:0.625 5:0.0625 6:0.9375 7:0.375 10:0.3125 11:1 12:0.25 13:0.5 14:0.9375 15:0.07692308 17:0.0625 18:0.9375 19:0.5 20:0.125 21:0.9375 22:0.5 25:0.25 26:1 27:0.875 28:0.8125 29:0.9375 33:0.071428575 34:0.9375 35:1 36:1 37:0.8125 42:0.1875 43:0.625 44:0.9375 51:0.6875 52:0.875 53:0.0625 59:0.625 60:0.9375 # 0
3.7679944197836897629124705417212e-10 2:0.0625 3:0.4375 4:0.75 5:0.875 6:0.3125 10:0.5 11:0.8125 12:0.0625 13:0.5 14:0.5 17:0.125 18:1 19:0.375 20:1 21:1 22:0.5625 26:0.4375 27:0.5 28:0.375 29:0.75 30:0.625 37:0.75 38:0.5 45:1 46:0.125 52:0.5625 53:0.625 59:0.5 60:0.6875 61:0.25 # 0
-2.2651893165816485964191112116519e-10 2:0.1875 3:0.8125 4:1 5:1 6:0.1875 10:0.5 11:0.625 12:0.3125 13:0.3125 17:0.4375 18:0.9375 25:0.625 26:0.8125 27:0.125 33:0.21428572 34:0.9375 35:0.875 36:0.0625 43:0.6875 44:0.6875 51:0.4375 52:0.8125 58:0.1875 59:1 60:0.6875 # 0
-2.6273532950293392961396956004439e-11 3:0.75 4:1 5:0.8125 10:0.375 11:1 12:0.625 13:0.3125 16:0.33333334 17:0.875 18:0.125 19:0.375 25:0.75 26:0.6875 33:0.21428572 34:0.875 35:0.6875 36:0.0625 42:0.1875 43:0.8125 44:0.6875 51:0.3125 52:1 53:0.375 59:0.8125 60:1 61:0.375 # 0
-3.0639795084582078095229240257856e-10 2:0.5 3:0.875 4:0.625 5:0.125 10:0.9375 11:0.875 12:0.6875 13:0.8125 20:0.3125 21:1 22:0.0625 28:0.6875 29:0.875 36:0.1875 37:0.9375 38:0.21428572 45:0.5625 46:0.8125 50:0.1875 51:0.5625 52:0.5 53:0.9375 54:0.6875 58:0.375 59:1 60:0.875 61:0.4375 62:0.0625 # 0
-2.3137705268894526247589900537442e-12 3:0.5625 4:0.5625 5:0.0625 10:0.625 11:1 12:0.625 13:0.75 14:0.0625 18:0.3125 19:0.875 20:0.0625 21:0.75 22:0.25 27:0.6875 28:0.9375 29:1 30:0.125 34:0.1875 35:0.75 36:1 37:0.5625 41:0.0625 42:0.75 43:0.625 44:0.25 45:1 46:0.4375 49:0.125 50:0.9375 51:0.3125 53:0.6875 54:0.75 58:0.0625 59:0.625 60:0.8125 61:0.8125 62:0.375 # 0
-3.9837289266175630852168331666322e-10 2:0.3125 3:0.9375 4:0.5625 9:0.13333334 10:0.8125 11:0.5 12:0.9375 13:0.3125 17:0.125 18:0.125 20:0.5 21:0.3125 26:0.3125 27:0.5625 28:0.9375 29:0.125 34:0.6875 35:0.9375 36:0.9375 37:0.6875 44:0.0625 45:0.875 46:0.0625 50:0.25 51:0.5625 52:0.25 53:0.6875 54:0.1875 58:0.3125 59:0.75 60:0.8125 61:0.5625 # 0
-2.3168598811404596391904756486632e-10 2:0.3125 3:0.8125 4:0.5 5:0.1875 6:0.3125 9:0.13333334 10:1 11:0.6875 12:0.1875 13:0.125 14:0.1875 17:0.4375 18:0.8125 19:0.25 20:0.25 25:0.3125 26:1 27:0.75 28:0.875 29:0.6875 36:0.125 37:0.875 38:0.14285715 45:0.8125 46:0.1875 50:0.625 51:0.25 52:0.375 53:0.8125 58:0.375 59:0.875 60:0.8125 61:0.1875 # 0
-9.5460792930340055566658330422816e-11 3:0.8125 4:0.5625 6:0.3125 7:0.0625 10:0.6875 11:0.8125 12:0.0625 13:0.25 14:0.9375 15:0.15384616 17:0.25 18:1 19:0.0625 21:0.8125 22:0.625 25:0.6875 26:0.875 27:0.5 28:0.625 29:1 30:0.25 33:0.35714287 34:0.9375 35:1 36:1 37:0.8125 38:0.14285715 43:0.4375 44:0.875 51:0.6875 52:0.5 59:0.875 60:0.125 # 0
-1.2194825722677202851918960044113e-10 3:0.3125 4:0.5 10:0.25 11:1 12:0.125 14:0.875 18:0.5625 19:0.5 21:0.5 22:0.5 25:0.125 26:0.9375 28:0.0625 29:0.9375 33:0.71428573 34:0.5625 35:0.25 36:0.5625 37:0.9375 38:0.071428575 41:0.6875 42:1 43:1 44:1 45:0.6875 46:0.0625 49:0.1875 50:0.25 51:0.4375 52:0.5625 59:0.5 60:0.3125 # 0
-5.4565814248236130707897576620031e-10 2:0.125 3:0.8125 4:0.75 5:0.25 9:0.06666667 10:0.9375 11:0.75 12:0.1875 13:0.8125 14:0.125 17:0.5 18:0.8125 19:0.5 21:0.375 22:0.25 25:0.5 26:0.25 27:0.1875 29:0.1875 30:0.5 33:0.35714287 34:0.3125 37:0.375 38:0.42857143 41:0.0625 42:0.875 43:0.0625 45:0.5 46:0.1875 50:0.5 51:0.5 52:0.3125 53:0.8125 54:0.0625 59:0.6875 60:0.9375 61:0.375 # 0
-1.2960390196509759292889411319175e-10 4:0.375 5:0.6875 11:0.1875 12:0.9375 13:0.75 18:0.3125 19:0.875 20:0.625 21:0.75 25:0.125 26:0.9375 27:0.375 28:0.3125 29:0.5625 33:0.42857143 34:0.9375 35:0.75 36:0.9375 37:1 38:0.5714286 41:0.0625 42:0.5 43:0.5 44:0.75 45:0.75 46:0.125 52:0.5 53:0.5 60:0.3125 61:0.6875 # 0
-1.2837013153675569626939251411095e-11 2:0.0625 3:0.5625 4:0.9375 5:0.4375 6:0.0625 9:0.26666668 10:0.8125 11:0.9375 12:0.8125 13:1 14:0.25 17:0.6875 18:0.8125 19:0.0625 20:0.6875 21:0.875 28:1 29:0.75 36:0.875 37:0.75 44:0.5625 45:0.875 46:0.0625 51:0.1875 52:0.8125 53:0.9375 59:0.75 60:0.8125 61:0.1875 # 0
-4.1544620191243528289533912639835e-11 2:0.8125 3:1 4:0.3125 10:1 11:0.4375 12:0.9375 13:0.3125 18:0.9375 19:0.1875 20:0.6875 21:0.5625 26:0.4375 27:0.375 28:0.5625 29:0.6875 36:0.5625 37:0.6875 44:0.75 45:0.4375 50:0.4375 51:0.5625 52:1 53:0.1875 58:0.6875 59:1 60:1 61:1 62:1 63:0.53333336 # 0
-1.0329724089075870095374968827282e-10 2:0.8125 3:0.1875 9:0.26666668 10:1 11:0.25 13:0.375 14:0.75 17:0.5625 18:0.9375 20:0.375 21:1 22:0.4375 25:0.375 26:1 27:0.6875 28:1 29:0.5625 34:0.5625 35:1 36:0.875 37:0.1875 42:0.375 43:0.9375 44:0.1875 50:0.8125 51:0.5625 58:0.9375 59:0.4375 # 0
-1.8651740831936683060975531978608e-10 2:0.375 3:0.9375 4:0.5 9:0.13333334 10:0.9375 11:0.4375 12:1 13:0.3125 17:0.375 18:0.6875 19:0.0625 20:0.625 21:0.875 22:0.125 25:0.4375 26:0.4375 29:0.625 30:0.375 33:0.5 34:0.3125 37:0.5 38:0.5714286 41:0.25 42:0.625 45:0.625 46:0.4375 50:0.75 51:0.5 52:0.25 53:0.9375 54:0.125 58:0.125 59:0.75 60:0.75 61:0.5 # 0
-1.8800372241712589604232194033393e-10 3:0.125 4:0.5625 11:0.3125 12:0.625 19:0.75 20:0.25 21:0.5 26:0.25 27:0.75 28:0.375 29:0.8125 34:0.625 35:0.5 36:0.5 37:0.625 41:0.4375 42:1 43:0.8125 44:1 45:0.9375 46:0.125 49:0.375 50:0.625 51:0.6875 52:1 53:0.5 59:0.25 60:0.8125 # 0
-6.5594755308931768623404435953731e-12 3:0.25 4:0.5 11:0.6875 12:0.5 19:0.8125 20:0.375 26:0.125 27:0.9375 28:0.125 29:0.1875 34:0.6875 35:0.625 36:0.25 37:1 38:0.14285715 41:0.6875 42:0.875 44:0.5625 45:1 46:0.125 49:0.5625 50:0.9375 51:0.75 52:0.9375 53:1 58:0.125 59:0.375 60:0.9375 61:0.375 # 0
-5.0795645796157134100914344296588e-11 3:0.5625 4:0.5625 10:0.4375 11:0.9375 12:0.1875 18:0.6875 19:0.5 26:0.875 27:0.25 28:0.125 29:0.1875 34:0.75 35:0.75 36:1 37:0.75 38:0.71428573 42:0.5625 43:0.875 44:0.5 46:0.5 47:1 50:0.25 51:0.5625 52:0.0625 53:0.125 54:0.875 55:0.5 59:0.375 60:0.6875 61:0.875 62:0.5 # 0
-1.0026586686141731889818109014974e-10 1:0.125 2:0.375 3:0.6875 4:1 5:0.375 10:0.3125 11:0.8125 12:0.6875 13:1 14:0.375 18:0.25 19:1 20:0.5 26:0.3125 27:0.9375 33:0.071428575 34:0.8125 35:0.625 36:0.25 41:0.375 42:0.625 43:0.25 44:0.5 49:0.5 50:0.4375 51:0.75 52:0.4375 57:0.2 58:0.8125 59:0.875 # 0
-5.1968142321350261503526868868603e-11 2:0.3125 3:0.75 4:0.5 5:0.125 10:0.75 11:0.375 12:0.5 13:0.8125 17:0.125 18:0.625 21:0.75 22:0.125 26:0.875 27:0.75 28:0.75 29:0.625 34:0.0625 35:0.9375 36:1 37:0.4375 42:0.875 43:0.5 45:0.5625 46:0.0625 50:0.875 51:0.125 52:0.0625 53:0.75 54:0.125 58:0.5 59:0.75 60:0.75 61:0.375 # 0
-1.5116364747714578826076553532759e-10 3:0.375 4:0.5 11:0.9375 12:0.1875 18:0.125 19:0.875 20:0.125 21:0.6875 26:0.5625 27:0.5 28:0.3125 29:0.625 34:0.875 35:0.125 36:0.5 37:0.4375 38:0.14285715 41:0.25 42:1 43:0.5625 44:0.875 45:1 46:0.5 49:0.125 50:0.5 51:0.75 52:1 53:0.3125 54:0.125 59:0.375 60:0.8125 61:0.125 # 0
-5.2397176774380426424021096566068e-12 4:0.0625 5:0.875 6:0.25 12:0.125 13:1 14:0.5 20:0.5 21:1 22:0.375 28:0.9375 29:1 30:0.3125 35:0.5 36:1 37:1 38:0.21428572 42:0.375 43:1 44:0.5625 45:1 49:0.125 50:1 51:0.5 52:0.25 53:1 57:0.2 58:0.25 60:0.125 61:0.9375 62:0.1875 # 0
-3.2683519391999149363679661496033e-12 2:0.1875 3:0.9375 4:0.5 10:0.5 11:1 12:1 13:0.4375 18:0.4375 19:0.6875 20:0.5625 21:0.75 26:0.125 27:0.3125 28:0.5625 29:0.6875 36:0.8125 37:0.4375 42:0.4375 43:0.625 44:1 45:0.25 50:0.875 51:1 52:1 53:1 54:0.9375 58:0.0625 59:0.25 60:0.25 61:0.4375 62:0.6875 63:0.06666667 # 0
-3.8253870530556548152841726819585e-11 2:0.3125 3:0.5 10:0.75 11:0.375 12:0.75 13:0.4375 17:0.125 18:0.625 19:0.375 20:0.5625 21:0.9375 22:0.0625 25:0.4375 26:0.5 29:0.75 30:0.5 33:0.5714286 34:0.5 37:0.75 38:0.42857143 41:0.3125 42:0.8125 45:0.8125 46:0.25 50:0.875 51:0.625 52:0.625 53:0.8125 58:0.25 59:0.75 60:0.6875 61:0.0625 # 0
-2.6620053717211198265760927199256e-11 1:0.125 2:0.6875 3:0.8125 4:0.3125 9:0.46666667 10:0.75 11:0.4375 12:0.9375 13:0.25 17:0.5 18:0.25 20:0.5 21:0.75 25:0.125 26:0.375 29:0.8125 35:0.0625 36:0.5 37:0.1875 43:0.6875 44:0.5 49:0.0625 50:0.75 51:1 52:0.8125 53:0.5 54:0.125 57:0.2 58:0.75 59:0.75 60:0.75 61:0.75 62:0.75 # 0
-1.8712497962939271396558398797747e-12 2:0.25 3:0.6875 4:0.875 5:0.75 9:0.26666668 10:1 11:0.5625 12:0.3125 13:1 14:0.0625 17:0.6875 18:0.5 20:0.375 21:0.8125 25:0.3125 26:0.375 27:0.0625 28:0.8125 29:0.3125 35:0.6875 36:0.5625 42:0.25 43:1 44:0.0625 50:0.625 51:0.5625 54:0.0625 58:0.1875 59:1 60:1 61:0.875 62:0.375 # 0
